FANN_FLO_2.1
num_layers=4
learning_rate=0.700000
connection_rate=1.000000
network_type=0
learning_momentum=0.000000
training_algorithm=2
train_error_function=1
train_stop_function=0
cascade_output_change_fraction=0.010000
quickprop_decay=-0.000100
quickprop_mu=1.750000
rprop_increase_factor=1.200000
rprop_decrease_factor=0.500000
rprop_delta_min=0.000000
rprop_delta_max=50.000000
rprop_delta_zero=0.100000
cascade_output_stagnation_epochs=12
cascade_candidate_change_fraction=0.010000
cascade_candidate_stagnation_epochs=12
cascade_max_out_epochs=150
cascade_min_out_epochs=50
cascade_max_cand_epochs=150
cascade_min_cand_epochs=50
cascade_num_candidate_groups=2
bit_fail_limit=3.49999994039535522461e-01
cascade_candidate_limit=1.00000000000000000000e+03
cascade_weight_multiplier=4.00000005960464477539e-01
cascade_activation_functions_count=10
cascade_activation_functions=3 5 7 8 10 11 14 15 16 17 
cascade_activation_steepnesses_count=4
cascade_activation_steepnesses=2.50000000000000000000e-01 5.00000000000000000000e-01 7.50000000000000000000e-01 1.00000000000000000000e+00 
layer_sizes=257 22 22 2 
scale_included=0
neurons (num_inputs, activation_function, activation_steepness)=(0, 0, 0.00000000000000000000e+00) (0, 0, 0.00000000000000000000e+00) (0, 0, 0.00000000000000000000e+00) (0, 0, 0.00000000000000000000e+00) (0, 0, 0.00000000000000000000e+00) (0, 0, 0.00000000000000000000e+00) (0, 0, 0.00000000000000000000e+00) (0, 0, 0.00000000000000000000e+00) (0, 0, 0.00000000000000000000e+00) (0, 0, 0.00000000000000000000e+00) (0, 0, 0.00000000000000000000e+00) (0, 0, 0.00000000000000000000e+00) (0, 0, 0.00000000000000000000e+00) (0, 0, 0.00000000000000000000e+00) (0, 0, 0.00000000000000000000e+00) (0, 0, 0.00000000000000000000e+00) (0, 0, 0.00000000000000000000e+00) (0, 0, 0.00000000000000000000e+00) (0, 0, 0.00000000000000000000e+00) (0, 0, 0.00000000000000000000e+00) (0, 0, 0.00000000000000000000e+00) (0, 0, 0.00000000000000000000e+00) (0, 0, 0.00000000000000000000e+00) (0, 0, 0.00000000000000000000e+00) (0, 0, 0.00000000000000000000e+00) (0, 0, 0.00000000000000000000e+00) (0, 0, 0.00000000000000000000e+00) (0, 0, 0.00000000000000000000e+00) (0, 0, 0.00000000000000000000e+00) (0, 0, 0.00000000000000000000e+00) (0, 0, 0.00000000000000000000e+00) (0, 0, 0.00000000000000000000e+00) (0, 0, 0.00000000000000000000e+00) (0, 0, 0.00000000000000000000e+00) (0, 0, 0.00000000000000000000e+00) (0, 0, 0.00000000000000000000e+00) (0, 0, 0.00000000000000000000e+00) (0, 0, 0.00000000000000000000e+00) (0, 0, 0.00000000000000000000e+00) (0, 0, 0.00000000000000000000e+00) (0, 0, 0.00000000000000000000e+00) (0, 0, 0.00000000000000000000e+00) (0, 0, 0.00000000000000000000e+00) (0, 0, 0.00000000000000000000e+00) (0, 0, 0.00000000000000000000e+00) (0, 0, 0.00000000000000000000e+00) (0, 0, 0.00000000000000000000e+00) (0, 0, 0.00000000000000000000e+00) (0, 0, 0.00000000000000000000e+00) (0, 0, 0.00000000000000000000e+00) (0, 0, 0.00000000000000000000e+00) (0, 0, 0.00000000000000000000e+00) (0, 0, 0.00000000000000000000e+00) (0, 0, 0.00000000000000000000e+00) (0, 0, 0.00000000000000000000e+00) (0, 0, 0.00000000000000000000e+00) (0, 0, 0.00000000000000000000e+00) (0, 0, 0.00000000000000000000e+00) (0, 0, 0.00000000000000000000e+00) (0, 0, 0.00000000000000000000e+00) (0, 0, 0.00000000000000000000e+00) (0, 0, 0.00000000000000000000e+00) (0, 0, 0.00000000000000000000e+00) (0, 0, 0.00000000000000000000e+00) (0, 0, 0.00000000000000000000e+00) (0, 0, 0.00000000000000000000e+00) (0, 0, 0.00000000000000000000e+00) (0, 0, 0.00000000000000000000e+00) (0, 0, 0.00000000000000000000e+00) (0, 0, 0.00000000000000000000e+00) (0, 0, 0.00000000000000000000e+00) (0, 0, 0.00000000000000000000e+00) (0, 0, 0.00000000000000000000e+00) (0, 0, 0.00000000000000000000e+00) (0, 0, 0.00000000000000000000e+00) (0, 0, 0.00000000000000000000e+00) (0, 0, 0.00000000000000000000e+00) (0, 0, 0.00000000000000000000e+00) (0, 0, 0.00000000000000000000e+00) (0, 0, 0.00000000000000000000e+00) (0, 0, 0.00000000000000000000e+00) (0, 0, 0.00000000000000000000e+00) (0, 0, 0.00000000000000000000e+00) (0, 0, 0.00000000000000000000e+00) (0, 0, 0.00000000000000000000e+00) (0, 0, 0.00000000000000000000e+00) (0, 0, 0.00000000000000000000e+00) (0, 0, 0.00000000000000000000e+00) (0, 0, 0.00000000000000000000e+00) (0, 0, 0.00000000000000000000e+00) (0, 0, 0.00000000000000000000e+00) (0, 0, 0.00000000000000000000e+00) (0, 0, 0.00000000000000000000e+00) (0, 0, 0.00000000000000000000e+00) (0, 0, 0.00000000000000000000e+00) (0, 0, 0.00000000000000000000e+00) (0, 0, 0.00000000000000000000e+00) (0, 0, 0.00000000000000000000e+00) (0, 0, 0.00000000000000000000e+00) (0, 0, 0.00000000000000000000e+00) (0, 0, 0.00000000000000000000e+00) (0, 0, 0.00000000000000000000e+00) (0, 0, 0.00000000000000000000e+00) (0, 0, 0.00000000000000000000e+00) (0, 0, 0.00000000000000000000e+00) (0, 0, 0.00000000000000000000e+00) (0, 0, 0.00000000000000000000e+00) (0, 0, 0.00000000000000000000e+00) (0, 0, 0.00000000000000000000e+00) (0, 0, 0.00000000000000000000e+00) (0, 0, 0.00000000000000000000e+00) (0, 0, 0.00000000000000000000e+00) (0, 0, 0.00000000000000000000e+00) (0, 0, 0.00000000000000000000e+00) (0, 0, 0.00000000000000000000e+00) (0, 0, 0.00000000000000000000e+00) (0, 0, 0.00000000000000000000e+00) (0, 0, 0.00000000000000000000e+00) (0, 0, 0.00000000000000000000e+00) (0, 0, 0.00000000000000000000e+00) (0, 0, 0.00000000000000000000e+00) (0, 0, 0.00000000000000000000e+00) (0, 0, 0.00000000000000000000e+00) (0, 0, 0.00000000000000000000e+00) (0, 0, 0.00000000000000000000e+00) (0, 0, 0.00000000000000000000e+00) (0, 0, 0.00000000000000000000e+00) (0, 0, 0.00000000000000000000e+00) (0, 0, 0.00000000000000000000e+00) (0, 0, 0.00000000000000000000e+00) (0, 0, 0.00000000000000000000e+00) (0, 0, 0.00000000000000000000e+00) (0, 0, 0.00000000000000000000e+00) (0, 0, 0.00000000000000000000e+00) (0, 0, 0.00000000000000000000e+00) (0, 0, 0.00000000000000000000e+00) (0, 0, 0.00000000000000000000e+00) (0, 0, 0.00000000000000000000e+00) (0, 0, 0.00000000000000000000e+00) (0, 0, 0.00000000000000000000e+00) (0, 0, 0.00000000000000000000e+00) (0, 0, 0.00000000000000000000e+00) (0, 0, 0.00000000000000000000e+00) (0, 0, 0.00000000000000000000e+00) (0, 0, 0.00000000000000000000e+00) (0, 0, 0.00000000000000000000e+00) (0, 0, 0.00000000000000000000e+00) (0, 0, 0.00000000000000000000e+00) (0, 0, 0.00000000000000000000e+00) (0, 0, 0.00000000000000000000e+00) (0, 0, 0.00000000000000000000e+00) (0, 0, 0.00000000000000000000e+00) (0, 0, 0.00000000000000000000e+00) (0, 0, 0.00000000000000000000e+00) (0, 0, 0.00000000000000000000e+00) (0, 0, 0.00000000000000000000e+00) (0, 0, 0.00000000000000000000e+00) (0, 0, 0.00000000000000000000e+00) (0, 0, 0.00000000000000000000e+00) (0, 0, 0.00000000000000000000e+00) (0, 0, 0.00000000000000000000e+00) (0, 0, 0.00000000000000000000e+00) (0, 0, 0.00000000000000000000e+00) (0, 0, 0.00000000000000000000e+00) (0, 0, 0.00000000000000000000e+00) (0, 0, 0.00000000000000000000e+00) (0, 0, 0.00000000000000000000e+00) (0, 0, 0.00000000000000000000e+00) (0, 0, 0.00000000000000000000e+00) (0, 0, 0.00000000000000000000e+00) (0, 0, 0.00000000000000000000e+00) (0, 0, 0.00000000000000000000e+00) (0, 0, 0.00000000000000000000e+00) (0, 0, 0.00000000000000000000e+00) (0, 0, 0.00000000000000000000e+00) (0, 0, 0.00000000000000000000e+00) (0, 0, 0.00000000000000000000e+00) (0, 0, 0.00000000000000000000e+00) (0, 0, 0.00000000000000000000e+00) (0, 0, 0.00000000000000000000e+00) (0, 0, 0.00000000000000000000e+00) (0, 0, 0.00000000000000000000e+00) (0, 0, 0.00000000000000000000e+00) (0, 0, 0.00000000000000000000e+00) (0, 0, 0.00000000000000000000e+00) (0, 0, 0.00000000000000000000e+00) (0, 0, 0.00000000000000000000e+00) (0, 0, 0.00000000000000000000e+00) (0, 0, 0.00000000000000000000e+00) (0, 0, 0.00000000000000000000e+00) (0, 0, 0.00000000000000000000e+00) (0, 0, 0.00000000000000000000e+00) (0, 0, 0.00000000000000000000e+00) (0, 0, 0.00000000000000000000e+00) (0, 0, 0.00000000000000000000e+00) (0, 0, 0.00000000000000000000e+00) (0, 0, 0.00000000000000000000e+00) (0, 0, 0.00000000000000000000e+00) (0, 0, 0.00000000000000000000e+00) (0, 0, 0.00000000000000000000e+00) (0, 0, 0.00000000000000000000e+00) (0, 0, 0.00000000000000000000e+00) (0, 0, 0.00000000000000000000e+00) (0, 0, 0.00000000000000000000e+00) (0, 0, 0.00000000000000000000e+00) (0, 0, 0.00000000000000000000e+00) (0, 0, 0.00000000000000000000e+00) (0, 0, 0.00000000000000000000e+00) (0, 0, 0.00000000000000000000e+00) (0, 0, 0.00000000000000000000e+00) (0, 0, 0.00000000000000000000e+00) (0, 0, 0.00000000000000000000e+00) (0, 0, 0.00000000000000000000e+00) (0, 0, 0.00000000000000000000e+00) (0, 0, 0.00000000000000000000e+00) (0, 0, 0.00000000000000000000e+00) (0, 0, 0.00000000000000000000e+00) (0, 0, 0.00000000000000000000e+00) (0, 0, 0.00000000000000000000e+00) (0, 0, 0.00000000000000000000e+00) (0, 0, 0.00000000000000000000e+00) (0, 0, 0.00000000000000000000e+00) (0, 0, 0.00000000000000000000e+00) (0, 0, 0.00000000000000000000e+00) (0, 0, 0.00000000000000000000e+00) (0, 0, 0.00000000000000000000e+00) (0, 0, 0.00000000000000000000e+00) (0, 0, 0.00000000000000000000e+00) (0, 0, 0.00000000000000000000e+00) (0, 0, 0.00000000000000000000e+00) (0, 0, 0.00000000000000000000e+00) (0, 0, 0.00000000000000000000e+00) (0, 0, 0.00000000000000000000e+00) (0, 0, 0.00000000000000000000e+00) (0, 0, 0.00000000000000000000e+00) (0, 0, 0.00000000000000000000e+00) (0, 0, 0.00000000000000000000e+00) (0, 0, 0.00000000000000000000e+00) (0, 0, 0.00000000000000000000e+00) (0, 0, 0.00000000000000000000e+00) (0, 0, 0.00000000000000000000e+00) (0, 0, 0.00000000000000000000e+00) (0, 0, 0.00000000000000000000e+00) (0, 0, 0.00000000000000000000e+00) (0, 0, 0.00000000000000000000e+00) (0, 0, 0.00000000000000000000e+00) (0, 0, 0.00000000000000000000e+00) (0, 0, 0.00000000000000000000e+00) (0, 0, 0.00000000000000000000e+00) (0, 0, 0.00000000000000000000e+00) (0, 0, 0.00000000000000000000e+00) (0, 0, 0.00000000000000000000e+00) (0, 0, 0.00000000000000000000e+00) (0, 0, 0.00000000000000000000e+00) (0, 0, 0.00000000000000000000e+00) (0, 0, 0.00000000000000000000e+00) (0, 0, 0.00000000000000000000e+00) (257, 11, 5.00000000000000000000e-01) (257, 11, 5.00000000000000000000e-01) (257, 11, 5.00000000000000000000e-01) (257, 11, 5.00000000000000000000e-01) (257, 11, 5.00000000000000000000e-01) (257, 11, 5.00000000000000000000e-01) (257, 11, 5.00000000000000000000e-01) (257, 11, 5.00000000000000000000e-01) (257, 11, 5.00000000000000000000e-01) (257, 11, 5.00000000000000000000e-01) (257, 11, 5.00000000000000000000e-01) (257, 11, 5.00000000000000000000e-01) (257, 11, 5.00000000000000000000e-01) (257, 11, 5.00000000000000000000e-01) (257, 11, 5.00000000000000000000e-01) (257, 11, 5.00000000000000000000e-01) (257, 11, 5.00000000000000000000e-01) (257, 11, 5.00000000000000000000e-01) (257, 11, 5.00000000000000000000e-01) (257, 11, 5.00000000000000000000e-01) (257, 11, 5.00000000000000000000e-01) (0, 11, 0.00000000000000000000e+00) (22, 11, 5.00000000000000000000e-01) (22, 11, 5.00000000000000000000e-01) (22, 11, 5.00000000000000000000e-01) (22, 11, 5.00000000000000000000e-01) (22, 11, 5.00000000000000000000e-01) (22, 11, 5.00000000000000000000e-01) (22, 11, 5.00000000000000000000e-01) (22, 11, 5.00000000000000000000e-01) (22, 11, 5.00000000000000000000e-01) (22, 11, 5.00000000000000000000e-01) (22, 11, 5.00000000000000000000e-01) (22, 11, 5.00000000000000000000e-01) (22, 11, 5.00000000000000000000e-01) (22, 11, 5.00000000000000000000e-01) (22, 11, 5.00000000000000000000e-01) (22, 11, 5.00000000000000000000e-01) (22, 11, 5.00000000000000000000e-01) (22, 11, 5.00000000000000000000e-01) (22, 11, 5.00000000000000000000e-01) (22, 11, 5.00000000000000000000e-01) (22, 11, 5.00000000000000000000e-01) (0, 11, 0.00000000000000000000e+00) (22, 11, 5.00000000000000000000e-01) (0, 11, 0.00000000000000000000e+00) 
connections (connected_to_neuron, weight)=(0, -3.17933589220046997070e-01) (1, -2.46445000171661376953e-01) (2, -1.65506288409233093262e-01) (3, -2.61204183101654052734e-01) (4, -1.06334604322910308838e-01) (5, -1.83159723877906799316e-01) (6, -1.73514351248741149902e-01) (7, -1.74451977014541625977e-01) (8, -2.12009504437446594238e-01) (9, -1.33283495903015136719e-01) (10, -1.24652706086635589600e-01) (11, -1.66947215795516967773e-01) (12, -2.63087213039398193359e-01) (13, -2.11778536438941955566e-01) (14, -2.43957862257957458496e-01) (15, -2.05645292997360229492e-01) (16, -2.50077754259109497070e-01) (17, -2.68918871879577636719e-01) (18, -2.52125054597854614258e-01) (19, -2.43415117263793945313e-01) (20, -2.37439796328544616699e-01) (21, -1.66131988167762756348e-01) (22, -8.74701291322708129883e-02) (23, -2.59708523750305175781e-01) (24, -1.37635752558708190918e-01) (25, -1.41657143831253051758e-01) (26, -2.54405498504638671875e-01) (27, -9.18824374675750732422e-02) (28, -1.77416905760765075684e-01) (29, -1.87839284539222717285e-01) (30, -2.52555385231971740723e-02) (31, 8.74352678656578063965e-02) (32, -2.94713586568832397461e-01) (33, -1.42836257815361022949e-01) (34, -4.53247636556625366211e-01) (35, -2.11258322000503540039e-01) (36, -2.53407657146453857422e-01) (37, -1.98724657297134399414e-01) (38, 7.36992880702018737793e-02) (39, 1.24209403991699218750e-01) (40, 6.36193156242370605469e-02) (41, 2.21565499901771545410e-01) (42, -2.94490568339824676514e-02) (43, 1.51627529412508010864e-02) (44, 2.17877887189388275146e-03) (45, -1.89533755183219909668e-01) (46, 1.27580001950263977051e-01) (47, 3.46905142068862915039e-02) (48, 7.11172865703701972961e-03) (49, 1.06523774564266204834e-01) (50, 1.52203422039747238159e-02) (51, -2.64847907237708568573e-03) (52, 1.21028475463390350342e-01) (53, 2.36432507634162902832e-01) (54, 1.45240023732185363770e-01) (55, 3.45225855708122253418e-02) (56, 1.75021424889564514160e-01) (57, 1.30057975649833679199e-01) (58, -2.14620351791381835938e-01) (59, -2.67538934946060180664e-01) (60, 8.61412137746810913086e-02) (61, 2.42870792746543884277e-01) (62, 2.13158592581748962402e-01) (63, 1.74006775021553039551e-01) (64, 1.76923483610153198242e-01) (65, 2.01379016041755676270e-01) (66, -4.14333939552307128906e-02) (67, -1.28730580210685729980e-01) (68, 1.78961440920829772949e-01) (69, 7.90097042918205261230e-02) (70, 7.86390230059623718262e-02) (71, 1.05910867452621459961e-01) (72, -2.90404111146926879883e-01) (73, -7.39001843612641096115e-04) (74, -3.55437219142913818359e-01) (75, 3.33158560097217559814e-02) (76, 6.18022195994853973389e-02) (77, 9.81728211045265197754e-02) (78, 1.42833739519119262695e-01) (79, 1.41197025775909423828e-01) (80, -3.64066839218139648438e-01) (81, -1.37949511408805847168e-01) (82, -1.46938234567642211914e-01) (83, 7.37916767597198486328e-01) (84, 6.67273819446563720703e-01) (85, 1.52570128440856933594e-01) (86, 3.36987599730491638184e-02) (87, 1.86000272631645202637e-01) (88, -7.22056150436401367188e-01) (89, -4.02173578739166259766e-01) (90, 1.05862207710742950439e-01) (91, 7.01292753219604492188e-01) (92, 6.80335879325866699219e-01) (93, 1.38133496046066284180e-01) (94, -4.10372167825698852539e-01) (95, 6.81244162842631340027e-03) (96, 3.83293591439723968506e-02) (97, -4.45827573537826538086e-01) (98, 5.39450272917747497559e-02) (99, 8.58057260513305664063e-01) (100, 1.46257269382476806641e+00) (101, 6.27597123384475708008e-02) (102, -2.17399239540100097656e-01) (103, -4.69431132078170776367e-01) (104, -1.06509351730346679688e+00) (105, -9.43808630108833312988e-03) (106, -1.43366828560829162598e-01) (107, 7.85365283489227294922e-01) (108, 8.52743148803710937500e-01) (109, -1.14187635481357574463e-01) (110, -2.02047348022460937500e-01) (111, 1.47361233830451965332e-01) (112, 7.88098052144050598145e-02) (113, 1.93971619009971618652e-01) (114, 1.52308434247970581055e-01) (115, 8.77700507640838623047e-01) (116, 6.25989973545074462891e-01) (117, 3.80957387387752532959e-02) (118, -9.54045206308364868164e-02) (119, -2.06509116105735301971e-03) (120, -3.50879520177841186523e-01) (121, 1.89546927809715270996e-01) (122, 9.38298329710960388184e-02) (123, 4.70561444759368896484e-01) (124, 8.05841267108917236328e-01) (125, 1.24104663729667663574e-01) (126, -1.69283539056777954102e-01) (127, 6.50966656394302845001e-04) (128, -9.56442356109619140625e-02) (129, 2.07163840532302856445e-01) (130, 5.55676706135272979736e-02) (131, 9.74168241024017333984e-01) (132, 8.37948024272918701172e-01) (133, 3.97753901779651641846e-02) (134, -2.74112164974212646484e-01) (135, -4.27903503179550170898e-01) (136, -2.50455942004919052124e-02) (137, 7.80666545033454895020e-02) (138, -3.41806232929229736328e-01) (139, 8.75877857208251953125e-01) (140, 6.15344524383544921875e-01) (141, 8.39625857770442962646e-03) (142, -2.86803454160690307617e-01) (143, -3.04903298616409301758e-01) (144, 6.71180635690689086914e-02) (145, -2.83893868327140808105e-02) (146, -2.73501753807067871094e-01) (147, 5.21381914615631103516e-01) (148, 5.16652345657348632813e-01) (149, 2.75507383048534393311e-02) (150, 2.08306461572647094727e-01) (151, -1.80968809872865676880e-02) (152, 4.66114953160285949707e-02) (153, -1.28665104508399963379e-01) (154, -4.35617804527282714844e-01) (155, 9.92336928844451904297e-01) (156, 4.89696353673934936523e-01) (157, 8.03316533565521240234e-02) (158, -2.66765654087066650391e-01) (159, 1.59640297293663024902e-01) (160, 1.69540539383888244629e-01) (161, 3.36572118103504180908e-02) (162, -4.44757863879203796387e-02) (163, 8.82561445236206054688e-01) (164, 3.66660535335540771484e-01) (165, -2.30214163661003112793e-01) (166, 1.51803165674209594727e-01) (167, 7.87642374634742736816e-02) (168, 1.24665983021259307861e-01) (169, -2.01729789376258850098e-01) (170, -4.95907962322235107422e-01) (171, 1.00701892375946044922e+00) (172, 5.66678941249847412109e-01) (173, -1.14746741950511932373e-01) (174, 2.37533345818519592285e-01) (175, -5.84163106977939605713e-02) (176, 1.92208573222160339355e-01) (177, -7.19869285821914672852e-02) (178, -3.18066537380218505859e-01) (179, 9.46177423000335693359e-01) (180, 5.00590428709983825684e-02) (181, 8.46319124102592468262e-02) (182, 1.14211395382881164551e-01) (183, -2.12463110685348510742e-01) (184, -2.47509106993675231934e-01) (185, -3.20881068706512451172e-01) (186, 5.82681149244308471680e-02) (187, 6.80053830146789550781e-01) (188, 5.28830230236053466797e-01) (189, 4.68354284763336181641e-01) (190, 2.13416755199432373047e-01) (191, -3.96534651517868041992e-02) (192, -3.56085598468780517578e-02) (193, -2.22567871212959289551e-01) (194, -2.87732690572738647461e-01) (195, 6.75966799259185791016e-01) (196, 5.32102108001708984375e-01) (197, -1.49705326184630393982e-02) (198, 6.96054473519325256348e-02) (199, -1.12877607345581054688e-01) (200, -2.11836583912372589111e-03) (201, 1.13664366304874420166e-01) (202, -5.85386753082275390625e-02) (203, -4.98027205467224121094e-01) (204, -4.46751594543457031250e-01) (205, -3.61485481262207031250e-01) (206, 7.99167379736900329590e-02) (207, 1.44315138459205627441e-01) (208, 6.01593405008316040039e-02) (209, -2.01467260718345642090e-01) (210, -2.28299215435981750488e-01) (211, -1.96735620498657226563e-01) (212, -2.84332811832427978516e-01) (213, -2.40842148661613464355e-01) (214, -2.10155218839645385742e-01) (215, -1.11228026449680328369e-01) (216, 1.17379911243915557861e-01) (217, -1.98134735226631164551e-01) (218, -2.40671068429946899414e-01) (219, -1.20460264384746551514e-01) (220, -3.26697289943695068359e-01) (221, -1.62250369787216186523e-01) (222, -2.17758834362030029297e-01) (223, 2.16837078332901000977e-01) (224, -1.75972908735275268555e-01) (225, -1.79085701704025268555e-01) (226, -2.88492262363433837891e-01) (227, -3.23041319847106933594e-01) (228, -1.24340303242206573486e-01) (229, -8.08118879795074462891e-02) (230, -1.17032647132873535156e-01) (231, -5.87922967970371246338e-02) (232, -2.31918126344680786133e-01) (233, 3.08238770812749862671e-02) (234, -2.65110433101654052734e-01) (235, -2.47433573007583618164e-01) (236, -2.41325139999389648438e-01) (237, -1.11309103667736053467e-01) (238, 1.70072495937347412109e-01) (239, -4.51784074306488037109e-01) (240, 3.77083644270896911621e-02) (241, -1.72458380460739135742e-01) (242, -9.32466462254524230957e-02) (243, -1.82839944958686828613e-01) (244, -2.31730759143829345703e-01) (245, -9.59852039813995361328e-02) (246, -3.91305208206176757813e-01) (247, -3.67660164833068847656e-01) (248, 2.26684603840112686157e-02) (249, 1.15600712597370147705e-02) (250, -3.41432213783264160156e-01) (251, -3.75514239072799682617e-01) (252, -3.38050872087478637695e-01) (253, -3.24171453714370727539e-01) (254, -4.40437346696853637695e-01) (255, -4.80354338884353637695e-01) (256, -4.56642180681228637695e-01) (0, -7.38927498459815979004e-02) (1, -6.65645971894264221191e-02) (2, -4.91756945848464965820e-02) (3, -3.61399948596954345703e-02) (4, -5.19660487771034240723e-02) (5, -2.18328878283500671387e-01) (6, -1.32829830050468444824e-01) (7, -1.68517038226127624512e-01) (8, -1.50968044996261596680e-01) (9, -2.08335772156715393066e-01) (10, 6.44197221845388412476e-03) (11, 7.13776610791683197021e-03) (12, -9.14340764284133911133e-02) (13, -9.12166479974985122681e-03) (14, 1.46014571189880371094e-01) (15, 3.65195795893669128418e-02) (16, -2.42300778627395629883e-01) (17, -2.51640498638153076172e-01) (18, -2.39001914858818054199e-01) (19, -2.41840034723281860352e-01) (20, -1.89972370862960815430e-01) (21, -2.60093837976455688477e-01) (22, -7.76348188519477844238e-02) (23, 3.06476186960935592651e-02) (24, 1.14594161510467529297e-01) (25, 1.05590470135211944580e-01) (26, -3.80901783704757690430e-01) (27, -1.68896690011024475098e-02) (28, 3.22949625551700592041e-02) (29, -3.51723462343215942383e-01) (30, -5.67647993564605712891e-01) (31, -4.77151930332183837891e-01) (32, -4.06367406249046325684e-02) (33, 9.93846654891967773438e-02) (34, -3.38933527469635009766e-01) (35, -2.87832260131835937500e-01) (36, -1.94256618618965148926e-01) (37, -2.96179711818695068359e-01) (38, -2.83905863761901855469e-01) (39, -1.92179083824157714844e-01) (40, -7.35193789005279541016e-02) (41, -1.03294990956783294678e-01) (42, 1.60224571824073791504e-01) (43, 5.02869904041290283203e-01) (44, 4.98213350772857666016e-01) (45, -6.00605038926005363464e-03) (46, -3.56667101383209228516e-01) (47, -9.32593703269958496094e-01) (48, -2.86016047000885009766e-01) (49, 3.41586284339427947998e-02) (50, -3.10650244355201721191e-02) (51, 4.46525543928146362305e-01) (52, 2.03802496194839477539e-01) (53, 4.35697227716445922852e-01) (54, -2.19027116894721984863e-01) (55, -1.12457430362701416016e+00) (56, -6.16646446287631988525e-02) (57, -1.75677865743637084961e-01) (58, -5.45511960983276367188e-01) (59, 3.91586482524871826172e-01) (60, 5.43803334236145019531e-01) (61, 5.72404973208904266357e-02) (62, 2.90992408990859985352e-01) (63, 9.87779423594474792480e-02) (64, 1.29699394106864929199e-01) (65, -1.65346145629882812500e-01) (66, -6.65598511695861816406e-01) (67, 5.41326291859149932861e-02) (68, 4.02922540903091430664e-01) (69, 5.81834651529788970947e-02) (70, 3.64572629332542419434e-02) (71, -3.32420319318771362305e-01) (72, 2.14868914335966110229e-02) (73, -4.52033616602420806885e-02) (74, -5.41862010955810546875e-01) (75, 4.51327562332153320313e-01) (76, 5.72118878364562988281e-01) (77, 2.15778518468141555786e-02) (78, -1.69875342398881912231e-02) (79, -1.13122642040252685547e-01) (80, -4.85849529504776000977e-01) (81, 4.27673058584332466125e-03) (82, 3.44643473625183105469e-01) (83, 5.93773126602172851563e-01) (84, 4.56222265958786010742e-01) (85, 5.18417716026306152344e-01) (86, -2.53538429737091064453e-01) (87, -2.82965332269668579102e-01) (88, -1.53470546007156372070e-01) (89, -1.82690843939781188965e-01) (90, 4.47307527065277099609e-01) (91, 5.67745447158813476563e-01) (92, 4.72315162420272827148e-01) (93, 5.04995644092559814453e-01) (94, -2.35794842243194580078e-01) (95, 3.92178869247436523438e+00) (96, -8.33559257443994283676e-04) (97, -4.45907443761825561523e-01) (98, 3.50238353013992309570e-01) (99, 5.89321196079254150391e-01) (100, 4.27880555391311645508e-01) (101, 1.00442402064800262451e-01) (102, 8.11478495597839355469e-02) (103, 2.54588536918163299561e-02) (104, -1.82356953620910644531e-01) (105, -3.50697845220565795898e-01) (106, 3.25236827135086059570e-01) (107, 3.89329522848129272461e-01) (108, 5.30395328998565673828e-01) (109, 4.94917556643486022949e-02) (110, -2.88210343569517135620e-02) (111, 4.91282969713211059570e-01) (112, -3.39739955961704254150e-02) (113, 3.24074104428291320801e-02) (114, 3.93681973218917846680e-01) (115, 4.14370298385620117188e-01) (116, 5.05315244197845458984e-01) (117, 3.44997346401214599609e-02) (118, -1.18574477732181549072e-01) (119, 1.13591086864471435547e+00) (120, -1.32601305842399597168e-01) (121, 9.30040329694747924805e-02) (122, 4.47212129831314086914e-01) (123, 5.38855373859405517578e-01) (124, 4.44152355194091796875e-01) (125, 1.03182666003704071045e-01) (126, -1.08779035508632659912e-01) (127, 4.27988350391387939453e-01) (128, 2.61616669595241546631e-02) (129, -7.64350891113281250000e-02) (130, 3.85972946882247924805e-01) (131, 4.82052415609359741211e-01) (132, 4.24367755651473999023e-01) (133, -1.20194725692272186279e-01) (134, -2.18331411480903625488e-01) (135, -1.75762753933668136597e-02) (136, 8.45144316554069519043e-02) (137, -4.72969189286231994629e-02) (138, 2.83060729503631591797e-01) (139, 2.82569825649261474609e-01) (140, 5.62936365604400634766e-01) (141, 4.69981133937835693359e-01) (142, -1.38669386506080627441e-01) (143, 1.74681451171636581421e-02) (144, 9.81086026877164840698e-03) (145, -3.11530288308858871460e-02) (146, 2.21909686923027038574e-01) (147, 4.07425910234451293945e-01) (148, 2.85882920026779174805e-01) (149, 1.21606715023517608643e-01) (150, 1.07174672186374664307e-01) (151, 2.11178198456764221191e-01) (152, 4.40391637384891510010e-02) (153, -8.87522995471954345703e-02) (154, -5.91874063014984130859e-01) (155, 4.16001349687576293945e-01) (156, 4.28722769021987915039e-01) (157, -1.21552133932709693909e-02) (158, -8.96341353654861450195e-02) (159, 2.97108232975006103516e-01) (160, 9.53102633357048034668e-02) (161, -3.89809794723987579346e-02) (162, -5.23689568042755126953e-01) (163, 3.38662773370742797852e-01) (164, 4.57327455282211303711e-01) (165, -1.10727839171886444092e-01) (166, 2.30622012168169021606e-02) (167, 2.05861791968345642090e-01) (168, 1.09286323189735412598e-01) (169, 6.58621788024902343750e-02) (170, -4.36129093170166015625e-01) (171, 4.53947752714157104492e-01) (172, 3.51393520832061767578e-01) (173, 3.52948844432830810547e-01) (174, 4.53037545084953308105e-02) (175, 1.64238661527633666992e-01) (176, 1.83584257960319519043e-01) (177, 1.01702608168125152588e-01) (178, 3.05306106805801391602e-01) (179, 5.76709449291229248047e-01) (180, 2.76995420455932617188e-01) (181, 4.55340921878814697266e-01) (182, 8.69520977139472961426e-02) (183, 2.18837738037109375000e-01) (184, -9.88458633422851562500e-01) (185, -2.65404629707336425781e+00) (186, 3.00235986709594726563e-01) (187, 1.12467253208160400391e+00) (188, 1.16094303131103515625e+00) (189, 5.22459387779235839844e-01) (190, 2.43477582931518554688e+00) (191, 9.38012301921844482422e-02) (192, -5.73987126350402832031e-01) (193, -4.79658484458923339844e-01) (194, -5.57507753372192382813e-01) (195, 6.09994769096374511719e-01) (196, 7.74862408638000488281e-01) (197, 3.91748517751693725586e-01) (198, -5.17611026763916015625e-01) (199, 5.04243850708007812500e-01) (200, -3.44874590635299682617e-01) (201, -4.93605881929397583008e-01) (202, -4.88765925168991088867e-01) (203, -3.11880230903625488281e-01) (204, -2.55642443895339965820e-01) (205, -2.29317635297775268555e-01) (206, -2.57680207490921020508e-01) (207, -2.90297389030456542969e-01) (208, -3.22418063879013061523e-01) (209, -1.97349131107330322266e-01) (210, -3.31530034542083740234e-01) (211, -2.00135130435228347778e-02) (212, -6.89957514405250549316e-02) (213, -3.44311833381652832031e-01) (214, -2.48498633503913879395e-01) (215, -3.00793528556823730469e-01) (216, -2.91418284177780151367e-01) (217, -3.51316779851913452148e-01) (218, -2.54711180925369262695e-01) (219, 8.63642618060111999512e-03) (220, -4.39774803817272186279e-02) (221, 3.67590606212615966797e-01) (222, -1.03699788451194763184e-01) (223, -2.65509098768234252930e-01) (224, -1.97330802679061889648e-01) (225, -2.35955595970153808594e-01) (226, -1.23668529093265533447e-01) (227, 2.19588149338960647583e-02) (228, 2.92181223630905151367e-02) (229, -6.86307856813073158264e-03) (230, -5.32410144805908203125e-02) (231, -2.45641306042671203613e-01) (232, -2.74295926094055175781e-01) (233, 1.46344959735870361328e-01) (234, 2.84771434962749481201e-02) (235, -3.79396155476570129395e-02) (236, 7.19733163714408874512e-02) (237, 1.34658366441726684570e-01) (238, -2.95827180147171020508e-01) (239, -3.88945400714874267578e-01) (240, -2.18656063079833984375e-02) (241, -2.91761070489883422852e-01) (242, -3.49136441946029663086e-03) (243, 2.00376883149147033691e-02) (244, -2.28480234742164611816e-01) (245, -2.39532545208930969238e-01) (246, -3.27461719512939453125e-01) (247, -2.45369017124176025391e-01) (248, -2.47829496860504150391e-01) (249, -2.56496965885162353516e-01) (250, -3.53957921266555786133e-01) (251, -4.01846081018447875977e-01) (252, -4.05441075563430786133e-01) (253, -3.48684459924697875977e-01) (254, -3.69479149580001831055e-01) (255, -3.17703038454055786133e-01) (256, -2.54611015319824218750e-01) (0, -4.06292289495468139648e-01) (1, -2.04701185226440429688e-01) (2, -2.33186289668083190918e-01) (3, -3.91350001096725463867e-01) (4, -2.41121321916580200195e-01) (5, -2.80581295490264892578e-01) (6, -2.52792000770568847656e-01) (7, -2.86164313554763793945e-01) (8, -3.64148885011672973633e-01) (9, -2.67627775669097900391e-01) (10, -3.44982683658599853516e-01) (11, -1.63421496748924255371e-01) (12, -1.22970603406429290771e-01) (13, -2.72943019866943359375e-01) (14, -1.96692541241645812988e-01) (15, -1.90806999802589416504e-01) (16, -5.94461023807525634766e-01) (17, -4.06676679849624633789e-01) (18, -3.74130427837371826172e-01) (19, -3.73361349105834960938e-01) (20, -3.24679732322692871094e-01) (21, -3.62527310848236083984e-01) (22, -2.37135097384452819824e-01) (23, -3.44279408454895019531e-01) (24, -1.31652414798736572266e-01) (25, -8.68416875600814819336e-02) (26, -5.41621863842010498047e-01) (27, -4.34735298156738281250e-01) (28, -2.68085360527038574219e-01) (29, -5.55447220802307128906e-01) (30, -6.71975553035736083984e-01) (31, -5.62289357185363769531e-01) (32, 3.71689051389694213867e-02) (33, 3.38423848152160644531e-02) (34, -5.80962121486663818359e-01) (35, -3.43309402465820312500e-01) (36, -3.70041161775588989258e-01) (37, -3.24245303869247436523e-01) (38, -3.26793044805526733398e-01) (39, -3.34549218416213989258e-01) (40, -1.89015567302703857422e-01) (41, -2.18972936272621154785e-01) (42, -4.03964161872863769531e-01) (43, -1.08804357051849365234e+00) (44, -1.47586882114410400391e-01) (45, -3.46251875162124633789e-01) (46, -2.12790369987487792969e-01) (47, -4.23930197954177856445e-01) (48, -5.16845345497131347656e-01) (49, -3.78136098384857177734e-01) (50, -2.17795521020889282227e-01) (51, -3.85243803262710571289e-01) (52, 1.77228009700775146484e+00) (53, 1.30803540349006652832e-01) (54, -1.92233830690383911133e-01) (55, -5.49132883548736572266e-01) (56, -5.99048994481563568115e-02) (57, -2.14304789900779724121e-01) (58, -5.44491112232208251953e-01) (59, -4.77951377630233764648e-01) (60, -3.86653333902359008789e-01) (61, 2.22352854907512664795e-02) (62, 4.66134369373321533203e-01) (63, -6.17131330072879791260e-02) (64, 1.77557896822690963745e-02) (65, -9.29959416389465332031e-02) (66, -6.43259584903717041016e-01) (67, -1.98235675692558288574e-01) (68, -1.50894492864608764648e-01) (69, -2.67970770597457885742e-01) (70, 6.41955481842160224915e-03) (71, -3.27540606260299682617e-01) (72, -1.29496660083532333374e-02) (73, -2.17605262994766235352e-01) (74, -5.75792968273162841797e-01) (75, -2.36199557781219482422e-01) (76, 9.76880937814712524414e-02) (77, 2.89834812283515930176e-02) (78, 7.63645172119140625000e-02) (79, -1.09051621984690427780e-03) (80, -7.03212380409240722656e-01) (81, -1.40025392174720764160e-01) (82, 1.52662426233291625977e-01) (83, 6.07105195522308349609e-01) (84, 4.45063740015029907227e-01) (85, 5.14310061931610107422e-01) (86, -7.05136731266975402832e-02) (87, 2.39869251847267150879e-01) (88, -5.00710904598236083984e-01) (89, -5.06765209138393402100e-02) (90, 4.81990128755569458008e-01) (91, 5.70676267147064208984e-01) (92, 4.43765610456466674805e-01) (93, 5.13285636901855468750e-01) (94, -1.40699476003646850586e-01) (95, 4.03302609920501708984e-01) (96, -6.88930526375770568848e-02) (97, -4.36267614364624023438e-01) (98, 3.05466592311859130859e-01) (99, 5.54111301898956298828e-01) (100, 2.42774680256843566895e-01) (101, -6.25400710850954055786e-03) (102, 1.56130850315093994141e-01) (103, 1.95763498544692993164e-01) (104, -4.47341680526733398438e-01) (105, -1.26875251531600952148e-01) (106, 3.83167751133441925049e-02) (107, 2.10680782794952392578e-01) (108, 2.50289350748062133789e-01) (109, -1.84430718421936035156e-01) (110, 2.02078163623809814453e-01) (111, 2.82676309347152709961e-01) (112, -4.05826345086097717285e-02) (113, -1.42615422606468200684e-01) (114, 4.86960858106613159180e-01) (115, 4.94103223085403442383e-01) (116, 4.39652353525161743164e-01) (117, -1.33938685059547424316e-01) (118, -1.11610636115074157715e-01) (119, 2.57332831621170043945e-01) (120, 5.27418330311775207520e-02) (121, -6.29273355007171630859e-02) (122, 5.23687601089477539063e-01) (123, 5.23813247680664062500e-01) (124, 4.24879878759384155273e-01) (125, -7.48500674962997436523e-02) (126, 5.22242076694965362549e-02) (127, 3.06801646947860717773e-01) (128, -1.05210334062576293945e-01) (129, -1.24053731560707092285e-01) (130, 3.11746835708618164063e-01) (131, 4.83411788940429687500e-01) (132, 4.25065904855728149414e-01) (133, -5.95786198973655700684e-02) (134, 2.44366656988859176636e-02) (135, 1.47160485386848449707e-01) (136, -5.67019581794738769531e-02) (137, -1.40111505985260009766e-01) (138, 2.90575653314590454102e-01) (139, 3.27597051858901977539e-01) (140, 3.40349733829498291016e-01) (141, 1.30879012867808341980e-02) (142, -1.74900636076927185059e-01) (143, -3.74687761068344116211e-02) (144, 7.51882344484329223633e-02) (145, -1.45239815115928649902e-01) (146, -5.60871183872222900391e-01) (147, 2.73140132427215576172e-01) (148, 2.02823951840400695801e-01) (149, -1.43193319439888000488e-01) (150, 2.37734839320182800293e-02) (151, 3.53163987398147583008e-01) (152, 4.70172725617885589600e-02) (153, -8.06329771876335144043e-02) (154, -7.68091797828674316406e-01) (155, 3.75239938497543334961e-01) (156, 8.72319579124450683594e-01) (157, -3.09788733720779418945e-01) (158, 4.36063222587108612061e-02) (159, 2.19423234462738037109e-01) (160, 3.16217057406902313232e-02) (161, -1.70248210430145263672e-01) (162, -6.27466857433319091797e-01) (163, 3.44915777444839477539e-01) (164, 2.29881837964057922363e-01) (165, -6.16009831428527832031e-01) (166, -7.42348432540893554688e-02) (167, 1.38167992234230041504e-01) (168, -2.50779893249273300171e-02) (169, -8.67625772953033447266e-02) (170, -6.14397466182708740234e-01) (171, 1.92328184843063354492e-01) (172, 3.48356693983078002930e-01) (173, -6.00836098194122314453e-01) (174, -1.10253587365150451660e-01) (175, 8.03374871611595153809e-02) (176, -1.31871998310089111328e-02) (177, 7.59108141064643859863e-02) (178, -2.01369956135749816895e-01) (179, 6.62238717079162597656e-01) (180, 2.74146199226379394531e-01) (181, -1.80460199713706970215e-01) (182, -3.16234141588211059570e-01) (183, 1.74858629703521728516e-01) (184, -7.99209475517272949219e-01) (185, -1.43534347414970397949e-01) (186, 3.64834703505039215088e-02) (187, 1.12219870090484619141e+00) (188, 4.50149416923522949219e-01) (189, 2.83558428287506103516e-01) (190, -4.85110878944396972656e-01) (191, -6.16797208786010742188e-01) (192, -4.36535894870758056641e-01) (193, -1.85818120837211608887e-01) (194, -4.96220231056213378906e-01) (195, 9.50508654117584228516e-01) (196, 9.48873639106750488281e-01) (197, 3.76324057579040527344e-01) (198, -5.34435987472534179688e-01) (199, -1.30121564865112304688e+00) (200, -5.80803871154785156250e-01) (201, -6.66620969772338867188e-01) (202, -6.69425606727600097656e-01) (203, -5.52623867988586425781e-01) (204, -5.25353431701660156250e-01) (205, -3.24812322854995727539e-01) (206, -4.38268512487411499023e-01) (207, -3.28753143548965454102e-01) (208, -5.94739615917205810547e-01) (209, -5.89687824249267578125e-01) (210, -5.20235896110534667969e-01) (211, -3.51630538702011108398e-01) (212, -3.24637502431869506836e-01) (213, -2.66011685132980346680e-01) (214, -2.38863483071327209473e-01) (215, -3.40645313262939453125e-01) (216, -4.80134695768356323242e-01) (217, -5.42788386344909667969e-01) (218, -5.29165327548980712891e-01) (219, -2.31842935085296630859e-01) (220, -4.27805274724960327148e-01) (221, 1.76291728019714355469e+00) (222, 8.42276215553283691406e-01) (223, -2.01374828815460205078e-01) (224, -5.28237581253051757813e-01) (225, -5.88521659374237060547e-01) (226, -2.85320758819580078125e-01) (227, -3.79392176866531372070e-01) (228, -2.32832223176956176758e-01) (229, 8.25952172279357910156e-01) (230, 9.95328545570373535156e-01) (231, -6.61609113216400146484e-01) (232, -4.61169034242630004883e-01) (233, -2.03857243061065673828e-01) (234, -2.88590610027313232422e-01) (235, -2.69647330045700073242e-01) (236, -1.36853992938995361328e-01) (237, 9.43736791610717773438e-01) (238, -4.90750223398208618164e-01) (239, -4.90960806608200073242e-01) (240, -2.17388704419136047363e-01) (241, -4.36940819025039672852e-01) (242, -3.16832900047302246094e-01) (243, -3.20703178644180297852e-01) (244, -1.52761846780776977539e-01) (245, -2.34682574868202209473e-01) (246, -5.68315982818603515625e-01) (247, -5.92778921127319335938e-01) (248, -5.00676929950714111328e-01) (249, -6.20989263057708740234e-01) (250, -5.75817108154296875000e-01) (251, -6.32128179073333740234e-01) (252, -5.96599578857421875000e-01) (253, -5.15551090240478515625e-01) (254, -5.83849370479583740234e-01) (255, -6.16869390010833740234e-01) (256, -5.63909173011779785156e-01) (0, 1.37695327401161193848e-01) (1, 6.83470368385314941406e-02) (2, 6.98485150933265686035e-02) (3, 1.36035174131393432617e-01) (4, 7.10957124829292297363e-02) (5, 1.17559395730495452881e-01) (6, 1.30254805088043212891e-01) (7, 1.66546300053596496582e-01) (8, 1.25299096107482910156e-01) (9, 8.99901017546653747559e-02) (10, 9.75938513875007629395e-02) (11, 1.14085547626018524170e-01) (12, 2.22423106431961059570e-01) (13, 1.04818023741245269775e-01) (14, 7.87877514958381652832e-02) (15, 1.73443272709846496582e-01) (16, -2.33096517622470855713e-02) (17, -9.67791583389043807983e-03) (18, 5.55006833747029304504e-03) (19, 4.01448048651218414307e-02) (20, 4.02363575994968414307e-02) (21, 1.18037469685077667236e-01) (22, 3.47912800498306751251e-03) (23, -2.82652676105499267578e-02) (24, -5.08668087422847747803e-02) (25, 1.69082581996917724609e-01) (26, -1.05243707075715065002e-02) (27, 1.78979381918907165527e-01) (28, 5.75371598824858665466e-03) (29, 7.77958109974861145020e-02) (30, -6.42365356907248497009e-03) (31, -1.21760985348373651505e-03) (32, 6.28265440464019775391e-02) (33, 1.98839694261550903320e-01) (34, 6.97104111313819885254e-02) (35, 6.20820410549640655518e-02) (36, 1.50568243116140365601e-02) (37, 1.19882211089134216309e-01) (38, 4.54933606088161468506e-02) (39, 1.25418886542320251465e-01) (40, 7.48469457030296325684e-02) (41, -1.34498214721679687500e+00) (42, 5.62569499015808105469e-01) (43, 5.02373099327087402344e-01) (44, 5.78474819660186767578e-01) (45, 4.63801294565200805664e-01) (46, 5.88715933263301849365e-02) (47, -1.22020982205867767334e-01) (48, 1.78165957331657409668e-01) (49, -7.49619436264038085938e+00) (50, 1.14763557910919189453e+00) (51, 7.45365321636199951172e-01) (52, 7.74561583995819091797e-01) (53, 4.61162894964218139648e-01) (54, -3.17601598799228668213e-02) (55, -7.05457851290702819824e-02) (56, 5.68270310759544372559e-02) (57, -1.13658927381038665771e-01) (58, -1.11626952886581420898e-01) (59, 8.66799414157867431641e-01) (60, 9.01716649532318115234e-01) (61, 1.04382240772247314453e+00) (62, 8.38336870074272155762e-02) (63, -8.30270424485206604004e-02) (64, 1.58487483859062194824e-01) (65, 9.08064693212509155273e-02) (66, 2.41968780755996704102e-01) (67, 1.09082019329071044922e+00) (68, 1.13321065902709960938e+00) (69, 1.63598701357841491699e-01) (70, 4.50096167623996734619e-02) (71, -4.43309426307678222656e-01) (72, 3.43759685754776000977e-01) (73, 1.11581258475780487061e-01) (74, 6.60328194499015808105e-02) (75, 5.10923564434051513672e-01) (76, 8.52775335311889648438e-01) (77, 1.70671343803405761719e-01) (78, 1.77057862281799316406e-01) (79, 5.48118427395820617676e-02) (80, 1.82599842548370361328e-01) (81, -1.82937949895858764648e-01) (82, 2.03590464591979980469e+00) (83, 3.73279660940170288086e-01) (84, 5.41183888912200927734e-01) (85, 7.93171405792236328125e-01) (86, 3.02963312715291976929e-02) (87, 9.92059707641601562500e-02) (88, 2.13369965553283691406e-01) (89, -1.45441725850105285645e-01) (90, 5.64578711986541748047e-01) (91, 3.82799535989761352539e-01) (92, 9.44919645786285400391e-01) (93, 9.66236054897308349609e-01) (94, -5.93457967042922973633e-02) (95, 5.61545416712760925293e-02) (96, 1.97626188397407531738e-01) (97, 9.62613224983215332031e-02) (98, 5.10572016239166259766e-01) (99, 5.95166623592376708984e-01) (100, 6.22840464115142822266e-01) (101, 5.46001911163330078125e-01) (102, 1.67057767510414123535e-01) (103, 2.03991718590259552002e-02) (104, 2.19777658581733703613e-01) (105, -7.37547725439071655273e-02) (106, 4.74505156278610229492e-01) (107, 4.79880988597869873047e-01) (108, 6.57309949398040771484e-01) (109, 6.20101928710937500000e-01) (110, 9.39455255866050720215e-02) (111, 6.35961517691612243652e-02) (112, 7.08203911781311035156e-02) (113, -1.13569349050521850586e-01) (114, 7.74308383464813232422e-01) (115, 7.23412096500396728516e-01) (116, 7.26816833019256591797e-01) (117, 6.90612912178039550781e-01) (118, 1.02952487766742706299e-01) (119, -2.01232194900512695313e-01) (120, 1.38521090149879455566e-01) (121, 2.83353477716445922852e-02) (122, 6.72713458538055419922e-01) (123, 1.31892752647399902344e+00) (124, 7.34739482402801513672e-01) (125, 5.54646074771881103516e-01) (126, 1.40953227877616882324e-01) (127, -1.07559286057949066162e-01) (128, -4.16550301015377044678e-02) (129, -2.18914598226547241211e-02) (130, 7.93632090091705322266e-01) (131, 1.29270112514495849609e+00) (132, 6.79687619209289550781e-01) (133, 3.60010206699371337891e-01) (134, 1.22500270605087280273e-01) (135, -1.74041405320167541504e-01) (136, 2.03701376914978027344e-01) (137, 2.45868824422359466553e-02) (138, 5.99488019943237304688e-01) (139, 7.09485650062561035156e-01) (140, 7.22794890403747558594e-01) (141, 6.53309583663940429688e-01) (142, -1.17155648767948150635e-01) (143, -6.38181120157241821289e-02) (144, 1.02489337325096130371e-01) (145, 2.86945234984159469604e-02) (146, 6.74543261528015136719e-01) (147, 8.12687695026397705078e-01) (148, 7.06650197505950927734e-01) (149, 4.08423900604248046875e-01) (150, -4.17975448071956634521e-02) (151, -8.89553874731063842773e-02) (152, 1.59640818834304809570e-01) (153, 2.91035808622837066650e-02) (154, 8.36891457438468933105e-02) (155, 7.95080006122589111328e-01) (156, 3.14870977401733398438e+00) (157, 4.41472440958023071289e-01) (158, 9.60177928209304809570e-02) (159, 1.36098777875304222107e-02) (160, 2.17986218631267547607e-02) (161, -8.69711220264434814453e-01) (162, -2.77624204754829406738e-02) (163, 6.29983782768249511719e-01) (164, 7.15923428535461425781e-01) (165, 1.05891719460487365723e-01) (166, -1.46103009581565856934e-01) (167, 7.28483796119689941406e-02) (168, 2.37667411565780639648e-01) (169, 1.65526583790779113770e-01) (170, -1.27495601773262023926e-01) (171, 7.07745373249053955078e-01) (172, 8.40900003910064697266e-01) (173, 3.31248551607131958008e-01) (174, -2.74169951677322387695e-01) (175, 2.18229424208402633667e-02) (176, 1.63080215454101562500e-01) (177, 2.80718784779310226440e-02) (178, 8.15408587455749511719e-01) (179, 3.85868936777114868164e-01) (180, 4.66854870319366455078e-01) (181, -1.77764217369258403778e-03) (182, -4.86922860145568847656e-01) (183, -5.63812494277954101563e+00) (184, 8.87622777372598648071e-03) (185, -1.40637235641479492188e+01) (186, -6.25478506088256835938e-01) (187, 1.32050156593322753906e+00) (188, 2.83113140612840652466e-02) (189, -5.82125902175903320313e-01) (190, -5.93905353546142578125e+00) (191, -6.81560993194580078125e+00) (192, 1.11289836466312408447e-01) (193, -5.88672494888305664063e+00) (194, -5.20491075515747070313e+00) (195, 2.37122893333435058594e-01) (196, 1.15328188985586166382e-02) (197, -1.84972137212753295898e-01) (198, -2.50344753265380859375e-01) (199, -3.80691021680831909180e-01) (200, 1.77619293332099914551e-01) (201, 1.39758020639419555664e-01) (202, 3.61609458923339843750e-02) (203, 6.65162280201911926270e-02) (204, 1.18231348693370819092e-01) (205, 1.39972105622291564941e-01) (206, 5.79716414213180541992e-02) (207, 1.43864313140511512756e-02) (208, 5.25269731879234313965e-02) (209, -1.39781935140490531921e-02) (210, 2.66608241945505142212e-02) (211, -2.07398049533367156982e-02) (212, 1.64913594722747802734e-01) (213, 1.98205724358558654785e-01) (214, 2.74552404880523681641e-01) (215, 5.90924397110939025879e-02) (216, 3.90381962060928344727e-02) (217, 3.09192650020122528076e-02) (218, 1.66993066668510437012e-01) (219, 6.83532133698463439941e-02) (220, 1.61886245012283325195e-01) (221, 3.21470797061920166016e-01) (222, 2.19025075435638427734e-01) (223, 1.77466064691543579102e-01) (224, 1.44121363759040832520e-01) (225, 2.03803367912769317627e-02) (226, 1.25781387090682983398e-01) (227, 4.71094883978366851807e-02) (228, 1.77133142948150634766e-01) (229, 2.24510401487350463867e-01) (230, 1.57706767320632934570e-01) (231, 1.00493729114532470703e-02) (232, 6.07342422008514404297e-02) (233, 3.11898216605186462402e-02) (234, 1.01962983608245849609e-01) (235, 1.79961547255516052246e-01) (236, 2.40438759326934814453e-01) (237, 1.52598708868026733398e-01) (238, 5.43763861060142517090e-02) (239, 8.06407704949378967285e-02) (240, 2.85409074276685714722e-02) (241, 9.62596759200096130371e-02) (242, 1.39641478657722473145e-01) (243, 1.30150750279426574707e-01) (244, 4.70422878861427307129e-02) (245, 9.24676470458507537842e-03) (246, -1.80432820343412458897e-04) (247, 1.63244798779487609863e-01) (248, 1.59908056259155273438e-01) (249, -2.34355200082063674927e-02) (250, 1.32271319627761840820e-01) (251, 5.23457415401935577393e-02) (252, 1.79523993283510208130e-02) (253, -1.85710117220878601074e-02) (254, 9.67304930090904235840e-02) (255, 7.37629756331443786621e-02) (256, 5.34077584743499755859e-02) (0, 1.48760795593261718750e-01) (1, 1.02489463984966278076e-01) (2, 1.88500419259071350098e-01) (3, 8.81832391023635864258e-02) (4, 7.80021548271179199219e-02) (5, 2.74170160293579101563e-01) (6, 8.03227350115776062012e-02) (7, 1.55427113175392150879e-01) (8, 1.73386678099632263184e-01) (9, 2.22257077693939208984e-01) (10, 1.91519647836685180664e-01) (11, 5.89206404983997344971e-02) (12, 1.44034296274185180664e-01) (13, 1.88213780522346496582e-01) (14, 5.26947947219014167786e-03) (15, 7.51709640026092529297e-02) (16, 1.27532795071601867676e-01) (17, 7.98625871539115905762e-02) (18, 1.02122440934181213379e-01) (19, 4.66231964528560638428e-02) (20, 1.30979925394058227539e-01) (21, 1.14519149065017700195e-01) (22, 1.87657624483108520508e-01) (23, 8.93442519009113311768e-03) (24, 1.48752048611640930176e-01) (25, -1.64657011628150939941e-02) (26, 1.04555755853652954102e-01) (27, 6.34613260626792907715e-02) (28, 1.35824739933013916016e-01) (29, 5.94890005886554718018e-02) (30, 2.28933796286582946777e-01) (31, 1.22964575886726379395e-01) (32, -2.16048769652843475342e-02) (33, -4.51719343662261962891e-01) (34, -1.79511129856109619141e-01) (35, -1.55944600701332092285e-02) (36, -8.38483050465583801270e-02) (37, -5.21413460373878479004e-02) (38, -2.17131040990352630615e-02) (39, 1.42374753952026367188e-01) (40, 9.03492569923400878906e-02) (41, -3.55762809514999389648e-01) (42, -4.24098342657089233398e-01) (43, -4.51277434825897216797e-01) (44, -2.92626559734344482422e-01) (45, 1.13352604210376739502e-01) (46, 2.35452711582183837891e-01) (47, 5.71762263774871826172e-01) (48, 1.10818661749362945557e-01) (49, -9.89444702863693237305e-02) (50, -4.42839562892913818359e-01) (51, 9.51934051513671875000e+00) (52, -5.94925546646118164063e+00) (53, -4.11385208368301391602e-01) (54, 2.70451664924621582031e-01) (55, 6.80387258529663085938e-01) (56, -1.74659974873065948486e-02) (57, 1.84115111827850341797e-01) (58, 1.88636675477027893066e-01) (59, 2.52749204635620117188e-01) (60, 1.53119876980781555176e-01) (61, -3.91201615333557128906e-01) (62, -2.80435651540756225586e-01) (63, -1.81834787130355834961e-01) (64, -1.26608833670616149902e-02) (65, 1.93303283303976058960e-02) (66, 1.19878247380256652832e-01) (67, 2.21340209245681762695e-01) (68, 8.12863335013389587402e-02) (69, -4.93575990200042724609e-01) (70, 5.30596561729907989502e-02) (71, 2.21151784062385559082e-01) (72, 3.93334142863750457764e-02) (73, 1.47226944565773010254e-01) (74, 1.68792039155960083008e-01) (75, 8.31184461712837219238e-02) (76, 2.13153943419456481934e-01) (77, -8.69450718164443969727e-02) (78, 7.92851001024246215820e-02) (79, -9.02001932263374328613e-02) (80, 6.04308396577835083008e-02) (81, -1.01683050394058227539e-01) (82, -3.08532685041427612305e-01) (83, -6.97218894958496093750e-01) (84, -6.08232736587524414063e-01) (85, 4.20447170734405517578e-01) (86, 2.97821968793869018555e-01) (87, 5.44271290302276611328e-01) (88, 2.30105698108673095703e-01) (89, -3.63609939813613891602e-01) (90, -2.85403996706008911133e-01) (91, -5.46066999435424804688e-01) (92, -6.82480871677398681641e-01) (93, -5.76919257640838623047e-01) (94, 3.04210275411605834961e-01) (95, -1.80338549613952636719e+00) (96, -4.82880091294646263123e-03) (97, 1.89369097352027893066e-01) (98, -5.87372720241546630859e-01) (99, -4.48740422725677490234e-01) (100, -4.41838920116424560547e-01) (101, 2.30704367160797119141e-01) (102, 4.84738975763320922852e-01) (103, 1.82869583368301391602e-01) (104, 1.12434253096580505371e-01) (105, 7.72129297256469726563e-02) (106, -5.65823495388031005859e-01) (107, -4.41493749618530273438e-01) (108, -2.29520112276077270508e-01) (109, 2.52146983146667480469e+00) (110, 5.73445141315460205078e-01) (111, -1.58948034048080444336e-01) (112, 2.92869657278060913086e-01) (113, -5.24220466613769531250e-02) (114, -4.35266673564910888672e-01) (115, -4.22976136207580566406e-01) (116, -2.65411257743835449219e-01) (117, 1.32138326764106750488e-01) (118, 1.92469239234924316406e-01) (119, 2.36555248498916625977e-01) (120, 1.71906515955924987793e-01) (121, -1.22159823775291442871e-01) (122, -4.46815639734268188477e-01) (123, -9.18391108512878417969e-01) (124, -2.89222002029418945313e-01) (125, 2.90768414735794067383e-01) (126, 2.76644349098205566406e-01) (127, 6.23517215251922607422e-01) (128, 7.55223706364631652832e-02) (129, 5.17384000122547149658e-02) (130, -5.63022971153259277344e-01) (131, -7.51204669475555419922e-01) (132, -4.38731491565704345703e-01) (133, 2.96972960233688354492e-01) (134, 8.16350758075714111328e-01) (135, 9.81117904186248779297e-01) (136, 1.78615078330039978027e-01) (137, 1.02008238434791564941e-01) (138, -4.50751721858978271484e-01) (139, -5.86355328559875488281e-01) (140, -3.46186131238937377930e-01) (141, 2.62447595596313476563e-01) (142, 1.84558272361755371094e-01) (143, 1.44404411315917968750e+00) (144, 1.77197322249412536621e-01) (145, 5.97653910517692565918e-02) (146, 1.40015542507171630859e-01) (147, -2.43010044097900390625e-01) (148, -2.14240655303001403809e-01) (149, 7.13905915617942810059e-02) (150, 4.22841943800449371338e-02) (151, 5.87839484214782714844e-01) (152, 2.53684192895889282227e-01) (153, -5.29048256576061248779e-02) (154, 4.44282330572605133057e-02) (155, -2.30874374508857727051e-01) (156, -1.96336418390274047852e-01) (157, 1.85852348804473876953e-01) (158, 2.87459027022123336792e-02) (159, 5.97788989543914794922e-01) (160, 1.70912668108940124512e-01) (161, 2.60248631238937377930e-01) (162, 1.20006248354911804199e-01) (163, -2.44059696793556213379e-01) (164, -1.87777742743492126465e-01) (165, 2.45644807815551757813e-01) (166, 8.50453004240989685059e-02) (167, 1.24694988131523132324e-01) (168, 1.60822778940200805664e-01) (169, 1.14797856658697128296e-02) (170, 1.79329529404640197754e-01) (171, -5.24620056152343750000e-01) (172, -3.46325337886810302734e-01) (173, 8.58587548136711120605e-02) (174, 1.13331526517868041992e-01) (175, 4.30164098739624023438e-01) (176, 1.36203914880752563477e-01) (177, -1.70816138386726379395e-01) (178, -4.92931365966796875000e-01) (179, -4.94550645351409912109e-01) (180, -7.21687197685241699219e-01) (181, 4.85859215259552001953e-02) (182, 1.24881872907280921936e-02) (183, 3.06821405887603759766e-01) (184, 3.45876741409301757813e+00) (185, 2.22718060016632080078e-01) (186, 2.83447597175836563110e-02) (187, -4.12026345729827880859e-01) (188, -2.52973508834838867188e+00) (189, -2.46990084648132324219e-01) (190, 1.70158699154853820801e-01) (191, 2.50515699386596679688e-01) (192, 2.85436570644378662109e-01) (193, 3.17589312791824340820e-01) (194, 5.37806600332260131836e-02) (195, -1.44944512844085693359e+00) (196, -8.05264711380004882813e-01) (197, -4.73631739616394042969e-01) (198, 1.79628670215606689453e-01) (199, 4.43822205066680908203e-01) (200, 1.51502579450607299805e-01) (201, 2.74611294269561767578e-01) (202, 2.77302920818328857422e-01) (203, 1.01736471056938171387e-01) (204, 1.81564554572105407715e-01) (205, 1.79165869951248168945e-01) (206, 2.13157474994659423828e-01) (207, 1.29289045929908752441e-01) (208, 1.14278487861156463623e-01) (209, 9.11328867077827453613e-02) (210, 2.50977993011474609375e-01) (211, 7.51007199287414550781e-02) (212, 2.67472147941589355469e-01) (213, 2.17929661273956298828e-01) (214, 9.16793644428253173828e-02) (215, 2.22753942012786865234e-01) (216, 1.04409083724021911621e-01) (217, 1.77796915173530578613e-01) (218, 1.54988080263137817383e-01) (219, 2.65603750944137573242e-01) (220, 2.04746335744857788086e-01) (221, -8.97231042385101318359e-01) (222, -3.05152088403701782227e-01) (223, 2.49819919466972351074e-01) (224, 2.08644106984138488770e-01) (225, 2.53956317901611328125e-01) (226, 1.91340282559394836426e-01) (227, 1.50260120630264282227e-01) (228, 1.65195003151893615723e-01) (229, -2.39505082368850708008e-01) (230, -2.88575947284698486328e-01) (231, 1.92701101303100585938e-01) (232, 1.47004276514053344727e-01) (233, 1.42159953713417053223e-01) (234, 1.67159065604209899902e-01) (235, 7.89899751543998718262e-02) (236, 1.12167641520500183105e-01) (237, -2.39120543003082275391e-01) (238, 2.73019313812255859375e-01) (239, 1.58168762922286987305e-01) (240, 4.58339974284172058105e-02) (241, 2.06951573491096496582e-01) (242, 9.63830649852752685547e-02) (243, 1.40458568930625915527e-01) (244, -1.43925890326499938965e-01) (245, -1.41270458698272705078e-01) (246, 1.81900247931480407715e-01) (247, 1.37466654181480407715e-01) (248, 8.36099386215209960938e-02) (249, 2.16080740094184875488e-01) (250, 2.26456642150878906250e-01) (251, 1.59336313605308532715e-01) (252, 2.06443309783935546875e-01) (253, 2.14506015181541442871e-01) (254, 1.82309955358505249023e-01) (255, 8.25051963329315185547e-02) (256, 1.32309943437576293945e-01) (0, -1.60672113299369812012e-01) (1, 2.34389491379261016846e-02) (2, -2.21909116953611373901e-02) (3, -6.78299143910408020020e-02) (4, -7.96189233660697937012e-02) (5, -1.59477293491363525391e-01) (6, -1.07890404760837554932e-01) (7, -9.05381217598915100098e-02) (8, -6.06881715357303619385e-02) (9, -3.55323329567909240723e-02) (10, 1.44374340772628784180e-01) (11, 1.24887198209762573242e-01) (12, 3.29197943210601806641e-02) (13, -7.63552710413932800293e-02) (14, 1.41295358538627624512e-01) (15, -9.46978013962507247925e-03) (16, -2.29701936244964599609e-01) (17, -1.32572993636131286621e-01) (18, -2.33843281865119934082e-01) (19, -8.91656503081321716309e-02) (20, -1.65276452898979187012e-01) (21, -1.81808710098266601563e-01) (22, -2.01175153255462646484e-01) (23, -7.62850418686866760254e-02) (24, -1.79002419114112854004e-01) (25, -1.67111814022064208984e-01) (26, -2.01054766774177551270e-01) (27, -1.89360454678535461426e-01) (28, -1.36542022228240966797e-01) (29, -1.37150987982749938965e-01) (30, -3.75541776418685913086e-01) (31, -2.86515951156616210938e-01) (32, -2.11811110377311706543e-01) (33, -2.26930156350135803223e-01) (34, -1.76183402538299560547e-01) (35, -2.21970483660697937012e-01) (36, -9.75389406085014343262e-02) (37, -1.64340957999229431152e-01) (38, -3.16347032785415649414e-01) (39, -1.30694434046745300293e-01) (40, -3.01177889108657836914e-01) (41, -2.87549495697021484375e-01) (42, -1.07838726043701171875e+00) (43, 4.51863110065460205078e-01) (44, 5.29568672180175781250e-01) (45, 9.05642472207546234131e-03) (46, 3.72509628534317016602e-01) (47, -9.54421982169151306152e-02) (48, -2.83932000398635864258e-01) (49, -2.11248099803924560547e-01) (50, -6.12531960010528564453e-01) (51, 4.47303950786590576172e-01) (52, 4.33036863803863525391e-01) (53, 4.74561154842376708984e-01) (54, 4.13700968027114868164e-01) (55, -1.57079592347145080566e-01) (56, 1.81241929531097412109e-01) (57, -1.93847045302391052246e-01) (58, -1.10685694217681884766e+00) (59, 8.15149620175361633301e-02) (60, 3.10701936483383178711e-01) (61, 9.23828631639480590820e-02) (62, 1.30316335707902908325e-03) (63, 2.12067469954490661621e-01) (64, 2.43387743830680847168e-01) (65, -1.66500568389892578125e-01) (66, -7.91268467903137207031e-01) (67, -2.65439480543136596680e-01) (68, -1.85880556702613830566e-01) (69, 1.32632389664649963379e-01) (70, -5.56403174996376037598e-02) (71, 3.80617305636405944824e-02) (72, 2.36163914203643798828e-01) (73, -3.07696070522069931030e-02) (74, -1.06081616878509521484e+00) (75, -7.07464739680290222168e-02) (76, 3.10256958007812500000e-01) (77, 2.75064468383789062500e-01) (78, 2.34835043549537658691e-01) (79, -6.70777410268783569336e-02) (80, 1.95727273821830749512e-02) (81, -7.39017035812139511108e-03) (82, -5.19253611564636230469e-01) (83, 8.27290534973144531250e-01) (84, 7.01489746570587158203e-01) (85, 5.78124344348907470703e-01) (86, -9.08892601728439331055e-02) (87, 2.34517470002174377441e-01) (88, -2.38060932606458663940e-02) (89, 8.54032039642333984375e-02) (90, 3.18025827407836914063e-01) (91, 6.45068228244781494141e-01) (92, 6.48201346397399902344e-01) (93, 4.67213273048400878906e-01) (94, 9.94608830660581588745e-03) (95, 1.86533182859420776367e-01) (96, 2.11402714252471923828e-01) (97, -1.16554141044616699219e-01) (98, 3.63780885934829711914e-01) (99, 4.01539593935012817383e-01) (100, 2.37861081957817077637e-01) (101, -1.17299914360046386719e-01) (102, 2.82728552818298339844e-01) (103, 2.71712630987167358398e-01) (104, 1.06814078986644744873e-01) (105, 5.00644855201244354248e-02) (106, 1.96604460477828979492e-01) (107, 2.04735741019248962402e-01) (108, 3.76274585723876953125e-01) (109, -3.46707284450531005859e-01) (110, 3.45336288213729858398e-01) (111, 3.68008583784103393555e-01) (112, 1.24129094183444976807e-01) (113, 1.70880742371082305908e-03) (114, 2.84153968095779418945e-01) (115, 4.74834680557250976563e-01) (116, 8.88987183570861816406e-02) (117, -4.74451899528503417969e-01) (118, 1.39696463942527770996e-01) (119, 3.36887449026107788086e-01) (120, 1.31492003798484802246e-01) (121, 2.80351221561431884766e-01) (122, 2.44688585400581359863e-01) (123, 4.54868286848068237305e-01) (124, -2.50173285603523254395e-02) (125, -2.38572373986244201660e-01) (126, -1.01917967200279235840e-01) (127, 3.37341040372848510742e-01) (128, 1.10519647598266601563e-01) (129, 1.01540699601173400879e-01) (130, 1.37412518262863159180e-01) (131, 2.69283682107925415039e-01) (132, 1.41512915492057800293e-01) (133, -3.51414769887924194336e-01) (134, 2.72972047328948974609e-01) (135, 2.45336547493934631348e-01) (136, 1.52584463357925415039e-01) (137, -9.51277185231447219849e-03) (138, 1.88360586762428283691e-02) (139, 2.53459304571151733398e-01) (140, 1.15632750093936920166e-01) (141, -2.80607849359512329102e-01) (142, 1.15027375519275665283e-01) (143, 8.04036036133766174316e-02) (144, 5.08492439985275268555e-02) (145, 2.70781368017196655273e-02) (146, -3.25534284114837646484e-01) (147, 2.89213806390762329102e-01) (148, -7.27354362607002258301e-02) (149, -2.48026326298713684082e-01) (150, 2.82340884208679199219e-01) (151, 4.57001000642776489258e-01) (152, 6.33345246315002441406e-02) (153, 8.48010703921318054199e-02) (154, -1.02074933052062988281e+00) (155, 1.09783016145229339600e-01) (156, 8.11890661716461181641e-01) (157, -2.72080361843109130859e-01) (158, 1.97844117879867553711e-01) (159, 4.25141900777816772461e-01) (160, 3.75968426465988159180e-01) (161, -7.52899274230003356934e-02) (162, -1.01447141170501708984e+00) (163, 1.75103321671485900879e-01) (164, 6.44141286611557006836e-02) (165, -2.34193354845046997070e-01) (166, 2.63907998800277709961e-01) (167, 3.06633174419403076172e-01) (168, 3.53991448879241943359e-01) (169, 9.64621007442474365234e-02) (170, -1.02515578269958496094e+00) (171, 2.72864043712615966797e-01) (172, 1.53905689716339111328e-01) (173, 2.80075478553771972656e+00) (174, 1.23148679733276367188e-01) (175, 3.04694294929504394531e-01) (176, 2.84854888916015625000e-01) (177, 1.19411475956439971924e-01) (178, 1.47508561611175537109e-01) (179, 3.47302675247192382813e-01) (180, 2.44213104248046875000e-01) (181, -6.01960867643356323242e-02) (182, 3.14643353223800659180e-01) (183, -7.15402588248252868652e-02) (184, 8.43039453029632568359e-01) (185, -2.05154549330472946167e-02) (186, 4.17924284934997558594e-01) (187, 7.66931354999542236328e-01) (188, 8.97273778915405273438e-01) (189, 4.35495227575302124023e-01) (190, -1.28315567970275878906e-01) (191, -1.96740522980690002441e-01) (192, 2.01574540138244628906e+00) (193, -2.37960591912269592285e-02) (194, -3.76972317695617675781e-01) (195, 6.50753855705261230469e-01) (196, 5.76351642608642578125e-01) (197, 4.65383201837539672852e-01) (198, -9.87254381179809570313e-02) (199, -8.67293834686279296875e-01) (200, -2.05540478229522705078e-01) (201, -3.88806849718093872070e-01) (202, -3.45923244953155517578e-01) (203, -2.30592221021652221680e-01) (204, -2.81672835350036621094e-01) (205, -2.36441731452941894531e-01) (206, -8.00819844007492065430e-02) (207, -9.86986532807350158691e-02) (208, -3.15027922391891479492e-01) (209, -1.85223326086997985840e-01) (210, -8.55980888009071350098e-02) (211, -2.06388980150222778320e-01) (212, -1.83957323431968688965e-01) (213, -2.74719353765249252319e-02) (214, -7.20333978533744812012e-02) (215, -5.72919212281703948975e-02) (216, -1.56257107853889465332e-01) (217, -4.36400920152664184570e-02) (218, -1.69539660215377807617e-01) (219, -1.60637065768241882324e-01) (220, -1.52243480086326599121e-01) (221, 2.13014781475067138672e-02) (222, -6.42705187201499938965e-02) (223, -3.44615727663040161133e-02) (224, -1.70617640018463134766e-01) (225, -7.46422782540321350098e-02) (226, -2.28595897555351257324e-01) (227, -7.00780451297760009766e-02) (228, -1.30608990788459777832e-01) (229, -1.52555003762245178223e-01) (230, -3.99675630033016204834e-02) (231, -1.95251896977424621582e-01) (232, -5.16768544912338256836e-02) (233, 1.42885418608784675598e-02) (234, -2.27867677807807922363e-01) (235, -5.29097616672515869141e-02) (236, -1.54046490788459777832e-01) (237, -1.81335240602493286133e-01) (238, -8.99005010724067687988e-02) (239, -7.55494013428688049316e-02) (240, -8.26079472899436950684e-02) (241, -1.38442218303680419922e-01) (242, -7.54048451781272888184e-02) (243, -8.28048065304756164551e-02) (244, -2.14572697877883911133e-01) (245, -2.09819376468658447266e-01) (246, -2.74482905864715576172e-01) (247, -2.79609858989715576172e-01) (248, -3.10930281877517700195e-01) (249, -3.04484933614730834961e-01) (250, -2.21617296338081359863e-01) (251, -3.39024692773818969727e-01) (252, -1.93773061037063598633e-01) (253, -2.68492490053176879883e-01) (254, -2.47844278812408447266e-01) (255, -2.38023519515991210938e-01) (256, -1.66502580046653747559e-01) (0, -1.22955448925495147705e-01) (1, -1.82297900319099426270e-01) (2, -1.34592816233634948730e-01) (3, -1.30179710686206817627e-02) (4, -1.46898135542869567871e-01) (5, -1.59093007445335388184e-01) (6, -5.72816729545593261719e-02) (7, -1.78486853837966918945e-02) (8, -1.45575836300849914551e-01) (9, -2.36212521791458129883e-01) (10, -1.60260438919067382813e-01) (11, -2.07426548004150390625e-01) (12, -2.11816236376762390137e-01) (13, -2.75420874357223510742e-01) (14, -2.10304617881774902344e-01) (15, -5.83299100399017333984e-02) (16, 3.39069068431854248047e-02) (17, -4.75021917372941970825e-03) (18, 1.77228525280952453613e-02) (19, 7.99909308552742004395e-02) (20, 8.48737433552742004395e-02) (21, 2.03678175806999206543e-01) (22, 2.60862167924642562866e-02) (23, 2.01609700918197631836e-01) (24, 1.55063882470130920410e-01) (25, 1.48198932409286499023e-01) (26, 1.82233914732933044434e-01) (27, 1.33621215820312500000e-01) (28, -4.12597507238388061523e-02) (29, 2.03798085451126098633e-01) (30, 2.64536231756210327148e-01) (31, 1.97997197508811950684e-01) (32, 1.26545235514640808105e-01) (33, 1.12647160887718200684e-01) (34, 1.73305258154869079590e-01) (35, 1.30027174949645996094e-01) (36, 9.84981209039688110352e-02) (37, 1.33426278829574584961e-01) (38, 2.21917226910591125488e-01) (39, 1.03716701269149780273e-01) (40, 4.99141067266464233398e-02) (41, 7.90176105499267578125e+00) (42, 1.90091285705566406250e+01) (43, 7.70181059837341308594e-01) (44, 4.68270331621170043945e-01) (45, 2.02223563194274902344e+00) (46, 1.75738143920898437500e+00) (47, 7.59760677814483642578e-01) (48, -2.77782082557678222656e-02) (49, 7.33326435089111328125e+00) (50, 7.67628860473632812500e+00) (51, 9.46881890296936035156e-01) (52, -5.73363862931728363037e-02) (53, 9.04138684272766113281e-01) (54, 5.98542451858520507813e-01) (55, 1.16882137954235076904e-01) (56, -2.24505495280027389526e-02) (57, 2.16589227318763732910e-01) (58, -1.04221463203430175781e-01) (59, 1.21770866215229034424e-01) (60, -1.06941603124141693115e-01) (61, -3.11350333504378795624e-03) (62, 4.27673831582069396973e-02) (63, 1.79866224527359008789e-01) (64, 6.72577917575836181641e-02) (65, 3.69958996772766113281e-01) (66, 3.95287014544010162354e-02) (67, 3.03032994270324707031e-01) (68, 7.42928534746170043945e-02) (69, 1.48917064070701599121e-01) (70, 3.46450582146644592285e-02) (71, 2.50941962003707885742e-01) (72, -5.82533888518810272217e-03) (73, 2.08763524889945983887e-01) (74, 1.60230863839387893677e-02) (75, 4.28185582160949707031e-01) (76, -5.36392740905284881592e-02) (77, 1.21146939694881439209e-01) (78, 1.45841181278228759766e-01) (79, 2.54348576068878173828e-01) (80, 1.93368587642908096313e-02) (81, -1.35730788111686706543e-01) (82, -8.54010999202728271484e-01) (83, 5.42564988136291503906e-01) (84, 2.94720619916915893555e-01) (85, 2.92948931455612182617e-01) (86, 3.80681492388248443604e-02) (87, 4.36841130256652832031e-01) (88, -8.53183642029762268066e-02) (89, 6.18317201733589172363e-02) (90, 6.15101099014282226563e-01) (91, 1.90491527318954467773e-01) (92, -3.86686027050018310547e-01) (93, 3.87007862329483032227e-01) (94, 1.56944617629051208496e-01) (95, 6.74986600875854492188e-01) (96, -4.60552377626299858093e-03) (97, 4.21262204647064208984e-01) (98, 9.89007413387298583984e-01) (99, 4.31586235761642456055e-01) (100, 4.34481114149093627930e-01) (101, 6.61026313900947570801e-02) (102, 4.48623031377792358398e-01) (103, 4.76823657751083374023e-01) (104, 7.88154527544975280762e-02) (105, 6.13792181015014648438e-01) (106, 7.38817036151885986328e-01) (107, 5.79402387142181396484e-01) (108, 5.66686689853668212891e-01) (109, 1.44007757306098937988e-01) (110, 3.57261687517166137695e-01) (111, 1.86659723520278930664e-01) (112, 2.72306323051452636719e-01) (113, 3.54215443134307861328e-01) (114, 7.11097776889801025391e-01) (115, 6.91242992877960205078e-01) (116, 4.24847036600112915039e-01) (117, -1.11860103905200958252e-01) (118, 3.69294057600200176239e-03) (119, -4.37490224838256835938e+00) (120, 3.09772163629531860352e-01) (121, 1.56432732939720153809e-01) (122, 6.39918625354766845703e-01) (123, 3.48458349704742431641e-01) (124, 4.88055050373077392578e-01) (125, 4.58029173314571380615e-02) (126, 3.07634532451629638672e-01) (127, 2.00778260827064514160e-01) (128, 1.06362462043762207031e-01) (129, 3.43011498451232910156e-01) (130, 4.58896070718765258789e-01) (131, 4.82242666184902191162e-02) (132, 2.41862788796424865723e-01) (133, 1.83622419834136962891e-01) (134, 4.81214940547943115234e-01) (135, -2.88143711090087890625e+01) (136, 2.58179634809494018555e-01) (137, 5.99497482180595397949e-02) (138, 5.53695678710937500000e-01) (139, 5.09221494197845458984e-01) (140, 4.82689142227172851563e-01) (141, 1.76085531711578369141e-01) (142, 2.59621560573577880859e-01) (143, 4.66056168079376220703e-01) (144, 2.57028430700302124023e-01) (145, 2.02613800764083862305e-01) (146, 1.11605294048786163330e-01) (147, 5.68250238895416259766e-01) (148, 5.04816114902496337891e-01) (149, 1.07430644333362579346e-01) (150, 1.02395027875900268555e-01) (151, 5.77697277069091796875e-01) (152, 1.19219087064266204834e-01) (153, 4.05158102512359619141e-01) (154, 1.51803642511367797852e-01) (155, 5.56045055389404296875e-01) (156, 1.50866359472274780273e-01) (157, 1.91162720322608947754e-01) (158, 1.14016100764274597168e-01) (159, -4.56584542989730834961e-01) (160, -4.02765417098999023438e+00) (161, 1.39630687236785888672e+00) (162, 1.06329940259456634521e-01) (163, 5.96571624279022216797e-01) (164, 5.54419696331024169922e-01) (165, 2.67610877752304077148e-01) (166, 1.13824777305126190186e-01) (167, 2.00676679611206054688e-01) (168, -4.20497560501098632813e+00) (169, 2.11696457862854003906e+00) (170, -8.10659676790237426758e-03) (171, 4.52357649803161621094e-01) (172, 3.64335864782333374023e-01) (173, 2.59230017662048339844e-01) (174, 2.12441325187683105469e-01) (175, 3.13362598419189453125e-01) (176, -4.57676076889038085938e+00) (177, 1.93456399440765380859e+00) (178, 6.25593185424804687500e-01) (179, 5.28494417667388916016e-01) (180, 5.13526976108551025391e-01) (181, 1.29933238029479980469e-01) (182, 2.57521331310272216797e-01) (183, 3.72409284114837646484e-01) (184, -6.29090785980224609375e+00) (185, 2.44361221790313720703e-01) (186, 3.11602354049682617188e-01) (187, -1.63691058754920959473e-01) (188, 5.43134450912475585938e-01) (189, 3.28029751777648925781e-01) (190, 2.81957477331161499023e-01) (191, 1.61510848999023437500e+01) (192, 4.56532418727874755859e-01) (193, 2.63536310195922851563e+00) (194, 3.83500313758850097656e+00) (195, -2.59032273292541503906e+00) (196, -2.78434276580810546875e-01) (197, 4.01508152484893798828e-01) (198, 2.20337986946105957031e-01) (199, 1.09601843357086181641e+00) (200, 8.03211629390716552734e-02) (201, 6.09316676855087280273e-02) (202, 2.18884006142616271973e-01) (203, 3.64999771118164062500e-02) (204, 1.44410312175750732422e-01) (205, 1.93032085895538330078e-01) (206, 6.92706033587455749512e-02) (207, 1.37782737612724304199e-01) (208, 5.85099570453166961670e-02) (209, 1.82235222309827804565e-02) (210, 1.06814578175544738770e-01) (211, 8.84483605623245239258e-02) (212, -2.90564112365245819092e-02) (213, 1.21758311986923217773e-01) (214, 1.25584751367568969727e-01) (215, -2.58516380563378334045e-03) (216, 6.03288002312183380127e-02) (217, 1.91868677735328674316e-01) (218, 6.49504885077476501465e-02) (219, 1.27541437745094299316e-01) (220, 6.07934445142745971680e-02) (221, -8.65477230399847030640e-03) (222, 9.60015878081321716309e-02) (223, 7.40933194756507873535e-02) (224, 4.52681742608547210693e-02) (225, 9.74700897932052612305e-02) (226, 1.46089866757392883301e-01) (227, 9.14148390293121337891e-02) (228, 8.44776481389999389648e-02) (229, 6.02339170873165130615e-02) (230, 2.56155487149953842163e-02) (231, 1.76455691456794738770e-01) (232, 1.07968196272850036621e-01) (233, 2.29690540581941604614e-02) (234, 9.19620096683502197266e-02) (235, 8.29008519649505615234e-02) (236, 1.66571717709302902222e-02) (237, 1.45161658525466918945e-01) (238, 3.64226959645748138428e-02) (239, 1.14872552454471588135e-01) (240, 1.61439701914787292480e-01) (241, 2.94716972857713699341e-02) (242, -3.23457978665828704834e-02) (243, 3.71793434023857116699e-02) (244, 1.02313332259654998779e-01) (245, 1.01812280714511871338e-01) (246, 1.04813307523727416992e-01) (247, 9.94367152452468872070e-02) (248, 1.28512293100357055664e-01) (249, 2.44082361459732055664e-01) (250, 2.14022547006607055664e-01) (251, 2.40896314382553100586e-01) (252, 1.90346971154212951660e-01) (253, 2.31356531381607055664e-01) (254, 2.01485887169837951660e-01) (255, 2.27914124727249145508e-01) (256, 1.89236149191856384277e-01) (0, -2.44463384151458740234e-01) (1, -2.81981885433197021484e-01) (2, -2.01689481735229492188e-01) (3, -2.04515397548675537109e-01) (4, -2.21208527684211730957e-01) (5, -2.68453717231750488281e-01) (6, -2.69735455513000488281e-01) (7, -1.92348390817642211914e-01) (8, -2.33024969696998596191e-01) (9, -1.68248340487480163574e-01) (10, -2.81951367855072021484e-01) (11, -2.48839214444160461426e-01) (12, -3.25878381729125976563e-01) (13, -1.62636458873748779297e-01) (14, -1.99053093791007995605e-01) (15, -2.56945580244064331055e-01) (16, -2.31710910797119140625e-01) (17, -1.63955792784690856934e-01) (18, -2.65750408172607421875e-01) (19, -2.34011918306350708008e-01) (20, -3.00564944744110107422e-01) (21, -3.10080349445343017578e-01) (22, -1.84561267495155334473e-01) (23, -1.60324200987815856934e-01) (24, -2.00913831591606140137e-01) (25, -2.86228924989700317383e-01) (26, -2.60771125555038452148e-01) (27, -1.61716789007186889648e-01) (28, -1.68070554733276367188e-01) (29, -1.76299259066581726074e-01) (30, -3.52045565843582153320e-01) (31, -3.58017504215240478516e-01) (32, -1.36301755905151367188e-01) (33, -2.76427090167999267578e-01) (34, -2.78534412384033203125e-01) (35, -2.84064173698425292969e-01) (36, -2.66734719276428222656e-01) (37, -1.07317233085632324219e+00) (38, -3.21046829223632812500e-01) (39, -4.87544447183609008789e-01) (40, -4.45996582508087158203e-01) (41, -9.05178636312484741211e-02) (42, 5.13388693332672119141e-01) (43, 4.28377568721771240234e-01) (44, 2.97919541597366333008e-01) (45, 3.92398536205291748047e-01) (46, -2.16080665588378906250e-01) (47, -4.79903578758239746094e-01) (48, -8.84598553180694580078e-01) (49, -1.62266552448272705078e-01) (50, 4.80596661567687988281e-01) (51, -3.65704226493835449219e+00) (52, 5.23134350776672363281e-01) (53, 3.63261133432388305664e-01) (54, 4.36518669128417968750e-01) (55, -1.40784108638763427734e+00) (56, -1.89377795904874801636e-02) (57, -1.75368264317512512207e-01) (58, 4.14719820022583007813e-01) (59, 4.38351064920425415039e-01) (60, 3.63554090261459350586e-01) (61, 5.82355380058288574219e-01) (62, 5.53211569786071777344e-01) (63, 2.97425955533981323242e-01) (64, -1.33581012487411499023e-01) (65, -1.92237034440040588379e-01) (66, 3.11613559722900390625e-01) (67, 6.23775959014892578125e-01) (68, 4.34958755970001220703e-01) (69, 4.84186440706253051758e-01) (70, -1.14429578185081481934e-01) (71, 5.85765182971954345703e-01) (72, -5.53766116499900817871e-02) (73, -3.17791104316711425781e-01) (74, -1.91545590758323669434e-01) (75, 5.85249185562133789063e-01) (76, 5.50856173038482666016e-01) (77, 5.87534725666046142578e-01) (78, 2.00363636016845703125e-01) (79, 1.08892768621444702148e-01) (80, -6.66833519935607910156e-01) (81, -5.73581337928771972656e-01) (82, 2.73415803909301757813e-01) (83, 6.17400050163269042969e-01) (84, 4.65973556041717529297e-01) (85, 5.14037072658538818359e-01) (86, -2.34291672706604003906e-01) (87, -3.87193381786346435547e-01) (88, -5.73330402374267578125e-01) (89, -4.51752543449401855469e-01) (90, 4.92189556360244750977e-01) (91, 6.17577075958251953125e-01) (92, 5.46469092369079589844e-01) (93, 4.91558969020843505859e-01) (94, -3.62504065036773681641e-01) (95, 2.72105813026428222656e-01) (96, -9.42082926630973815918e-02) (97, -1.33460715413093566895e-01) (98, 5.54108560085296630859e-01) (99, 9.83514726161956787109e-01) (100, 8.33839178085327148438e-01) (101, 5.55958330631256103516e-01) (102, -5.56465517729520797729e-03) (103, -1.62195101380348205566e-01) (104, -9.71605926752090454102e-02) (105, -1.32146835327148437500e-01) (106, 3.57280343770980834961e-01) (107, 8.87047350406646728516e-01) (108, 3.38488489389419555664e-01) (109, -2.21695756912231445313e+00) (110, -5.52113205194473266602e-02) (111, 2.42678337097167968750e+01) (112, -2.85080671310424804688e-01) (113, -1.18418172001838684082e-01) (114, 5.04814445972442626953e-01) (115, 5.55674612522125244141e-01) (116, 7.31075942516326904297e-01) (117, 3.49058806896209716797e-01) (118, 3.84079944342374801636e-03) (119, 8.91861572265625000000e+01) (120, -7.86851525306701660156e-01) (121, -4.55769263207912445068e-02) (122, 5.15220940113067626953e-01) (123, 4.72765982151031494141e-01) (124, 5.17544031143188476563e-01) (125, 4.27866786718368530273e-01) (126, -1.40775799751281738281e-01) (127, 4.98097267150878906250e+01) (128, -1.81795746088027954102e-01) (129, -7.55796208977699279785e-02) (130, 4.77427721023559570313e-01) (131, 8.61851871013641357422e-01) (132, 7.58861482143402099609e-01) (133, 4.13226932287216186523e-01) (134, -1.35333761572837829590e-01) (135, -7.14913711547851562500e+01) (136, -2.18875437974929809570e-01) (137, -4.72667366266250610352e-02) (138, 4.11192446947097778320e-01) (139, 4.78011071681976318359e-01) (140, 4.18046385049819946289e-01) (141, 4.09490108489990234375e-01) (142, -2.18255013227462768555e-01) (143, -8.23759436607360839844e-01) (144, -1.37054860591888427734e-01) (145, -1.04075041599571704865e-03) (146, 3.05777937173843383789e-01) (147, 5.79144120216369628906e-01) (148, 4.40866857767105102539e-01) (149, 4.41579461097717285156e-01) (150, -6.62708049640059471130e-03) (151, 1.29519891738891601563e+01) (152, -4.61967661976814270020e-02) (153, -2.41940185427665710449e-01) (154, 3.31375539302825927734e-01) (155, 6.12774491310119628906e-01) (156, 2.86110907793045043945e-01) (157, 5.39699375629425048828e-01) (158, -2.52038612961769104004e-02) (159, 1.55562162399291992188e+00) (160, -6.79969117045402526855e-02) (161, -1.89626276493072509766e-01) (162, 1.28461033105850219727e-01) (163, 3.51653277873992919922e-01) (164, 2.96877652406692504883e-01) (165, -3.49490731954574584961e-01) (166, -9.67974141240119934082e-02) (167, -6.14637255668640136719e-01) (168, -4.69350628554821014404e-02) (169, -3.29845130443572998047e-01) (170, 4.30468827486038208008e-01) (171, 3.70848834514617919922e-01) (172, 6.11924290657043457031e-01) (173, 6.20687603950500488281e-01) (174, -3.48569750785827636719e-02) (175, -5.50430655479431152344e-01) (176, 1.90451741218566894531e-02) (177, -1.45357456058263778687e-02) (178, 3.60918074846267700195e-01) (179, 8.13764095306396484375e-01) (180, 3.34772288799285888672e-01) (181, -4.28539998829364776611e-02) (182, -6.17135688662528991699e-02) (183, -1.22370982170104980469e+00) (184, -6.47646188735961914063e-01) (185, -2.57778286933898925781e+00) (186, 3.08331578969955444336e-01) (187, 6.48788869380950927734e-01) (188, 7.21695005893707275391e-01) (189, 4.38266724348068237305e-01) (190, -1.55627215281128883362e-02) (191, 4.50712203979492187500e+00) (192, -2.52463936805725097656e-01) (193, -3.75106036663055419922e-01) (194, 2.64996647834777832031e-01) (195, 5.40436685085296630859e-01) (196, 6.90287172794342041016e-01) (197, 4.63760048151016235352e-01) (198, -1.03188306093215942383e-01) (199, 6.91770315170288085938e-01) (200, -2.08971694111824035645e-01) (201, -2.34210252761840820313e-01) (202, -2.68097102642059326172e-01) (203, -1.59268304705619812012e-01) (204, -3.06808888912200927734e-01) (205, -2.54037529230117797852e-01) (206, -2.99964427947998046875e-01) (207, -1.69916376471519470215e-01) (208, -8.00374988466501235962e-03) (209, -1.03165052831172943115e-01) (210, -3.18380296230316162109e-01) (211, -3.27124029397964477539e-01) (212, -2.56932049989700317383e-01) (213, -2.64192909002304077148e-01) (214, -2.17797517776489257813e-01) (215, -2.83380270004272460938e-01) (216, -4.47347387671470642090e-02) (217, -2.87326909601688385010e-02) (218, -2.83626854419708251953e-01) (219, -2.57836967706680297852e-01) (220, -2.28336900472640991211e-01) (221, 3.02087247371673583984e-01) (222, 3.57807844877243041992e-01) (223, -2.47277930378913879395e-01) (224, -1.13705806434154510498e-01) (225, -3.19187045097351074219e-02) (226, -2.08599463105201721191e-01) (227, -2.51139879226684570313e-01) (228, -3.18544298410415649414e-01) (229, 3.25433224439620971680e-01) (230, 3.22608888149261474609e-01) (231, -2.84995853900909423828e-01) (232, -4.00074943900108337402e-02) (233, -7.50417187809944152832e-02) (234, -1.54357448220252990723e-01) (235, -2.44422882795333862305e-01) (236, -1.02754667401313781738e-01) (237, 5.54417848587036132813e-01) (238, -2.71933704614639282227e-01) (239, -2.04142257571220397949e-01) (240, -1.22148461639881134033e-01) (241, -1.71734169125556945801e-01) (242, -2.37323433160781860352e-01) (243, -2.85414308309555053711e-01) (244, -1.57603383064270019531e-01) (245, -2.71396040916442871094e-01) (246, -2.89048910140991210938e-01) (247, -1.73185542225837707520e-01) (248, -2.52344042062759399414e-01) (249, -2.43213042616844177246e-01) (250, -2.90277600288391113281e-01) (251, -3.49957764148712158203e-01) (252, -2.88684546947479248047e-01) (253, -2.57953166961669921875e-01) (254, -2.77490735054016113281e-01) (255, -2.85791516304016113281e-01) (256, -2.13403478264808654785e-01) (0, -3.72940935194492340088e-02) (1, -5.24724200367927551270e-02) (2, -3.11467442661523818970e-02) (3, -9.39858630299568176270e-02) (4, 1.80877279490232467651e-02) (5, 2.53231410169973969460e-04) (6, -1.08643405139446258545e-01) (7, 9.22822672873735427856e-03) (8, -1.53381988406181335449e-01) (9, -1.40791133046150207520e-01) (10, -1.20622240006923675537e-01) (11, 7.55151314660906791687e-03) (12, -2.37778313457965850830e-02) (13, -5.51848625764250755310e-03) (14, -9.58780720829963684082e-02) (15, -6.72879070043563842773e-02) (16, -1.64302542805671691895e-01) (17, -2.03327126801013946533e-02) (18, -5.44025264680385589600e-02) (19, -1.27510398626327514648e-01) (20, -5.35466894507408142090e-03) (21, -1.11822292208671569824e-01) (22, 1.36904083192348480225e-02) (23, -6.46665096282958984375e-02) (24, 4.57510724663734436035e-03) (25, -1.59718140959739685059e-01) (26, -3.97885031998157501221e-02) (27, 3.10268928296864032745e-03) (28, -1.66788324713706970215e-02) (29, -1.76006972789764404297e-01) (30, -3.46750736236572265625e-01) (31, -4.07615005970001220703e-01) (32, -3.13859462738037109375e-01) (33, -4.37317132949829101563e-01) (34, 1.08493827283382415771e-02) (35, 3.05801187641918659210e-03) (36, -6.76462501287460327148e-02) (37, -1.50721132755279541016e-01) (38, -4.10223484039306640625e-01) (39, -3.30549478530883789063e-01) (40, -3.92625391483306884766e-01) (41, -2.21186414361000061035e-01) (42, 4.22450631856918334961e-01) (43, 3.54479223489761352539e-01) (44, 2.85581916570663452148e-01) (45, 3.55906069278717041016e-01) (46, -8.17931219935417175293e-02) (47, -4.43817019462585449219e-01) (48, -4.77564930915832519531e-01) (49, -3.36672551929950714111e-02) (50, 3.53111088275909423828e-01) (51, 2.83590167760848999023e-01) (52, 3.36057960987091064453e-01) (53, 4.56385582685470581055e-01) (54, -7.02852569520473480225e-03) (55, -2.44516938924789428711e-01) (56, -3.69673371315002441406e-02) (57, -7.02316835522651672363e-02) (58, -1.04754664003849029541e-01) (59, 2.59928673505783081055e-01) (60, 4.26861554384231567383e-01) (61, -9.80762997642159461975e-04) (62, -3.61919403076171875000e-02) (63, -3.96512120962142944336e-01) (64, 1.53853401541709899902e-01) (65, -8.59611406922340393066e-02) (66, -3.35119143128395080566e-02) (67, 2.65057772397994995117e-01) (68, 4.33840066194534301758e-01) (69, -8.15776959061622619629e-02) (70, -5.12920379638671875000e-01) (71, -3.53445351123809814453e-01) (72, -7.70289003849029541016e-02) (73, -1.97936058044433593750e-01) (74, -2.44258698076009750366e-02) (75, 4.11261290311813354492e-01) (76, 3.22136491537094116211e-01) (77, -1.58312350511550903320e-01) (78, -3.25558423995971679688e-01) (79, -4.72990900278091430664e-01) (80, -5.98499715328216552734e-01) (81, -9.45551767945289611816e-02) (82, 1.69779762625694274902e-01) (83, 4.15026456117630004883e-01) (84, 4.80309486389160156250e-01) (85, 2.21303403377532958984e-01) (86, -1.70826107263565063477e-01) (87, -4.90221023559570312500e-01) (88, -6.45646870136260986328e-01) (89, -1.64123699069023132324e-01) (90, 2.77376979589462280273e-01) (91, 4.29152399301528930664e-01) (92, 5.02611875534057617188e-01) (93, 3.91327559947967529297e-01) (94, -8.87738108634948730469e-01) (95, 2.41160258650779724121e-01) (96, -1.11263610422611236572e-01) (97, -2.12506353855133056641e-01) (98, 4.07712161540985107422e-01) (99, 2.76035726070404052734e-01) (100, 4.27772819995880126953e-01) (101, 3.25503081083297729492e-01) (102, -6.76084339618682861328e-01) (103, 5.44794909656047821045e-02) (104, -6.19656741619110107422e-02) (105, -5.68896234035491943359e-02) (106, 4.30033415555953979492e-01) (107, 3.03591817617416381836e-01) (108, 3.82462114095687866211e-01) (109, -1.33027043193578720093e-02) (110, -3.77630680799484252930e-01) (111, -1.24129615724086761475e-01) (112, -5.13755306601524353027e-02) (113, 3.05889427661895751953e-01) (114, 3.41845542192459106445e-01) (115, 4.99276429414749145508e-01) (116, 1.77024856209754943848e-01) (117, 3.25130717828869819641e-03) (118, -3.64370644092559814453e-01) (119, 2.34086751937866210938e-01) (120, -1.27133637666702270508e-01) (121, 1.03377953171730041504e-01) (122, 4.34460759162902832031e-01) (123, 6.47064268589019775391e-01) (124, 4.66255754232406616211e-01) (125, 2.64315232634544372559e-02) (126, -3.11549276113510131836e-01) (127, 4.17842268943786621094e-02) (128, 1.83927677571773529053e-02) (129, 1.83995112776756286621e-01) (130, 3.94037663936614990234e-01) (131, 5.14662563800811767578e-01) (132, 3.43955487012863159180e-01) (133, 2.53811985254287719727e-01) (134, -5.73472797870635986328e-01) (135, 1.12596869468688964844e-01) (136, 4.90753799676895141602e-01) (137, -1.26267626881599426270e-01) (138, 4.20736938714981079102e-01) (139, 3.81753414869308471680e-01) (140, 3.81726622581481933594e-01) (141, 4.26086515188217163086e-01) (142, -3.83725672960281372070e-01) (143, -5.67810647189617156982e-02) (144, 4.97185327112674713135e-02) (145, -6.19326671585440635681e-03) (146, 3.64149779081344604492e-01) (147, 4.04236912727355957031e-01) (148, 3.92804443836212158203e-01) (149, -1.57068982720375061035e-01) (150, -4.91906404495239257813e-01) (151, 2.62871712446212768555e-01) (152, 1.54249861836433410645e-01) (153, -1.22049272060394287109e-01) (154, 2.53655880689620971680e-01) (155, 2.97232210636138916016e-01) (156, 3.50615978240966796875e-01) (157, -2.06679239869117736816e-01) (158, -4.86943155527114868164e-01) (159, -1.40167549252510070801e-01) (160, 2.34562586992979049683e-02) (161, -6.89156800508499145508e-02) (162, -3.64932939410209655762e-02) (163, 3.92696171998977661133e-01) (164, 3.78847092390060424805e-01) (165, -2.82826781272888183594e-01) (166, -4.59578841924667358398e-01) (167, -9.05775725841522216797e-02) (168, 4.58960235118865966797e-01) (169, 2.75732353329658508301e-02) (170, -8.22090432047843933105e-02) (171, 3.71578991413116455078e-01) (172, 2.58461564779281616211e-01) (173, 2.14565142989158630371e-01) (174, -3.85742992162704467773e-01) (175, -2.07983523607254028320e-01) (176, 1.41537293791770935059e-01) (177, 3.52036148309707641602e-01) (178, 3.95668268203735351563e-01) (179, 3.40626418590545654297e-01) (180, 1.54655620455741882324e-01) (181, 2.26729720830917358398e-01) (182, -4.21204268932342529297e-01) (183, -4.84569281339645385742e-01) (184, -1.63162916898727416992e-01) (185, 5.39953768253326416016e-01) (186, 5.98519444465637207031e-01) (187, 9.00829076766967773438e-01) (188, 4.46491926908493041992e-01) (189, 2.77174741029739379883e-01) (190, -5.17369732260704040527e-02) (191, -4.16169613599777221680e-01) (192, -7.23080456256866455078e-01) (193, 2.24784627556800842285e-01) (194, 4.40265774726867675781e-01) (195, 6.30458474159240722656e-01) (196, 6.01772844791412353516e-01) (197, 3.00056159496307373047e-01) (198, -4.95357185602188110352e-01) (199, -6.64677739143371582031e-01) (200, -4.98736739158630371094e-01) (201, -4.68519747257232666016e-01) (202, -2.92759519070386886597e-02) (203, -1.06498278677463531494e-01) (204, -1.13212145864963531494e-01) (205, -1.31759256124496459961e-01) (206, -4.39400374889373779297e-01) (207, -3.77315461635589599609e-01) (208, -4.55563664436340332031e-02) (209, -1.21608503162860870361e-01) (210, -7.84154012799263000488e-02) (211, -7.35098347067832946777e-02) (212, -2.56131906062364578247e-02) (213, 2.86898668855428695679e-03) (214, -1.08704142272472381592e-01) (215, -1.52970924973487854004e-01) (216, -5.09274601936340332031e-02) (217, -1.02919645607471466064e-01) (218, 5.45301660895347595215e-03) (219, 1.20980488136410713196e-02) (220, -1.65194436907768249512e-01) (221, -1.05348728597164154053e-01) (222, -1.72212526202201843262e-01) (223, -1.63200467824935913086e-01) (224, -1.51387497782707214355e-01) (225, -9.26060751080513000488e-02) (226, -1.38198047876358032227e-01) (227, -5.11755608022212982178e-03) (228, -9.80240628123283386230e-02) (229, -3.79170849919319152832e-02) (230, 1.86766255646944046021e-02) (231, -3.58770102262496948242e-01) (232, 1.19675742462277412415e-02) (233, -1.56586363911628723145e-01) (234, -1.49603956378996372223e-03) (235, -2.38398313522338867188e-02) (236, -3.64762544631958007813e-02) (237, 3.50747816264629364014e-03) (238, -1.84383496642112731934e-01) (239, -6.73248320817947387695e-02) (240, -7.28707164525985717773e-02) (241, -1.03361323475837707520e-01) (242, -8.59020091593265533447e-03) (243, -1.33295590057969093323e-02) (244, -6.09871782362461090088e-02) (245, -1.76638647913932800293e-01) (246, -1.46921843290328979492e-01) (247, -1.17802001535892486572e-01) (248, -3.58808249235153198242e-01) (249, -3.35382968187332153320e-01) (250, -5.34471473656594753265e-04) (251, -1.91013775765895843506e-02) (252, -1.27475351095199584961e-01) (253, -9.38511267304420471191e-02) (254, -6.91379606723785400391e-02) (255, -1.73227325081825256348e-01) (256, -1.11417047679424285889e-01) (0, -4.07152697443962097168e-02) (1, -1.74931064248085021973e-01) (2, -2.27828342467546463013e-02) (3, -3.52338664233684539795e-02) (4, -1.35675758123397827148e-01) (5, -1.31005033850669860840e-01) (6, -4.88485135138034820557e-02) (7, -1.20766028761863708496e-01) (8, -2.05186560750007629395e-01) (9, -5.97151070833206176758e-02) (10, -7.96770974993705749512e-02) (11, -1.68944790959358215332e-01) (12, -2.44954545050859451294e-02) (13, -5.03072328865528106689e-02) (14, 5.07601238787174224854e-02) (15, -9.15925353765487670898e-02) (16, -1.12046636641025543213e-01) (17, -2.03978598117828369141e-01) (18, -2.05118641257286071777e-01) (19, -8.53739008307456970215e-02) (20, -1.19718395173549652100e-01) (21, -9.99697223305702209473e-02) (22, -8.62612202763557434082e-02) (23, -1.24872200191020965576e-01) (24, -1.24891430139541625977e-01) (25, -1.09801404178142547607e-01) (26, -1.69121369719505310059e-01) (27, -1.16252869367599487305e-01) (28, -2.02124834060668945313e-01) (29, -1.21557086706161499023e-01) (30, -2.49053448438644409180e-01) (31, -2.13299110531806945801e-01) (32, -2.90363840758800506592e-02) (33, 4.08286564052104949951e-02) (34, -3.18087607622146606445e-01) (35, -1.36222153902053833008e-01) (36, -1.46998211741447448730e-01) (37, -1.08698911964893341064e-01) (38, -1.54111966490745544434e-01) (39, -3.29211652278900146484e-01) (40, 3.11439819633960723877e-02) (41, 1.83282941579818725586e-01) (42, 3.54878693819046020508e-01) (43, 9.56940427422523498535e-02) (44, 1.68435305356979370117e-01) (45, 4.72953081130981445313e-01) (46, -1.73638626933097839355e-01) (47, -1.59366324543952941895e-01) (48, -2.01951693743467330933e-02) (49, -2.03076735138893127441e-01) (50, 2.81503826379776000977e-01) (51, 2.00832977890968322754e-01) (52, 2.64592111110687255859e-01) (53, 5.03147244453430175781e-01) (54, 3.67861017584800720215e-02) (55, -2.82888829708099365234e-01) (56, 6.26480579376220703125e-02) (57, 3.53788956999778747559e-02) (58, -3.52891653776168823242e-01) (59, 2.07727268338203430176e-01) (60, 4.60598468780517578125e-01) (61, -1.05216011404991149902e-01) (62, 5.95385245978832244873e-02) (63, -2.71724667400121688843e-02) (64, -4.08262349665164947510e-02) (65, 5.19790761172771453857e-02) (66, -3.39672088623046875000e-01) (67, -2.22778454422950744629e-01) (68, 5.02097249031066894531e-01) (69, -8.90780892223119735718e-03) (70, -7.78940394520759582520e-02) (71, -1.78548336029052734375e-01) (72, -7.18199685215950012207e-02) (73, -5.69582208991050720215e-02) (74, -3.11996549367904663086e-01) (75, 2.76250511407852172852e-01) (76, 4.05109345912933349609e-01) (77, -1.36241495609283447266e-01) (78, -1.27754583954811096191e-01) (79, -1.27022847533226013184e-01) (80, -6.90935790538787841797e-01) (81, 1.09373584389686584473e-01) (82, 2.15284645557403564453e-01) (83, 5.13632893562316894531e-01) (84, 5.72204291820526123047e-01) (85, 5.92684864997863769531e-01) (86, -1.84380158782005310059e-01) (87, 1.60811305046081542969e-01) (88, 6.56009241938591003418e-02) (89, 1.32333829998970031738e-01) (90, 3.72766286134719848633e-01) (91, 5.82473576068878173828e-01) (92, 7.01027214527130126953e-01) (93, 3.97175371646881103516e-01) (94, -1.55196501873433589935e-03) (95, 3.89733463525772094727e-01) (96, 6.07446096837520599365e-02) (97, -1.93304464221000671387e-01) (98, 3.63598048686981201172e-01) (99, 5.17680585384368896484e-01) (100, 3.12292397022247314453e-01) (101, -4.52763497829437255859e-01) (102, -2.53002066165208816528e-02) (103, 3.72025489807128906250e-01) (104, -1.16697818040847778320e-01) (105, -3.80122996866703033447e-02) (106, 3.82712095975875854492e-01) (107, 3.46623212099075317383e-01) (108, 2.51949608325958251953e-01) (109, -6.08826398849487304688e-01) (110, 3.86111065745353698730e-02) (111, 3.45446467399597167969e-01) (112, -4.90009672939777374268e-02) (113, 4.34082120656967163086e-01) (114, 3.14913272857666015625e-01) (115, 5.69804012775421142578e-01) (116, 3.56012016534805297852e-01) (117, -2.05160841345787048340e-01) (118, 3.24033983051776885986e-02) (119, 3.17183405160903930664e-01) (120, 8.16847681999206542969e-02) (121, 1.41501426696777343750e-01) (122, 3.11501443386077880859e-01) (123, 5.14575839042663574219e-01) (124, 3.30069839954376220703e-01) (125, -2.15439900755882263184e-01) (126, -1.62212058901786804199e-01) (127, 1.91934719681739807129e-01) (128, 1.08996547758579254150e-01) (129, 1.90880298614501953125e-01) (130, 2.22354039549827575684e-01) (131, 5.65681338310241699219e-01) (132, 2.21416041254997253418e-01) (133, -5.81821799278259277344e-01) (134, 1.05510227382183074951e-01) (135, 2.49614641070365905762e-01) (136, 1.16085849702358245850e-01) (137, -4.73587922751903533936e-02) (138, 2.50998169183731079102e-01) (139, 4.98793989419937133789e-01) (140, 3.73980700969696044922e-01) (141, -6.00888669490814208984e-01) (142, -3.53154316544532775879e-02) (143, 9.95431914925575256348e-02) (144, 1.17790341377258300781e-01) (145, -4.67358268797397613525e-02) (146, 2.58536547422409057617e-01) (147, 3.94298344850540161133e-01) (148, 1.53029814362525939941e-01) (149, -5.01431763172149658203e-01) (150, 1.77363324910402297974e-02) (151, 6.32895752787590026855e-02) (152, 1.50924459099769592285e-01) (153, 8.61689969897270202637e-02) (154, -3.37780326604843139648e-01) (155, 1.32342696189880371094e-01) (156, 2.83241510391235351563e-01) (157, -3.96319538354873657227e-01) (158, -3.62681336700916290283e-02) (159, 1.15815617144107818604e-01) (160, 1.47962734103202819824e-01) (161, -7.29871168732643127441e-02) (162, -8.40212404727935791016e-03) (163, 2.37179577350616455078e-01) (164, 1.11620441079139709473e-01) (165, -5.50054907798767089844e-01) (166, 8.98773521184921264648e-02) (167, 3.93039762973785400391e-01) (168, 1.13188982009887695313e-01) (169, -3.01806107163429260254e-02) (170, -6.63798823952674865723e-02) (171, 2.41760626435279846191e-01) (172, 1.47009268403053283691e-01) (173, -1.33312851190567016602e-01) (174, 4.29169870913028717041e-02) (175, 1.75848066806793212891e-01) (176, 9.89736020565032958984e-02) (177, 2.76120841503143310547e-01) (178, 2.90214926004409790039e-01) (179, 4.35604393482208251953e-01) (180, 1.86782732605934143066e-01) (181, -1.07117734849452972412e-01) (182, 1.30771636962890625000e-01) (183, 9.82166379690170288086e-02) (184, 4.15417671203613281250e-01) (185, 4.64266352355480194092e-02) (186, 3.12796533107757568359e-01) (187, 1.04530847072601318359e+00) (188, 7.68587112426757812500e-01) (189, 6.20523579418659210205e-02) (190, -6.23186938464641571045e-02) (191, 6.34787157177925109863e-02) (192, -5.85017144680023193359e-01) (193, 5.03960102796554565430e-02) (194, 1.75583913922309875488e-01) (195, 6.22614741325378417969e-01) (196, 6.77773714065551757813e-01) (197, 2.97511875629425048828e-01) (198, -1.70783534646034240723e-01) (199, -1.69682538509368896484e+00) (200, -3.51458668708801269531e-01) (201, -2.24530175328254699707e-01) (202, -2.96253055334091186523e-01) (203, -2.92029410600662231445e-01) (204, -3.61798673868179321289e-01) (205, -2.12532132863998413086e-01) (206, -1.28762573003768920898e-01) (207, -4.86969500780105590820e-02) (208, -2.18770161271095275879e-01) (209, -2.94980525970458984375e-01) (210, -2.65812993049621582031e-01) (211, -1.87267120927572250366e-02) (212, -9.17190238833427429199e-02) (213, -1.18295282125473022461e-01) (214, -1.80153995752334594727e-01) (215, -1.21770545840263366699e-01) (216, -2.27858290076255798340e-01) (217, -1.61361709237098693848e-01) (218, -2.28660359978675842285e-01) (219, -1.15302585065364837646e-01) (220, -3.33999805152416229248e-02) (221, 1.02822192013263702393e-01) (222, 7.26131573319435119629e-02) (223, -1.04625791311264038086e-01) (224, -2.72641658782958984375e-01) (225, -1.96001529693603515625e-01) (226, -1.90073460340499877930e-01) (227, -8.51333364844322204590e-02) (228, -7.18656033277511596680e-02) (229, -5.49299418926239013672e-02) (230, 1.78299401886761188507e-03) (231, -2.29077711701393127441e-01) (232, -2.03625991940498352051e-01) (233, -9.17874127626419067383e-02) (234, -1.37007519602775573730e-01) (235, -6.42277300357818603516e-02) (236, -1.28643184900283813477e-01) (237, -2.14937850832939147949e-02) (238, -3.02647829055786132813e-01) (239, -3.70104938745498657227e-01) (240, -1.13294556736946105957e-01) (241, -1.50834679603576660156e-01) (242, -1.12375058233737945557e-01) (243, -1.77799686789512634277e-02) (244, -9.06424317508935928345e-03) (245, -1.77434548735618591309e-01) (246, -2.44386509060859680176e-01) (247, -3.01290005445480346680e-01) (248, -3.63104850053787231445e-01) (249, -3.40949088335037231445e-01) (250, -2.39447161555290222168e-01) (251, -1.86633452773094177246e-01) (252, -3.00733000040054321289e-01) (253, -3.40375334024429321289e-01) (254, -2.28851452469825744629e-01) (255, -1.81543126702308654785e-01) (256, -2.48065307736396789551e-01) (0, 1.25849425792694091797e-01) (1, 4.93641905486583709717e-02) (2, 1.36333361268043518066e-01) (3, -1.25244501978158950806e-02) (4, 1.03440284729003906250e-01) (5, 5.69040589034557342529e-02) (6, 6.41337633132934570313e-02) (7, 1.69281214475631713867e-02) (8, 8.72569233179092407227e-02) (9, 4.71355654299259185791e-02) (10, 1.40151485800743103027e-01) (11, -2.45093386620283126831e-02) (12, 1.02990288287401199341e-02) (13, -5.01584112644195556641e-02) (14, 1.40444830060005187988e-01) (15, 1.38770759105682373047e-01) (16, 