FANN_FLO_2.1
num_layers=4
learning_rate=0.700000
connection_rate=1.000000
network_type=0
learning_momentum=0.000000
training_algorithm=2
train_error_function=1
train_stop_function=0
cascade_output_change_fraction=0.010000
quickprop_decay=-0.000100
quickprop_mu=1.750000
rprop_increase_factor=1.200000
rprop_decrease_factor=0.500000
rprop_delta_min=0.000000
rprop_delta_max=50.000000
rprop_delta_zero=0.100000
cascade_output_stagnation_epochs=12
cascade_candidate_change_fraction=0.010000
cascade_candidate_stagnation_epochs=12
cascade_max_out_epochs=150
cascade_min_out_epochs=50
cascade_max_cand_epochs=150
cascade_min_cand_epochs=50
cascade_num_candidate_groups=2
bit_fail_limit=3.49999994039535522461e-01
cascade_candidate_limit=1.00000000000000000000e+03
cascade_weight_multiplier=4.00000005960464477539e-01
cascade_activation_functions_count=10
cascade_activation_functions=3 5 7 8 10 11 14 15 16 17 
cascade_activation_steepnesses_count=4
cascade_activation_steepnesses=2.50000000000000000000e-01 5.00000000000000000000e-01 7.50000000000000000000e-01 1.00000000000000000000e+00 
layer_sizes=257 4 4 2 
scale_included=0
neurons (num_inputs, activation_function, activation_steepness)=(0, 0, 0.00000000000000000000e+00) (0, 0, 0.00000000000000000000e+00) (0, 0, 0.00000000000000000000e+00) (0, 0, 0.00000000000000000000e+00) (0, 0, 0.00000000000000000000e+00) (0, 0, 0.00000000000000000000e+00) (0, 0, 0.00000000000000000000e+00) (0, 0, 0.00000000000000000000e+00) (0, 0, 0.00000000000000000000e+00) (0, 0, 0.00000000000000000000e+00) (0, 0, 0.00000000000000000000e+00) (0, 0, 0.00000000000000000000e+00) (0, 0, 0.00000000000000000000e+00) (0, 0, 0.00000000000000000000e+00) (0, 0, 0.00000000000000000000e+00) (0, 0, 0.00000000000000000000e+00) (0, 0, 0.00000000000000000000e+00) (0, 0, 0.00000000000000000000e+00) (0, 0, 0.00000000000000000000e+00) (0, 0, 0.00000000000000000000e+00) (0, 0, 0.00000000000000000000e+00) (0, 0, 0.00000000000000000000e+00) (0, 0, 0.00000000000000000000e+00) (0, 0, 0.00000000000000000000e+00) (0, 0, 0.00000000000000000000e+00) (0, 0, 0.00000000000000000000e+00) (0, 0, 0.00000000000000000000e+00) (0, 0, 0.00000000000000000000e+00) (0, 0, 0.00000000000000000000e+00) (0, 0, 0.00000000000000000000e+00) (0, 0, 0.00000000000000000000e+00) (0, 0, 0.00000000000000000000e+00) (0, 0, 0.00000000000000000000e+00) (0, 0, 0.00000000000000000000e+00) (0, 0, 0.00000000000000000000e+00) (0, 0, 0.00000000000000000000e+00) (0, 0, 0.00000000000000000000e+00) (0, 0, 0.00000000000000000000e+00) (0, 0, 0.00000000000000000000e+00) (0, 0, 0.00000000000000000000e+00) (0, 0, 0.00000000000000000000e+00) (0, 0, 0.00000000000000000000e+00) (0, 0, 0.00000000000000000000e+00) (0, 0, 0.00000000000000000000e+00) (0, 0, 0.00000000000000000000e+00) (0, 0, 0.00000000000000000000e+00) (0, 0, 0.00000000000000000000e+00) (0, 0, 0.00000000000000000000e+00) (0, 0, 0.00000000000000000000e+00) (0, 0, 0.00000000000000000000e+00) (0, 0, 0.00000000000000000000e+00) (0, 0, 0.00000000000000000000e+00) (0, 0, 0.00000000000000000000e+00) (0, 0, 0.00000000000000000000e+00) (0, 0, 0.00000000000000000000e+00) (0, 0, 0.00000000000000000000e+00) (0, 0, 0.00000000000000000000e+00) (0, 0, 0.00000000000000000000e+00) (0, 0, 0.00000000000000000000e+00) (0, 0, 0.00000000000000000000e+00) (0, 0, 0.00000000000000000000e+00) (0, 0, 0.00000000000000000000e+00) (0, 0, 0.00000000000000000000e+00) (0, 0, 0.00000000000000000000e+00) (0, 0, 0.00000000000000000000e+00) (0, 0, 0.00000000000000000000e+00) (0, 0, 0.00000000000000000000e+00) (0, 0, 0.00000000000000000000e+00) (0, 0, 0.00000000000000000000e+00) (0, 0, 0.00000000000000000000e+00) (0, 0, 0.00000000000000000000e+00) (0, 0, 0.00000000000000000000e+00) (0, 0, 0.00000000000000000000e+00) (0, 0, 0.00000000000000000000e+00) (0, 0, 0.00000000000000000000e+00) (0, 0, 0.00000000000000000000e+00) (0, 0, 0.00000000000000000000e+00) (0, 0, 0.00000000000000000000e+00) (0, 0, 0.00000000000000000000e+00) (0, 0, 0.00000000000000000000e+00) (0, 0, 0.00000000000000000000e+00) (0, 0, 0.00000000000000000000e+00) (0, 0, 0.00000000000000000000e+00) (0, 0, 0.00000000000000000000e+00) (0, 0, 0.00000000000000000000e+00) (0, 0, 0.00000000000000000000e+00) (0, 0, 0.00000000000000000000e+00) (0, 0, 0.00000000000000000000e+00) (0, 0, 0.00000000000000000000e+00) (0, 0, 0.00000000000000000000e+00) (0, 0, 0.00000000000000000000e+00) (0, 0, 0.00000000000000000000e+00) (0, 0, 0.00000000000000000000e+00) (0, 0, 0.00000000000000000000e+00) (0, 0, 0.00000000000000000000e+00) (0, 0, 0.00000000000000000000e+00) (0, 0, 0.00000000000000000000e+00) (0, 0, 0.00000000000000000000e+00) (0, 0, 0.00000000000000000000e+00) (0, 0, 0.00000000000000000000e+00) (0, 0, 0.00000000000000000000e+00) (0, 0, 0.00000000000000000000e+00) (0, 0, 0.00000000000000000000e+00) (0, 0, 0.00000000000000000000e+00) (0, 0, 0.00000000000000000000e+00) (0, 0, 0.00000000000000000000e+00) (0, 0, 0.00000000000000000000e+00) (0, 0, 0.00000000000000000000e+00) (0, 0, 0.00000000000000000000e+00) (0, 0, 0.00000000000000000000e+00) (0, 0, 0.00000000000000000000e+00) (0, 0, 0.00000000000000000000e+00) (0, 0, 0.00000000000000000000e+00) (0, 0, 0.00000000000000000000e+00) (0, 0, 0.00000000000000000000e+00) (0, 0, 0.00000000000000000000e+00) (0, 0, 0.00000000000000000000e+00) (0, 0, 0.00000000000000000000e+00) (0, 0, 0.00000000000000000000e+00) (0, 0, 0.00000000000000000000e+00) (0, 0, 0.00000000000000000000e+00) (0, 0, 0.00000000000000000000e+00) (0, 0, 0.00000000000000000000e+00) (0, 0, 0.00000000000000000000e+00) (0, 0, 0.00000000000000000000e+00) (0, 0, 0.00000000000000000000e+00) (0, 0, 0.00000000000000000000e+00) (0, 0, 0.00000000000000000000e+00) (0, 0, 0.00000000000000000000e+00) (0, 0, 0.00000000000000000000e+00) (0, 0, 0.00000000000000000000e+00) (0, 0, 0.00000000000000000000e+00) (0, 0, 0.00000000000000000000e+00) (0, 0, 0.00000000000000000000e+00) (0, 0, 0.00000000000000000000e+00) (0, 0, 0.00000000000000000000e+00) (0, 0, 0.00000000000000000000e+00) (0, 0, 0.00000000000000000000e+00) (0, 0, 0.00000000000000000000e+00) (0, 0, 0.00000000000000000000e+00) (0, 0, 0.00000000000000000000e+00) (0, 0, 0.00000000000000000000e+00) (0, 0, 0.00000000000000000000e+00) (0, 0, 0.00000000000000000000e+00) (0, 0, 0.00000000000000000000e+00) (0, 0, 0.00000000000000000000e+00) (0, 0, 0.00000000000000000000e+00) (0, 0, 0.00000000000000000000e+00) (0, 0, 0.00000000000000000000e+00) (0, 0, 0.00000000000000000000e+00) (0, 0, 0.00000000000000000000e+00) (0, 0, 0.00000000000000000000e+00) (0, 0, 0.00000000000000000000e+00) (0, 0, 0.00000000000000000000e+00) (0, 0, 0.00000000000000000000e+00) (0, 0, 0.00000000000000000000e+00) (0, 0, 0.00000000000000000000e+00) (0, 0, 0.00000000000000000000e+00) (0, 0, 0.00000000000000000000e+00) (0, 0, 0.00000000000000000000e+00) (0, 0, 0.00000000000000000000e+00) (0, 0, 0.00000000000000000000e+00) (0, 0, 0.00000000000000000000e+00) (0, 0, 0.00000000000000000000e+00) (0, 0, 0.00000000000000000000e+00) (0, 0, 0.00000000000000000000e+00) (0, 0, 0.00000000000000000000e+00) (0, 0, 0.00000000000000000000e+00) (0, 0, 0.00000000000000000000e+00) (0, 0, 0.00000000000000000000e+00) (0, 0, 0.00000000000000000000e+00) (0, 0, 0.00000000000000000000e+00) (0, 0, 0.00000000000000000000e+00) (0, 0, 0.00000000000000000000e+00) (0, 0, 0.00000000000000000000e+00) (0, 0, 0.00000000000000000000e+00) (0, 0, 0.00000000000000000000e+00) (0, 0, 0.00000000000000000000e+00) (0, 0, 0.00000000000000000000e+00) (0, 0, 0.00000000000000000000e+00) (0, 0, 0.00000000000000000000e+00) (0, 0, 0.00000000000000000000e+00) (0, 0, 0.00000000000000000000e+00) (0, 0, 0.00000000000000000000e+00) (0, 0, 0.00000000000000000000e+00) (0, 0, 0.00000000000000000000e+00) (0, 0, 0.00000000000000000000e+00) (0, 0, 0.00000000000000000000e+00) (0, 0, 0.00000000000000000000e+00) (0, 0, 0.00000000000000000000e+00) (0, 0, 0.00000000000000000000e+00) (0, 0, 0.00000000000000000000e+00) (0, 0, 0.00000000000000000000e+00) (0, 0, 0.00000000000000000000e+00) (0, 0, 0.00000000000000000000e+00) (0, 0, 0.00000000000000000000e+00) (0, 0, 0.00000000000000000000e+00) (0, 0, 0.00000000000000000000e+00) (0, 0, 0.00000000000000000000e+00) (0, 0, 0.00000000000000000000e+00) (0, 0, 0.00000000000000000000e+00) (0, 0, 0.00000000000000000000e+00) (0, 0, 0.00000000000000000000e+00) (0, 0, 0.00000000000000000000e+00) (0, 0, 0.00000000000000000000e+00) (0, 0, 0.00000000000000000000e+00) (0, 0, 0.00000000000000000000e+00) (0, 0, 0.00000000000000000000e+00) (0, 0, 0.00000000000000000000e+00) (0, 0, 0.00000000000000000000e+00) (0, 0, 0.00000000000000000000e+00) (0, 0, 0.00000000000000000000e+00) (0, 0, 0.00000000000000000000e+00) (0, 0, 0.00000000000000000000e+00) (0, 0, 0.00000000000000000000e+00) (0, 0, 0.00000000000000000000e+00) (0, 0, 0.00000000000000000000e+00) (0, 0, 0.00000000000000000000e+00) (0, 0, 0.00000000000000000000e+00) (0, 0, 0.00000000000000000000e+00) (0, 0, 0.00000000000000000000e+00) (0, 0, 0.00000000000000000000e+00) (0, 0, 0.00000000000000000000e+00) (0, 0, 0.00000000000000000000e+00) (0, 0, 0.00000000000000000000e+00) (0, 0, 0.00000000000000000000e+00) (0, 0, 0.00000000000000000000e+00) (0, 0, 0.00000000000000000000e+00) (0, 0, 0.00000000000000000000e+00) (0, 0, 0.00000000000000000000e+00) (0, 0, 0.00000000000000000000e+00) (0, 0, 0.00000000000000000000e+00) (0, 0, 0.00000000000000000000e+00) (0, 0, 0.00000000000000000000e+00) (0, 0, 0.00000000000000000000e+00) (0, 0, 0.00000000000000000000e+00) (0, 0, 0.00000000000000000000e+00) (0, 0, 0.00000000000000000000e+00) (0, 0, 0.00000000000000000000e+00) (0, 0, 0.00000000000000000000e+00) (0, 0, 0.00000000000000000000e+00) (0, 0, 0.00000000000000000000e+00) (0, 0, 0.00000000000000000000e+00) (0, 0, 0.00000000000000000000e+00) (0, 0, 0.00000000000000000000e+00) (0, 0, 0.00000000000000000000e+00) (0, 0, 0.00000000000000000000e+00) (0, 0, 0.00000000000000000000e+00) (0, 0, 0.00000000000000000000e+00) (0, 0, 0.00000000000000000000e+00) (0, 0, 0.00000000000000000000e+00) (0, 0, 0.00000000000000000000e+00) (0, 0, 0.00000000000000000000e+00) (0, 0, 0.00000000000000000000e+00) (0, 0, 0.00000000000000000000e+00) (0, 0, 0.00000000000000000000e+00) (0, 0, 0.00000000000000000000e+00) (257, 11, 5.00000000000000000000e-01) (257, 11, 5.00000000000000000000e-01) (257, 11, 5.00000000000000000000e-01) (0, 11, 0.00000000000000000000e+00) (4, 11, 5.00000000000000000000e-01) (4, 11, 5.00000000000000000000e-01) (4, 11, 5.00000000000000000000e-01) (0, 11, 0.00000000000000000000e+00) (4, 11, 5.00000000000000000000e-01) (0, 11, 0.00000000000000000000e+00) 
connections (connected_to_neuron, weight)=(0, 4.30118590593338012695e-01) (1, 3.11004042625427246094e-01) (2, 5.61614513397216796875e-01) (3, 5.15400052070617675781e-01) (4, 6.11011326313018798828e-01) (5, 6.84601426124572753906e-01) (6, 8.22805583477020263672e-01) (7, 4.19662058353424072266e-01) (8, 8.43573153018951416016e-01) (9, -2.99389790743589401245e-02) (10, -5.39553105831146240234e-01) (11, -1.65874218940734863281e+00) (12, -2.15018367767333984375e+00) (13, -2.55677491426467895508e-01) (14, 2.03315228223800659180e-01) (15, -1.53345614671707153320e-01) (16, -2.35148236155509948730e-01) (17, -2.46197342872619628906e-01) (18, 3.04883420467376708984e-02) (19, -1.17913812398910522461e-01) (20, -4.66962426900863647461e-01) (21, -1.60456985235214233398e-01) (22, -2.73712801933288574219e+00) (23, -1.66216835379600524902e-01) (24, 1.59084564074873924255e-03) (25, -3.85019361972808837891e-01) (26, -2.70279288291931152344e-01) (27, -7.54602193832397460938e-01) (28, -4.99274343252182006836e-01) (29, -4.98181104660034179688e-01) (30, -3.51423561573028564453e-01) (31, 1.95859000086784362793e-01) (32, -2.13002815842628479004e-01) (33, -4.95907425880432128906e-01) (34, -4.15008932352066040039e-01) (35, -5.28193175792694091797e-01) (36, -3.00838410854339599609e-01) (37, -4.47643488645553588867e-01) (38, -3.34798991680145263672e-01) (39, 1.33359861373901367188e+00) (40, 4.19510412216186523438e+00) (41, -1.33000239729881286621e-01) (42, -1.50774881243705749512e-01) (43, -2.11007967591285705566e-01) (44, -3.86929452419281005859e-01) (45, -1.56335592269897460938e-01) (46, -3.66799533367156982422e-01) (47, 1.70626854896545410156e+00) (48, -6.96641862392425537109e-01) (49, -6.68359637260437011719e-01) (50, -4.66862201690673828125e-01) (51, -4.19706106185913085938e-01) (52, -4.92256194353103637695e-01) (53, -6.90059185028076171875e-01) (54, -8.20036530494689941406e-02) (55, 1.83976098895072937012e-01) (56, -5.63324809074401855469e-01) (57, 2.07840189337730407715e-01) (58, -3.97958844900131225586e-01) (59, -4.25853580236434936523e-01) (60, -4.77063328027725219727e-01) (61, -5.31349062919616699219e-01) (62, -4.21920895576477050781e-01) (63, 7.59176015853881835938e-01) (64, -5.13961255550384521484e-01) (65, -6.84450626373291015625e-01) (66, -2.38428805023431777954e-02) (67, -6.89844608306884765625e-01) (68, -1.05243742465972900391e+00) (69, -1.03180956840515136719e+00) (70, -3.20612967014312744141e-01) (71, 2.90711784362792968750e+00) (72, 3.50348591804504394531e-01) (73, -8.68205279111862182617e-02) (74, 9.85709428787231445313e-02) (75, -6.98916792869567871094e-01) (76, -1.26776885986328125000e+00) (77, -6.44556939601898193359e-01) (78, 3.18834245204925537109e-01) (79, 8.89458775520324707031e-01) (80, -1.80112993717193603516e+00) (81, 6.89339861273765563965e-02) (82, -5.68939268589019775391e-01) (83, -5.89654803276062011719e-01) (84, -1.58777070045471191406e+00) (85, -9.78569149971008300781e-01) (86, -7.25285768508911132813e-01) (87, 1.98242175579071044922e+00) (88, -1.86917626857757568359e+00) (89, 3.21545213460922241211e-01) (90, -5.50146400928497314453e-01) (91, -4.04915481805801391602e-01) (92, -1.42945408821105957031e+00) (93, -7.96151697635650634766e-01) (94, 7.95104742050170898438e-01) (95, 3.50864362716674804688e+00) (96, 1.43597078323364257813e+00) (97, 7.41337954998016357422e-01) (98, -5.78404605388641357422e-01) (99, -5.82965373992919921875e-01) (100, -4.55743998289108276367e-01) (101, -3.55265438556671142578e-01) (102, 1.46097207069396972656e+00) (103, -4.24759298563003540039e-01) (104, 1.07498896121978759766e+00) (105, 2.92423889040946960449e-02) (106, -4.14199352264404296875e-01) (107, -4.96831774711608886719e-01) (108, -8.96007955074310302734e-01) (109, -9.61419999599456787109e-01) (110, 1.32737302780151367188e+00) (111, 3.21536123752593994141e-01) (112, 1.15636873245239257813e+00) (113, 6.32284343242645263672e-01) (114, -4.19317275285720825195e-01) (115, -4.97131139039993286133e-01) (116, -4.60731536149978637695e-01) (117, -5.44126510620117187500e-01) (118, 1.58057963848114013672e+00) (119, 1.26128613948822021484e+00) (120, 1.21495306491851806641e+00) (121, 8.68705287575721740723e-02) (122, 6.98378324508666992188e-01) (123, -6.71864748001098632813e-01) (124, -2.59588807821273803711e-01) (125, -4.57372665405273437500e-01) (126, 1.64128482341766357422e+00) (127, 1.76957237720489501953e+00) (128, 1.67960023880004882813e+00) (129, -3.15068453550338745117e-01) (130, 9.32670116424560546875e-01) (131, -2.49559387564659118652e-01) (132, -5.26851654052734375000e-01) (133, -3.11163693666458129883e-01) (134, 1.77778553962707519531e+00) (135, 3.35878539085388183594e+00) (136, -2.52169823646545410156e+00) (137, -1.26699030399322509766e+00) (138, 4.47492808103561401367e-01) (139, -4.90775823593139648438e-01) (140, -7.53669559955596923828e-01) (141, -9.26588103175163269043e-02) (142, 2.03634762763977050781e+00) (143, 1.94529438018798828125e+00) (144, 1.79664492607116699219e+00) (145, -1.16523945331573486328e+00) (146, -1.31189852952957153320e-01) (147, -4.64317351579666137695e-01) (148, -2.34057202935218811035e-01) (149, -3.24620217084884643555e-01) (150, 1.86552214622497558594e+00) (151, 9.33530330657958984375e-01) (152, -8.09755548834800720215e-02) (153, -1.46430122852325439453e+00) (154, -4.16142970323562622070e-01) (155, -3.52786093950271606445e-01) (156, -5.45183539390563964844e-01) (157, -4.81952503323554992676e-02) (158, 1.71248948574066162109e+00) (159, 1.58010554313659667969e+00) (160, 6.37626528739929199219e-01) (161, -2.03344535827636718750e+00) (162, -2.82997608184814453125e-01) (163, -1.21754801273345947266e+00) (164, -1.13383078575134277344e+00) (165, -5.40495991706848144531e-01) (166, 4.24897015094757080078e-01) (167, 5.56429624557495117188e-01) (168, 3.19389820098876953125e+00) (169, 6.73239082098007202148e-02) (170, -2.71480292081832885742e-01) (171, -7.31753170490264892578e-01) (172, -4.45159167051315307617e-01) (173, -8.15427839756011962891e-01) (174, -3.33022475242614746094e-01) (175, 3.95269036293029785156e-01) (176, 1.57072830200195312500e+00) (177, 5.71289658546447753906e-01) (178, 3.33432853221893310547e-01) (179, 7.81344324350357055664e-02) (180, -4.76754754781723022461e-01) (181, -1.63158759474754333496e-01) (182, 8.46544146537780761719e-01) (183, 1.67422914505004882813e+00) (184, -1.01351451873779296875e+00) (185, 5.38385987281799316406e-01) (186, -2.30556845664978027344e-01) (187, -2.40222997963428497314e-02) (188, -2.70250946283340454102e-01) (189, -9.12090063095092773438e-01) (190, 7.86853015422821044922e-01) (191, -5.33552289009094238281e-01) (192, -1.78754508495330810547e-01) (193, -4.94369834661483764648e-01) (194, -4.73327577114105224609e-01) (195, -3.68979930877685546875e-01) (196, -7.66208171844482421875e-01) (197, -1.77067920565605163574e-01) (198, 7.05788969993591308594e-01) (199, -8.72869074344635009766e-01) (200, 7.75844097137451171875e-01) (201, -6.72161996364593505859e-01) (202, -2.03530907630920410156e-01) (203, -5.40091037750244140625e-01) (204, -5.78550755977630615234e-01) (205, -5.95380961894989013672e-01) (206, 2.14092940092086791992e-01) (207, 1.87589883804321289063e+00) (208, 1.08761155605316162109e+00) (209, -1.10921740531921386719e+00) (210, -4.63258922100067138672e-01) (211, -5.61972260475158691406e-01) (212, -4.71461743116378784180e-01) (213, -2.11625427007675170898e-01) (214, -7.19786167144775390625e-01) (215, 2.10186257958412170410e-01) (216, 2.40920200943946838379e-01) (217, -8.36153626441955566406e-01) (218, 6.67133426666259765625e+00) (219, -5.45016825199127197266e-01) (220, -5.48261761665344238281e-01) (221, -1.30925983190536499023e-01) (222, -4.02846425771713256836e-01) (223, -5.22271282970905303955e-02) (224, 1.28482317924499511719e+00) (225, -2.41857156157493591309e-01) (226, -4.02483016252517700195e-01) (227, -4.90597605705261230469e-01) (228, -8.11570584774017333984e-01) (229, -3.04464042186737060547e-01) (230, -3.33621174097061157227e-01) (231, 5.16784071922302246094e-01) (232, -3.75874543190002441406e+00) (233, -7.23529383540153503418e-02) (234, -3.99250298738479614258e-01) (235, -1.88868987560272216797e+00) (236, -1.88310515880584716797e+00) (237, -7.20550298690795898438e-01) (238, 1.31811022758483886719e-01) (239, 7.75581777095794677734e-01) (240, 7.77416378259658813477e-02) (241, -2.78077602386474609375e-01) (242, -9.12673950195312500000e-01) (243, -5.35004317760467529297e-01) (244, -8.40059995651245117188e-01) (245, -6.94348514080047607422e-01) (246, 2.77816355228424072266e-01) (247, 1.01327264308929443359e+00) (248, 3.21952775120735168457e-02) (249, 5.52734315395355224609e-01) (250, 9.01825129985809326172e-01) (251, 5.72896301746368408203e-01) (252, 9.28781330585479736328e-01) (253, 6.52527570724487304688e-01) (254, 4.36166942119598388672e-01) (255, 1.44704377651214599609e+00) (256, 2.09076023101806640625e+00) (0, 2.62224197387695312500e+01) (1, 2.60361309051513671875e+01) (2, 4.98635387420654296875e+00) (3, 7.09487676620483398438e-01) (4, 6.93192541599273681641e-01) (5, 4.58206444978713989258e-01) (6, 3.00185292959213256836e-01) (7, 4.15186196565628051758e-01) (8, -2.94084668159484863281e-01) (9, 7.88630485534667968750e-01) (10, 4.32000339031219482422e-01) (11, -5.34254550933837890625e-01) (12, -1.70002663135528564453e+00) (13, -6.52337491512298583984e-01) (14, 3.79179626703262329102e-01) (15, 5.70384323596954345703e-01) (16, -4.16595745086669921875e+00) (17, -1.54669094085693359375e+00) (18, -5.73019921779632568359e-01) (19, -5.93615889549255371094e-01) (20, -2.63816356658935546875e+00) (21, -3.24628782272338867188e+00) (22, -3.75946617126464843750e+00) (23, -4.26019340753555297852e-01) (24, 1.54205846786499023438e+00) (25, 3.63127976655960083008e-01) (26, 6.62560701370239257813e-01) (27, 8.05979669094085693359e-01) (28, -6.21672332286834716797e-01) (29, -2.09811016917228698730e-01) (30, -1.19065618515014648438e+01) (31, -1.15900020599365234375e+01) (32, 1.50643444061279296875e+01) (33, 4.81039543151855468750e+01) (34, 8.18627929687500000000e+00) (35, 3.56137096881866455078e-01) (36, -3.60174369812011718750e+00) (37, 1.97321176528930664063e+00) (38, 2.33166146278381347656e+00) (39, 4.47122007608413696289e-01) (40, 1.05922031402587890625e+00) (41, 1.79250442981719970703e+00) (42, 1.59572649002075195313e+00) (43, -8.23117718100547790527e-02) (44, 2.23414704203605651855e-01) (45, 7.78573811054229736328e-01) (46, -8.64630699157714843750e-01) (47, 9.83276665210723876953e-01) (48, 6.05357170104980468750e-01) (49, -2.81853437423706054688e+00) (50, 7.41581797599792480469e-01) (51, -2.59858220815658569336e-01) (52, 2.78909116983413696289e-01) (53, 2.63829708099365234375e-01) (54, 2.37624630331993103027e-01) (55, 1.70111835002899169922e-01) (56, 7.19818174839019775391e-01) (57, 3.80137991905212402344e+00) (58, 7.21270203590393066406e-01) (59, 2.52240180969238281250e-01) (60, 1.36316537857055664063e-01) (61, -1.37758716940879821777e-01) (62, 8.94782781600952148438e-01) (63, 2.14839592576026916504e-01) (64, 2.67503285408020019531e+00) (65, 4.48192469775676727295e-02) (66, 4.10684794187545776367e-01) (67, 1.01264074444770812988e-01) (68, 1.34486228227615356445e-01) (69, 2.60386932641267776489e-02) (70, -1.51928234100341796875e+01) (71, 1.21198236942291259766e+00) (72, 3.76837387084960937500e+01) (73, 3.82644701004028320313e+00) (74, 3.65100950002670288086e-01) (75, 2.68555194139480590820e-01) (76, 6.90316129475831985474e-03) (77, 1.89482539892196655273e-01) (78, 4.44043159484863281250e+00) (79, -3.87284431457519531250e+01) (80, 1.63372554779052734375e+01) (81, 1.32121553421020507813e+01) (82, 5.48169352114200592041e-02) (83, 2.30894207954406738281e-01) (84, -7.56910592317581176758e-02) (85, 5.44307410717010498047e-01) (86, 3.07327246665954589844e+00) (87, -5.00925779342651367188e+00) (88, -8.14710235595703125000e+00) (89, 4.34949779510498046875e+00) (90, 1.64082109928131103516e-01) (91, 4.11612987518310546875e-01) (92, -1.00525788962841033936e-01) (93, 1.35542318224906921387e-01) (94, 1.88449306488037109375e+01) (95, 1.77617206573486328125e+01) (96, -1.66898071289062500000e+02) (97, 6.85396075248718261719e-01) (98, 4.68486934900283813477e-01) (99, 3.81186455488204956055e-01) (100, 2.57408827543258666992e-01) (101, -5.84291696548461914063e-01) (102, 2.73073043823242187500e+01) (103, 7.29157400131225585938e+00) (104, 2.64916777610778808594e-01) (105, 2.89500546455383300781e+00) (106, 1.44997453689575195313e+01) (107, 2.37836289405822753906e+00) (108, -4.17009353637695312500e+00) (109, -4.46076488494873046875e+00) (110, 7.00262928009033203125e+00) (111, 1.05961713790893554688e+01) (112, -3.23326950073242187500e+01) (113, 1.67456197738647460938e+00) (114, 4.57408046722412109375e+00) (115, 1.90607821941375732422e+00) (116, 6.37593269348144531250e-01) (117, 4.59920793771743774414e-01) (118, 1.55410194396972656250e+00) (119, 1.99053096771240234375e+00) (120, -1.68367691040039062500e+01) (121, -6.07129764556884765625e+00) (122, 4.00829076766967773438e+00) (123, 3.76293182373046875000e-01) (124, 5.03689706325531005859e-01) (125, 4.33896511793136596680e-01) (126, 2.33674144744873046875e+00) (127, -3.59663248062133789063e+00) (128, 1.21816673278808593750e+01) (129, 2.47298789024353027344e+00) (130, 1.16100797653198242188e+01) (131, -8.38089212775230407715e-02) (132, -2.83365190029144287109e-01) (133, 1.39196161180734634399e-02) (134, 1.98792552947998046875e+00) (135, 3.87463073730468750000e+01) (136, 3.62243103981018066406e+00) (137, 2.78941416740417480469e+00) (138, 1.98349368572235107422e+00) (139, -1.53265550732612609863e-01) (140, 1.89043223857879638672e-01) (141, 1.21971875429153442383e-01) (142, 3.83014440536499023438e+00) (143, -2.53657603263854980469e+00) (144, -1.48093824386596679688e+01) (145, 1.15224325656890869141e+00) (146, 8.21335077285766601563e-01) (147, 6.08615353703498840332e-02) (148, 2.78627812862396240234e-01) (149, 7.13036835193634033203e-01) (150, 1.33329391479492187500e+01) (151, 4.32684707641601562500e+00) (152, -1.30974006652832031250e+01) (153, 1.19618344306945800781e+00) (154, 2.67481774091720581055e-01) (155, 1.66960343718528747559e-01) (156, 3.79558920860290527344e-01) (157, 4.04040902853012084961e-01) (158, 2.11598157882690429688e+00) (159, 3.29554486274719238281e+00) (160, -8.37428588867187500000e+01) (161, 5.04833400249481201172e-01) (162, 1.22959458827972412109e+00) (163, 2.32273742556571960449e-01) (164, 3.60268592834472656250e-01) (165, 4.33851361274719238281e-01) (166, 2.53149199485778808594e+00) (167, 3.02022719383239746094e+00) (168, -3.02698307037353515625e+01) (169, 5.13223230838775634766e-01) (170, 2.43375465273857116699e-01) (171, -2.21261218190193176270e-01) (172, 2.71321684122085571289e-01) (173, 6.49701952934265136719e-01) (174, 5.10643005371093750000e+00) (175, -1.46202158927917480469e+00) (176, -6.59573516845703125000e+01) (177, -5.82717418670654296875e+00) (178, 1.23903989791870117188e+00) (179, -1.13642632961273193359e-01) (180, -7.59368166327476501465e-02) (181, 1.23659110069274902344e+00) (182, 5.23484897613525390625e+00) (183, -2.51015434265136718750e+01) (184, -4.14686660766601562500e+01) (185, 1.77261412143707275391e-01) (186, 2.55837738513946533203e-01) (187, 2.62351393699645996094e-01) (188, -5.51004633307456970215e-02) (189, 7.98130750656127929688e-01) (190, 4.67326450347900390625e+00) (191, 3.44515711069107055664e-01) (192, -2.47491283416748046875e+01) (193, 6.82645976543426513672e-01) (194, 4.92752413265407085419e-04) (195, -5.70927932858467102051e-03) (196, 1.22966721653938293457e-01) (197, 6.87909603118896484375e-01) (198, 4.53306436538696289063e+00) (199, 1.17885017395019531250e+00) (200, 7.05820083618164062500e+00) (201, 2.37299114465713500977e-01) (202, 1.98028996586799621582e-01) (203, -1.20953857898712158203e-01) (204, 1.62667885422706604004e-01) (205, 3.10042381286621093750e-01) (206, 1.91537487506866455078e+00) (207, -7.22568798065185546875e+00) (208, 8.13529109954833984375e+00) (209, 3.78268897533416748047e-01) (210, 2.72891130298376083374e-02) (211, -1.30235627293586730957e-01) (212, -2.33672142028808593750e-01) (213, 3.50638598203659057617e-01) (214, 8.00178587436676025391e-01) (215, -7.98971533775329589844e-01) (216, 1.47722244262695312500e+01) (217, 2.07813426852226257324e-01) (218, 1.30033493041992187500e+00) (219, -6.73776268959045410156e-02) (220, 1.68001681566238403320e-01) (221, 1.81274265050888061523e-01) (222, 1.43181192874908447266e+00) (223, 6.20329093933105468750e+00) (224, 5.75862526893615722656e-01) (225, -1.25909769535064697266e+00) (226, 8.14472958445549011230e-02) (227, -4.34813052415847778320e-01) (228, -2.40671277046203613281e+00) (229, -2.95892298221588134766e-01) (230, -7.97981023788452148438e-01) (231, -4.90112257003784179688e+00) (232, -3.71342134475708007813e+00) (233, -3.94732022285461425781e+00) (234, -5.78519582748413085938e-01) (235, -1.89492857456207275391e+00) (236, -1.59886920452117919922e+00) (237, -2.50839328765869140625e+01) (238, -2.64219808578491210938e+00) (239, -9.32707500457763671875e+00) (240, -8.03755092620849609375e+00) (241, -8.68386745452880859375e+00) (242, -6.54576599597930908203e-01) (243, -1.45738351345062255859e+00) (244, -4.87178117036819458008e-02) (245, -1.83888220787048339844e+00) (246, -1.52627813816070556641e+00) (247, -1.05934709310531616211e-01) (248, 2.54383277893066406250e+01) (249, 1.15599479675292968750e+01) (250, 4.77480459213256835938e+00) (251, 4.77861261367797851563e+00) (252, 1.02072906494140625000e+00) (253, 5.12377405166625976563e+00) (254, 5.29661273956298828125e+00) (255, 5.37214708328247070313e+00) (256, 1.99844543457031250000e+02) (0, 2.41446447372436523438e+00) (1, 7.12239325046539306641e-01) (2, 7.76111602783203125000e-01) (3, 4.87722277641296386719e-01) (4, 5.26736557483673095703e-01) (5, 5.61689555644989013672e-01) (6, 4.08644527196884155273e-01) (7, 8.05923581123352050781e-01) (8, 6.73931658267974853516e-01) (9, 3.35386455059051513672e-01) (10, -8.47228169441223144531e-02) (11, -5.00205866992473602295e-02) (12, 8.21089223027229309082e-02) (13, -1.19198903441429138184e-01) (14, 4.91546094417572021484e-01) (15, 8.54376256465911865234e-02) (16, -5.04801310598850250244e-02) (17, -1.25793695449829101563e-01) (18, 2.18377634882926940918e-01) (19, -1.66067749261856079102e-01) (20, 1.01330690085887908936e-01) (21, -3.68862777948379516602e-01) (22, -1.61182716488838195801e-01) (23, 6.30760639905929565430e-02) (24, 4.20643299818038940430e-01) (25, 1.49980276823043823242e-01) (26, -1.48838192224502563477e-01) (27, -7.29149818420410156250e-01) (28, -5.65368570387363433838e-02) (29, 1.62504926323890686035e-01) (30, -5.91561794281005859375e-02) (31, 1.63492232561111450195e-01) (32, 2.21283614635467529297e-01) (33, 5.22687956690788269043e-02) (34, -1.93758592009544372559e-01) (35, -3.62012475728988647461e-01) (36, -1.56551882624626159668e-01) (37, -6.37263357639312744141e-01) (38, 4.26882565021514892578e-01) (39, 2.56640225648880004883e-01) (40, 2.10085123777389526367e-01) (41, -3.89335066080093383789e-01) (42, -2.77542620897293090820e-01) (43, -6.51698827743530273438e-01) (44, -5.11917352676391601563e-01) (45, -1.52501374483108520508e-01) (46, -3.15346479415893554688e-01) (47, -4.33137640357017517090e-02) (48, 1.78524315357208251953e-01) (49, 1.14095203578472137451e-01) (50, -9.71238538622856140137e-02) (51, -5.74467658996582031250e-01) (52, -6.34468555450439453125e-01) (53, 1.16057217121124267578e-01) (54, -3.96295413374900817871e-02) (55, -1.71223524957895278931e-02) (56, -1.96389555931091308594e-02) (57, 5.21424151957035064697e-02) (58, 1.18756212294101715088e-01) (59, -2.30530992150306701660e-01) (60, 2.56884694099426269531e-02) (61, 1.24171204864978790283e-01) (62, 2.82134469598531723022e-02) (63, 1.21220186352729797363e-01) (64, 1.07147209346294403076e-02) (65, 2.89761889725923538208e-02) (66, -1.07400946319103240967e-01) (67, -4.93645846843719482422e-01) (68, 2.57271111011505126953e-01) (69, 2.29134872555732727051e-01) (70, 1.01051427423954010010e-01) (71, 1.18313916027545928955e-01) (72, 1.14555813372135162354e-01) (73, -2.13191255927085876465e-01) (74, 1.61519572138786315918e-01) (75, -6.68728053569793701172e-01) (76, -7.05631017684936523438e-01) (77, -2.17263475060462951660e-01) (78, 9.20415446162223815918e-02) (79, -5.12169718742370605469e-01) (80, 1.00428211688995361328e+00) (81, 2.82311886548995971680e-01) (82, 1.87824338674545288086e-01) (83, -4.64853078126907348633e-01) (84, -5.55755674839019775391e-01) (85, 2.20786824822425842285e-01) (86, -1.92830562591552734375e-01) (87, 2.90985286235809326172e-01) (88, -1.07396863400936126709e-01) (89, 4.49562221765518188477e-01) (90, -2.22836494445800781250e-01) (91, -7.96966731548309326172e-01) (92, -7.13218450546264648438e-01) (93, -6.70154690742492675781e-02) (94, -2.62597054243087768555e-01) (95, -1.30091533064842224121e-01) (96, -4.48951609432697296143e-02) (97, -3.09577256441116333008e-01) (98, -7.07225948572158813477e-02) (99, -5.89837849140167236328e-01) (100, -7.97156751155853271484e-01) (101, 1.36614054441452026367e-01) (102, 3.13626140356063842773e-01) (103, -5.66249132156372070313e-01) (104, -8.69492739439010620117e-02) (105, 2.63919204473495483398e-01) (106, 4.27169948816299438477e-01) (107, -8.04751038551330566406e-01) (108, -3.93935739994049072266e-01) (109, -7.01910555362701416016e-01) (110, 2.63324409723281860352e-01) (111, 2.57963776588439941406e-01) (112, -3.17836970090866088867e-01) (113, 1.43796890974044799805e-01) (114, -2.53313966095447540283e-02) (115, -4.67679798603057861328e-01) (116, -2.83302336931228637695e-01) (117, 1.01841583847999572754e-01) (118, -7.00388401746749877930e-02) (119, -2.68714189529418945313e-01) (120, -2.27728620171546936035e-01) (121, 2.66444921493530273438e-01) (122, 4.34924513101577758789e-02) (123, -4.31445628404617309570e-01) (124, -5.23180544376373291016e-01) (125, 2.87902206182479858398e-01) (126, 4.82791483402252197266e-01) (127, -2.14240407943725585938e+00) (128, 3.60081404447555541992e-01) (129, 1.18313081562519073486e-01) (130, 2.24386155605316162109e-01) (131, -5.28609931468963623047e-01) (132, -6.57771885395050048828e-01) (133, 6.67654797434806823730e-02) (134, 1.07345446944236755371e-01) (135, 5.45852005481719970703e-01) (136, -2.05512553453445434570e-01) (137, 3.14174324274063110352e-01) (138, 4.49627816677093505859e-01) (139, -4.39911812543869018555e-01) (140, -5.43321728706359863281e-01) (141, -1.76768898963928222656e-02) (142, -3.75112891197204589844e-01) (143, 1.03445172309875488281e+00) (144, 3.24208348989486694336e-01) (145, -4.04714018106460571289e-01) (146, 1.91811323165893554688e-01) (147, -7.77071356773376464844e-01) (148, -3.14719706773757934570e-01) (149, 3.71205717325210571289e-01) (150, 2.70998269319534301758e-01) (151, -8.39746072888374328613e-02) (152, -3.30955415964126586914e-01) (153, -8.33375155925750732422e-01) (154, 1.33392540737986564636e-02) (155, -5.42328238487243652344e-01) (156, -6.88940167427062988281e-01) (157, 8.90597179532051086426e-02) (158, 3.96550446748733520508e-01) (159, -8.43051433563232421875e-01) (160, 2.90371090173721313477e-01) (161, -6.61954702809453010559e-03) (162, -3.04093919694423675537e-02) (163, -3.31772178411483764648e-01) (164, 2.77915596961975097656e-01) (165, -7.58944600820541381836e-02) (166, 1.86739955097436904907e-02) (167, 4.31250423192977905273e-01) (168, -7.29205384850502014160e-02) (169, 1.01899839937686920166e-01) (170, 3.43771696090698242188e-01) (171, -1.13037571310997009277e-01) (172, 3.13803367316722869873e-02) (173, -2.54575520753860473633e-01) (174, -8.33433032035827636719e-01) (175, 6.97770655155181884766e-01) (176, 4.92565840482711791992e-01) (177, 1.97562336921691894531e-01) (178, -8.84401202201843261719e-02) (179, 1.46102786064147949219e-01) (180, 2.28840515017509460449e-01) (181, -1.31053879857063293457e-01) (182, -3.85533154010772705078e-01) (183, 2.81726986169815063477e-01) (184, -9.68142211437225341797e-01) (185, -6.11509494483470916748e-02) (186, 2.93563902378082275391e-01) (187, -2.11832106113433837891e-01) (188, -3.36929619312286376953e-01) (189, -6.38107478618621826172e-01) (190, -2.51195102930068969727e-01) (191, -1.98708876967430114746e-01) (192, 3.41267198324203491211e-01) (193, 4.67619359493255615234e-01) (194, 1.19968332350254058838e-01) (195, -2.81162232160568237305e-01) (196, -2.97635048627853393555e-01) (197, 3.76123756170272827148e-01) (198, 5.74913144111633300781e-01) (199, 2.84347534179687500000e-01) (200, 2.01655581593513488770e-01) (201, -5.23411966860294342041e-02) (202, -5.63415050506591796875e-01) (203, -7.08911895751953125000e-01) (204, -8.44158351421356201172e-01) (205, 2.61985361576080322266e-01) (206, 1.68746203184127807617e-01) (207, 2.48063698410987854004e-01) (208, 2.93405741453170776367e-01) (209, 4.77717593312263488770e-02) (210, -6.94933906197547912598e-02) (211, -6.11448764801025390625e-01) (212, -5.18791675567626953125e-01) (213, -3.92046868801116943359e-01) (214, 1.70883923768997192383e-01) (215, 2.20976740121841430664e-01) (216, 5.63772082328796386719e-01) (217, -3.37170571088790893555e-01) (218, -2.62456893920898437500e-01) (219, -7.70110011100769042969e-01) (220, -8.91749501228332519531e-01) (221, -1.12040035426616668701e-01) (222, -1.80612847208976745605e-01) (223, 4.14063930511474609375e-01) (224, 2.89929687976837158203e-01) (225, 2.06475015729665756226e-02) (226, -6.22405648231506347656e-01) (227, -8.04126381874084472656e-01) (228, -1.30481982231140136719e+00) (229, 7.38027170300483703613e-02) (230, 1.66140407323837280273e-01) (231, -6.52496576309204101563e-01) (232, 8.87889266014099121094e-02) (233, 3.03254246711730957031e-01) (234, 5.56444264948368072510e-02) (235, -9.09758433699607849121e-02) (236, 2.38413736224174499512e-01) (237, -1.94093674421310424805e-01) (238, 2.48046427965164184570e-01) (239, 2.94152438640594482422e-01) (240, -9.10975575447082519531e-01) (241, 1.10181950032711029053e-01) (242, 2.03047439455986022949e-01) (243, 1.81151166558265686035e-01) (244, 8.55865180492401123047e-02) (245, -6.27125203609466552734e-01) (246, -2.37955287098884582520e-01) (247, 8.83895099163055419922e-01) (248, 6.27418160438537597656e-01) (249, 6.48915708065032958984e-01) (250, 6.10320985317230224609e-01) (251, 8.85909199714660644531e-01) (252, 5.17996191978454589844e-01) (253, 3.29732209444046020508e-01) (254, 8.24057459831237792969e-01) (255, 6.47900104522705078125e-01) (256, 5.10523080825805664063e+00) (257, -5.44561052322387695313e+00) (258, -1.50708705186843872070e-01) (259, 2.03957819938659667969e+00) (260, -7.84218013286590576172e-01) (257, 1.92089104652404785156e+00) (258, 1.01467180252075195313e+00) (259, 2.01829314231872558594e+00) (260, 8.40605378150939941406e-01) (257, 1.19963669776916503906e+00) (258, 9.75762426853179931641e-01) (259, 3.09826254844665527344e+00) (260, 1.10056924819946289063e+00) (261, 1.51872367858886718750e+01) (262, -2.05838127136230468750e+01) (263, -9.94450317382812500000e+02) (264, 1.59490609169006347656e+00) 
