FANN_FLO_2.1
num_layers=4
learning_rate=0.700000
connection_rate=1.000000
network_type=0
learning_momentum=0.000000
training_algorithm=2
train_error_function=1
train_stop_function=0
cascade_output_change_fraction=0.010000
quickprop_decay=-0.000100
quickprop_mu=1.750000
rprop_increase_factor=1.200000
rprop_decrease_factor=0.500000
rprop_delta_min=0.000000
rprop_delta_max=50.000000
rprop_delta_zero=0.100000
cascade_output_stagnation_epochs=12
cascade_candidate_change_fraction=0.010000
cascade_candidate_stagnation_epochs=12
cascade_max_out_epochs=150
cascade_min_out_epochs=50
cascade_max_cand_epochs=150
cascade_min_cand_epochs=50
cascade_num_candidate_groups=2
bit_fail_limit=3.49999994039535522461e-01
cascade_candidate_limit=1.00000000000000000000e+03
cascade_weight_multiplier=4.00000005960464477539e-01
cascade_activation_functions_count=10
cascade_activation_functions=3 5 7 8 10 11 14 15 16 17 
cascade_activation_steepnesses_count=4
cascade_activation_steepnesses=2.50000000000000000000e-01 5.00000000000000000000e-01 7.50000000000000000000e-01 1.00000000000000000000e+00 
layer_sizes=1025 11 11 11 
scale_included=0
neurons (num_inputs, activation_function, activation_steepness)=(0, 0, 0.00000000000000000000e+00) (0, 0, 0.00000000000000000000e+00) (0, 0, 0.00000000000000000000e+00) (0, 0, 0.00000000000000000000e+00) (0, 0, 0.00000000000000000000e+00) (0, 0, 0.00000000000000000000e+00) (0, 0, 0.00000000000000000000e+00) (0, 0, 0.00000000000000000000e+00) (0, 0, 0.00000000000000000000e+00) (0, 0, 0.00000000000000000000e+00) (0, 0, 0.00000000000000000000e+00) (0, 0, 0.00000000000000000000e+00) (0, 0, 0.00000000000000000000e+00) (0, 0, 0.00000000000000000000e+00) (0, 0, 0.00000000000000000000e+00) (0, 0, 0.00000000000000000000e+00) (0, 0, 0.00000000000000000000e+00) (0, 0, 0.00000000000000000000e+00) (0, 0, 0.00000000000000000000e+00) (0, 0, 0.00000000000000000000e+00) (0, 0, 0.00000000000000000000e+00) (0, 0, 0.00000000000000000000e+00) (0, 0, 0.00000000000000000000e+00) (0, 0, 0.00000000000000000000e+00) (0, 0, 0.00000000000000000000e+00) (0, 0, 0.00000000000000000000e+00) (0, 0, 0.00000000000000000000e+00) (0, 0, 0.00000000000000000000e+00) (0, 0, 0.00000000000000000000e+00) (0, 0, 0.00000000000000000000e+00) (0, 0, 0.00000000000000000000e+00) (0, 0, 0.00000000000000000000e+00) (0, 0, 0.00000000000000000000e+00) (0, 0, 0.00000000000000000000e+00) (0, 0, 0.00000000000000000000e+00) (0, 0, 0.00000000000000000000e+00) (0, 0, 0.00000000000000000000e+00) (0, 0, 0.00000000000000000000e+00) (0, 0, 0.00000000000000000000e+00) (0, 0, 0.00000000000000000000e+00) (0, 0, 0.00000000000000000000e+00) (0, 0, 0.00000000000000000000e+00) (0, 0, 0.00000000000000000000e+00) (0, 0, 0.00000000000000000000e+00) (0, 0, 0.00000000000000000000e+00) (0, 0, 0.00000000000000000000e+00) (0, 0, 0.00000000000000000000e+00) (0, 0, 0.00000000000000000000e+00) (0, 0, 0.00000000000000000000e+00) (0, 0, 0.00000000000000000000e+00) (0, 0, 0.00000000000000000000e+00) (0, 0, 0.00000000000000000000e+00) (0, 0, 0.00000000000000000000e+00) (0, 0, 0.00000000000000000000e+00) (0, 0, 0.00000000000000000000e+00) (0, 0, 0.00000000000000000000e+00) (0, 0, 0.00000000000000000000e+00) (0, 0, 0.00000000000000000000e+00) (0, 0, 0.00000000000000000000e+00) (0, 0, 0.00000000000000000000e+00) (0, 0, 0.00000000000000000000e+00) (0, 0, 0.00000000000000000000e+00) (0, 0, 0.00000000000000000000e+00) (0, 0, 0.00000000000000000000e+00) (0, 0, 0.00000000000000000000e+00) (0, 0, 0.00000000000000000000e+00) (0, 0, 0.00000000000000000000e+00) (0, 0, 0.00000000000000000000e+00) (0, 0, 0.00000000000000000000e+00) (0, 0, 0.00000000000000000000e+00) (0, 0, 0.00000000000000000000e+00) (0, 0, 0.00000000000000000000e+00) (0, 0, 0.00000000000000000000e+00) (0, 0, 0.00000000000000000000e+00) (0, 0, 0.00000000000000000000e+00) (0, 0, 0.00000000000000000000e+00) (0, 0, 0.00000000000000000000e+00) (0, 0, 0.00000000000000000000e+00) (0, 0, 0.00000000000000000000e+00) (0, 0, 0.00000000000000000000e+00) (0, 0, 0.00000000000000000000e+00) (0, 0, 0.00000000000000000000e+00) (0, 0, 0.00000000000000000000e+00) (0, 0, 0.00000000000000000000e+00) (0, 0, 0.00000000000000000000e+00) (0, 0, 0.00000000000000000000e+00) (0, 0, 0.00000000000000000000e+00) (0, 0, 0.00000000000000000000e+00) (0, 0, 0.00000000000000000000e+00) (0, 0, 0.00000000000000000000e+00) (0, 0, 0.00000000000000000000e+00) (0, 0, 0.00000000000000000000e+00) (0, 0, 0.00000000000000000000e+00) (0, 0, 0.00000000000000000000e+00) (0, 0, 0.00000000000000000000e+00) (0, 0, 0.00000000000000000000e+00) (0, 0, 0.00000000000000000000e+00) (0, 0, 0.00000000000000000000e+00) (0, 0, 0.00000000000000000000e+00) (0, 0, 0.00000000000000000000e+00) (0, 0, 0.00000000000000000000e+00) (0, 0, 0.00000000000000000000e+00) (0, 0, 0.00000000000000000000e+00) (0, 0, 0.00000000000000000000e+00) (0, 0, 0.00000000000000000000e+00) (0, 0, 0.00000000000000000000e+00) (0, 0, 0.00000000000000000000e+00) (0, 0, 0.00000000000000000000e+00) (0, 0, 0.00000000000000000000e+00) (0, 0, 0.00000000000000000000e+00) (0, 0, 0.00000000000000000000e+00) (0, 0, 0.00000000000000000000e+00) (0, 0, 0.00000000000000000000e+00) (0, 0, 0.00000000000000000000e+00) (0, 0, 0.00000000000000000000e+00) (0, 0, 0.00000000000000000000e+00) (0, 0, 0.00000000000000000000e+00) (0, 0, 0.00000000000000000000e+00) (0, 0, 0.00000000000000000000e+00) (0, 0, 0.00000000000000000000e+00) (0, 0, 0.00000000000000000000e+00) (0, 0, 0.00000000000000000000e+00) (0, 0, 0.00000000000000000000e+00) (0, 0, 0.00000000000000000000e+00) (0, 0, 0.00000000000000000000e+00) (0, 0, 0.00000000000000000000e+00) (0, 0, 0.00000000000000000000e+00) (0, 0, 0.00000000000000000000e+00) (0, 0, 0.00000000000000000000e+00) (0, 0, 0.00000000000000000000e+00) (0, 0, 0.00000000000000000000e+00) (0, 0, 0.00000000000000000000e+00) (0, 0, 0.00000000000000000000e+00) (0, 0, 0.00000000000000000000e+00) (0, 0, 0.00000000000000000000e+00) (0, 0, 0.00000000000000000000e+00) (0, 0, 0.00000000000000000000e+00) (0, 0, 0.00000000000000000000e+00) (0, 0, 0.00000000000000000000e+00) (0, 0, 0.00000000000000000000e+00) (0, 0, 0.00000000000000000000e+00) (0, 0, 0.00000000000000000000e+00) (0, 0, 0.00000000000000000000e+00) (0, 0, 0.00000000000000000000e+00) (0, 0, 0.00000000000000000000e+00) (0, 0, 0.00000000000000000000e+00) (0, 0, 0.00000000000000000000e+00) (0, 0, 0.00000000000000000000e+00) (0, 0, 0.00000000000000000000e+00) (0, 0, 0.00000000000000000000e+00) (0, 0, 0.00000000000000000000e+00) (0, 0, 0.00000000000000000000e+00) (0, 0, 0.00000000000000000000e+00) (0, 0, 0.00000000000000000000e+00) (0, 0, 0.00000000000000000000e+00) (0, 0, 0.00000000000000000000e+00) (0, 0, 0.00000000000000000000e+00) (0, 0, 0.00000000000000000000e+00) (0, 0, 0.00000000000000000000e+00) (0, 0, 0.00000000000000000000e+00) (0, 0, 0.00000000000000000000e+00) (0, 0, 0.00000000000000000000e+00) (0, 0, 0.00000000000000000000e+00) (0, 0, 0.00000000000000000000e+00) (0, 0, 0.00000000000000000000e+00) (0, 0, 0.00000000000000000000e+00) (0, 0, 0.00000000000000000000e+00) (0, 0, 0.00000000000000000000e+00) (0, 0, 0.00000000000000000000e+00) (0, 0, 0.00000000000000000000e+00) (0, 0, 0.00000000000000000000e+00) (0, 0, 0.00000000000000000000e+00) (0, 0, 0.00000000000000000000e+00) (0, 0, 0.00000000000000000000e+00) (0, 0, 0.00000000000000000000e+00) (0, 0, 0.00000000000000000000e+00) (0, 0, 0.00000000000000000000e+00) (0, 0, 0.00000000000000000000e+00) (0, 0, 0.00000000000000000000e+00) (0, 0, 0.00000000000000000000e+00) (0, 0, 0.00000000000000000000e+00) (0, 0, 0.00000000000000000000e+00) (0, 0, 0.00000000000000000000e+00) (0, 0, 0.00000000000000000000e+00) (0, 0, 0.00000000000000000000e+00) (0, 0, 0.00000000000000000000e+00) (0, 0, 0.00000000000000000000e+00) (0, 0, 0.00000000000000000000e+00) (0, 0, 0.00000000000000000000e+00) (0, 0, 0.00000000000000000000e+00) (0, 0, 0.00000000000000000000e+00) (0, 0, 0.00000000000000000000e+00) (0, 0, 0.00000000000000000000e+00) (0, 0, 0.00000000000000000000e+00) (0, 0, 0.00000000000000000000e+00) (0, 0, 0.00000000000000000000e+00) (0, 0, 0.00000000000000000000e+00) (0, 0, 0.00000000000000000000e+00) (0, 0, 0.00000000000000000000e+00) (0, 0, 0.00000000000000000000e+00) (0, 0, 0.00000000000000000000e+00) (0, 0, 0.00000000000000000000e+00) (0, 0, 0.00000000000000000000e+00) (0, 0, 0.00000000000000000000e+00) (0, 0, 0.00000000000000000000e+00) (0, 0, 0.00000000000000000000e+00) (0, 0, 0.00000000000000000000e+00) (0, 0, 0.00000000000000000000e+00) (0, 0, 0.00000000000000000000e+00) (0, 0, 0.00000000000000000000e+00) (0, 0, 0.00000000000000000000e+00) (0, 0, 0.00000000000000000000e+00) (0, 0, 0.00000000000000000000e+00) (0, 0, 0.00000000000000000000e+00) (0, 0, 0.00000000000000000000e+00) (0, 0, 0.00000000000000000000e+00) (0, 0, 0.00000000000000000000e+00) (0, 0, 0.00000000000000000000e+00) (0, 0, 0.00000000000000000000e+00) (0, 0, 0.00000000000000000000e+00) (0, 0, 0.00000000000000000000e+00) (0, 0, 0.00000000000000000000e+00) (0, 0, 0.00000000000000000000e+00) (0, 0, 0.00000000000000000000e+00) (0, 0, 0.00000000000000000000e+00) (0, 0, 0.00000000000000000000e+00) (0, 0, 0.00000000000000000000e+00) (0, 0, 0.00000000000000000000e+00) (0, 0, 0.00000000000000000000e+00) (0, 0, 0.00000000000000000000e+00) (0, 0, 0.00000000000000000000e+00) (0, 0, 0.00000000000000000000e+00) (0, 0, 0.00000000000000000000e+00) (0, 0, 0.00000000000000000000e+00) (0, 0, 0.00000000000000000000e+00) (0, 0, 0.00000000000000000000e+00) (0, 0, 0.00000000000000000000e+00) (0, 0, 0.00000000000000000000e+00) (0, 0, 0.00000000000000000000e+00) (0, 0, 0.00000000000000000000e+00) (0, 0, 0.00000000000000000000e+00) (0, 0, 0.00000000000000000000e+00) (0, 0, 0.00000000000000000000e+00) (0, 0, 0.00000000000000000000e+00) (0, 0, 0.00000000000000000000e+00) (0, 0, 0.00000000000000000000e+00) (0, 0, 0.00000000000000000000e+00) (0, 0, 0.00000000000000000000e+00) (0, 0, 0.00000000000000000000e+00) (0, 0, 0.00000000000000000000e+00) (0, 0, 0.00000000000000000000e+00) (0, 0, 0.00000000000000000000e+00) (0, 0, 0.00000000000000000000e+00) (0, 0, 0.00000000000000000000e+00) (0, 0, 0.00000000000000000000e+00) (0, 0, 0.00000000000000000000e+00) (0, 0, 0.00000000000000000000e+00) (0, 0, 0.00000000000000000000e+00) (0, 0, 0.00000000000000000000e+00) (0, 0, 0.00000000000000000000e+00) (0, 0, 0.00000000000000000000e+00) (0, 0, 0.00000000000000000000e+00) (0, 0, 0.00000000000000000000e+00) (0, 0, 0.00000000000000000000e+00) (0, 0, 0.00000000000000000000e+00) (0, 0, 0.00000000000000000000e+00) (0, 0, 0.00000000000000000000e+00) (0, 0, 0.00000000000000000000e+00) (0, 0, 0.00000000000000000000e+00) (0, 0, 0.00000000000000000000e+00) (0, 0, 0.00000000000000000000e+00) (0, 0, 0.00000000000000000000e+00) (0, 0, 0.00000000000000000000e+00) (0, 0, 0.00000000000000000000e+00) (0, 0, 0.00000000000000000000e+00) (0, 0, 0.00000000000000000000e+00) (0, 0, 0.00000000000000000000e+00) (0, 0, 0.00000000000000000000e+00) (0, 0, 0.00000000000000000000e+00) (0, 0, 0.00000000000000000000e+00) (0, 0, 0.00000000000000000000e+00) (0, 0, 0.00000000000000000000e+00) (0, 0, 0.00000000000000000000e+00) (0, 0, 0.00000000000000000000e+00) (0, 0, 0.00000000000000000000e+00) (0, 0, 0.00000000000000000000e+00) (0, 0, 0.00000000000000000000e+00) (0, 0, 0.00000000000000000000e+00) (0, 0, 0.00000000000000000000e+00) (0, 0, 0.00000000000000000000e+00) (0, 0, 0.00000000000000000000e+00) (0, 0, 0.00000000000000000000e+00) (0, 0, 0.00000000000000000000e+00) (0, 0, 0.00000000000000000000e+00) (0, 0, 0.00000000000000000000e+00) (0, 0, 0.00000000000000000000e+00) (0, 0, 0.00000000000000000000e+00) (0, 0, 0.00000000000000000000e+00) (0, 0, 0.00000000000000000000e+00) (0, 0, 0.00000000000000000000e+00) (0, 0, 0.00000000000000000000e+00) (0, 0, 0.00000000000000000000e+00) (0, 0, 0.00000000000000000000e+00) (0, 0, 0.00000000000000000000e+00) (0, 0, 0.00000000000000000000e+00) (0, 0, 0.00000000000000000000e+00) (0, 0, 0.00000000000000000000e+00) (0, 0, 0.00000000000000000000e+00) (0, 0, 0.00000000000000000000e+00) (0, 0, 0.00000000000000000000e+00) (0, 0, 0.00000000000000000000e+00) (0, 0, 0.00000000000000000000e+00) (0, 0, 0.00000000000000000000e+00) (0, 0, 0.00000000000000000000e+00) (0, 0, 0.00000000000000000000e+00) (0, 0, 0.00000000000000000000e+00) (0, 0, 0.00000000000000000000e+00) (0, 0, 0.00000000000000000000e+00) (0, 0, 0.00000000000000000000e+00) (0, 0, 0.00000000000000000000e+00) (0, 0, 0.00000000000000000000e+00) (0, 0, 0.00000000000000000000e+00) (0, 0, 0.00000000000000000000e+00) (0, 0, 0.00000000000000000000e+00) (0, 0, 0.00000000000000000000e+00) (0, 0, 0.00000000000000000000e+00) (0, 0, 0.00000000000000000000e+00) (0, 0, 0.00000000000000000000e+00) (0, 0, 0.00000000000000000000e+00) (0, 0, 0.00000000000000000000e+00) (0, 0, 0.00000000000000000000e+00) (0, 0, 0.00000000000000000000e+00) (0, 0, 0.00000000000000000000e+00) (0, 0, 0.00000000000000000000e+00) (0, 0, 0.00000000000000000000e+00) (0, 0, 0.00000000000000000000e+00) (0, 0, 0.00000000000000000000e+00) (0, 0, 0.00000000000000000000e+00) (0, 0, 0.00000000000000000000e+00) (0, 0, 0.00000000000000000000e+00) (0, 0, 0.00000000000000000000e+00) (0, 0, 0.00000000000000000000e+00) (0, 0, 0.00000000000000000000e+00) (0, 0, 0.00000000000000000000e+00) (0, 0, 0.00000000000000000000e+00) (0, 0, 0.00000000000000000000e+00) (0, 0, 0.00000000000000000000e+00) (0, 0, 0.00000000000000000000e+00) (0, 0, 0.00000000000000000000e+00) (0, 0, 0.00000000000000000000e+00) (0, 0, 0.00000000000000000000e+00) (0, 0, 0.00000000000000000000e+00) (0, 0, 0.00000000000000000000e+00) (0, 0, 0.00000000000000000000e+00) (0, 0, 0.00000000000000000000e+00) (0, 0, 0.00000000000000000000e+00) (0, 0, 0.00000000000000000000e+00) (0, 0, 0.00000000000000000000e+00) (0, 0, 0.00000000000000000000e+00) (0, 0, 0.00000000000000000000e+00) (0, 0, 0.00000000000000000000e+00) (0, 0, 0.00000000000000000000e+00) (0, 0, 0.00000000000000000000e+00) (0, 0, 0.00000000000000000000e+00) (0, 0, 0.00000000000000000000e+00) (0, 0, 0.00000000000000000000e+00) (0, 0, 0.00000000000000000000e+00) (0, 0, 0.00000000000000000000e+00) (0, 0, 0.00000000000000000000e+00) (0, 0, 0.00000000000000000000e+00) (0, 0, 0.00000000000000000000e+00) (0, 0, 0.00000000000000000000e+00) (0, 0, 0.00000000000000000000e+00) (0, 0, 0.00000000000000000000e+00) (0, 0, 0.00000000000000000000e+00) (0, 0, 0.00000000000000000000e+00) (0, 0, 0.00000000000000000000e+00) (0, 0, 0.00000000000000000000e+00) (0, 0, 0.00000000000000000000e+00) (0, 0, 0.00000000000000000000e+00) (0, 0, 0.00000000000000000000e+00) (0, 0, 0.00000000000000000000e+00) (0, 0, 0.00000000000000000000e+00) (0, 0, 0.00000000000000000000e+00) (0, 0, 0.00000000000000000000e+00) (0, 0, 0.00000000000000000000e+00) (0, 0, 0.00000000000000000000e+00) (0, 0, 0.00000000000000000000e+00) (0, 0, 0.00000000000000000000e+00) (0, 0, 0.00000000000000000000e+00) (0, 0, 0.00000000000000000000e+00) (0, 0, 0.00000000000000000000e+00) (0, 0, 0.00000000000000000000e+00) (0, 0, 0.00000000000000000000e+00) (0, 0, 0.00000000000000000000e+00) (0, 0, 0.00000000000000000000e+00) (0, 0, 0.00000000000000000000e+00) (0, 0, 0.00000000000000000000e+00) (0, 0, 0.00000000000000000000e+00) (0, 0, 0.00000000000000000000e+00) (0, 0, 0.00000000000000000000e+00) (0, 0, 0.00000000000000000000e+00) (0, 0, 0.00000000000000000000e+00) (0, 0, 0.00000000000000000000e+00) (0, 0, 0.00000000000000000000e+00) (0, 0, 0.00000000000000000000e+00) (0, 0, 0.00000000000000000000e+00) (0, 0, 0.00000000000000000000e+00) (0, 0, 0.00000000000000000000e+00) (0, 0, 0.00000000000000000000e+00) (0, 0, 0.00000000000000000000e+00) (0, 0, 0.00000000000000000000e+00) (0, 0, 0.00000000000000000000e+00) (0, 0, 0.00000000000000000000e+00) (0, 0, 0.00000000000000000000e+00) (0, 0, 0.00000000000000000000e+00) (0, 0, 0.00000000000000000000e+00) (0, 0, 0.00000000000000000000e+00) (0, 0, 0.00000000000000000000e+00) (0, 0, 0.00000000000000000000e+00) (0, 0, 0.00000000000000000000e+00) (0, 0, 0.00000000000000000000e+00) (0, 0, 0.00000000000000000000e+00) (0, 0, 0.00000000000000000000e+00) (0, 0, 0.00000000000000000000e+00) (0, 0, 0.00000000000000000000e+00) (0, 0, 0.00000000000000000000e+00) (0, 0, 0.00000000000000000000e+00) (0, 0, 0.00000000000000000000e+00) (0, 0, 0.00000000000000000000e+00) (0, 0, 0.00000000000000000000e+00) (0, 0, 0.00000000000000000000e+00) (0, 0, 0.00000000000000000000e+00) (0, 0, 0.00000000000000000000e+00) (0, 0, 0.00000000000000000000e+00) (0, 0, 0.00000000000000000000e+00) (0, 0, 0.00000000000000000000e+00) (0, 0, 0.00000000000000000000e+00) (0, 0, 0.00000000000000000000e+00) (0, 0, 0.00000000000000000000e+00) (0, 0, 0.00000000000000000000e+00) (0, 0, 0.00000000000000000000e+00) (0, 0, 0.00000000000000000000e+00) (0, 0, 0.00000000000000000000e+00) (0, 0, 0.00000000000000000000e+00) (0, 0, 0.00000000000000000000e+00) (0, 0, 0.00000000000000000000e+00) (0, 0, 0.00000000000000000000e+00) (0, 0, 0.00000000000000000000e+00) (0, 0, 0.00000000000000000000e+00) (0, 0, 0.00000000000000000000e+00) (0, 0, 0.00000000000000000000e+00) (0, 0, 0.00000000000000000000e+00) (0, 0, 0.00000000000000000000e+00) (0, 0, 0.00000000000000000000e+00) (0, 0, 0.00000000000000000000e+00) (0, 0, 0.00000000000000000000e+00) (0, 0, 0.00000000000000000000e+00) (0, 0, 0.00000000000000000000e+00) (0, 0, 0.00000000000000000000e+00) (0, 0, 0.00000000000000000000e+00) (0, 0, 0.00000000000000000000e+00) (0, 0, 0.00000000000000000000e+00) (0, 0, 0.00000000000000000000e+00) (0, 0, 0.00000000000000000000e+00) (0, 0, 0.00000000000000000000e+00) (0, 0, 0.00000000000000000000e+00) (0, 0, 0.00000000000000000000e+00) (0, 0, 0.00000000000000000000e+00) (0, 0, 0.00000000000000000000e+00) (0, 0, 0.00000000000000000000e+00) (0, 0, 0.00000000000000000000e+00) (0, 0, 0.00000000000000000000e+00) (0, 0, 0.00000000000000000000e+00) (0, 0, 0.00000000000000000000e+00) (0, 0, 0.00000000000000000000e+00) (0, 0, 0.00000000000000000000e+00) (0, 0, 0.00000000000000000000e+00) (0, 0, 0.00000000000000000000e+00) (0, 0, 0.00000000000000000000e+00) (0, 0, 0.00000000000000000000e+00) (0, 0, 0.00000000000000000000e+00) (0, 0, 0.00000000000000000000e+00) (0, 0, 0.00000000000000000000e+00) (0, 0, 0.00000000000000000000e+00) (0, 0, 0.00000000000000000000e+00) (0, 0, 0.00000000000000000000e+00) (0, 0, 0.00000000000000000000e+00) (0, 0, 0.00000000000000000000e+00) (0, 0, 0.00000000000000000000e+00) (0, 0, 0.00000000000000000000e+00) (0, 0, 0.00000000000000000000e+00) (0, 0, 0.00000000000000000000e+00) (0, 0, 0.00000000000000000000e+00) (0, 0, 0.00000000000000000000e+00) (0, 0, 0.00000000000000000000e+00) (0, 0, 0.00000000000000000000e+00) (0, 0, 0.00000000000000000000e+00) (0, 0, 0.00000000000000000000e+00) (0, 0, 0.00000000000000000000e+00) (0, 0, 0.00000000000000000000e+00) (0, 0, 0.00000000000000000000e+00) (0, 0, 0.00000000000000000000e+00) (0, 0, 0.00000000000000000000e+00) (0, 0, 0.00000000000000000000e+00) (0, 0, 0.00000000000000000000e+00) (0, 0, 0.00000000000000000000e+00) (0, 0, 0.00000000000000000000e+00) (0, 0, 0.00000000000000000000e+00) (0, 0, 0.00000000000000000000e+00) (0, 0, 0.00000000000000000000e+00) (0, 0, 0.00000000000000000000e+00) (0, 0, 0.00000000000000000000e+00) (0, 0, 0.00000000000000000000e+00) (0, 0, 0.00000000000000000000e+00) (0, 0, 0.00000000000000000000e+00) (0, 0, 0.00000000000000000000e+00) (0, 0, 0.00000000000000000000e+00) (0, 0, 0.00000000000000000000e+00) (0, 0, 0.00000000000000000000e+00) (0, 0, 0.00000000000000000000e+00) (0, 0, 0.00000000000000000000e+00) (0, 0, 0.00000000000000000000e+00) (0, 0, 0.00000000000000000000e+00) (0, 0, 0.00000000000000000000e+00) (0, 0, 0.00000000000000000000e+00) (0, 0, 0.00000000000000000000e+00) (0, 0, 0.00000000000000000000e+00) (0, 0, 0.00000000000000000000e+00) (0, 0, 0.00000000000000000000e+00) (0, 0, 0.00000000000000000000e+00) (0, 0, 0.00000000000000000000e+00) (0, 0, 0.00000000000000000000e+00) (0, 0, 0.00000000000000000000e+00) (0, 0, 0.00000000000000000000e+00) (0, 0, 0.00000000000000000000e+00) (0, 0, 0.00000000000000000000e+00) (0, 0, 0.00000000000000000000e+00) (0, 0, 0.00000000000000000000e+00) (0, 0, 0.00000000000000000000e+00) (0, 0, 0.00000000000000000000e+00) (0, 0, 0.00000000000000000000e+00) (0, 0, 0.00000000000000000000e+00) (0, 0, 0.00000000000000000000e+00) (0, 0, 0.00000000000000000000e+00) (0, 0, 0.00000000000000000000e+00) (0, 0, 0.00000000000000000000e+00) (0, 0, 0.00000000000000000000e+00) (0, 0, 0.00000000000000000000e+00) (0, 0, 0.00000000000000000000e+00) (0, 0, 0.00000000000000000000e+00) (0, 0, 0.00000000000000000000e+00) (0, 0, 0.00000000000000000000e+00) (0, 0, 0.00000000000000000000e+00) (0, 0, 0.00000000000000000000e+00) (0, 0, 0.00000000000000000000e+00) (0, 0, 0.00000000000000000000e+00) (0, 0, 0.00000000000000000000e+00) (0, 0, 0.00000000000000000000e+00) (0, 0, 0.00000000000000000000e+00) (0, 0, 0.00000000000000000000e+00) (0, 0, 0.00000000000000000000e+00) (0, 0, 0.00000000000000000000e+00) (0, 0, 0.00000000000000000000e+00) (0, 0, 0.00000000000000000000e+00) (0, 0, 0.00000000000000000000e+00) (0, 0, 0.00000000000000000000e+00) (0, 0, 0.00000000000000000000e+00) (0, 0, 0.00000000000000000000e+00) (0, 0, 0.00000000000000000000e+00) (0, 0, 0.00000000000000000000e+00) (0, 0, 0.00000000000000000000e+00) (0, 0, 0.00000000000000000000e+00) (0, 0, 0.00000000000000000000e+00) (0, 0, 0.00000000000000000000e+00) (0, 0, 0.00000000000000000000e+00) (0, 0, 0.00000000000000000000e+00) (0, 0, 0.00000000000000000000e+00) (0, 0, 0.00000000000000000000e+00) (0, 0, 0.00000000000000000000e+00) (0, 0, 0.00000000000000000000e+00) (0, 0, 0.00000000000000000000e+00) (0, 0, 0.00000000000000000000e+00) (0, 0, 0.00000000000000000000e+00) (0, 0, 0.00000000000000000000e+00) (0, 0, 0.00000000000000000000e+00) (0, 0, 0.00000000000000000000e+00) (0, 0, 0.00000000000000000000e+00) (0, 0, 0.00000000000000000000e+00) (0, 0, 0.00000000000000000000e+00) (0, 0, 0.00000000000000000000e+00) (0, 0, 0.00000000000000000000e+00) (0, 0, 0.00000000000000000000e+00) (0, 0, 0.00000000000000000000e+00) (0, 0, 0.00000000000000000000e+00) (0, 0, 0.00000000000000000000e+00) (0, 0, 0.00000000000000000000e+00) (0, 0, 0.00000000000000000000e+00) (0, 0, 0.00000000000000000000e+00) (0, 0, 0.00000000000000000000e+00) (0, 0, 0.00000000000000000000e+00) (0, 0, 0.00000000000000000000e+00) (0, 0, 0.00000000000000000000e+00) (0, 0, 0.00000000000000000000e+00) (0, 0, 0.00000000000000000000e+00) (0, 0, 0.00000000000000000000e+00) (0, 0, 0.00000000000000000000e+00) (0, 0, 0.00000000000000000000e+00) (0, 0, 0.00000000000000000000e+00) (0, 0, 0.00000000000000000000e+00) (0, 0, 0.00000000000000000000e+00) (0, 0, 0.00000000000000000000e+00) (0, 0, 0.00000000000000000000e+00) (0, 0, 0.00000000000000000000e+00) (0, 0, 0.00000000000000000000e+00) (0, 0, 0.00000000000000000000e+00) (0, 0, 0.00000000000000000000e+00) (0, 0, 0.00000000000000000000e+00) (0, 0, 0.00000000000000000000e+00) (0, 0, 0.00000000000000000000e+00) (0, 0, 0.00000000000000000000e+00) (0, 0, 0.00000000000000000000e+00) (0, 0, 0.00000000000000000000e+00) (0, 0, 0.00000000000000000000e+00) (0, 0, 0.00000000000000000000e+00) (0, 0, 0.00000000000000000000e+00) (0, 0, 0.00000000000000000000e+00) (0, 0, 0.00000000000000000000e+00) (0, 0, 0.00000000000000000000e+00) (0, 0, 0.00000000000000000000e+00) (0, 0, 0.00000000000000000000e+00) (0, 0, 0.00000000000000000000e+00) (0, 0, 0.00000000000000000000e+00) (0, 0, 0.00000000000000000000e+00) (0, 0, 0.00000000000000000000e+00) (0, 0, 0.00000000000000000000e+00) (0, 0, 0.00000000000000000000e+00) (0, 0, 0.00000000000000000000e+00) (0, 0, 0.00000000000000000000e+00) (0, 0, 0.00000000000000000000e+00) (0, 0, 0.00000000000000000000e+00) (0, 0, 0.00000000000000000000e+00) (0, 0, 0.00000000000000000000e+00) (0, 0, 0.00000000000000000000e+00) (0, 0, 0.00000000000000000000e+00) (0, 0, 0.00000000000000000000e+00) (0, 0, 0.00000000000000000000e+00) (0, 0, 0.00000000000000000000e+00) (0, 0, 0.00000000000000000000e+00) (0, 0, 0.00000000000000000000e+00) (0, 0, 0.00000000000000000000e+00) (0, 0, 0.00000000000000000000e+00) (0, 0, 0.00000000000000000000e+00) (0, 0, 0.00000000000000000000e+00) (0, 0, 0.00000000000000000000e+00) (0, 0, 0.00000000000000000000e+00) (0, 0, 0.00000000000000000000e+00) (0, 0, 0.00000000000000000000e+00) (0, 0, 0.00000000000000000000e+00) (0, 0, 0.00000000000000000000e+00) (0, 0, 0.00000000000000000000e+00) (0, 0, 0.00000000000000000000e+00) (0, 0, 0.00000000000000000000e+00) (0, 0, 0.00000000000000000000e+00) (0, 0, 0.00000000000000000000e+00) (0, 0, 0.00000000000000000000e+00) (0, 0, 0.00000000000000000000e+00) (0, 0, 0.00000000000000000000e+00) (0, 0, 0.00000000000000000000e+00) (0, 0, 0.00000000000000000000e+00) (0, 0, 0.00000000000000000000e+00) (0, 0, 0.00000000000000000000e+00) (0, 0, 0.00000000000000000000e+00) (0, 0, 0.00000000000000000000e+00) (0, 0, 0.00000000000000000000e+00) (0, 0, 0.00000000000000000000e+00) (0, 0, 0.00000000000000000000e+00) (0, 0, 0.00000000000000000000e+00) (0, 0, 0.00000000000000000000e+00) (0, 0, 0.00000000000000000000e+00) (0, 0, 0.00000000000000000000e+00) (0, 0, 0.00000000000000000000e+00) (0, 0, 0.00000000000000000000e+00) (0, 0, 0.00000000000000000000e+00) (0, 0, 0.00000000000000000000e+00) (0, 0, 0.00000000000000000000e+00) (0, 0, 0.00000000000000000000e+00) (0, 0, 0.00000000000000000000e+00) (0, 0, 0.00000000000000000000e+00) (0, 0, 0.00000000000000000000e+00) (0, 0, 0.00000000000000000000e+00) (0, 0, 0.00000000000000000000e+00) (0, 0, 0.00000000000000000000e+00) (0, 0, 0.00000000000000000000e+00) (0, 0, 0.00000000000000000000e+00) (0, 0, 0.00000000000000000000e+00) (0, 0, 0.00000000000000000000e+00) (0, 0, 0.00000000000000000000e+00) (0, 0, 0.00000000000000000000e+00) (0, 0, 0.00000000000000000000e+00) (0, 0, 0.00000000000000000000e+00) (0, 0, 0.00000000000000000000e+00) (0, 0, 0.00000000000000000000e+00) (0, 0, 0.00000000000000000000e+00) (0, 0, 0.00000000000000000000e+00) (0, 0, 0.00000000000000000000e+00) (0, 0, 0.00000000000000000000e+00) (0, 0, 0.00000000000000000000e+00) (0, 0, 0.00000000000000000000e+00) (0, 0, 0.00000000000000000000e+00) (0, 0, 0.00000000000000000000e+00) (0, 0, 0.00000000000000000000e+00) (0, 0, 0.00000000000000000000e+00) (0, 0, 0.00000000000000000000e+00) (0, 0, 0.00000000000000000000e+00) (0, 0, 0.00000000000000000000e+00) (0, 0, 0.00000000000000000000e+00) (0, 0, 0.00000000000000000000e+00) (0, 0, 0.00000000000000000000e+00) (0, 0, 0.00000000000000000000e+00) (0, 0, 0.00000000000000000000e+00) (0, 0, 0.00000000000000000000e+00) (0, 0, 0.00000000000000000000e+00) (0, 0, 0.00000000000000000000e+00) (0, 0, 0.00000000000000000000e+00) (0, 0, 0.00000000000000000000e+00) (0, 0, 0.00000000000000000000e+00) (0, 0, 0.00000000000000000000e+00) (0, 0, 0.00000000000000000000e+00) (0, 0, 0.00000000000000000000e+00) (0, 0, 0.00000000000000000000e+00) (0, 0, 0.00000000000000000000e+00) (0, 0, 0.00000000000000000000e+00) (0, 0, 0.00000000000000000000e+00) (0, 0, 0.00000000000000000000e+00) (0, 0, 0.00000000000000000000e+00) (0, 0, 0.00000000000000000000e+00) (0, 0, 0.00000000000000000000e+00) (0, 0, 0.00000000000000000000e+00) (0, 0, 0.00000000000000000000e+00) (0, 0, 0.00000000000000000000e+00) (0, 0, 0.00000000000000000000e+00) (0, 0, 0.00000000000000000000e+00) (0, 0, 0.00000000000000000000e+00) (0, 0, 0.00000000000000000000e+00) (0, 0, 0.00000000000000000000e+00) (0, 0, 0.00000000000000000000e+00) (0, 0, 0.00000000000000000000e+00) (0, 0, 0.00000000000000000000e+00) (0, 0, 0.00000000000000000000e+00) (0, 0, 0.00000000000000000000e+00) (0, 0, 0.00000000000000000000e+00) (0, 0, 0.00000000000000000000e+00) (0, 0, 0.00000000000000000000e+00) (0, 0, 0.00000000000000000000e+00) (0, 0, 0.00000000000000000000e+00) (0, 0, 0.00000000000000000000e+00) (0, 0, 0.00000000000000000000e+00) (0, 0, 0.00000000000000000000e+00) (0, 0, 0.00000000000000000000e+00) (0, 0, 0.00000000000000000000e+00) (0, 0, 0.00000000000000000000e+00) (0, 0, 0.00000000000000000000e+00) (0, 0, 0.00000000000000000000e+00) (0, 0, 0.00000000000000000000e+00) (0, 0, 0.00000000000000000000e+00) (0, 0, 0.00000000000000000000e+00) (0, 0, 0.00000000000000000000e+00) (0, 0, 0.00000000000000000000e+00) (0, 0, 0.00000000000000000000e+00) (0, 0, 0.00000000000000000000e+00) (0, 0, 0.00000000000000000000e+00) (0, 0, 0.00000000000000000000e+00) (0, 0, 0.00000000000000000000e+00) (0, 0, 0.00000000000000000000e+00) (0, 0, 0.00000000000000000000e+00) (0, 0, 0.00000000000000000000e+00) (0, 0, 0.00000000000000000000e+00) (0, 0, 0.00000000000000000000e+00) (0, 0, 0.00000000000000000000e+00) (0, 0, 0.00000000000000000000e+00) (0, 0, 0.00000000000000000000e+00) (0, 0, 0.00000000000000000000e+00) (0, 0, 0.00000000000000000000e+00) (0, 0, 0.00000000000000000000e+00) (0, 0, 0.00000000000000000000e+00) (0, 0, 0.00000000000000000000e+00) (0, 0, 0.00000000000000000000e+00) (0, 0, 0.00000000000000000000e+00) (0, 0, 0.00000000000000000000e+00) (0, 0, 0.00000000000000000000e+00) (0, 0, 0.00000000000000000000e+00) (0, 0, 0.00000000000000000000e+00) (0, 0, 0.00000000000000000000e+00) (0, 0, 0.00000000000000000000e+00) (0, 0, 0.00000000000000000000e+00) (0, 0, 0.00000000000000000000e+00) (0, 0, 0.00000000000000000000e+00) (0, 0, 0.00000000000000000000e+00) (0, 0, 0.00000000000000000000e+00) (0, 0, 0.00000000000000000000e+00) (0, 0, 0.00000000000000000000e+00) (0, 0, 0.00000000000000000000e+00) (0, 0, 0.00000000000000000000e+00) (0, 0, 0.00000000000000000000e+00) (0, 0, 0.00000000000000000000e+00) (0, 0, 0.00000000000000000000e+00) (0, 0, 0.00000000000000000000e+00) (0, 0, 0.00000000000000000000e+00) (0, 0, 0.00000000000000000000e+00) (0, 0, 0.00000000000000000000e+00) (0, 0, 0.00000000000000000000e+00) (0, 0, 0.00000000000000000000e+00) (0, 0, 0.00000000000000000000e+00) (0, 0, 0.00000000000000000000e+00) (0, 0, 0.00000000000000000000e+00) (0, 0, 0.00000000000000000000e+00) (0, 0, 0.00000000000000000000e+00) (0, 0, 0.00000000000000000000e+00) (0, 0, 0.00000000000000000000e+00) (0, 0, 0.00000000000000000000e+00) (0, 0, 0.00000000000000000000e+00) (0, 0, 0.00000000000000000000e+00) (0, 0, 0.00000000000000000000e+00) (0, 0, 0.00000000000000000000e+00) (0, 0, 0.00000000000000000000e+00) (0, 0, 0.00000000000000000000e+00) (0, 0, 0.00000000000000000000e+00) (0, 0, 0.00000000000000000000e+00) (0, 0, 0.00000000000000000000e+00) (0, 0, 0.00000000000000000000e+00) (0, 0, 0.00000000000000000000e+00) (0, 0, 0.00000000000000000000e+00) (0, 0, 0.00000000000000000000e+00) (0, 0, 0.00000000000000000000e+00) (0, 0, 0.00000000000000000000e+00) (0, 0, 0.00000000000000000000e+00) (0, 0, 0.00000000000000000000e+00) (0, 0, 0.00000000000000000000e+00) (0, 0, 0.00000000000000000000e+00) (0, 0, 0.00000000000000000000e+00) (0, 0, 0.00000000000000000000e+00) (0, 0, 0.00000000000000000000e+00) (0, 0, 0.00000000000000000000e+00) (0, 0, 0.00000000000000000000e+00) (0, 0, 0.00000000000000000000e+00) (0, 0, 0.00000000000000000000e+00) (0, 0, 0.00000000000000000000e+00) (0, 0, 0.00000000000000000000e+00) (0, 0, 0.00000000000000000000e+00) (0, 0, 0.00000000000000000000e+00) (0, 0, 0.00000000000000000000e+00) (0, 0, 0.00000000000000000000e+00) (0, 0, 0.00000000000000000000e+00) (0, 0, 0.00000000000000000000e+00) (0, 0, 0.00000000000000000000e+00) (0, 0, 0.00000000000000000000e+00) (0, 0, 0.00000000000000000000e+00) (0, 0, 0.00000000000000000000e+00) (0, 0, 0.00000000000000000000e+00) (0, 0, 0.00000000000000000000e+00) (0, 0, 0.00000000000000000000e+00) (0, 0, 0.00000000000000000000e+00) (0, 0, 0.00000000000000000000e+00) (0, 0, 0.00000000000000000000e+00) (0, 0, 0.00000000000000000000e+00) (0, 0, 0.00000000000000000000e+00) (0, 0, 0.00000000000000000000e+00) (0, 0, 0.00000000000000000000e+00) (0, 0, 0.00000000000000000000e+00) (0, 0, 0.00000000000000000000e+00) (0, 0, 0.00000000000000000000e+00) (0, 0, 0.00000000000000000000e+00) (0, 0, 0.00000000000000000000e+00) (0, 0, 0.00000000000000000000e+00) (0, 0, 0.00000000000000000000e+00) (0, 0, 0.00000000000000000000e+00) (0, 0, 0.00000000000000000000e+00) (0, 0, 0.00000000000000000000e+00) (0, 0, 0.00000000000000000000e+00) (0, 0, 0.00000000000000000000e+00) (0, 0, 0.00000000000000000000e+00) (0, 0, 0.00000000000000000000e+00) (0, 0, 0.00000000000000000000e+00) (0, 0, 0.00000000000000000000e+00) (0, 0, 0.00000000000000000000e+00) (0, 0, 0.00000000000000000000e+00) (0, 0, 0.00000000000000000000e+00) (0, 0, 0.00000000000000000000e+00) (0, 0, 0.00000000000000000000e+00) (0, 0, 0.00000000000000000000e+00) (0, 0, 0.00000000000000000000e+00) (0, 0, 0.00000000000000000000e+00) (0, 0, 0.00000000000000000000e+00) (0, 0, 0.00000000000000000000e+00) (0, 0, 0.00000000000000000000e+00) (0, 0, 0.00000000000000000000e+00) (0, 0, 0.00000000000000000000e+00) (0, 0, 0.00000000000000000000e+00) (0, 0, 0.00000000000000000000e+00) (0, 0, 0.00000000000000000000e+00) (0, 0, 0.00000000000000000000e+00) (0, 0, 0.00000000000000000000e+00) (0, 0, 0.00000000000000000000e+00) (0, 0, 0.00000000000000000000e+00) (0, 0, 0.00000000000000000000e+00) (0, 0, 0.00000000000000000000e+00) (0, 0, 0.00000000000000000000e+00) (0, 0, 0.00000000000000000000e+00) (0, 0, 0.00000000000000000000e+00) (0, 0, 0.00000000000000000000e+00) (0, 0, 0.00000000000000000000e+00) (0, 0, 0.00000000000000000000e+00) (0, 0, 0.00000000000000000000e+00) (0, 0, 0.00000000000000000000e+00) (0, 0, 0.00000000000000000000e+00) (0, 0, 0.00000000000000000000e+00) (0, 0, 0.00000000000000000000e+00) (0, 0, 0.00000000000000000000e+00) (0, 0, 0.00000000000000000000e+00) (0, 0, 0.00000000000000000000e+00) (0, 0, 0.00000000000000000000e+00) (0, 0, 0.00000000000000000000e+00) (0, 0, 0.00000000000000000000e+00) (0, 0, 0.00000000000000000000e+00) (0, 0, 0.00000000000000000000e+00) (0, 0, 0.00000000000000000000e+00) (0, 0, 0.00000000000000000000e+00) (0, 0, 0.00000000000000000000e+00) (0, 0, 0.00000000000000000000e+00) (0, 0, 0.00000000000000000000e+00) (0, 0, 0.00000000000000000000e+00) (0, 0, 0.00000000000000000000e+00) (0, 0, 0.00000000000000000000e+00) (0, 0, 0.00000000000000000000e+00) (0, 0, 0.00000000000000000000e+00) (0, 0, 0.00000000000000000000e+00) (0, 0, 0.00000000000000000000e+00) (0, 0, 0.00000000000000000000e+00) (0, 0, 0.00000000000000000000e+00) (0, 0, 0.00000000000000000000e+00) (0, 0, 0.00000000000000000000e+00) (0, 0, 0.00000000000000000000e+00) (0, 0, 0.00000000000000000000e+00) (0, 0, 0.00000000000000000000e+00) (0, 0, 0.00000000000000000000e+00) (0, 0, 0.00000000000000000000e+00) (0, 0, 0.00000000000000000000e+00) (0, 0, 0.00000000000000000000e+00) (0, 0, 0.00000000000000000000e+00) (0, 0, 0.00000000000000000000e+00) (0, 0, 0.00000000000000000000e+00) (0, 0, 0.00000000000000000000e+00) (0, 0, 0.00000000000000000000e+00) (0, 0, 0.00000000000000000000e+00) (0, 0, 0.00000000000000000000e+00) (0, 0, 0.00000000000000000000e+00) (0, 0, 0.00000000000000000000e+00) (0, 0, 0.00000000000000000000e+00) (0, 0, 0.00000000000000000000e+00) (0, 0, 0.00000000000000000000e+00) (0, 0, 0.00000000000000000000e+00) (0, 0, 0.00000000000000000000e+00) (0, 0, 0.00000000000000000000e+00) (0, 0, 0.00000000000000000000e+00) (0, 0, 0.00000000000000000000e+00) (0, 0, 0.00000000000000000000e+00) (0, 0, 0.00000000000000000000e+00) (0, 0, 0.00000000000000000000e+00) (0, 0, 0.00000000000000000000e+00) (0, 0, 0.00000000000000000000e+00) (0, 0, 0.00000000000000000000e+00) (0, 0, 0.00000000000000000000e+00) (0, 0, 0.00000000000000000000e+00) (0, 0, 0.00000000000000000000e+00) (0, 0, 0.00000000000000000000e+00) (0, 0, 0.00000000000000000000e+00) (0, 0, 0.00000000000000000000e+00) (0, 0, 0.00000000000000000000e+00) (0, 0, 0.00000000000000000000e+00) (0, 0, 0.00000000000000000000e+00) (0, 0, 0.00000000000000000000e+00) (0, 0, 0.00000000000000000000e+00) (0, 0, 0.00000000000000000000e+00) (0, 0, 0.00000000000000000000e+00) (0, 0, 0.00000000000000000000e+00) (0, 0, 0.00000000000000000000e+00) (0, 0, 0.00000000000000000000e+00) (0, 0, 0.00000000000000000000e+00) (0, 0, 0.00000000000000000000e+00) (0, 0, 0.00000000000000000000e+00) (0, 0, 0.00000000000000000000e+00) (0, 0, 0.00000000000000000000e+00) (0, 0, 0.00000000000000000000e+00) (0, 0, 0.00000000000000000000e+00) (0, 0, 0.00000000000000000000e+00) (0, 0, 0.00000000000000000000e+00) (0, 0, 0.00000000000000000000e+00) (0, 0, 0.00000000000000000000e+00) (0, 0, 0.00000000000000000000e+00) (0, 0, 0.00000000000000000000e+00) (0, 0, 0.00000000000000000000e+00) (0, 0, 0.00000000000000000000e+00) (0, 0, 0.00000000000000000000e+00) (0, 0, 0.00000000000000000000e+00) (0, 0, 0.00000000000000000000e+00) (0, 0, 0.00000000000000000000e+00) (0, 0, 0.00000000000000000000e+00) (0, 0, 0.00000000000000000000e+00) (0, 0, 0.00000000000000000000e+00) (0, 0, 0.00000000000000000000e+00) (0, 0, 0.00000000000000000000e+00) (0, 0, 0.00000000000000000000e+00) (0, 0, 0.00000000000000000000e+00) (0, 0, 0.00000000000000000000e+00) (0, 0, 0.00000000000000000000e+00) (0, 0, 0.00000000000000000000e+00) (0, 0, 0.00000000000000000000e+00) (0, 0, 0.00000000000000000000e+00) (0, 0, 0.00000000000000000000e+00) (0, 0, 0.00000000000000000000e+00) (0, 0, 0.00000000000000000000e+00) (0, 0, 0.00000000000000000000e+00) (0, 0, 0.00000000000000000000e+00) (0, 0, 0.00000000000000000000e+00) (1025, 11, 5.00000000000000000000e-01) (1025, 11, 5.00000000000000000000e-01) (1025, 11, 5.00000000000000000000e-01) (1025, 11, 5.00000000000000000000e-01) (1025, 11, 5.00000000000000000000e-01) (1025, 11, 5.00000000000000000000e-01) (1025, 11, 5.00000000000000000000e-01) (1025, 11, 5.00000000000000000000e-01) (1025, 11, 5.00000000000000000000e-01) (1025, 11, 5.00000000000000000000e-01) (0, 11, 0.00000000000000000000e+00) (11, 11, 5.00000000000000000000e-01) (11, 11, 5.00000000000000000000e-01) (11, 11, 5.00000000000000000000e-01) (11, 11, 5.00000000000000000000e-01) (11, 11, 5.00000000000000000000e-01) (11, 11, 5.00000000000000000000e-01) (11, 11, 5.00000000000000000000e-01) (11, 11, 5.00000000000000000000e-01) (11, 11, 5.00000000000000000000e-01) (11, 11, 5.00000000000000000000e-01) (0, 11, 0.00000000000000000000e+00) (11, 11, 5.00000000000000000000e-01) (11, 11, 5.00000000000000000000e-01) (11, 11, 5.00000000000000000000e-01) (11, 11, 5.00000000000000000000e-01) (11, 11, 5.00000000000000000000e-01) (11, 11, 5.00000000000000000000e-01) (11, 11, 5.00000000000000000000e-01) (11, 11, 5.00000000000000000000e-01) (11, 11, 5.00000000000000000000e-01) (11, 11, 5.00000000000000000000e-01) (0, 11, 0.00000000000000000000e+00) 
connections (connected_to_neuron, weight)=(0, -4.73975509405136108398e-01) (1, -6.53746247291564941406e-01) (2, -4.29151356220245361328e-01) (3, -7.23838925361633300781e-01) (4, -7.81608700752258300781e-01) (5, -4.69068288803100585938e-01) (6, -6.65721297264099121094e-01) (7, -6.74785017967224121094e-01) (8, -4.22248303890228271484e-01) (9, -4.40540343523025512695e-01) (10, -5.49577474594116210938e-01) (11, -7.92778134346008300781e-01) (12, -2.66242384910583496094e-01) (13, -5.94731330871582031250e-01) (14, -7.88310408592224121094e-01) (15, -4.93402898311614990234e-01) (16, -7.51707673072814941406e-01) (17, -2.62690186500549316406e-01) (18, -5.52488923072814941406e-01) (19, -2.73749709129333496094e-01) (20, -6.61271810531616210938e-01) (21, -7.74687409400939941406e-01) (22, -7.16569781303405761719e-01) (23, -6.14305257797241210938e-01) (24, -3.41498792171478271484e-01) (25, -8.27147126197814941406e-01) (26, -2.83326148986816406250e-01) (27, -3.31208288669586181641e-01) (28, -5.71019172668457031250e-01) (29, -7.02983260154724121094e-01) (30, -4.47370201349258422852e-01) (31, -8.10154914855957031250e-01) (32, -5.83836555480957031250e-01) (33, -6.26884579658508300781e-01) (34, -4.54657852649688720703e-01) (35, -6.53233528137207031250e-01) (36, -8.53880524635314941406e-01) (37, -4.36512142419815063477e-01) (38, -3.13813269138336181641e-01) (39, -3.69843542575836181641e-01) (40, -1.80176824331283569336e-01) (41, -6.83935523033142089844e-01) (42, -3.48671644926071166992e-01) (43, -2.75996983051300048828e-01) (44, -2.82059371471405029297e-01) (45, -1.51833653450012207031e-01) (46, -4.51300650835037231445e-01) (47, -2.36333638429641723633e-01) (48, -2.98608899116516113281e-01) (49, -3.19839775562286376953e-01) (50, -4.80211913585662841797e-01) (51, -8.35549294948577880859e-01) (52, -3.56217116117477416992e-01) (53, -3.56564968824386596680e-01) (54, -4.18747633695602416992e-01) (55, -1.98853567242622375488e-01) (56, -1.80121868848800659180e-01) (57, -8.44926714897155761719e-01) (58, -6.79106354713439941406e-01) (59, -3.37122619152069091797e-01) (60, -7.51524567604064941406e-01) (61, -8.32310676574707031250e-01) (62, -8.49943757057189941406e-01) (63, -8.21324348449707031250e-01) (64, -5.21672248840332031250e-01) (65, -8.14933896064758300781e-01) (66, -7.38926887512207031250e-01) (67, -6.95768952369689941406e-01) (68, -3.18372547626495361328e-01) (69, -6.32322907447814941406e-01) (70, -4.61560904979705810547e-01) (71, -2.44648367166519165039e-01) (72, -1.27753704786300659180e-01) (73, -2.38645240664482116699e-01) (74, -4.51121985912322998047e-01) (75, -7.14722573757171630859e-02) (76, -3.25940579175949096680e-01) (77, -2.23191939294338226318e-02) (78, -9.59966257214546203613e-02) (79, 5.65326400101184844971e-02) (80, -7.37954437732696533203e-01) (81, -4.11067038774490356445e-01) (82, 5.25647066533565521240e-02) (83, -2.68070716410875320435e-02) (84, 3.69397811591625213623e-02) (85, 2.23591208457946777344e-01) (86, -3.38731259107589721680e-01) (87, -6.59861445426940917969e-01) (88, -2.47249081730842590332e-01) (89, -5.47485232353210449219e-01) (90, -6.43450856208801269531e-01) (91, -9.62781086564064025879e-02) (92, -6.23400807380676269531e-01) (93, -7.29057431221008300781e-01) (94, -3.22529017925262451172e-01) (95, -7.05711483955383300781e-01) (96, -5.90263485908508300781e-01) (97, -7.59544491767883300781e-01) (98, -7.07011580467224121094e-01) (99, -6.26298666000366210938e-01) (100, -3.00538122653961181641e-01) (101, -5.30204892158508300781e-01) (102, -7.37901568412780761719e-01) (103, -3.98256093263626098633e-01) (104, -6.60424292087554931641e-01) (105, 5.77731609344482421875e-01) (106, 5.02919331192970275879e-02) (107, 2.09332004189491271973e-01) (108, 2.07489192485809326172e-01) (109, 3.66711825132369995117e-01) (110, -2.43051901459693908691e-01) (111, -3.00239175558090209961e-01) (112, -4.49011147022247314453e-01) (113, -7.93074131011962890625e-01) (114, 3.92129272222518920898e-02) (115, 2.03151747584342956543e-01) (116, 4.89088296890258789063e-01) (117, 3.34745645523071289063e-01) (118, -4.90258960053324699402e-03) (119, -2.50259697437286376953e-01) (120, -8.77053663134574890137e-02) (121, -6.41078948974609375000e-01) (122, -4.47190910577774047852e-01) (123, -5.84747195243835449219e-01) (124, -2.44556799530982971191e-01) (125, -3.04579824209213256836e-01) (126, -2.79993653297424316406e-01) (127, -2.67917931079864501953e-01) (128, -6.23643636703491210938e-01) (129, -8.08635115623474121094e-01) (130, -3.65229308605194091797e-01) (131, -2.75928616523742675781e-01) (132, -5.57084798812866210938e-01) (133, -7.10051178932189941406e-01) (134, -2.87209272384643554688e-01) (135, -1.79606422781944274902e-01) (136, -6.62048935890197753906e-01) (137, 2.26631611585617065430e-01) (138, 4.64868277311325073242e-01) (139, 2.72240877151489257813e-01) (140, 3.02282989025115966797e-01) (141, 3.53644341230392456055e-01) (142, -1.74590200185775756836e-01) (143, 6.21814727783203125000e-01) (144, -4.56674396991729736328e-02) (145, -4.77287501096725463867e-01) (146, 4.14031267166137695313e-01) (147, 1.38704076409339904785e-01) (148, 3.32709044218063354492e-01) (149, 2.43852376937866210938e-01) (150, 4.77862447500228881836e-01) (151, 4.53835844993591308594e-01) (152, 1.17196843028068542480e-01) (153, -2.11506970226764678955e-02) (154, -4.38063710927963256836e-01) (155, -5.33789038658142089844e-01) (156, -2.03101590275764465332e-01) (157, -4.77541148662567138672e-01) (158, -6.18498444557189941406e-01) (159, -2.70939171314239501953e-01) (160, -5.87095856666564941406e-01) (161, -3.16340148448944091797e-01) (162, -3.01105678081512451172e-01) (163, -7.31987118721008300781e-01) (164, -6.75920367240905761719e-01) (165, -4.58081901073455810547e-01) (166, -2.31901258230209350586e-01) (167, -6.63112640380859375000e-01) (168, -3.70387047529220581055e-01) (169, 1.80217549204826354980e-01) (170, 5.24962365627288818359e-01) (171, 2.73925691843032836914e-01) (172, 5.36170125007629394531e-01) (173, 4.08507794141769409180e-01) (174, -1.59828081727027893066e-01) (175, 2.49928291887044906616e-02) (176, -1.72199949622154235840e-01) (177, -1.96452215313911437988e-01) (178, 2.19259309768676757813e+00) (179, 6.36285245418548583984e-01) (180, 3.96484732627868652344e-01) (181, 5.54742217063903808594e-01) (182, 7.27959811687469482422e-01) (183, 4.86568421125411987305e-01) (184, -2.24925875663757324219e-01) (185, -1.00977465510368347168e-01) (186, -5.20359337329864501953e-01) (187, -1.01705968379974365234e-01) (188, -4.89157736301422119141e-01) (189, -5.38792610168457031250e-01) (190, -3.15424621105194091797e-01) (191, -6.31892442703247070313e-01) (192, -5.77153205871582031250e-01) (193, -6.43052816390991210938e-01) (194, -4.83442038297653198242e-01) (195, -7.38084673881530761719e-01) (196, -6.76249861717224121094e-01) (197, -7.66703963279724121094e-01) (198, -2.80278861522674560547e-01) (199, -4.51256722211837768555e-01) (200, -3.00595641136169433594e-01) (201, 7.97482848167419433594e-01) (202, 5.58718621730804443359e-01) (203, 7.14199829101562500000e+00) (204, -2.43141874670982360840e-01) (205, -1.46959997558593750000e+03) (206, -1.46959997558593750000e+03) (207, -1.46959997558593750000e+03) (208, 1.53584194183349609375e+00) (209, -2.56754457950592041016e-01) (210, 3.85112261772155761719e+00) (211, -1.08275234699249267578e+00) (212, 6.02253580093383789063e+00) (213, 1.11541771888732910156e+00) (214, 7.34524130821228027344e-01) (215, 2.26369976997375488281e-01) (216, 2.96877678483724594116e-02) (217, -3.53994458913803100586e-01) (218, -5.66355407238006591797e-01) (219, -6.91780209541320800781e-01) (220, -3.12863945960998535156e-01) (221, -5.51426887512207031250e-01) (222, -4.29426014423370361328e-01) (223, -4.24839258193969726563e-01) (224, -8.21580767631530761719e-01) (225, -3.55433166027069091797e-01) (226, -2.62305617332458496094e-01) (227, -2.94111073017120361328e-01) (228, -4.08515393733978271484e-01) (229, -7.34454870223999023438e-01) (230, -7.53018975257873535156e-01) (231, -3.98972153663635253906e-01) (232, -5.29145300388336181641e-01) (233, -2.34456285834312438965e-01) (234, 5.74522895812988281250e+01) (235, -1.89410164952278137207e-01) (236, -4.36573535203933715820e-01) (237, -3.22445929050445556641e-01) (238, 2.16252237558364868164e-01) (239, 3.45828461647033691406e+00) (240, 2.44058275222778320313e+00) (241, 5.19193172454833984375e+00) (242, 7.46480762958526611328e-01) (243, 4.73566889762878417969e-01) (244, 6.53422451019287109375e+00) (245, 2.05744800567626953125e+01) (246, 1.24120473861694335938e+00) (247, 2.18130871653556823730e-01) (248, 3.53903681039810180664e-01) (249, -4.88116890192031860352e-01) (250, -4.40533071756362915039e-01) (251, -1.74819543957710266113e-01) (252, -6.93021774291992187500e-01) (253, -3.85828673839569091797e-01) (254, -5.00377416610717773438e-01) (255, -2.80131042003631591797e-01) (256, -4.79450315237045288086e-01) (257, -6.26371979713439941406e-01) (258, -7.68992781639099121094e-01) (259, -6.56126618385314941406e-01) (260, -7.54399299621582031250e-01) (261, -5.66011071205139160156e-01) (262, -5.53345322608947753906e-01) (263, -4.27328824996948242188e-01) (264, -8.25813412666320800781e-01) (265, -1.23463554382324218750e+01) (266, -1.10987126827239990234e-01) (267, -7.74554431438446044922e-01) (268, 7.75923609733581542969e-01) (269, -1.97448074817657470703e-01) (270, -3.11439633369445800781e-01) (271, -5.91021060943603515625e-01) (272, -2.71519690752029418945e-01) (273, 2.13440012931823730469e+00) (274, -2.01415419578552246094e-01) (275, 9.04012560844421386719e-01) (276, 6.62833690643310546875e+00) (277, 7.36087751388549804688e+00) (278, 4.88519728183746337891e-01) (279, 5.10436296463012695313e-01) (280, 1.69539898633956909180e-01) (281, -6.85144066810607910156e-01) (282, -5.85224092006683349609e-01) (283, -6.74110531806945800781e-01) (284, -7.77951002120971679688e-01) (285, -8.51610064506530761719e-01) (286, -3.49427282810211181641e-01) (287, -5.84303379058837890625e-01) (288, -6.41020417213439941406e-01) (289, -4.35047298669815063477e-01) (290, -7.16038703918457031250e-01) (291, -7.36509919166564941406e-01) (292, -6.26124620437622070313e-01) (293, -3.74782621860504150391e-01) (294, -5.64104259014129638672e-01) (295, -6.10676348209381103516e-01) (296, -5.28836846351623535156e-01) (297, -6.17606222629547119141e-01) (298, 2.54402561187744140625e+01) (299, -2.83788383007049560547e-01) (300, -2.28670865297317504883e-01) (301, -7.41797864437103271484e-01) (302, -9.35859978199005126953e-01) (303, -8.98557424545288085938e-01) (304, -4.66075241565704345703e-01) (305, -7.87438094615936279297e-01) (306, 1.07880026102066040039e-01) (307, 2.37731099128723144531e+00) (308, 2.40291261672973632813e+00) (309, 1.06659305095672607422e+00) (310, -1.74939945340156555176e-01) (311, -4.79905754327774047852e-01) (312, 1.40466718003153800964e-02) (313, -4.65379208326339721680e-01) (314, -2.20485419034957885742e-01) (315, -1.69758394360542297363e-01) (316, -6.44082546234130859375e-01) (317, -2.64667630195617675781e-01) (318, -6.78978085517883300781e-01) (319, -2.80185997486114501953e-01) (320, -7.27812409400939941406e-01) (321, -7.66832232475280761719e-01) (322, -5.97239851951599121094e-01) (323, -7.03843951225280761719e-01) (324, -5.69325327873229980469e-01) (325, -7.77778625488281250000e-01) (326, -5.75383603572845458984e-01) (327, -8.25774669647216796875e-01) (328, -1.70493793487548828125e+00) (329, -6.12609148025512695313e-01) (330, -5.28300702571868896484e-01) (331, -5.28875589370727539063e-01) (332, -3.82298737764358520508e-01) (333, -3.29774200916290283203e-01) (334, -7.92839169502258300781e-01) (335, -5.98974883556365966797e-01) (336, -9.51706528663635253906e-01) (337, 2.40492209792137145996e-01) (338, -7.69537866115570068359e-01) (339, 6.79932907223701477051e-02) (340, 3.58508372306823730469e+00) (341, 1.06770917773246765137e-01) (342, 6.20095908641815185547e-01) (343, -2.21379920840263366699e-01) (344, 4.02155704796314239502e-02) (345, -4.41043555736541748047e-01) (346, -3.56881678104400634766e-01) (347, -4.62604433298110961914e-01) (348, -6.34634375572204589844e-01) (349, -4.47077184915542602539e-01) (350, -6.72679305076599121094e-01) (351, -4.66880202293395996094e-01) (352, -2.92646229267120361328e-01) (353, -4.13386046886444091797e-01) (354, -2.87665724754333496094e-01) (355, -7.83018708229064941406e-01) (356, -3.58719944953918457031e-01) (357, -4.94241774082183837891e-01) (358, -6.72923862934112548828e-01) (359, -7.34943807125091552734e-01) (360, -9.15144653320312500000e+01) (361, -2.17099681496620178223e-01) (362, -6.86611652374267578125e-01) (363, -3.33168029785156250000e-01) (364, -5.67346096038818359375e-01) (365, -6.76093637943267822266e-01) (366, -4.23414349555969238281e-01) (367, -1.64983522891998291016e+00) (368, -3.99345368146896362305e-01) (369, -2.11773112416267395020e-01) (370, -2.38102927803993225098e-01) (371, 3.94273176789283752441e-02) (372, 2.55301690101623535156e+00) (373, 2.34876561164855957031e+00) (374, 3.72117996215820312500e+00) (375, -4.17483389377593994141e-01) (376, -3.58342796564102172852e-01) (377, -8.72696191072463989258e-02) (378, -3.46448034048080444336e-01) (379, -5.11553466320037841797e-01) (380, -3.23467284440994262695e-01) (381, -7.27244734764099121094e-01) (382, -3.95404994487762451172e-01) (383, -7.99672007560729980469e-01) (384, -8.19511532783508300781e-01) (385, -7.72600054740905761719e-01) (386, -8.43589901924133300781e-01) (387, -6.55101180076599121094e-01) (388, -8.00990462303161621094e-01) (389, -5.57539045810699462891e-01) (390, -6.20266199111938476563e-01) (391, -7.59967267513275146484e-01) (392, 1.79679813385009765625e+01) (393, -5.70470750331878662109e-01) (394, -2.13747367262840270996e-01) (395, -4.63298201560974121094e-01) (396, -7.10080843418836593628e-03) (397, -5.50080120563507080078e-01) (398, -1.07772004604339599609e+00) (399, -1.85810804367065429688e+00) (400, -1.49072682857513427734e+00) (401, -1.77508604526519775391e+00) (402, -6.00661754608154296875e-01) (403, 7.18015313148498535156e-01) (404, -2.03838229179382324219e+00) (405, 4.55015838146209716797e-01) (406, 9.99402344226837158203e-01) (407, -7.70101785659790039063e-01) (408, -7.43075907230377197266e-01) (409, -4.41944122314453125000e-01) (410, -8.15063238143920898438e-01) (411, -4.31633561849594116211e-01) (412, -3.12220275402069091797e-01) (413, -3.39777648448944091797e-01) (414, -7.93290972709655761719e-01) (415, -6.90138339996337890625e-01) (416, -3.23737561702728271484e-01) (417, -4.48633581399917602539e-01) (418, -3.02588880062103271484e-01) (419, -6.57444953918457031250e-01) (420, -7.34065413475036621094e-01) (421, -7.01943814754486083984e-01) (422, -4.47297692298889160156e-01) (423, -3.08227801322937011719e+00) (424, -3.22588741779327392578e-01) (425, 2.99045920372009277344e-01) (426, -5.33547140657901763916e-02) (427, 3.16201537847518920898e-01) (428, 1.62687814235687255859e+00) (429, 5.80639801919460296631e-02) (430, -8.43726038932800292969e-01) (431, -1.38984882831573486328e+00) (432, -1.75493061542510986328e+00) (433, -9.57752108573913574219e-01) (434, 2.96479612588882446289e-01) (435, 1.33167040348052978516e+00) (436, 7.75232172012329101563e+00) (437, 4.55480143427848815918e-02) (438, 4.80487680435180664063e+00) (439, -4.54537123441696166992e-01) (440, -2.86380290985107421875e-01) (441, -7.63721644878387451172e-01) (442, -4.87653076648712158203e-01) (443, -8.29155862331390380859e-01) (444, -4.44228917360305786133e-01) (445, -8.25554013252258300781e-01) (446, -6.93754792213439941406e-01) (447, -5.06135582923889160156e-01) (448, -5.51811337471008300781e-01) (449, -6.51878476142883300781e-01) (450, -2.83435940742492675781e-01) (451, -5.83671689033508300781e-01) (452, -6.30566477775573730469e-01) (453, -5.70551633834838867188e-01) (454, -4.92174446582794189453e-01) (455, -5.91493904590606689453e-01) (456, -1.41691003417968750000e+03) (457, -2.24031254649162292480e-01) (458, -8.80268573760986328125e-01) (459, -2.21613794565200805664e-01) (460, 4.37902879714965820313e+00) (461, 6.83729648590087890625e-01) (462, -2.62528926134109497070e-01) (463, -5.70633554458618164063e+00) (464, -1.64256799221038818359e+00) (465, 9.95918095111846923828e-01) (466, 3.19452464580535888672e-01) (467, 1.08704185485839843750e+00) (468, 8.16864204406738281250e+00) (469, 8.30951869487762451172e-01) (470, 1.03005468845367431641e-01) (471, 3.86997573077678680420e-02) (472, -2.28233397006988525391e-01) (473, -4.11177903413772583008e-01) (474, -1.23832479119300842285e-01) (475, -5.65584003925323486328e-01) (476, -3.83657753467559814453e-01) (477, -6.31663680076599121094e-01) (478, -4.05420958995819091797e-01) (479, -3.71702075004577636719e-01) (480, -3.81543934345245361328e-01) (481, -3.99012267589569091797e-01) (482, -5.86180329322814941406e-01) (483, -2.83637404441833496094e-01) (484, -7.84581661224365234375e-01) (485, -3.10166150331497192383e-01) (486, -5.25235772132873535156e-01) (487, -2.52819776535034179688e-01) (488, 1.26488304138183593750e+01) (489, -1.08073614537715911865e-01) (490, -1.38838753104209899902e-01) (491, 1.17897975444793701172e+00) (492, 9.41677761077880859375e+00) (493, 2.19560737609863281250e+01) (494, -7.27178990840911865234e-01) (495, -1.33885955810546875000e+00) (496, -5.42910456657409667969e-01) (497, 3.61852049827575683594e-01) (498, 3.23582243919372558594e+00) (499, 2.04089879989624023438e+00) (500, 6.31708145141601562500e+00) (501, 2.08021855354309082031e+00) (502, 1.37383925914764404297e+00) (503, -1.67787536978721618652e-01) (504, -2.53608316183090209961e-01) (505, -2.55363970994949340820e-01) (506, -5.36152184009552001953e-01) (507, -3.58257681131362915039e-01) (508, -8.29352438449859619141e-01) (509, -5.11509895324707031250e-01) (510, -5.18174886703491210938e-01) (511, -7.67170786857604980469e-01) (512, -6.21977448463439941406e-01) (513, -7.12907671928405761719e-01) (514, -3.92145812511444091797e-01) (515, -2.63440847396850585938e-01) (516, -7.30272650718688964844e-01) (517, -5.83521485328674316406e-01) (518, -1.44524827599525451660e-01) (519, -4.39117968082427978516e-01) (520, -1.38129544258117675781e+00) (521, -1.58170506358146667480e-01) (522, -1.12753343582153320313e+00) (523, 2.27173686027526855469e+00) (524, 4.30251884460449218750e+01) (525, 8.71106743812561035156e-01) (526, -3.62689375877380371094e-01) (527, -1.15489833056926727295e-01) (528, 2.13347718119621276855e-01) (529, 2.67690777778625488281e-01) (530, 9.23604130744934082031e-01) (531, 1.58582401275634765625e+00) (532, 1.05788755416870117188e+00) (533, 9.45506215095520019531e-01) (534, 1.67608499526977539063e+00) (535, -2.98935055732727050781e-01) (536, -4.88648712635040283203e-02) (537, -6.82828605175018310547e-01) (538, -1.46848067641258239746e-01) (539, -3.76018911600112915039e-01) (540, -5.11462986469268798828e-01) (541, -5.24693489074707031250e-01) (542, -7.03184723854064941406e-01) (543, -7.29103207588195800781e-01) (544, -4.13367688655853271484e-01) (545, -4.22724306583404541016e-01) (546, -6.63853645324707031250e-01) (547, -4.85419601202011108398e-01) (548, -4.29741024971008300781e-01) (549, -7.47049689292907714844e-01) (550, -1.73296347260475158691e-01) (551, -5.53605034947395324707e-02) (552, 1.50949513912200927734e+00) (553, 5.96930980682373046875e-01) (554, -4.05754715204238891602e-01) (555, 1.00221669673919677734e+00) (556, 6.56116724014282226563e+00) (557, 5.16231000423431396484e-01) (558, -5.27829170227050781250e-01) (559, -1.40542268753051757813e-01) (560, 1.10747203826904296875e+01) (561, 3.14906048774719238281e+00) (562, -5.66353082656860351563e-01) (563, 3.06934452056884765625e+00) (564, 1.34091949462890625000e+00) (565, -4.33029085397720336914e-02) (566, 4.42567586898803710938e-01) (567, 4.09172549843788146973e-02) (568, -2.89914190769195556641e-01) (569, -4.45729315280914306641e-01) (570, -3.26977580785751342773e-01) (571, -6.84285819530487060547e-01) (572, -3.91366541385650634766e-01) (573, -6.37083649635314941406e-01) (574, -3.12842786312103271484e-01) (575, -8.50337386131286621094e-01) (576, -8.27257037162780761719e-01) (577, -3.63856017589569091797e-01) (578, -5.45127987861633300781e-01) (579, -3.68195593357086181641e-01) (580, -2.79777586460113525391e-01) (581, -6.67545199394226074219e-01) (582, -2.91949898004531860352e-01) (583, -6.31989002227783203125e-01) (584, -2.30439872741699218750e+01) (585, -2.42092609405517578125e+00) (586, -1.89745411276817321777e-01) (587, 2.09867566823959350586e-01) (588, 3.69959324598312377930e-01) (589, 5.45964956283569335938e-01) (590, -8.02830338478088378906e-01) (591, 7.21061706542968750000e-01) (592, 1.02658662796020507813e+01) (593, 7.56603777408599853516e-01) (594, 3.07612717151641845703e-01) (595, 8.65724086761474609375e+00) (596, 1.52523679733276367188e+01) (597, -7.54308640956878662109e-01) (598, 3.76412415504455566406e+00) (599, 3.11193227767944335938e-01) (600, 5.57284712791442871094e-01) (601, -2.96333491802215576172e-01) (602, -5.69558382034301757813e-01) (603, -1.03369541466236114502e-01) (604, -6.61701023578643798828e-01) (605, -7.20799446105957031250e-01) (606, -7.80766487121582031250e-01) (607, -2.79947936534881591797e-01) (608, -6.66435360908508300781e-01) (609, -3.77973377704620361328e-01) (610, -3.60999524593353271484e-01) (611, -5.86619734764099121094e-01) (612, -5.04500508308410644531e-01) (613, -5.51098048686981201172e-01) (614, -4.89637762308120727539e-01) (615, -5.89794754981994628906e-01) (616, -3.32064360380172729492e-01) (617, -1.61573827266693115234e+00) (618, -1.03504788875579833984e+00) (619, -1.31891548633575439453e-01) (620, -1.14929154515266418457e-01) (621, -1.32189080119132995605e-01) (622, -6.22161686420440673828e-01) (623, 2.05313399434089660645e-01) (624, -3.22226732969284057617e-01) (625, -4.85968619585037231445e-01) (626, -3.38494062423706054688e-01) (627, 6.65022048950195312500e+01) (628, 5.82699477672576904297e-01) (629, -4.88595634698867797852e-01) (630, 3.80079817771911621094e+00) (631, 3.41922807693481445313e+00) (632, 5.62707304954528808594e-01) (633, -1.66982725262641906738e-01) (634, -5.11813700199127197266e-01) (635, -6.05341494083404541016e-01) (636, -5.79850912094116210938e-01) (637, -5.54210066795349121094e-01) (638, -8.21855425834655761719e-01) (639, -3.23234081268310546875e-01) (640, -6.64933919906616210938e-01) (641, -5.12938141822814941406e-01) (642, -4.17780458927154541016e-01) (643, -6.71800494194030761719e-01) (644, -5.60622334480285644531e-01) (645, -4.13441956043243408203e-01) (646, -3.08945029973983764648e-01) (647, -1.70715257525444030762e-01) (648, -5.34680545330047607422e-01) (649, -5.49741566181182861328e-01) (650, -1.07822346687316894531e+00) (651, -3.73814254999160766602e-01) (652, -4.45797652006149291992e-01) (653, -3.55190448462963104248e-02) (654, -3.77550423145294189453e-01) (655, -1.51483759284019470215e-01) (656, 7.05136239528656005859e-01) (657, -6.72633349895477294922e-01) (658, -5.23390434682369232178e-02) (659, 1.61281852722167968750e+01) (660, 4.54806423187255859375e+00) (661, 1.49683117866516113281e+00) (662, 3.82895159721374511719e+00) (663, 1.29664576053619384766e+00) (664, 3.22300463914871215820e-01) (665, -3.15512984991073608398e-01) (666, -3.68211746215820312500e-01) (667, -1.91304355859756469727e-01) (668, -3.36439967155456542969e-01) (669, -4.21955287456512451172e-01) (670, -6.32267951965332031250e-01) (671, -8.42358946800231933594e-01) (672, -4.88038063049316406250e-01) (673, -4.22944128513336181641e-01) (674, -4.03003871440887451172e-01) (675, -8.11070442199707031250e-01) (676, -3.36485803127288818359e-01) (677, -2.71476507186889648438e-01) (678, -2.37703546881675720215e-01) (679, -6.78553879261016845703e-01) (680, -1.07637628912925720215e-01) (681, -8.09545040130615234375e-01) (682, -2.07519960403442382813e+00) (683, -7.94042050838470458984e-01) (684, -4.15520548820495605469e-01) (685, -5.91775774955749511719e-01) (686, -5.93764305114746093750e-01) (687, -3.73509228229522705078e-01) (688, -4.86178696155548095703e-01) (689, -4.79094445705413818359e-01) (690, -6.63249790668487548828e-01) (691, 8.79789590835571289063e-02) (692, 1.48013770580291748047e+00) (693, 2.85470819473266601563e+00) (694, 5.46082258224487304688e+00) (695, 3.57436275482177734375e+00) (696, 4.57360863685607910156e-01) (697, -5.08006885647773742676e-02) (698, -3.36869716644287109375e-01) (699, -5.15052258968353271484e-01) (700, -6.46252393722534179688e-01) (701, -5.14860749244689941406e-01) (702, -6.89378619194030761719e-01) (703, -8.54004502296447753906e-01) (704, -5.32274007797241210938e-01) (705, -5.68364143371582031250e-01) (706, -5.85484504699707031250e-01) (707, -6.48033261299133300781e-01) (708, -7.50466406345367431641e-01) (709, -3.98453116416931152344e-01) (710, -5.45838117599487304688e-01) (711, -2.83713698387145996094e-01) (712, -6.94486320018768310547e-01) (713, -2.31547403335571289063e+00) (714, -2.90471732616424560547e-01) (715, -3.52740257978439331055e-01) (716, -4.01174053549766540527e-02) (717, -6.46586120128631591797e-01) (718, -7.15205192565917968750e-01) (719, -6.87508165836334228516e-01) (720, -8.84642243385314941406e-01) (721, -5.55915653705596923828e-01) (722, -3.60658824443817138672e-01) (723, 1.12983548641204833984e+00) (724, 2.73476153612136840820e-01) (725, 4.18732929229736328125e+00) (726, 4.09123659133911132813e+00) (727, 2.01451182365417480469e+00) (728, 2.98684239387512207031e-01) (729, -4.59230318665504455566e-02) (730, -6.00308418273925781250e-01) (731, -2.84546017646789550781e-01) (732, -4.29512500762939453125e-01) (733, -3.30091297626495361328e-01) (734, -5.51848053932189941406e-01) (735, -3.32797288894653320313e-01) (736, -7.25413680076599121094e-01) (737, -4.15857851505279541016e-01) (738, -6.15257382392883300781e-01) (739, -4.82581466436386108398e-01) (740, -7.53414452075958251953e-01) (741, -4.35550183057785034180e-01) (742, -3.86642754077911376953e-01) (743, -5.16007244586944580078e-01) (744, -1.83980748057365417480e-01) (745, -1.65043783187866210938e+00) (746, 2.70995795726776123047e-01) (747, 1.27600505948066711426e-01) (748, -4.75629389286041259766e-01) (749, -1.05598412454128265381e-01) (750, -4.09923642873764038086e-01) (751, -4.39989775419235229492e-01) (752, -5.22218883037567138672e-01) (753, -1.89441129565238952637e-01) (754, -4.31816786527633666992e-01) (755, 1.61227250099182128906e+00) (756, 8.07879567146301269531e-02) (757, 8.60248923301696777344e-01) (758, 5.48082733154296875000e+00) (759, 1.17543125152587890625e+00) (760, 1.59496441483497619629e-01) (761, -7.99660384654998779297e-03) (762, -1.16199493408203125000e-01) (763, -6.74948036670684814453e-01) (764, -3.99954259395599365234e-01) (765, -4.71569389104843139648e-01) (766, -6.59550666809082031250e-01) (767, -8.09070348739624023438e-01) (768, -5.26524543762207031250e-01) (769, -8.38316559791564941406e-01) (770, -7.23619341850280761719e-01) (771, -6.70775055885314941406e-01) (772, -3.28228026628494262695e-01) (773, -4.65220689773559570313e-01) (774, -6.99054956436157226563e-01) (775, -3.75685989856719970703e-01) (776, 4.91425096988677978516e-01) (777, 9.48224738240242004395e-02) (778, -1.26048383712768554688e+01) (779, 4.49683129787445068359e-01) (780, -1.41680285334587097168e-01) (781, -4.65171158313751220703e-01) (782, -6.77230656147003173828e-01) (783, -4.62027162313461303711e-01) (784, 1.62949633598327636719e+00) (785, -8.95241796970367431641e-01) (786, -9.40374195575714111328e-01) (787, -7.30685653686523437500e+01) (788, 3.22953648865222930908e-02) (789, 2.02603220939636230469e+00) (790, 1.62739443778991699219e+00) (791, -2.52582252025604248047e-01) (792, -2.58944779634475708008e-01) (793, -5.80011308193206787109e-01) (794, -2.32667446136474609375e-01) (795, -6.69346809387207031250e-01) (796, -6.07522964477539062500e-01) (797, -8.47757339477539062500e-01) (798, -5.33629059791564941406e-01) (799, -5.69403529167175292969e-01) (800, -7.25871443748474121094e-01) (801, -5.14915585517883300781e-01) (802, -5.23137092590332031250e-01) (803, -4.24994885921478271484e-01) (804, -4.81958836317062377930e-01) (805, -3.00202846527099609375e-01) (806, -3.81345629692077636719e-01) (807, -4.56436991691589355469e-01) (808, -6.03536307811737060547e-01) (809, 1.74652323126792907715e-01) (810, 2.03343796730041503906e+00) (811, 1.04281270503997802734e+00) (812, 5.68376779556274414063e+00) (813, -1.58499762415885925293e-01) (814, -1.90030753612518310547e-01) (815, -4.80026841163635253906e-01) (816, 9.44033026695251464844e-01) (817, 1.31401085853576660156e+00) (818, 6.48824930191040039063e-01) (819, -1.41897573471069335938e+01) (820, 6.65168642997741699219e-01) (821, 1.82250607013702392578e+00) (822, 2.61678171157836914063e+00) (823, -2.07403182983398437500e-01) (824, -7.49283194541931152344e-01) (825, -3.82461279630661010742e-01) (826, -6.31310403347015380859e-01) (827, -6.12482607364654541016e-01) (828, -8.29300284385681152344e-01) (829, -6.75107240676879882813e-01) (830, -5.76493978500366210938e-01) (831, -6.56785726547241210938e-01) (832, -4.44971472024917602539e-01) (833, -7.31035113334655761719e-01) (834, -8.07609677314758300781e-01) (835, -8.13817024230957031250e-01) (836, -2.66938209533691406250e-01) (837, -8.56765449047088623047e-01) (838, -2.76927083730697631836e-01) (839, -5.41810095310211181641e-01) (840, -7.47743606567382812500e-01) (841, -8.38231742382049560547e-02) (842, 1.52864336967468261719e+00) (843, 8.04768145084381103516e-01) (844, -1.61898955702781677246e-01) (845, -1.92617565393447875977e-01) (846, -6.93071842193603515625e-01) (847, -4.11011725664138793945e-01) (848, 3.37076592445373535156e+00) (849, 5.14670908451080322266e-01) (850, -1.39213025569915771484e-01) (851, 1.95102155208587646484e+00) (852, 6.35277652740478515625e+00) (853, 2.77476882934570312500e+00) (854, -5.60434997081756591797e-01) (855, -7.16728150844573974609e-01) (856, -6.32703125476837158203e-01) (857, -6.42652153968811035156e-01) (858, -4.87711191177368164063e-01) (859, -8.11594009399414062500e-01) (860, -5.07529020309448242188e-01) (861, -2.75196194648742675781e-01) (862, -2.71790504455566406250e-01) (863, -6.69932723045349121094e-01) (864, -7.36638069152832031250e-01) (865, -5.78325033187866210938e-01) (866, -5.52049398422241210938e-01) (867, -5.62138557434082031250e-01) (868, -3.55140149593353271484e-01) (869, -5.56123793125152587891e-01) (870, -7.73819744586944580078e-01) (871, -5.19864618778228759766e-01) (872, -2.57647454738616943359e-01) (873, -5.71173906326293945313e-01) (874, 4.88885194063186645508e-02) (875, 2.60061454772949218750e+00) (876, 6.21272087097167968750e-01) (877, -3.51232230663299560547e-01) (878, 1.48634225130081176758e-01) (879, 3.70198994874954223633e-01) (880, 2.05204439163208007813e+00) (881, 8.35273385047912597656e-01) (882, 4.90637212991714477539e-01) (883, 2.87106990814208984375e+00) (884, 2.77606916427612304688e+00) (885, -7.17746555805206298828e-01) (886, -6.48736894130706787109e-01) (887, -2.61341333389282226563e-01) (888, -4.13329392671585083008e-01) (889, -3.46152037382125854492e-01) (890, -6.51797771453857421875e-01) (891, -8.57388734817504882813e-01) (892, -7.16067790985107421875e-01) (893, -4.77491110563278198242e-01) (894, -5.84367513656616210938e-01) (895, -5.64354062080383300781e-01) (896, -3.84876430034637451172e-01) (897, -5.54686188697814941406e-01) (898, -5.12809872627258300781e-01) (899, -8.51024031639099121094e-01) (900, -6.53233528137207031250e-01) (901, -7.33131825923919677734e-01) (902, -7.31695652008056640625e-01) (903, -6.69953823089599609375e-01) (904, -7.30391383171081542969e-01) (905, -5.49582064151763916016e-01) (906, -1.28186002373695373535e-01) (907, 2.74148136377334594727e-01) (908, 1.08768880367279052734e+00) (909, -2.61419922113418579102e-01) (910, 4.05966371297836303711e-01) (911, 1.39602117538452148438e+01) (912, 5.72693061828613281250e+00) (913, 3.69066238403320312500e-01) (914, -5.37736833095550537109e-01) (915, -4.58466351032257080078e-01) (916, -2.93423622846603393555e-01) (917, -7.44507491588592529297e-01) (918, -2.89545685052871704102e-01) (919, -7.64442205429077148438e-01) (920, -3.90247046947479248047e-01) (921, -3.83568942546844482422e-01) (922, -5.95346450805664062500e-01) (923, -3.97741377353668212891e-01) (924, -5.59465169906616210938e-01) (925, -8.16050887107849121094e-01) (926, -3.60431849956512451172e-01) (927, -6.51622176170349121094e-01) (928, -7.04997420310974121094e-01) (929, -7.64268755912780761719e-01) (930, -8.27385067939758300781e-01) (931, -5.17827033996582031250e-01) (932, -2.99201428890228271484e-01) (933, -8.21211278438568115234e-01) (934, -4.89943712949752807617e-01) (935, -4.04513418674468994141e-01) (936, -5.69720625877380371094e-01) (937, -4.99979734420776367188e-01) (938, -6.14384651184082031250e-01) (939, 5.06294965744018554688e-01) (940, -4.46374490857124328613e-02) (941, 2.83241689205169677734e-01) (942, -4.80021446943283081055e-01) (943, -7.45762407779693603516e-01) (944, -6.59772232174873352051e-02) (945, 2.84934133291244506836e-01) (946, -6.72119557857513427734e-01) (947, -2.66398847103118896484e-01) (948, -4.66681867837905883789e-01) (949, -8.33363115787506103516e-01) (950, -8.14347982406616210938e-01) (951, -6.34963274002075195313e-01) (952, -4.05143946409225463867e-01) (953, -4.91888880729675292969e-01) (954, -3.64855587482452392578e-01) (955, -3.36664855480194091797e-01) (956, -7.75236725807189941406e-01) (957, -7.31749176979064941406e-01) (958, -5.27311921119689941406e-01) (959, -3.99543225765228271484e-01) (960, -7.43504524230957031250e-01) (961, -3.17493617534637451172e-01) (962, -4.14612829685211181641e-01) (963, -8.56169342994689941406e-01) (964, -6.62205696105957031250e-01) (965, -7.63697803020477294922e-01) (966, -6.70262932777404785156e-01) (967, -7.25336015224456787109e-01) (968, -3.32886576652526855469e-01) (969, -4.03821825981140136719e-01) (970, -8.22983026504516601563e-01) (971, -8.02781522274017333984e-01) (972, -7.85677015781402587891e-01) (973, -4.84459996223449707031e-01) (974, -7.20019221305847167969e-01) (975, -6.57708287239074707031e-01) (976, -4.59809631109237670898e-01) (977, -8.48713517189025878906e-01) (978, -5.55645346641540527344e-01) (979, -3.68605285882949829102e-01) (980, -5.44024884700775146484e-01) (981, -7.14619517326354980469e-01) (982, -3.87455046176910400391e-01) (983, -4.33616816997528076172e-01) (984, -4.26941007375717163086e-01) (985, -6.13481283187866210938e-01) (986, -5.89476227760314941406e-01) (987, -4.36036139726638793945e-01) (988, -7.30467438697814941406e-01) (989, -7.71721005439758300781e-01) (990, -4.93714243173599243164e-01) (991, -8.32200884819030761719e-01) (992, -2.78199195861816406250e-01) (993, -3.30970227718353271484e-01) (994, -5.74534773826599121094e-01) (995, -8.15904498100280761719e-01) (996, -5.42674422264099121094e-01) (997, -4.08368885517120361328e-01) (998, -3.77640545368194580078e-01) (999, -5.62208592891693115234e-01) (1000, -6.69801414012908935547e-01) (1001, -6.61322057247161865234e-01) (1002, -1.95142254233360290527e-01) (1003, -5.75144290924072265625e-01) (1004, -5.11172950267791748047e-01) (1005, -5.62501072883605957031e-01) (1006, -3.20965796709060668945e-01) (1007, -1.46776750683784484863e-01) (1008, -5.43952524662017822266e-01) (1009, -8.08474659919738769531e-01) (1010, -7.55392313003540039063e-01) (1011, -6.11573219299316406250e-01) (1012, -8.26942205429077148438e-01) (1013, -8.57078313827514648438e-01) (1014, -7.17814803123474121094e-01) (1015, -4.71558541059494018555e-01) (1016, -5.58769345283508300781e-01) (1017, -2.92719542980194091797e-01) (1018, -6.81321978569030761719e-01) (1019, -5.12333869934082031250e-01) (1020, -8.23997616767883300781e-01) (1021, -7.89299130439758300781e-01) (1022, -5.49467682838439941406e-01) (1023, -3.29926550388336181641e-01) (1024, -4.18128430843353271484e-01) (0, 2.82726049423217773438e-01) (1, -1.78075402975082397461e-01) (2, 7.22679635509848594666e-03) (3, 2.38031953573226928711e-01) (4, -1.00713737308979034424e-01) (5, -1.86846137046813964844e-01) (6, 2.02600955963134765625e-01) (7, 6.93546310067176818848e-02) (8, -2.08981968462467193604e-02) (9, 1.73853337764739990234e-01) (10, -4.43907380104064941406e-02) (11, -1.70873384922742843628e-03) (12, -5.16417101025581359863e-02) (13, 3.82447578012943267822e-02) (14, 3.25298070907592773438e-01) (15, -3.71397249400615692139e-02) (16, -5.25389239192008972168e-02) (17, 2.13259253650903701782e-02) (18, 1.50489240884780883789e-01) (19, -1.49620741605758666992e-01) (20, 2.36384004354476928711e-01) (21, -1.22100450098514556885e-01) (22, -2.14952826499938964844e-01) (23, 1.77973210811614990234e-01) (24, 1.27692461013793945313e-01) (25, -2.17221640050411224365e-02) (26, 1.71472966670989990234e-01) (27, -7.56099745631217956543e-02) (28, 6.62235394120216369629e-02) (29, -5.53953759372234344482e-02) (30, -1.89206581562757492065e-02) (31, 6.82396581396460533142e-03) (32, -2.62631885707378387451e-02) (33, 9.14920493960380554199e-02) (34, 1.30164384841918945313e-01) (35, 1.96283757686614990234e-01) (36, -1.22173674404621124268e-01) (37, 2.14612662792205810547e-01) (38, 9.63992699980735778809e-02) (39, -2.34654963016510009766e-01) (40, 1.43384575843811035156e-01) (41, 1.71161681413650512695e-01) (42, 1.46888092160224914551e-01) (43, -1.43498823046684265137e-01) (44, 1.46310731768608093262e-01) (45, -2.01191917061805725098e-01) (46, 2.34575018286705017090e-01) (47, -5.44209145009517669678e-02) (48, -1.95774644613265991211e-01) (49, 2.00767844915390014648e-01) (50, -1.38591930270195007324e-01) (51, -2.08897441625595092773e-01) (52, -6.68722689151763916016e-02) (53, -2.30091705918312072754e-01) (54, -1.13948263227939605713e-01) (55, 1.98737382888793945313e-01) (56, 6.82193711400032043457e-02) (57, 1.95111870765686035156e-01) (58, -1.34844243526458740234e-01) (59, 2.32593655586242675781e-01) (60, 3.08269262313842773438e-01) (61, 1.15387454628944396973e-01) (62, -2.12718904018402099609e-01) (63, 2.04377084970474243164e-01) (64, 1.70229617506265640259e-02) (65, 2.00714975595474243164e-01) (66, -1.55370265245437622070e-01) (67, -1.51781380176544189453e-01) (68, -2.98154447227716445923e-02) (69, 2.89848864078521728516e-01) (70, 3.23119103908538818359e-01) (71, -2.00341016054153442383e-01) (72, 7.69147947430610656738e-02) (73, 3.02231729030609130859e-01) (74, -7.07412511110305786133e-02) (75, 1.76425799727439880371e-01) (76, -5.95798529684543609619e-02) (77, -6.37263357639312744141e-02) (78, 3.80699366331100463867e-01) (79, -1.85405701398849487305e-01) (80, -1.67111620306968688965e-01) (81, 7.86775723099708557129e-02) (82, -5.39265200495719909668e-02) (83, -1.37310381978750228882e-02) (84, -4.59696017205715179443e-02) (85, 1.07152424752712249756e-01) (86, 2.83081948757171630859e-01) (87, 2.40555182099342346191e-01) (88, -4.28385287523269653320e-03) (89, 3.74319404363632202148e-03) (90, -2.27811530232429504395e-01) (91, 2.11725682020187377930e-01) (92, -2.31517821550369262695e-01) (93, 3.96363846957683563232e-02) (94, 2.49950647354125976563e-01) (95, -1.17889024317264556885e-01) (96, 2.70915746688842773438e-01) (97, 1.24561168253421783447e-01) (98, -2.41757854819297790527e-02) (99, -1.31566777825355529785e-01) (100, 1.02661482989788055420e-01) (101, -1.90068811178207397461e-01) (102, -8.03524181246757507324e-02) (103, 2.09467872977256774902e-01) (104, -1.49810686707496643066e-01) (105, -1.93673521280288696289e-02) (106, -1.48495092988014221191e-01) (107, -1.25186353921890258789e-01) (108, -2.13190960884094238281e+00) (109, 1.44283995032310485840e-01) (110, 3.31691294908523559570e-01) (111, 2.03658968210220336914e-01) (112, -2.20593959093093872070e-01) (113, -2.02146708965301513672e-01) (114, 2.07105800509452819824e-01) (115, 8.25613588094711303711e-02) (116, 2.33701184391975402832e-01) (117, -7.85177126526832580566e-02) (118, -1.03208653628826141357e-01) (119, 2.58711040019989013672e-01) (120, 6.27268627285957336426e-02) (121, 8.85873362421989440918e-02) (122, -1.57747849822044372559e-01) (123, 9.60300490260124206543e-02) (124, 1.81677997112274169922e-01) (125, 9.58010926842689514160e-02) (126, -2.36211359500885009766e-01) (127, -1.94005578756332397461e-01) (128, -2.12444245815277099609e-01) (129, -1.43285304307937622070e-01) (130, 9.25906822085380554199e-02) (131, -9.97798815369606018066e-02) (132, 2.95360326766967773438e-01) (133, 6.46488070487976074219e-02) (134, -3.34226824343204498291e-02) (135, 3.07390779256820678711e-01) (136, -2.46057599782943725586e-01) (137, -2.27337121963500976563e-01) (138, -1.29140779376029968262e-01) (139, 1.02374956011772155762e-01) (140, 4.62641775608062744141e-01) (141, 1.95614069700241088867e-01) (142, -9.40668821334838867188e-01) (143, -1.01379251480102539063e+00) (144, -1.59402155876159667969e+00) (145, -2.04159066081047058105e-01) (146, -1.54227688908576965332e-01) (147, -4.24264383316040039063e+00) (148, -9.06212553381919860840e-02) (149, -6.62911043036729097366e-06) (150, -1.35501578915864229202e-03) (151, 1.75077021121978759766e-01) (152, -1.63450151681900024414e-01) (153, -4.62973378598690032959e-02) (154, 5.68700991570949554443e-02) (155, -1.34311035275459289551e-01) (156, -2.43328124284744262695e-01) (157, -1.99016600847244262695e-01) (158, -3.28001007437705993652e-02) (159, 1.07424389570951461792e-02) (160, -1.87248975038528442383e-01) (161, 9.64379962533712387085e-03) (162, 3.07610094547271728516e-01) (163, -2.44359552860260009766e-01) (164, 6.20669499039649963379e-02) (165, 2.62529492378234863281e-01) (166, -1.17246173322200775146e-02) (167, -2.40479126572608947754e-01) (168, 1.70049265027046203613e-01) (169, 1.45230099558830261230e-01) (170, 3.00069093704223632813e-01) (171, 1.89922265708446502686e-02) (172, 1.67102670669555664063e+00) (173, -1.78510057926177978516e+00) (174, -1.24375246465206146240e-01) (175, 9.51835393905639648438e-01) (176, -7.63883948326110839844e-01) (177, -1.70757400989532470703e+00) (178, -4.02391195297241210938e+00) (179, -6.27409696578979492188e+00) (180, -2.44479441642761230469e+00) (181, 2.70988136529922485352e-01) (182, 8.83008316159248352051e-02) (183, 1.08795739710330963135e-01) (184, 2.35598519444465637207e-01) (185, 3.34102094173431396484e-01) (186, 2.82633543014526367188e-01) (187, 2.78324093669652938843e-02) (188, -1.94749236106872558594e-01) (189, 1.71656474471092224121e-01) (190, 3.42363476753234863281e-01) (191, -2.00176209211349487305e-01) (192, 1.86121404170989990234e-01) (193, 1.45327067002654075623e-02) (194, 7.72647634148597717285e-02) (195, 1.54848592355847358704e-02) (196, 2.10364639759063720703e-01) (197, -6.91097751259803771973e-02) (198, -2.48223096132278442383e-01) (199, 1.17151208221912384033e-01) (200, -1.16268910467624664307e-01) (201, -3.66483926773071289063e-01) (202, 3.61906617879867553711e-01) (203, 2.86839693784713745117e-01) (204, 4.94030207395553588867e-01) (205, -3.10062140226364135742e-01) (206, 2.29052352905273437500e+00) (207, -8.92725512385368347168e-02) (208, 2.31222361326217651367e-01) (209, 2.37632417678833007813e+00) (210, -9.00880241394042968750e+00) (211, 1.25719860196113586426e-01) (212, 1.38584113121032714844e+00) (213, 7.98774063587188720703e-01) (214, -9.05059099197387695313e-01) (215, 1.96825310587882995605e-01) (216, 2.94543564319610595703e-01) (217, 7.56968483328819274902e-02) (218, 1.52091443538665771484e-01) (219, 1.87445819377899169922e-01) (220, -7.50719606876373291016e-02) (221, 1.48237273097038269043e-01) (222, 1.52102001011371612549e-02) (223, 1.45471990108489990234e-01) (224, -5.89842461049556732178e-02) (225, -7.86495432257652282715e-02) (226, 1.71532738022506237030e-03) (227, 2.29352682828903198242e-01) (228, -1.58446431159973144531e-01) (229, 1.14673301577568054199e-01) (230, -2.66188830137252807617e-01) (231, -6.78791403770446777344e-02) (232, -2.10178032517433166504e-01) (233, -6.18715584278106689453e-01) (234, 5.07649593055248260498e-02) (235, 3.31914983689785003662e-02) (236, -1.50835946202278137207e-01) (237, -2.13151291012763977051e-01) (238, 1.51335252448916435242e-02) (239, -7.35619723796844482422e-01) (240, -6.52917098999023437500e+00) (241, 9.43132877349853515625e-01) (242, 6.31738066673278808594e-01) (243, -1.14797055721282958984e+00) (244, 9.48413372039794921875e+00) (245, -4.53380489349365234375e+00) (246, 4.03401494026184082031e-01) (247, -1.08728416264057159424e-01) (248, -2.00119018554687500000e-01) (249, -1.13762088119983673096e-01) (250, 9.71767529845237731934e-02) (251, 7.78017491102218627930e-02) (252, -1.84500977396965026855e-01) (253, 1.91285386681556701660e-01) (254, 1.55432939529418945313e-01) (255, 8.86173024773597717285e-02) (256, 3.04515600204467773438e-01) (257, -2.01201617717742919922e-01) (258, 2.48415451496839523315e-02) (259, 1.15533925592899322510e-01) (260, -4.92613464593887329102e-02) (261, -2.20466077327728271484e-01) (262, -1.01092094555497169495e-02) (263, 1.16419330239295959473e-01) (264, 5.83274960517883300781e-01) (265, 7.43983164429664611816e-02) (266, 2.01068878173828125000e+00) (267, 7.92176067829132080078e-01) (268, 3.98147392272949218750e+00) (269, 3.35664600133895874023e-01) (270, -2.66913354396820068359e-01) (271, 1.93680596351623535156e+00) (272, -4.44351434707641601563e+00) (273, 7.85439610481262207031e-01) (274, 9.26120802760124206543e-02) (275, 1.90107560157775878906e+00) (276, 2.94395595788955688477e-01) (277, 1.35759763717651367188e+01) (278, 7.55886554718017578125e-01) (279, 1.97872519493103027344e-01) (280, 9.14621632546186447144e-03) (281, -1.16111293435096740723e-01) (282, -1.93123713135719299316e-01) (283, 2.34168812632560729980e-01) (284, -1.33616074919700622559e-01) (285, -1.20342232286930084229e-01) (286, -2.23558783531188964844e-01) (287, 3.38994324207305908203e-01) (288, -1.02489836513996124268e-01) (289, 3.34306836128234863281e-01) (290, 3.42896915972232818604e-02) (291, 1.61090880632400512695e-01) (292, -1.75696760416030883789e-01) (293, 3.32174124196171760559e-03) (294, 6.46747946739196777344e-02) (295, -8.22732374072074890137e-02) (296, 6.63046464323997497559e-02) (297, -1.11274406313896179199e-01) (298, -1.25912711024284362793e-01) (299, 1.97853624820709228516e-01) (300, 4.54716348648071289063e+00) (301, 1.17761217057704925537e-01) (302, -4.09487187862396240234e-01) (303, -7.87968039512634277344e-01) (304, -3.85501503944396972656e+00) (305, -4.31138873100280761719e-01) (306, 1.94223240017890930176e-01) (307, 5.41438877582550048828e-01) (308, 8.74865829944610595703e-01) (309, -6.98744249343872070313e+00) (310, 5.16914606094360351563e-01) (311, 9.85967755317687988281e-01) (312, 1.54688972979784011841e-02) (313, -4.85292747616767883301e-02) (314, 5.06504438817501068115e-02) (315, 1.46618038415908813477e-01) (316, -3.77791896462440490723e-02) (317, 3.17113220691680908203e-01) (318, -6.45871534943580627441e-02) (319, 2.75090515613555908203e-01) (320, 1.34558916091918945313e-01) (321, -1.65898859500885009766e-01) (322, -1.38542860746383666992e-01) (323, -1.78166955709457397461e-01) (324, 4.96504940092563629150e-02) (325, -1.96711674332618713379e-01) (326, 1.77054464817047119141e-01) (327, 3.75082641839981079102e-01) (328, -5.51110208034515380859e-01) (329, 4.22673374414443969727e-01) (330, 1.16665065288543701172e+00) (331, 1.77268195152282714844e+00) (332, 1.74451661109924316406e+00) (333, 1.21043808758258819580e-02) (334, -1.44336670637130737305e-01) (335, -3.93953919410705566406e-01) (336, -4.13060331344604492188e+00) (337, -6.65751039981842041016e-01) (338, 9.00844812393188476563e-01) (339, 8.28434824943542480469e-01) (340, 1.17303812503814697266e+00) (341, -3.59959197044372558594e+00) (342, 1.78616118431091308594e+00) (343, 6.39030396938323974609e-01) (344, 1.46706014871597290039e-01) (345, -1.70019492506980895996e-02) (346, -1.84072315692901611328e-01) (347, 7.76391550898551940918e-02) (348, 8.08549672365188598633e-02) (349, -9.22542735934257507324e-02) (350, 1.33295476436614990234e-01) (351, 3.44084680080413818359e-01) (352, -1.75969660282135009766e-01) (353, 2.23108768463134765625e-01) (354, -1.18493266403675079346e-01) (355, -7.76607617735862731934e-02) (356, 1.00663840770721435547e-01) (357, 3.01873087882995605469e-01) (358, 9.76815298199653625488e-02) (359, -4.93496567010879516602e-01) (360, -9.53873172402381896973e-02) (361, -1.44233226776123046875e+00) (362, 2.89635181427001953125e-01) (363, 3.46241503953933715820e-01) (364, 3.38462769985198974609e-01) (365, -1.84049993753433227539e-01) (366, 2.38482907414436340332e-01) (367, -4.31985408067703247070e-01) (368, -1.15910279750823974609e+00) (369, -4.57771807909011840820e-01) (370, 3.22341382503509521484e-01) (371, 1.09499418735504150391e+00) (372, 5.09809923171997070313e+00) (373, 8.93608093261718750000e+00) (374, 1.58489882946014404297e+00) (375, 5.44203519821166992188e-01) (376, 3.95869761705398559570e-01) (377, 2.58070230484008789063e-01) (378, -1.83528169989585876465e-01) (379, -1.59261181950569152832e-01) (380, 2.99635708332061767578e-01) (381, -2.07225769758224487305e-01) (382, 1.14746518433094024658e-01) (383, 2.61980175971984863281e-01) (384, -3.19761224091053009033e-02) (385, -1.54949128627777099609e-01) (386, -1.86681360006332397461e-01) (387, 2.55882799625396728516e-01) (388, 1.48200750350952148438e-01) (389, -8.37642848491668701172e-02) (390, -1.53113275766372680664e-01) (391, -8.66455882787704467773e-02) (392, -4.46775865554809570313e+00) (393, -5.62971413135528564453e-01) (394, 6.76641523838043212891e-01) (395, 1.40952825546264648438e-01) (396, 8.54590415954589843750e-01) (397, 8.26090127229690551758e-02) (398, 2.06758119165897369385e-02) (399, -3.28967541456222534180e-01) (400, -1.64569830894470214844e+00) (401, -2.95899420976638793945e-01) (402, 1.55642569065093994141e+00) (403, 2.22985789179801940918e-01) (404, 3.68175387382507324219e-01) (405, 7.34929704666137695313e+00) (406, 1.01103055477142333984e+00) (407, 2.63950258493423461914e-01) (408, 6.74505755305290222168e-02) (409, -1.64992392063140869141e-01) (410, 9.63341891765594482422e-02) (411, 2.86655034869909286499e-02) (412, 1.70282781124114990234e-01) (413, 2.26075083017349243164e-01) (414, -1.31804808974266052246e-01) (415, 2.13459104299545288086e-01) (416, 1.62390947341918945313e-01) (417, 6.23599141836166381836e-02) (418, -8.04439708590507507324e-02) (419, 1.84546709060668945313e-01) (420, -1.43852919340133666992e-01) (421, -1.82759180665016174316e-01) (422, -1.80582284927368164063e-01) (423, -1.05514144897460937500e+00) (424, -1.71858835220336914063e+00) (425, 9.06958281993865966797e-02) (426, 1.22928708791732788086e-01) (427, 3.35183978080749511719e-01) (428, 5.80682516098022460938e-01) (429, 2.60128676891326904297e-01) (430, -1.98519989848136901855e-01) (431, -6.83123302459716796875e+00) (432, -9.10739064216613769531e-01) (433, 8.56669172644615173340e-02) (434, -1.68530091643333435059e-01) (435, 4.95312482118606567383e-01) (436, 3.46299338340759277344e+00) (437, 2.33959674835205078125e+00) (438, 1.18910431861877441406e+00) (439, 3.29657363891601562500e+00) (440, -5.26382774114608764648e-02) (441, 1.59954160451889038086e-01) (442, 5.56763485074043273926e-02) (443, 2.18752592802047729492e-01) (444, -2.89681926369667053223e-02) (445, -1.97629462927579879761e-02) (446, 2.25837051868438720703e-01) (447, 2.52019286155700683594e-01) (448, -2.03289002180099487305e-01) (449, -1.43743067979812622070e-01) (450, -1.93419635295867919922e-01) (451, -1.60863429307937622070e-01) (452, 1.82632088661193847656e-01) (453, 3.03650766611099243164e-01) (454, -1.67403116822242736816e-01) (455, 4.42173182964324951172e-02) (456, -1.70712089538574218750e+00) (457, -1.54236221313476562500e+00) (458, 1.45481079816818237305e-01) (459, 2.30054631829261779785e-01) (460, -6.93389307707548141479e-03) (461, 2.83308178186416625977e-01) (462, 2.46342774480581283569e-02) (463, -2.53062701225280761719e+00) (464, -7.53888010978698730469e-01) (465, 1.26933142542839050293e-01) (466, -4.37206983566284179688e-01) (467, 5.26960372924804687500e-01) (468, 6.05112254619598388672e-01) (469, 1.22307598590850830078e+00) (470, 4.90910232067108154297e-01) (471, -3.76527398824691772461e-01) (472, -8.43059793114662170410e-02) (473, 2.90272682905197143555e-01) (474, 2.09283709526062011719e-01) (475, 1.33206307888031005859e-01) (476, 3.47158350050449371338e-02) (477, -5.33628985285758972168e-02) (478, -1.36418864130973815918e-01) (479, 2.99864709377288818359e-01) (480, -1.45629048347473144531e-01) (481, 2.66908816993236541748e-02) (482, 2.24573612213134765625e-01) (483, 1.19232773780822753906e-01) (484, -2.09082052111625671387e-01) (485, 1.36020317673683166504e-01) (486, 8.37626755237579345703e-02) (487, -1.74291729927062988281e-02) (488, -2.18461680412292480469e+00) (489, -5.47305464744567871094e-01) (490, -5.22739696502685546875e+00) (491, -5.58226585388183593750e+00) (492, -1.14465266466140747070e-01) (493, 4.34647589921951293945e-01) (494, 1.61893293261528015137e-01) (495, -1.17715799808502197266e+00) (496, -5.01134812831878662109e-01) (497, -1.75056874752044677734e-01) (498, -1.22627943754196166992e-01) (499, -2.40880846977233886719e+00) (500, -5.12881803512573242188e+00) (501, -2.33792567253112792969e+00) (502, -4.97278004884719848633e-01) (503, -2.84876655787229537964e-02) (504, -4.14584994316101074219e-01) (505, -9.13710892200469970703e-02) (506, -9.68368500471115112305e-02) (507, 2.76778697967529296875e-01) (508, 2.16888129711151123047e-01) (509, 1.35364562273025512695e-01) (510, 1.01105086505413055420e-01) (511, 1.47943913936614990234e-01) (512, -8.75667557120323181152e-02) (513, 1.92347019910812377930e-01) (514, 6.74320235848426818848e-02) (515, 2.93108105659484863281e-01) (516, -2.03643843531608581543e-01) (517, 2.35281854867935180664e-01) (518, 3.56123805046081542969e-01) (519, 1.89212918281555175781e-01) (520, -5.47765731811523437500e-01) (521, -4.53035712242126464844e-01) (522, 3.48402678966522216797e-01) (523, -2.26294994354248046875e+00) (524, 5.87237894535064697266e-01) (525, 2.57103890180587768555e-01) (526, 2.14205309748649597168e-01) (527, -4.09552574157714843750e-01) (528, -1.99518427252769470215e-01) (529, -1.91145315766334533691e-01) (530, 4.54832553863525390625e-01) (531, 1.03514993190765380859e+00) (532, -1.03330910205841064453e+00) (533, 1.27786397933959960938e-01) (534, -3.71128857135772705078e-01) (535, -2.95344144105911254883e-01) (536, 3.99054680019617080688e-03) (537, -2.88929224014282226563e-01) (538, 9.76782217621803283691e-02) (539, 1.26824334263801574707e-01) (540, -1.42108500003814697266e-01) (541, 2.75291979312896728516e-01) (542, 1.01855807006359100342e-01) (543, 5.60060329735279083252e-02) (544, -5.82335256040096282959e-02) (545, -9.32592991739511489868e-03) (546, -2.72336453199386596680e-02) (547, -2.02135443687438964844e-01) (548, 2.54136383533477783203e-01) (549, 4.18232716619968414307e-02) (550, 1.06192514300346374512e-01) (551, 1.54567420482635498047e-01) (552, 3.99503082036972045898e-01) (553, 3.54701370000839233398e-01) (554, -5.86042582988739013672e-01) (555, -3.62809836864471435547e-01) (556, -2.38756299018859863281e-01) (557, -2.50777792930603027344e+00) (558, -1.80416369438171386719e+00) (559, -9.83020365238189697266e-02) (560, -7.11180865764617919922e-01) (561, -2.55842065811157226563e+00) (562, 3.20252170786261558533e-03) (563, 4.81649547815322875977e-01) (564, -1.71923339366912841797e+00) (565, 4.18556833267211914063e+00) (566, 4.48347300291061401367e-01) (567, -1.38574466109275817871e-01) (568, -1.19361326098442077637e-01) (569, -8.41433554887771606445e-02) (570, -8.92988964915275573730e-02) (571, -8.97012427449226379395e-02) (572, 1.91875874996185302734e-01) (573, -1.85967236757278442383e-01) (574, -1.27007439732551574707e-01) (575, 1.52503252029418945313e-01) (576, 3.06969225406646728516e-01) (577, 2.77892053127288818359e-01) (578, -7.79903456568717956543e-02) (579, 3.92884649336338043213e-02) (580, 9.68134254217147827148e-02) (581, -9.01772975921630859375e-02) (582, 2.04866066575050354004e-01) (583, 5.33773303031921386719e-01) (584, 8.51990044116973876953e-01) (585, 7.01633548736572265625e+00) (586, 3.93555235862731933594e+00) (587, 5.47819197177886962891e-01) (588, -1.03701567649841308594e+00) (589, -9.59189951419830322266e-01) (590, -5.25192916393280029297e-01) (591, 2.04194232821464538574e-01) (592, -6.14414095878601074219e-01) (593, -1.61905795335769653320e-01) (594, 9.32856351137161254883e-02) (595, 4.53936487436294555664e-01) (596, -9.64451767504215240479e-03) (597, -1.06545507907867431641e+00) (598, 1.28363633155822753906e+00) (599, -1.00206553936004638672e-01) (600, -3.89908462762832641602e-01) (601, 4.23328839242458343506e-02) (602, -1.89761117100715637207e-01) (603, -5.14817647635936737061e-02) (604, 1.47653236985206604004e-01) (605, 3.17918896675109863281e-01) (606, 2.65440881252288818359e-01) (607, -1.65349543094635009766e-01) (608, -3.36240865290164947510e-02) (609, 1.28955870866775512695e-01) (610, -1.59691572189331054688e-01) (611, 1.91925883293151855469e-01) (612, 1.50738492608070373535e-01) (613, -9.60758924484252929688e-02) (614, 1.01935788989067077637e-01) (615, 7.40802809596061706543e-02) (616, 5.72739303112030029297e-01) (617, 7.27961480617523193359e-01) (618, 7.79633581638336181641e-01) (619, 1.86553835868835449219e-01) (620, -1.71186995506286621094e+00) (621, -5.14730453491210937500e+00) (622, -1.22122764587402343750e+00) (623, -1.09179413318634033203e+00) (624, -9.77156579494476318359e-01) (625, -8.23486037552356719971e-03) (626, 1.46579638123512268066e-01) (627, -2.09872558712959289551e-01) (628, 1.61678448319435119629e-01) (629, -1.03949770331382751465e-01) (630, 1.68412518501281738281e+00) (631, 3.77967119216918945313e-01) (632, 4.76315706968307495117e-01) (633, -2.06312850117683410645e-01) (634, 1.25184492208063602448e-03) (635, -1.07161067426204681396e-01) (636, -6.71505555510520935059e-02) (637, 7.20646008849143981934e-02) (638, -2.61166952550411224365e-02) (639, 1.68415099382400512695e-01) (640, 7.21195265650749206543e-02) (641, -1.62438184022903442383e-01) (642, 1.96521788835525512695e-01) (643, 1.99121892452239990234e-01) (644, 1.35943546891212463379e-01) (645, -1.75168931484222412109e-01) (646, 4.91906315088272094727e-01) (647, 6.27028822898864746094e-01) (648, 6.38254404067993164063e-01) (649, 1.69942736625671386719e+00) (650, 6.92303895950317382813e-01) (651, 2.24015682935714721680e-01) (652, -6.43118798732757568359e-01) (653, -1.66132643818855285645e-01) (654, -4.65972870588302612305e-02) (655, -5.08292019367218017578e-01) (656, -1.82433509826660156250e+00) (657, -7.46613085269927978516e-01) (658, 1.23560614883899688721e-01) (659, 1.71682044863700866699e-01) (660, 4.24511313438415527344e-01) (661, -7.63070726394653320313e+00) (662, 3.15909028053283691406e-01) (663, 8.48739564418792724609e-01) (664, 3.50639760494232177734e-01) (665, -1.99624821543693542480e-01) (666, 5.99980354309082031250e-02) (667, 2.08630785346031188965e-01) (668, -1.13020412623882293701e-01) (669, 8.03592279553413391113e-02) (670, 3.36760461330413818359e-01) (671, 2.88512170314788818359e-01) (672, -2.29985773563385009766e-01) (673, 3.16124498844146728516e-01) (674, 2.03333377838134765625e-01) (675, 1.72919511795043945313e-01) (676, -1.50088846683502197266e-01) (677, 3.90681862831115722656e-01) (678, -1.44305557012557983398e-01) (679, 5.19274175167083740234e-01) (680, 2.47844994068145751953e-01) (681, 3.87653899192810058594e+00) (682, 4.07953828573226928711e-01) (683, 5.24665713310241699219e-01) (684, -1.17751121520996093750e+00) (685, -1.22240364551544189453e-01) (686, 1.09081529080867767334e-02) (687, -1.48204851150512695313e+00) (688, -1.46750497817993164063e+00) (689, -9.89672362804412841797e-01) (690, 2.58263498544692993164e-01) (691, 8.90038013458251953125e-02) (692, 1.24467514455318450928e-01) (693, -3.31984376907348632813e+00) (694, 4.40972559154033660889e-02) (695, 4.23590749502182006836e-01) (696, 1.01802730560302734375e+00) (697, 1.17008134722709655762e-01) (698, 1.27773016691207885742e-01) (699, 1.10418729484081268311e-01) (700, -1.90821632742881774902e-01) (701, -1.34642854332923889160e-01) (702, -6.37631863355636596680e-02) (703, -2.01586127281188964844e-01) (704, -2.00322717428207397461e-01) (705, 9.59048792719841003418e-02) (706, 2.17121213674545288086e-01) (707, -2.05870807170867919922e-01) (708, -1.64326071739196777344e-01) (709, 1.76267683506011962891e-01) (710, 3.11992496252059936523e-01) (711, 3.93136173486709594727e-01) (712, 2.23759874701499938965e-01) (713, 7.45810210704803466797e-01) (714, 5.84689915180206298828e-01) (715, 4.73996967077255249023e-01) (716, 1.33895289897918701172e+00) (717, 3.34511518478393554688e-01) (718, 2.06685468554496765137e-01) (719, -2.48968824744224548340e-02) (720, -8.74963343143463134766e-01) (721, -4.12601649761199951172e-01) (722, 3.57657289505004882813e+00) (723, 5.84442261606454849243e-03) (724, 5.79441972076892852783e-02) (725, 2.22288870811462402344e+00) (726, 3.15678691864013671875e+00) (727, 4.21636223793029785156e-01) (728, 1.11958909034729003906e+00) (729, -8.30317214131355285645e-02) (730, -2.95352756977081298828e-01) (731, 6.16226941347122192383e-02) (732, 2.02325731515884399414e-01) (733, -1.31530150771141052246e-01) (734, -1.74536090344190597534e-03) (735, -2.96506546437740325928e-02) (736, 9.44583341479301452637e-02) (737, 1.26813516020774841309e-01) (738, -6.19505420327186584473e-02) (739, 1.12292818725109100342e-01) (740, 7.05996379256248474121e-02) (741, -1.60270258784294128418e-02) (742, 1.54052242636680603027e-01) (743, 4.85851943492889404297e-01) (744, 1.06687806546688079834e-01) (745, 3.47605019807815551758e-01) (746, 7.15304791927337646484e-01) (747, 5.03566443920135498047e-01) (748, 5.28818547725677490234e-01) (749, -7.16897821426391601563e+00) (750, -3.86378616094589233398e-02) (751, -1.19854688644409179688e-01) (752, -3.78132581710815429688e-01) (753, 2.03888177871704101563e+00) (754, 1.52773678302764892578e-01) (755, -2.36525893211364746094e-01) (756, 5.94559192657470703125e-01) (757, 3.07613462209701538086e-01) (758, 6.45544826984405517578e-01) (759, -1.25516784191131591797e+00) (760, 