FANN_FLO_2.1
num_layers=4
learning_rate=0.700000
connection_rate=1.000000
network_type=0
learning_momentum=0.000000
training_algorithm=2
train_error_function=1
train_stop_function=0
cascade_output_change_fraction=0.010000
quickprop_decay=-0.000100
quickprop_mu=1.750000
rprop_increase_factor=1.200000
rprop_decrease_factor=0.500000
rprop_delta_min=0.000000
rprop_delta_max=50.000000
rprop_delta_zero=0.100000
cascade_output_stagnation_epochs=12
cascade_candidate_change_fraction=0.010000
cascade_candidate_stagnation_epochs=12
cascade_max_out_epochs=150
cascade_min_out_epochs=50
cascade_max_cand_epochs=150
cascade_min_cand_epochs=50
cascade_num_candidate_groups=2
bit_fail_limit=3.49999994039535522461e-01
cascade_candidate_limit=1.00000000000000000000e+03
cascade_weight_multiplier=4.00000005960464477539e-01
cascade_activation_functions_count=10
cascade_activation_functions=3 5 7 8 10 11 14 15 16 17 
cascade_activation_steepnesses_count=4
cascade_activation_steepnesses=2.50000000000000000000e-01 5.00000000000000000000e-01 7.50000000000000000000e-01 1.00000000000000000000e+00 
layer_sizes=257 11 11 2 
scale_included=0
neurons (num_inputs, activation_function, activation_steepness)=(0, 0, 0.00000000000000000000e+00) (0, 0, 0.00000000000000000000e+00) (0, 0, 0.00000000000000000000e+00) (0, 0, 0.00000000000000000000e+00) (0, 0, 0.00000000000000000000e+00) (0, 0, 0.00000000000000000000e+00) (0, 0, 0.00000000000000000000e+00) (0, 0, 0.00000000000000000000e+00) (0, 0, 0.00000000000000000000e+00) (0, 0, 0.00000000000000000000e+00) (0, 0, 0.00000000000000000000e+00) (0, 0, 0.00000000000000000000e+00) (0, 0, 0.00000000000000000000e+00) (0, 0, 0.00000000000000000000e+00) (0, 0, 0.00000000000000000000e+00) (0, 0, 0.00000000000000000000e+00) (0, 0, 0.00000000000000000000e+00) (0, 0, 0.00000000000000000000e+00) (0, 0, 0.00000000000000000000e+00) (0, 0, 0.00000000000000000000e+00) (0, 0, 0.00000000000000000000e+00) (0, 0, 0.00000000000000000000e+00) (0, 0, 0.00000000000000000000e+00) (0, 0, 0.00000000000000000000e+00) (0, 0, 0.00000000000000000000e+00) (0, 0, 0.00000000000000000000e+00) (0, 0, 0.00000000000000000000e+00) (0, 0, 0.00000000000000000000e+00) (0, 0, 0.00000000000000000000e+00) (0, 0, 0.00000000000000000000e+00) (0, 0, 0.00000000000000000000e+00) (0, 0, 0.00000000000000000000e+00) (0, 0, 0.00000000000000000000e+00) (0, 0, 0.00000000000000000000e+00) (0, 0, 0.00000000000000000000e+00) (0, 0, 0.00000000000000000000e+00) (0, 0, 0.00000000000000000000e+00) (0, 0, 0.00000000000000000000e+00) (0, 0, 0.00000000000000000000e+00) (0, 0, 0.00000000000000000000e+00) (0, 0, 0.00000000000000000000e+00) (0, 0, 0.00000000000000000000e+00) (0, 0, 0.00000000000000000000e+00) (0, 0, 0.00000000000000000000e+00) (0, 0, 0.00000000000000000000e+00) (0, 0, 0.00000000000000000000e+00) (0, 0, 0.00000000000000000000e+00) (0, 0, 0.00000000000000000000e+00) (0, 0, 0.00000000000000000000e+00) (0, 0, 0.00000000000000000000e+00) (0, 0, 0.00000000000000000000e+00) (0, 0, 0.00000000000000000000e+00) (0, 0, 0.00000000000000000000e+00) (0, 0, 0.00000000000000000000e+00) (0, 0, 0.00000000000000000000e+00) (0, 0, 0.00000000000000000000e+00) (0, 0, 0.00000000000000000000e+00) (0, 0, 0.00000000000000000000e+00) (0, 0, 0.00000000000000000000e+00) (0, 0, 0.00000000000000000000e+00) (0, 0, 0.00000000000000000000e+00) (0, 0, 0.00000000000000000000e+00) (0, 0, 0.00000000000000000000e+00) (0, 0, 0.00000000000000000000e+00) (0, 0, 0.00000000000000000000e+00) (0, 0, 0.00000000000000000000e+00) (0, 0, 0.00000000000000000000e+00) (0, 0, 0.00000000000000000000e+00) (0, 0, 0.00000000000000000000e+00) (0, 0, 0.00000000000000000000e+00) (0, 0, 0.00000000000000000000e+00) (0, 0, 0.00000000000000000000e+00) (0, 0, 0.00000000000000000000e+00) (0, 0, 0.00000000000000000000e+00) (0, 0, 0.00000000000000000000e+00) (0, 0, 0.00000000000000000000e+00) (0, 0, 0.00000000000000000000e+00) (0, 0, 0.00000000000000000000e+00) (0, 0, 0.00000000000000000000e+00) (0, 0, 0.00000000000000000000e+00) (0, 0, 0.00000000000000000000e+00) (0, 0, 0.00000000000000000000e+00) (0, 0, 0.00000000000000000000e+00) (0, 0, 0.00000000000000000000e+00) (0, 0, 0.00000000000000000000e+00) (0, 0, 0.00000000000000000000e+00) (0, 0, 0.00000000000000000000e+00) (0, 0, 0.00000000000000000000e+00) (0, 0, 0.00000000000000000000e+00) (0, 0, 0.00000000000000000000e+00) (0, 0, 0.00000000000000000000e+00) (0, 0, 0.00000000000000000000e+00) (0, 0, 0.00000000000000000000e+00) (0, 0, 0.00000000000000000000e+00) (0, 0, 0.00000000000000000000e+00) (0, 0, 0.00000000000000000000e+00) (0, 0, 0.00000000000000000000e+00) (0, 0, 0.00000000000000000000e+00) (0, 0, 0.00000000000000000000e+00) (0, 0, 0.00000000000000000000e+00) (0, 0, 0.00000000000000000000e+00) (0, 0, 0.00000000000000000000e+00) (0, 0, 0.00000000000000000000e+00) (0, 0, 0.00000000000000000000e+00) (0, 0, 0.00000000000000000000e+00) (0, 0, 0.00000000000000000000e+00) (0, 0, 0.00000000000000000000e+00) (0, 0, 0.00000000000000000000e+00) (0, 0, 0.00000000000000000000e+00) (0, 0, 0.00000000000000000000e+00) (0, 0, 0.00000000000000000000e+00) (0, 0, 0.00000000000000000000e+00) (0, 0, 0.00000000000000000000e+00) (0, 0, 0.00000000000000000000e+00) (0, 0, 0.00000000000000000000e+00) (0, 0, 0.00000000000000000000e+00) (0, 0, 0.00000000000000000000e+00) (0, 0, 0.00000000000000000000e+00) (0, 0, 0.00000000000000000000e+00) (0, 0, 0.00000000000000000000e+00) (0, 0, 0.00000000000000000000e+00) (0, 0, 0.00000000000000000000e+00) (0, 0, 0.00000000000000000000e+00) (0, 0, 0.00000000000000000000e+00) (0, 0, 0.00000000000000000000e+00) (0, 0, 0.00000000000000000000e+00) (0, 0, 0.00000000000000000000e+00) (0, 0, 0.00000000000000000000e+00) (0, 0, 0.00000000000000000000e+00) (0, 0, 0.00000000000000000000e+00) (0, 0, 0.00000000000000000000e+00) (0, 0, 0.00000000000000000000e+00) (0, 0, 0.00000000000000000000e+00) (0, 0, 0.00000000000000000000e+00) (0, 0, 0.00000000000000000000e+00) (0, 0, 0.00000000000000000000e+00) (0, 0, 0.00000000000000000000e+00) (0, 0, 0.00000000000000000000e+00) (0, 0, 0.00000000000000000000e+00) (0, 0, 0.00000000000000000000e+00) (0, 0, 0.00000000000000000000e+00) (0, 0, 0.00000000000000000000e+00) (0, 0, 0.00000000000000000000e+00) (0, 0, 0.00000000000000000000e+00) (0, 0, 0.00000000000000000000e+00) (0, 0, 0.00000000000000000000e+00) (0, 0, 0.00000000000000000000e+00) (0, 0, 0.00000000000000000000e+00) (0, 0, 0.00000000000000000000e+00) (0, 0, 0.00000000000000000000e+00) (0, 0, 0.00000000000000000000e+00) (0, 0, 0.00000000000000000000e+00) (0, 0, 0.00000000000000000000e+00) (0, 0, 0.00000000000000000000e+00) (0, 0, 0.00000000000000000000e+00) (0, 0, 0.00000000000000000000e+00) (0, 0, 0.00000000000000000000e+00) (0, 0, 0.00000000000000000000e+00) (0, 0, 0.00000000000000000000e+00) (0, 0, 0.00000000000000000000e+00) (0, 0, 0.00000000000000000000e+00) (0, 0, 0.00000000000000000000e+00) (0, 0, 0.00000000000000000000e+00) (0, 0, 0.00000000000000000000e+00) (0, 0, 0.00000000000000000000e+00) (0, 0, 0.00000000000000000000e+00) (0, 0, 0.00000000000000000000e+00) (0, 0, 0.00000000000000000000e+00) (0, 0, 0.00000000000000000000e+00) (0, 0, 0.00000000000000000000e+00) (0, 0, 0.00000000000000000000e+00) (0, 0, 0.00000000000000000000e+00) (0, 0, 0.00000000000000000000e+00) (0, 0, 0.00000000000000000000e+00) (0, 0, 0.00000000000000000000e+00) (0, 0, 0.00000000000000000000e+00) (0, 0, 0.00000000000000000000e+00) (0, 0, 0.00000000000000000000e+00) (0, 0, 0.00000000000000000000e+00) (0, 0, 0.00000000000000000000e+00) (0, 0, 0.00000000000000000000e+00) (0, 0, 0.00000000000000000000e+00) (0, 0, 0.00000000000000000000e+00) (0, 0, 0.00000000000000000000e+00) (0, 0, 0.00000000000000000000e+00) (0, 0, 0.00000000000000000000e+00) (0, 0, 0.00000000000000000000e+00) (0, 0, 0.00000000000000000000e+00) (0, 0, 0.00000000000000000000e+00) (0, 0, 0.00000000000000000000e+00) (0, 0, 0.00000000000000000000e+00) (0, 0, 0.00000000000000000000e+00) (0, 0, 0.00000000000000000000e+00) (0, 0, 0.00000000000000000000e+00) (0, 0, 0.00000000000000000000e+00) (0, 0, 0.00000000000000000000e+00) (0, 0, 0.00000000000000000000e+00) (0, 0, 0.00000000000000000000e+00) (0, 0, 0.00000000000000000000e+00) (0, 0, 0.00000000000000000000e+00) (0, 0, 0.00000000000000000000e+00) (0, 0, 0.00000000000000000000e+00) (0, 0, 0.00000000000000000000e+00) (0, 0, 0.00000000000000000000e+00) (0, 0, 0.00000000000000000000e+00) (0, 0, 0.00000000000000000000e+00) (0, 0, 0.00000000000000000000e+00) (0, 0, 0.00000000000000000000e+00) (0, 0, 0.00000000000000000000e+00) (0, 0, 0.00000000000000000000e+00) (0, 0, 0.00000000000000000000e+00) (0, 0, 0.00000000000000000000e+00) (0, 0, 0.00000000000000000000e+00) (0, 0, 0.00000000000000000000e+00) (0, 0, 0.00000000000000000000e+00) (0, 0, 0.00000000000000000000e+00) (0, 0, 0.00000000000000000000e+00) (0, 0, 0.00000000000000000000e+00) (0, 0, 0.00000000000000000000e+00) (0, 0, 0.00000000000000000000e+00) (0, 0, 0.00000000000000000000e+00) (0, 0, 0.00000000000000000000e+00) (0, 0, 0.00000000000000000000e+00) (0, 0, 0.00000000000000000000e+00) (0, 0, 0.00000000000000000000e+00) (0, 0, 0.00000000000000000000e+00) (0, 0, 0.00000000000000000000e+00) (0, 0, 0.00000000000000000000e+00) (0, 0, 0.00000000000000000000e+00) (0, 0, 0.00000000000000000000e+00) (0, 0, 0.00000000000000000000e+00) (0, 0, 0.00000000000000000000e+00) (0, 0, 0.00000000000000000000e+00) (0, 0, 0.00000000000000000000e+00) (0, 0, 0.00000000000000000000e+00) (0, 0, 0.00000000000000000000e+00) (0, 0, 0.00000000000000000000e+00) (0, 0, 0.00000000000000000000e+00) (0, 0, 0.00000000000000000000e+00) (0, 0, 0.00000000000000000000e+00) (0, 0, 0.00000000000000000000e+00) (0, 0, 0.00000000000000000000e+00) (0, 0, 0.00000000000000000000e+00) (0, 0, 0.00000000000000000000e+00) (0, 0, 0.00000000000000000000e+00) (0, 0, 0.00000000000000000000e+00) (0, 0, 0.00000000000000000000e+00) (0, 0, 0.00000000000000000000e+00) (0, 0, 0.00000000000000000000e+00) (0, 0, 0.00000000000000000000e+00) (0, 0, 0.00000000000000000000e+00) (0, 0, 0.00000000000000000000e+00) (0, 0, 0.00000000000000000000e+00) (0, 0, 0.00000000000000000000e+00) (0, 0, 0.00000000000000000000e+00) (0, 0, 0.00000000000000000000e+00) (0, 0, 0.00000000000000000000e+00) (257, 11, 5.00000000000000000000e-01) (257, 11, 5.00000000000000000000e-01) (257, 11, 5.00000000000000000000e-01) (257, 11, 5.00000000000000000000e-01) (257, 11, 5.00000000000000000000e-01) (257, 11, 5.00000000000000000000e-01) (257, 11, 5.00000000000000000000e-01) (257, 11, 5.00000000000000000000e-01) (257, 11, 5.00000000000000000000e-01) (257, 11, 5.00000000000000000000e-01) (0, 11, 0.00000000000000000000e+00) (11, 11, 5.00000000000000000000e-01) (11, 11, 5.00000000000000000000e-01) (11, 11, 5.00000000000000000000e-01) (11, 11, 5.00000000000000000000e-01) (11, 11, 5.00000000000000000000e-01) (11, 11, 5.00000000000000000000e-01) (11, 11, 5.00000000000000000000e-01) (11, 11, 5.00000000000000000000e-01) (11, 11, 5.00000000000000000000e-01) (11, 11, 5.00000000000000000000e-01) (0, 11, 0.00000000000000000000e+00) (11, 11, 5.00000000000000000000e-01) (0, 11, 0.00000000000000000000e+00) 
connections (connected_to_neuron, weight)=(0, 2.32858702540397644043e-01) (1, 3.52027297019958496094e-01) (2, 3.60437929630279541016e-01) (3, 2.00123503804206848145e-01) (4, 2.86390036344528198242e-01) (5, 2.03667759895324707031e-01) (6, 2.40442439913749694824e-01) (7, 3.81024181842803955078e-01) (8, 1.95194497704505920410e-01) (9, 3.12708407640457153320e-01) (10, 2.41810023784637451172e-01) (11, 7.26413056254386901855e-02) (12, 2.71399766206741333008e-01) (13, 3.03240418434143066406e-01) (14, 2.14813172817230224609e-01) (15, 4.64654564857482910156e-01) (16, 2.16852292418479919434e-01) (17, 9.91519391536712646484e-02) (18, 3.66950660943984985352e-01) (19, 2.92109400033950805664e-01) (20, 3.24555665254592895508e-01) (21, 2.34051987528800964355e-01) (22, 3.89337539672851562500e-01) (23, 3.47796976566314697266e-01) (24, 1.00869290530681610107e-01) (25, 1.56118586659431457520e-01) (26, -2.53022760152816772461e-01) (27, 1.51959642767906188965e-01) (28, 3.33392679691314697266e-01) (29, 2.25285068154335021973e-01) (30, 1.48514762520790100098e-01) (31, -1.84025317430496215820e-01) (32, -4.77824419736862182617e-01) (33, 2.41323679685592651367e-01) (34, 1.19562260806560516357e-01) (35, 1.59625634551048278809e-01) (36, 3.29645156860351562500e-01) (37, 1.78630873560905456543e-02) (38, -9.03036445379257202148e-02) (39, -8.47837775945663452148e-02) (40, -1.21378518640995025635e-01) (41, 9.48315739631652832031e-01) (42, 4.87078819274902343750e+01) (43, -7.71468639373779296875e-01) (44, 4.89529669284820556641e-02) (45, 1.59079837799072265625e+00) (46, 4.50765037536621093750e+00) (47, 1.48432586669921875000e+02) (48, -1.11283898353576660156e-01) (49, 9.00182962417602539063e-01) (50, 6.65872907638549804688e+00) (51, -6.83617830276489257813e-01) (52, 2.92789280414581298828e-01) (53, 4.34693069458007812500e+01) (54, 4.71533727645874023438e+00) (55, 1.48667617797851562500e+02) (56, -3.12080949544906616211e-01) (57, 3.38280916213989257813e+00) (58, 7.86062192916870117188e+00) (59, 3.17813491821289062500e+00) (60, 3.08865755796432495117e-01) (61, 3.57822358608245849609e-01) (62, -2.39708572626113891602e-02) (63, -8.35863769054412841797e-01) (64, -3.64156067371368408203e-01) (65, 3.65235280990600585938e+00) (66, 4.05281209945678710938e+00) (67, 3.31453514099121093750e+00) (68, 1.74759238958358764648e-01) (69, 2.95663654804229736328e-01) (70, -6.35151982307434082031e-01) (71, -1.94381546974182128906e+00) (72, -4.55249071121215820313e-01) (73, 3.60620975494384765625e+00) (74, 4.01600790023803710938e+00) (75, 3.62684011459350585938e+00) (76, 3.29483538866043090820e-01) (77, 1.77864842116832733154e-02) (78, -6.65147781372070312500e-01) (79, -1.85687422752380371094e+00) (80, -4.29973936080932617188e+00) (81, 3.88955116271972656250e+00) (82, 2.90780735015869140625e+00) (83, 3.68039083480834960938e+00) (84, 8.13653588294982910156e-01) (85, 3.29375356435775756836e-01) (86, -1.47100877761840820313e+00) (87, -1.20035803318023681641e+00) (88, -1.43476557731628417969e+00) (89, 6.99048538208007812500e+01) (90, 3.47668600082397460938e+00) (91, 3.90769720077514648438e+00) (92, 6.64159297943115234375e-01) (93, 4.56968426704406738281e-01) (94, -3.42969942092895507813e+00) (95, -3.59765672683715820313e+00) (96, -3.57874822616577148438e+00) (97, 2.62846099853515625000e+02) (98, 3.56973361968994140625e+00) (99, 3.75896549224853515625e+00) (100, 4.54356819391250610352e-01) (101, 2.58198350667953491211e-01) (102, -9.92787420749664306641e-01) (103, -3.21693420410156250000e+00) (104, -6.33059654235839843750e+01) (105, 8.14166831970214843750e+00) (106, 3.80653142929077148438e+00) (107, 3.56270980834960937500e+00) (108, 6.42255365848541259766e-01) (109, 1.57429307699203491211e-01) (110, -9.74238216876983642578e-01) (111, -2.24726843833923339844e+00) (112, -8.05246233940124511719e-01) (113, 3.56388425827026367188e+00) (114, 3.66065073013305664063e+00) (115, 3.91199064254760742188e+00) (116, 5.59932827949523925781e-01) (117, 1.90383344888687133789e-01) (118, -1.02686941623687744141e+00) (119, -9.21441793441772460938e-01) (120, -1.06993842124938964844e+00) (121, 3.61588764190673828125e+00) (122, 3.64973735809326171875e+00) (123, 3.73977088928222656250e+00) (124, 5.90165495872497558594e-01) (125, 2.60560780763626098633e-01) (126, -8.84786367416381835938e-01) (127, -9.21173334121704101563e-01) (128, -3.09893220663070678711e-01) (129, 3.77876901626586914063e+00) (130, 3.72310590744018554688e+00) (131, 3.69298839569091796875e+00) (132, 5.82661926746368408203e-01) (133, 3.24657052755355834961e-01) (134, -1.04370844364166259766e+00) (135, -1.30670773983001708984e+00) (136, -5.95691156387329101563e+00) (137, 3.44368314743041992188e+00) (138, 3.60127973556518554688e+00) (139, 3.96072530746459960938e+00) (140, 3.23271930217742919922e-01) (141, 1.31311625242233276367e-01) (142, -8.16208064556121826172e-01) (143, -2.50660943984985351563e+00) (144, -5.26208579540252685547e-01) (145, 8.32336425781250000000e+00) (146, 3.98976278305053710938e+00) (147, 3.99009513854980468750e+00) (148, 2.02842786908149719238e-01) (149, 3.43215763568878173828e-01) (150, -7.46890425682067871094e-01) (151, -1.27297484874725341797e+00) (152, -4.78275775909423828125e+00) (153, 1.93566513061523437500e+01) (154, 3.50813531875610351563e+00) (155, 3.71350812911987304688e+00) (156, 4.34724777936935424805e-01) (157, 3.12846451997756958008e-01) (158, -1.41324830055236816406e+00) (159, -2.94450044631958007813e+00) (160, -1.05378618240356445313e+01) (161, 1.92896862030029296875e+01) (162, 3.60969781875610351563e+00) (163, 3.45423698425292968750e+00) (164, 4.28769350051879882813e-01) (165, 2.62868434190750122070e-01) (166, -1.66630828380584716797e+00) (167, -3.10934448242187500000e+00) (168, -1.80733127593994140625e+01) (169, 8.29946804046630859375e+00) (170, 3.32222080230712890625e+00) (171, 3.57854223251342773438e+00) (172, 4.67713207006454467773e-01) (173, 3.46777200698852539063e-01) (174, -1.63056457042694091797e+00) (175, -3.54913091659545898438e+00) (176, -1.94559459686279296875e+01) (177, 1.17346488952636718750e+02) (178, 3.67427444458007812500e+00) (179, 3.75286817550659179688e+00) (180, 4.68861222267150878906e-01) (181, 3.92592489719390869141e-01) (182, -1.23756980895996093750e+00) (183, -1.90812516212463378906e+00) (184, -4.50876760482788085938e+00) (185, 5.05362792968750000000e+02) (186, 7.79145526885986328125e+00) (187, 8.47406616210937500000e+01) (188, -6.82606506347656250000e+00) (189, 8.20895969867706298828e-01) (190, -5.59361800551414489746e-02) (191, -1.17251491546630859375e+00) (192, -9.68979775905609130859e-01) (193, 3.63016891479492187500e+00) (194, 2.03358173370361328125e+01) (195, 2.93282723426818847656e+00) (196, 1.23120570182800292969e+00) (197, 3.79004776477813720703e-01) (198, 2.61692963540554046631e-02) (199, -2.66050171852111816406e+00) (200, -1.97026893496513366699e-01) (201, 6.08221478760242462158e-02) (202, -7.73302465677261352539e-03) (203, 7.30242505669593811035e-02) (204, 1.88197687268257141113e-01) (205, 2.90101945400238037109e-01) (206, -1.06683179736137390137e-01) (207, -1.54022023081779479980e-01) (208, 5.34798681735992431641e-01) (209, 4.14827764034271240234e-01) (210, 4.18306291103363037109e-01) (211, 9.99041423201560974121e-02) (212, 3.00726711750030517578e-01) (213, 3.48114401102066040039e-01) (214, 1.66634485125541687012e-01) (215, 4.29019629955291748047e-02) (216, 2.60396599769592285156e-01) (217, 1.56185254454612731934e-01) (218, 2.47603163123130798340e-01) (219, 2.84564010798931121826e-02) (220, 1.36041745543479919434e-01) (221, 3.68365913629531860352e-01) (222, 3.60128194093704223633e-01) (223, 2.01129630208015441895e-01) (224, 2.64778912067413330078e-01) (225, 2.19832733273506164551e-01) (226, 4.29926365613937377930e-01) (227, 1.25519335269927978516e-01) (228, 1.19342587888240814209e-01) (229, 3.94672065973281860352e-01) (230, 1.35499730706214904785e-01) (231, 6.46792948246002197266e-02) (232, 3.51912736892700195313e-01) (233, 2.89168536663055419922e-01) (234, 3.37494701147079467773e-01) (235, 3.47808778285980224609e-01) (236, 4.97101098299026489258e-01) (237, 4.80914205312728881836e-01) (238, 9.63206589221954345703e-02) (239, 1.64240732789039611816e-01) (240, 3.76521676778793334961e-01) (241, 1.05182200670242309570e-01) (242, 7.15156495571136474609e-02) (243, 1.68987885117530822754e-01) (244, 3.81109595298767089844e-01) (245, 2.46540114283561706543e-01) (246, 3.39372545480728149414e-01) (247, 1.24458007514476776123e-01) (248, 3.84308218955993652344e-01) (249, 1.32330730557441711426e-01) (250, 1.86908408999443054199e-01) (251, 9.10708904266357421875e-02) (252, 8.33072364330291748047e-02) (253, 2.67157316207885742188e-01) (254, 9.55235306173563003540e-03) (255, 1.73798009753227233887e-01) (256, 8.70181620121002197266e-02) (0, 5.33673644065856933594e-01) (1, 3.38160932064056396484e-01) (2, 1.94423019886016845703e-01) (3, 3.11897665262222290039e-01) (4, 4.63233619928359985352e-01) (5, 2.34337195754051208496e-01) (6, 4.05211061239242553711e-01) (7, 3.54007422924041748047e-01) (8, 1.58705219626426696777e-01) (9, 4.77870315313339233398e-01) (10, 4.25624340772628784180e-01) (11, 2.31513664126396179199e-01) (12, 3.17347466945648193359e-01) (13, 5.11326432228088378906e-01) (14, 2.44217336177825927734e-01) (15, 1.40872523188591003418e-01) (16, 1.01580128073692321777e-01) (17, 3.50640475749969482422e-01) (18, 3.56647074222564697266e-01) (19, 3.69220316410064697266e-01) (20, 4.21380817890167236328e-01) (21, 6.07199221849441528320e-02) (22, 1.86464607715606689453e-01) (23, 6.70798197388648986816e-02) (24, -3.35452258586883544922e-02) (25, 2.13718295097351074219e-01) (26, 2.35004678368568420410e-01) (27, 1.93386539816856384277e-01) (28, 1.42263457179069519043e-01) (29, 1.82574197649955749512e-01) (30, -3.63008499145507812500e-01) (31, -4.57914054393768310547e-01) (32, 2.45474040508270263672e-01) (33, 2.99164742231369018555e-01) (34, 7.10709020495414733887e-02) (35, 2.00967118144035339355e-01) (36, 2.11513400077819824219e-01) (37, 8.63460600376129150391e-02) (38, -3.60214084386825561523e-01) (39, -2.22269728779792785645e-01) (40, 1.49506971240043640137e-01) (41, 2.45716363191604614258e-01) (42, -2.41726160049438476563e+00) (43, 5.58195561170578002930e-02) (44, 2.81024314463138580322e-02) (45, -4.13034223020076751709e-02) (46, -3.09827160090208053589e-02) (47, -2.48538379669189453125e+01) (48, 1.01779091358184814453e+00) (49, -1.39183248393237590790e-03) (50, -1.05946648120880126953e+00) (51, 7.68756294250488281250e+00) (52, 1.56230413913726806641e+00) (53, 1.05291813611984252930e-01) (54, 1.22399382293224334717e-01) (55, -1.74328594207763671875e+01) (56, 8.63975360989570617676e-02) (57, -2.33652496337890625000e+00) (58, -4.59223890304565429688e+00) (59, -9.19094160199165344238e-02) (60, 2.10079759359359741211e-01) (61, 6.06383860111236572266e-01) (62, -7.18344449996948242188e-02) (63, -3.17273944616317749023e-01) (64, 2.66500599682331085205e-02) (65, -2.54280328750610351563e+00) (66, -3.91900181770324707031e+00) (67, 2.61468768119812011719e-01) (68, -1.89399704337120056152e-01) (69, 4.18273657560348510742e-01) (70, -5.42428255081176757813e-01) (71, -4.61225807666778564453e-01) (72, 2.49240264296531677246e-01) (73, -2.55056667327880859375e+00) (74, -2.15342712402343750000e+00) (75, 1.29150941967964172363e-01) (76, -1.21015876531600952148e-01) (77, -5.21857775747776031494e-02) (78, -9.73123550415039062500e-01) (79, -3.02402466535568237305e-01) (80, 3.39898839592933654785e-02) (81, -1.01738326251506805420e-01) (82, 5.64792990684509277344e-01) (83, 3.65021795034408569336e-01) (84, 5.78408896923065185547e-01) (85, 1.13032773137092590332e-01) (86, -1.36091530323028564453e-01) (87, 2.92420424520969390869e-02) (88, -7.89410341531038284302e-03) (89, -4.32573491707444190979e-03) (90, 8.23799312114715576172e-01) (91, -3.73917520046234130859e-02) (92, 6.72921121120452880859e-01) (93, 7.42815285921096801758e-02) (94, 1.23519077897071838379e-01) (95, 4.54494386911392211914e-01) (96, 8.71884226799011230469e-02) (97, -1.14203858375549316406e+00) (98, 3.20155292749404907227e-01) (99, 6.76219880580902099609e-01) (100, 1.44653603434562683105e-01) (101, 2.90662735700607299805e-01) (102, -2.14622452855110168457e-01) (103, -2.89916060864925384521e-02) (104, 5.00287674367427825928e-02) (105, -3.73793601989746093750e-01) (106, -3.79629842936992645264e-02) (107, 1.64227128028869628906e-01) (108, 6.31934344768524169922e-01) (109, 2.91483581066131591797e-01) (110, -7.04368203878402709961e-02) (111, 2.84126624464988708496e-02) (112, -8.79091024398803710938e-02) (113, 1.46954163908958435059e-01) (114, 5.06080329418182373047e-01) (115, 7.75881707668304443359e-01) (116, 5.43655753135681152344e-01) (117, 2.98163384199142456055e-01) (118, 1.36185765266418457031e-01) (119, 4.17594015598297119141e-01) (120, 2.08433836698532104492e-01) (121, 5.61716377735137939453e-01) (122, 1.43176212906837463379e-01) (123, 5.49591362476348876953e-01) (124, 6.25290095806121826172e-01) (125, 3.15968900918960571289e-01) (126, -6.26406550407409667969e-01) (127, 6.13066196441650390625e-01) (128, 1.12465858459472656250e-01) (129, -5.66601693630218505859e-01) (130, 3.86224053800106048584e-02) (131, 3.58142852783203125000e-01) (132, 3.79102736711502075195e-01) (133, -1.96776360273361206055e-01) (134, -1.14896178245544433594e+00) (135, 7.56919831037521362305e-02) (136, -5.24982102215290069580e-02) (137, -2.80417442321777343750e-01) (138, -4.26102042198181152344e-01) (139, 4.82064574956893920898e-01) (140, 3.74270230531692504883e-01) (141, 1.52568191289901733398e-01) (142, -2.36076617240905761719e+00) (143, 8.90992209315299987793e-02) (144, 2.63064265251159667969e-01) (145, -1.60908773541450500488e-02) (146, 4.30683612823486328125e-01) (147, 4.03844833374023437500e-01) (148, 2.15364769101142883301e-01) (149, 2.23970502614974975586e-01) (150, -3.29329311847686767578e-01) (151, 6.61412835121154785156e-01) (152, 8.72566699981689453125e-02) (153, -2.35310882329940795898e-01) (154, -4.93845462799072265625e-01) (155, 3.87732125818729400635e-02) (156, 6.79480731487274169922e-01) (157, 4.69343334436416625977e-01) (158, -8.11543822288513183594e-01) (159, -5.80015517771244049072e-02) (160, 7.62936696410179138184e-02) (161, -2.60969948768615722656e+00) (162, -9.98537242412567138672e-01) (163, 1.57226726412773132324e-01) (164, 1.33250206708908081055e-01) (165, -9.04374122619628906250e-02) (166, -2.16266721487045288086e-01) (167, 4.52320575714111328125e-01) (168, 2.44073480367660522461e-01) (169, -2.62116169929504394531e+00) (170, -1.71039927005767822266e+00) (171, 3.37761379778385162354e-02) (172, 2.97476351261138916016e-01) (173, -1.81060999631881713867e-01) (174, -2.46569961309432983398e-01) (175, 1.29341989755630493164e-01) (176, 1.17695674300193786621e-01) (177, -2.51702785491943359375e-01) (178, -5.51141560077667236328e-01) (179, 4.73542094230651855469e-01) (180, -7.68254101276397705078e-02) (181, 3.12027931213378906250e-01) (182, -1.89709793776273727417e-02) (183, 1.40866923332214355469e+00) (184, -1.13356518745422363281e+00) (185, 2.66243368387222290039e-01) (186, 3.86836320161819458008e-01) (187, 4.71825987100601196289e-01) (188, 3.13274741172790527344e-01) (189, 7.37072467803955078125e-01) (190, -4.13589686155319213867e-01) (191, 1.31484508514404296875e+00) (192, 8.98659601807594299316e-02) (193, 1.88910990953445434570e-01) (194, 2.31822311878204345703e-01) (195, 6.18869006633758544922e-01) (196, 6.33120894432067871094e-01) (197, 1.50029808282852172852e-01) (198, -6.11945502460002899170e-02) (199, -1.53188002109527587891e+00) (200, -8.15771147608757019043e-02) (201, -3.54745775461196899414e-01) (202, -1.70041397213935852051e-01) (203, 2.07912310957908630371e-01) (204, -3.51278990507125854492e-01) (205, -3.95726785063743591309e-02) (206, -1.51755288243293762207e-01) (207, -6.61961957812309265137e-02) (208, -3.85341465473175048828e-01) (209, -2.53163665533065795898e-01) (210, -3.14452052116394042969e-01) (211, 1.38136953115463256836e-01) (212, 3.28664779663085937500e-01) (213, -8.81071612238883972168e-02) (214, -6.14420743659138679504e-03) (215, -1.30795806646347045898e-01) (216, -1.21803805232048034668e-01) (217, -2.45107039809226989746e-01) (218, -1.58080026507377624512e-01) (219, 1.97817131876945495605e-01) (220, 1.52383103966712951660e-01) (221, -3.34689199924468994141e-01) (222, -2.38627091050148010254e-01) (223, -2.21469610929489135742e-01) (224, -3.71462047100067138672e-01) (225, -7.51698389649391174316e-02) (226, 3.30617427825927734375e-01) (227, 3.29824447631835937500e-01) (228, 1.06163069605827331543e-01) (229, -2.22379520535469055176e-01) (230, -3.79684776067733764648e-01) (231, -2.45139062404632568359e-01) (232, -3.18117290735244750977e-01) (233, 1.86076521873474121094e-01) (234, 1.21889427304267883301e-01) (235, 1.44680440425872802734e-01) (236, 3.84764045476913452148e-01) (237, 3.66977393627166748047e-01) (238, -5.08397221565246582031e-02) (239, -1.70859292149543762207e-01) (240, 3.49174618721008300781e-01) (241, 2.08254143595695495605e-01) (242, 1.48366451263427734375e-01) (243, 7.36354663968086242676e-02) (244, 1.11729413270950317383e-01) (245, 4.11525487899780273438e-01) (246, 3.91204386949539184570e-01) (247, -3.46872270107269287109e-01) (248, -3.43088090419769287109e-01) (249, -3.06784331798553466797e-01) (250, -3.94870311021804809570e-01) (251, -8.46288725733757019043e-02) (252, -7.84521028399467468262e-02) (253, -3.32162797451019287109e-01) (254, -3.92270237207412719727e-01) (255, -1.67917385697364807129e-01) (256, -3.13925445079803466797e-01) (0, 5.47455072402954101563e-01) (1, 5.18146038055419921875e-01) (2, 1.82159751653671264648e-01) (3, 2.50764906406402587891e-01) (4, 4.58661079406738281250e-01) (5, 3.21013450622558593750e-01) (6, 2.89214134216308593750e-01) (7, 1.87250643968582153320e-01) (8, 2.23592251539230346680e-01) (9, 3.89959931373596191406e-01) (10, 3.93829554319381713867e-01) (11, 4.28204536437988281250e-01) (12, 2.50177145004272460938e-01) (13, 2.19109281897544860840e-01) (14, 1.67609512805938720703e-01) (15, 4.19611394405364990234e-01) (16, 2.00610205531120300293e-01) (17, 2.89733558893203735352e-01) (18, 2.15884242206811904907e-02) (19, 1.37665107846260070801e-01) (20, 1.78766176104545593262e-01) (21, 1.01462282240390777588e-01) (22, 1.64218619465827941895e-01) (23, 2.09775075316429138184e-01) (24, 5.01940548419952392578e-01) (25, 4.37389612197875976563e-01) (26, 2.56129235029220581055e-01) (27, 2.31260985136032104492e-01) (28, -5.43809868395328521729e-02) (29, 1.71249091625213623047e-01) (30, -7.70918667316436767578e-01) (31, -7.69657194614410400391e-01) (32, 1.15917034447193145752e-01) (33, 5.10949373245239257813e-01) (34, 3.85179013013839721680e-01) (35, -7.69541189074516296387e-02) (36, 3.71311381459236145020e-02) (37, 7.17006698250770568848e-02) (38, -7.35382556915283203125e-01) (39, -9.39212858676910400391e-01) (40, 1.37537091970443725586e-01) (41, 2.30814054608345031738e-01) (42, -7.75784683227539062500e+00) (43, -3.00317263603210449219e+00) (44, -1.64448749274015426636e-02) (45, -1.03226053714752197266e+00) (46, 3.81765305995941162109e-01) (47, 3.26534152030944824219e+00) (48, -5.46656139194965362549e-02) (49, 4.01490867137908935547e-01) (50, -7.90729999542236328125e+00) (51, -1.79904949665069580078e+00) (52, -1.16943642497062683105e-02) (53, -9.94564592838287353516e-01) (54, 5.16779184341430664063e-01) (55, -4.47594940662384033203e-01) (56, -9.07629653811454772949e-02) (57, 5.09731650352478027344e-01) (58, -3.59914213418960571289e-01) (59, -9.75483655929565429688e-01) (60, 3.66919599473476409912e-02) (61, 2.05109030008316040039e-01) (62, 2.02044293284416198730e-01) (63, -1.64086133241653442383e-01) (64, 1.88784345984458923340e-01) (65, 8.28346386551856994629e-02) (66, -3.27223747968673706055e-01) (67, -4.02602218091487884521e-02) (68, 1.08557932078838348389e-01) (69, 2.94330596923828125000e-01) (70, -9.50086176395416259766e-01) (71, -6.97186291217803955078e-01) (72, 5.53214430809020996094e-01) (73, 3.88758003711700439453e-01) (74, -3.04246723651885986328e-01) (75, 1.37742593884468078613e-01) (76, 4.14675176143646240234e-01) (77, -1.17057282477617263794e-02) (78, -6.45857870578765869141e-01) (79, -1.39241576194763183594e-01) (80, -1.61652281880378723145e-01) (81, 4.15870130062103271484e-01) (82, -2.61017441749572753906e-01) (83, 2.77660548686981201172e-01) (84, 7.42997288703918457031e-01) (85, 2.64689803123474121094e-01) (86, -9.15435969829559326172e-01) (87, 3.83111387491226196289e-02) (88, -1.12796939909458160400e-01) (89, 2.52596169710159301758e-01) (90, -2.79306489974260330200e-02) (91, 1.14082288742065429688e+00) (92, 6.37690424919128417969e-01) (93, 2.52858221530914306641e-01) (94, -9.19679179787635803223e-02) (95, 1.22240591049194335938e+00) (96, 1.58343747258186340332e-01) (97, 5.28316609561443328857e-02) (98, 3.09480696916580200195e-01) (99, 6.69790863990783691406e-01) (100, 1.57751306891441345215e-01) (101, 9.85670626163482666016e-01) (102, -2.74278856813907623291e-02) (103, 9.37347710132598876953e-02) (104, -1.34880676865577697754e-01) (105, 1.90898314118385314941e-01) (106, 1.92696884274482727051e-01) (107, -3.12967747449874877930e-01) (108, 4.06441450119018554688e-01) (109, 5.00447869300842285156e-01) (110, -1.14713646471500396729e-02) (111, 3.66802603006362915039e-01) (112, 1.59696824848651885986e-02) (113, 4.51385617256164550781e-01) (114, 1.90932139754295349121e-01) (115, 3.70696455240249633789e-01) (116, 4.45390671491622924805e-01) (117, 7.34028458595275878906e-01) (118, 5.31300194561481475830e-02) (119, 2.70452231168746948242e-01) (120, -2.27242857217788696289e-02) (121, 5.64674675464630126953e-01) (122, 9.31096002459526062012e-02) (123, 6.09991848468780517578e-01) (124, 6.35535538196563720703e-01) (125, 3.72016489505767822266e-01) (126, -4.22554463148117065430e-01) (127, 3.74840825796127319336e-01) (128, 2.35644698143005371094e-01) (129, 4.40786600112915039063e-01) (130, 1.30699843168258666992e-01) (131, 4.53026682138442993164e-01) (132, 5.23981750011444091797e-01) (133, -1.62771433591842651367e-01) (134, -6.18131637573242187500e-01) (135, 2.59463965892791748047e-01) (136, 9.19279158115386962891e-02) (137, 3.35592776536941528320e-01) (138, -3.47757220268249511719e-01) (139, 4.95154231786727905273e-01) (140, 6.83121800422668457031e-01) (141, 3.82748544216156005859e-01) (142, -5.38303256034851074219e-01) (143, -1.11222103238105773926e-01) (144, -8.85780714452266693115e-03) (145, 2.09780201315879821777e-01) (146, -1.27578899264335632324e-01) (147, 5.81889867782592773438e-01) (148, 2.09571391344070434570e-01) (149, 6.04909598827362060547e-01) (150, 2.37685844302177429199e-01) (151, -1.11402980983257293701e-01) (152, 2.66030758619308471680e-01) (153, 2.03283861279487609863e-01) (154, -1.49249523878097534180e-01) (155, 1.81302800774574279785e-01) (156, 4.00811225175857543945e-01) (157, 3.27934831380844116211e-01) (158, -4.97496485710144042969e-01) (159, 4.72674779593944549561e-02) (160, 1.39732390642166137695e-01) (161, -1.08531154692173004150e-02) (162, 5.40219917893409729004e-02) (163, -1.20187558233737945557e-01) (164, 2.02757433056831359863e-01) (165, 3.99152934551239013672e-01) (166, -2.18676948547363281250e+00) (167, 2.58646547794342041016e-01) (168, 3.03446173667907714844e-01) (169, 1.47294938564300537109e-01) (170, -4.20731484889984130859e-01) (171, -9.12422984838485717773e-02) (172, 2.74440735578536987305e-01) (173, -3.44089865684509277344e-01) (174, -3.79981637001037597656e-01) (175, 2.44928970932960510254e-01) (176, 1.27125814557075500488e-01) (177, 3.41224223375320434570e-01) (178, -2.65252709388732910156e-01) (179, -3.63804586231708526611e-02) (180, 8.54451507329940795898e-02) (181, 3.05161416530609130859e-01) (182, -2.58715957403182983398e-01) (183, 1.96571743488311767578e+00) (184, -2.00503396987915039063e+00) (185, 3.80610048770904541016e-01) (186, 4.13549959659576416016e-01) (187, 3.62464427947998046875e-01) (188, 1.37670725584030151367e-01) (189, 1.32523238658905029297e+00) (190, 9.31685328483581542969e-01) (191, -3.48928332328796386719e-01) (192, 1.88608437776565551758e-01) (193, 5.78083191066980361938e-03) (194, 1.26101940870285034180e-01) (195, 5.87369918823242187500e-01) (196, 6.22686862945556640625e-01) (197, 2.92726904153823852539e-02) (198, 1.92683398723602294922e+00) (199, 4.43900883197784423828e-01) (200, -7.38592565059661865234e-01) (201, -7.71026551723480224609e-01) (202, -7.44671642780303955078e-01) (203, 2.36692890524864196777e-01) (204, -3.34925577044486999512e-02) (205, -5.25979757308959960938e-01) (206, -4.40125197172164916992e-01) (207, -4.30047571659088134766e-01) (208, -1.03530466556549072266e-01) (209, -2.92617350816726684570e-01) (210, -9.92937237024307250977e-02) (211, 2.19712927937507629395e-01) (212, 3.72976243495941162109e-01) (213, 3.29427689313888549805e-01) (214, 2.27462455630302429199e-01) (215, -5.05745291709899902344e-01) (216, -1.33913740515708923340e-01) (217, -5.68751879036426544189e-02) (218, -1.69935733079910278320e-01) (219, 1.10948175191879272461e-01) (220, 9.41432714462280273438e-02) (221, 8.27968865633010864258e-02) (222, 1.12069308757781982422e-01) (223, -4.79658901691436767578e-01) (224, -1.94131001830101013184e-01) (225, -3.07993263006210327148e-01) (226, 4.06590178608894348145e-02) (227, 1.10180601477622985840e-01) (228, 2.97213345766067504883e-01) (229, 2.35323771834373474121e-01) (230, -7.63970017433166503906e-01) (231, -8.19666266441345214844e-01) (232, -2.14553102850914001465e-01) (233, 2.56945222616195678711e-01) (234, 2.56137460470199584961e-01) (235, 1.63427755236625671387e-01) (236, 1.73337951302528381348e-01) (237, 1.14181101322174072266e-01) (238, -5.06902098655700683594e-01) (239, 2.74255841970443725586e-01) (240, 8.06066244840621948242e-02) (241, 9.79222431778907775879e-02) (242, 2.22995970398187637329e-02) (243, 4.05334234237670898438e-01) (244, 2.09287658333778381348e-01) (245, 1.93476945161819458008e-01) (246, 1.24192878603935241699e-01) (247, -5.38268499076366424561e-03) (248, 6.05808869004249572754e-02) (249, 9.71417129039764404297e-03) (250, -5.05153089761734008789e-02) (251, 4.34421934187412261963e-02) (252, -2.67595541663467884064e-03) (253, 1.01730860769748687744e-01) (254, 7.06151053309440612793e-02) (255, 1.76755145192146301270e-01) (256, 2.42428749799728393555e-01) (0, 3.16980421543121337891e-01) (1, 3.30578945577144622803e-02) (2, 3.10572564601898193359e-01) (3, 2.65053272247314453125e-01) (4, 3.74863833189010620117e-01) (5, 7.59889483451843261719e-02) (6, 3.32512736320495605469e-01) (7, 3.99781912565231323242e-02) (8, 3.74445945024490356445e-01) (9, 7.60266482830047607422e-02) (10, 1.65943637490272521973e-01) (11, 2.74634242057800292969e-01) (12, 1.95041969418525695801e-01) (13, 2.57081892341375350952e-02) (14, 6.85060247778892517090e-02) (15, 2.45190694928169250488e-01) (16, 2.53952473402023315430e-01) (17, 3.05087715387344360352e-01) (18, 2.03050300478935241699e-01) (19, 3.94881851971149444580e-02) (20, 1.85154810547828674316e-01) (21, 1.46220758557319641113e-01) (22, -6.57476391643285751343e-03) (23, 3.28093141317367553711e-01) (24, 2.81432807445526123047e-01) (25, -2.81513277441263198853e-02) (26, -6.04928493499755859375e-01) (27, -6.88122287392616271973e-02) (28, 1.00796287879347801208e-02) (29, 6.52990043163299560547e-02) (30, -2.09928080439567565918e-01) (31, -8.31516385078430175781e-02) (32, -5.97293749451637268066e-02) (33, 2.88023114204406738281e-01) (34, 6.86611458659172058105e-02) (35, 2.93590098619461059570e-01) (36, 7.11898580193519592285e-02) (37, 3.59793484210968017578e-01) (38, 2.48440921306610107422e-01) (39, 1.30745163187384605408e-02) (40, -2.77951985597610473633e-01) (41, 3.04070889949798583984e-01) (42, -1.72818298339843750000e+01) (43, -9.74176049232482910156e-01) (44, -2.09232494235038757324e-01) (45, -1.57859957218170166016e+00) (46, -2.26987004280090332031e+00) (47, -4.24312162399291992188e+00) (48, 2.50650620460510253906e+00) (49, -4.17330153286457061768e-02) (50, -8.23119282722473144531e-01) (51, -9.59393307566642761230e-02) (52, 1.05153828859329223633e-01) (53, -1.61196672916412353516e+00) (54, -1.69212150573730468750e+00) (55, -2.55163502693176269531e+00) (56, 3.55848483741283416748e-02) (57, 4.07068319618701934814e-02) (58, -1.73422718048095703125e+00) (59, -2.54051922820508480072e-03) (60, 1.63029283285140991211e-01) (61, 2.83046334981918334961e-01) (62, -6.60646259784698486328e-02) (63, -1.77198678255081176758e-01) (64, 2.15560480952262878418e-01) (65, -1.35082891210913658142e-03) (66, 9.99473705887794494629e-02) (67, 5.64158111810684204102e-02) (68, 1.97383895516395568848e-01) (69, 2.29576319456100463867e-01) (70, -9.87789630889892578125e-01) (71, -1.26359593868255615234e+00) (72, 2.22148463129997253418e-01) (73, 1.13411493599414825439e-01) (74, 7.52769038081169128418e-02) (75, 4.89328801631927490234e-02) (76, 3.76181662082672119141e-01) (77, 3.62506844103336334229e-02) (78, -4.95025128126144409180e-01) (79, -7.13636755943298339844e-01) (80, 2.23161339759826660156e+00) (81, -1.30461525917053222656e+00) (82, 2.18226075172424316406e-01) (83, 4.98816192150115966797e-01) (84, 5.92458665370941162109e-01) (85, 1.76602765917778015137e-01) (86, -1.92133679986000061035e-01) (87, 1.29734146595001220703e+00) (88, 3.00601673126220703125e+00) (89, 1.12854301929473876953e+00) (90, 1.39131247997283935547e-01) (91, 1.65218377113342285156e+00) (92, 1.80659866333007812500e+00) (93, 3.23304772377014160156e-01) (94, -3.58663722872734069824e-02) (95, 2.05763149261474609375e+00) (96, 5.34666717052459716797e-01) (97, -8.04327726364135742188e-02) (98, 1.84582054615020751953e-01) (99, 5.94044208526611328125e-01) (100, 7.71045029163360595703e-01) (101, 2.14542001485824584961e-01) (102, -8.71779978275299072266e-01) (103, -1.50652801990509033203e+00) (104, -1.12973511219024658203e+00) (105, -1.01987886428833007813e+00) (106, 2.48710155487060546875e-01) (107, 3.09218436479568481445e-01) (108, 4.86235082149505615234e-01) (109, 3.47191886976361274719e-03) (110, -7.80116677284240722656e-01) (111, -1.23429250717163085938e+00) (112, -5.54597556591033935547e-01) (113, -4.41128522157669067383e-01) (114, 4.92268383502960205078e-01) (115, 1.39675319194793701172e+00) (116, 7.25410401821136474609e-01) (117, 2.47189924120903015137e-01) (118, -1.09610259532928466797e+00) (119, -7.83128499984741210938e-01) (120, -4.86698985099792480469e-01) (121, -2.77466773986816406250e+00) (122, 1.87616124749183654785e-01) (123, 1.48444759845733642578e+00) (124, 6.43420755863189697266e-01) (125, 1.99813783168792724609e-01) (126, -7.87075757980346679688e-01) (127, -1.56415534019470214844e+00) (128, -7.87920892238616943359e-01) (129, -1.86147153377532958984e-01) (130, 8.95794108510017395020e-02) (131, 4.60152029991149902344e-01) (132, 6.59948289394378662109e-01) (133, 3.06296020746231079102e-01) (134, -1.21890532970428466797e+00) (135, -1.66709494590759277344e+00) (136, 8.08500647544860839844e-02) (137, -2.04823344945907592773e-01) (138, 3.06971430778503417969e-01) (139, 6.43084943294525146484e-01) (140, 6.25326991081237792969e-01) (141, 1.03452190756797790527e-01) (142, -1.02099204063415527344e+00) (143, -1.36176347732543945313e+00) (144, -7.39176124334335327148e-02) (145, -2.78617888689041137695e-01) (146, 3.47052037715911865234e-01) (147, 3.41092914342880249023e-01) (148, 5.00673592090606689453e-01) (149, 1.40007674694061279297e-01) (150, -9.81367647647857666016e-01) (151, -1.04153454303741455078e+00) (152, -1.74386873841285705566e-01) (153, 1.42356175929307937622e-02) (154, -3.98047745227813720703e-01) (155, 4.45712715387344360352e-01) (156, 8.23404490947723388672e-01) (157, 2.55644291639328002930e-01) (158, -1.05975544452667236328e+00) (159, -1.06805860996246337891e+00) (160, 8.85282978415489196777e-02) (161, -1.83751270174980163574e-01) (162, -2.32446998357772827148e-01) (163, 4.58662420511245727539e-01) (164, 5.88778972625732421875e-01) (165, 1.17585487663745880127e-01) (166, -1.05904948711395263672e+00) (167, -8.72373998165130615234e-01) (168, 3.98625850677490234375e-01) (169, -1.74108535051345825195e-01) (170, -4.17852476239204406738e-02) (171, 3.63610774278640747070e-01) (172, 4.20585751533508300781e-01) (173, -6.36912230402231216431e-03) (174, -1.52545297145843505859e+00) (175, -1.26413178443908691406e+00) (176, 1.84995710849761962891e-01) (177, -9.26691055297851562500e-01) (178, 1.74912750720977783203e-01) (179, 5.51851570606231689453e-01) (180, 3.37656259536743164063e-01) (181, 1.57999321818351745605e-01) (182, -9.14620935916900634766e-01) (183, -1.17538440227508544922e+00) (184, -3.18361449241638183594e+00) (185, 7.56328463554382324219e-01) (186, 4.22774046659469604492e-01) (187, 1.51480369567871093750e+01) (188, 5.77909326553344726563e+00) (189, 5.93956410884857177734e-01) (190, 2.22133591771125793457e-01) (191, 5.99760152399539947510e-02) (192, -4.97313499450683593750e-01) (193, 1.68758165836334228516e+00) (194, 2.26269960403442382813e-01) (195, 6.90273821353912353516e-01) (196, 2.52773714065551757813e+00) (197, 3.72103750705718994141e-01) (198, 1.84557452797889709473e-01) (199, -3.45029807090759277344e+00) (200, 1.89069926738739013672e-01) (201, 9.45631116628646850586e-02) (202, 9.42397266626358032227e-02) (203, 1.84783980250358581543e-01) (204, 3.32833901047706604004e-02) (205, 2.71759897470474243164e-01) (206, 5.56005947291851043701e-02) (207, 6.11190609633922576904e-02) (208, 3.80016081035137176514e-02) (209, 2.10218474268913269043e-01) (210, 2.92793869972229003906e-01) (211, 2.95941054821014404297e-01) (212, 8.54411795735359191895e-02) (213, 3.34989517927169799805e-01) (214, 1.67112424969673156738e-01) (215, 1.75396397709846496582e-01) (216, 2.04688683152198791504e-01) (217, 5.45665025711059570313e-02) (218, 1.15621075034141540527e-01) (219, -7.34255835413932800293e-03) (220, 2.01224893331527709961e-01) (221, 2.65189707279205322266e-01) (222, 2.58030205965042114258e-01) (223, 1.16045854985713958740e-01) (224, 1.69141814112663269043e-01) (225, 3.22254419326782226563e-01) (226, 3.20262014865875244141e-01) (227, 3.57755631208419799805e-01) (228, 3.80778685212135314941e-02) (229, 3.80814701318740844727e-01) (230, -4.26981486380100250244e-02) (231, -2.41163019090890884399e-02) (232, 1.83411821722984313965e-01) (233, 2.83680230379104614258e-01) (234, 1.12229883670806884766e-01) (235, 8.41763094067573547363e-02) (236, 3.43510001897811889648e-01) (237, 1.90995395183563232422e-01) (238, -3.85233201086521148682e-02) (239, 1.63979113101959228516e-01) (240, 2.51963827759027481079e-02) (241, 7.25570395588874816895e-02) (242, 2.83128231763839721680e-01) (243, 2.53438979387283325195e-01) (244, 3.97549495100975036621e-02) (245, 1.07744939625263214111e-01) (246, 1.75758019089698791504e-01) (247, 1.07013873755931854248e-01) (248, 3.52061331272125244141e-01) (249, 2.32896491885185241699e-01) (250, 8.00399556756019592285e-02) (251, 2.45225414633750915527e-01) (252, 3.03025662899017333984e-01) (253, 4.98397834599018096924e-02) (254, 1.07933007180690765381e-01) (255, 2.60533034801483154297e-01) (256, 3.54771316051483154297e-01) (0, 1.05197295546531677246e-01) (1, 2.61747300624847412109e-01) (2, 3.16666781902313232422e-01) (3, 2.43591517210006713867e-01) (4, 4.07564967870712280273e-01) (5, 2.42418751120567321777e-01) (6, 1.63476631045341491699e-01) (7, 4.52635765075683593750e-01) (8, 3.22656363248825073242e-01) (9, 3.63846957683563232422e-01) (10, 6.06486350297927856445e-02) (11, 2.64535605907440185547e-01) (12, 3.94173860549926757813e-01) (13, 3.67503941059112548828e-01) (14, 9.01359319686889648438e-02) (15, 8.62052738666534423828e-02) (16, 2.02929511666297912598e-01) (17, 2.11901679635047912598e-01) (18, 2.79093533754348754883e-01) (19, 2.77396738529205322266e-01) (20, 4.48368459939956665039e-01) (21, 1.52054473757743835449e-01) (22, 4.37662065029144287109e-01) (23, 2.18802496790885925293e-01) (24, 2.12740540504455566406e-01) (25, 3.76021474599838256836e-01) (26, 3.46397310495376586914e-01) (27, 4.03909623622894287109e-01) (28, 1.75932124257087707520e-01) (29, 1.45704969763755798340e-01) (30, 3.53617489337921142578e-01) (31, 6.41317069530487060547e-01) (32, 4.27344471216201782227e-01) (33, 4.23262685537338256836e-01) (34, 2.02808499336242675781e-01) (35, 5.97447492182254791260e-02) (36, 8.03266093134880065918e-02) (37, 3.80873203277587890625e-01) (38, 1.10954061150550842285e-01) (39, 3.81730258464813232422e-01) (40, 2.44003489613533020020e-01) (41, 4.15662854909896850586e-01) (42, 9.85383629798889160156e-01) (43, 1.94587558507919311523e-02) (44, -4.58254851400852203369e-02) (45, -1.93059984594583511353e-02) (46, 6.90834596753120422363e-03) (47, 5.91782271862030029297e-01) (48, 5.80287873744964599609e-01) (49, 2.93565750122070312500e-01) (50, 9.02554035186767578125e-01) (51, -1.52182245254516601563e+00) (52, -1.16021120548248291016e+00) (53, -1.29624173045158386230e-01) (54, 2.17479661107063293457e-01) (55, 5.01362979412078857422e-01) (56, 5.54588019847869873047e-01) (57, 1.48017942905426025391e-01) (58, 1.27407163381576538086e-01) (59, 2.56318360567092895508e-01) (60, 2.22315102815628051758e-01) (61, 2.48534098267555236816e-01) (62, 2.82467484474182128906e-01) (63, 1.57134130597114562988e-01) (64, 4.85186949372291564941e-02) (65, 2.46675163507461547852e-01) (66, 1.78922027349472045898e-01) (67, 1.29358023405075073242e-01) (68, 1.25104114413261413574e-01) (69, 5.18542751669883728027e-02) (70, 8.30777958035469055176e-02) (71, 1.28963327407836914063e+00) (72, 2.54264444112777709961e-01) (73, 3.52902501821517944336e-01) (74, 1.30302488803863525391e-01) (75, 2.31233462691307067871e-01) (76, 1.78790599107742309570e-01) (77, 3.32614272832870483398e-01) (78, 1.89377024769783020020e-01) (79, 1.77156007289886474609e+00) (80, 4.87133920192718505859e-01) (81, 2.96672165393829345703e-01) (82, -1.58016737550497055054e-02) (83, 1.55191481113433837891e-01) (84, -3.06356787681579589844e-01) (85, -2.60914278030395507813e+00) (86, 4.06971168518066406250e+00) (87, 1.71747517585754394531e+00) (88, -1.50965228676795959473e-01) (89, 1.44477888941764831543e-01) (90, -2.38968408666551113129e-03) (91, -6.59349620342254638672e-01) (92, -2.83224552869796752930e-01) (93, -1.67948305606842041016e+00) (94, 1.07056820392608642578e+00) (95, -5.06667947769165039063e+00) (96, -1.50671792030334472656e+00) (97, 1.92824810743331909180e-01) (98, 2.16533884406089782715e-01) (99, -4.80124056339263916016e-02) (100, -9.06126648187637329102e-02) (101, -1.45407116413116455078e+00) (102, 2.44402241706848144531e+00) (103, -1.37444257736206054688e+00) (104, 3.94757747650146484375e-01) (105, 3.05527389049530029297e-01) (106, 4.37543898820877075195e-01) (107, 6.25782832503318786621e-02) (108, -2.05001652240753173828e-01) (109, 2.15296715497970581055e-01) (110, 4.55066770315170288086e-01) (111, -3.03309702873229980469e+00) (112, 1.19426757097244262695e-01) (113, 1.04915714263916015625e+00) (114, 2.68032345920801162720e-02) (115, 7.18515142798423767090e-02) (116, 8.03378894925117492676e-02) (117, -5.87192356586456298828e-01) (118, 1.29458725452423095703e+00) (119, 1.01666283607482910156e+00) (120, -1.99375879764556884766e+00) (121, 4.67639255523681640625e+00) (122, -1.37934178113937377930e-01) (123, 4.77373749017715454102e-02) (124, -9.31354612112045288086e-02) (125, -1.71016246080398559570e-01) (126, 5.68734407424926757813e-02) (127, -9.99911606311798095703e-01) (128, 5.74382364749908447266e-01) (129, 9.93573851883411407471e-03) (130, 5.86383976042270660400e-02) (131, -1.88616350293159484863e-01) (132, 5.96175827085971832275e-02) (133, 1.28794717788696289063e+00) (134, -1.50179929733276367188e+01) (135, 6.39829874038696289063e-01) (136, -5.20887613296508789063e-01) (137, 3.23302954435348510742e-01) (138, 1.32196784019470214844e-01) (139, 9.26758497953414916992e-02) (140, 2.05448120832443237305e-01) (141, 4.92062360048294067383e-01) (142, -1.50680553913116455078e+00) (143, 1.16451370716094970703e+00) (144, -7.71789669990539550781e-01) (145, 3.46823781728744506836e-01) (146, 4.00718301534652709961e-01) (147, 2.36581787467002868652e-01) (148, 1.56174764037132263184e-01) (149, 1.78616672754287719727e-01) (150, -1.76999008655548095703e+00) (151, -7.22438916563987731934e-02) (152, -5.77072679996490478516e-01) (153, 3.87599140405654907227e-01) (154, 6.56494274735450744629e-02) (155, 2.26964414119720458984e-01) (156, -8.16179513931274414063e-02) (157, -4.66541862487792968750e+00) (158, 6.83923661708831787109e-01) (159, 1.90464234352111816406e+00) (160, -7.12665736675262451172e-01) (161, 2.69806116819381713867e-01) (162, 2.38614439964294433594e-01) (163, 1.21809758245944976807e-01) (164, -4.57438081502914428711e-02) (165, 2.86762714385986328125e-01) (166, 2.56322884559631347656e+00) (167, -1.51578836441040039063e+01) (168, -4.66409355401992797852e-01) (169, 4.57195997238159179688e-01) (170, 4.25468832254409790039e-01) (171, 2.83923178911209106445e-01) (172, -1.01449213922023773193e-01) (173, -6.40723824501037597656e-01) (174, 1.36710286140441894531e+00) (175, 1.23801910877227783203e+00) (176, 9.20419156551361083984e-01) (177, 1.83343756943941116333e-02) (178, 2.52303063869476318359e-01) (179, -3.20891365408897399902e-02) (180, -1.43292993307113647461e-02) (181, -4.98989969491958618164e-02) (182, 5.71474373340606689453e-01) (183, 3.33267440795898437500e+01) (184, 3.12051367759704589844e+00) (185, 1.25224590301513671875e-01) (186, -3.75125288963317871094e-01) (187, -5.64416408538818359375e-01) (188, -5.64121782779693603516e-01) (189, -8.65961968898773193359e-01) (190, -1.52499020099639892578e-01) (191, -2.33098621368408203125e+01) (192, 3.83715450763702392578e-01) (193, 2.31481924653053283691e-01) (194, 4.03450764715671539307e-02) (195, 4.21811779960989952087e-03) (196, -2.38744527101516723633e-01) (197, -3.48404161632061004639e-02) (198, 1.06102383136749267578e+00) (199, -9.08225631713867187500e+00) (200, 3.39250355958938598633e-01) (201, 2.41203695535659790039e-01) (202, 3.39811861515045166016e-01) (203, 2.81919628381729125977e-01) (204, 1.03903256356716156006e-01) (205, 1.66576653718948364258e-01) (206, 4.01781439781188964844e-01) (207, 2.09049805998802185059e-01) (208, 2.74382233619689941406e-01) (209, 2.60844618082046508789e-01) (210, 2.80411064624786376953e-01) (211, 4.24107193946838378906e-01) (212, 3.71878266334533691406e-01) (213, 4.23468202352523803711e-01) (214, 4.41746443510055541992e-01) (215, 1.57699152827262878418e-01) (216, 7.90332853794097900391e-02) (217, 2.79326051473617553711e-01) (218, 3.60489219427108764648e-01) (219, 7.88559094071388244629e-02) (220, 4.17959809303283691406e-01) (221, 3.68255794048309326172e-01) (222, 2.16075420379638671875e-01) (223, 4.35176819562911987305e-01) (224, 3.65471124649047851563e-01) (225, 3.02725434303283691406e-01) (226, 1.25025421380996704102e-01) (227, 2.08670511841773986816e-01) (228, 4.01922792196273803711e-01) (229, 2.07977801561355590820e-01) (230, 1.93506136536598205566e-01) (231, 2.90526479482650756836e-01) (232, 2.18169093132019042969e-01) (233, 1.89665287733078002930e-01) (234, 2.15064555406570434570e-01) (235, 2.15005800127983093262e-01) (236, 3.31602960824966430664e-01) (237, 1.40979126095771789551e-01) (238, 3.33587199449539184570e-01) (239, 1.40657901763916015625e-01) (240, 2.39323616027832031250e-01) (241, 1.14860311150550842285e-01) (242, 2.75452554225921630859e-01) (243, 8.08018147945404052734e-02) (244, 2.54392176866531372070e-01) (245, 1.15738272666931152344e-01) (246, 4.31608766317367553711e-01) (247, 1.48082062602043151855e-01) (248, 8.71503502130508422852e-02) (249, 3.52933883666992187500e-01) (250, 1.33134275674819946289e-01) (251, 1.33183091878890991211e-01) (252, 2.91337162256240844727e-01) (253, 2.01164051890373229980e-01) (254, 1.41288578510284423828e-01) (255, 2.44669929146766662598e-01) (256, 3.65458309650421142578e-01) (0, 3.70131105184555053711e-01) (1, 2.66042709350585937500e-01) (2, 1.50637507438659667969e-01) (3, 4.99219834804534912109e-01) (4, 1.29960373044013977051e-01) (5, 2.08329528570175170898e-01) (6, 4.13978785276412963867e-01) (7, 3.75036478042602539063e-01) (8, 4.77901905775070190430e-01) (9, 4.47976231575012207031e-01) (10, 2.44655966758728027344e-01) (11, 4.99098539352416992188e-01) (12, 3.34989428520202636719e-01) (13, 3.91654431819915771484e-01) (14, 1.97021692991256713867e-01) (15, 2.57824629545211791992e-01) (16, 4.97565627098083496094e-01) (17, 2.29584962129592895508e-01) (18, 3.76768231391906738281e-01) (19, 4.73814070224761962891e-01) (20, 2.92454302310943603516e-01) (21, 3.61852198839187622070e-01) (22, 2.22582653164863586426e-01) (23, 3.26073437929153442383e-01) (24, 1.56725030392408370972e-02) (25, 1.41173139214515686035e-01) (26, 3.86308342218399047852e-01) (27, 4.85712677240371704102e-01) (28, 4.43229854106903076172e-01) (29, 2.77400910854339599609e-01) (30, 1.57812088727951049805e-01) (31, 5.33227205276489257813e-01) (32, 1.22576411813497543335e-02) (33, -6.54428265988826751709e-03) (34, 2.58868873119354248047e-01) (35, 5.20295798778533935547e-01) (36, 3.40256869792938232422e-01) (37, 9.71764251589775085449e-02) (38, 3.08750987052917480469e-01) (39, 3.68944585323333740234e-01) (40, 2.44507908821105957031e-01) (41, 2.34817910194396972656e+00) (42, 7.14601427316665649414e-02) (43, -1.08286523818969726563e+00) (44, -1.26572716236114501953e+00) (45, -4.39302891492843627930e-01) (46, -6.61466181278228759766e-01) (47, -5.38349211215972900391e-01) (48, 6.24462902545928955078e-01) (49, 2.68056184053421020508e-01) (50, -3.73056650161743164063e-01) (51, -1.25248062610626220703e+00) (52, -1.52201187610626220703e+00) (53, -1.65429186820983886719e+00) (54, -5.97862958908081054688e-01) (55, 1.83202579617500305176e-01) (56, 1.16312742233276367188e-01) (57, 1.65316477417945861816e-01) (58, 3.73388200998306274414e-01) (59, 1.02161183953285217285e-01) (60, 1.99742898344993591309e-01) (61, -2.82280057668685913086e-01) (62, -7.37957000732421875000e-01) (63, -2.27408912032842636108e-02) (64, -5.75028359889984130859e-03) (65, 1.24444447457790374756e-01) (66, 4.98233646154403686523e-01) (67, 1.82742208242416381836e-01) (68, -8.97619351744651794434e-02) (69, 1.12191662192344665527e-02) (70, -1.33431762456893920898e-01) (71, 1.46768689155578613281e-01) (72, -5.01973703503608703613e-02) (73, -6.06829561293125152588e-02) (74, 3.86256009340286254883e-01) (75, -1.13791041076183319092e-01) (76, 6.16785138845443725586e-02) (77, -5.77366575598716735840e-02) (78, 1.31942033767700195313e-01) (79, 9.86068248748779296875e-01) (80, 3.61639916896820068359e-01) (81, -8.10221284627914428711e-02) (82, -1.05507530272006988525e-01) (83, -1.43514621257781982422e+00) (84, -1.81508708000183105469e+00) (85, 1.31163671612739562988e-01) (86, 1.19968163967132568359e+00) (87, 1.02978694438934326172e+00) (88, 4.73726868629455566406e-01) (89, -1.84043705463409423828e-01) (90, -7.03629493713378906250e-01) (91, -1.65900051593780517578e+00) (92, -2.27718442678451538086e-01) (93, -5.03598272800445556641e-01) (94, 2.05669835209846496582e-01) (95, -2.31242156028747558594e+00) (96, 1.55845582485198974609e-01) (97, 2.14854285120964050293e-01) (98, -1.30259835720062255859e+00) (99, -1.65530955791473388672e+00) (100, -3.87905120849609375000e-01) (101, -1.19531500339508056641e+00) (102, 5.47953248023986816406e-02) (103, 1.24777698516845703125e+00) (104, 1.49744331836700439453e+00) (105, 1.31769746541976928711e-01) (106, -2.96991616487503051758e-01) (107, -2.62371808290481567383e-01) (108, -4.81179207563400268555e-01) (109, -5.86094439029693603516e-01) (110, -1.42999254167079925537e-02) (111, 3.25592309236526489258e-01) (112, 4.17422831058502197266e-01) (113, 1.72550559043884277344e-01) (114, -1.58381652832031250000e+00) (115, -1.31531453132629394531e+00) (116, -2.75041043758392333984e-01) (117, -8.44915136694908142090e-02) (118, -4.90114390850067138672e-01) (119, -5.42397201061248779297e-01) (120, 8.00088882446289062500e-01) (121, -4.68624293804168701172e-01) (122, -1.89445912837982177734e+00) (123, -1.61140441894531250000e+00) (124, -5.47480940818786621094e-01) (125, -3.34943145513534545898e-01) (126, -7.55369722843170166016e-01) (127, -5.96630513668060302734e-01) (128, 8.14382910728454589844e-01) (129, 4.54250201582908630371e-02) (130, -1.61030590534210205078e-01) (131, -1.07339310646057128906e+00) (132, -2.84705042839050292969e-01) (133, 1.38521166518330574036e-02) (134, 7.77070522308349609375e-01) (135, -5.12185037136077880859e-01) (136, -2.50379979610443115234e-01) (137, 1.76535046193748712540e-03) (138, -7.11878463625907897949e-02) (139, -1.20728468894958496094e+00) (140, -3.64432871341705322266e-01) (141, -5.25298297405242919922e-01) (142, -7.00449109077453613281e-01) (143, 4.39429849386215209961e-01) (144, -3.58908116817474365234e-01) (145, -2.57782638072967529297e-01) (146, 2.36157909035682678223e-01) (147, -1.32278501987457275391e+00) (148, 4.45866677910089492798e-03) (149, -2.02966511249542236328e-01) (150, -1.96971833705902099609e+00) (151, -3.13283777236938476563e+00) (152, -4.36154335737228393555e-01) (153, -2.22640901803970336914e-01) (154, 3.28301191329956054688e-01) (155, -3.44240099191665649414e-01) (156, -1.16203987598419189453e+00) (157, -3.36125820875167846680e-01) (158, 3.40820813179016113281e+00) (159, -5.28184592723846435547e-01) (160, -2.51189805567264556885e-02) (161, 8.23289304971694946289e-02) (162, 1.46604016423225402832e-01) (163, 2.28265114128589630127e-03) (164, -1.99484545737504959106e-02) (165, 8.24877619743347167969e-01) (166, 2.39776778221130371094e+00) (167, -3.76651763916015625000e-01) (168, -2.32719480991363525391e-01) (169, 2.75022685527801513672e-01) (170, 3.30391019582748413086e-01) (171, 1.14878512918949127197e-01) (172, -2.72397696971893310547e-01) (173, 5.41191220283508300781e-01) (174, 1.32723140716552734375e+00) (175, -3.29856067895889282227e-01) (176, 1.17336463928222656250e+00) (177, -2.48084694147109985352e-01) (178, -4.16749209165573120117e-01) (179, -5.78986644744873046875e-01) (180, -2.35383868217468261719e-01) (181, -7.83388853073120117188e-01) (182, 7.41309046745300292969e-01) (183, 7.43915259838104248047e-01) (184, 1.82430684566497802734e+00) (185, 2.11019843816757202148e-01) (186, -2.74154376983642578125e+00) (187, -5.34012317657470703125e+00) (188, -1.18347001075744628906e+00) (189, -8.09648513793945312500e-01) (190, -6.61807715892791748047e-01) (191, 7.26728916168212890625e-01) (192, 4.20730322599411010742e-01) (193, 1.27098979428410530090e-02) (194, 3.90072055160999298096e-02) (195, -1.49500548839569091797e+00) (196, -4.47592973709106445313e-01) (197, -2.71677285432815551758e-01) (198, -1.22389090061187744141e+00) (199, 1.12290453910827636719e+00) (200, 3.30942928791046142578e-01) (201, 2.40953028202056884766e-01) (202, 4.33837175369262695313e-01) (203, 3.07145893573760986328e-01) (204, 4.75214630365371704102e-01) (205, 1.54267773032188415527e-01) (206, 4.92150127887725830078e-01) (207, 2.00695410370826721191e-01) (208, 1.84764549136161804199e-01) (209, 3.62107962369918823242e-01) (210, 4.34126973152160644531e-01) (211, 4.84819173812866210938e-01) (212, 2.09352985024452209473e-01) (213, 3.05816501379013061523e-01) (214, 4.75021213293075561523e-01) (215, 4.10961210727691650391e-01) (216, 2.62950271368026733398e-01) (217, 4.33360368013381958008e-01) (218, 4.04415011405944824219e-01) (219, 3.17119002342224121094e-01) (220, 1.97072729468345642090e-01) (221, 1.46649345755577087402e-01) (222, 3.67074459791183471680e-01) (223, 4.11461651325225830078e-01) (224, 2.70482033491134643555e-01) (225, 4.76998031139373779297e-01) (226, 2.94700294733047485352e-01) (227, 2.44912073016166687012e-01) (228, 1.86212345957756042480e-01) (229, 3.48846226930618286133e-01) (230, 4.10469770431518554688e-01) (231, 3.00731748342514038086e-01) (232, 2.32079014182090759277e-01) (233, 2.35708519816398620605e-01) (234, 4.82944816350936889648e-01) (235, 4.80632126331329345703e-01) (236, 3.33682507276535034180e-01) (237, 5.17179191112518310547e-01) (238, 4.73799824714660644531e-01) (239, 3.49103838205337524414e-01) (240, 5.13385772705078125000e-01) (241, 3.51231008768081665039e-01) (242, 4.38767641782760620117e-01) (243, 2.07048565149307250977e-01) (244, 2.45736911892890930176e-01) (245, 3.77709209918975830078e-01) (246, 2.13799059391021728516e-01) (247, 5.11702001094818115234e-01) (248, 4.62058633565902709961e-01) (249, 2.60996699333190917969e-01) (250, 3.92161160707473754883e-01) (251, 1.95042371749877929688e-01) (252, 4.56431180238723754883e-01) (253, 4.84641581773757934570e-01) (254, 2.95420497655868530273e-01) (255, 3.79002004861831665039e-01) (256, 1.74095124006271362305e-01) (0, -8.60578417778015136719e-02) (1, 1.20997853577136993408e-01) (2, -2.15989425778388977051e-01) (3, 1.90486330538988113403e-02) (4, 2.86434922600165009499e-04) (5, -1.12665228545665740967e-01) (6, 3.10808103531599044800e-02) (7, 1.03875301778316497803e-01) (8, 4.16398681700229644775e-02) (9, 1.66786447167396545410e-01) (10, 1.55336275696754455566e-01) (11, -5.62571454793214797974e-03) (12, 1.71880766749382019043e-01) (13, -1.82147547602653503418e-01) (14, -7.73502811789512634277e-02) (15, -8.87883082032203674316e-02) (16, 1.44740551710128784180e-01) (17, 1.33668780326843261719e-01) (18, 7.14494585990905761719e-02) (19, 5.98893910646438598633e-02) (20, -5.71027994155883789063e-02) (21, -1.35685363784432411194e-02) (22, 5.38997165858745574951e-02) (23, -4.40105237066745758057e-03) (24, -2.17377483844757080078e-01) (25, -3.51076960563659667969e-01) (26, -3.39080542325973510742e-02) (27, 1.49526193737983703613e-01) (28, -2.66334861516952514648e-02) (29, -1.88218399882316589355e-01) (30, -5.03169484436511993408e-02) (31, 5.64212948083877563477e-02) (32, -2.14507788419723510742e-01) (33, -3.95710378885269165039e-01) (34, -1.48812770843505859375e-01) (35, 1.45668759942054748535e-01) (36, 1.39259561896324157715e-01) (37, -6.71491548418998718262e-02) (38, 1.08301185071468353271e-01) (39, 1.04101978242397308350e-01) (40, 2.01273593902587890625e+01) (41, 9.98700141906738281250e-01) (42, 2.40660619735717773438e+00) (43, -4.49944436550140380859e-01) (44, -1.74759298563003540039e-01) (45, 2.78426744043827056885e-02) (46, -3.91898810863494873047e-01) (47, 1.99182868003845214844e-01) (48, 3.95006256103515625000e+01) (49, 7.26660728454589843750e+00) (50, 2.62508654594421386719e+00) (51, -6.45452260971069335938e-01) (52, -5.78172445297241210938e-01) (53, -3.72080147266387939453e-01) (54, -1.47538632154464721680e-01) (55, -1.31271705031394958496e-01) (56, -5.57359962463378906250e+01) (57, 6.27586171030998229980e-02) (58, 2.93149769306182861328e-01) (59, 2.31089532375335693359e-01) (60, 1.79578423500061035156e-01) (61, -2.44559928774833679199e-01) (62, -1.54687851667404174805e-01) (63, 1.01131737232208251953e-01) (64, -5.60268592834472656250e+01) (65, 8.47531408071517944336e-02) (66, 9.32283990550786256790e-04) (67, 1.79536908864974975586e-01) (68, -4.07829955220222473145e-02) (69, 4.61857542395591735840e-02) (70, 2.02194690704345703125e-01) (71, 4.80611741542816162109e-01) (72, -5.60396270751953125000e+01) (73, -2.01970506459474563599e-02) (74, 1.24491900205612182617e-01) (75, -2.77385357767343521118e-02) (76, 2.48633608222007751465e-01) (77, 1.00876897573471069336e-01) (78, 3.72969716787338256836e-01) (79, 4.25520658493041992188e-01) (80, -2.33981933593750000000e+02) (81, 9.07242894172668457031e-01) (82, 1.23882032930850982666e-01) (83, -3.62295329570770263672e-01) (84, -7.87780404090881347656e-01) (85, -6.46934032440185546875e-01) (86, 7.19669833779335021973e-02) (87, -5.03791379928588867188e+00) (88, -3.88964630126953125000e+02) (89, 7.21486032009124755859e-01) (90, 9.86988842487335205078e-02) (91, 7.56534337997436523438e-02) (92, 1.69334307312965393066e-01) (93, -7.81407475471496582031e-01) (94, -2.02533197402954101563e+00) (95, -9.12661743164062500000e+00) (96, -3.05865112304687500000e+02) (97, 1.46365070343017578125e+00) (98, -7.09983646869659423828e-01) (99, 1.35162875056266784668e-01) (100, -5.52075266838073730469e-01) (101, -1.56810224056243896484e+00) (102, -4.63658630847930908203e-01) (103, 3.65255661010742187500e+01) (104, -6.39033555984497070313e-01) (105, 7.09189400076866149902e-02) (106, 3.63265611231327056885e-02) (107, 1.36837467551231384277e-01) (108, -6.86016559600830078125e-01) (109, -6.42988085746765136719e-01) (110, -1.55022227764129638672e+00) (111, 1.93067550659179687500e+01) (112, -4.79308929443359375000e+01) (113, -2.56245553493499755859e-01) (114, -2.17954844236373901367e-01) (115, 3.29492777585983276367e-01) (116, -6.36750221252441406250e-01) (117, -1.29762086868286132813e+01) (118, -2.57161927223205566406e+00) (119, 1.37016525268554687500e+01) (120, -3.05745964050292968750e+01) (121, 2.45228797197341918945e-01) (122, -1.07732735574245452881e-01) (123, -4.24696475267410278320e-01) (124, -3.15053558349609375000e+01) (125, -3.13565502166748046875e+01) (126, 6.91390931606292724609e-01) (127, 1.37620954513549804688e+01) (128, -1.08720169067382812500e+01) (129, 7.27130293846130371094e-01) (130, 3.26615311205387115479e-02) (131, -1.16513825953006744385e-01) (132, -1.23980760574340820313e+00) (133, -5.22847354412078857422e-01) (134, 7.25445806980133056641e-01) (135, 3.28766441345214843750e+01) (136, -3.04904174804687500000e+00) (137, 9.28987786173820495605e-02) (138, 2.34630942344665527344e-01) (139, -7.03681588172912597656e-01) (140, -8.51943850517272949219e-01) (141, -6.53038024902343750000e-01) (142, 4.52665835618972778320e-01) (143, 5.83443117141723632813e+00) (144, -5.02751541137695312500e+00) (145, 4.19149458408355712891e-01) (146, 8.14205929636955261230e-02) (147, -6.54426217079162597656e-01) (148, -7.60806143283843994141e-01) (149, -3.14148217439651489258e-01) (150, -5.64043968915939331055e-02) (151, 4.64119482040405273438e+00) (152, -4.40795040130615234375e+00) (153, 2.31764182448387145996e-01) (154, 1.59920021891593933105e-01) (155, -2.49559879302978515625e-01) (156, -7.33195960521697998047e-01) (157, -5.42864024639129638672e-01) (158, 3.40935170650482177734e-01) (159, 4.42436122894287109375e+00) (160, -4.17546752929687500000e+02) (161, 5.64290881156921386719e-02) (162, 2.65388697385787963867e-01) (163, 1.03869184851646423340e-01) (164, -1.80747151374816894531e-01) (165, -2.65943050384521484375e-01) (166, 3.60998630523681640625e-01) (167, 9.94735260009765625000e+01) (168, -1.26382064819335937500e+02) (169, -8.28042700886726379395e-02) (170, 1.16458185017108917236e-01) (171, -1.15559123456478118896e-01) (172, 9.82140451669692993164e-02) (173, 1.97562411427497863770e-01) (174, -1.62297401428222656250e+01) (175, 9.73750129342079162598e-02) (176, -4.09699592590332031250e+01) (177, -2.07006558775901794434e-01) (178, 3.16962748765945434570e-01) (179, 2.35883638262748718262e-01) (180, 8.29096138477325439453e-01) (181, -8.36971342563629150391e-01) (182, -2.96858005523681640625e+01) (183, -1.40673410892486572266e+00) (184, -9.87560058593750000000e+02) (185, -9.11739990115165710449e-02) (186, -7.50410914421081542969e-01) (187, -2.27250650525093078613e-01) (188, -1.70755004882812500000e+01) (189, -1.61935405731201171875e+01) (190, 1.03373050689697265625e+00) (191, 8.06847610473632812500e+01) (192, -1.57823038101196289063e+01) (193, -1.65188983082771301270e-01) (194, -2.36053243279457092285e-02) (195, -1.29552790895104408264e-04) (196, 1.56893897801637649536e-02) (197, 1.35109257698059082031e+00) (198, 1.08509933948516845703e+00) (199, 5.61169204711914062500e+01) (200, 1.34681940078735351563e-01) (201, 1.43800616264343261719e-01) (202, -5.66267222166061401367e-02) (203, 1.05119720101356506348e-02) (204, -2.85016689449548721313e-02) (205, 1.21473915874958038330e-01) (206, -1.87060028314590454102e-01) (207, -2.00976043939590454102e-01) (208, 1.96956191211938858032e-02) (209, 1.39129266142845153809e-01) (210, 3.11336144804954528809e-02) (211, -2.90753971785306930542e-02) (212, 1.39504512771964073181e-02) (213, -1.11716194078326225281e-02) (214, 7.20070973038673400879e-02) (215, -2.00473815202713012695e-01) (216, 8.99348929524421691895e-02) (217, 1.50713813491165637970e-03) (218, 1.19939804077148437500e-01) (219, -2.09348812699317932129e-01) (220, 1.54087230563163757324e-01) (221, -2.96850409358739852905e-03) (222, -1.18117399513721466064e-01) (223, -9.45046320557594299316e-02) (224, 4.80403378605842590332e-02) (225, -1.49249598383903503418e-01) (226, 1.48158520460128784180e-01) (227, -5.15768676996231079102e-02) (228, 6.36452734470367431641e-02) (229, -2.17458173632621765137e-01) (230, -4.62990254163742065430e-02) (231, -1.01145759224891662598e-01) (232, -1.45206898450851440430e-02) (233, -1.04742877185344696045e-01) (234, 3.95158641040325164795e-02) (235, -1.86269178986549377441e-01) (236, -1.92629054188728332520e-01) (237, -1.41005530953407287598e-01) (238, -1.78171545267105102539e-01) (239, -5.88728263974189758301e-02) (240, -9.84440371394157409668e-02) (241, -1.28843441605567932129e-01) (242, -2.07664266228675842285e-01) (243, -2.10756525397300720215e-01) (244, -2.13258966803550720215e-01) (245, -2.19638884067535400391e-01) (246, 1.54371902346611022949e-01) (247, 5.37004284560680389404e-02) (248, 7.50627517700195312500e-02) (249, -7.37776011228561401367e-02) (250, 7.22826365381479263306e-03) (251, 1.19984664022922515869e-01) (252, -6.31208270788192749023e-02) (253, 1.53285488486289978027e-01) (254, -9.50544476509094238281e-02) (255, -1.59080222249031066895e-01) (256, -1.20579324662685394287e-01) (0, 6.97562873363494873047e-01) (1, 5.46444416046142578125e-01) (2, 4.12545412778854370117e-01) (3, 3.67375493049621582031e-01) (4, 3.31945300102233886719e-01) (5, 4.72006320953369140625e-01) (6, 6.13339662551879882813e-01) (7, 4.06478941440582275391e-01) (8, 5.15975594520568847656e-01) (9, 4.65597212314605712891e-01) (10, 6.44674301147460937500e-01) (11, 5.33651471138000488281e-01) (12, 1.32687250152230262756e-02) (13, 3.70236217975616455078e-01) (14, 6.31125211715698242188e-01) (15, 3.98556530475616455078e-01) (16, 1.07461392879486083984e+00) (17, 9.67777609825134277344e-01) (18, 9.85753655433654785156e-01) (19, 9.15209174156188964844e-01) (20, 1.04858386516571044922e+00) (21, 6.13742470741271972656e-01) (22, 4.55294907093048095703e-01) (23, 4.94772464036941528320e-01) (24, 9.86323118209838867188e-01) (25, 2.08843573927879333496e-01) (26, 5.31436920166015625000e-01) (27, 3.45947206020355224609e-01) (28, 4.37774002552032470703e-01) (29, 6.78441643714904785156e-01) (30, 1.69439733028411865234e+00) (31, 2.05674409866333007813e+00) (32, 7.74758756160736083984e-01) (33, 1.01788532733917236328e+00) (34, -8.04131757467985153198e-03) (35, 3.39038074016571044922e-01) (36, 1.16513657569885253906e+00) (37, 5.05272746086120605469e-01) (38, 1.25486719608306884766e+00) (39, 1.45722830295562744141e+00) (40, 2.78150844573974609375e+00) (41, 3.19210857152938842773e-01) (42, -1.83710441589355468750e+01) (43, -1.59693059921264648438e+01) (44, -2.88966774940490722656e-01) (45, -2.63847112655639648438e-01) (46, 9.13865804672241210938e-01) (47, 5.55063724517822265625e-01) (48, 7.17356967926025390625e+00) (49, 6.33726537227630615234e-01) (50, -1.84182109832763671875e+01) (51, -3.60802936553955078125e+00) (52, -1.57179796695709228516e+00) (53, -5.39054751396179199219e-01) (54, 3.98372560739517211914e-02) (55, 7.50376582145690917969e-01) (56, 8.16860675811767578125e-01) (57, 1.39842510223388671875e-01) (58, -4.89567786455154418945e-01) (59, 2.16595292091369628906e-01) (60, 3.38724911212921142578e-01) (61, 2.08595320582389831543e-01) (62, 9.84831094741821289063e-01) (63, 1.38960063457489013672e+00) (64, 7.30367481708526611328e-01) (65, 4.59741115570068359375e-01) (66, -3.96416217088699340820e-01) (67, 2.79469192028045654297e-01) (68, 3.00431758165359497070e-01) (69, 8.65316912531852722168e-02) (70, 1.90111327171325683594e+00) (71, 4.05975723266601562500e+00) (72, 6.53219580650329589844e-01) (73, 1.73718601465225219727e-01) (74, -4.59887087345123291016e-01) (75, 2.87288278341293334961e-01) (76, 1.57206922769546508789e-01) (77, 6.20626062154769897461e-02) (78, 1.86036527156829833984e+00) (79, 2.36077332496643066406e+00) (80, 1.80897116661071777344e+00) (81, 4.43133741617202758789e-01) (82, -2.55579277873039245605e-02) (83, -3.22147868573665618896e-02) (84, -4.77202117443084716797e-01) (85, 3.14474403858184814453e-02) (86, 1.83477249145507812500e+01) (87, 3.76588487625122070313e+00) (88, 2.11740088462829589844e+00) (89, 3.96283924579620361328e-01) (90, -6.20193839073181152344e-01) (91, -6.37688517570495605469e-01) (92, -1.86435226351022720337e-02) (93, 5.40775203704833984375e+00) (94, 1.69413089752197265625e+00) (95, -8.00210666656494140625e+00) (96, 8.50234985351562500000e-01) (97, 1.82989150285720825195e-01) (98, -4.59392845630645751953e-01) (99, -3.68977963924407958984e-01) (100, 5.53080976009368896484e-01) (101, 1.17202293872833251953e+00) (102, 2.70071625709533691406e+00) (103, 4.97031211853027343750e+00) (104, 3.46702098846435546875e+00) (105, 4.34115052223205566406e-01) (106, -2.74693548679351806641e-01) (107, -3.32885146141052246094e-01) (108, 2.67531782388687133789e-01) (109, 1.46408820152282714844e+00) (110, 2.45492562651634216309e-01) (111, -4.07238340377807617188e+00) (112, 9.84824895858764648438e-01) (113, 4.79350537061691284180e-02) (114, -6.83564126491546630859e-01) (115, -9.59513187408447265625e-02) (116, -2.67563730478286743164e-01) (117, -3.79642963409423828125e-01) (118, 5.37463712692260742188e+00) (119, -1.37647895812988281250e+01) (120, -3.34160709381103515625e+00) (121, -9.05674934387207031250e+00) (122, -8.16898286342620849609e-01) (123, -2.87619590759277343750e-01) (124, -5.71147263050079345703e-01) (125, -7.03720569610595703125e-01) (126, 4.84344024658203125000e+01) (127, -2.36365556716918945313e+00) (128, 1.39119124412536621094e+00) (129, -8.48363041877746582031e-01) (130, -2.66090899705886840820e-01) (131, -6.38819158077239990234e-01) (132, -3.49411189556121826172e-01) (133, -2.52172279357910156250e+00) (134, 3.54785675048828125000e+02) (135, -4.87538671493530273438e+00) (136, 5.71215033531188964844e-01) (137, 2.47234880924224853516e-01) (138, -5.35091280937194824219e-01) (139, -9.22005698084831237793e-02) (140, 4.12660352885723114014e-02) (141, -2.21906378865242004395e-01) (142, 2.04526519775390625000e+00) (143, -1.04033098220825195313e+01) (144, 6.20271563529968261719e-01) (145, 4.89314079284667968750e-01) (146, -1.23782384395599365234e+00) (147, -3.62170279026031494141e-01) (148, 1.51947230100631713867e-01) (149, -5.05986166000366210938e+00) (150, 1.04164636135101318359e+00) (151, -4.43996162414550781250e+01) (152, 3.63989979028701782227e-01) (153, 4.70455765724182128906e-01) (154, -1.12962448596954345703e+00) (155, 1.12358152866363525391e-01) (156, -3.90073917806148529053e-02) (157, -9.95504951477050781250e+00) (158, 7.93643236160278320313e+00) (159, -1.52381401062011718750e+01) (160, 7.30508387088775634766e-01) (161, 4.13295626640319824219e-01) (162, -1.01020324230194091797e+00) (163, 3.61323803663253784180e-01) (164, 4.40513014793395996094e-01) (165, 7.73976981639862060547e-01) (166, 8.64554786682128906250e+00) (167, -1.52265119552612304688e+01) (168, 1.71559858322143554688e+00) (169, 6.39454364776611328125e-01) (170, -1.36620914936065673828e+00) (171, 4.29254859685897827148e-01) (172, -1.52212660759687423706e-02) (173, 8.88057708740234375000e-01) (174, 1.53790009021759033203e+00) (175, 3.71702766418457031250e+00) (176, 2.56640958786010742188e+00) (177, 1.41338601708412170410e-01) (178, -1.05090272426605224609e+00) (179, -1.41571894288063049316e-01) (180, -7.33008742332458496094e-01) (181, -7.05826804041862487793e-02) (182, 2.30962014198303222656e+00) (183, 7.24062133789062500000e+02) (184, 7.89653301239013671875e+00) (185, -2.60671496391296386719e-01) (186, -1.24580459594726562500e+01) (187, -1.50452077388763427734e+00) (188, -1.10085129737854003906e+00) (189, -3.88199128210544586182e-02) (190, -5.66943138837814331055e-02) (191, -1.83341995239257812500e+02) (192, 1.98736000061035156250e+00) (193, 6.70354425907135009766e-01) (194, -2.08652639389038085938e+00) (195, -2.22785905003547668457e-01) (196, -5.14780133962631225586e-02) (197, 1.05288401246070861816e-01) (198, 9.35061335563659667969e-01) (199, 2.07451343536376953125e+00) (200, 1.45765137672424316406e+00) (201, 1.65272021293640136719e+00) (202, 1.60661435127258300781e+00) (203, 6.31711125373840332031e-01) (204, 1.05194711685180664063e+00) (205, 1.75378608703613281250e+00) (206, 1.49719405174255371094e+00) (207, 1.44880151748657226563e+00) (208, 1.52969670295715332031e+00) (209, 1.63180851936340332031e+00) (210, 1.68197941780090332031e+00) (211, 3.51315319538116455078e-01) (212, 4.07508254051208496094e-01) (213, 1.12766385078430175781e+00) (214, 1.10344541072845458984e+00) (215, 1.52585244178771972656e+00) (216, 1.66073918342590332031e+00) (217, 1.64745807647705078125e+00) (218, 1.52277541160583496094e+00) (219, 6.23569011688232421875e-01) (220, 6.33423626422882080078e-01) (221, 8.42226922512054443359e-01) (222, 1.02190256118774414063e+00) (223, 1.46678256988525390625e+00) (224, 1.70055866241455078125e+00) (225, 1.48545837402343750000e+00) (226, 4.86154258251190185547e-01) (227, 1.61264196038246154785e-01) (228, 5.12476563453674316406e-01) (229, 8.40591192245483398438e-01) (230, 2.24406766891479492188e+00) (231, 1.69072461128234863281e+00) (232, 1.67789006233215332031e+00) (233, 3.22180598974227905273e-01) (234, 3.49972546100616455078e-01) (235, 2.04770103096961975098e-01) (236, 1.28899350762367248535e-01) (237, 5.69654166698455810547e-01) (238, 2.27159452438354492188e+00) (239, 1.57137632369995117188e+00) (240, 5.82499682903289794922e-01) (241, 1.14921867847442626953e+00) (242, 5.36923527717590332031e-01) (243, 2.95126587152481079102e-01) (244, 5.54354846477508544922e-01) (245, 1.16515135765075683594e+00) (246, 5.08256494998931884766e-01) (247, 9.28008675575256347656e-01) (248, 1.06970214843750000000e+00) (249, 1.06223142147064208984e+00) (250, 1.12615954875946044922e+00) (251, 1.03232407569885253906e+00) (252, 9.52587246894836425781e-01) (253, 1.07760000228881835938e+00) (254, 1.23864698410034179688e+00) (255, 1.16660141944885253906e+00) (256, 1.09146714210510253906e+00) (0, 1.37745141983032226563e-02) (1, -7.17968121170997619629e-02) (2, -2.51826047897338867188e-01) (3, -1.00117109715938568115e-01) (4, -9.42211076617240905762e-02) (5, 1.76045130938291549683e-02) (6, -2.41404131054878234863e-01) (7, -8.01982209086418151855e-02) (8, -1.48932963609695434570e-01) (9, 1.07475683093070983887e-01) (10, -1.05256274342536926270e-01) (11, -2.66413480043411254883e-01) (12, -1.95307493209838867188e-01) (13, -1.40110239386558532715e-01) (14, -2.52486998215317726135e-03) (15, -4.25151064991950988770e-02) (16, 1.20668515563011169434e-01) (17, -1.83115616440773010254e-01) (18, -1.75364151597023010254e-01) (19, -2.48923689126968383789e-01) (20, -1.93918839097023010254e-01) (21, 8.79169926047325134277e-02) (22, -1.47556528449058532715e-01) (23, -1.22959412634372711182e-01) (24, 7.76181146502494812012e-02) (25, -4.50175404548645019531e-02) (26, 1.03798367083072662354e-01) (27, 5.97798153758049011230e-02) (28, -2.38279178738594055176e-01) (29, -1.80521741509437561035e-01) (30, 7.90630519390106201172e-01) (31, 5.85622370243072509766e-01) (32, 5.63939869403839111328e-01) (33, -1.31638571619987487793e-01) (34, -1.92234292626380920410e-01) (35, 9.21528711915016174316e-02) (36, -1.97922781109809875488e-01) (37, -2.24930882453918457031e-01) (38, 8.26677858829498291016e-01) (39, 7.64922499656677246094e-01) (40, 1.45615458488464355469e+00) (41, 5.07451176643371582031e-01) (42, -5.40021181106567382813e-01) (43, -2.02381730079650878906e+00) (44, -1.13704943656921386719e+00) (45, -8.85488033294677734375e-01) (46, -4.94050741195678710938e+00) (47, 6.98846638202667236328e-01) (48, 2.05483722686767578125e+00) (49, 2.34173372387886047363e-01) (50, -3.32135748863220214844e+00) (51, -2.33112955093383789063e+00) (52, -8.86536300182342529297e-01) (53, -1.03371834754943847656e+00) (54, -4.87296628952026367188e+00) (55, 5.26261806488037109375e-01) (56, 8.28424394130706787109e-01) (57, 9.76864635944366455078e-01) (58, 8.08935426175594329834e-03) (59, -2.08668649196624755859e-01) (60, -2.67634820193052291870e-02) (61, -1.36617571115493774414e-02) (62, -3.76991838216781616211e-01) (63, 8.23149383068084716797e-02) (64, 7.07604467868804931641e-01) (65, 6.05428576469421386719e-01) (66, 1.69036716222763061523e-01) (67, -2.36708208918571472168e-01) (68, -3.16680401563644409180e-01) (69, -6.18005134165287017822e-02) (70, 6.72729372978210449219e-01) (71, 9.94653582572937011719e-01) (72, 7.82287001609802246094e-01) (73, 7.85368621349334716797e-01) (74, -4.68300580978393554688e-02) (75, -1.59772232174873352051e-01) (76, -1.30828455090522766113e-01) (77, 2.63098701834678649902e-02) (78, 8.88451755046844482422e-01) (79, 1.16429436206817626953e+00) (80, 1.18735134601593017578e+00) (81, 2.54727649688720703125e+00) (82, -5.19527912139892578125e-01) (83, -8.23992788791656494141e-01) (84, -8.82869541645050048828e-01) (85, -2.68531918525695800781e-01) (86, 2.04561710357666015625e+00) (87, 1.33192567825317382813e+01) (88, 2.34797739982604980469e+00) (89, 9.18690919876098632813e-01) (90, -5.93917489051818847656e-01) (91, -2.80115866661071777344e+00) (92, -8.91571879386901855469e-01) (93, 1.61910638213157653809e-01) (94, 3.58848261833190917969e+00) (95, 3.26307988166809082031e+00) (96, 2.16176176071166992188e+00) (97, 1.76953780651092529297e+00) (98, -4.30019408464431762695e-01) (99, -1.05155277252197265625e+00) (100, -7.31339573860168457031e-01) (101, 7.21805617213249206543e-02) (102, 1.62805330753326416016e+00) (103, 2.16590850830078125000e+02) (104, 2.00760197639465332031e+00) (105, 8.02506864070892333984e-01) (106, -6.11794233322143554688e-01) (107, -7.17704296112060546875e-01) (108, -1.01932811737060546875e+00) (109, 1.15198686718940734863e-01) (110, 1.61466717720031738281e+00) (111, -3.52677536010742187500e+01) (112, 6.92671632766723632813e+00) (113, 5.20599007606506347656e-01) (114, -1.69260597229003906250e+00) (115, -8.86041760444641113281e-01) (116, -9.33686792850494384766e-01) (117, -1.22471642494201660156e+00) (118, 5.96921491622924804688e+00) (119, 2.90550575256347656250e+01) (120, 2.10808920860290527344e+00) (121, 6.38296365737915039063e-01) (122, -1.77112162113189697266e+00) (123, -1.01155447959899902344e+00) (124, -9.53718483448028564453e-01) (125, -8.18525254726409912109e-01) (126, 8.42614364624023437500e+00) (127, 1.16778205871582031250e+02) (128, 2.03670954704284667969e+00) (129, 9.10319805145263671875e-01) (130, -6.32397055625915527344e-01) (131, -8.60534131526947021484e-01) (132, -6.89698517322540283203e-01) (133, 1.64775356650352478027e-01) (134, 7.05076503753662109375e+00) (135, 2.36468353271484375000e+02) (136, 1.21597468852996826172e+00) (137, 6.96550250053405761719e-01) (138, -4.12180453538894653320e-01) (139, -8.50048243999481201172e-01) (140, -8.92213046550750732422e-01) (141, 2.25496232509613037109e-01) (142, -2.30572968721389770508e-02) (143, -1.28807022094726562500e+02) (144, 2.43937993049621582031e+00) (145, 7.14026331901550292969e-01) (146, -4.02756631374359130859e-01) (147, -7.77412533760070800781e-01) (148, -4.31268095970153808594e-01) (149, 8.57897326350212097168e-02) (150, 1.08836376667022705078e+00) (151, -9.09236812591552734375e+00) (152, 2.29628872871398925781e+00) (153, 8.51894319057464599609e-01) (154, 1.29398569464683532715e-01) (155, -8.34077477455139160156e-01) (156, -7.28640973567962646484e-01) (157, -1.31002724170684814453e-01) (158, 2.04288101196289062500e+00) (159, -4.13254451751708984375e+00) (160, 8.49483847618103027344e-01) (161, 6.07802569866180419922e-01) (162, -2.70463507622480392456e-02) (163, -2.24382773041725158691e-01) (164, 5.85109402891248464584e-04) (165, -1.92463304847478866577e-02) (166, 1.98011374473571777344e+00) (167, 8.96305656433105468750e+00) (168, 1.68897461891174316406e+00) (169, 6.09186887741088867188e-01) (170, 1.37821435928344726563e-01) (171, 8.50409641861915588379e-02) (172, -6.21886074542999267578e-01) (173, -9.09475684165954589844e-02) (174, -8.96857452392578125000e+00) (175, 1.49235153198242187500e+01) (176, 2.76755619049072265625e+00) (177, 1.17231430485844612122e-02) (178, -3.13860476016998291016e-01) (179, -7.00935065746307373047e-01) (180, -4.18566435575485229492e-01) (181, -6.57444572448730468750e+00) (182, 7.22116410732269287109e-01) (183, 2.65933456420898437500e+01) (184, 2.87098369598388671875e+01) (185, -3.39475348591804504395e-02) (186, -1.01889920234680175781e+00) (187, -1.27115106582641601563e+01) (188, -3.06265521049499511719e+00) (189, -4.47678852081298828125e+00) (190, 1.43666231632232666016e+00) (191, -3.63698234558105468750e+01) (192, 1.64075291156768798828e+00) (193, 3.96045297384262084961e-01) (194, -8.40734124183654785156e-01) (195, -8.18077087402343750000e-01) (196, -7.58356690406799316406e-01) (197, -8.88615250587463378906e-01) (198, -2.09376597404479980469e+00) (199, 1.25780642032623291016e+00) (200, 8.85180115699768066406e-01) (201, 9.13121998310089111328e-01) (202, 7.52233386039733886719e-01) (203, -2.66703795641660690308e-02) (204, -1.42844632267951965332e-01) (205, 3.51218879222869873047e-03) (206, 9.10610258579254150391e-01) (207, 7.81301200389862060547e-01) (208, 3.18597167730331420898e-01) (209, 1.86468318104743957520e-01) (210, 1.91009297966957092285e-01) (211, -3.18461507558822631836e-02) (212, -4.38456907868385314941e-02) (213, 3.09800356626510620117e-01) (214, 1.27586185932159423828e-01) (215, 2.82883822917938232422e-01) (216, 3.31377893686294555664e-01) (217, 2.37383857369422912598e-01) (218, 2.81918365508317947388e-02) (219, 1.13332062959671020508e-01) (220, 7.07173049449920654297e-02) (221, 1.54820099472999572754e-01) (222, 1.09153501689434051514e-01) (223, 3.39854031801223754883e-01) (224, 1.00762642920017242432e-01) (225, 7.25033879280090332031e-02) (226, -7.26786702871322631836e-02) (227, 3.74897718429565429688e-02) (228, -2.08951577544212341309e-01) (229, -1.72295525670051574707e-01) (230, 3.25230062007904052734e-01) (231, 2.61983871459960937500e-01) (232, 2.31133833527565002441e-01) (233, -4.97172474861145019531e-02) (234, -1.96555569767951965332e-01) (235, -5.51371946930885314941e-02) (236, -1.17972664535045623779e-01) (237, 3.90951931476593017578e-02) (238, 3.28245222568511962891e-01) (239, -2.19684943556785583496e-01) (240, 2.40742433816194534302e-02) (241, 8.77461060881614685059e-02) (242, -1.24125592410564422607e-02) (243, -2.05912683159112930298e-02) (244, 8.78379121422767639160e-02) (245, -1.17582038044929504395e-01) (246, 1.10341340303421020508e-01) (247, -2.31931537389755249023e-01) (248, -9.44804549217224121094e-02) (249, -1.79587796330451965332e-01) (250, -8.35551545023918151855e-02) (251, -1.61179587244987487793e-01) (252, 4.24580276012420654297e-02) (253, -8.72538685798645019531e-02) (254, -1.22385680675506591797e-01) (255, -2.20747385174036026001e-03) (256, -3.30424495041370391846e-02) (0, -7.57662057876586914063e-02) (1, 7.40388482809066772461e-02) (2, 8.57254862785339355469e-03) (3, 9.51746404170989990234e-02) (4, 2.85128235816955566406e-01) (5, 2.65444815158843994141e-01) (6, 1.34219199419021606445e-01) (7, 2.69118815660476684570e-01) (8, 1.36054381728172302246e-01) (9, 2.07315221428871154785e-01) (10, -3.79318580962717533112e-03) (11, -4.33064438402652740479e-03) (12, -3.40125001966953277588e-02) (13, -9.10738110542297363281e-02) (14, -2.40227603353559970856e-03) (15, 1.45461514592170715332e-01) (16, 1.81296497583389282227e-01) (17, 9.91674587130546569824e-02) (18, 1.27381905913352966309e-01) (19, 2.05934211611747741699e-01) (20, 6.84829503297805786133e-02) (21, -5.96448592841625213623e-02) (22, 1.15965515375137329102e-01) (23, 2.97724828124046325684e-03) (24, 3.30256447196006774902e-02) (25, 2.57456153631210327148e-01) (26, 2.34337210655212402344e-01) (27, 1.35401979088783264160e-01) (28, 2.00465455651283264160e-01) (29, 2.66124367713928222656e-01) (30, -7.48791992664337158203e-02) (31, 1.93208992481231689453e-01) (32, 1.63604333996772766113e-01) (33, -4.48754839599132537842e-02) (34, -5.38925603032112121582e-02) (35, 1.34596318006515502930e-01) (36, 5.96789158880710601807e-02) (37, 7.23497867584228515625e-02) (38, -1.13537907600402832031e-02) (39, -8.03479850292205810547e-02) (40, 2.67608016729354858398e-01) (41, -1.40210434794425964355e-01) (42, 2.23354172706604003906e+00) (43, -1.89430430531501770020e-01) (44, -8.10957029461860656738e-02) (45, -2.41954624652862548828e-01) (46, 1.38172730803489685059e-01) (47, 3.41259658336639404297e-01) (48, 1.44307807087898254395e-01) (49, -2.03847572207450866699e-01) (50, 3.50448489189147949219e-01) (51, -8.25372040271759033203e-01) (52, -1.12484931945800781250e+00) (53, -9.43716838955879211426e-02) (54, 2.17542871832847595215e-01) (55, 3.42807263135910034180e-01) (56, -9.58115875720977783203e-01) (57, 2.26179733872413635254e-01) (58, 1.85526758432388305664e-02) (59, -2.10706457495689392090e-01) (60, -1.92329153418540954590e-01) (61, -1.02818354964256286621e-01) (62, 5.69936893880367279053e-02) (63, 2.76521835476160049438e-02) (64, -1.26288807392120361328e+00) (65, 2.32817187905311584473e-01) (66, 1.61207839846611022949e-01) (67, -2.52587735652923583984e-01) (68, -2.49784827232360839844e-01) (69, -9.67095494270324707031e-02) (70, -4.31613251566886901855e-02) (71, 4.17767018079757690430e-02) (72, -5.69338202476501464844e-01) (73, 3.56736630201339721680e-02) (74, 2.50749755650758743286e-02) (75, -2.20236659049987792969e-01) (76, -2.69584834575653076172e-01) (77, 1.41713067889213562012e-01) (78, 3.14191766083240509033e-02) (79, 1.98063328862190246582e-01) (80, 2.83548742532730102539e-01) (81, 2.04090535640716552734e-01) (82, -2.70611077547073364258e-01) (83, -7.86423146724700927734e-01) (84, -5.55670499801635742188e-01) (85, -1.26143053174018859863e-01) (86, 3.32167923450469970703e-01) (87, 2.08749413490295410156e-01) (88, 1.18077881634235382080e-01) (89, -7.99315124750137329102e-02) (90, -2.05839037895202636719e-01) (91, -8.02867040038108825684e-02) (92, -7.63331770896911621094e-01) (93, -1.28548651933670043945e-01) (94, 2.43893250823020935059e-01) (95, 1.02325344085693359375e+00) (96, -1.39725342392921447754e-01) (97, 2.37796157598495483398e-02) (98, -1.82060286402702331543e-01) (99, -7.23809778690338134766e-01) (100, -3.30246448516845703125e-01) (101, -1.49784475564956665039e-01) (102, 2.20606073737144470215e-01) (103, 6.27163827419281005859e-01) (104, -1.76756177097558975220e-02) (105, 3.11338827013969421387e-02) (106, -7.10920616984367370605e-02) (107, -6.52655124664306640625e-01) (108, -5.85874021053314208984e-01) (109, 2.04404234886169433594e-01) (110, 1.00204989314079284668e-01) (111, 4.14294272661209106445e-01) (112, 5.98603002727031707764e-02) (113, 1.29243642091751098633e-01) (114, -1.91953107714653015137e-01) (115, -6.79856657981872558594e-01) (116, 2.06321850419044494629e-01) (117, -1.40803545713424682617e-01) (118, 1.93526536226272583008e-01) (119, 5.23845434188842773438e-01) (120, 2.91388511657714843750e-01) (121, 1.70262381434440612793e-01) (122, -2.75728285312652587891e-01) (123, -8.98944199085235595703e-01) (124, 1.35219752788543701172e-01) (125, 2.31714263558387756348e-01) (126, -1.54177732765674591064e-02) (127, 8.20726633071899414063e-01) (128, 1.42862781882286071777e-01) (129, 2.03904166817665100098e-01) (130, -2.67831206321716308594e-01) (131, -1.44485151767730712891e+00) (132, -7.26554751396179199219e-01) (133, 1.70838907361030578613e-02) (134, 1.77012324333190917969e-01) (135, 4.24703985452651977539e-01) (136, 6.72155395150184631348e-02) (137, 3.03444974124431610107e-02) (138, -1.89862236380577087402e-01) (139, -1.02662527561187744141e+00) (140, -4.47193145751953125000e-01) (141, 2.02976018190383911133e-01) (142, -1.10716283321380615234e-01) (143, 3.10989797115325927734e-01) (144, -1.40457451343536376953e-01) (145, 1.06674902141094207764e-01) (146, -3.65711361169815063477e-01) (147, -3.79883408546447753906e-01) (148, -1.45787015557289123535e-01) (149, -1.48331476375460624695e-02) (150, -2.36637983471155166626e-02) (151, 3.93799453973770141602e-01) (152, -6.70873001217842102051e-02) (153, 1.33150726556777954102e-01) (154, -8.70542749762535095215e-02) (155, -6.25278711318969726563e-01) (156, -6.48474156856536865234e-01) (157, 1.35154590010643005371e-01) (158, 1.87251538038253784180e-01) (159, 1.84486016631126403809e-01) (160, 8.96834880113601684570e-02) (161, 1.03847414255142211914e-01) (162, -8.56542810797691345215e-02) (163, -1.64814546704292297363e-01) (164, -2.64835748821496963501e-02) (165, 1.94170832633972167969e-01) (166, -1.50208473205566406250e-02) (167, 4.07272487878799438477e-01) (168, -5.35658970475196838379e-02) (169, 2.02348455786705017090e-01) (170, -9.05344188213348388672e-02) (171, -1.90072610974311828613e-01) (172, -6.96704566478729248047e-01) (173, -2.90603011846542358398e-01) (174, 2.97636743634939193726e-02) (175, 4.01180863380432128906e-01) (176, 1.83990880846977233887e-01) (177, 1.24005451798439025879e-01) (178, -1.33556738495826721191e-01) (179, -8.45287501811981201172e-01) (180, 3.80544334650039672852e-01) (181, -3.95705968141555786133e-01) (182, 9.15569067001342773438e-02) (183, 4.15741950273513793945e-01) (184, -1.43805158138275146484e+00) (185, 1.20849348604679107666e-01) (186, -6.16733431816101074219e-01) (187, -1.11992800235748291016e+00) (188, 1.74294129014015197754e-01) (189, -6.13823056221008300781e-01) (190, 1.43710896372795104980e-01) (191, 1.08038783073425292969e+00) (192, 2.50308424234390258789e-01) (193, 1.94278568029403686523e-01) (194, -3.41303199529647827148e-01) (195, -5.83563029766082763672e-01) (196, -6.68483614921569824219e-01) (197, -2.47709184885025024414e-01) (198, 1.84250444173812866211e-01) (199, 3.81887465715408325195e-01) (200, 2.36497849225997924805e-01) (201, 7.18004927039146423340e-02) (202, 1.76365971565246582031e-01) (203, 2.70836293697357177734e-01) (204, 4.39562462270259857178e-02) (205, 1.11863955855369567871e-01) (206, 7.58654251694679260254e-02) (207, 9.21618044376373291016e-02) (208, 7.70504847168922424316e-02) (209, 8.43502804636955261230e-02) (210, 9.31510142982006072998e-03) (211, 1.56700462102890014648e-01) (212, 2.01391920447349548340e-01) (213, 2.25720569491386413574e-01) (214, 2.73694306612014770508e-01) (215, 1.72410905361175537109e-01) (216, 1.27160400152206420898e-01) (217, 1.19286812841892242432e-01) (218, 1.75330772995948791504e-01) (219, -3.34119088947772979736e-02) (220, 8.70241820812225341797e-02) (221, 3.05737763643264770508e-01) (222, 1.74365535378456115723e-01) (223, -6.53201108798384666443e-03) (224, 2.58788794279098510742e-01) (225, 4.91568446159362792969e-02) (226, 9.83385592699050903320e-02) (227, 2.55041867494583129883e-01) (228, -4.33835200965404510498e-02) (229, 2.22851917147636413574e-01) (230, 2.47252255678176879883e-01) (231, 2.98827022314071655273e-01) (232, 1.86804026365280151367e-01) (233, 9.06973704695701599121e-02) (234, 2.23521769046783447266e-01) (235, -4.98426966369152069092e-02) (236, 1.96010217070579528809e-01) (237, 1.05263084173202514648e-01) (238, 2.37669736146926879883e-01) (239, 2.52696484327316284180e-01) (240, 1.54426824301481246948e-02) (241, -4.31775264441967010498e-02) (242, 1.92320585250854492188e-01) (243, 2.60997325181961059570e-01) (244, 8.07536824140697717667e-04) (245, -8.72083008289337158203e-02) (246, 5.71154393255710601807e-02) (247, -2.71130967885255813599e-02) (248, 2.38560825586318969727e-01) (249, 2.50231660902500152588e-02) (250, 4.77648489177227020264e-02) (251, 2.35301554203033447266e-01) (252, 2.99010127782821655273e-01) (253, 2.48253226280212402344e-01) (254, 1.21373236179351806641e-01) (255, -8.64392817020416259766e-02) (256, -1.96912009268999099731e-02) (257, 4.84082221984863281250e-01) (258, -8.24966430664062500000e-01) (259, -1.31793642044067382813e+00) (260, -2.23943305015563964844e+00) (261, 8.96079778671264648438e-01) (262, 3.89278221130371093750e+00) (263, 1.88316643238067626953e+00) (264, 2.51443803310394287109e-01) (265, 2.15195894241333007813e+00) (266, 1.13053190708160400391e+00) (267, 5.80921709537506103516e-01) (257, 1.38393664360046386719e+00) (258, 2.27205902338027954102e-01) (259, -1.20740629732608795166e-01) (260, -6.44639778137207031250e+00) (261, 9.66011524200439453125e-01) (262, 2.58313703536987304688e+00) (263, 1.12399139404296875000e+01) (264, 8.63523364067077636719e-01) (265, 1.29505249023437500000e+02) (266, 6.10132813453674316406e-01) (267, 5.82462131977081298828e-01) (257, -3.88335436582565307617e-02) (258, 4.47893351316452026367e-01) (259, 7.30008900165557861328e-01) (260, 1.05708360671997070313e+00) (261, -4.56181704998016357422e-01) (262, -2.18701910972595214844e+00) (263, -3.64057302474975585938e-01) (264, -6.29515826702117919922e-01) (265, -9.54440355300903320313e-01) (266, -3.96429109573364257813e+00) (267, -7.43648409843444824219e-01) (257, 2.03713607788085937500e+00) (258, -2.00316071510314941406e+00) (259, -1.46447920799255371094e+00) (260, -3.51849961280822753906e+00) (261, 1.91964745521545410156e+00) (262, 7.59841585159301757813e+00) (263, 3.69377303123474121094e+00) (264, -8.25709663331508636475e-04) (265, 1.27465164661407470703e+00) (266, 3.50539636611938476563e+00) (267, 1.99162587523460388184e-01) (257, -1.81870346069335937500e+01) (258, 5.60135746002197265625e+00) (259, 7.10718297958374023438e+00) (260, 3.20387001037597656250e+01) (261, 