FANN_FLO_2.1
num_layers=4
learning_rate=0.700000
connection_rate=1.000000
network_type=0
learning_momentum=0.000000
training_algorithm=2
train_error_function=1
train_stop_function=0
cascade_output_change_fraction=0.010000
quickprop_decay=-0.000100
quickprop_mu=1.750000
rprop_increase_factor=1.200000
rprop_decrease_factor=0.500000
rprop_delta_min=0.000000
rprop_delta_max=50.000000
rprop_delta_zero=0.100000
cascade_output_stagnation_epochs=12
cascade_candidate_change_fraction=0.010000
cascade_candidate_stagnation_epochs=12
cascade_max_out_epochs=150
cascade_min_out_epochs=50
cascade_max_cand_epochs=150
cascade_min_cand_epochs=50
cascade_num_candidate_groups=2
bit_fail_limit=3.49999994039535522461e-01
cascade_candidate_limit=1.00000000000000000000e+03
cascade_weight_multiplier=4.00000005960464477539e-01
cascade_activation_functions_count=10
cascade_activation_functions=3 5 7 8 10 11 14 15 16 17 
cascade_activation_steepnesses_count=4
cascade_activation_steepnesses=2.50000000000000000000e-01 5.00000000000000000000e-01 7.50000000000000000000e-01 1.00000000000000000000e+00 
layer_sizes=257 4 4 2 
scale_included=0
neurons (num_inputs, activation_function, activation_steepness)=(0, 0, 0.00000000000000000000e+00) (0, 0, 0.00000000000000000000e+00) (0, 0, 0.00000000000000000000e+00) (0, 0, 0.00000000000000000000e+00) (0, 0, 0.00000000000000000000e+00) (0, 0, 0.00000000000000000000e+00) (0, 0, 0.00000000000000000000e+00) (0, 0, 0.00000000000000000000e+00) (0, 0, 0.00000000000000000000e+00) (0, 0, 0.00000000000000000000e+00) (0, 0, 0.00000000000000000000e+00) (0, 0, 0.00000000000000000000e+00) (0, 0, 0.00000000000000000000e+00) (0, 0, 0.00000000000000000000e+00) (0, 0, 0.00000000000000000000e+00) (0, 0, 0.00000000000000000000e+00) (0, 0, 0.00000000000000000000e+00) (0, 0, 0.00000000000000000000e+00) (0, 0, 0.00000000000000000000e+00) (0, 0, 0.00000000000000000000e+00) (0, 0, 0.00000000000000000000e+00) (0, 0, 0.00000000000000000000e+00) (0, 0, 0.00000000000000000000e+00) (0, 0, 0.00000000000000000000e+00) (0, 0, 0.00000000000000000000e+00) (0, 0, 0.00000000000000000000e+00) (0, 0, 0.00000000000000000000e+00) (0, 0, 0.00000000000000000000e+00) (0, 0, 0.00000000000000000000e+00) (0, 0, 0.00000000000000000000e+00) (0, 0, 0.00000000000000000000e+00) (0, 0, 0.00000000000000000000e+00) (0, 0, 0.00000000000000000000e+00) (0, 0, 0.00000000000000000000e+00) (0, 0, 0.00000000000000000000e+00) (0, 0, 0.00000000000000000000e+00) (0, 0, 0.00000000000000000000e+00) (0, 0, 0.00000000000000000000e+00) (0, 0, 0.00000000000000000000e+00) (0, 0, 0.00000000000000000000e+00) (0, 0, 0.00000000000000000000e+00) (0, 0, 0.00000000000000000000e+00) (0, 0, 0.00000000000000000000e+00) (0, 0, 0.00000000000000000000e+00) (0, 0, 0.00000000000000000000e+00) (0, 0, 0.00000000000000000000e+00) (0, 0, 0.00000000000000000000e+00) (0, 0, 0.00000000000000000000e+00) (0, 0, 0.00000000000000000000e+00) (0, 0, 0.00000000000000000000e+00) (0, 0, 0.00000000000000000000e+00) (0, 0, 0.00000000000000000000e+00) (0, 0, 0.00000000000000000000e+00) (0, 0, 0.00000000000000000000e+00) (0, 0, 0.00000000000000000000e+00) (0, 0, 0.00000000000000000000e+00) (0, 0, 0.00000000000000000000e+00) (0, 0, 0.00000000000000000000e+00) (0, 0, 0.00000000000000000000e+00) (0, 0, 0.00000000000000000000e+00) (0, 0, 0.00000000000000000000e+00) (0, 0, 0.00000000000000000000e+00) (0, 0, 0.00000000000000000000e+00) (0, 0, 0.00000000000000000000e+00) (0, 0, 0.00000000000000000000e+00) (0, 0, 0.00000000000000000000e+00) (0, 0, 0.00000000000000000000e+00) (0, 0, 0.00000000000000000000e+00) (0, 0, 0.00000000000000000000e+00) (0, 0, 0.00000000000000000000e+00) (0, 0, 0.00000000000000000000e+00) (0, 0, 0.00000000000000000000e+00) (0, 0, 0.00000000000000000000e+00) (0, 0, 0.00000000000000000000e+00) (0, 0, 0.00000000000000000000e+00) (0, 0, 0.00000000000000000000e+00) (0, 0, 0.00000000000000000000e+00) (0, 0, 0.00000000000000000000e+00) (0, 0, 0.00000000000000000000e+00) (0, 0, 0.00000000000000000000e+00) (0, 0, 0.00000000000000000000e+00) (0, 0, 0.00000000000000000000e+00) (0, 0, 0.00000000000000000000e+00) (0, 0, 0.00000000000000000000e+00) (0, 0, 0.00000000000000000000e+00) (0, 0, 0.00000000000000000000e+00) (0, 0, 0.00000000000000000000e+00) (0, 0, 0.00000000000000000000e+00) (0, 0, 0.00000000000000000000e+00) (0, 0, 0.00000000000000000000e+00) (0, 0, 0.00000000000000000000e+00) (0, 0, 0.00000000000000000000e+00) (0, 0, 0.00000000000000000000e+00) (0, 0, 0.00000000000000000000e+00) (0, 0, 0.00000000000000000000e+00) (0, 0, 0.00000000000000000000e+00) (0, 0, 0.00000000000000000000e+00) (0, 0, 0.00000000000000000000e+00) (0, 0, 0.00000000000000000000e+00) (0, 0, 0.00000000000000000000e+00) (0, 0, 0.00000000000000000000e+00) (0, 0, 0.00000000000000000000e+00) (0, 0, 0.00000000000000000000e+00) (0, 0, 0.00000000000000000000e+00) (0, 0, 0.00000000000000000000e+00) (0, 0, 0.00000000000000000000e+00) (0, 0, 0.00000000000000000000e+00) (0, 0, 0.00000000000000000000e+00) (0, 0, 0.00000000000000000000e+00) (0, 0, 0.00000000000000000000e+00) (0, 0, 0.00000000000000000000e+00) (0, 0, 0.00000000000000000000e+00) (0, 0, 0.00000000000000000000e+00) (0, 0, 0.00000000000000000000e+00) (0, 0, 0.00000000000000000000e+00) (0, 0, 0.00000000000000000000e+00) (0, 0, 0.00000000000000000000e+00) (0, 0, 0.00000000000000000000e+00) (0, 0, 0.00000000000000000000e+00) (0, 0, 0.00000000000000000000e+00) (0, 0, 0.00000000000000000000e+00) (0, 0, 0.00000000000000000000e+00) (0, 0, 0.00000000000000000000e+00) (0, 0, 0.00000000000000000000e+00) (0, 0, 0.00000000000000000000e+00) (0, 0, 0.00000000000000000000e+00) (0, 0, 0.00000000000000000000e+00) (0, 0, 0.00000000000000000000e+00) (0, 0, 0.00000000000000000000e+00) (0, 0, 0.00000000000000000000e+00) (0, 0, 0.00000000000000000000e+00) (0, 0, 0.00000000000000000000e+00) (0, 0, 0.00000000000000000000e+00) (0, 0, 0.00000000000000000000e+00) (0, 0, 0.00000000000000000000e+00) (0, 0, 0.00000000000000000000e+00) (0, 0, 0.00000000000000000000e+00) (0, 0, 0.00000000000000000000e+00) (0, 0, 0.00000000000000000000e+00) (0, 0, 0.00000000000000000000e+00) (0, 0, 0.00000000000000000000e+00) (0, 0, 0.00000000000000000000e+00) (0, 0, 0.00000000000000000000e+00) (0, 0, 0.00000000000000000000e+00) (0, 0, 0.00000000000000000000e+00) (0, 0, 0.00000000000000000000e+00) (0, 0, 0.00000000000000000000e+00) (0, 0, 0.00000000000000000000e+00) (0, 0, 0.00000000000000000000e+00) (0, 0, 0.00000000000000000000e+00) (0, 0, 0.00000000000000000000e+00) (0, 0, 0.00000000000000000000e+00) (0, 0, 0.00000000000000000000e+00) (0, 0, 0.00000000000000000000e+00) (0, 0, 0.00000000000000000000e+00) (0, 0, 0.00000000000000000000e+00) (0, 0, 0.00000000000000000000e+00) (0, 0, 0.00000000000000000000e+00) (0, 0, 0.00000000000000000000e+00) (0, 0, 0.00000000000000000000e+00) (0, 0, 0.00000000000000000000e+00) (0, 0, 0.00000000000000000000e+00) (0, 0, 0.00000000000000000000e+00) (0, 0, 0.00000000000000000000e+00) (0, 0, 0.00000000000000000000e+00) (0, 0, 0.00000000000000000000e+00) (0, 0, 0.00000000000000000000e+00) (0, 0, 0.00000000000000000000e+00) (0, 0, 0.00000000000000000000e+00) (0, 0, 0.00000000000000000000e+00) (0, 0, 0.00000000000000000000e+00) (0, 0, 0.00000000000000000000e+00) (0, 0, 0.00000000000000000000e+00) (0, 0, 0.00000000000000000000e+00) (0, 0, 0.00000000000000000000e+00) (0, 0, 0.00000000000000000000e+00) (0, 0, 0.00000000000000000000e+00) (0, 0, 0.00000000000000000000e+00) (0, 0, 0.00000000000000000000e+00) (0, 0, 0.00000000000000000000e+00) (0, 0, 0.00000000000000000000e+00) (0, 0, 0.00000000000000000000e+00) (0, 0, 0.00000000000000000000e+00) (0, 0, 0.00000000000000000000e+00) (0, 0, 0.00000000000000000000e+00) (0, 0, 0.00000000000000000000e+00) (0, 0, 0.00000000000000000000e+00) (0, 0, 0.00000000000000000000e+00) (0, 0, 0.00000000000000000000e+00) (0, 0, 0.00000000000000000000e+00) (0, 0, 0.00000000000000000000e+00) (0, 0, 0.00000000000000000000e+00) (0, 0, 0.00000000000000000000e+00) (0, 0, 0.00000000000000000000e+00) (0, 0, 0.00000000000000000000e+00) (0, 0, 0.00000000000000000000e+00) (0, 0, 0.00000000000000000000e+00) (0, 0, 0.00000000000000000000e+00) (0, 0, 0.00000000000000000000e+00) (0, 0, 0.00000000000000000000e+00) (0, 0, 0.00000000000000000000e+00) (0, 0, 0.00000000000000000000e+00) (0, 0, 0.00000000000000000000e+00) (0, 0, 0.00000000000000000000e+00) (0, 0, 0.00000000000000000000e+00) (0, 0, 0.00000000000000000000e+00) (0, 0, 0.00000000000000000000e+00) (0, 0, 0.00000000000000000000e+00) (0, 0, 0.00000000000000000000e+00) (0, 0, 0.00000000000000000000e+00) (0, 0, 0.00000000000000000000e+00) (0, 0, 0.00000000000000000000e+00) (0, 0, 0.00000000000000000000e+00) (0, 0, 0.00000000000000000000e+00) (0, 0, 0.00000000000000000000e+00) (0, 0, 0.00000000000000000000e+00) (0, 0, 0.00000000000000000000e+00) (0, 0, 0.00000000000000000000e+00) (0, 0, 0.00000000000000000000e+00) (0, 0, 0.00000000000000000000e+00) (0, 0, 0.00000000000000000000e+00) (0, 0, 0.00000000000000000000e+00) (0, 0, 0.00000000000000000000e+00) (0, 0, 0.00000000000000000000e+00) (0, 0, 0.00000000000000000000e+00) (0, 0, 0.00000000000000000000e+00) (0, 0, 0.00000000000000000000e+00) (0, 0, 0.00000000000000000000e+00) (0, 0, 0.00000000000000000000e+00) (0, 0, 0.00000000000000000000e+00) (0, 0, 0.00000000000000000000e+00) (0, 0, 0.00000000000000000000e+00) (0, 0, 0.00000000000000000000e+00) (0, 0, 0.00000000000000000000e+00) (0, 0, 0.00000000000000000000e+00) (0, 0, 0.00000000000000000000e+00) (0, 0, 0.00000000000000000000e+00) (0, 0, 0.00000000000000000000e+00) (0, 0, 0.00000000000000000000e+00) (0, 0, 0.00000000000000000000e+00) (0, 0, 0.00000000000000000000e+00) (0, 0, 0.00000000000000000000e+00) (0, 0, 0.00000000000000000000e+00) (0, 0, 0.00000000000000000000e+00) (0, 0, 0.00000000000000000000e+00) (0, 0, 0.00000000000000000000e+00) (0, 0, 0.00000000000000000000e+00) (0, 0, 0.00000000000000000000e+00) (0, 0, 0.00000000000000000000e+00) (0, 0, 0.00000000000000000000e+00) (0, 0, 0.00000000000000000000e+00) (0, 0, 0.00000000000000000000e+00) (0, 0, 0.00000000000000000000e+00) (0, 0, 0.00000000000000000000e+00) (0, 0, 0.00000000000000000000e+00) (0, 0, 0.00000000000000000000e+00) (0, 0, 0.00000000000000000000e+00) (257, 11, 5.00000000000000000000e-01) (257, 11, 5.00000000000000000000e-01) (257, 11, 5.00000000000000000000e-01) (0, 11, 0.00000000000000000000e+00) (4, 11, 5.00000000000000000000e-01) (4, 11, 5.00000000000000000000e-01) (4, 11, 5.00000000000000000000e-01) (0, 11, 0.00000000000000000000e+00) (4, 11, 5.00000000000000000000e-01) (0, 11, 0.00000000000000000000e+00) 
connections (connected_to_neuron, weight)=(0, 9.56171810626983642578e-01) (1, 9.56163704395294189453e-01) (2, 8.91704618930816650391e-01) (3, 5.08702397346496582031e-01) (4, 9.04785692691802978516e-01) (5, 6.16688489913940429688e-01) (6, 2.74300098419189453125e-01) (7, 5.18605828285217285156e-01) (8, 3.39124083518981933594e-01) (9, 2.98330873250961303711e-01) (10, 5.23771047592163085938e-01) (11, 3.42238366603851318359e-01) (12, -6.86124935746192932129e-02) (13, 3.16635191440582275391e-01) (14, 4.89722609519958496094e-01) (15, 3.79638999700546264648e-01) (16, 3.60777169466018676758e-01) (17, 3.35460275411605834961e-01) (18, 2.29669168591499328613e-01) (19, 3.85535985231399536133e-01) (20, 2.93250799179077148438e-01) (21, -5.65067291259765625000e-01) (22, -3.92260313034057617188e-01) (23, -1.40332177281379699707e-01) (24, 1.38251066207885742188e-01) (25, 7.71318674087524414063e-01) (26, -1.86471089720726013184e-01) (27, -5.19374489784240722656e-01) (28, -4.88705605268478393555e-01) (29, -6.43943846225738525391e-01) (30, 3.59450094401836395264e-02) (31, 9.57259982824325561523e-02) (32, 2.90419403463602066040e-02) (33, 5.44704616069793701172e-01) (34, 3.90733070671558380127e-02) (35, -6.76009118556976318359e-01) (36, -3.79542946815490722656e-01) (37, -3.19523036479949951172e-01) (38, 3.42954099178314208984e-01) (39, 4.50906336307525634766e-01) (40, 1.64791569113731384277e-01) (41, -2.73207992315292358398e-01) (42, -3.60339879989624023438e-01) (43, -6.65607869625091552734e-01) (44, -6.05298519134521484375e-01) (45, 6.96551352739334106445e-02) (46, -6.13622426986694335938e+00) (47, -5.23353576660156250000e-01) (48, -6.30848884582519531250e-01) (49, 1.65181815624237060547e-01) (50, 2.63219624757766723633e-01) (51, -7.78702974319458007813e-01) (52, 5.84798380732536315918e-02) (53, -7.62850791215896606445e-02) (54, -4.00497627258300781250e+00) (55, -1.24992787837982177734e+00) (56, -2.99404621124267578125e-01) (57, 1.01919986307621002197e-01) (58, 3.41210722923278808594e-01) (59, -9.85094070434570312500e-01) (60, 4.70503531396389007568e-02) (61, -1.39418751001358032227e-01) (62, -4.69649821519851684570e-01) (63, -9.17416989803314208984e-01) (64, -1.49297593161463737488e-02) (65, 3.22052538394927978516e-01) (66, -2.60987609624862670898e-01) (67, -1.75059080123901367188e+00) (68, -2.25300356745719909668e-01) (69, 8.50319191813468933105e-02) (70, -2.59813928604125976563e+00) (71, 2.84215986728668212891e-01) (72, 8.25729656219482421875e+00) (73, 4.81518536806106567383e-01) (74, -3.45841854810714721680e-01) (75, -1.75199437141418457031e+00) (76, -1.36628293991088867188e+00) (77, 2.46472865343093872070e-01) (78, 3.68645954132080078125e+00) (79, 7.41923987865447998047e-01) (80, 9.27282094955444335938e-01) (81, 6.31092190742492675781e-01) (82, -1.80598533153533935547e+00) (83, -3.68508744239807128906e+00) (84, -3.09989428520202636719e+00) (85, -1.07512259483337402344e+00) (86, 1.81810557842254638672e-01) (87, -1.66162145137786865234e+00) (88, -4.55720782279968261719e-01) (89, 3.02914047241210937500e+00) (90, -9.72279071807861328125e-01) (91, -3.05068826675415039063e+00) (92, -4.85734455287456512451e-02) (93, 1.46571025252342224121e-01) (94, -1.09174512326717376709e-01) (95, 1.17414751052856445313e+01) (96, 1.99361789226531982422e+00) (97, 2.74646878242492675781e-01) (98, 3.82050871849060058594e-01) (99, -2.88246202468872070313e+00) (100, -2.46621862053871154785e-01) (101, -1.46738998591899871826e-02) (102, 1.04920732975006103516e+00) (103, -1.53427886962890625000e+00) (104, 1.44108688831329345703e+00) (105, -1.13808196038007736206e-02) (106, 7.71147608757019042969e-01) (107, 1.66636034846305847168e-01) (108, 3.43718320131301879883e-01) (109, -4.12215990945696830750e-03) (110, 2.52324223518371582031e+00) (111, 1.85016858577728271484e+00) (112, 8.29552292823791503906e-01) (113, 1.28153547644615173340e-01) (114, 7.28663086891174316406e-01) (115, 2.85630282014608383179e-02) (116, 9.44807112216949462891e-01) (117, 5.55760115385055541992e-02) (118, 9.91487503051757812500e-01) (119, 5.89310884475708007813e+00) (120, 1.47583603858947753906e+00) (121, 4.45873349905014038086e-01) (122, 1.31727468967437744141e+00) (123, -4.18949097394943237305e-01) (124, 5.92081509530544281006e-02) (125, -1.40552532672882080078e+00) (126, 1.85741853713989257813e+00) (127, -3.48491340875625610352e-01) (128, 9.18882906436920166016e-01) (129, 1.02439343929290771484e-01) (130, 1.12667679786682128906e+00) (131, -1.27339172363281250000e+00) (132, -5.65855324268341064453e-01) (133, 2.87265729904174804688e+00) (134, -2.57509082555770874023e-01) (135, 5.12952136993408203125e+00) (136, -3.62607926130294799805e-01) (137, 4.42384302616119384766e-01) (138, 1.53021800518035888672e+00) (139, -8.67957919836044311523e-02) (140, 1.09200365841388702393e-02) (141, 2.69183564186096191406e+00) (142, -7.16902065277099609375e+00) (143, 2.30881512165069580078e-01) (144, 9.19109821319580078125e-01) (145, 3.02084952592849731445e-01) (146, 1.35544210672378540039e-01) (147, -4.07561808824539184570e-01) (148, 1.05833131819963455200e-02) (149, -4.39598187804222106934e-02) (150, -1.52143919467926025391e+00) (151, 2.01818442344665527344e+00) (152, 7.01817631721496582031e-01) (153, -1.69547283649444580078e+00) (154, 2.42340620607137680054e-02) (155, -3.39921355247497558594e-01) (156, -2.97292381525039672852e-01) (157, -5.25007843971252441406e-01) (158, -8.49690914154052734375e-01) (159, -2.02057909965515136719e+00) (160, 5.67233371734619140625e+00) (161, 5.10722696781158447266e-01) (162, 4.11064475774765014648e-01) (163, -7.60954618453979492188e-01) (164, 2.04368770122528076172e-01) (165, -3.12016140669584274292e-02) (166, -3.51358604431152343750e+00) (167, 2.84970664978027343750e+01) (168, 1.10638594627380371094e+00) (169, -8.77814531326293945313e-01) (170, 1.81976824998855590820e-01) (171, -2.27815341949462890625e+00) (172, -1.23255483806133270264e-01) (173, -1.80176883935928344727e-01) (174, -4.98152494430541992188e+00) (175, -4.22555351257324218750e+00) (176, 4.98924553394317626953e-01) (177, 1.28351986408233642578e+00) (178, 1.40740005299448966980e-02) (179, -6.81181490421295166016e-01) (180, -9.75858330726623535156e-01) (181, -4.80418503284454345703e-01) (182, 1.95041179656982421875e+00) (183, 1.45013403892517089844e+00) (184, 6.25975728034973144531e-02) (185, -4.21472340822219848633e-01) (186, -1.00478959083557128906e+00) (187, -8.82433831691741943359e-01) (188, -3.35562157630920410156e+00) (189, -8.54801237583160400391e-01) (190, -4.61350053548812866211e-01) (191, -3.65636515617370605469e+00) (192, 7.50604867935180664063e-01) (193, 7.13314473628997802734e-01) (194, 1.82028859853744506836e-01) (195, -5.87599039077758789063e-01) (196, -6.60932838916778564453e-01) (197, 4.70233373343944549561e-02) (198, 6.58412814140319824219e-01) (199, 5.21312332153320312500e+00) (200, 5.07414674758911132813e+00) (201, -5.46188205480575561523e-02) (202, -7.90096879005432128906e-01) (203, -2.09669566154479980469e+00) (204, -6.05866527557373046875e+00) (205, -1.78173112869262695313e+00) (206, 7.73995590209960937500e+00) (207, 9.26901996135711669922e-02) (208, 6.08018922805786132813e+00) (209, -5.04346378147602081299e-02) (210, -2.44391381740570068359e-01) (211, -1.52958023548126220703e+00) (212, -1.09700000286102294922e+00) (213, -5.89283294975757598877e-02) (214, -2.48277001082897186279e-02) (215, -6.80522203445434570313e-01) (216, 2.00459885597229003906e+00) (217, -4.44061338901519775391e-01) (218, -5.42315423488616943359e-01) (219, -1.44675517082214355469e+00) (220, -1.03975474834442138672e+00) (221, 3.59302610158920288086e-01) (222, 2.26073309779167175293e-01) (223, 9.57988858222961425781e-01) (224, 4.60725992918014526367e-01) (225, 3.13596390187740325928e-02) (226, -4.88393872976303100586e-01) (227, -1.68694305419921875000e+00) (228, -1.41330385208129882813e+00) (229, -1.81683879345655441284e-02) (230, 1.38581418991088867188e+00) (231, -3.13412666320800781250e-01) (232, 2.43955224752426147461e-01) (233, -9.63061396032571792603e-03) (234, 1.05025917291641235352e-01) (235, -2.86487936973571777344e-01) (236, -4.30557131767272949219e-01) (237, 5.74201792478561401367e-02) (238, -1.03147482872009277344e+00) (239, -1.74166166782379150391e+00) (240, 2.33814902603626251221e-02) (241, -9.41467359662055969238e-02) (242, 7.62698054313659667969e-02) (243, 9.40339565277099609375e-02) (244, -4.23477329313755035400e-02) (245, 2.61279456317424774170e-02) (246, 2.85712301731109619141e-01) (247, 3.11776965856552124023e-01) (248, 7.46604681015014648438e-01) (249, 1.13527989387512207031e+00) (250, 5.30140161514282226563e-01) (251, 6.42249524593353271484e-01) (252, 8.34201693534851074219e-01) (253, 6.81051611900329589844e-01) (254, 1.06726729869842529297e+00) (255, 1.13807404041290283203e+00) (256, 4.12006664276123046875e+00) (0, 5.09769976139068603516e-01) (1, 4.59808260202407836914e-01) (2, 1.78687304258346557617e-01) (3, 1.57703325152397155762e-01) (4, 5.58705508708953857422e-01) (5, 6.45774602890014648438e-03) (6, 4.13590550422668457031e-01) (7, 5.10381877422332763672e-01) (8, 1.89823061227798461914e-01) (9, 4.99186486005783081055e-01) (10, 4.23317074775695800781e-01) (11, 3.51404219865798950195e-01) (12, 2.35597845166921615601e-02) (13, 3.10448914766311645508e-01) (14, 3.49702715873718261719e-01) (15, 1.15764774382114410400e-01) (16, 5.41545271873474121094e-01) (17, 5.89707314968109130859e-01) (18, 3.46607655286788940430e-01) (19, 1.22531555593013763428e-01) (20, 5.42893946170806884766e-01) (21, 4.11873161792755126953e-01) (22, 3.27449828386306762695e-01) (23, 5.44481873512268066406e-01) (24, 2.97913402318954467773e-01) (25, 5.31714618206024169922e-01) (26, -7.74830430746078491211e-02) (27, -4.45935964584350585938e-01) (28, -2.07143370062112808228e-02) (29, 2.94663965702056884766e-01) (30, 6.09265714883804321289e-02) (31, 5.29498398303985595703e-01) (32, -2.27583900094032287598e-01) (33, -5.76896741986274719238e-02) (34, -1.24660566449165344238e-01) (35, -2.96681731939315795898e-01) (36, -2.93059051036834716797e-01) (37, -3.76184284687042236328e-02) (38, 2.20731925219297409058e-02) (39, 4.78175908327102661133e-01) (40, 1.01987533271312713623e-01) (41, -3.54396477341651916504e-02) (42, -6.16574985906481742859e-03) (43, -5.51021039485931396484e-01) (44, -4.51588809490203857422e-01) (45, 1.12497135996818542480e-01) (46, 1.83256343007087707520e-01) (47, 2.31184661388397216797e-01) (48, 3.64794701337814331055e-01) (49, -1.60172864794731140137e-01) (50, 4.97237872332334518433e-03) (51, -1.51094570755958557129e-01) (52, -2.63961046934127807617e-01) (53, -2.51172244548797607422e-01) (54, 1.79427146911621093750e-01) (55, 1.30670666694641113281e-01) (56, 2.46502473950386047363e-01) (57, 4.89874094724655151367e-01) (58, 3.03544491529464721680e-01) (59, 1.71238362789154052734e-01) (60, -5.83493411540985107422e-01) (61, 3.33525538444519042969e-01) (62, 2.37017169594764709473e-01) (63, 4.01589758694171905518e-02) (64, -1.66382208466529846191e-01) (65, 2.58485972881317138672e-01) (66, 7.23289102315902709961e-02) (67, -5.02427220344543457031e-01) (68, -6.79803550243377685547e-01) (69, 3.32119077444076538086e-01) (70, -3.41213792562484741211e-01) (71, 2.88800328969955444336e-01) (72, 7.07375258207321166992e-02) (73, 5.13121075928211212158e-02) (74, 2.27447859942913055420e-02) (75, -1.43327772617340087891e-01) (76, -4.13160145282745361328e-01) (77, 1.41654208302497863770e-01) (78, 5.26689477264881134033e-02) (79, 1.51104986667633056641e-01) (80, 2.38180518150329589844e-01) (81, 2.11406692862510681152e-01) (82, 1.24771021306514739990e-01) (83, -2.72634029388427734375e-01) (84, -2.88433015346527099609e-01) (85, 5.23346364498138427734e-01) (86, 1.63142755627632141113e-01) (87, -1.90951347351074218750e-01) (88, 4.02291119098663330078e-01) (89, 4.38242465257644653320e-01) (90, -5.37286162376403808594e-01) (91, -6.17858171463012695313e-01) (92, -3.01667630672454833984e-01) (93, 3.22563387453556060791e-02) (94, -5.60147047042846679688e-01) (95, -2.71764211356639862061e-02) (96, -2.47164487838745117188e-01) (97, 1.94110020995140075684e-01) (98, -3.92928749322891235352e-01) (99, -6.74579381942749023438e-01) (100, -5.26715755462646484375e-01) (101, 1.29620537161827087402e-01) (102, 2.11034685373306274414e-01) (103, -6.30626320838928222656e-01) (104, -2.28359833359718322754e-01) (105, 8.91843289136886596680e-02) (106, 6.17879256606101989746e-02) (107, -6.23626887798309326172e-01) (108, -3.92078787088394165039e-01) (109, 3.06519091129302978516e-01) (110, -2.16560497879981994629e-01) (111, -2.30604365468025207520e-01) (112, -2.34676510095596313477e-01) (113, 2.65461146831512451172e-01) (114, -3.31653356552124023438e-01) (115, -1.84114769101142883301e-01) (116, -2.56272017955780029297e-01) (117, -6.81663379073143005371e-02) (118, -1.88262745738029479980e-01) (119, -7.36689925193786621094e-01) (120, 2.11070656776428222656e-01) (121, -5.13204336166381835938e-02) (122, 1.07166767120361328125e-01) (123, -5.59067614376544952393e-02) (124, -2.22053274512290954590e-01) (125, -5.65915293991565704346e-02) (126, 2.24300831556320190430e-01) (127, 1.52356281876564025879e-01) (128, -1.57027855515480041504e-01) (129, -1.27909824252128601074e-01) (130, -3.43070119619369506836e-01) (131, -8.23734402656555175781e-02) (132, -4.10852015018463134766e-01) (133, -2.63979613780975341797e-01) (134, -4.15486842393875122070e-02) (135, -1.00468181073665618896e-01) (136, -3.73103469610214233398e-01) (137, 8.97069275379180908203e-02) (138, 4.42364960908889770508e-01) (139, -4.98235672712326049805e-01) (140, -4.04413551092147827148e-01) (141, 1.97700560092926025391e-01) (142, 2.66782734543085098267e-02) (143, -9.46700647473335266113e-02) (144, -3.22120562195777893066e-02) (145, 1.87708780169486999512e-01) (146, -1.00507698953151702881e-01) (147, -3.90198945999145507813e-01) (148, -2.55965650081634521484e-01) (149, 4.31360751390457153320e-01) (150, 1.49451002478599548340e-01) (151, -1.84956535696983337402e-01) (152, -4.18650269508361816406e-01) (153, -2.44945570826530456543e-01) (154, -5.63565850257873535156e-01) (155, -1.25009819865226745605e-01) (156, -6.62757396697998046875e-01) (157, 2.86198914051055908203e-01) (158, -6.20856173336505889893e-02) (159, 1.65040314197540283203e-01) (160, 1.47884756326675415039e-01) (161, 2.14090138673782348633e-01) (162, -4.21298384666442871094e-01) (163, -4.44055318832397460938e-01) (164, -4.49546992778778076172e-01) (165, 1.71543896198272705078e-01) (166, 1.32872775197029113770e-01) (167, -2.51446175388991832733e-03) (168, 3.15465360879898071289e-01) (169, -7.79226571321487426758e-02) (170, 4.79999810457229614258e-01) (171, -3.30325305461883544922e-01) (172, 1.41123101115226745605e-01) (173, 2.45820179581642150879e-01) (174, -9.60593968629837036133e-02) (175, -2.09760010242462158203e-01) (176, 4.05482053756713867188e-01) (177, 2.73449495434761047363e-02) (178, 4.93956863880157470703e-01) (179, 5.62031567096710205078e-01) (180, 3.99886928498744964600e-02) (181, 3.01086574792861938477e-01) (182, -7.39271193742752075195e-02) (183, -8.33894237875938415527e-02) (184, -6.11614406108856201172e-01) (185, 1.94301411509513854980e-01) (186, -4.18264031410217285156e-01) (187, -8.30724462866783142090e-02) (188, 9.09179076552391052246e-02) (189, 4.08524349331855773926e-02) (190, -1.48073643445968627930e-01) (191, -1.93770349025726318359e-01) (192, 4.90608997642993927002e-02) (193, 1.49983391165733337402e-01) (194, -4.47853326797485351563e-01) (195, -2.15537533164024353027e-01) (196, -1.56671032309532165527e-01) (197, 9.77031528949737548828e-01) (198, 1.47201910614967346191e-01) (199, -2.39166721701622009277e-01) (200, -1.33624583482742309570e-01) (201, -4.15067048743367195129e-03) (202, -5.77910721302032470703e-01) (203, -7.05820322036743164063e-01) (204, -2.52324014902114868164e-01) (205, -2.60948151350021362305e-01) (206, 4.87263575196266174316e-02) (207, 6.54538571834564208984e-01) (208, -1.04622550308704376221e-01) (209, -4.77979332208633422852e-02) (210, -1.94034859538078308105e-01) (211, -2.65392363071441650391e-01) (212, -3.83694857358932495117e-01) (213, -6.15807056427001953125e-01) (214, 5.19505813717842102051e-02) (215, 1.83495774865150451660e-01) (216, 3.62387120723724365234e-01) (217, -2.08457447588443756104e-02) (218, 1.77684977650642395020e-01) (219, -5.69099962711334228516e-01) (220, -4.73648697137832641602e-01) (221, 1.04950360953807830811e-01) (222, -1.99879541993141174316e-01) (223, -6.92975044250488281250e-01) (224, 3.24470430612564086914e-01) (225, -9.30521935224533081055e-02) (226, -1.00303612649440765381e-01) (227, -6.19376540184020996094e-01) (228, -4.66243267059326171875e-01) (229, -7.53340303897857666016e-01) (230, 9.03506219387054443359e-01) (231, -1.44003957509994506836e-01) (232, 9.41689908504486083984e-02) (233, -5.58187030255794525146e-02) (234, -2.57964760065078735352e-01) (235, -5.62634348869323730469e-01) (236, -6.61513447761535644531e-01) (237, -1.39428496360778808594e-01) (238, -2.40487605333328247070e-02) (239, 2.65459150075912475586e-01) (240, -3.08428198099136352539e-01) (241, 1.04181647300720214844e-01) (242, 1.05298757553100585938e-01) (243, 4.47326779365539550781e-01) (244, -8.07096287608146667480e-02) (245, -5.08337505161762237549e-02) (246, -4.80907447636127471924e-02) (247, 2.74131447076797485352e-01) (248, 7.77701335027813911438e-03) (249, 3.05540442466735839844e-01) (250, 1.93791866302490234375e-01) (251, 1.73998162150382995605e-01) (252, 5.15417039394378662109e-01) (253, 9.43285301327705383301e-02) (254, 3.35295647382736206055e-01) (255, 4.18715894222259521484e-01) (256, 5.53573668003082275391e-01) (0, -1.31386220455169677734e+00) (1, -1.29816949367523193359e+00) (2, -6.03391408920288085938e-01) (3, -4.03453968465328216553e-03) (4, -4.00077900849282741547e-04) (5, 7.39567279815673828125e-02) (6, -2.61415123939514160156e-01) (7, -8.05977433919906616211e-02) (8, -2.46806234121322631836e-01) (9, 1.50841116905212402344e-01) (10, -3.80237437784671783447e-02) (11, 4.94173355400562286377e-02) (12, 5.51343619823455810547e-01) (13, 4.59445923566818237305e-01) (14, 1.14018023014068603516e-01) (15, 1.79129391908645629883e-01) (16, 1.63496947288513183594e+00) (17, 5.53564608097076416016e-01) (18, 4.19685333967208862305e-01) (19, 2.81808227300643920898e-01) (20, 6.76986396312713623047e-01) (21, 2.69812202453613281250e+00) (22, 1.33175921440124511719e+00) (23, 1.03630232810974121094e+00) (24, 1.05466806888580322266e+00) (25, 7.09609270095825195313e-01) (26, 3.89034569263458251953e-01) (27, 9.94312465190887451172e-02) (28, 1.30668914318084716797e+00) (29, 6.44977927207946777344e-01) (30, 8.07063102722167968750e-01) (31, 1.46821081638336181641e-01) (32, -3.30992460250854492188e-01) (33, 1.80858999490737915039e-01) (34, -2.36870869994163513184e-01) (35, 4.93232786655426025391e-01) (36, 5.26665806770324707031e-01) (37, -4.22841638326644897461e-01) (38, 1.34348040446639060974e-02) (39, 6.53327032923698425293e-02) (40, -2.24146828055381774902e-01) (41, 4.15263056755065917969e-01) (42, 6.82755410671234130859e-01) (43, 4.71758157014846801758e-01) (44, 6.01822078227996826172e-01) (45, 2.93158423155546188354e-02) (46, 4.12715345621109008789e-01) (47, -1.26581683754920959473e-01) (48, 3.35928380489349365234e-01) (49, 4.20880079269409179688e-01) (50, 2.31468737125396728516e-01) (51, 5.11333882808685302734e-01) (52, 4.33573812246322631836e-01) (53, -2.19216085970401763916e-02) (54, 8.51387456059455871582e-02) (55, 3.17392498254776000977e-01) (56, 4.73113656044006347656e-01) (57, -8.04640054702758789063e-02) (58, 1.10677450895309448242e-01) (59, 2.46757611632347106934e-01) (60, 1.89970448613166809082e-01) (61, 3.97231690585613250732e-02) (62, 2.27613657712936401367e-01) (63, 1.61344099044799804688e+00) (64, 3.35500627756118774414e-01) (65, 7.67015278339385986328e-01) (66, -7.89057165384292602539e-02) (67, 7.01698780059814453125e-01) (68, 3.70610892772674560547e-01) (69, 3.62567335367202758789e-01) (70, 2.78933290392160415649e-02) (71, -9.67553496360778808594e-01) (72, 3.66335473954677581787e-02) (73, 3.25973004102706909180e-01) (74, 3.44419956207275390625e-01) (75, 7.67948865890502929688e-01) (76, 5.16423061490058898926e-02) (77, 4.65099096298217773438e-01) (78, 1.12494841217994689941e-01) (79, -1.47552832961082458496e-01) (80, -9.50805306434631347656e-01) (81, -1.87787786126136779785e-01) (82, 3.27773243188858032227e-02) (83, 5.95364689826965332031e-01) (84, 5.47672152519226074219e-01) (85, -4.26203787326812744141e-01) (86, 4.13305073976516723633e-01) (87, -8.46813678741455078125e-01) (88, -5.46499490737915039063e-01) (89, -1.40831455588340759277e-01) (90, 1.05834431946277618408e-01) (91, -4.34516221284866333008e-02) (92, 5.17555847764015197754e-02) (93, 1.49457991123199462891e-01) (94, -5.62255978584289550781e-01) (95, -5.10449886322021484375e-01) (96, -6.21825814247131347656e-01) (97, 2.67325907945632934570e-01) (98, 1.07157155871391296387e-01) (99, 1.56055048108100891113e-01) (100, -9.92551967501640319824e-02) (101, 1.77459090948104858398e-01) (102, -5.16044735908508300781e-01) (103, -6.65991067886352539063e-01) (104, -3.57888936996459960938e-01) (105, -9.00253653526306152344e-02) (106, -7.77910649776458740234e-01) (107, 3.22297185659408569336e-01) (108, 5.78253343701362609863e-02) (109, -6.54994025826454162598e-02) (110, -3.68876546621322631836e-01) (111, -5.81388533115386962891e-01) (112, -1.14675655961036682129e-01) (113, -8.60298126935958862305e-02) (114, 4.63701069355010986328e-01) (115, 4.95659291744232177734e-01) (116, -3.96913215517997741699e-02) (117, 3.70362773537635803223e-02) (118, -4.74526137113571166992e-01) (119, -2.73228377103805541992e-01) (120, -8.44019204378128051758e-02) (121, -1.76685094833374023438e-01) (122, -4.53960090875625610352e-01) (123, 2.21191957592964172363e-01) (124, -6.19719969108700752258e-03) (125, 4.59429062902927398682e-02) (126, -6.77624642848968505859e-01) (127, -1.81479707360267639160e-01) (128, -3.16026300191879272461e-01) (129, 4.01990674436092376709e-02) (130, -4.52398695051670074463e-02) (131, 2.41123318672180175781e-01) (132, 4.68078315258026123047e-01) (133, -4.07850742340087890625e-02) (134, -8.28491866588592529297e-01) (135, -4.10606294870376586914e-01) (136, -5.86475729942321777344e-02) (137, -2.06339788436889648438e+00) (138, -5.35818576812744140625e-01) (139, 4.31875735521316528320e-01) (140, 4.36828851699829101563e-01) (141, 2.12009221315383911133e-01) (142, -8.24322402477264404297e-01) (143, -1.57220974564552307129e-01) (144, -1.60654997825622558594e+00) (145, 1.41579949855804443359e+00) (146, -1.39296762645244598389e-02) (147, 2.68989115953445434570e-01) (148, 1.99283566325902938843e-02) (149, -1.79308637976646423340e-01) (150, -5.95540523529052734375e-01) (151, -2.97013223171234130859e-01) (152, 7.34531432390213012695e-02) (153, 2.23223805427551269531e+00) (154, -8.75396013259887695313e-01) (155, 7.43913769721984863281e-01) (156, -3.42541560530662536621e-02) (157, 1.86594620347023010254e-01) (158, -5.12474477291107177734e-01) (159, 5.58755934238433837891e-01) (160, -9.03316199779510498047e-01) (161, -9.21784620732069015503e-03) (162, -3.12791019678115844727e-01) (163, 6.87102675437927246094e-02) (164, -3.46174128353595733643e-02) (165, 2.19179630279541015625e-01) (166, 4.33515995740890502930e-01) (167, 8.79061669111251831055e-02) (168, 2.33649587631225585938e+00) (169, 1.52147904038429260254e-01) (170, -2.37498909235000610352e-01) (171, 3.22756230831146240234e-01) (172, 1.30736708641052246094e-01) (173, 4.58196491003036499023e-01) (174, 1.84428356587886810303e-02) (175, -4.27773237228393554688e-01) (176, -1.03237338364124298096e-01) (177, 1.47022172808647155762e-01) (178, -1.54936993122100830078e+00) (179, 2.84790247678756713867e-01) (180, 6.17928326129913330078e-01) (181, -2.21700817346572875977e-02) (182, -4.07832026481628417969e-01) (183, -1.63400650024414062500e-01) (184, 1.15919947624206542969e-01) (185, 2.94368088245391845703e-01) (186, 2.27796450257301330566e-01) (187, 4.07895714044570922852e-01) (188, 4.23770099878311157227e-01) (189, 2.35978126525878906250e-01) (190, -7.01707422733306884766e-01) (191, -3.24860155582427978516e-01) (192, -1.75902739167213439941e-01) (193, -1.52651652693748474121e-01) (194, 5.06219267845153808594e-02) (195, 1.08025707304477691650e-01) (196, 4.88706678152084350586e-01) (197, -1.62690922617912292480e-01) (198, 1.90203934907913208008e-01) (199, -2.47267767786979675293e-01) (200, -2.34153389930725097656e-01) (201, -7.71086215972900390625e-02) (202, 1.67502924799919128418e-01) (203, 7.00107932090759277344e-01) (204, 2.69599743187427520752e-02) (205, 1.95139542222023010254e-01) (206, -4.25020717084407806396e-02) (207, -1.44064116477966308594e+00) (208, -3.09290170669555664063e-01) (209, 3.24474364519119262695e-01) (210, 5.07785737514495849609e-01) (211, 7.77567088603973388672e-01) (212, 1.36472508311271667480e-01) (213, 1.48359552025794982910e-01) (214, -9.85594689846038818359e-02) (215, -4.34002786874771118164e-01) (216, -1.89279830455780029297e+00) (217, 4.84239131212234497070e-01) (218, -3.41899728775024414063e+00) (219, 4.16128844022750854492e-01) (220, 4.35805439949035644531e-01) (221, -4.84152883291244506836e-01) (222, 2.84957736730575561523e-01) (223, -2.56700491905212402344e+00) (224, 9.76846933364868164063e-01) (225, 1.44118869304656982422e+00) (226, 4.32947099208831787109e-01) (227, 4.12670761346817016602e-01) (228, 2.91071176528930664063e-01) (229, 2.43065446615219116211e-01) (230, -2.19129085540771484375e-01) (231, -7.75430917739868164063e-01) (232, 2.25964546203613281250e-01) (233, -3.75655330717563629150e-02) (234, 2.59041905403137207031e-01) (235, 6.45746648311614990234e-01) (236, 3.10498595237731933594e-01) (237, 6.36326372623443603516e-01) (238, 8.66072773933410644531e-02) (239, -6.20609559118747711182e-02) (240, 1.46934717893600463867e-01) (241, -9.54916607588529586792e-03) (242, 2.75669872760772705078e-01) (243, 1.34624764323234558105e-02) (244, 3.41213166713714599609e-01) (245, -2.66560465097427368164e-02) (246, 4.02606278657913208008e-01) (247, -3.10536414384841918945e-01) (248, -1.09372901916503906250e+00) (249, -9.66076195240020751953e-01) (250, -7.04088866710662841797e-01) (251, -9.76293504238128662109e-01) (252, -7.19734013080596923828e-01) (253, -3.63569468259811401367e-01) (254, -8.45968544483184814453e-01) (255, -3.43990206718444824219e+00) (256, -1.80569374561309814453e+00) (257, 5.28090524673461914063e+00) (258, -8.46884071826934814453e-01) (259, -1.75094211101531982422e+00) (260, 2.70540642738342285156e+00) (257, -1.01293087005615234375e+00) (258, -8.37350904941558837891e-01) (259, 3.37499052286148071289e-01) (260, 3.34733009338378906250e-01) (257, -5.09717881679534912109e-01) (258, -7.15781390666961669922e-01) (259, 5.67232668399810791016e-01) (260, -1.77336141467094421387e-01) (261, -5.76735877990722656250e+00) (262, -9.79036712646484375000e+01) (263, 1.32702880859375000000e+03) (264, -1.64000487327575683594e+00) 
