FANN_FLO_2.1
num_layers=6
learning_rate=0.700000
connection_rate=1.000000
network_type=0
learning_momentum=0.000000
training_algorithm=2
train_error_function=1
train_stop_function=0
cascade_output_change_fraction=0.010000
quickprop_decay=-0.000100
quickprop_mu=1.750000
rprop_increase_factor=1.200000
rprop_decrease_factor=0.500000
rprop_delta_min=0.000000
rprop_delta_max=50.000000
rprop_delta_zero=0.100000
cascade_output_stagnation_epochs=12
cascade_candidate_change_fraction=0.010000
cascade_candidate_stagnation_epochs=12
cascade_max_out_epochs=150
cascade_min_out_epochs=50
cascade_max_cand_epochs=150
cascade_min_cand_epochs=50
cascade_num_candidate_groups=2
bit_fail_limit=3.49999994039535522461e-01
cascade_candidate_limit=1.00000000000000000000e+03
cascade_weight_multiplier=4.00000005960464477539e-01
cascade_activation_functions_count=10
cascade_activation_functions=3 5 7 8 10 11 14 15 16 17 
cascade_activation_steepnesses_count=4
cascade_activation_steepnesses=2.50000000000000000000e-01 5.00000000000000000000e-01 7.50000000000000000000e-01 1.00000000000000000000e+00 
layer_sizes=1025 23 51 51 23 11 
scale_included=0
neurons (num_inputs, activation_function, activation_steepness)=(0, 0, 0.00000000000000000000e+00) (0, 0, 0.00000000000000000000e+00) (0, 0, 0.00000000000000000000e+00) (0, 0, 0.00000000000000000000e+00) (0, 0, 0.00000000000000000000e+00) (0, 0, 0.00000000000000000000e+00) (0, 0, 0.00000000000000000000e+00) (0, 0, 0.00000000000000000000e+00) (0, 0, 0.00000000000000000000e+00) (0, 0, 0.00000000000000000000e+00) (0, 0, 0.00000000000000000000e+00) (0, 0, 0.00000000000000000000e+00) (0, 0, 0.00000000000000000000e+00) (0, 0, 0.00000000000000000000e+00) (0, 0, 0.00000000000000000000e+00) (0, 0, 0.00000000000000000000e+00) (0, 0, 0.00000000000000000000e+00) (0, 0, 0.00000000000000000000e+00) (0, 0, 0.00000000000000000000e+00) (0, 0, 0.00000000000000000000e+00) (0, 0, 0.00000000000000000000e+00) (0, 0, 0.00000000000000000000e+00) (0, 0, 0.00000000000000000000e+00) (0, 0, 0.00000000000000000000e+00) (0, 0, 0.00000000000000000000e+00) (0, 0, 0.00000000000000000000e+00) (0, 0, 0.00000000000000000000e+00) (0, 0, 0.00000000000000000000e+00) (0, 0, 0.00000000000000000000e+00) (0, 0, 0.00000000000000000000e+00) (0, 0, 0.00000000000000000000e+00) (0, 0, 0.00000000000000000000e+00) (0, 0, 0.00000000000000000000e+00) (0, 0, 0.00000000000000000000e+00) (0, 0, 0.00000000000000000000e+00) (0, 0, 0.00000000000000000000e+00) (0, 0, 0.00000000000000000000e+00) (0, 0, 0.00000000000000000000e+00) (0, 0, 0.00000000000000000000e+00) (0, 0, 0.00000000000000000000e+00) (0, 0, 0.00000000000000000000e+00) (0, 0, 0.00000000000000000000e+00) (0, 0, 0.00000000000000000000e+00) (0, 0, 0.00000000000000000000e+00) (0, 0, 0.00000000000000000000e+00) (0, 0, 0.00000000000000000000e+00) (0, 0, 0.00000000000000000000e+00) (0, 0, 0.00000000000000000000e+00) (0, 0, 0.00000000000000000000e+00) (0, 0, 0.00000000000000000000e+00) (0, 0, 0.00000000000000000000e+00) (0, 0, 0.00000000000000000000e+00) (0, 0, 0.00000000000000000000e+00) (0, 0, 0.00000000000000000000e+00) (0, 0, 0.00000000000000000000e+00) (0, 0, 0.00000000000000000000e+00) (0, 0, 0.00000000000000000000e+00) (0, 0, 0.00000000000000000000e+00) (0, 0, 0.00000000000000000000e+00) (0, 0, 0.00000000000000000000e+00) (0, 0, 0.00000000000000000000e+00) (0, 0, 0.00000000000000000000e+00) (0, 0, 0.00000000000000000000e+00) (0, 0, 0.00000000000000000000e+00) (0, 0, 0.00000000000000000000e+00) (0, 0, 0.00000000000000000000e+00) (0, 0, 0.00000000000000000000e+00) (0, 0, 0.00000000000000000000e+00) (0, 0, 0.00000000000000000000e+00) (0, 0, 0.00000000000000000000e+00) (0, 0, 0.00000000000000000000e+00) (0, 0, 0.00000000000000000000e+00) (0, 0, 0.00000000000000000000e+00) (0, 0, 0.00000000000000000000e+00) (0, 0, 0.00000000000000000000e+00) (0, 0, 0.00000000000000000000e+00) (0, 0, 0.00000000000000000000e+00) (0, 0, 0.00000000000000000000e+00) (0, 0, 0.00000000000000000000e+00) (0, 0, 0.00000000000000000000e+00) (0, 0, 0.00000000000000000000e+00) (0, 0, 0.00000000000000000000e+00) (0, 0, 0.00000000000000000000e+00) (0, 0, 0.00000000000000000000e+00) (0, 0, 0.00000000000000000000e+00) (0, 0, 0.00000000000000000000e+00) (0, 0, 0.00000000000000000000e+00) (0, 0, 0.00000000000000000000e+00) (0, 0, 0.00000000000000000000e+00) (0, 0, 0.00000000000000000000e+00) (0, 0, 0.00000000000000000000e+00) (0, 0, 0.00000000000000000000e+00) (0, 0, 0.00000000000000000000e+00) (0, 0, 0.00000000000000000000e+00) (0, 0, 0.00000000000000000000e+00) (0, 0, 0.00000000000000000000e+00) (0, 0, 0.00000000000000000000e+00) (0, 0, 0.00000000000000000000e+00) (0, 0, 0.00000000000000000000e+00) (0, 0, 0.00000000000000000000e+00) (0, 0, 0.00000000000000000000e+00) (0, 0, 0.00000000000000000000e+00) (0, 0, 0.00000000000000000000e+00) (0, 0, 0.00000000000000000000e+00) (0, 0, 0.00000000000000000000e+00) (0, 0, 0.00000000000000000000e+00) (0, 0, 0.00000000000000000000e+00) (0, 0, 0.00000000000000000000e+00) (0, 0, 0.00000000000000000000e+00) (0, 0, 0.00000000000000000000e+00) (0, 0, 0.00000000000000000000e+00) (0, 0, 0.00000000000000000000e+00) (0, 0, 0.00000000000000000000e+00) (0, 0, 0.00000000000000000000e+00) (0, 0, 0.00000000000000000000e+00) (0, 0, 0.00000000000000000000e+00) (0, 0, 0.00000000000000000000e+00) (0, 0, 0.00000000000000000000e+00) (0, 0, 0.00000000000000000000e+00) (0, 0, 0.00000000000000000000e+00) (0, 0, 0.00000000000000000000e+00) (0, 0, 0.00000000000000000000e+00) (0, 0, 0.00000000000000000000e+00) (0, 0, 0.00000000000000000000e+00) (0, 0, 0.00000000000000000000e+00) (0, 0, 0.00000000000000000000e+00) (0, 0, 0.00000000000000000000e+00) (0, 0, 0.00000000000000000000e+00) (0, 0, 0.00000000000000000000e+00) (0, 0, 0.00000000000000000000e+00) (0, 0, 0.00000000000000000000e+00) (0, 0, 0.00000000000000000000e+00) (0, 0, 0.00000000000000000000e+00) (0, 0, 0.00000000000000000000e+00) (0, 0, 0.00000000000000000000e+00) (0, 0, 0.00000000000000000000e+00) (0, 0, 0.00000000000000000000e+00) (0, 0, 0.00000000000000000000e+00) (0, 0, 0.00000000000000000000e+00) (0, 0, 0.00000000000000000000e+00) (0, 0, 0.00000000000000000000e+00) (0, 0, 0.00000000000000000000e+00) (0, 0, 0.00000000000000000000e+00) (0, 0, 0.00000000000000000000e+00) (0, 0, 0.00000000000000000000e+00) (0, 0, 0.00000000000000000000e+00) (0, 0, 0.00000000000000000000e+00) (0, 0, 0.00000000000000000000e+00) (0, 0, 0.00000000000000000000e+00) (0, 0, 0.00000000000000000000e+00) (0, 0, 0.00000000000000000000e+00) (0, 0, 0.00000000000000000000e+00) (0, 0, 0.00000000000000000000e+00) (0, 0, 0.00000000000000000000e+00) (0, 0, 0.00000000000000000000e+00) (0, 0, 0.00000000000000000000e+00) (0, 0, 0.00000000000000000000e+00) (0, 0, 0.00000000000000000000e+00) (0, 0, 0.00000000000000000000e+00) (0, 0, 0.00000000000000000000e+00) (0, 0, 0.00000000000000000000e+00) (0, 0, 0.00000000000000000000e+00) (0, 0, 0.00000000000000000000e+00) (0, 0, 0.00000000000000000000e+00) (0, 0, 0.00000000000000000000e+00) (0, 0, 0.00000000000000000000e+00) (0, 0, 0.00000000000000000000e+00) (0, 0, 0.00000000000000000000e+00) (0, 0, 0.00000000000000000000e+00) (0, 0, 0.00000000000000000000e+00) (0, 0, 0.00000000000000000000e+00) (0, 0, 0.00000000000000000000e+00) (0, 0, 0.00000000000000000000e+00) (0, 0, 0.00000000000000000000e+00) (0, 0, 0.00000000000000000000e+00) (0, 0, 0.00000000000000000000e+00) (0, 0, 0.00000000000000000000e+00) (0, 0, 0.00000000000000000000e+00) (0, 0, 0.00000000000000000000e+00) (0, 0, 0.00000000000000000000e+00) (0, 0, 0.00000000000000000000e+00) (0, 0, 0.00000000000000000000e+00) (0, 0, 0.00000000000000000000e+00) (0, 0, 0.00000000000000000000e+00) (0, 0, 0.00000000000000000000e+00) (0, 0, 0.00000000000000000000e+00) (0, 0, 0.00000000000000000000e+00) (0, 0, 0.00000000000000000000e+00) (0, 0, 0.00000000000000000000e+00) (0, 0, 0.00000000000000000000e+00) (0, 0, 0.00000000000000000000e+00) (0, 0, 0.00000000000000000000e+00) (0, 0, 0.00000000000000000000e+00) (0, 0, 0.00000000000000000000e+00) (0, 0, 0.00000000000000000000e+00) (0, 0, 0.00000000000000000000e+00) (0, 0, 0.00000000000000000000e+00) (0, 0, 0.00000000000000000000e+00) (0, 0, 0.00000000000000000000e+00) (0, 0, 0.00000000000000000000e+00) (0, 0, 0.00000000000000000000e+00) (0, 0, 0.00000000000000000000e+00) (0, 0, 0.00000000000000000000e+00) (0, 0, 0.00000000000000000000e+00) (0, 0, 0.00000000000000000000e+00) (0, 0, 0.00000000000000000000e+00) (0, 0, 0.00000000000000000000e+00) (0, 0, 0.00000000000000000000e+00) (0, 0, 0.00000000000000000000e+00) (0, 0, 0.00000000000000000000e+00) (0, 0, 0.00000000000000000000e+00) (0, 0, 0.00000000000000000000e+00) (0, 0, 0.00000000000000000000e+00) (0, 0, 0.00000000000000000000e+00) (0, 0, 0.00000000000000000000e+00) (0, 0, 0.00000000000000000000e+00) (0, 0, 0.00000000000000000000e+00) (0, 0, 0.00000000000000000000e+00) (0, 0, 0.00000000000000000000e+00) (0, 0, 0.00000000000000000000e+00) (0, 0, 0.00000000000000000000e+00) (0, 0, 0.00000000000000000000e+00) (0, 0, 0.00000000000000000000e+00) (0, 0, 0.00000000000000000000e+00) (0, 0, 0.00000000000000000000e+00) (0, 0, 0.00000000000000000000e+00) (0, 0, 0.00000000000000000000e+00) (0, 0, 0.00000000000000000000e+00) (0, 0, 0.00000000000000000000e+00) (0, 0, 0.00000000000000000000e+00) (0, 0, 0.00000000000000000000e+00) (0, 0, 0.00000000000000000000e+00) (0, 0, 0.00000000000000000000e+00) (0, 0, 0.00000000000000000000e+00) (0, 0, 0.00000000000000000000e+00) (0, 0, 0.00000000000000000000e+00) (0, 0, 0.00000000000000000000e+00) (0, 0, 0.00000000000000000000e+00) (0, 0, 0.00000000000000000000e+00) (0, 0, 0.00000000000000000000e+00) (0, 0, 0.00000000000000000000e+00) (0, 0, 0.00000000000000000000e+00) (0, 0, 0.00000000000000000000e+00) (0, 0, 0.00000000000000000000e+00) (0, 0, 0.00000000000000000000e+00) (0, 0, 0.00000000000000000000e+00) (0, 0, 0.00000000000000000000e+00) (0, 0, 0.00000000000000000000e+00) (0, 0, 0.00000000000000000000e+00) (0, 0, 0.00000000000000000000e+00) (0, 0, 0.00000000000000000000e+00) (0, 0, 0.00000000000000000000e+00) (0, 0, 0.00000000000000000000e+00) (0, 0, 0.00000000000000000000e+00) (0, 0, 0.00000000000000000000e+00) (0, 0, 0.00000000000000000000e+00) (0, 0, 0.00000000000000000000e+00) (0, 0, 0.00000000000000000000e+00) (0, 0, 0.00000000000000000000e+00) (0, 0, 0.00000000000000000000e+00) (0, 0, 0.00000000000000000000e+00) (0, 0, 0.00000000000000000000e+00) (0, 0, 0.00000000000000000000e+00) (0, 0, 0.00000000000000000000e+00) (0, 0, 0.00000000000000000000e+00) (0, 0, 0.00000000000000000000e+00) (0, 0, 0.00000000000000000000e+00) (0, 0, 0.00000000000000000000e+00) (0, 0, 0.00000000000000000000e+00) (0, 0, 0.00000000000000000000e+00) (0, 0, 0.00000000000000000000e+00) (0, 0, 0.00000000000000000000e+00) (0, 0, 0.00000000000000000000e+00) (0, 0, 0.00000000000000000000e+00) (0, 0, 0.00000000000000000000e+00) (0, 0, 0.00000000000000000000e+00) (0, 0, 0.00000000000000000000e+00) (0, 0, 0.00000000000000000000e+00) (0, 0, 0.00000000000000000000e+00) (0, 0, 0.00000000000000000000e+00) (0, 0, 0.00000000000000000000e+00) (0, 0, 0.00000000000000000000e+00) (0, 0, 0.00000000000000000000e+00) (0, 0, 0.00000000000000000000e+00) (0, 0, 0.00000000000000000000e+00) (0, 0, 0.00000000000000000000e+00) (0, 0, 0.00000000000000000000e+00) (0, 0, 0.00000000000000000000e+00) (0, 0, 0.00000000000000000000e+00) (0, 0, 0.00000000000000000000e+00) (0, 0, 0.00000000000000000000e+00) (0, 0, 0.00000000000000000000e+00) (0, 0, 0.00000000000000000000e+00) (0, 0, 0.00000000000000000000e+00) (0, 0, 0.00000000000000000000e+00) (0, 0, 0.00000000000000000000e+00) (0, 0, 0.00000000000000000000e+00) (0, 0, 0.00000000000000000000e+00) (0, 0, 0.00000000000000000000e+00) (0, 0, 0.00000000000000000000e+00) (0, 0, 0.00000000000000000000e+00) (0, 0, 0.00000000000000000000e+00) (0, 0, 0.00000000000000000000e+00) (0, 0, 0.00000000000000000000e+00) (0, 0, 0.00000000000000000000e+00) (0, 0, 0.00000000000000000000e+00) (0, 0, 0.00000000000000000000e+00) (0, 0, 0.00000000000000000000e+00) (0, 0, 0.00000000000000000000e+00) (0, 0, 0.00000000000000000000e+00) (0, 0, 0.00000000000000000000e+00) (0, 0, 0.00000000000000000000e+00) (0, 0, 0.00000000000000000000e+00) (0, 0, 0.00000000000000000000e+00) (0, 0, 0.00000000000000000000e+00) (0, 0, 0.00000000000000000000e+00) (0, 0, 0.00000000000000000000e+00) (0, 0, 0.00000000000000000000e+00) (0, 0, 0.00000000000000000000e+00) (0, 0, 0.00000000000000000000e+00) (0, 0, 0.00000000000000000000e+00) (0, 0, 0.00000000000000000000e+00) (0, 0, 0.00000000000000000000e+00) (0, 0, 0.00000000000000000000e+00) (0, 0, 0.00000000000000000000e+00) (0, 0, 0.00000000000000000000e+00) (0, 0, 0.00000000000000000000e+00) (0, 0, 0.00000000000000000000e+00) (0, 0, 0.00000000000000000000e+00) (0, 0, 0.00000000000000000000e+00) (0, 0, 0.00000000000000000000e+00) (0, 0, 0.00000000000000000000e+00) (0, 0, 0.00000000000000000000e+00) (0, 0, 0.00000000000000000000e+00) (0, 0, 0.00000000000000000000e+00) (0, 0, 0.00000000000000000000e+00) (0, 0, 0.00000000000000000000e+00) (0, 0, 0.00000000000000000000e+00) (0, 0, 0.00000000000000000000e+00) (0, 0, 0.00000000000000000000e+00) (0, 0, 0.00000000000000000000e+00) (0, 0, 0.00000000000000000000e+00) (0, 0, 0.00000000000000000000e+00) (0, 0, 0.00000000000000000000e+00) (0, 0, 0.00000000000000000000e+00) (0, 0, 0.00000000000000000000e+00) (0, 0, 0.00000000000000000000e+00) (0, 0, 0.00000000000000000000e+00) (0, 0, 0.00000000000000000000e+00) (0, 0, 0.00000000000000000000e+00) (0, 0, 0.00000000000000000000e+00) (0, 0, 0.00000000000000000000e+00) (0, 0, 0.00000000000000000000e+00) (0, 0, 0.00000000000000000000e+00) (0, 0, 0.00000000000000000000e+00) (0, 0, 0.00000000000000000000e+00) (0, 0, 0.00000000000000000000e+00) (0, 0, 0.00000000000000000000e+00) (0, 0, 0.00000000000000000000e+00) (0, 0, 0.00000000000000000000e+00) (0, 0, 0.00000000000000000000e+00) (0, 0, 0.00000000000000000000e+00) (0, 0, 0.00000000000000000000e+00) (0, 0, 0.00000000000000000000e+00) (0, 0, 0.00000000000000000000e+00) (0, 0, 0.00000000000000000000e+00) (0, 0, 0.00000000000000000000e+00) (0, 0, 0.00000000000000000000e+00) (0, 0, 0.00000000000000000000e+00) (0, 0, 0.00000000000000000000e+00) (0, 0, 0.00000000000000000000e+00) (0, 0, 0.00000000000000000000e+00) (0, 0, 0.00000000000000000000e+00) (0, 0, 0.00000000000000000000e+00) (0, 0, 0.00000000000000000000e+00) (0, 0, 0.00000000000000000000e+00) (0, 0, 0.00000000000000000000e+00) (0, 0, 0.00000000000000000000e+00) (0, 0, 0.00000000000000000000e+00) (0, 0, 0.00000000000000000000e+00) (0, 0, 0.00000000000000000000e+00) (0, 0, 0.00000000000000000000e+00) (0, 0, 0.00000000000000000000e+00) (0, 0, 0.00000000000000000000e+00) (0, 0, 0.00000000000000000000e+00) (0, 0, 0.00000000000000000000e+00) (0, 0, 0.00000000000000000000e+00) (0, 0, 0.00000000000000000000e+00) (0, 0, 0.00000000000000000000e+00) (0, 0, 0.00000000000000000000e+00) (0, 0, 0.00000000000000000000e+00) (0, 0, 0.00000000000000000000e+00) (0, 0, 0.00000000000000000000e+00) (0, 0, 0.00000000000000000000e+00) (0, 0, 0.00000000000000000000e+00) (0, 0, 0.00000000000000000000e+00) (0, 0, 0.00000000000000000000e+00) (0, 0, 0.00000000000000000000e+00) (0, 0, 0.00000000000000000000e+00) (0, 0, 0.00000000000000000000e+00) (0, 0, 0.00000000000000000000e+00) (0, 0, 0.00000000000000000000e+00) (0, 0, 0.00000000000000000000e+00) (0, 0, 0.00000000000000000000e+00) (0, 0, 0.00000000000000000000e+00) (0, 0, 0.00000000000000000000e+00) (0, 0, 0.00000000000000000000e+00) (0, 0, 0.00000000000000000000e+00) (0, 0, 0.00000000000000000000e+00) (0, 0, 0.00000000000000000000e+00) (0, 0, 0.00000000000000000000e+00) (0, 0, 0.00000000000000000000e+00) (0, 0, 0.00000000000000000000e+00) (0, 0, 0.00000000000000000000e+00) (0, 0, 0.00000000000000000000e+00) (0, 0, 0.00000000000000000000e+00) (0, 0, 0.00000000000000000000e+00) (0, 0, 0.00000000000000000000e+00) (0, 0, 0.00000000000000000000e+00) (0, 0, 0.00000000000000000000e+00) (0, 0, 0.00000000000000000000e+00) (0, 0, 0.00000000000000000000e+00) (0, 0, 0.00000000000000000000e+00) (0, 0, 0.00000000000000000000e+00) (0, 0, 0.00000000000000000000e+00) (0, 0, 0.00000000000000000000e+00) (0, 0, 0.00000000000000000000e+00) (0, 0, 0.00000000000000000000e+00) (0, 0, 0.00000000000000000000e+00) (0, 0, 0.00000000000000000000e+00) (0, 0, 0.00000000000000000000e+00) (0, 0, 0.00000000000000000000e+00) (0, 0, 0.00000000000000000000e+00) (0, 0, 0.00000000000000000000e+00) (0, 0, 0.00000000000000000000e+00) (0, 0, 0.00000000000000000000e+00) (0, 0, 0.00000000000000000000e+00) (0, 0, 0.00000000000000000000e+00) (0, 0, 0.00000000000000000000e+00) (0, 0, 0.00000000000000000000e+00) (0, 0, 0.00000000000000000000e+00) (0, 0, 0.00000000000000000000e+00) (0, 0, 0.00000000000000000000e+00) (0, 0, 0.00000000000000000000e+00) (0, 0, 0.00000000000000000000e+00) (0, 0, 0.00000000000000000000e+00) (0, 0, 0.00000000000000000000e+00) (0, 0, 0.00000000000000000000e+00) (0, 0, 0.00000000000000000000e+00) (0, 0, 0.00000000000000000000e+00) (0, 0, 0.00000000000000000000e+00) (0, 0, 0.00000000000000000000e+00) (0, 0, 0.00000000000000000000e+00) (0, 0, 0.00000000000000000000e+00) (0, 0, 0.00000000000000000000e+00) (0, 0, 0.00000000000000000000e+00) (0, 0, 0.00000000000000000000e+00) (0, 0, 0.00000000000000000000e+00) (0, 0, 0.00000000000000000000e+00) (0, 0, 0.00000000000000000000e+00) (0, 0, 0.00000000000000000000e+00) (0, 0, 0.00000000000000000000e+00) (0, 0, 0.00000000000000000000e+00) (0, 0, 0.00000000000000000000e+00) (0, 0, 0.00000000000000000000e+00) (0, 0, 0.00000000000000000000e+00) (0, 0, 0.00000000000000000000e+00) (0, 0, 0.00000000000000000000e+00) (0, 0, 0.00000000000000000000e+00) (0, 0, 0.00000000000000000000e+00) (0, 0, 0.00000000000000000000e+00) (0, 0, 0.00000000000000000000e+00) (0, 0, 0.00000000000000000000e+00) (0, 0, 0.00000000000000000000e+00) (0, 0, 0.00000000000000000000e+00) (0, 0, 0.00000000000000000000e+00) (0, 0, 0.00000000000000000000e+00) (0, 0, 0.00000000000000000000e+00) (0, 0, 0.00000000000000000000e+00) (0, 0, 0.00000000000000000000e+00) (0, 0, 0.00000000000000000000e+00) (0, 0, 0.00000000000000000000e+00) (0, 0, 0.00000000000000000000e+00) (0, 0, 0.00000000000000000000e+00) (0, 0, 0.00000000000000000000e+00) (0, 0, 0.00000000000000000000e+00) (0, 0, 0.00000000000000000000e+00) (0, 0, 0.00000000000000000000e+00) (0, 0, 0.00000000000000000000e+00) (0, 0, 0.00000000000000000000e+00) (0, 0, 0.00000000000000000000e+00) (0, 0, 0.00000000000000000000e+00) (0, 0, 0.00000000000000000000e+00) (0, 0, 0.00000000000000000000e+00) (0, 0, 0.00000000000000000000e+00) (0, 0, 0.00000000000000000000e+00) (0, 0, 0.00000000000000000000e+00) (0, 0, 0.00000000000000000000e+00) (0, 0, 0.00000000000000000000e+00) (0, 0, 0.00000000000000000000e+00) (0, 0, 0.00000000000000000000e+00) (0, 0, 0.00000000000000000000e+00) (0, 0, 0.00000000000000000000e+00) (0, 0, 0.00000000000000000000e+00) (0, 0, 0.00000000000000000000e+00) (0, 0, 0.00000000000000000000e+00) (0, 0, 0.00000000000000000000e+00) (0, 0, 0.00000000000000000000e+00) (0, 0, 0.00000000000000000000e+00) (0, 0, 0.00000000000000000000e+00) (0, 0, 0.00000000000000000000e+00) (0, 0, 0.00000000000000000000e+00) (0, 0, 0.00000000000000000000e+00) (0, 0, 0.00000000000000000000e+00) (0, 0, 0.00000000000000000000e+00) (0, 0, 0.00000000000000000000e+00) (0, 0, 0.00000000000000000000e+00) (0, 0, 0.00000000000000000000e+00) (0, 0, 0.00000000000000000000e+00) (0, 0, 0.00000000000000000000e+00) (0, 0, 0.00000000000000000000e+00) (0, 0, 0.00000000000000000000e+00) (0, 0, 0.00000000000000000000e+00) (0, 0, 0.00000000000000000000e+00) (0, 0, 0.00000000000000000000e+00) (0, 0, 0.00000000000000000000e+00) (0, 0, 0.00000000000000000000e+00) (0, 0, 0.00000000000000000000e+00) (0, 0, 0.00000000000000000000e+00) (0, 0, 0.00000000000000000000e+00) (0, 0, 0.00000000000000000000e+00) (0, 0, 0.00000000000000000000e+00) (0, 0, 0.00000000000000000000e+00) (0, 0, 0.00000000000000000000e+00) (0, 0, 0.00000000000000000000e+00) (0, 0, 0.00000000000000000000e+00) (0, 0, 0.00000000000000000000e+00) (0, 0, 0.00000000000000000000e+00) (0, 0, 0.00000000000000000000e+00) (0, 0, 0.00000000000000000000e+00) (0, 0, 0.00000000000000000000e+00) (0, 0, 0.00000000000000000000e+00) (0, 0, 0.00000000000000000000e+00) (0, 0, 0.00000000000000000000e+00) (0, 0, 0.00000000000000000000e+00) (0, 0, 0.00000000000000000000e+00) (0, 0, 0.00000000000000000000e+00) (0, 0, 0.00000000000000000000e+00) (0, 0, 0.00000000000000000000e+00) (0, 0, 0.00000000000000000000e+00) (0, 0, 0.00000000000000000000e+00) (0, 0, 0.00000000000000000000e+00) (0, 0, 0.00000000000000000000e+00) (0, 0, 0.00000000000000000000e+00) (0, 0, 0.00000000000000000000e+00) (0, 0, 0.00000000000000000000e+00) (0, 0, 0.00000000000000000000e+00) (0, 0, 0.00000000000000000000e+00) (0, 0, 0.00000000000000000000e+00) (0, 0, 0.00000000000000000000e+00) (0, 0, 0.00000000000000000000e+00) (0, 0, 0.00000000000000000000e+00) (0, 0, 0.00000000000000000000e+00) (0, 0, 0.00000000000000000000e+00) (0, 0, 0.00000000000000000000e+00) (0, 0, 0.00000000000000000000e+00) (0, 0, 0.00000000000000000000e+00) (0, 0, 0.00000000000000000000e+00) (0, 0, 0.00000000000000000000e+00) (0, 0, 0.00000000000000000000e+00) (0, 0, 0.00000000000000000000e+00) (0, 0, 0.00000000000000000000e+00) (0, 0, 0.00000000000000000000e+00) (0, 0, 0.00000000000000000000e+00) (0, 0, 0.00000000000000000000e+00) (0, 0, 0.00000000000000000000e+00) (0, 0, 0.00000000000000000000e+00) (0, 0, 0.00000000000000000000e+00) (0, 0, 0.00000000000000000000e+00) (0, 0, 0.00000000000000000000e+00) (0, 0, 0.00000000000000000000e+00) (0, 0, 0.00000000000000000000e+00) (0, 0, 0.00000000000000000000e+00) (0, 0, 0.00000000000000000000e+00) (0, 0, 0.00000000000000000000e+00) (0, 0, 0.00000000000000000000e+00) (0, 0, 0.00000000000000000000e+00) (0, 0, 0.00000000000000000000e+00) (0, 0, 0.00000000000000000000e+00) (0, 0, 0.00000000000000000000e+00) (0, 0, 0.00000000000000000000e+00) (0, 0, 0.00000000000000000000e+00) (0, 0, 0.00000000000000000000e+00) (0, 0, 0.00000000000000000000e+00) (0, 0, 0.00000000000000000000e+00) (0, 0, 0.00000000000000000000e+00) (0, 0, 0.00000000000000000000e+00) (0, 0, 0.00000000000000000000e+00) (0, 0, 0.00000000000000000000e+00) (0, 0, 0.00000000000000000000e+00) (0, 0, 0.00000000000000000000e+00) (0, 0, 0.00000000000000000000e+00) (0, 0, 0.00000000000000000000e+00) (0, 0, 0.00000000000000000000e+00) (0, 0, 0.00000000000000000000e+00) (0, 0, 0.00000000000000000000e+00) (0, 0, 0.00000000000000000000e+00) (0, 0, 0.00000000000000000000e+00) (0, 0, 0.00000000000000000000e+00) (0, 0, 0.00000000000000000000e+00) (0, 0, 0.00000000000000000000e+00) (0, 0, 0.00000000000000000000e+00) (0, 0, 0.00000000000000000000e+00) (0, 0, 0.00000000000000000000e+00) (0, 0, 0.00000000000000000000e+00) (0, 0, 0.00000000000000000000e+00) (0, 0, 0.00000000000000000000e+00) (0, 0, 0.00000000000000000000e+00) (0, 0, 0.00000000000000000000e+00) (0, 0, 0.00000000000000000000e+00) (0, 0, 0.00000000000000000000e+00) (0, 0, 0.00000000000000000000e+00) (0, 0, 0.00000000000000000000e+00) (0, 0, 0.00000000000000000000e+00) (0, 0, 0.00000000000000000000e+00) (0, 0, 0.00000000000000000000e+00) (0, 0, 0.00000000000000000000e+00) (0, 0, 0.00000000000000000000e+00) (0, 0, 0.00000000000000000000e+00) (0, 0, 0.00000000000000000000e+00) (0, 0, 0.00000000000000000000e+00) (0, 0, 0.00000000000000000000e+00) (0, 0, 0.00000000000000000000e+00) (0, 0, 0.00000000000000000000e+00) (0, 0, 0.00000000000000000000e+00) (0, 0, 0.00000000000000000000e+00) (0, 0, 0.00000000000000000000e+00) (0, 0, 0.00000000000000000000e+00) (0, 0, 0.00000000000000000000e+00) (0, 0, 0.00000000000000000000e+00) (0, 0, 0.00000000000000000000e+00) (0, 0, 0.00000000000000000000e+00) (0, 0, 0.00000000000000000000e+00) (0, 0, 0.00000000000000000000e+00) (0, 0, 0.00000000000000000000e+00) (0, 0, 0.00000000000000000000e+00) (0, 0, 0.00000000000000000000e+00) (0, 0, 0.00000000000000000000e+00) (0, 0, 0.00000000000000000000e+00) (0, 0, 0.00000000000000000000e+00) (0, 0, 0.00000000000000000000e+00) (0, 0, 0.00000000000000000000e+00) (0, 0, 0.00000000000000000000e+00) (0, 0, 0.00000000000000000000e+00) (0, 0, 0.00000000000000000000e+00) (0, 0, 0.00000000000000000000e+00) (0, 0, 0.00000000000000000000e+00) (0, 0, 0.00000000000000000000e+00) (0, 0, 0.00000000000000000000e+00) (0, 0, 0.00000000000000000000e+00) (0, 0, 0.00000000000000000000e+00) (0, 0, 0.00000000000000000000e+00) (0, 0, 0.00000000000000000000e+00) (0, 0, 0.00000000000000000000e+00) (0, 0, 0.00000000000000000000e+00) (0, 0, 0.00000000000000000000e+00) (0, 0, 0.00000000000000000000e+00) (0, 0, 0.00000000000000000000e+00) (0, 0, 0.00000000000000000000e+00) (0, 0, 0.00000000000000000000e+00) (0, 0, 0.00000000000000000000e+00) (0, 0, 0.00000000000000000000e+00) (0, 0, 0.00000000000000000000e+00) (0, 0, 0.00000000000000000000e+00) (0, 0, 0.00000000000000000000e+00) (0, 0, 0.00000000000000000000e+00) (0, 0, 0.00000000000000000000e+00) (0, 0, 0.00000000000000000000e+00) (0, 0, 0.00000000000000000000e+00) (0, 0, 0.00000000000000000000e+00) (0, 0, 0.00000000000000000000e+00) (0, 0, 0.00000000000000000000e+00) (0, 0, 0.00000000000000000000e+00) (0, 0, 0.00000000000000000000e+00) (0, 0, 0.00000000000000000000e+00) (0, 0, 0.00000000000000000000e+00) (0, 0, 0.00000000000000000000e+00) (0, 0, 0.00000000000000000000e+00) (0, 0, 0.00000000000000000000e+00) (0, 0, 0.00000000000000000000e+00) (0, 0, 0.00000000000000000000e+00) (0, 0, 0.00000000000000000000e+00) (0, 0, 0.00000000000000000000e+00) (0, 0, 0.00000000000000000000e+00) (0, 0, 0.00000000000000000000e+00) (0, 0, 0.00000000000000000000e+00) (0, 0, 0.00000000000000000000e+00) (0, 0, 0.00000000000000000000e+00) (0, 0, 0.00000000000000000000e+00) (0, 0, 0.00000000000000000000e+00) (0, 0, 0.00000000000000000000e+00) (0, 0, 0.00000000000000000000e+00) (0, 0, 0.00000000000000000000e+00) (0, 0, 0.00000000000000000000e+00) (0, 0, 0.00000000000000000000e+00) (0, 0, 0.00000000000000000000e+00) (0, 0, 0.00000000000000000000e+00) (0, 0, 0.00000000000000000000e+00) (0, 0, 0.00000000000000000000e+00) (0, 0, 0.00000000000000000000e+00) (0, 0, 0.00000000000000000000e+00) (0, 0, 0.00000000000000000000e+00) (0, 0, 0.00000000000000000000e+00) (0, 0, 0.00000000000000000000e+00) (0, 0, 0.00000000000000000000e+00) (0, 0, 0.00000000000000000000e+00) (0, 0, 0.00000000000000000000e+00) (0, 0, 0.00000000000000000000e+00) (0, 0, 0.00000000000000000000e+00) (0, 0, 0.00000000000000000000e+00) (0, 0, 0.00000000000000000000e+00) (0, 0, 0.00000000000000000000e+00) (0, 0, 0.00000000000000000000e+00) (0, 0, 0.00000000000000000000e+00) (0, 0, 0.00000000000000000000e+00) (0, 0, 0.00000000000000000000e+00) (0, 0, 0.00000000000000000000e+00) (0, 0, 0.00000000000000000000e+00) (0, 0, 0.00000000000000000000e+00) (0, 0, 0.00000000000000000000e+00) (0, 0, 0.00000000000000000000e+00) (0, 0, 0.00000000000000000000e+00) (0, 0, 0.00000000000000000000e+00) (0, 0, 0.00000000000000000000e+00) (0, 0, 0.00000000000000000000e+00) (0, 0, 0.00000000000000000000e+00) (0, 0, 0.00000000000000000000e+00) (0, 0, 0.00000000000000000000e+00) (0, 0, 0.00000000000000000000e+00) (0, 0, 0.00000000000000000000e+00) (0, 0, 0.00000000000000000000e+00) (0, 0, 0.00000000000000000000e+00) (0, 0, 0.00000000000000000000e+00) (0, 0, 0.00000000000000000000e+00) (0, 0, 0.00000000000000000000e+00) (0, 0, 0.00000000000000000000e+00) (0, 0, 0.00000000000000000000e+00) (0, 0, 0.00000000000000000000e+00) (0, 0, 0.00000000000000000000e+00) (0, 0, 0.00000000000000000000e+00) (0, 0, 0.00000000000000000000e+00) (0, 0, 0.00000000000000000000e+00) (0, 0, 0.00000000000000000000e+00) (0, 0, 0.00000000000000000000e+00) (0, 0, 0.00000000000000000000e+00) (0, 0, 0.00000000000000000000e+00) (0, 0, 0.00000000000000000000e+00) (0, 0, 0.00000000000000000000e+00) (0, 0, 0.00000000000000000000e+00) (0, 0, 0.00000000000000000000e+00) (0, 0, 0.00000000000000000000e+00) (0, 0, 0.00000000000000000000e+00) (0, 0, 0.00000000000000000000e+00) (0, 0, 0.00000000000000000000e+00) (0, 0, 0.00000000000000000000e+00) (0, 0, 0.00000000000000000000e+00) (0, 0, 0.00000000000000000000e+00) (0, 0, 0.00000000000000000000e+00) (0, 0, 0.00000000000000000000e+00) (0, 0, 0.00000000000000000000e+00) (0, 0, 0.00000000000000000000e+00) (0, 0, 0.00000000000000000000e+00) (0, 0, 0.00000000000000000000e+00) (0, 0, 0.00000000000000000000e+00) (0, 0, 0.00000000000000000000e+00) (0, 0, 0.00000000000000000000e+00) (0, 0, 0.00000000000000000000e+00) (0, 0, 0.00000000000000000000e+00) (0, 0, 0.00000000000000000000e+00) (0, 0, 0.00000000000000000000e+00) (0, 0, 0.00000000000000000000e+00) (0, 0, 0.00000000000000000000e+00) (0, 0, 0.00000000000000000000e+00) (0, 0, 0.00000000000000000000e+00) (0, 0, 0.00000000000000000000e+00) (0, 0, 0.00000000000000000000e+00) (0, 0, 0.00000000000000000000e+00) (0, 0, 0.00000000000000000000e+00) (0, 0, 0.00000000000000000000e+00) (0, 0, 0.00000000000000000000e+00) (0, 0, 0.00000000000000000000e+00) (0, 0, 0.00000000000000000000e+00) (0, 0, 0.00000000000000000000e+00) (0, 0, 0.00000000000000000000e+00) (0, 0, 0.00000000000000000000e+00) (0, 0, 0.00000000000000000000e+00) (0, 0, 0.00000000000000000000e+00) (0, 0, 0.00000000000000000000e+00) (0, 0, 0.00000000000000000000e+00) (0, 0, 0.00000000000000000000e+00) (0, 0, 0.00000000000000000000e+00) (0, 0, 0.00000000000000000000e+00) (0, 0, 0.00000000000000000000e+00) (0, 0, 0.00000000000000000000e+00) (0, 0, 0.00000000000000000000e+00) (0, 0, 0.00000000000000000000e+00) (0, 0, 0.00000000000000000000e+00) (0, 0, 0.00000000000000000000e+00) (0, 0, 0.00000000000000000000e+00) (0, 0, 0.00000000000000000000e+00) (0, 0, 0.00000000000000000000e+00) (0, 0, 0.00000000000000000000e+00) (0, 0, 0.00000000000000000000e+00) (0, 0, 0.00000000000000000000e+00) (0, 0, 0.00000000000000000000e+00) (0, 0, 0.00000000000000000000e+00) (0, 0, 0.00000000000000000000e+00) (0, 0, 0.00000000000000000000e+00) (0, 0, 0.00000000000000000000e+00) (0, 0, 0.00000000000000000000e+00) (0, 0, 0.00000000000000000000e+00) (0, 0, 0.00000000000000000000e+00) (0, 0, 0.00000000000000000000e+00) (0, 0, 0.00000000000000000000e+00) (0, 0, 0.00000000000000000000e+00) (0, 0, 0.00000000000000000000e+00) (0, 0, 0.00000000000000000000e+00) (0, 0, 0.00000000000000000000e+00) (0, 0, 0.00000000000000000000e+00) (0, 0, 0.00000000000000000000e+00) (0, 0, 0.00000000000000000000e+00) (0, 0, 0.00000000000000000000e+00) (0, 0, 0.00000000000000000000e+00) (0, 0, 0.00000000000000000000e+00) (0, 0, 0.00000000000000000000e+00) (0, 0, 0.00000000000000000000e+00) (0, 0, 0.00000000000000000000e+00) (0, 0, 0.00000000000000000000e+00) (0, 0, 0.00000000000000000000e+00) (0, 0, 0.00000000000000000000e+00) (0, 0, 0.00000000000000000000e+00) (0, 0, 0.00000000000000000000e+00) (0, 0, 0.00000000000000000000e+00) (0, 0, 0.00000000000000000000e+00) (0, 0, 0.00000000000000000000e+00) (0, 0, 0.00000000000000000000e+00) (0, 0, 0.00000000000000000000e+00) (0, 0, 0.00000000000000000000e+00) (0, 0, 0.00000000000000000000e+00) (0, 0, 0.00000000000000000000e+00) (0, 0, 0.00000000000000000000e+00) (0, 0, 0.00000000000000000000e+00) (0, 0, 0.00000000000000000000e+00) (0, 0, 0.00000000000000000000e+00) (0, 0, 0.00000000000000000000e+00) (0, 0, 0.00000000000000000000e+00) (0, 0, 0.00000000000000000000e+00) (0, 0, 0.00000000000000000000e+00) (0, 0, 0.00000000000000000000e+00) (0, 0, 0.00000000000000000000e+00) (0, 0, 0.00000000000000000000e+00) (0, 0, 0.00000000000000000000e+00) (0, 0, 0.00000000000000000000e+00) (0, 0, 0.00000000000000000000e+00) (0, 0, 0.00000000000000000000e+00) (0, 0, 0.00000000000000000000e+00) (0, 0, 0.00000000000000000000e+00) (0, 0, 0.00000000000000000000e+00) (0, 0, 0.00000000000000000000e+00) (0, 0, 0.00000000000000000000e+00) (0, 0, 0.00000000000000000000e+00) (0, 0, 0.00000000000000000000e+00) (0, 0, 0.00000000000000000000e+00) (0, 0, 0.00000000000000000000e+00) (0, 0, 0.00000000000000000000e+00) (0, 0, 0.00000000000000000000e+00) (0, 0, 0.00000000000000000000e+00) (0, 0, 0.00000000000000000000e+00) (0, 0, 0.00000000000000000000e+00) (0, 0, 0.00000000000000000000e+00) (0, 0, 0.00000000000000000000e+00) (0, 0, 0.00000000000000000000e+00) (0, 0, 0.00000000000000000000e+00) (0, 0, 0.00000000000000000000e+00) (0, 0, 0.00000000000000000000e+00) (0, 0, 0.00000000000000000000e+00) (0, 0, 0.00000000000000000000e+00) (0, 0, 0.00000000000000000000e+00) (0, 0, 0.00000000000000000000e+00) (0, 0, 0.00000000000000000000e+00) (0, 0, 0.00000000000000000000e+00) (0, 0, 0.00000000000000000000e+00) (0, 0, 0.00000000000000000000e+00) (0, 0, 0.00000000000000000000e+00) (0, 0, 0.00000000000000000000e+00) (0, 0, 0.00000000000000000000e+00) (0, 0, 0.00000000000000000000e+00) (0, 0, 0.00000000000000000000e+00) (0, 0, 0.00000000000000000000e+00) (0, 0, 0.00000000000000000000e+00) (0, 0, 0.00000000000000000000e+00) (0, 0, 0.00000000000000000000e+00) (0, 0, 0.00000000000000000000e+00) (0, 0, 0.00000000000000000000e+00) (0, 0, 0.00000000000000000000e+00) (0, 0, 0.00000000000000000000e+00) (0, 0, 0.00000000000000000000e+00) (0, 0, 0.00000000000000000000e+00) (0, 0, 0.00000000000000000000e+00) (0, 0, 0.00000000000000000000e+00) (0, 0, 0.00000000000000000000e+00) (0, 0, 0.00000000000000000000e+00) (0, 0, 0.00000000000000000000e+00) (0, 0, 0.00000000000000000000e+00) (0, 0, 0.00000000000000000000e+00) (0, 0, 0.00000000000000000000e+00) (0, 0, 0.00000000000000000000e+00) (0, 0, 0.00000000000000000000e+00) (0, 0, 0.00000000000000000000e+00) (0, 0, 0.00000000000000000000e+00) (0, 0, 0.00000000000000000000e+00) (0, 0, 0.00000000000000000000e+00) (0, 0, 0.00000000000000000000e+00) (0, 0, 0.00000000000000000000e+00) (0, 0, 0.00000000000000000000e+00) (0, 0, 0.00000000000000000000e+00) (0, 0, 0.00000000000000000000e+00) (0, 0, 0.00000000000000000000e+00) (0, 0, 0.00000000000000000000e+00) (0, 0, 0.00000000000000000000e+00) (0, 0, 0.00000000000000000000e+00) (0, 0, 0.00000000000000000000e+00) (0, 0, 0.00000000000000000000e+00) (0, 0, 0.00000000000000000000e+00) (0, 0, 0.00000000000000000000e+00) (0, 0, 0.00000000000000000000e+00) (0, 0, 0.00000000000000000000e+00) (0, 0, 0.00000000000000000000e+00) (0, 0, 0.00000000000000000000e+00) (0, 0, 0.00000000000000000000e+00) (0, 0, 0.00000000000000000000e+00) (0, 0, 0.00000000000000000000e+00) (0, 0, 0.00000000000000000000e+00) (0, 0, 0.00000000000000000000e+00) (0, 0, 0.00000000000000000000e+00) (0, 0, 0.00000000000000000000e+00) (0, 0, 0.00000000000000000000e+00) (0, 0, 0.00000000000000000000e+00) (0, 0, 0.00000000000000000000e+00) (0, 0, 0.00000000000000000000e+00) (0, 0, 0.00000000000000000000e+00) (0, 0, 0.00000000000000000000e+00) (0, 0, 0.00000000000000000000e+00) (0, 0, 0.00000000000000000000e+00) (0, 0, 0.00000000000000000000e+00) (0, 0, 0.00000000000000000000e+00) (0, 0, 0.00000000000000000000e+00) (0, 0, 0.00000000000000000000e+00) (0, 0, 0.00000000000000000000e+00) (0, 0, 0.00000000000000000000e+00) (0, 0, 0.00000000000000000000e+00) (0, 0, 0.00000000000000000000e+00) (0, 0, 0.00000000000000000000e+00) (0, 0, 0.00000000000000000000e+00) (0, 0, 0.00000000000000000000e+00) (0, 0, 0.00000000000000000000e+00) (0, 0, 0.00000000000000000000e+00) (0, 0, 0.00000000000000000000e+00) (0, 0, 0.00000000000000000000e+00) (0, 0, 0.00000000000000000000e+00) (0, 0, 0.00000000000000000000e+00) (0, 0, 0.00000000000000000000e+00) (0, 0, 0.00000000000000000000e+00) (0, 0, 0.00000000000000000000e+00) (0, 0, 0.00000000000000000000e+00) (0, 0, 0.00000000000000000000e+00) (0, 0, 0.00000000000000000000e+00) (0, 0, 0.00000000000000000000e+00) (0, 0, 0.00000000000000000000e+00) (0, 0, 0.00000000000000000000e+00) (0, 0, 0.00000000000000000000e+00) (0, 0, 0.00000000000000000000e+00) (0, 0, 0.00000000000000000000e+00) (0, 0, 0.00000000000000000000e+00) (0, 0, 0.00000000000000000000e+00) (0, 0, 0.00000000000000000000e+00) (0, 0, 0.00000000000000000000e+00) (0, 0, 0.00000000000000000000e+00) (0, 0, 0.00000000000000000000e+00) (0, 0, 0.00000000000000000000e+00) (0, 0, 0.00000000000000000000e+00) (0, 0, 0.00000000000000000000e+00) (0, 0, 0.00000000000000000000e+00) (0, 0, 0.00000000000000000000e+00) (0, 0, 0.00000000000000000000e+00) (0, 0, 0.00000000000000000000e+00) (0, 0, 0.00000000000000000000e+00) (0, 0, 0.00000000000000000000e+00) (0, 0, 0.00000000000000000000e+00) (0, 0, 0.00000000000000000000e+00) (0, 0, 0.00000000000000000000e+00) (0, 0, 0.00000000000000000000e+00) (0, 0, 0.00000000000000000000e+00) (0, 0, 0.00000000000000000000e+00) (0, 0, 0.00000000000000000000e+00) (0, 0, 0.00000000000000000000e+00) (0, 0, 0.00000000000000000000e+00) (0, 0, 0.00000000000000000000e+00) (0, 0, 0.00000000000000000000e+00) (0, 0, 0.00000000000000000000e+00) (0, 0, 0.00000000000000000000e+00) (0, 0, 0.00000000000000000000e+00) (0, 0, 0.00000000000000000000e+00) (0, 0, 0.00000000000000000000e+00) (0, 0, 0.00000000000000000000e+00) (0, 0, 0.00000000000000000000e+00) (0, 0, 0.00000000000000000000e+00) (0, 0, 0.00000000000000000000e+00) (0, 0, 0.00000000000000000000e+00) (0, 0, 0.00000000000000000000e+00) (0, 0, 0.00000000000000000000e+00) (0, 0, 0.00000000000000000000e+00) (0, 0, 0.00000000000000000000e+00) (0, 0, 0.00000000000000000000e+00) (0, 0, 0.00000000000000000000e+00) (1025, 11, 5.00000000000000000000e-01) (1025, 11, 5.00000000000000000000e-01) (1025, 11, 5.00000000000000000000e-01) (1025, 11, 5.00000000000000000000e-01) (1025, 11, 5.00000000000000000000e-01) (1025, 11, 5.00000000000000000000e-01) (1025, 11, 5.00000000000000000000e-01) (1025, 11, 5.00000000000000000000e-01) (1025, 11, 5.00000000000000000000e-01) (1025, 11, 5.00000000000000000000e-01) (1025, 11, 5.00000000000000000000e-01) (1025, 11, 5.00000000000000000000e-01) (1025, 11, 5.00000000000000000000e-01) (1025, 11, 5.00000000000000000000e-01) (1025, 11, 5.00000000000000000000e-01) (1025, 11, 5.00000000000000000000e-01) (1025, 11, 5.00000000000000000000e-01) (1025, 11, 5.00000000000000000000e-01) (1025, 11, 5.00000000000000000000e-01) (1025, 11, 5.00000000000000000000e-01) (1025, 11, 5.00000000000000000000e-01) (1025, 11, 5.00000000000000000000e-01) (0, 11, 0.00000000000000000000e+00) (23, 11, 5.00000000000000000000e-01) (23, 11, 5.00000000000000000000e-01) (23, 11, 5.00000000000000000000e-01) (23, 11, 5.00000000000000000000e-01) (23, 11, 5.00000000000000000000e-01) (23, 11, 5.00000000000000000000e-01) (23, 11, 5.00000000000000000000e-01) (23, 11, 5.00000000000000000000e-01) (23, 11, 5.00000000000000000000e-01) (23, 11, 5.00000000000000000000e-01) (23, 11, 5.00000000000000000000e-01) (23, 11, 5.00000000000000000000e-01) (23, 11, 5.00000000000000000000e-01) (23, 11, 5.00000000000000000000e-01) (23, 11, 5.00000000000000000000e-01) (23, 11, 5.00000000000000000000e-01) (23, 11, 5.00000000000000000000e-01) (23, 11, 5.00000000000000000000e-01) (23, 11, 5.00000000000000000000e-01) (23, 11, 5.00000000000000000000e-01) (23, 11, 5.00000000000000000000e-01) (23, 11, 5.00000000000000000000e-01) (23, 11, 5.00000000000000000000e-01) (23, 11, 5.00000000000000000000e-01) (23, 11, 5.00000000000000000000e-01) (23, 11, 5.00000000000000000000e-01) (23, 11, 5.00000000000000000000e-01) (23, 11, 5.00000000000000000000e-01) (23, 11, 5.00000000000000000000e-01) (23, 11, 5.00000000000000000000e-01) (23, 11, 5.00000000000000000000e-01) (23, 11, 5.00000000000000000000e-01) (23, 11, 5.00000000000000000000e-01) (23, 11, 5.00000000000000000000e-01) (23, 11, 5.00000000000000000000e-01) (23, 11, 5.00000000000000000000e-01) (23, 11, 5.00000000000000000000e-01) (23, 11, 5.00000000000000000000e-01) (23, 11, 5.00000000000000000000e-01) (23, 11, 5.00000000000000000000e-01) (23, 11, 5.00000000000000000000e-01) (23, 11, 5.00000000000000000000e-01) (23, 11, 5.00000000000000000000e-01) (23, 11, 5.00000000000000000000e-01) (23, 11, 5.00000000000000000000e-01) (23, 11, 5.00000000000000000000e-01) (23, 11, 5.00000000000000000000e-01) (23, 11, 5.00000000000000000000e-01) (23, 11, 5.00000000000000000000e-01) (23, 11, 5.00000000000000000000e-01) (0, 11, 0.00000000000000000000e+00) (51, 11, 5.00000000000000000000e-01) (51, 11, 5.00000000000000000000e-01) (51, 11, 5.00000000000000000000e-01) (51, 11, 5.00000000000000000000e-01) (51, 11, 5.00000000000000000000e-01) (51, 11, 5.00000000000000000000e-01) (51, 11, 5.00000000000000000000e-01) (51, 11, 5.00000000000000000000e-01) (51, 11, 5.00000000000000000000e-01) (51, 11, 5.00000000000000000000e-01) (51, 11, 5.00000000000000000000e-01) (51, 11, 5.00000000000000000000e-01) (51, 11, 5.00000000000000000000e-01) (51, 11, 5.00000000000000000000e-01) (51, 11, 5.00000000000000000000e-01) (51, 11, 5.00000000000000000000e-01) (51, 11, 5.00000000000000000000e-01) (51, 11, 5.00000000000000000000e-01) (51, 11, 5.00000000000000000000e-01) (51, 11, 5.00000000000000000000e-01) (51, 11, 5.00000000000000000000e-01) (51, 11, 5.00000000000000000000e-01) (51, 11, 5.00000000000000000000e-01) (51, 11, 5.00000000000000000000e-01) (51, 11, 5.00000000000000000000e-01) (51, 11, 5.00000000000000000000e-01) (51, 11, 5.00000000000000000000e-01) (51, 11, 5.00000000000000000000e-01) (51, 11, 5.00000000000000000000e-01) (51, 11, 5.00000000000000000000e-01) (51, 11, 5.00000000000000000000e-01) (51, 11, 5.00000000000000000000e-01) (51, 11, 5.00000000000000000000e-01) (51, 11, 5.00000000000000000000e-01) (51, 11, 5.00000000000000000000e-01) (51, 11, 5.00000000000000000000e-01) (51, 11, 5.00000000000000000000e-01) (51, 11, 5.00000000000000000000e-01) (51, 11, 5.00000000000000000000e-01) (51, 11, 5.00000000000000000000e-01) (51, 11, 5.00000000000000000000e-01) (51, 11, 5.00000000000000000000e-01) (51, 11, 5.00000000000000000000e-01) (51, 11, 5.00000000000000000000e-01) (51, 11, 5.00000000000000000000e-01) (51, 11, 5.00000000000000000000e-01) (51, 11, 5.00000000000000000000e-01) (51, 11, 5.00000000000000000000e-01) (51, 11, 5.00000000000000000000e-01) (51, 11, 5.00000000000000000000e-01) (0, 11, 0.00000000000000000000e+00) (51, 11, 5.00000000000000000000e-01) (51, 11, 5.00000000000000000000e-01) (51, 11, 5.00000000000000000000e-01) (51, 11, 5.00000000000000000000e-01) (51, 11, 5.00000000000000000000e-01) (51, 11, 5.00000000000000000000e-01) (51, 11, 5.00000000000000000000e-01) (51, 11, 5.00000000000000000000e-01) (51, 11, 5.00000000000000000000e-01) (51, 11, 5.00000000000000000000e-01) (51, 11, 5.00000000000000000000e-01) (51, 11, 5.00000000000000000000e-01) (51, 11, 5.00000000000000000000e-01) (51, 11, 5.00000000000000000000e-01) (51, 11, 5.00000000000000000000e-01) (51, 11, 5.00000000000000000000e-01) (51, 11, 5.00000000000000000000e-01) (51, 11, 5.00000000000000000000e-01) (51, 11, 5.00000000000000000000e-01) (51, 11, 5.00000000000000000000e-01) (51, 11, 5.00000000000000000000e-01) (51, 11, 5.00000000000000000000e-01) (0, 11, 0.00000000000000000000e+00) (23, 11, 5.00000000000000000000e-01) (23, 11, 5.00000000000000000000e-01) (23, 11, 5.00000000000000000000e-01) (23, 11, 5.00000000000000000000e-01) (23, 11, 5.00000000000000000000e-01) (23, 11, 5.00000000000000000000e-01) (23, 11, 5.00000000000000000000e-01) (23, 11, 5.00000000000000000000e-01) (23, 11, 5.00000000000000000000e-01) (23, 11, 5.00000000000000000000e-01) (0, 11, 0.00000000000000000000e+00) 
connections (connected_to_neuron, weight)=(0, 4.56590384244918823242e-01) (1, 3.06517094373703002930e-01) (2, 3.14537137746810913086e-01) (3, 4.08580034971237182617e-01) (4, 9.75761115550994873047e-02) (5, 4.40696865320205688477e-01) (6, 5.10461509227752685547e-01) (7, 5.15661716461181640625e-01) (8, 4.21067804098129272461e-01) (9, 1.48149937391281127930e-01) (10, 5.17877280712127685547e-01) (11, 2.12896019220352172852e-01) (12, 4.38527315855026245117e-02) (13, 1.17131799459457397461e-01) (14, -4.35618907213211059570e-02) (15, 8.85673835873603820801e-02) (16, 3.59672665596008300781e-01) (17, 1.90868437290191650391e-01) (18, 1.22826449573040008545e-01) (19, 7.31864646077156066895e-02) (20, 1.51052083820104598999e-02) (21, 4.15098637342453002930e-01) (22, 2.34548207372426986694e-02) (23, 1.64968054741621017456e-02) (24, 1.53752923011779785156e-01) (25, 3.80418419837951660156e-01) (26, 5.22436559200286865234e-01) (27, 5.18737852573394775391e-01) (28, 4.97570246458053588867e-01) (29, 2.53269970417022705078e-01) (30, 4.23429936170578002930e-01) (31, 3.59819054603576660156e-01) (32, 2.34026327729225158691e-01) (33, -1.05478409677743911743e-02) (34, 4.04313653707504272461e-01) (35, 3.70402574539184570313e-01) (36, -2.20102351158857345581e-02) (37, 1.23650416731834411621e-01) (38, 4.44717407226562500000e-01) (39, 5.10050833225250244141e-01) (40, 3.69576364755630493164e-01) (41, 2.21957385540008544922e-01) (42, 7.08231270313262939453e-01) (43, 6.38761103153228759766e-01) (44, -1.26660782843828201294e-02) (45, 2.89687067270278930664e-02) (46, 2.00375407934188842773e-01) (47, 4.27873730659484863281e-01) (48, 7.65867009758949279785e-02) (49, 3.37804228067398071289e-01) (50, 5.60690104961395263672e-01) (51, 3.31247925758361816406e-01) (52, 1.21200345456600189209e-01) (53, 1.05041392147541046143e-01) (54, 3.17355573177337646484e-01) (55, 6.58389985561370849609e-01) (56, 6.76169574260711669922e-01) (57, 3.08489978313446044922e-01) (58, 3.17039787769317626953e-01) (59, 7.53961950540542602539e-02) (60, 2.63871788978576660156e-01) (61, 3.06370645761489868164e-01) (62, 4.24244850873947143555e-02) (63, 2.64897227287292480469e-01) (64, 3.41911435127258300781e-01) (65, 4.68162626028060913086e-01) (66, 5.45379698276519775391e-01) (67, 6.23648948967456817627e-02) (68, 4.16050761938095092773e-01) (69, 1.10916756093502044678e-01) (70, 2.41306081414222717285e-01) (71, 6.38593077659606933594e-01) (72, 2.62061715126037597656e-01) (73, 3.14090967178344726563e-01) (74, 5.82913875579833984375e-01) (75, 2.74942126125097274780e-02) (76, -1.41085177659988403320e-01) (77, -2.13313132524490356445e-01) (78, 1.01854436099529266357e-01) (79, 2.79389828443527221680e-01) (80, 2.96571161597967147827e-02) (81, 2.09599390625953674316e-01) (82, -8.53207558393478393555e-02) (83, -2.01944366097450256348e-01) (84, -2.28152751922607421875e-01) (85, 1.09708435833454132080e-01) (86, 2.07794904708862304688e-01) (87, 2.65014410018920898438e-01) (88, 2.00103521347045898438e-01) (89, 5.88104903697967529297e-01) (90, 2.85933732986450195313e-01) (91, 2.38435477018356323242e-01) (92, 3.62364292144775390625e-01) (93, 2.31279730796813964844e-01) (94, 4.40843254327774047852e-01) (95, 2.46916666626930236816e-01) (96, 1.73363566398620605469e-01) (97, 1.13341495394706726074e-01) (98, 3.75767588615417480469e-01) (99, 1.20336189866065979004e-01) (100, 2.54112243652343750000e-01) (101, 3.82681250572204589844e-01) (102, -1.87692921608686447144e-02) (103, 4.00287598371505737305e-01) (104, 7.19213426113128662109e-01) (105, 4.53302562236785888672e-01) (106, 1.65070235729217529297e-01) (107, 2.73235708475112915039e-01) (108, -1.53220757842063903809e-01) (109, 1.12099111080169677734e-01) (110, 1.16086341440677642822e-01) (111, 2.77321964502334594727e-01) (112, -7.12407007813453674316e-02) (113, 3.50195437669754028320e-01) (114, 2.07783892750740051270e-01) (115, 1.71598985791206359863e-01) (116, -1.71326845884323120117e-01) (117, 3.86470258235931396484e-01) (118, 5.76181511860340833664e-04) (119, 1.45322471857070922852e-01) (120, 4.51519966125488281250e-01) (121, 4.54395860433578491211e-01) (122, 4.74038213491439819336e-01) (123, 5.41641950607299804688e-01) (124, 4.39572215080261230469e-01) (125, 1.02593220770359039307e-01) (126, 3.45042467117309570313e-01) (127, 5.82180500030517578125e-01) (128, -3.47910784184932708740e-02) (129, 1.64373040199279785156e-01) (130, 5.27252256870269775391e-01) (131, -1.02636381052434444427e-03) (132, 7.82402232289314270020e-02) (133, 5.52091896533966064453e-01) (134, 6.86043500900268554688e-01) (135, 2.56472021341323852539e-01) (136, 3.71613413095474243164e-01) (137, 2.80340224504470825195e-01) (138, -1.90133720636367797852e-01) (139, 2.54474021494388580322e-02) (140, -1.50456368923187255859e-01) (141, 2.26060748100280761719e-02) (142, -1.51149883866310119629e-01) (143, -4.45570871233940124512e-02) (144, 2.88568526506423950195e-01) (145, 2.98713058233261108398e-01) (146, -8.11319053173065185547e-02) (147, -4.49632912874221801758e-01) (148, -4.23432588577270507813e-01) (149, -2.03028574585914611816e-01) (150, 1.72987774014472961426e-01) (151, 4.04780745506286621094e-01) (152, 2.18879625201225280762e-01) (153, 8.53098779916763305664e-02) (154, 1.45859792828559875488e-01) (155, 6.40592157840728759766e-01) (156, 2.16159541159868240356e-02) (157, 1.63604021072387695313e-01) (158, 3.75053524971008300781e-01) (159, 9.49892938137054443359e-01) (160, 1.98101103305816650391e-01) (161, 5.29412925243377685547e-01) (162, 2.25383803248405456543e-01) (163, 3.71666073799133300781e-01) (164, 4.18266385793685913086e-01) (165, 3.79641771316528320313e-01) (166, 3.91222208738327026367e-01) (167, 9.89832282066345214844e-02) (168, -1.76459893584251403809e-01) (169, 2.64510720968246459961e-01) (170, 1.79658457636833190918e-01) (171, -1.80426821112632751465e-01) (172, -6.20019435882568359375e-02) (173, 2.19635382294654846191e-01) (174, 6.23341053724288940430e-02) (175, -4.28270995616912841797e-02) (176, -8.16108608245849609375e+00) (177, 7.21459102630615234375e+00) (178, -2.11301565170288085938e+00) (179, -9.75603237748146057129e-02) (180, -1.66710644960403442383e-01) (181, -5.39898812770843505859e-01) (182, -4.03146296739578247070e-01) (183, -3.05945314466953277588e-02) (184, 4.13721293210983276367e-01) (185, -8.36749300360679626465e-02) (186, 5.44675886631011962891e-01) (187, 2.94088691473007202148e-01) (188, 4.21122759580612182617e-01) (189, 2.26354286074638366699e-01) (190, 4.47133034467697143555e-02) (191, 4.78236168622970581055e-01) (192, 3.96385312080383300781e-01) (193, 3.85380625724792480469e-01) (194, 2.89469987154006958008e-01) (195, 1.30535215139389038086e-01) (196, 5.47778427600860595703e-01) (197, 3.69558542966842651367e-01) (198, 5.56921362876892089844e-01) (199, 3.19448232650756835938e-01) (200, 9.89562720060348510742e-02) (201, -1.10455714166164398193e-01) (202, 1.15253329277038574219e-01) (203, -2.29951366782188415527e-01) (204, -1.87959685921669006348e-01) (205, 1.30433946847915649414e-01) (206, -2.25371646881103515625e+00) (207, -5.03762340545654296875e+00) (208, -1.33256015777587890625e+01) (209, -2.38608818054199218750e+01) (210, -2.26348743438720703125e+01) (211, -1.20175495147705078125e+01) (212, -4.51669573783874511719e-01) (213, -3.41595619916915893555e-01) (214, 1.96414649486541748047e-01) (215, -9.68922153115272521973e-02) (216, 2.91793018579483032227e-01) (217, 2.63478070497512817383e-01) (218, 2.93912589550018310547e-01) (219, -4.15066108107566833496e-02) (220, 5.37286460399627685547e-01) (221, 2.71690458059310913086e-01) (222, 6.67888522148132324219e-01) (223, 1.06583821773529052734e+00) (224, 3.28178524971008300781e-01) (225, -2.21017878502607345581e-02) (226, 1.32512688636779785156e-01) (227, -1.35324811562895774841e-02) (228, 2.84123331308364868164e-01) (229, 5.67090272903442382813e-01) (230, 4.71233278512954711914e-01) (231, 1.38652250170707702637e-01) (232, 9.41367030143737792969e-01) (233, 3.83185781538486480713e-02) (234, 4.41525205969810485840e-02) (235, 1.13381370902061462402e-02) (236, 5.32768189907073974609e-01) (237, 1.40039831399917602539e-01) (238, -1.41287746429443359375e+01) (239, -3.54434108734130859375e+00) (240, -5.26317644119262695313e+00) (241, -3.62285690307617187500e+01) (242, -5.15580606460571289063e+00) (243, -5.06246948242187500000e+00) (244, -3.42513352632522583008e-01) (245, 5.87522238492965698242e-02) (246, 6.13564193248748779297e-01) (247, 1.56033679842948913574e-01) (248, -1.49716973304748535156e-01) (249, 1.34872362017631530762e-01) (250, -1.74385860562324523926e-01) (251, 7.79333785176277160645e-02) (252, 3.45242232084274291992e-01) (253, 4.49156254529953002930e-01) (254, 9.33299899101257324219e-01) (255, 7.73092627525329589844e-01) (256, 5.36403292790055274963e-03) (257, 2.13857647031545639038e-02) (258, 1.61296904087066650391e-01) (259, 6.91398307681083679199e-02) (260, -1.52554009109735488892e-02) (261, 8.18887889385223388672e-01) (262, 1.01491391658782958984e+00) (263, 4.97031599283218383789e-01) (264, 5.66445291042327880859e-01) (265, 1.22594051063060760498e-01) (266, 5.84641158580780029297e-01) (267, 1.26036202907562255859e+00) (268, 2.21796587109565734863e-01) (269, -2.31645822525024414063e-01) (270, -9.76220071315765380859e-01) (271, -1.17622804641723632813e+01) (272, -9.75456428527832031250e+00) (273, 1.30596470832824707031e+00) (274, -3.14061880111694335938e-01) (275, 6.40466272830963134766e-01) (276, -1.98105502128601074219e+00) (277, 2.04001450538635253906e+00) (278, 1.70586669445037841797e+00) (279, 3.86293435096740722656e+00) (280, -1.89327225089073181152e-01) (281, 1.53341382741928100586e-01) (282, 2.06224575638771057129e-01) (283, 1.09363481402397155762e-01) (284, 3.96127164363861083984e-01) (285, 4.77061510086059570313e-01) (286, 5.42296469211578369141e-01) (287, 9.64785695075988769531e-01) (288, 2.83537358045578002930e-01) (289, 4.98998671770095825195e-01) (290, -2.36032884567975997925e-02) (291, 5.26886045932769775391e-01) (292, 4.84974473714828491211e-01) (293, 8.59006345272064208984e-01) (294, 8.42650055885314941406e-01) (295, 6.76772654056549072266e-01) (296, 3.37853491306304931641e-01) (297, 2.59932607412338256836e-01) (298, 6.18928849697113037109e-01) (299, 1.50649321079254150391e+00) (300, 3.19543868303298950195e-01) (301, -2.27956950664520263672e-01) (302, 1.99064874649047851563e+00) (303, 3.06413602828979492188e+00) (304, 3.90439820289611816406e+00) (305, 2.11082935333251953125e+00) (306, 1.53456842899322509766e+00) (307, 1.03309893608093261719e+00) (308, -2.05470085144042968750e+00) (309, 6.06792867183685302734e-01) (310, 5.95105051994323730469e-01) (311, 3.74205827713012695313e+00) (312, 1.35335266590118408203e+00) (313, 2.67818897962570190430e-01) (314, 4.69435185194015502930e-01) (315, 1.77724599838256835938e-01) (316, -2.60403305292129516602e-02) (317, 2.38840296864509582520e-01) (318, 5.83733260631561279297e-01) (319, 9.24465894699096679688e-01) (320, 4.62083548307418823242e-01) (321, 6.26578629016876220703e-02) (322, 1.72063469886779785156e-01) (323, 3.26878428459167480469e-01) (324, 9.83297586441040039063e-01) (325, 7.07680881023406982422e-01) (326, 9.09730792045593261719e-01) (327, 8.13593924045562744141e-01) (328, 3.93847882747650146484e-01) (329, 1.33981490135192871094e+00) (330, 2.98815536499023437500e+01) (331, 2.83783698081970214844e+00) (332, 3.02221514284610748291e-02) (333, 8.16726326942443847656e-01) (334, 8.33404541015625000000e-01) (335, 6.16985893249511718750e+00) (336, 9.02110576629638671875e+00) (337, 2.08661890029907226563e+00) (338, 2.19413447380065917969e+00) (339, 1.04668104648590087891e+00) (340, 1.04705226421356201172e+00) (341, 4.22336995601654052734e-01) (342, 9.01579439640045166016e-01) (343, 8.47292900085449218750e-01) (344, 1.65422630310058593750e+00) (345, 4.89307582378387451172e-01) (346, 3.57484459877014160156e-01) (347, 3.49513620138168334961e-01) (348, 1.10135406255722045898e-01) (349, 3.97555410861968994141e-01) (350, 1.04013848304748535156e+00) (351, 8.54409694671630859375e-01) (352, 8.40812996029853820801e-02) (353, 2.32982650399208068848e-01) (354, 5.36370933055877685547e-01) (355, 2.55009502172470092773e-01) (356, 9.95272457599639892578e-01) (357, 5.27158498764038085938e-01) (358, 6.63238286972045898438e-01) (359, 7.87040889263153076172e-01) (360, 8.91366124153137207031e-01) (361, 4.54700136184692382813e+00) (362, 3.56812095642089843750e+00) (363, 3.86420994997024536133e-01) (364, -3.98777455091476440430e-01) (365, 6.47170007228851318359e-01) (366, 1.01177954673767089844e+00) (367, 2.45167565345764160156e+00) (368, 4.39522933959960937500e+00) (369, -2.77125549316406250000e+00) (370, 6.28951728343963623047e-01) (371, 2.15629041194915771484e-02) (372, -4.55351620912551879883e-02) (373, 3.87895256280899047852e-01) (374, 1.54892742633819580078e+00) (375, 8.72356057167053222656e-01) (376, 1.93106973171234130859e+00) (377, 7.20193624496459960938e-01) (378, 8.53985428810119628906e-01) (379, 1.63643777370452880859e-01) (380, -2.01809555292129516602e-02) (381, -2.58572250604629516602e-02) (382, 6.19339883327484130859e-01) (383, 6.75662159919738769531e-01) (384, 1.36431157588958740234e-01) (385, -6.05254783295094966888e-04) (386, 5.10670989751815795898e-02) (387, 5.15918135643005371094e-01) (388, 8.60985398292541503906e-01) (389, 8.16724836826324462891e-01) (390, 6.13864004611968994141e-01) (391, 8.93109858036041259766e-01) (392, 5.61668097972869873047e-01) (393, -1.40874087810516357422e-01) (394, 1.85459744930267333984e+00) (395, 1.18028067052364349365e-01) (396, -7.66343069076538085938e+00) (397, -2.29759082198143005371e-01) (398, 6.15043520927429199219e-01) (399, 2.22237920761108398438e+00) (400, -4.27085924148559570313e+00) (401, -1.47322015762329101563e+01) (402, -2.62871003150939941406e+00) (403, -9.54638198018074035645e-02) (404, -3.99166762828826904297e-01) (405, 3.34622740745544433594e-01) (406, 1.52694666385650634766e+00) (407, 1.47216928005218505859e+00) (408, 2.45974898338317871094e+00) (409, 4.64805603027343750000e-01) (410, 1.39827594161033630371e-01) (411, 8.46579372882843017578e-01) (412, 8.38507175445556640625e-01) (413, 2.99177944660186767578e-01) (414, 8.70274901390075683594e-02) (415, 6.28036439418792724609e-01) (416, 4.97487038373947143555e-02) (417, 2.00673621147871017456e-02) (418, 4.91709858179092407227e-01) (419, 1.32970452308654785156e-01) (420, 8.52287888526916503906e-01) (421, 1.12919282913208007813e+00) (422, 3.68005961179733276367e-01) (423, 8.64148378372192382813e-01) (424, 3.96991252899169921875e-01) (425, -3.81559908390045166016e-01) (426, 1.59799724817276000977e-01) (427, -5.67794418334960937500e+00) (428, -2.42550849914550781250e-01) (429, -5.52742063999176025391e-01) (430, -3.18192332983016967773e-01) (431, -5.17831468582153320313e+00) (432, -1.63095796108245849609e+00) (433, -1.48371553421020507813e+01) (434, -6.15524482727050781250e+00) (435, -1.77278823852539062500e+01) (436, -6.54477739334106445313e+00) (437, -9.32438731193542480469e-01) (438, 9.35178339481353759766e-01) (439, 1.71939373016357421875e+00) (440, 1.00833439826965332031e+00) (441, 6.79617345333099365234e-01) (442, 3.72471809387207031250e-01) (443, 8.39996218681335449219e-01) (444, 6.37369573116302490234e-01) (445, 6.60190165042877197266e-01) (446, 2.21298769116401672363e-01) (447, 6.55770599842071533203e-01) (448, 9.83634889125823974609e-02) (449, 2.21886485815048217773e-01) (450, 4.27568107843399047852e-01) (451, 5.48309385776519775391e-01) (452, 1.19674265384674072266e+00) (453, 1.14967775344848632813e+00) (454, 7.06855714321136474609e-01) (455, 4.21845734119415283203e-01) (456, -6.81780672073364257813e+00) (457, -1.18696987628936767578e+00) (458, -5.02045035362243652344e-01) (459, -5.06377577781677246094e-01) (460, -5.28173625469207763672e-01) (461, -5.17050147056579589844e-01) (462, -3.91203105449676513672e-01) (463, 3.79501819610595703125e-01) (464, -1.56855916976928710938e+01) (465, -8.35551605224609375000e+01) (466, -6.70182037353515625000e+00) (467, -1.59745044708251953125e+01) (468, -3.38223915100097656250e+01) (469, -1.15334348678588867188e+01) (470, 1.18711829185485839844e+00) (471, 2.05339860916137695313e+00) (472, 9.85596716403961181641e-01) (473, 6.07182204723358154297e-01) (474, 5.20294189453125000000e-01) (475, 4.83546406030654907227e-01) (476, 6.37613058090209960938e-01) (477, 3.25252115726470947266e-01) (478, 4.38351392745971679688e-01) (479, 4.64753299951553344727e-01) (480, 2.00426518917083740234e-01) (481, 4.00486797094345092773e-01) (482, 2.17153187841176986694e-02) (483, 2.22838625311851501465e-01) (484, 1.26169013977050781250e+00) (485, 1.09568881988525390625e+00) (486, 2.88384675979614257813e-01) (487, 4.78853523731231689453e-01) (488, -1.47109937667846679688e+01) (489, -3.34825068712234497070e-02) (490, -9.97755467891693115234e-01) (491, -2.02847361564636230469e-01) (492, 1.67525339126586914063e+00) (493, -1.22465572357177734375e+01) (494, -3.04229199886322021484e-01) (495, -2.56523823738098144531e+00) (496, -6.85927867889404296875e+00) (497, -2.72145748138427734375e+00) (498, -9.22297358512878417969e-01) (499, -4.36393690109252929688e+00) (500, -4.04729156494140625000e+01) (501, -2.83704147338867187500e+01) (502, 4.27649259567260742188e-01) (503, 2.04435825347900390625e-01) (504, 2.70423084497451782227e-01) (505, 1.94925203919410705566e-01) (506, 2.21359387040138244629e-01) (507, 2.39984877407550811768e-02) (508, 8.68073940277099609375e-01) (509, 7.93948829174041748047e-01) (510, -1.05312652885913848877e-02) (511, 6.36745989322662353516e-01) (512, 5.17785727977752685547e-01) (513, 2.20311790704727172852e-01) (514, 4.30900722742080688477e-01) (515, 3.61988618969917297363e-02) (516, 9.36817169189453125000e-01) (517, 8.19350123405456542969e-01) (518, 7.37666368484497070313e-01) (519, 1.09245085716247558594e+00) (520, -6.53901815414428710938e+00) (521, 3.31216394901275634766e-01) (522, 9.15538883209228515625e+00) (523, -3.69012176990509033203e-01) (524, -1.44218826293945312500e+00) (525, 3.82463932037353515625e+00) (526, -8.64641761779785156250e+00) (527, -1.82265701293945312500e+01) (528, -2.02363052368164062500e+01) (529, -2.71842842102050781250e+01) (530, -1.58403062820434570313e+00) (531, -3.02638149261474609375e+01) (532, -1.05170801281929016113e-01) (533, -1.21960248947143554688e+01) (534, 2.62388974428176879883e-01) (535, 3.74832063913345336914e-01) (536, 4.70675021409988403320e-01) (537, 3.39451223611831665039e-01) (538, 7.44575215503573417664e-03) (539, -1.95989832282066345215e-02) (540, 2.97693073749542236328e-01) (541, 7.34549343585968017578e-01) (542, 1.97360329329967498779e-02) (543, 8.86520087718963623047e-01) (544, 2.56071478128433227539e-01) (545, 4.14494365453720092773e-01) (546, 2.05681681632995605469e-01) (547, 2.86760002374649047852e-01) (548, 7.16136813163757324219e-01) (549, 8.88472437858581542969e-01) (550, 1.02032124996185302734e+00) (551, 1.01060032844543457031e+00) (552, -8.37098407745361328125e+00) (553, 1.07615649700164794922e+00) (554, 1.50642051696777343750e+01) (555, 4.42322731018066406250e+00) (556, -9.74151039123535156250e+00) (557, -8.76206398010253906250e+00) (558, -6.74084901809692382813e-01) (559, -2.48300285339355468750e+01) (560, -5.15011167526245117188e+00) (561, -9.88996982574462890625e+00) (562, -1.10265512466430664063e+01) (563, -2.54020738601684570313e+00) (564, -1.08351933956146240234e+00) (565, -8.03066432476043701172e-01) (566, -3.31657856702804565430e-01) (567, 2.87845820188522338867e-01) (568, 2.81496286392211914063e-01) (569, 1.52914553880691528320e-01) (570, -6.33620768785476684570e-02) (571, 8.77588987350463867188e-02) (572, 2.96411335468292236328e-01) (573, 7.84152567386627197266e-01) (574, 3.08373987674713134766e-01) (575, 4.79119837284088134766e-01) (576, 6.46354630589485168457e-02) (577, 3.84941220283508300781e-01) (578, 9.03434827923774719238e-02) (579, 9.16801616549491882324e-02) (580, 9.84093308448791503906e-01) (581, 8.43861937522888183594e-01) (582, 1.12329971790313720703e+00) (583, 1.28601646423339843750e+00) (584, -8.02571678161621093750e+00) (585, 7.97095260620117187500e+01) (586, 2.67448158264160156250e+01) (587, 2.37492394447326660156e+00) (588, -6.27081871032714843750e-01) (589, -3.36855910718441009521e-02) (590, 2.29963138699531555176e-01) (591, -7.58824944496154785156e-01) (592, -3.28364682197570800781e+00) (593, -2.88277363777160644531e+00) (594, -1.53613567352294921875e+00) (595, -1.23369741439819335938e+00) (596, -9.02567505836486816406e-01) (597, -7.12084889411926269531e-01) (598, 4.17571830749511718750e+00) (599, 9.27203819155693054199e-02) (600, -2.00556680560111999512e-01) (601, 1.19602315127849578857e-01) (602, -1.32740736007690429688e-01) (603, 4.63180504739284515381e-02) (604, 4.94642257690429687500e-01) (605, 1.85688316822052001953e-01) (606, 3.07147145271301269531e-01) (607, 8.72384369373321533203e-01) (608, 2.36589804291725158691e-01) (609, 2.30613979510962963104e-03) (610, 2.29238029569387435913e-02) (611, 3.86827111244201660156e-01) (612, 8.71810138225555419922e-01) (613, 8.43931794166564941406e-01) (614, 4.65519577264785766602e-01) (615, 2.35573500394821166992e-01) (616, 1.18346357345581054688e+00) (617, 3.92025899887084960938e+00) (618, 1.57112379074096679688e+01) (619, 2.21874904632568359375e+00) (620, 3.02506536245346069336e-01) (621, 1.45762369036674499512e-01) (622, 6.28082633018493652344e-01) (623, 1.51636660099029541016e+00) (624, -1.01278648376464843750e+01) (625, -1.08594799041748046875e+01) (626, -9.99609565734863281250e+00) (627, -6.37124359607696533203e-01) (628, -1.21153521537780761719e+00) (629, -2.05185547471046447754e-01) (630, 1.93081554025411605835e-02) (631, -1.47262364625930786133e-01) (632, -9.87153112888336181641e-01) (633, -1.92225098609924316406e-01) (634, -1.21528506278991699219e-01) (635, 1.39937415719032287598e-01) (636, 1.87556654214859008789e-01) (637, 3.94416302442550659180e-02) (638, 2.42355927824974060059e-01) (639, 1.03181087970733642578e+00) (640, 1.08818799257278442383e-01) (641, 2.05992937088012695313e-01) (642, 3.35191369056701660156e-01) (643, 3.30470412969589233398e-01) (644, 6.80501520633697509766e-01) (645, 5.53398370742797851563e-01) (646, -7.72498846054077148438e-02) (647, 2.55234599113464355469e-01) (648, 1.77745357155799865723e-01) (649, 3.45720338821411132813e+00) (650, 2.35607624053955078125e+01) (651, 2.39993476867675781250e+00) (652, 1.34343433380126953125e+00) (653, 1.84419810771942138672e+00) (654, 2.45057868957519531250e+00) (655, 2.07508325576782226563e+00) (656, 8.96960020065307617188e-01) (657, 1.55918776988983154297e+00) (658, -7.02836532592773437500e+01) (659, -3.91058415174484252930e-01) (660, -5.23148179054260253906e-01) (661, -3.91216069459915161133e-01) (662, -4.37683224678039550781e-01) (663, -2.28636786341667175293e-01) (664, -5.01382410526275634766e-01) (665, -8.92007723450660705566e-02) (666, -1.04715498164296150208e-02) (667, 4.87531349062919616699e-02) (668, 4.59046483039855957031e-01) (669, 2.82507330179214477539e-01) (670, 8.53161454200744628906e-01) (671, 9.15725409984588623047e-01) (672, 4.61900442838668823242e-01) (673, 4.15549054741859436035e-03) (674, -4.72789034247398376465e-02) (675, 2.85148710012435913086e-01) (676, 1.05758666992187500000e+00) (677, 6.87327563762664794922e-01) (678, 1.72211065888404846191e-01) (679, -9.71980616450309753418e-02) (680, 1.00629456341266632080e-01) (681, 1.55857527256011962891e+00) (682, 1.26722831726074218750e+02) (683, 6.35828113555908203125e+00) (684, 1.73286247253417968750e+00) (685, 2.12341594696044921875e+00) (686, 2.00672173500061035156e+00) (687, 3.30063438415527343750e+00) (688, 9.63221430778503417969e-01) (689, 1.50870382785797119141e+00) (690, 1.71477186679840087891e+00) (691, -8.49511146545410156250e-01) (692, -1.76899656653404235840e-01) (693, -2.27656149864196777344e+00) (694, -5.27171373367309570313e-01) (695, -6.11493587493896484375e-01) (696, -4.96360242366790771484e-01) (697, -4.21642325818538665771e-02) (698, -2.20632359385490417480e-01) (699, 6.08839951455593109131e-02) (700, 5.21455287933349609375e-01) (701, 2.98412621021270751953e-01) (702, 3.36436092853546142578e-01) (703, 8.50951194763183593750e-01) (704, 5.20257651805877685547e-01) (705, 7.36991837620735168457e-02) (706, -5.23778982460498809814e-03) (707, 5.38503006100654602051e-02) (708, 7.13786065578460693359e-01) (709, 7.18666017055511474609e-01) (710, 1.84466227889060974121e-01) (711, -1.15902990102767944336e-01) (712, 2.84402072429656982422e-01) (713, 4.19603300094604492188e+00) (714, 2.22692527770996093750e+01) (715, 2.53449702262878417969e+00) (716, 1.58060026168823242188e+00) (717, 1.62691259384155273438e+00) (718, 2.43085289001464843750e+00) (719, 2.44981122016906738281e+00) (720, 2.46369028091430664063e+00) (721, 2.19791674613952636719e+00) (722, 1.42136263847351074219e+00) (723, -1.04067482054233551025e-01) (724, -2.95856088399887084961e-01) (725, -1.35329872369766235352e-01) (726, -8.84764492511749267578e-02) (727, -2.96628922224044799805e-01) (728, -3.96702289581298828125e-01) (729, -1.04434669017791748047e-01) (730, -2.96095490455627441406e-01) (731, -5.33239878714084625244e-02) (732, 1.31751090288162231445e-01) (733, 7.71323561668395996094e-01) (734, 7.38024711608886718750e-01) (735, 6.24191224575042724609e-01) (736, 3.51945519447326660156e-01) (737, 3.60276818275451660156e-01) (738, 1.74370646476745605469e-01) (739, 4.38527315855026245117e-02) (740, 2.57847189903259277344e-01) (741, 6.12977564334869384766e-01) (742, -1.74572929739952087402e-01) (743, -2.87639081478118896484e-01) (744, 1.12443721294403076172e+00) (745, -7.39698231220245361328e-01) (746, 1.49220323562622070313e+00) (747, 2.78051257133483886719e+00) (748, 2.17310166358947753906e+00) (749, 1.86463689804077148438e+00) (750, 2.54277944564819335938e+00) (751, 2.59578418731689453125e+00) (752, 2.25961995124816894531e+00) (753, 1.86557960510253906250e+00) (754, 1.48443782329559326172e+00) (755, 5.84052085876464843750e-01) (756, 7.08304345607757568359e-02) (757, -4.32101994752883911133e-01) (758, -1.50575667619705200195e-01) (759, -2.49175634235143661499e-03) (760, -9.72945690155029296875e-02) (761, -2.73724108934402465820e-01) (762, -3.56080639176070690155e-03) (763, 2.55205035209655761719e-01) (764, 1.90101832151412963867e-01) (765, 3.03102880716323852539e-01) (766, 9.19375538825988769531e-01) (767, 1.00777542591094970703e+00) (768, 2.68870592117309570313e-01) (769, 7.82951191067695617676e-02) (770, -1.66723027359694242477e-03) (771, 8.47770646214485168457e-02) (772, 3.11314493417739868164e-01) (773, 6.80322170257568359375e-01) (774, 7.85163104534149169922e-01) (775, 2.69830703735351562500e-01) (776, 2.99702346324920654297e-01) (777, 3.09533745050430297852e-01) (778, 9.10037636756896972656e-01) (779, 8.86592197418212890625e+00) (780, 2.38441824913024902344e+00) (781, 2.08160257339477539063e+00) (782, 2.32696080207824707031e+00) (783, 2.55023598670959472656e+00) (784, 2.60449862480163574219e+00) (785, 2.45472788810729980469e+00) (786, 1.47871899604797363281e+00) (787, -2.32043359428644180298e-02) (788, 1.98307558894157409668e-01) (789, 4.69876497983932495117e-01) (790, -6.25062286853790283203e-02) (791, 1.58294420689344406128e-02) (792, -3.33781808614730834961e-01) (793, -2.82025218009948730469e-01) (794, 4.41653370857238769531e-01) (795, 3.72386693954467773438e-01) (796, 3.39808136224746704102e-01) (797, 8.94442677497863769531e-01) (798, 8.55288624763488769531e-01) (799, 1.06252408027648925781e+00) (800, 2.26628944277763366699e-01) (801, 1.10924527049064636230e-01) (802, -3.28318588435649871826e-02) (803, 2.50295158475637435913e-02) (804, 2.09581792354583740234e-01) (805, 4.71098244190216064453e-01) (806, 6.18350684642791748047e-01) (807, 6.67650938034057617188e-01) (808, 8.83630156517028808594e-01) (809, 6.25106394290924072266e-01) (810, 9.45995390415191650391e-01) (811, 6.53344869613647460938e-01) (812, 1.91279816627502441406e+00) (813, 9.17133688926696777344e-01) (814, 2.22261905670166015625e+00) (815, 1.77843081951141357422e+00) (816, 6.09235095977783203125e+00) (817, 1.79276442527770996094e+00) (818, 2.30204916000366210938e+00) (819, -2.67108865082263946533e-02) (820, 4.47815865278244018555e-01) (821, 5.01444116234779357910e-02) (822, 3.82608547806739807129e-02) (823, 8.43606293201446533203e-02) (824, -9.98202860355377197266e-02) (825, 3.35647851228713989258e-01) (826, 5.61853468418121337891e-01) (827, 7.11493968963623046875e-01) (828, 1.68806642293930053711e-01) (829, 9.87421274185180664063e-02) (830, 7.94698953628540039063e-01) (831, 4.52360600233078002930e-01) (832, 4.24583524465560913086e-01) (833, 1.00332219153642654419e-02) (834, 3.75199913978576660156e-01) (835, 3.31730723381042480469e-01) (836, 4.61823612451553344727e-01) (837, 8.92526566982269287109e-01) (838, 1.30782091617584228516e+00) (839, 2.81128883361816406250e+00) (840, 1.23717010021209716797e+00) (841, 7.73578047752380371094e-01) (842, 5.24001121520996093750e-01) (843, -1.59632310271263122559e-01) (844, 4.60166335105895996094e-01) (845, 5.16820073127746582031e-01) (846, 3.95806461572647094727e-01) (847, 8.55791687965393066406e-01) (848, 1.93309974670410156250e+00) (849, 2.41400957107543945313e+00) (850, 1.54450428485870361328e+00) (851, 6.64044201374053955078e-01) (852, -7.07043945789337158203e-01) (853, 2.18936949968338012695e-02) (854, -2.16742884367704391479e-02) (855, 3.05586963891983032227e-01) (856, 4.02248799800872802734e-01) (857, 7.05934524536132812500e-01) (858, 4.99239593744277954102e-01) (859, 7.07009911537170410156e-01) (860, 9.08762335777282714844e-01) (861, 5.52755355834960937500e-01) (862, 2.54323836416006088257e-02) (863, 1.18798062205314636230e-01) (864, 1.05870820581912994385e-01) (865, 3.96293759346008300781e-01) (866, 1.10430106520652770996e-01) (867, 2.90788322687149047852e-01) (868, 5.49770832061767578125e-01) (869, 5.22637903690338134766e-01) (870, 1.30617451667785644531e+00) (871, 2.71169376373291015625e+00) (872, 2.46412110328674316406e+00) (873, 1.14186429977416992188e+00) (874, 1.32447123527526855469e+00) (875, -6.41253367066383361816e-02) (876, -2.97170072793960571289e-01) (877, -8.71928691864013671875e-01) (878, -5.77500462532043457031e-01) (879, 1.95505633950233459473e-01) (880, 9.95886445045471191406e-01) (881, 7.24799096584320068359e-01) (882, -9.00949358940124511719e-01) (883, 3.25984090566635131836e-01) (884, 1.72629272937774658203e+00) (885, 1.56219691038131713867e-01) (886, 8.30283641815185546875e-01) (887, -1.66032433509826660156e-01) (888, 1.35708570480346679688e+00) (889, 1.40974092483520507813e+00) (890, 9.91108179092407226563e-01) (891, 6.94261252880096435547e-01) (892, 1.05419576168060302734e+00) (893, 1.50255620479583740234e-01) (894, 3.13328653573989868164e-01) (895, 3.63279819488525390625e-01) (896, -4.26646620035171508789e-02) (897, -4.08702045679092407227e-02) (898, 2.54661560058593750000e-01) (899, 4.06822293996810913086e-01) (900, 8.14797699451446533203e-01) (901, 7.10568606853485107422e-01) (902, 5.56986689567565917969e-01) (903, 2.65479993820190429688e+00) (904, 2.53025078773498535156e+00) (905, 2.38516688346862792969e+00) (906, 7.63513863086700439453e-01) (907, 2.64786005020141601563e-01) (908, -8.99470329284667968750e-01) (909, -9.80103075504302978516e-01) (910, -2.52989888191223144531e+00) (911, 3.84717583656311035156e+00) (912, 8.25495645403861999512e-02) (913, 7.86074399948120117188e-02) (914, 2.82034754753112792969e-01) (915, 8.90259146690368652344e-01) (916, 8.01047325134277343750e-01) (917, 2.78195828199386596680e-01) (918, -4.36107188463211059570e-01) (919, 2.44250345230102539063e+00) (920, 2.49314045906066894531e+00) (921, 1.41033124923706054688e+00) (922, 9.31441843509674072266e-01) (923, 5.28818070888519287109e-01) (924, 4.74866837263107299805e-01) (925, 1.01247513294219970703e+00) (926, 5.33679306507110595703e-01) (927, 5.25585949420928955078e-01) (928, 3.09593290090560913086e-01) (929, 2.56657421588897705078e-01) (930, 4.83433514833450317383e-01) (931, 3.23996390216052532196e-03) (932, 5.31463682651519775391e-01) (933, 1.03234517574310302734e+00) (934, 7.40506350994110107422e-01) (935, 1.19988560676574707031e+00) (936, 2.59417390823364257813e+00) (937, 2.23490452766418457031e+00) (938, 1.62198638916015625000e+00) (939, 8.26096832752227783203e-01) (940, 6.01514875888824462891e-01) (941, 7.92569816112518310547e-02) (942, 5.64806222915649414063e-01) (943, -3.76582026481628417969e-01) (944, -2.48235553503036499023e-01) (945, -4.33481097221374511719e-01) (946, -8.07960510253906250000e-01) (947, -3.08705598115921020508e-01) (948, 7.39913046360015869141e-01) (949, -4.57277774810791015625e-01) (950, 2.37338685989379882813e+00) (951, 2.65029358863830566406e+00) (952, 2.40789341926574707031e+00) (953, 1.23255491256713867188e+00) (954, 7.90147364139556884766e-01) (955, 6.54558658599853515625e-01) (956, 9.72512543201446533203e-01) (957, 3.36246788501739501953e-01) (958, 5.03346771001815795898e-02) (959, 2.64256358146667480469e-01) (960, 5.37030041217803955078e-01) (961, 3.15818876028060913086e-01) (962, 2.66014158725738525391e-01) (963, 2.22179442644119262695e-01) (964, 4.33921962976455688477e-01) (965, 6.53810799121856689453e-01) (966, 7.32266604900360107422e-01) (967, 1.02075934410095214844e+00) (968, 7.55427539348602294922e-01) (969, 6.74842774868011474609e-01) (970, 6.03989064693450927734e-01) (971, 5.82875847816467285156e-01) (972, 4.75979775190353393555e-01) (973, 2.55777239799499511719e-01) (974, 3.63435357809066772461e-01) (975, 3.51716607809066772461e-01) (976, 5.93747973442077636719e-01) (977, 5.49666643142700195313e-01) (978, 1.03971040248870849609e+00) (979, 1.11049497127532958984e+00) (980, 2.23075246810913085938e+00) (981, 2.40300703048706054688e+00) (982, 2.64160966873168945313e+00) (983, 2.42192888259887695313e+00) (984, 1.29821562767028808594e+00) (985, 5.85620582103729248047e-01) (986, 9.30954277515411376953e-01) (987, 9.27157342433929443359e-01) (988, 6.43948018550872802734e-01) (989, 2.00481474399566650391e-01) (990, 1.20830550789833068848e-01) (991, 1.56609416007995605469e-01) (992, 2.57737725973129272461e-01) (993, 2.32250213623046875000e-01) (994, 6.54777362942695617676e-02) (995, 4.24510210752487182617e-01) (996, 2.84214884042739868164e-01) (997, 4.11631256341934204102e-01) (998, 8.03499519824981689453e-01) (999, 9.96978044509887695313e-01) (1000, 6.78897023200988769531e-01) (1001, 6.06314063072204589844e-01) (1002, 4.88751083612442016602e-01) (1003, 5.54877161979675292969e-01) (1004, 1.02426230907440185547e+00) (1005, 9.79386091232299804688e-01) (1006, 9.89942789077758789063e-01) (1007, 8.21221530437469482422e-01) (1008, 8.02984297275543212891e-01) (1009, 8.72898519039154052734e-01) (1010, 7.73250043392181396484e-01) (1011, 5.13757884502410888672e-01) (1012, 1.02811598777770996094e+00) (1013, 9.97429072856903076172e-01) (1014, 8.94248902797698974609e-01) (1015, 7.82627880573272705078e-01) (1016, 6.59020721912384033203e-01) (1017, 4.78986650705337524414e-01) (1018, 7.59931385517120361328e-01) (1019, 7.03036248683929443359e-01) (1020, 5.39303123950958251953e-01) (1021, -3.27586084604263305664e-02) (1022, 2.96519547700881958008e-01) (1023, 4.98687386512756347656e-01) (1024, 5.33587753772735595703e-01) (0, -1.89136400818824768066e-01) (1, -2.08997782319784164429e-02) (2, -1.69599041342735290527e-01) (3, 1.33971557021141052246e-01) (4, 1.74401238560676574707e-01) (5, 1.29137590527534484863e-01) (6, -5.13868704438209533691e-02) (7, 2.03734710812568664551e-01) (8, 1.03996664285659790039e-01) (9, -1.12598836421966552734e-01) (10, 3.41738969087600708008e-01) (11, 2.93563932180404663086e-01) (12, 7.73799512535333633423e-03) (13, 3.13797086477279663086e-01) (14, 2.77322441339492797852e-01) (15, 3.59335392713546752930e-01) (16, -1.57404214143753051758e-01) (17, -3.60059961676597595215e-02) (18, 1.08940511941909790039e-01) (19, 1.78447857499122619629e-01) (20, -1.38269722461700439453e-01) (21, 2.22155109047889709473e-01) (22, 3.53146463632583618164e-01) (23, 9.41272974014282226563e-02) (24, 2.56869524717330932617e-01) (25, 1.48839697241783142090e-01) (26, -1.79303631186485290527e-01) (27, -2.03327074646949768066e-01) (28, 8.94031822681427001953e-02) (29, 6.29627108573913574219e-02) (30, -5.41884079575538635254e-02) (31, 1.10734969377517700195e-01) (32, -1.96204259991645812988e-01) (33, 3.76382559537887573242e-01) (34, -4.27808985114097595215e-02) (35, -1.43048793077468872070e-01) (36, -8.28258395195007324219e-02) (37, -9.99095886945724487305e-02) (38, 2.34826013445854187012e-01) (39, -4.27625998854637145996e-02) (40, 1.78942248225212097168e-01) (41, -5.44555746018886566162e-02) (42, 3.00676196813583374023e-01) (43, 2.57097065448760986328e-01) (44, 1.98999792337417602539e-01) (45, -2.01217427849769592285e-01) (46, 2.82129794359207153320e-01) (47, -1.16895989049226045609e-03) (48, -1.96413636207580566406e-01) (49, 2.34616607427597045898e-01) (50, 1.76052659749984741211e-01) (51, 1.20100490748882293701e-01) (52, 2.18425706028938293457e-01) (53, 3.86148184537887573242e-01) (54, 7.21441814675927162170e-03) (55, 1.66443616151809692383e-01) (56, -1.13494675606489181519e-02) (57, 6.89057409763336181641e-02) (58, 1.29192516207695007324e-01) (59, 6.53247833251953125000e-02) (60, 2.30089034885168075562e-02) (61, 7.79407322406768798828e-02) (62, 3.50436478853225708008e-01) (63, 2.57455468177795410156e-01) (64, 3.53457719087600708008e-01) (65, 3.42141836881637573242e-01) (66, 6.25782012939453125000e-02) (67, -7.73444864898920059204e-03) (68, 3.78781229257583618164e-01) (69, 4.69590574502944946289e-02) (70, 1.96026012301445007324e-01) (71, 7.75562226772308349609e-02) (72, 3.82618874311447143555e-01) (73, 1.52179688215255737305e-01) (74, 4.40181186422705650330e-03) (75, 1.64987593889236450195e-01) (76, -4.02530312538146972656e-01) (77, -4.64924514293670654297e-01) (78, -2.67191618680953979492e-01) (79, -3.21151167154312133789e-01) (80, 7.42564648389816284180e-02) (81, 1.44804432988166809082e-01) (82, -3.81570994853973388672e-01) (83, 5.25023415684700012207e-02) (84, -2.47036274522542953491e-02) (85, -2.41738006472587585449e-01) (86, -2.89549672743305563927e-04) (87, -4.02113273739814758301e-02) (88, 3.82121317088603973389e-02) (89, -8.02019983530044555664e-02) (90, 3.33436757326126098633e-01) (91, 3.70834439992904663086e-01) (92, 1.14378765225410461426e-01) (93, 1.45311290398240089417e-02) (94, -1.94556310772895812988e-01) (95, 2.07451745867729187012e-01) (96, -1.69489160180091857910e-01) (97, 1.14415392279624938965e-01) (98, 1.82421252131462097168e-01) (99, -1.77503116428852081299e-02) (100, 3.82223576307296752930e-01) (101, 5.07493466138839721680e-02) (102, 3.39212149381637573242e-01) (103, -2.06275060772895812988e-01) (104, 1.48356273770332336426e-01) (105, -2.28667974472045898438e-01) (106, 1.38300836086273193359e-01) (107, 7.49416882172226905823e-03) (108, 1.31986886262893676758e-01) (109, -5.72105050086975097656e-02) (110, 5.32273240387439727783e-02) (111, 5.46906329691410064697e-02) (112, -2.38460078835487365723e-01) (113, -4.15129512548446655273e-01) (114, -4.28830981254577636719e-01) (115, -1.17252886295318603516e+00) (116, -4.08156216144561767578e-02) (117, -5.27534842491149902344e-01) (118, -2.22166061401367187500e-01) (119, -7.40226507186889648438e-02) (120, 5.38502261042594909668e-02) (121, 1.84057429432868957520e-01) (122, -1.82312026619911193848e-01) (123, 3.42596977949142456055e-01) (124, -1.61945253610610961914e-01) (125, -2.00910076498985290527e-01) (126, -1.18165239691734313965e-01) (127, 2.82625645399093627930e-01) (128, 7.43518918752670288086e-02) (129, 3.24966520071029663086e-01) (130, 3.71347159147262573242e-01) (131, -1.86994060873985290527e-01) (132, 1.19249373674392700195e-01) (133, 8.62171351909637451172e-02) (134, 2.90121525526046752930e-01) (135, 3.58072608709335327148e-01) (136, -2.83513478934764862061e-02) (137, -1.52931809425354003906e-01) (138, -4.19919162988662719727e-01) (139, -2.01662890613079071045e-02) (140, -1.48682311177253723145e-01) (141, -2.39781230688095092773e-01) (142, -1.72143951058387756348e-01) (143, -5.79594314098358154297e-01) (144, -5.85827350616455078125e-01) (145, -1.01911604404449462891e+00) (146, -1.39454793930053710938e+00) (147, -1.83743309974670410156e+00) (148, 3.15321779251098632813e+00) (149, -7.21640661358833312988e-02) (150, -4.09616045653820037842e-02) (151, -2.06881850957870483398e-01) (152, 3.06704670190811157227e-01) (153, -1.99438840150833129883e-01) (154, 2.72249788045883178711e-01) (155, 1.41036570072174072266e-01) (156, 3.73826548457145690918e-02) (157, 5.16465753316879272461e-02) (158, 6.94080442190170288086e-02) (159, 1.93437322974205017090e-01) (160, -2.06861004233360290527e-01) (161, 1.99376806616783142090e-01) (162, 1.02751553058624267578e-01) (163, 1.43480263650417327881e-02) (164, -4.96473684906959533691e-02) (165, -1.78150072693824768066e-01) (166, -6.78229331970214843750e-03) (167, 3.02532076835632324219e-01) (168, -2.03452244400978088379e-01) (169, 3.66198867559432983398e-02) (170, -2.01507687568664550781e-01) (171, -1.67634993791580200195e-01) (172, 3.11785197257995605469e+00) (173, -2.49903261661529541016e-01) (174, -5.13399314880371093750e+00) (175, -3.75735074281692504883e-01) (176, 1.86412847042083740234e+00) (177, -1.17377138137817382813e+01) (178, -1.68932425975799560547e+00) (179, -7.43007540702819824219e-01) (180, 1.92982077598571777344e-01) (181, 1.93923640251159667969e+00) (182, -1.51429232209920883179e-02) (183, 2.84467022866010665894e-02) (184, 2.88142934441566467285e-02) (185, 1.80675148963928222656e-01) (186, 7.02508017420768737793e-02) (187, -1.20713993906974792480e-01) (188, -7.55931735038757324219e-02) (189, 2.86038249731063842773e-01) (190, 1.76744982600212097168e-01) (191, 1.49327233433723449707e-01) (192, -3.62257286906242370605e-02) (193, -4.31105121970176696777e-02) (194, 6.87854737043380737305e-02) (195, -1.40119105577468872070e-01) (196, -1.95215478539466857910e-01) (197, 2.19921216368675231934e-01) (198, 3.11727970838546752930e-01) (199, 2.33347028493881225586e-01) (200, -3.12038898468017578125e-01) (201, -2.55175322294235229492e-01) (202, 1.57645523548126220703e-01) (203, 4.74507361650466918945e-01) (204, 1.76527869701385498047e+00) (205, 8.24627590179443359375e+00) (206, -2.54005938768386840820e-01) (207, 9.10497248172760009766e-01) (208, 6.70061945915222167969e-01) (209, 4.31533187627792358398e-01) (210, -7.44633436203002929688e-01) (211, -2.41379904747009277344e+00) (212, 4.25422239303588867188e+00) (213, 5.48794984817504882813e+00) (214, 2.45837301015853881836e-01) (215, 6.21776394546031951904e-02) (216, 2.64830831438302993774e-02) (217, -1.84700012207031250000e-01) (218, -2.45143219828605651855e-01) (219, 2.18591779470443725586e-01) (220, 7.99365937709808349609e-02) (221, 1.09837740659713745117e-01) (222, 4.16182816028594970703e-01) (223, -8.15692692995071411133e-02) (224, 2.31914624571800231934e-01) (225, 2.10564523935317993164e-01) (226, 3.80337625741958618164e-01) (227, 3.66915971040725708008e-01) (228, 3.80539029836654663086e-01) (229, 2.15555187314748764038e-02) (230, 7.53786563873291015625e-02) (231, 2.09667310118675231934e-01) (232, 7.18207135796546936035e-02) (233, 2.23679438233375549316e-01) (234, 8.07335041463375091553e-03) (235, -5.47545515000820159912e-02) (236, 3.17612409591674804688e+00) (237, 3.38087469339370727539e-01) (238, -2.47737956047058105469e+00) (239, 5.28278611600399017334e-02) (240, 3.00682187080383300781e-01) (241, 4.71865028142929077148e-01) (242, -8.92671048641204833984e-01) (243, -4.51707988977432250977e-01) (244, -2.32939824461936950684e-01) (245, -2.20057654380798339844e+00) (246, 1.92584916949272155762e-01) (247, -3.79601448774337768555e-01) (248, -1.40615373849868774414e-01) (249, -3.17646443843841552734e-01) (250, 8.65928083658218383789e-03) (251, -1.10284864902496337891e-01) (252, 5.13974688947200775146e-02) (253, -1.75641521811485290527e-01) (254, 4.63607221841812133789e-01) (255, 1.12577483057975769043e-01) (256, 1.11961767077445983887e-01) (257, 1.67186871170997619629e-01) (258, -3.29664237797260284424e-02) (259, 9.65442955493927001953e-02) (260, 1.44371941685676574707e-01) (261, 2.06272974610328674316e-01) (262, 8.94594788551330566406e-02) (263, 2.21977412700653076172e-01) (264, -2.53754168748855590820e-01) (265, -9.40241754055023193359e-01) (266, -5.37921227514743804932e-02) (267, 3.98101091384887695313e-01) (268, 4.64133529663085937500e+01) (269, -4.26627248525619506836e-01) (270, 8.93135443329811096191e-02) (271, 3.90194505453109741211e-01) (272, 4.06776666641235351563e-02) (273, -1.82698860764503479004e-01) (274, -1.27932345867156982422e+00) (275, -9.86370965838432312012e-02) (276, -9.89097356796264648438e-01) (277, -9.72487092018127441406e-01) (278, -1.51180014014244079590e-01) (279, -9.70541357994079589844e-01) (280, -9.13198515772819519043e-02) (281, -2.49423295259475708008e-01) (282, 2.37474799156188964844e-01) (283, 2.45285034179687500000e-01) (284, 1.61371350288391113281e-01) (285, -1.75348535180091857910e-01) (286, -3.10873221606016159058e-02) (287, 3.87416958808898925781e-01) (288, 1.87090441584587097168e-01) (289, 2.72752661257982254028e-02) (290, 1.77257671952247619629e-01) (291, -4.64064255356788635254e-02) (292, 2.16874793171882629395e-01) (293, 2.65293866395950317383e-01) (294, 4.58028703927993774414e-01) (295, -6.73627182841300964355e-02) (296, -2.20607921481132507324e-01) (297, -1.84866443276405334473e-01) (298, 4.84590202569961547852e-01) (299, 7.26689767837524414063e+00) (300, -6.47446155548095703125e-01) (301, -6.71505406498908996582e-02) (302, 2.11227089166641235352e-01) (303, 1.09740935266017913818e-01) (304, 2.57128983736038208008e-01) (305, 2.86364525556564331055e-01) (306, -8.02004635334014892578e-02) (307, -1.70473635196685791016e+00) (308, -5.95197260379791259766e-01) (309, -7.31649279594421386719e-01) (310, -5.56962871551513671875e+00) (311, -8.79748404026031494141e-01) (312, -1.44017088413238525391e+00) (313, -1.64330869913101196289e-01) (314, 2.37328950315713882446e-02) (315, 3.63408654928207397461e-01) (316, 2.94779568910598754883e-01) (317, -2.54533695988357067108e-03) (318, 1.56412012875080108643e-02) (319, 4.23196554183959960938e-02) (320, 3.09164494276046752930e-01) (321, 3.85153263807296752930e-01) (322, -2.18152981251478195190e-02) (323, 1.86669304966926574707e-01) (324, 4.32113021612167358398e-01) (325, 4.10173147916793823242e-01) (326, 2.03905940055847167969e-01) (327, -6.11603409051895141602e-02) (328, 2.22211673855781555176e-01) (329, 2.45242148637771606445e-01) (330, 4.03847545385360717773e-01) (331, -9.42684412002563476563e-01) (332, 8.08223724365234375000e-01) (333, 9.10613894462585449219e-01) (334, 6.88109755516052246094e-01) (335, 5.45096350833773612976e-03) (336, 2.75567099452018737793e-02) (337, 6.65024220943450927734e-02) (338, -5.31178042292594909668e-02) (339, -4.06551450490951538086e-01) (340, -1.03003561496734619141e+00) (341, -5.16753196716308593750e-01) (342, -3.81082236766815185547e-01) (343, -3.86832624673843383789e-01) (344, -1.87371373176574707031e+00) (345, 1.42580226063728332520e-01) (346, 1.05704754590988159180e-01) (347, 1.36779233813285827637e-01) (348, -9.25415158271789550781e-02) (349, 3.29533010721206665039e-01) (350, 2.06071540713310241699e-01) (351, 4.20357584953308105469e-01) (352, 1.98882415890693664551e-01) (353, -1.71173736453056335449e-01) (354, 1.55651226639747619629e-01) (355, 3.88082951307296752930e-01) (356, 4.48153078556060791016e-01) (357, 2.35510915517807006836e-01) (358, 1.10346674919128417969e-01) (359, 3.01084935665130615234e-01) (360, -5.28086483478546142578e-01) (361, -3.39937418699264526367e-01) (362, 2.18807592988014221191e-01) (363, 1.02418434619903564453e+00) (364, -1.47706079483032226563e+01) (365, 5.05207002162933349609e-01) (366, 5.85652971267700195313e+00) (367, 9.63020801544189453125e-01) (368, -6.86132252216339111328e-01) (369, 6.68676614761352539063e-01) (370, 3.02741378545761108398e-01) (371, -6.43016040325164794922e-01) (372, -1.50992083549499511719e+00) (373, -1.94824948906898498535e-01) (374, -1.10706698894500732422e+00) (375, -2.18932718038558959961e-01) (376, -2.73052978515625000000e+00) (377, 2.39786863327026367188e-01) (378, -1.50733903050422668457e-01) (379, -1.64405450224876403809e-01) (380, -9.23320353031158447266e-02) (381, 2.95109182596206665039e-01) (382, 4.59128290414810180664e-01) (383, 1.08439296483993530273e-01) (384, 4.56040948629379272461e-02) (385, 3.40091019868850708008e-01) (386, 3.14346402883529663086e-01) (387, 9.39258635044097900391e-02) (388, 6.77900249138474464417e-03) (389, 1.02952286601066589355e-01) (390, -1.02655887603759765625e-01) (391, -2.09810644388198852539e-01) (392, -6.25175833702087402344e-02) (393, 5.34468777477741241455e-02) (394, 8.59448537230491638184e-02) (395, 6.89485013484954833984e-01) (396, 3.32223243713378906250e+01) (397, 4.52530652284622192383e-01) (398, 2.56559789180755615234e-01) (399, 2.10012078285217285156e+00) (400, 1.06448180973529815674e-01) (401, 1.77625045180320739746e-01) (402, -1.62057980895042419434e-01) (403, -5.98540425300598144531e-01) (404, -9.62374806404113769531e-01) (405, -3.08124184608459472656e-01) (406, 1.53933405876159667969e-01) (407, 2.92604178190231323242e-01) (408, 8.53217244148254394531e-02) (409, 2.03431963920593261719e-01) (410, 7.84163028001785278320e-02) (411, 1.67576536536216735840e-01) (412, -7.87456035614013671875e-02) (413, 1.49352759122848510742e-01) (414, 3.33762735128402709961e-01) (415, 3.37172746658325195313e-01) (416, -9.24755036830902099609e-02) (417, 9.44935083389282226563e-02) (418, 7.76294469833374023438e-02) (419, -1.59558691084384918213e-02) (420, 2.18449518084526062012e-01) (421, 3.56240272521972656250e-01) (422, 2.39968761801719665527e-01) (423, -4.21011984348297119141e-01) (424, -9.73538875579833984375e-01) (425, -3.25043320655822753906e-01) (426, 4.13797646760940551758e-01) (427, 3.72140407562255859375e-01) (428, 6.81801617145538330078e-01) (429, 2.86045093536376953125e+01) (430, 1.94583473205566406250e+01) (431, 7.62602758407592773438e+00) (432, 3.41527080535888671875e+00) (433, 9.53521300107240676880e-03) (434, 5.83215713500976562500e-01) (435, -2.61527240276336669922e-01) (436, -5.54528772830963134766e-01) (437, 1.75236237049102783203e+00) (438, 4.43872988224029541016e-01) (439, 5.97425810992717742920e-02) (440, 3.99291127920150756836e-01) (441, -1.80585578083992004395e-01) (442, 3.53402704000473022461e-01) (443, 3.01056444644927978516e-01) (444, -5.97970420494675636292e-03) (445, -1.41427656635642051697e-02) (446, -4.33962456881999969482e-02) (447, 1.80894598364830017090e-01) (448, 3.11508268117904663086e-01) (449, 6.12964406609535217285e-02) (450, 2.87631273269653320313e-01) (451, 8.20056945085525512695e-02) (452, -3.75509634613990783691e-02) (453, 3.45015943050384521484e-01) (454, 4.04363185167312622070e-01) (455, -5.84480822086334228516e-01) (456, -1.15447103977203369141e+00) (457, -9.57017064094543457031e-01) (458, 6.80381655693054199219e-02) (459, 8.62762451171875000000e-01) (460, 2.07397437095642089844e+00) (461, 2.23142490386962890625e+01) (462, -1.79992790222167968750e+01) (463, 2.46479682922363281250e+01) (464, 2.60217800140380859375e+01) (465, 1.08446664810180664063e+01) (466, -2.76207256317138671875e+00) (467, 5.51159501075744628906e-01) (468, -1.65568864345550537109e+00) (469, 7.96200096607208251953e-01) (470, 1.72811377048492431641e+00) (471, -1.96067065000534057617e-01) (472, 1.57874837517738342285e-01) (473, 2.56801038980484008789e-01) (474, 2.91118115186691284180e-01) (475, 1.71555548906326293945e-01) (476, 2.50870823860168457031e-01) (477, 2.47330889105796813965e-01) (478, 1.19824193418025970459e-01) (479, 1.57750084996223449707e-01) (480, -1.46747529506683349609e-01) (481, -1.96423992514610290527e-01) (482, 5.26606384664773941040e-03) (483, 3.55142325162887573242e-01) (484, 8.62347632646560668945e-02) (485, 7.52850174903869628906e-02) (486, -9.51330065727233886719e-02) (487, -7.12883651256561279297e-01) (488, -1.60898435115814208984e+00) (489, -1.11918365955352783203e+00) (490, -5.93828380107879638672e-01) (491, -4.21349167823791503906e-01) (492, 2.63873505592346191406e+00) (493, 3.22798085212707519531e+00) (494, -1.29529333114624023438e+01) (495, -1.98728199005126953125e+01) (496, -6.40354614257812500000e+01) (497, 1.02119560241699218750e+01) (498, 4.30324125289916992188e+00) (499, 9.29825723171234130859e-01) (500, 1.89525020122528076172e+00) (501, 3.04494190216064453125e+00) (502, 3.03619652986526489258e-01) (503, 6.84594269841909408569e-03) (504, -2.07120522856712341309e-01) (505, 2.74732330581173300743e-04) (506, 3.17455530166625976563e-02) (507, 3.74391436576843261719e-01) (508, 4.03178006410598754883e-01) (509, 1.85058325529098510742e-01) (510, 2.19489008188247680664e-01) (511, 4.29604411125183105469e-01) (512, -2.86383880302309989929e-03) (513, -1.21918931603431701660e-01) (514, 1.10167324542999267578e-01) (515, 1.14561870694160461426e-01) (516, 4.07601416110992431641e-01) (517, 2.46780991554260253906e-01) (518, 3.76240491867065429688e-01) (519, -1.46810114383697509766e+00) (520, -3.26523613929748535156e+00) (521, -3.35437798500061035156e+00) (522, -1.71764814853668212891e+00) (523, -2.22334918975830078125e+01) (524, 7.20895290374755859375e+00) (525, 2.32554626464843750000e+00) (526, 3.72742533683776855469e+00) (527, 3.87529921531677246094e+00) (528, 3.28689098358154296875e+00) (529, 1.83418941497802734375e+00) (530, 1.11368930339813232422e+00) (531, 4.41502064466476440430e-01) (532, 6.15563929080963134766e-01) (533, -7.90678188204765319824e-02) (534, -2.89269208908081054688e-01) (535, -6.55972063541412353516e-02) (536, -1.55674800276756286621e-01) (537, -3.37469242513179779053e-02) (538, -1.78432315587997436523e-01) (539, -1.57363161444664001465e-01) (540, 3.20691227912902832031e-01) (541, 3.42761218547821044922e-01) (542, -2.96266879886388778687e-02) (543, 2.02043250203132629395e-01) (544, 2.76297062635421752930e-01) (545, 3.53684946894645690918e-02) (546, 3.00705045461654663086e-01) (547, -1.84924975037574768066e-01) (548, 3.11525940895080566406e-01) (549, 4.53048229217529296875e-01) (550, 2.00605615973472595215e-01) (551, -3.02456259727478027344e+00) (552, -2.20914244651794433594e+00) (553, -3.39388918876647949219e+00) (554, -1.04857599735260009766e+00) (555, -6.02075874805450439453e-01) (556, 1.89385954290628433228e-02) (557, -7.80595004558563232422e-01) (558, -4.23765063285827636719e-01) (559, -8.95853638648986816406e-02) (560, 1.64076447486877441406e-01) (561, 3.24205428361892700195e-01) (562, -1.46024180576205253601e-02) (563, 1.78427174687385559082e-01) (564, 1.74807593226432800293e-01) (565, 2.41838410496711730957e-01) (566, -7.24022686481475830078e-02) (567, 3.71863543987274169922e-02) (568, -1.00647225975990295410e-01) (569, -1.88960749655961990356e-02) (570, -2.72103577852249145508e-01) (571, -1.48474290966987609863e-01) (572, 2.87803057581186294556e-02) (573, 1.61983564496040344238e-01) (574, 9.11430418491363525391e-02) (575, 1.22344680130481719971e-01) (576, 9.26807522773742675781e-02) (577, -1.80274084210395812988e-01) (578, 2.94039994478225708008e-01) (579, -1.44733369350433349609e-01) (580, -4.77620922029018402100e-02) (581, 3.81307423114776611328e-01) (582, 9.56521257758140563965e-02) (583, -3.33400940895080566406e+00) (584, -3.48312973976135253906e+00) (585, -1.17785632610321044922e+00) (586, -1.89175412058830261230e-01) (587, -7.71250277757644653320e-02) (588, -2.63486456871032714844e+00) (589, -2.13014354705810546875e+01) (590, -2.71473616361618041992e-01) (591, -1.09040148556232452393e-01) (592, -2.15071767568588256836e-01) (593, -2.82433360815048217773e-01) (594, -2.17944845557212829590e-01) (595, -1.93592935800552368164e-01) (596, 2.00575202703475952148e-01) (597, -1.61371484398841857910e-01) (598, 3.71700704097747802734e-01) (599, -3.06288778781890869141e-01) (600, 7.14200064539909362793e-02) (601, 8.82859528064727783203e-02) (602, -2.81499028205871582031e-01) (603, 1.98162063956260681152e-01) (604, 2.50769078731536865234e-01) (605, 3.73925805091857910156e-01) (606, 1.63873046636581420898e-01) (607, -1.10042199492454528809e-01) (608, -8.30821990966796875000e-02) (609, 3.69186490774154663086e-01) (610, -1.73956945538520812988e-01) (611, -2.25111078470945358276e-02) (612, 2.53273814916610717773e-01) (613, 4.12581861019134521484e-01) (614, 3.99545192718505859375e-01) (615, -3.03416705131530761719e+00) (616, -2.21496605873107910156e+00) (617, -1.21469545364379882813e+00) (618, -5.06086707115173339844e-01) (619, -1.01322746276855468750e+00) (620, 1.14832453429698944092e-01) (621, 2.81888078898191452026e-02) (622, -2.67508238554000854492e-01) (623, 2.58247941732406616211e-01) (624, 1.93456724286079406738e-01) (625, 2.83474475145339965820e-01) (626, -1.49545416235923767090e-01) (627, 8.87819901108741760254e-02) (628, -4.77850027382373809814e-02) (629, -2.82414406538009643555e-02) (630, 4.19398456811904907227e-01) (631, -3.58862686157226562500e+00) (632, -4.37884569168090820313e-01) (633, -2.08476230502128601074e-01) (634, -1.18659064173698425293e-01) (635, -1.21022984385490417480e-01) (636, 3.31883281469345092773e-01) (637, 4.89678978919982910156e-03) (638, 3.44723880290985107422e-01) (639, 3.54165658354759216309e-02) (640, 8.84144008159637451172e-02) 