FANN_FLO_2.1
num_layers=4
learning_rate=0.700000
connection_rate=1.000000
network_type=0
learning_momentum=0.000000
training_algorithm=2
train_error_function=1
train_stop_function=0
cascade_output_change_fraction=0.010000
quickprop_decay=-0.000100
quickprop_mu=1.750000
rprop_increase_factor=1.200000
rprop_decrease_factor=0.500000
rprop_delta_min=0.000000
rprop_delta_max=50.000000
rprop_delta_zero=0.100000
cascade_output_stagnation_epochs=12
cascade_candidate_change_fraction=0.010000
cascade_candidate_stagnation_epochs=12
cascade_max_out_epochs=150
cascade_min_out_epochs=50
cascade_max_cand_epochs=150
cascade_min_cand_epochs=50
cascade_num_candidate_groups=2
bit_fail_limit=3.49999994039535522461e-01
cascade_candidate_limit=1.00000000000000000000e+03
cascade_weight_multiplier=4.00000005960464477539e-01
cascade_activation_functions_count=10
cascade_activation_functions=3 5 7 8 10 11 14 15 16 17 
cascade_activation_steepnesses_count=4
cascade_activation_steepnesses=2.50000000000000000000e-01 5.00000000000000000000e-01 7.50000000000000000000e-01 1.00000000000000000000e+00 
layer_sizes=513 7 7 2 
scale_included=0
neurons (num_inputs, activation_function, activation_steepness)=(0, 0, 0.00000000000000000000e+00) (0, 0, 0.00000000000000000000e+00) (0, 0, 0.00000000000000000000e+00) (0, 0, 0.00000000000000000000e+00) (0, 0, 0.00000000000000000000e+00) (0, 0, 0.00000000000000000000e+00) (0, 0, 0.00000000000000000000e+00) (0, 0, 0.00000000000000000000e+00) (0, 0, 0.00000000000000000000e+00) (0, 0, 0.00000000000000000000e+00) (0, 0, 0.00000000000000000000e+00) (0, 0, 0.00000000000000000000e+00) (0, 0, 0.00000000000000000000e+00) (0, 0, 0.00000000000000000000e+00) (0, 0, 0.00000000000000000000e+00) (0, 0, 0.00000000000000000000e+00) (0, 0, 0.00000000000000000000e+00) (0, 0, 0.00000000000000000000e+00) (0, 0, 0.00000000000000000000e+00) (0, 0, 0.00000000000000000000e+00) (0, 0, 0.00000000000000000000e+00) (0, 0, 0.00000000000000000000e+00) (0, 0, 0.00000000000000000000e+00) (0, 0, 0.00000000000000000000e+00) (0, 0, 0.00000000000000000000e+00) (0, 0, 0.00000000000000000000e+00) (0, 0, 0.00000000000000000000e+00) (0, 0, 0.00000000000000000000e+00) (0, 0, 0.00000000000000000000e+00) (0, 0, 0.00000000000000000000e+00) (0, 0, 0.00000000000000000000e+00) (0, 0, 0.00000000000000000000e+00) (0, 0, 0.00000000000000000000e+00) (0, 0, 0.00000000000000000000e+00) (0, 0, 0.00000000000000000000e+00) (0, 0, 0.00000000000000000000e+00) (0, 0, 0.00000000000000000000e+00) (0, 0, 0.00000000000000000000e+00) (0, 0, 0.00000000000000000000e+00) (0, 0, 0.00000000000000000000e+00) (0, 0, 0.00000000000000000000e+00) (0, 0, 0.00000000000000000000e+00) (0, 0, 0.00000000000000000000e+00) (0, 0, 0.00000000000000000000e+00) (0, 0, 0.00000000000000000000e+00) (0, 0, 0.00000000000000000000e+00) (0, 0, 0.00000000000000000000e+00) (0, 0, 0.00000000000000000000e+00) (0, 0, 0.00000000000000000000e+00) (0, 0, 0.00000000000000000000e+00) (0, 0, 0.00000000000000000000e+00) (0, 0, 0.00000000000000000000e+00) (0, 0, 0.00000000000000000000e+00) (0, 0, 0.00000000000000000000e+00) (0, 0, 0.00000000000000000000e+00) (0, 0, 0.00000000000000000000e+00) (0, 0, 0.00000000000000000000e+00) (0, 0, 0.00000000000000000000e+00) (0, 0, 0.00000000000000000000e+00) (0, 0, 0.00000000000000000000e+00) (0, 0, 0.00000000000000000000e+00) (0, 0, 0.00000000000000000000e+00) (0, 0, 0.00000000000000000000e+00) (0, 0, 0.00000000000000000000e+00) (0, 0, 0.00000000000000000000e+00) (0, 0, 0.00000000000000000000e+00) (0, 0, 0.00000000000000000000e+00) (0, 0, 0.00000000000000000000e+00) (0, 0, 0.00000000000000000000e+00) (0, 0, 0.00000000000000000000e+00) (0, 0, 0.00000000000000000000e+00) (0, 0, 0.00000000000000000000e+00) (0, 0, 0.00000000000000000000e+00) (0, 0, 0.00000000000000000000e+00) (0, 0, 0.00000000000000000000e+00) (0, 0, 0.00000000000000000000e+00) (0, 0, 0.00000000000000000000e+00) (0, 0, 0.00000000000000000000e+00) (0, 0, 0.00000000000000000000e+00) (0, 0, 0.00000000000000000000e+00) (0, 0, 0.00000000000000000000e+00) (0, 0, 0.00000000000000000000e+00) (0, 0, 0.00000000000000000000e+00) (0, 0, 0.00000000000000000000e+00) (0, 0, 0.00000000000000000000e+00) (0, 0, 0.00000000000000000000e+00) (0, 0, 0.00000000000000000000e+00) (0, 0, 0.00000000000000000000e+00) (0, 0, 0.00000000000000000000e+00) (0, 0, 0.00000000000000000000e+00) (0, 0, 0.00000000000000000000e+00) (0, 0, 0.00000000000000000000e+00) (0, 0, 0.00000000000000000000e+00) (0, 0, 0.00000000000000000000e+00) (0, 0, 0.00000000000000000000e+00) (0, 0, 0.00000000000000000000e+00) (0, 0, 0.00000000000000000000e+00) (0, 0, 0.00000000000000000000e+00) (0, 0, 0.00000000000000000000e+00) (0, 0, 0.00000000000000000000e+00) (0, 0, 0.00000000000000000000e+00) (0, 0, 0.00000000000000000000e+00) (0, 0, 0.00000000000000000000e+00) (0, 0, 0.00000000000000000000e+00) (0, 0, 0.00000000000000000000e+00) (0, 0, 0.00000000000000000000e+00) (0, 0, 0.00000000000000000000e+00) (0, 0, 0.00000000000000000000e+00) (0, 0, 0.00000000000000000000e+00) (0, 0, 0.00000000000000000000e+00) (0, 0, 0.00000000000000000000e+00) (0, 0, 0.00000000000000000000e+00) (0, 0, 0.00000000000000000000e+00) (0, 0, 0.00000000000000000000e+00) (0, 0, 0.00000000000000000000e+00) (0, 0, 0.00000000000000000000e+00) (0, 0, 0.00000000000000000000e+00) (0, 0, 0.00000000000000000000e+00) (0, 0, 0.00000000000000000000e+00) (0, 0, 0.00000000000000000000e+00) (0, 0, 0.00000000000000000000e+00) (0, 0, 0.00000000000000000000e+00) (0, 0, 0.00000000000000000000e+00) (0, 0, 0.00000000000000000000e+00) (0, 0, 0.00000000000000000000e+00) (0, 0, 0.00000000000000000000e+00) (0, 0, 0.00000000000000000000e+00) (0, 0, 0.00000000000000000000e+00) (0, 0, 0.00000000000000000000e+00) (0, 0, 0.00000000000000000000e+00) (0, 0, 0.00000000000000000000e+00) (0, 0, 0.00000000000000000000e+00) (0, 0, 0.00000000000000000000e+00) (0, 0, 0.00000000000000000000e+00) (0, 0, 0.00000000000000000000e+00) (0, 0, 0.00000000000000000000e+00) (0, 0, 0.00000000000000000000e+00) (0, 0, 0.00000000000000000000e+00) (0, 0, 0.00000000000000000000e+00) (0, 0, 0.00000000000000000000e+00) (0, 0, 0.00000000000000000000e+00) (0, 0, 0.00000000000000000000e+00) (0, 0, 0.00000000000000000000e+00) (0, 0, 0.00000000000000000000e+00) (0, 0, 0.00000000000000000000e+00) (0, 0, 0.00000000000000000000e+00) (0, 0, 0.00000000000000000000e+00) (0, 0, 0.00000000000000000000e+00) (0, 0, 0.00000000000000000000e+00) (0, 0, 0.00000000000000000000e+00) (0, 0, 0.00000000000000000000e+00) (0, 0, 0.00000000000000000000e+00) (0, 0, 0.00000000000000000000e+00) (0, 0, 0.00000000000000000000e+00) (0, 0, 0.00000000000000000000e+00) (0, 0, 0.00000000000000000000e+00) (0, 0, 0.00000000000000000000e+00) (0, 0, 0.00000000000000000000e+00) (0, 0, 0.00000000000000000000e+00) (0, 0, 0.00000000000000000000e+00) (0, 0, 0.00000000000000000000e+00) (0, 0, 0.00000000000000000000e+00) (0, 0, 0.00000000000000000000e+00) (0, 0, 0.00000000000000000000e+00) (0, 0, 0.00000000000000000000e+00) (0, 0, 0.00000000000000000000e+00) (0, 0, 0.00000000000000000000e+00) (0, 0, 0.00000000000000000000e+00) (0, 0, 0.00000000000000000000e+00) (0, 0, 0.00000000000000000000e+00) (0, 0, 0.00000000000000000000e+00) (0, 0, 0.00000000000000000000e+00) (0, 0, 0.00000000000000000000e+00) (0, 0, 0.00000000000000000000e+00) (0, 0, 0.00000000000000000000e+00) (0, 0, 0.00000000000000000000e+00) (0, 0, 0.00000000000000000000e+00) (0, 0, 0.00000000000000000000e+00) (0, 0, 0.00000000000000000000e+00) (0, 0, 0.00000000000000000000e+00) (0, 0, 0.00000000000000000000e+00) (0, 0, 0.00000000000000000000e+00) (0, 0, 0.00000000000000000000e+00) (0, 0, 0.00000000000000000000e+00) (0, 0, 0.00000000000000000000e+00) (0, 0, 0.00000000000000000000e+00) (0, 0, 0.00000000000000000000e+00) (0, 0, 0.00000000000000000000e+00) (0, 0, 0.00000000000000000000e+00) (0, 0, 0.00000000000000000000e+00) (0, 0, 0.00000000000000000000e+00) (0, 0, 0.00000000000000000000e+00) (0, 0, 0.00000000000000000000e+00) (0, 0, 0.00000000000000000000e+00) (0, 0, 0.00000000000000000000e+00) (0, 0, 0.00000000000000000000e+00) (0, 0, 0.00000000000000000000e+00) (0, 0, 0.00000000000000000000e+00) (0, 0, 0.00000000000000000000e+00) (0, 0, 0.00000000000000000000e+00) (0, 0, 0.00000000000000000000e+00) (0, 0, 0.00000000000000000000e+00) (0, 0, 0.00000000000000000000e+00) (0, 0, 0.00000000000000000000e+00) (0, 0, 0.00000000000000000000e+00) (0, 0, 0.00000000000000000000e+00) (0, 0, 0.00000000000000000000e+00) (0, 0, 0.00000000000000000000e+00) (0, 0, 0.00000000000000000000e+00) (0, 0, 0.00000000000000000000e+00) (0, 0, 0.00000000000000000000e+00) (0, 0, 0.00000000000000000000e+00) (0, 0, 0.00000000000000000000e+00) (0, 0, 0.00000000000000000000e+00) (0, 0, 0.00000000000000000000e+00) (0, 0, 0.00000000000000000000e+00) (0, 0, 0.00000000000000000000e+00) (0, 0, 0.00000000000000000000e+00) (0, 0, 0.00000000000000000000e+00) (0, 0, 0.00000000000000000000e+00) (0, 0, 0.00000000000000000000e+00) (0, 0, 0.00000000000000000000e+00) (0, 0, 0.00000000000000000000e+00) (0, 0, 0.00000000000000000000e+00) (0, 0, 0.00000000000000000000e+00) (0, 0, 0.00000000000000000000e+00) (0, 0, 0.00000000000000000000e+00) (0, 0, 0.00000000000000000000e+00) (0, 0, 0.00000000000000000000e+00) (0, 0, 0.00000000000000000000e+00) (0, 0, 0.00000000000000000000e+00) (0, 0, 0.00000000000000000000e+00) (0, 0, 0.00000000000000000000e+00) (0, 0, 0.00000000000000000000e+00) (0, 0, 0.00000000000000000000e+00) (0, 0, 0.00000000000000000000e+00) (0, 0, 0.00000000000000000000e+00) (0, 0, 0.00000000000000000000e+00) (0, 0, 0.00000000000000000000e+00) (0, 0, 0.00000000000000000000e+00) (0, 0, 0.00000000000000000000e+00) (0, 0, 0.00000000000000000000e+00) (0, 0, 0.00000000000000000000e+00) (0, 0, 0.00000000000000000000e+00) (0, 0, 0.00000000000000000000e+00) (0, 0, 0.00000000000000000000e+00) (0, 0, 0.00000000000000000000e+00) (0, 0, 0.00000000000000000000e+00) (0, 0, 0.00000000000000000000e+00) (0, 0, 0.00000000000000000000e+00) (0, 0, 0.00000000000000000000e+00) (0, 0, 0.00000000000000000000e+00) (0, 0, 0.00000000000000000000e+00) (0, 0, 0.00000000000000000000e+00) (0, 0, 0.00000000000000000000e+00) (0, 0, 0.00000000000000000000e+00) (0, 0, 0.00000000000000000000e+00) (0, 0, 0.00000000000000000000e+00) (0, 0, 0.00000000000000000000e+00) (0, 0, 0.00000000000000000000e+00) (0, 0, 0.00000000000000000000e+00) (0, 0, 0.00000000000000000000e+00) (0, 0, 0.00000000000000000000e+00) (0, 0, 0.00000000000000000000e+00) (0, 0, 0.00000000000000000000e+00) (0, 0, 0.00000000000000000000e+00) (0, 0, 0.00000000000000000000e+00) (0, 0, 0.00000000000000000000e+00) (0, 0, 0.00000000000000000000e+00) (0, 0, 0.00000000000000000000e+00) (0, 0, 0.00000000000000000000e+00) (0, 0, 0.00000000000000000000e+00) (0, 0, 0.00000000000000000000e+00) (0, 0, 0.00000000000000000000e+00) (0, 0, 0.00000000000000000000e+00) (0, 0, 0.00000000000000000000e+00) (0, 0, 0.00000000000000000000e+00) (0, 0, 0.00000000000000000000e+00) (0, 0, 0.00000000000000000000e+00) (0, 0, 0.00000000000000000000e+00) (0, 0, 0.00000000000000000000e+00) (0, 0, 0.00000000000000000000e+00) (0, 0, 0.00000000000000000000e+00) (0, 0, 0.00000000000000000000e+00) (0, 0, 0.00000000000000000000e+00) (0, 0, 0.00000000000000000000e+00) (0, 0, 0.00000000000000000000e+00) (0, 0, 0.00000000000000000000e+00) (0, 0, 0.00000000000000000000e+00) (0, 0, 0.00000000000000000000e+00) (0, 0, 0.00000000000000000000e+00) (0, 0, 0.00000000000000000000e+00) (0, 0, 0.00000000000000000000e+00) (0, 0, 0.00000000000000000000e+00) (0, 0, 0.00000000000000000000e+00) (0, 0, 0.00000000000000000000e+00) (0, 0, 0.00000000000000000000e+00) (0, 0, 0.00000000000000000000e+00) (0, 0, 0.00000000000000000000e+00) (0, 0, 0.00000000000000000000e+00) (0, 0, 0.00000000000000000000e+00) (0, 0, 0.00000000000000000000e+00) (0, 0, 0.00000000000000000000e+00) (0, 0, 0.00000000000000000000e+00) (0, 0, 0.00000000000000000000e+00) (0, 0, 0.00000000000000000000e+00) (0, 0, 0.00000000000000000000e+00) (0, 0, 0.00000000000000000000e+00) (0, 0, 0.00000000000000000000e+00) (0, 0, 0.00000000000000000000e+00) (0, 0, 0.00000000000000000000e+00) (0, 0, 0.00000000000000000000e+00) (0, 0, 0.00000000000000000000e+00) (0, 0, 0.00000000000000000000e+00) (0, 0, 0.00000000000000000000e+00) (0, 0, 0.00000000000000000000e+00) (0, 0, 0.00000000000000000000e+00) (0, 0, 0.00000000000000000000e+00) (0, 0, 0.00000000000000000000e+00) (0, 0, 0.00000000000000000000e+00) (0, 0, 0.00000000000000000000e+00) (0, 0, 0.00000000000000000000e+00) (0, 0, 0.00000000000000000000e+00) (0, 0, 0.00000000000000000000e+00) (0, 0, 0.00000000000000000000e+00) (0, 0, 0.00000000000000000000e+00) (0, 0, 0.00000000000000000000e+00) (0, 0, 0.00000000000000000000e+00) (0, 0, 0.00000000000000000000e+00) (0, 0, 0.00000000000000000000e+00) (0, 0, 0.00000000000000000000e+00) (0, 0, 0.00000000000000000000e+00) (0, 0, 0.00000000000000000000e+00) (0, 0, 0.00000000000000000000e+00) (0, 0, 0.00000000000000000000e+00) (0, 0, 0.00000000000000000000e+00) (0, 0, 0.00000000000000000000e+00) (0, 0, 0.00000000000000000000e+00) (0, 0, 0.00000000000000000000e+00) (0, 0, 0.00000000000000000000e+00) (0, 0, 0.00000000000000000000e+00) (0, 0, 0.00000000000000000000e+00) (0, 0, 0.00000000000000000000e+00) (0, 0, 0.00000000000000000000e+00) (0, 0, 0.00000000000000000000e+00) (0, 0, 0.00000000000000000000e+00) (0, 0, 0.00000000000000000000e+00) (0, 0, 0.00000000000000000000e+00) (0, 0, 0.00000000000000000000e+00) (0, 0, 0.00000000000000000000e+00) (0, 0, 0.00000000000000000000e+00) (0, 0, 0.00000000000000000000e+00) (0, 0, 0.00000000000000000000e+00) (0, 0, 0.00000000000000000000e+00) (0, 0, 0.00000000000000000000e+00) (0, 0, 0.00000000000000000000e+00) (0, 0, 0.00000000000000000000e+00) (0, 0, 0.00000000000000000000e+00) (0, 0, 0.00000000000000000000e+00) (0, 0, 0.00000000000000000000e+00) (0, 0, 0.00000000000000000000e+00) (0, 0, 0.00000000000000000000e+00) (0, 0, 0.00000000000000000000e+00) (0, 0, 0.00000000000000000000e+00) (0, 0, 0.00000000000000000000e+00) (0, 0, 0.00000000000000000000e+00) (0, 0, 0.00000000000000000000e+00) (0, 0, 0.00000000000000000000e+00) (0, 0, 0.00000000000000000000e+00) (0, 0, 0.00000000000000000000e+00) (0, 0, 0.00000000000000000000e+00) (0, 0, 0.00000000000000000000e+00) (0, 0, 0.00000000000000000000e+00) (0, 0, 0.00000000000000000000e+00) (0, 0, 0.00000000000000000000e+00) (0, 0, 0.00000000000000000000e+00) (0, 0, 0.00000000000000000000e+00) (0, 0, 0.00000000000000000000e+00) (0, 0, 0.00000000000000000000e+00) (0, 0, 0.00000000000000000000e+00) (0, 0, 0.00000000000000000000e+00) (0, 0, 0.00000000000000000000e+00) (0, 0, 0.00000000000000000000e+00) (0, 0, 0.00000000000000000000e+00) (0, 0, 0.00000000000000000000e+00) (0, 0, 0.00000000000000000000e+00) (0, 0, 0.00000000000000000000e+00) (0, 0, 0.00000000000000000000e+00) (0, 0, 0.00000000000000000000e+00) (0, 0, 0.00000000000000000000e+00) (0, 0, 0.00000000000000000000e+00) (0, 0, 0.00000000000000000000e+00) (0, 0, 0.00000000000000000000e+00) (0, 0, 0.00000000000000000000e+00) (0, 0, 0.00000000000000000000e+00) (0, 0, 0.00000000000000000000e+00) (0, 0, 0.00000000000000000000e+00) (0, 0, 0.00000000000000000000e+00) (0, 0, 0.00000000000000000000e+00) (0, 0, 0.00000000000000000000e+00) (0, 0, 0.00000000000000000000e+00) (0, 0, 0.00000000000000000000e+00) (0, 0, 0.00000000000000000000e+00) (0, 0, 0.00000000000000000000e+00) (0, 0, 0.00000000000000000000e+00) (0, 0, 0.00000000000000000000e+00) (0, 0, 0.00000000000000000000e+00) (0, 0, 0.00000000000000000000e+00) (0, 0, 0.00000000000000000000e+00) (0, 0, 0.00000000000000000000e+00) (0, 0, 0.00000000000000000000e+00) (0, 0, 0.00000000000000000000e+00) (0, 0, 0.00000000000000000000e+00) (0, 0, 0.00000000000000000000e+00) (0, 0, 0.00000000000000000000e+00) (0, 0, 0.00000000000000000000e+00) (0, 0, 0.00000000000000000000e+00) (0, 0, 0.00000000000000000000e+00) (0, 0, 0.00000000000000000000e+00) (0, 0, 0.00000000000000000000e+00) (0, 0, 0.00000000000000000000e+00) (0, 0, 0.00000000000000000000e+00) (0, 0, 0.00000000000000000000e+00) (0, 0, 0.00000000000000000000e+00) (0, 0, 0.00000000000000000000e+00) (0, 0, 0.00000000000000000000e+00) (0, 0, 0.00000000000000000000e+00) (0, 0, 0.00000000000000000000e+00) (0, 0, 0.00000000000000000000e+00) (0, 0, 0.00000000000000000000e+00) (0, 0, 0.00000000000000000000e+00) (0, 0, 0.00000000000000000000e+00) (0, 0, 0.00000000000000000000e+00) (0, 0, 0.00000000000000000000e+00) (0, 0, 0.00000000000000000000e+00) (0, 0, 0.00000000000000000000e+00) (0, 0, 0.00000000000000000000e+00) (0, 0, 0.00000000000000000000e+00) (0, 0, 0.00000000000000000000e+00) (0, 0, 0.00000000000000000000e+00) (0, 0, 0.00000000000000000000e+00) (0, 0, 0.00000000000000000000e+00) (0, 0, 0.00000000000000000000e+00) (0, 0, 0.00000000000000000000e+00) (0, 0, 0.00000000000000000000e+00) (0, 0, 0.00000000000000000000e+00) (0, 0, 0.00000000000000000000e+00) (0, 0, 0.00000000000000000000e+00) (0, 0, 0.00000000000000000000e+00) (0, 0, 0.00000000000000000000e+00) (0, 0, 0.00000000000000000000e+00) (0, 0, 0.00000000000000000000e+00) (0, 0, 0.00000000000000000000e+00) (0, 0, 0.00000000000000000000e+00) (0, 0, 0.00000000000000000000e+00) (0, 0, 0.00000000000000000000e+00) (0, 0, 0.00000000000000000000e+00) (0, 0, 0.00000000000000000000e+00) (0, 0, 0.00000000000000000000e+00) (0, 0, 0.00000000000000000000e+00) (0, 0, 0.00000000000000000000e+00) (0, 0, 0.00000000000000000000e+00) (0, 0, 0.00000000000000000000e+00) (0, 0, 0.00000000000000000000e+00) (0, 0, 0.00000000000000000000e+00) (0, 0, 0.00000000000000000000e+00) (0, 0, 0.00000000000000000000e+00) (0, 0, 0.00000000000000000000e+00) (0, 0, 0.00000000000000000000e+00) (0, 0, 0.00000000000000000000e+00) (0, 0, 0.00000000000000000000e+00) (0, 0, 0.00000000000000000000e+00) (0, 0, 0.00000000000000000000e+00) (0, 0, 0.00000000000000000000e+00) (0, 0, 0.00000000000000000000e+00) (0, 0, 0.00000000000000000000e+00) (0, 0, 0.00000000000000000000e+00) (0, 0, 0.00000000000000000000e+00) (0, 0, 0.00000000000000000000e+00) (0, 0, 0.00000000000000000000e+00) (0, 0, 0.00000000000000000000e+00) (0, 0, 0.00000000000000000000e+00) (0, 0, 0.00000000000000000000e+00) (0, 0, 0.00000000000000000000e+00) (0, 0, 0.00000000000000000000e+00) (0, 0, 0.00000000000000000000e+00) (0, 0, 0.00000000000000000000e+00) (0, 0, 0.00000000000000000000e+00) (0, 0, 0.00000000000000000000e+00) (0, 0, 0.00000000000000000000e+00) (0, 0, 0.00000000000000000000e+00) (0, 0, 0.00000000000000000000e+00) (0, 0, 0.00000000000000000000e+00) (0, 0, 0.00000000000000000000e+00) (0, 0, 0.00000000000000000000e+00) (0, 0, 0.00000000000000000000e+00) (0, 0, 0.00000000000000000000e+00) (0, 0, 0.00000000000000000000e+00) (0, 0, 0.00000000000000000000e+00) (0, 0, 0.00000000000000000000e+00) (0, 0, 0.00000000000000000000e+00) (0, 0, 0.00000000000000000000e+00) (0, 0, 0.00000000000000000000e+00) (0, 0, 0.00000000000000000000e+00) (0, 0, 0.00000000000000000000e+00) (0, 0, 0.00000000000000000000e+00) (0, 0, 0.00000000000000000000e+00) (0, 0, 0.00000000000000000000e+00) (0, 0, 0.00000000000000000000e+00) (0, 0, 0.00000000000000000000e+00) (0, 0, 0.00000000000000000000e+00) (0, 0, 0.00000000000000000000e+00) (0, 0, 0.00000000000000000000e+00) (513, 5, 5.00000000000000000000e-01) (513, 5, 5.00000000000000000000e-01) (513, 5, 5.00000000000000000000e-01) (513, 5, 5.00000000000000000000e-01) (513, 5, 5.00000000000000000000e-01) (513, 5, 5.00000000000000000000e-01) (0, 5, 0.00000000000000000000e+00) (7, 5, 5.00000000000000000000e-01) (7, 5, 5.00000000000000000000e-01) (7, 5, 5.00000000000000000000e-01) (7, 5, 5.00000000000000000000e-01) (7, 5, 5.00000000000000000000e-01) (7, 5, 5.00000000000000000000e-01) (0, 5, 0.00000000000000000000e+00) (7, 5, 5.00000000000000000000e-01) (0, 5, 0.00000000000000000000e+00) 
connections (connected_to_neuron, weight)=(0, -9.48034362792968750000e+02) (1, -9.48019348144531250000e+02) (2, 1.06804676055908203125e+01) (3, 1.07063789367675781250e+01) (4, 1.04931144714355468750e+01) (5, 1.03941793441772460938e+01) (6, 1.03280344009399414063e+01) (7, 1.02956705093383789063e+01) (8, 1.03971605300903320313e+01) (9, 1.02470788955688476563e+01) (10, 1.07833299636840820313e+01) (11, 7.95930337905883789063e+00) (12, 8.08621978759765625000e+00) (13, 9.63289737701416015625e+00) (14, 1.21032733917236328125e+01) (15, 1.13026933670043945313e+01) (16, -7.09091247558593750000e+02) (17, -4.78567962646484375000e+02) (18, 1.22814941406250000000e+02) (19, 1.15081802368164062500e+02) (20, 2.36222400665283203125e+01) (21, 7.15955543518066406250e+00) (22, 1.04631528854370117188e+01) (23, 1.04747591018676757813e+01) (24, 1.04143743515014648438e+01) (25, 1.02874135971069335938e+01) (26, 5.10936832427978515625e+00) (27, 2.97881965637207031250e+01) (28, 7.23013229370117187500e+01) (29, 3.53898811340332031250e+01) (30, 1.94429111480712890625e+01) (31, 1.16770153045654296875e+01) (32, -1.39958068847656250000e+03) (33, -1.40848901367187500000e+03) (34, -8.13400878906250000000e+02) (35, -1.38709082031250000000e+03) (36, 4.74141931533813476563e+00) (37, 5.33440887928009033203e-01) (38, 1.11130321025848388672e+00) (39, 1.45188713073730468750e+00) (40, 1.54436516761779785156e+00) (41, 3.81644940376281738281e+00) (42, 2.53152060508728027344e+00) (43, 1.31680834960937500000e+03) (44, 1.44017565917968750000e+03) (45, 1.44016674804687500000e+03) (46, 1.27282861328125000000e+03) (47, 1.20908923339843750000e+03) (48, 8.11586975097656250000e+02) (49, 1.66344909667968750000e+02) (50, -7.33969482421875000000e+02) (51, -1.22455334472656250000e+03) (52, 1.42124500274658203125e+01) (53, 7.75053262710571289063e+00) (54, 1.85337734222412109375e+01) (55, -1.00621301269531250000e+03) (56, -1.33506774902343750000e+03) (57, -1.20787072753906250000e+03) (58, -1.00710815429687500000e+03) (59, 9.09849395751953125000e+01) (60, 1.49983129882812500000e+03) (61, 1.46628710937500000000e+03) (62, 1.45063903808593750000e+03) (63, 1.21717419433593750000e+03) (64, 1.42692504882812500000e+03) (65, -1.40934326171875000000e+03) (66, 5.79176391601562500000e+02) (67, -1.10774865722656250000e+03) (68, 3.66369567871093750000e+02) (69, -4.30799331665039062500e+01) (70, -1.34846618652343750000e+02) (71, -1.49818872070312500000e+03) (72, -1.36481787109375000000e+03) (73, -8.97941589355468750000e+02) (74, -1.49972790527343750000e+03) (75, 1.40861047363281250000e+03) (76, 1.49974572753906250000e+03) (77, -1.19480847167968750000e+03) (78, -1.17794323730468750000e+03) (79, -8.18118652343750000000e+02) (80, 1.30381127929687500000e+03) (81, 2.46021484375000000000e+02) (82, -1.47500000000000000000e+03) (83, -7.70292541503906250000e+02) (84, -1.49623815917968750000e+03) (85, -1.68042663574218750000e+02) (86, -1.49478369140625000000e+03) (87, -1.49984277343750000000e+03) (88, -1.45297460937500000000e+03) (89, -1.07768139648437500000e+03) (90, -1.47500000000000000000e+03) (91, -1.49068395996093750000e+03) (92, 1.47613708496093750000e+03) (93, 1.48588049316406250000e+03) (94, 2.15419998168945312500e+02) (95, -5.07479522705078125000e+02) (96, 1.49021606445312500000e+03) (97, -1.25450500488281250000e+03) (98, 1.46679113769531250000e+03) (99, 8.94257125854492187500e+01) (100, 2.74346984863281250000e+02) (101, -8.08674865722656250000e+02) (102, -1.47500000000000000000e+03) (103, -1.47500000000000000000e+03) (104, -1.47500000000000000000e+03) (105, -1.47500000000000000000e+03) (106, -1.47500000000000000000e+03) (107, -1.47500000000000000000e+03) (108, -1.49063330078125000000e+03) (109, -7.97648132324218750000e+02) (110, 1.48542785644531250000e+03) (111, 1.49973132324218750000e+03) (112, 9.04771057128906250000e+02) (113, -1.34798852539062500000e+03) (114, 1.49140747070312500000e+03) (115, 1.47649536132812500000e+03) (116, 1.41845837402343750000e+03) (117, 1.48607885742187500000e+03) (118, -7.44254821777343750000e+02) (119, -1.19744653320312500000e+03) (120, -1.47124487304687500000e+03) (121, -1.47500000000000000000e+03) (122, -1.47500000000000000000e+03) (123, -1.47500000000000000000e+03) (124, 9.22477355957031250000e+02) (125, -7.69455993652343750000e+02) (126, 1.49950317382812500000e+03) (127, -1.01204785156250000000e+03) (128, 1.37669323730468750000e+03) (129, 1.49835144042968750000e+03) (130, 1.49800415039062500000e+03) (131, 1.49386743164062500000e+03) (132, 1.07267504882812500000e+03) (133, 1.43316540527343750000e+03) (134, 1.44942333984375000000e+03) (135, 9.46609558105468750000e+02) (136, -1.47598144531250000000e+03) (137, 1.04058337402343750000e+03) (138, -1.47500000000000000000e+03) (139, -1.47500000000000000000e+03) (140, -2.86637847900390625000e+02) (141, 1.25038623046875000000e+03) (142, 1.49941687011718750000e+03) (143, -1.49966418457031250000e+03) (144, 1.32117272949218750000e+03) (145, -5.59483222961425781250e+01) (146, 6.34480102539062500000e+02) (147, 1.01284417724609375000e+03) (148, 7.14948059082031250000e+02) (149, 1.40378710937500000000e+03) (150, 7.71306030273437500000e+02) (151, 8.86241683959960937500e+01) (152, -1.45769860839843750000e+03) (153, -2.24402755737304687500e+02) (154, -1.47500000000000000000e+03) (155, 5.56478637695312500000e+02) (156, 2.25462905883789062500e+02) (157, 1.44899523925781250000e+03) (158, 1.49649389648437500000e+03) (159, -1.49535754394531250000e+03) (160, -1.47500000000000000000e+03) (161, -1.48065075683593750000e+03) (162, 1.36618981933593750000e+03) (163, 1.44261169433593750000e+03) (164, 1.50000000000000000000e+03) (165, 1.04862438964843750000e+03) (166, 1.50000000000000000000e+03) (167, -8.87002014160156250000e+02) (168, -1.49109216308593750000e+03) (169, -5.68740783691406250000e+02) (170, -1.47500000000000000000e+03) (171, 1.49781750488281250000e+03) (172, 1.39305432128906250000e+03) (173, -4.00189392089843750000e+02) (174, 1.22612145996093750000e+03) (175, -1.33871850585937500000e+03) (176, -1.47500000000000000000e+03) (177, -1.47500000000000000000e+03) (178, 6.88298461914062500000e+02) (179, 1.23801834106445312500e+02) (180, 1.49251220703125000000e+03) (181, 4.24212829589843750000e+02) (182, 9.90344787597656250000e+02) (183, -1.03295886230468750000e+03) (184, -1.49573730468750000000e+03) (185, -1.59197219848632812500e+02) (186, 1.34426965332031250000e+03) (187, 1.18883349609375000000e+03) (188, 1.24927355957031250000e+03) (189, -5.15509155273437500000e+02) (190, 3.78067016601562500000e+01) (191, -1.48223229980468750000e+03) (192, -1.47500000000000000000e+03) (193, 3.86561157226562500000e+02) (194, -1.49884228515625000000e+03) (195, 1.30860009765625000000e+03) (196, 1.48074902343750000000e+03) (197, 1.15215185546875000000e+03) (198, 1.16033312988281250000e+03) (199, 3.55087188720703125000e+02) (200, -1.49023413085937500000e+03) (201, 1.50000000000000000000e+03) (202, 1.50000000000000000000e+03) (203, -2.85510406494140625000e+02) (204, 1.20210656738281250000e+03) (205, 1.45776391601562500000e+03) (206, -1.49423376464843750000e+03) (207, -1.47274243164062500000e+03) (208, -1.47500000000000000000e+03) (209, 1.50000000000000000000e+03) (210, -1.45723730468750000000e+03) (211, -1.40993127441406250000e+03) (212, 1.48699499511718750000e+03) (213, 1.50000000000000000000e+03) (214, 1.15938385009765625000e+02) (215, 2.62963439941406250000e+02) (216, -3.15239448547363281250e+01) (217, 1.44892749023437500000e+03) (218, 1.50000000000000000000e+03) (219, -9.11311462402343750000e+02) (220, 1.36397058105468750000e+03) (221, -3.45944099426269531250e+01) (222, -1.49943615722656250000e+03) (223, -1.49489343261718750000e+03) (224, 8.72711242675781250000e+02) (225, 1.50000000000000000000e+03) (226, 1.50000000000000000000e+03) (227, -5.46047607421875000000e+02) (228, 1.49207519531250000000e+03) (229, 1.50000000000000000000e+03) (230, 8.91996398925781250000e+02) (231, 6.32004455566406250000e+02) (232, -1.09522583007812500000e+03) (233, 1.44824792480468750000e+03) (234, 1.50000000000000000000e+03) (235, -7.48036560058593750000e+02) (236, 1.49799340820312500000e+03) (237, -7.22397460937500000000e+02) (238, -1.49305139160156250000e+03) (239, -1.45639147949218750000e+03) (240, 1.06616882324218750000e+03) (241, 1.50000000000000000000e+03) (242, 1.47778002929687500000e+03) (243, -5.80752807617187500000e+02) (244, 1.49501281738281250000e+03) (245, 2.90517333984375000000e+02) (246, 1.97655273437500000000e+02) (247, -9.93050781250000000000e+02) (248, -1.47483813476562500000e+03) (249, 1.43630407714843750000e+03) (250, -9.22789123535156250000e+02) (251, 1.23297607421875000000e+03) (252, 1.33761608886718750000e+03) (253, -9.66947998046875000000e+02) (254, -1.13687976074218750000e+03) (255, -1.49193786621093750000e+03) (256, -1.47500000000000000000e+03) (257, 1.50000000000000000000e+03) (258, -1.48065075683593750000e+03) (259, -9.37420715332031250000e+02) (260, 1.50000000000000000000e+03) (261, 1.50000000000000000000e+03) (262, 1.40979479980468750000e+03) (263, 1.08099743652343750000e+03) (264, -1.29029870605468750000e+03) (265, 1.44255224609375000000e+03) (266, 1.50000000000000000000e+03) (267, 8.44638366699218750000e+02) (268, 1.47770922851562500000e+03) (269, -1.49852148437500000000e+03) (270, -7.36508666992187500000e+02) (271, -1.49193786621093750000e+03) (272, -1.47500000000000000000e+03) (273, -1.40559753417968750000e+03) (274, 1.46427087402343750000e+03) (275, 1.46818469238281250000e+03) (276, 1.50000000000000000000e+03) (277, 1.01465203857421875000e+03) (278, -2.88168060302734375000e+02) (279, -1.79809158325195312500e+02) (280, -1.40831713867187500000e+03) (281, 1.41726892089843750000e+03) (282, 1.50000000000000000000e+03) (283, 9.98770324707031250000e+02) (284, -1.48436950683593750000e+03) (285, -7.63126647949218750000e+02) (286, -7.85367813110351562500e+01) (287, -1.49193786621093750000e+03) (288, 4.02380920410156250000e+02) (289, -1.12259851074218750000e+03) (290, 1.33166625976562500000e+03) (291, 8.20887939453125000000e+02) (292, 1.49836376953125000000e+03) (293, 9.00554321289062500000e+02) (294, -1.08164819335937500000e+03) (295, -9.61776123046875000000e+02) (296, -1.14502282714843750000e+03) (297, 1.49501489257812500000e+03) (298, 1.50000000000000000000e+03) (299, 6.21016906738281250000e+02) (300, 1.50000000000000000000e+03) (301, 7.04478088378906250000e+02) (302, -1.46904382324218750000e+03) (303, -1.32807421875000000000e+03) (304, -1.81680114746093750000e+02) (305, -5.42931274414062500000e+02) (306, -6.30878784179687500000e+02) (307, 5.74659423828125000000e+02) (308, 1.50000000000000000000e+03) (309, -9.45062866210937500000e+01) (310, 1.44215588378906250000e+03) (311, -1.28527893066406250000e+03) (312, -1.20848425292968750000e+03) (313, 7.05894531250000000000e+02) (314, 1.47218395996093750000e+03) (315, 1.30750305175781250000e+03) (316, 1.50000000000000000000e+03) (317, -8.85857666015625000000e+02) (318, -1.40162963867187500000e+03) (319, -1.47500000000000000000e+03) (320, 2.95081787109375000000e+02) (321, -1.40847326660156250000e+03) (322, 1.39953540039062500000e+03) (323, -1.49504943847656250000e+03) (324, 1.50000000000000000000e+03) (325, 1.23200225830078125000e+02) (326, 5.16038085937500000000e+02) (327, -1.14968029785156250000e+03) (328, -1.21693603515625000000e+03) (329, 3.48593109130859375000e+02) (330, 1.48955676269531250000e+03) (331, 1.45741259765625000000e+03) (332, 1.50000000000000000000e+03) (333, 1.34422949218750000000e+03) (334, 1.49859155273437500000e+03) (335, -1.47500000000000000000e+03) (336, -1.47500000000000000000e+03) (337, 4.96807556152343750000e+02) (338, 1.09919982910156250000e+03) (339, 1.04349890136718750000e+03) (340, 1.50000000000000000000e+03) (341, 1.50000000000000000000e+03) (342, 1.73047058105468750000e+02) (343, -1.18976306152343750000e+03) (344, 5.34856140136718750000e+02) (345, -1.57960796356201171875e+01) (346, 1.48000988769531250000e+03) (347, 7.31194702148437500000e+02) (348, 1.50000000000000000000e+03) (349, -2.35970321655273437500e+02) (350, 1.40794067382812500000e+03) (351, -1.47500000000000000000e+03) (352, -1.47500000000000000000e+03) (353, -1.47500000000000000000e+03) (354, -7.12027053833007812500e+01) (355, 1.21549340820312500000e+03) (356, 1.50000000000000000000e+03) (357, 1.76771301269531250000e+02) (358, -4.47240295410156250000e+01) (359, 2.31045837402343750000e+02) (360, -3.31360168457031250000e+02) (361, 8.76331115722656250000e+02) (362, 4.28808479309082031250e+01) (363, 1.27078295898437500000e+03) (364, 1.50000000000000000000e+03) (365, -3.54349761962890625000e+02) (366, -1.00979138183593750000e+03) (367, -1.49535754394531250000e+03) (368, -1.47500000000000000000e+03) (369, -5.82330505371093750000e+02) (370, 1.49839477539062500000e+03) (371, -1.29759567260742187500e+02) (372, 1.50000000000000000000e+03) (373, 1.50000000000000000000e+03) (374, -8.54652404785156250000e+02) (375, -9.80933898925781250000e+02) (376, -1.14328564453125000000e+03) (377, -1.31462646484375000000e+03) (378, 1.49262731933593750000e+03) (379, 1.49209521484375000000e+03) (380, 1.50000000000000000000e+03) (381, 1.02490808105468750000e+03) (382, 4.89432128906250000000e+02) (383, -1.49806567382812500000e+03) (384, -1.47500000000000000000e+03) (385, -1.47500000000000000000e+03) (386, 2.65552673339843750000e+02) (387, 4.60501617431640625000e+02) (388, 1.50000000000000000000e+03) (389, 9.73658874511718750000e+02) (390, 1.26879907226562500000e+03) (391, -1.92465332031250000000e+02) (392, 4.34814788818359375000e+02) (393, -1.22948193359375000000e+03) (394, 1.50000000000000000000e+03) (395, 1.49946386718750000000e+03) (396, 1.50000000000000000000e+03) (397, -3.23302764892578125000e+02) (398, -8.42103393554687500000e+02) (399, -1.47500000000000000000e+03) (400, -1.47500000000000000000e+03) (401, -1.47500000000000000000e+03) (402, -1.48095996093750000000e+03) (403, -1.49783691406250000000e+03) (404, 9.13253662109375000000e+02) (405, 1.49676135253906250000e+03) (406, -1.19200732421875000000e+03) (407, -4.72334747314453125000e+02) (408, -1.42953503417968750000e+03) (409, -1.05043444824218750000e+03) (410, 1.46577502441406250000e+03) (411, 1.36065173339843750000e+03) (412, 1.50000000000000000000e+03) (413, -1.47500000000000000000e+03) (414, -8.15275207519531250000e+02) (415, -6.00357360839843750000e+02) (416, -1.47500000000000000000e+03) (417, -1.47500000000000000000e+03) (418, -1.47500000000000000000e+03) (419, -1.49480859375000000000e+03) (420, 1.12873229980468750000e+03) (421, -1.33405310058593750000e+03) (422, -1.47997473144531250000e+03) (423, 5.81402282714843750000e+02) (424, 1.18185388183593750000e+03) (425, 1.43198254394531250000e+03) (426, -7.33934570312500000000e+02) (427, -1.48065075683593750000e+03) (428, 1.50000000000000000000e+03) (429, -1.47500000000000000000e+03) (430, -1.42753503417968750000e+03) (431, -1.48205847167968750000e+03) (432, -1.96453247070312500000e+01) (433, -1.47500000000000000000e+03) (434, -1.47500000000000000000e+03) (435, -1.47500000000000000000e+03) (436, 1.50000000000000000000e+03) (437, 1.50000000000000000000e+03) (438, 1.50000000000000000000e+03) (439, 1.50000000000000000000e+03) (440, 1.50000000000000000000e+03) (441, 7.77922851562500000000e+02) (442, 3.72948669433593750000e+02) (443, -1.47500000000000000000e+03) (444, -1.47500000000000000000e+03) (445, -1.47500000000000000000e+03) (446, 1.48589147949218750000e+03) (447, 3.70129638671875000000e+02) (448, 1.39240490722656250000e+03) (449, 1.31336621093750000000e+03) (450, 4.46231933593750000000e+02) (451, -1.47500000000000000000e+03) (452, 1.43131530761718750000e+03) (453, 1.45501196289062500000e+03) (454, 8.37917663574218750000e+02) (455, 1.09194299316406250000e+03) (456, 5.07828216552734375000e+02) (457, 1.48716259765625000000e+03) (458, 6.22026428222656250000e+02) (459, -1.49444702148437500000e+03) (460, 1.12765930175781250000e+03) (461, -1.09515075683593750000e+02) (462, 1.45500134277343750000e+03) (463, 5.28963745117187500000e+02) (464, 8.54394592285156250000e+02) (465, -2.43785964965820312500e+02) (466, -1.43199902343750000000e+03) (467, 2.36550247192382812500e+02) (468, -2.79711242675781250000e+02) (469, -3.33145446777343750000e+01) (470, -1.20618125915527343750e+02) (471, -8.71404495239257812500e+01) (472, 9.45602172851562500000e+02) (473, -1.66536972045898437500e+02) (474, -2.62370880126953125000e+02) (475, -1.49193786621093750000e+03) (476, 2.69487487792968750000e+02) (477, -1.04166711425781250000e+03) (478, -1.23812548828125000000e+03) (479, 4.23911468505859375000e+02) (480, 3.39720397949218750000e+02) (481, 6.70003234863281250000e+02) (482, 2.47572212219238281250e+01) (483, -7.60871429443359375000e+01) (484, -5.08401306152343750000e+02) (485, -8.03526977539062500000e+02) (486, -8.01215576171875000000e+02) (487, 9.70146656036376953125e+00) (488, 2.90916824340820312500e+00) (489, 3.90544104576110839844e+00) (490, 1.69725723266601562500e+01) (491, 8.87854736328125000000e+02) (492, 1.35290075683593750000e+03) (493, 1.45544824218750000000e+03) (494, 4.98653137207031250000e+02) (495, 1.24417289733886718750e+02) (496, -2.94683135986328125000e+02) (497, -2.97034790039062500000e+02) (498, -8.77580261230468750000e+02) (499, -8.77579162597656250000e+02) (500, -8.71264343261718750000e+02) (501, -8.64209411621093750000e+02) (502, -8.64210144042968750000e+02) (503, 9.77651596069335937500e+00) (504, 6.84635782241821289063e+00) (505, 1.64107418060302734375e+01) (506, 1.30551557540893554688e+01) (507, 4.41382255554199218750e+01) (508, 8.92722034454345703125e+00) (509, 5.03722000122070312500e+00) (510, 5.13112306594848632813e+00) (511, 8.63561820983886718750e+00) (512, 7.86330175399780273438e+00) (0, -1.49486584472656250000e+03) (1, -1.48456164550781250000e+03) (2, -2.63550109863281250000e+02) (3, -7.39229675292968750000e+02) (4, -6.62010314941406250000e+02) (5, -5.13265563964843750000e+02) (6, -5.13303588867187500000e+02) (7, -5.13148254394531250000e+02) (8, -4.57896759033203125000e+02) (9, -4.57941986083984375000e+02) (10, -6.18562316894531250000e+02) (11, -4.36778015136718750000e+02) (12, -6.31447326660156250000e+02) (13, -1.48831274414062500000e+03) (14, -1.48831506347656250000e+03) (15, -1.48830944824218750000e+03) (16, -1.48466125488281250000e+03) (17, -1.49889038085937500000e+03) (18, -1.48832397460937500000e+03) (19, -1.20746569824218750000e+03) (20, -6.25132995605468750000e+02) (21, -7.42477722167968750000e+02) (22, -5.13201354980468750000e+02) (23, -5.13288269042968750000e+02) (24, -5.86078369140625000000e+02) (25, -5.45249389648437500000e+02) (26, -2.66795349121093750000e+02) (27, -1.49484008789062500000e+03) (28, -1.48832788085937500000e+03) (29, -1.46887780761718750000e+03) (30, -1.42221459960937500000e+03) (31, -1.46886743164062500000e+03) (32, -1.48796337890625000000e+03) (33, -8.56609985351562500000e+02) (34, -6.78856262207031250000e+02) (35, -5.86850891113281250000e+02) (36, -3.78840057373046875000e+02) (37, -1.31452539062500000000e+03) (38, -6.39996719360351562500e+01) (39, -6.86787796020507812500e+01) (40, -9.83331298828125000000e+01) (41, -1.21521396636962890625e+01) (42, -1.56304687500000000000e+02) (43, -1.46895007324218750000e+03) (44, -1.47950085449218750000e+03) (45, -1.38582397460937500000e+03) (46, -1.32102404785156250000e+03) (47, -1.33129895019531250000e+03) (48, -1.44697900390625000000e+03) (49, 1.04210156250000000000e+03) (50, 1.40726550292968750000e+03) (51, 1.47376940917968750000e+03) (52, -3.28396331787109375000e+02) (53, -2.82647953033447265625e+01) (54, -4.29817152023315429688e+00) (55, 8.52084228515625000000e+02) (56, 1.49583288574218750000e+03) (57, 8.35343261718750000000e+02) (58, -1.49984362792968750000e+03) (59, -1.11233752441406250000e+03) (60, -1.24668359375000000000e+03) (61, -1.40426928710937500000e+03) (62, -1.39170336914062500000e+03) (63, -1.49988745117187500000e+03) (64, -1.49984692382812500000e+03) (65, 1.45195153808593750000e+03) (66, -2.14436782836914062500e+02) (67, 7.17764953613281250000e+02) (68, -4.39238098144531250000e+02) (69, 1.24192541503906250000e+03) (70, 1.49999768066406250000e+03) (71, 1.50000000000000000000e+03) (72, 1.45285546875000000000e+03) (73, 3.72528015136718750000e+02) (74, -6.12390258789062500000e+02) (75, -1.45050366210937500000e+03) (76, -1.49540307617187500000e+03) (77, 1.49737841796875000000e+03) (78, 1.46000061035156250000e+03) (79, -1.49990319824218750000e+03) (80, -2.29409042358398437500e+02) (81, 4.53405700683593750000e+02) (82, 1.25784619140625000000e+03) (83, 1.05228588867187500000e+03) (84, -1.09578695297241210938e+01) (85, 1.43180065917968750000e+03) (86, 1.45616284179687500000e+03) (87, 1.49607226562500000000e+03) (88, 1.30952526855468750000e+03) (89, 1.40161804199218750000e+03) (90, -1.40945959472656250000e+03) (91, -9.32389526367187500000e+01) (92, 1.47125341796875000000e+03) (93, 1.49849645996093750000e+03) (94, 5.87766113281250000000e+02) (95, 1.47662292480468750000e+03) (96, -1.42942749023437500000e+03) (97, 6.24502197265625000000e+02) (98, 7.04860290527343750000e+02) (99, 1.39277297973632812500e+02) (100, 5.36171325683593750000e+02) (101, 1.45474353027343750000e+03) (102, 1.48877026367187500000e+03) (103, 1.47739868164062500000e+03) (104, 1.49946984863281250000e+03) (105, 1.47119836425781250000e+03) (106, -6.75158630371093750000e+02) (107, -1.43287841796875000000e+03) (108, -1.39381237792968750000e+03) (109, 1.48507128906250000000e+03) (110, 1.13290428161621093750e+02) (111, -1.34201208496093750000e+03) (112, 1.49968615722656250000e+03) (113, 1.48522937011718750000e+03) (114, 1.49673144531250000000e+03) (115, 1.49275439453125000000e+03) (116, -1.17324389648437500000e+03) (117, -1.43811242675781250000e+03) (118, 1.49933459472656250000e+03) (119, 1.49999865722656250000e+03) (120, 8.47956176757812500000e+02) (121, 1.48417468261718750000e+03) (122, 1.49673010253906250000e+03) (123, 1.49327148437500000000e+03) (124, 1.05171089172363281250e+02) (125, 1.49859362792968750000e+03) (126, 1.46560302734375000000e+03) (127, -1.35934814453125000000e+03) (128, -1.23004284667968750000e+03) (129, 1.49015661621093750000e+03) (130, 1.42707849121093750000e+03) (131, 1.43986340332031250000e+03) (132, 1.49909570312500000000e+03) (133, 1.48835620117187500000e+03) (134, 1.48833459472656250000e+03) (135, 1.49868457031250000000e+03) (136, 1.49795776367187500000e+03) (137, 8.96056823730468750000e+02) (138, -1.36367248535156250000e+03) (139, -1.42336645507812500000e+03) (140, 7.43529235839843750000e+02) (141, 1.41251257324218750000e+03) (142, 1.49484521484375000000e+03) (143, -1.36924365234375000000e+03) (144, -5.70326660156250000000e+02) (145, -1.12626208496093750000e+03) (146, 4.86788879394531250000e+02) (147, -9.34140258789062500000e+02) (148, 1.02946731567382812500e+02) (149, 1.30764965820312500000e+03) (150, 1.49860778808593750000e+03) (151, 1.49878112792968750000e+03) (152, 1.43568176269531250000e+03) (153, 1.56595062255859375000e+02) (154, -1.33001538085937500000e+03) (155, -2.54588684082031250000e+02) (156, -5.53757507324218750000e+02) (157, -1.37609399414062500000e+03) (158, -1.45593359375000000000e+03) (159, -9.27019348144531250000e+02) (160, -9.43788513183593750000e+02) (161, -1.14804211425781250000e+03) (162, 1.49614538574218750000e+03) (163, 1.49813134765625000000e+03) (164, -2.94814819335937500000e+02) (165, 1.15722570800781250000e+03) (166, 1.36300573730468750000e+03) (167, 1.41851477050781250000e+03) (168, 1.33856091308593750000e+03) (169, -1.49109729003906250000e+03) (170, 1.36560375976562500000e+03) (171, 1.49958117675781250000e+03) (172, -1.19770996093750000000e+03) (173, 7.69747802734375000000e+02) (174, 5.18122680664062500000e+02) (175, -1.37962829589843750000e+03) (176, -1.49617053222656250000e+03) (177, -1.48873266601562500000e+03) (178, -1.46279223632812500000e+03) (179, -1.34239465332031250000e+03) (180, -1.39340295410156250000e+03) (181, 1.43780664062500000000e+03) (182, 1.43878710937500000000e+03) (183, 1.35412060546875000000e+03) (184, 9.89759033203125000000e+02) (185, -3.70993865966796875000e+02) (186, -3.22342163085937500000e+02) (187, 1.49970996093750000000e+03) (188, -1.49209777832031250000e+03) (189, -1.43193395996093750000e+03) (190, 6.70508666992187500000e+02) (191, -1.03314526367187500000e+03) (192, -1.54611406326293945313e+01) (193, 1.46960778808593750000e+03) (194, -1.49990515136718750000e+03) (195, 4.43151885986328125000e+02) (196, 7.46776428222656250000e+01) (197, 1.49415295410156250000e+03) (198, 1.42730590820312500000e+03) (199, 1.26459704589843750000e+03) (200, 1.19390454101562500000e+03) (201, 4.53242706298828125000e+02) (202, -1.11324890136718750000e+03) (203, 1.49974316406250000000e+03) (204, 1.18236645507812500000e+03) (205, 1.47142614746093750000e+03) (206, 3.10303466796875000000e+02) (207, 3.29324981689453125000e+02) (208, -1.49999072265625000000e+03) (209, 8.64639099121093750000e+02) (210, -1.42020947265625000000e+03) (211, -6.49778198242187500000e+02) (212, 7.99125549316406250000e+02) (213, -7.17597473144531250000e+02) (214, 1.38817565917968750000e+03) (215, 1.49543041992187500000e+03) (216, 1.48186535644531250000e+03) (217, 3.41161994934082031250e+01) (218, 1.49991528320312500000e+03) (219, 1.49956518554687500000e+03) (220, 1.14944653320312500000e+03) (221, -5.44720092773437500000e+02) (222, -7.97111938476562500000e+02) (223, 4.78002075195312500000e+02) (224, -2.38364624023437500000e+02) (225, 1.00547222900390625000e+03) (226, 7.63274902343750000000e+02) (227, -1.49867260742187500000e+03) (228, 1.49949230957031250000e+03) (229, 1.48278491210937500000e+03) (230, 4.33198852539062500000e+02) (231, 1.36708093261718750000e+03) (232, 6.46316284179687500000e+02) (233, -5.21213684082031250000e+02) (234, -3.23990875244140625000e+02) (235, 1.49984887695312500000e+03) (236, 1.17202172851562500000e+03) (237, 4.35487274169921875000e+02) (238, -1.37647607421875000000e+03) (239, 1.14789489746093750000e+03) (240, 3.32161682128906250000e+02) (241, 9.14660827636718750000e+02) (242, -1.38233972167968750000e+03) (243, 6.49388854980468750000e+02) (244, 1.49990490722656250000e+03) (245, -6.93177185058593750000e+02) (246, 2.37808639526367187500e+02) (247, 1.49259667968750000000e+03) (248, 1.30349060058593750000e+03) (249, -1.10197766113281250000e+03) (250, -7.23647155761718750000e+02) (251, 5.07417480468750000000e+02) (252, 1.46948388671875000000e+03) (253, -2.19969955444335937500e+02) (254, -1.74813201904296875000e+02) (255, 1.35563452148437500000e+03) (256, 2.45804000854492187500e+02) (257, 1.50000000000000000000e+03) (258, -1.33982226562500000000e+03) (259, 1.49187744140625000000e+03) (260, 5.73920043945312500000e+02) (261, 1.40118212890625000000e+03) (262, 1.37069641113281250000e+03) (263, 1.49733227539062500000e+03) (264, 1.18815588378906250000e+03) (265, 5.86009704589843750000e+02) (266, -6.41046142578125000000e+02) (267, 1.49986547851562500000e+03) (268, 1.44501538085937500000e+03) (269, -5.49083862304687500000e+02) (270, 7.12109741210937500000e+02) (271, 1.45491394042968750000e+03) (272, 2.37040618896484375000e+02) (273, -1.49753710937500000000e+03) (274, -1.31849755859375000000e+03) (275, 1.43682373046875000000e+03) (276, 1.48695117187500000000e+03) (277, 5.85517089843750000000e+02) (278, -1.29066406250000000000e+03) (279, 9.33141662597656250000e+02) (280, 1.32942883300781250000e+03) (281, 1.14795898437500000000e+03) (282, -8.12848022460937500000e+02) (283, 1.49992053222656250000e+03) (284, -2.22091888427734375000e+02) (285, 1.45419360351562500000e+03) (286, 1.44536938476562500000e+03) (287, 1.44505920410156250000e+03) (288, 4.47691726684570312500e+01) (289, -1.36061535644531250000e+03) (290, -1.32721008300781250000e+03) (291, 3.39350128173828125000e+02) (292, 1.49740527343750000000e+03) (293, -1.19480883789062500000e+03) (294, -1.26202331542968750000e+03) (295, 1.48576672363281250000e+03) (296, 1.48633007812500000000e+03) (297, 1.45340148925781250000e+03) (298, -8.22076965332031250000e+02) (299, 1.49993994140625000000e+03) (300, 1.49776062011718750000e+03) (301, 1.45457617187500000000e+03) (302, 1.41325097656250000000e+03) (303, 1.18633984375000000000e+03) (304, -4.13823577880859375000e+02) (305, -1.49269628906250000000e+03) (306, -1.44612561035156250000e+03) (307, 1.17108129882812500000e+03) (308, -7.03158569335937500000e+02) (309, -1.27687158203125000000e+03) (310, -1.17391528320312500000e+03) (311, 1.49069030761718750000e+03) (312, 1.48196362304687500000e+03) (313, -1.49990197753906250000e+03) (314, -8.34105041503906250000e+02) (315, -4.10391265869140625000e+02) (316, 1.41096118164062500000e+03) (317, 1.45475573730468750000e+03) (318, 1.30505041503906250000e+03) (319, 9.24578430175781250000e+02) (320, 6.28969482421875000000e+02) (321, -5.13599609375000000000e+02) (322, -6.77522827148437500000e+02) (323, -1.61658126831054687500e+02) (324, 1.38811108398437500000e+03) (325, -1.17894128417968750000e+03) (326, -1.46574340820312500000e+03) (327, 1.05393028259277343750e+01) (328, 1.40747424316406250000e+03) (329, -3.24428161621093750000e+02) (330, -1.02250848388671875000e+03) (331, 4.17907073974609375000e+02) (332, 1.41846032714843750000e+03) (333, 3.26547515869140625000e+02) (334, 1.07487268066406250000e+03) (335, 1.32928247070312500000e+03) (336, -1.40333825683593750000e+03) (337, -1.41048046875000000000e+03) (338, 1.49742431640625000000e+03) (339, 1.49998168945312500000e+03) (340, 1.49962011718750000000e+03) (341, -3.61733184814453125000e+02) (342, -1.34367602539062500000e+03) (343, 2.64965026855468750000e+02) (344, -6.79058044433593750000e+02) (345, 1.38553161621093750000e+03) (346, 1.32228430175781250000e+03) (347, 1.49984472656250000000e+03) (348, 1.35743688964843750000e+03) (349, 3.08833801269531250000e+02) (350, 1.44413427734375000000e+03) (351, 1.31182080078125000000e+03) (352, -1.40172216796875000000e+03) (353, 2.72231506347656250000e+02) (354, 1.46965161132812500000e+03) (355, 1.37141455078125000000e+03) (356, 1.49984179687500000000e+03) (357, -1.39888769531250000000e+03) (358, -1.32273828125000000000e+03) (359, 1.49863830566406250000e+03) (360, 1.25415695190429687500e+02) (361, -1.06872424316406250000e+03) (362, -1.16204187011718750000e+03) (363, 1.49844567871093750000e+03) (364, 1.50000000000000000000e+03) (365, 1.45789831542968750000e+03) (366, -1.06513122558593750000e+02) (367, -1.31853283691406250000e+03) (368, 6.85531860351562500000e+02) (369, 1.49592858886718750000e+03) (370, -2.60994812011718750000e+02) (371, 1.14649072265625000000e+03) (372, 1.49970202636718750000e+03) (373, -9.11255310058593750000e+02) (374, -1.29842236328125000000e+03) (375, 1.49396655273437500000e+03) (376, -5.08932434082031250000e+02) (377, -1.10782203674316406250e+02) (378, -7.26357849121093750000e+02) (379, 1.49990136718750000000e+03) (380, 1.47855029296875000000e+03) (381, -1.43960034179687500000e+03) (382, 1.02722497558593750000e+03) (383, -1.18111840820312500000e+03) (384, 6.96041503906250000000e+02) (385, 1.47110607910156250000e+03) (386, 9.75972290039062500000e+02) (387, 1.47900354003906250000e+03) (388, 1.49124755859375000000e+03) (389, 1.49482092285156250000e+03) (390, 1.47867395019531250000e+03) (391, 9.45414794921875000000e+02) (392, 1.49906616210937500000e+03) (393, -1.48935290527343750000e+03) (394, -1.44370239257812500000e+03) (395, -1.35574987792968750000e+03) (396, -2.33769424438476562500e+02) (397, -1.46500585937500000000e+03) (398, 1.69213668823242187500e+02) (399, -1.49996557617187500000e+03) (400, 6.37063964843750000000e+02) (401, -1.32007360839843750000e+03) (402, -1.47055603027343750000e+03) (403, -1.42332141113281250000e+03) (404, -1.45705810546875000000e+03) (405, 1.45826953125000000000e+03) (406, -8.47589874267578125000e+01) (407, 1.49846704101562500000e+03) (408, -9.92294189453125000000e+02) (409, -1.53312301635742187500e+02) (410, -1.27469531250000000000e+03) (411, -1.32410668945312500000e+03) (412, -1.46792004394531250000e+03) (413, -1.47275610351562500000e+03) (414, 1.96059906005859375000e+02) (415, -1.49397680664062500000e+03) (416, -1.49956237792968750000e+03) (417, -1.44058764648437500000e+03) (418, -1.48533898925781250000e+03) (419, -8.10272583007812500000e+02) (420, -1.26120983886718750000e+03) (421, 9.01367736816406250000e+02) (422, -5.53226257324218750000e+02) (423, -1.23146374511718750000e+03) (424, -1.24783422851562500000e+03) (425, -1.48459558105468750000e+03) (426, -6.46018066406250000000e+02) (427, -1.49667150878906250000e+03) (428, -7.91040100097656250000e+02) (429, -1.50000000000000000000e+03) (430, 1.42974414062500000000e+03) (431, -1.33280249023437500000e+03) (432, 1.48003857421875000000e+03) (433, -1.39486206054687500000e+03) (434, -1.06899462890625000000e+03) (435, -1.30343774414062500000e+03) (436, -5.77903381347656250000e+02) (437, 1.49918627929687500000e+03) (438, 3.06881805419921875000e+02) (439, -1.28942175292968750000e+03) (440, -1.23624487304687500000e+03) (441, -1.45422863769531250000e+03) (442, -2.42222793579101562500e+02) (443, -1.29780261230468750000e+03) (444, -1.44610400390625000000e+03) (445, -1.49998681640625000000e+03) (446, 1.45773315429687500000e+03) (447, 6.36941589355468750000e+02) (448, 1.36363647460937500000e+03) (449, 1.05595593261718750000e+03) (450, 7.47822265625000000000e+02) (451, -1.49991198730468750000e+03) (452, -1.34227807617187500000e+03) (453, -1.42019226074218750000e+03) (454, -1.08612182617187500000e+03) (455, 1.49999938964843750000e+03) (456, 7.31065429687500000000e+02) (457, 5.76846496582031250000e+02) (458, 3.28705627441406250000e+02) (459, 1.17260803222656250000e+03) (460, -1.36790258789062500000e+03) (461, 1.36899572753906250000e+03) (462, -7.17716918945312500000e+02) (463, -1.09814135742187500000e+03) (464, 1.49127380371093750000e+03) (465, 1.40724157714843750000e+03) (466, 1.43153491210937500000e+03) (467, 6.54754455566406250000e+02) (468, -1.22370178222656250000e+03) (469, -8.72728149414062500000e+02) (470, -1.44823742675781250000e+03) (471, 1.49756933593750000000e+03) (472, 1.26411877441406250000e+03) (473, 1.49984985351562500000e+03) (474, -6.43187316894531250000e+02) (475, 1.49999902343750000000e+03) (476, -1.30902636718750000000e+03) (477, 1.49493884277343750000e+03) (478, -1.48139050292968750000e+03) (479, -1.49079760742187500000e+03) (480, -5.60128479003906250000e+01) (481, 8.83316516876220703125e+00) (482, -1.48141845703125000000e+03) (483, -1.48134020996093750000e+03) (484, -1.48000817871093750000e+03) (485, -1.48129431152343750000e+03) (486, -1.49889331054687500000e+03) (487, -7.51758422851562500000e+02) (488, 5.53783683776855468750e+01) (489, 6.18653011322021484375e+00) (490, -1.01860290527343750000e+02) (491, -1.49648620605468750000e+03) (492, -1.48950769042968750000e+03) (493, -1.47302612304687500000e+03) (494, -1.42724267578125000000e+03) (495, -1.48818298339843750000e+03) (496, -3.31462707519531250000e+02) (497, -2.59314727783203125000e+02) (498, -1.49886877441406250000e+03) (499, -1.49886572265625000000e+03) (500, -1.48286657714843750000e+03) (501, -1.48286999511718750000e+03) (502, -1.49415905761718750000e+03) (503, -1.49443920898437500000e+03) (504, -1.49275781250000000000e+03) (505, -1.49276318359375000000e+03) (506, -1.49079541015625000000e+03) (507, -1.49094897460937500000e+03) (508, -1.48539306640625000000e+03) (509, -1.48766076660156250000e+03) (510, -1.48766101074218750000e+03) (511, -2.65135375976562500000e+02) (512, -4.44944885253906250000e+02) (0, -7.19957031250000000000e+02) (1, -7.28839233398437500000e+02) (2, -4.81429100036621093750e+01) (3, -4.70662231445312500000e+01) (4, -4.70383453369140625000e+01) (5, -2.82801609039306640625e+01) (6, -2.81929225921630859375e+01) (7, -2.83253192901611328125e+01) (8, -2.82283954620361328125e+01) (9, -2.82335338592529296875e+01) (10, -2.86785869598388671875e+01) (11, -5.48179321289062500000e+01) (12, -5.43343505859375000000e+01) (13, -6.47830505371093750000e+01) (14, -5.34874938964843750000e+02) (15, -4.87454711914062500000e+02) (16, -7.44706970214843750000e+02) (17, -1.44668859863281250000e+03) (18, -2.46161224365234375000e+02) (19, -5.90103454589843750000e+01) (20, -4.86543312072753906250e+01) (21, -4.85376586914062500000e+01) (22, -2.83162517547607421875e+01) (23, -2.83513240814208984375e+01) (24, -2.83750514984130859375e+01) (25, -2.83700122833251953125e+01) (26, -2.97627582550048828125e+01) (27, -6.15215492248535156250e+01) (28, -2.72372894287109375000e+02) (29, -2.88632019042968750000e+02) (30, -9.97580200195312500000e+02) (31, -6.16971984863281250000e+02) (32, -2.33087368011474609375e+01) (33, 1.16807409667968750000e+03) (34, 1.21798107910156250000e+03) (35, 4.87235076904296875000e+02) (36, -1.23863220214843750000e+03) (37, -1.92885437011718750000e+02) (38, -2.76419410705566406250e+01) (39, -2.72051544189453125000e+01) (40, -4.44765548706054687500e+01) (41, -4.41021118164062500000e+01) (42, -8.23464488983154296875e+00) (43, -9.83287109375000000000e+02) (44, -1.36642260742187500000e+03) (45, -1.36644958496093750000e+03) (46, -1.39306457519531250000e+03) (47, -1.45569653320312500000e+03) (48, 5.79479797363281250000e+02) (49, 8.87491210937500000000e+02) (50, 9.99585327148437500000e+02) (51, 1.07271911621093750000e+03) (52, -1.49953247070312500000e+03) (53, -3.74898345947265625000e+02) (54, -1.83900848388671875000e+02) (55, 1.34898693847656250000e+03) (56, 1.47319677734375000000e+03) (57, 1.07139978027343750000e+03) (58, -1.32952468872070312500e+02) (59, -4.09531005859375000000e+02) (60, -1.35001855468750000000e+03) (61, -1.40379895019531250000e+03) (62, -1.40390270996093750000e+03) (63, -1.46018078613281250000e+03) (64, -1.47933239746093750000e+03) (65, 1.50000000000000000000e+03) (66, 5.67085205078125000000e+02) (67, -1.05260705566406250000e+03) (68, 1.50000000000000000000e+03) (69, 1.50000000000000000000e+03) (70, 1.50000000000000000000e+03) (71, 1.50000000000000000000e+03) (72, 1.50000000000000000000e+03) (73, 1.50000000000000000000e+03) (74, 1.50000000000000000000e+03) (75, -5.02694091796875000000e+02) (76, 1.36706103515625000000e+03) (77, 1.49982263183593750000e+03) (78, 1.04565917968750000000e+03) (79, -1.49987792968750000000e+03) (80, -2.44387817382812500000e+01) (81, 1.50000000000000000000e+03) (82, -5.74802978515625000000e+02) (83, -1.49441967773437500000e+03) (84, 1.50000000000000000000e+03) (85, 1.50000000000000000000e+03) (86, 1.50000000000000000000e+03) (87, 1.50000000000000000000e+03) (88, 1.50000000000000000000e+03) (89, 1.50000000000000000000e+03) (90, 1.50000000000000000000e+03) (91, 1.50000000000000000000e+03) (92, -6.23944030761718750000e+02) (93, 1.50000000000000000000e+03) (94, 1.48971179199218750000e+03) (95, 1.49445959472656250000e+03) (96, -1.44586206054687500000e+03) (97, -4.27649597167968750000e+02) (98, 1.29777801513671875000e+02) (99, -1.48399304199218750000e+03) (100, 1.50000000000000000000e+03) (101, 1.50000000000000000000e+03) (102, 1.50000000000000000000e+03) (103, 1.50000000000000000000e+03) (104, 1.50000000000000000000e+03) (105, 1.50000000000000000000e+03) (106, 1.50000000000000000000e+03) (107, -1.22184936523437500000e+03) (108, -1.36123474121093750000e+03) (109, -1.36971667480468750000e+03) (110, 1.50000000000000000000e+03) (111, 1.48440856933593750000e+03) (112, 1.50000000000000000000e+03) (113, 1.50000000000000000000e+03) (114, 1.49606030273437500000e+03) (115, 1.50000000000000000000e+03) (116, -1.48102160644531250000e+03) (117, -1.48136096191406250000e+03) (118, 1.50000000000000000000e+03) (119, 1.50000000000000000000e+03) (120, 1.50000000000000000000e+03) (121, 1.50000000000000000000e+03) (122, 1.50000000000000000000e+03) (123, 7.59705871582031250000e+02) (124, -1.11519812011718750000e+03) (125, 1.25587084960937500000e+03) (126, 1.50000000000000000000e+03) (127, 1.50000000000000000000e+03) (128, 7.11311416625976562500e+01) (129, 1.50000000000000000000e+03) (130, 1.28976281738281250000e+03) (131, 1.50000000000000000000e+03) (132, 9.20452880859375000000e+02) (133, -7.90876525878906250000e+02) (134, 1.50000000000000000000e+03) (135, 1.50000000000000000000e+03) (136, 1.50000000000000000000e+03) (137, 2.58655059814453125000e+02) (138, 1.50000000000000000000e+03) (139, -8.76682495117187500000e+02) (140, 9.11828613281250000000e+02) (141, 1.15036315917968750000e+03) (142, 1.50000000000000000000e+03) (143, 1.49956896972656250000e+03) (144, -1.33881030273437500000e+03) (145, -5.61874694824218750000e+02) (146, 4.06866546630859375000e+02) (147, -1.08175708007812500000e+03) (148, -1.42964660644531250000e+03) (149, -1.48970288085937500000e+03) (150, 1.50000000000000000000e+03) (151, 1.50000000000000000000e+03) (152, 1.50000000000000000000e+03) (153, 1.49055261230468750000e+03) (154, 1.50000000000000000000e+03) (155, 2.03045822143554687500e+02) (156, -7.22020996093750000000e+02) (157, 5.62302185058593750000e+02) (158, -1.13386804199218750000e+03) (159, -1.49742675781250000000e+03) (160, -9.63551879882812500000e+02) (161, 4.05238220214843750000e+02) (162, 1.41090502929687500000e+03) (163, 1.50000000000000000000e+03) (164, -1.46479699707031250000e+03) (165, 1.47022326660156250000e+03) (166, 1.50000000000000000000e+03) (167, 1.50000000000000000000e+03) (168, 1.49806274414062500000e+03) (169, -1.32666699218750000000e+03) (170, 1.50000000000000000000e+03) (171, 1.50000000000000000000e+03) (172, -1.31489013671875000000e+03) (173, -7.31699768066406250000e+02) (174, 1.06170478820800781250e+02) (175, -1.46895410156250000000e+03) (176, -1.08129370117187500000e+03) (177, -1.38010583496093750000e+03) (178, -9.94067321777343750000e+02) (179, 1.50000000000000000000e+03) (180, -1.45555529785156250000e+03) (181, 1.44711547851562500000e+03) (182, 1.50000000000000000000e+03) (183, 1.50000000000000000000e+03) (184, 1.50000000000000000000e+03) (185, -3.85550689697265625000e+02) (186, 1.21557031250000000000e+03) (187, 1.50000000000000000000e+03) (188, -5.88542846679687500000e+02) (189, -1.42856335449218750000e+03) (190, 1.50000000000000000000e+03) (191, 1.35902099609375000000e+03) (192, 1.36251135253906250000e+03) (193, 6.93401489257812500000e+02) (194, -1.39793957519531250000e+03) (195, 1.50000000000000000000e+03) (196, 2.40828460693359375000e+02) (197, 1.06061828613281250000e+03) (198, 1.15030688476562500000e+03) (199, 1.49964843750000000000e+03) (200, 1.20623291015625000000e+03) (201, -9.01002563476562500000e+02) (202, -1.35816503906250000000e+03) (203, 1.39622656250000000000e+03) (204, 1.49983898925781250000e+03) (205, 1.50000000000000000000e+03) (206, 1.50000000000000000000e+03) (207, 1.50000000000000000000e+03) (208, -9.10120117187500000000e+02) (209, 1.50000000000000000000e+03) (210, -1.37510046386718750000e+03) (211, -1.23695104980468750000e+03) (212, -1.02123168945312500000e+03) (213, -4.16488433837890625000e+02) (214, 1.45440466308593750000e+03) (215, 1.48354260253906250000e+03) (216, 1.30045471191406250000e+03) (217, 1.76789123535156250000e+02) (218, -8.19498748779296875000e+01) (219, 1.49997229003906250000e+03) (220, -1.13642309570312500000e+03) (221, 1.50000000000000000000e+03) (222, 1.50000000000000000000e+03) (223, 1.50000000000000000000e+03) (224, 1.48611437988281250000e+03) (225, 1.50000000000000000000e+03) (226, 1.50000000000000000000e+03) (227, -7.05633361816406250000e+02) (228, 1.47976782226562500000e+03) (229, 1.50000000000000000000e+03) (230, 1.29240527343750000000e+03) (231, 1.49298095703125000000e+03) (232, 1.72736846923828125000e+02) (233, -3.86922515869140625000e+02) (234, 7.30776550292968750000e+02) (235, 1.49924926757812500000e+03) (236, 1.49938012695312500000e+03) (237, 4.59444122314453125000e+02) (238, 1.40759265136718750000e+03) (239, 1.50000000000000000000e+03) (240, -3.43802261352539062500e+01) (241, 1.50000000000000000000e+03) (242, -6.59281066894531250000e+02) (243, 1.38837597656250000000e+03) (244, 1.48874902343750000000e+03) (245, 1.50000000000000000000e+03) (246, 1.09394067382812500000e+03) (247, 1.48675622558593750000e+03) (248, 8.85307189941406250000e+02) (249, -6.91524841308593750000e+02) (250, -1.46096813964843750000e+03) (251, 8.59409057617187500000e+02) (252, 1.49608532714843750000e+03) (253, 1.49938378906250000000e+03) (254, 1.50000000000000000000e+03) (255, 1.50000000000000000000e+03) (256, 1.48600903320312500000e+03) (257, 1.50000000000000000000e+03) (258, 1.47232312011718750000e+03) (259, 1.39080004882812500000e+03) (260, 1.47572143554687500000e+03) (261, 1.50000000000000000000e+03) (262, 1.45916760253906250000e+03) (263, 1.49975231933593750000e+03) (264, 1.46649597167968750000e+03) (265, 8.28324401855468750000e+02) (266, -1.28158972167968750000e+03) (267, 1.46945300292968750000e+03) (268, 1.44320361328125000000e+03) (269, 1.49449438476562500000e+03) (270, 1.50000000000000000000e+03) (271, 1.50000000000000000000e+03) (272, 4.96644927978515625000e+02) (273, 1.21622509765625000000e+03) (274, -1.48660559082031250000e+03) (275, 8.77043090820312500000e+02) (276, 1.47299731445312500000e+03) (277, 1.50000000000000000000e+03) (278, -1.31932092285156250000e+03) (279, 2.46512283325195312500e+02) (280, 7.00960235595703125000e+01) (281, -7.77027893066406250000e+02) (282, -1.27861608886718750000e+03) (283, 1.46945300292968750000e+03) (284, -1.43886499023437500000e+03) (285, 1.48665710449218750000e+03) (286, 1.50000000000000000000e+03) (287, 1.50000000000000000000e+03) (288, -1.49862329101562500000e+03) (289, 3.87479553222656250000e+02) (290, -1.48032836914062500000e+03) (291, -1.29822570800781250000e+03) (292, 1.48874902343750000000e+03) (293, 1.50000000000000000000e+03) (294, 2.63865997314453125000e+02) (295, 1.37192773437500000000e+03) (296, 1.39603845214843750000e+03) (297, -2.81778392791748046875e+01) (298, -1.44942346191406250000e+03) (299, 1.43400000000000000000e+03) (300, 1.50000000000000000000e+03) (301, 1.49770605468750000000e+03) (302, 1.50000000000000000000e+03) (303, 1.50000000000000000000e+03) (304, -1.21532690429687500000e+03) (305, -1.11463391113281250000e+03) (306, -1.49076281738281250000e+03) (307, -1.31700317382812500000e+03) (308, 1.47572143554687500000e+03) (309, 1.50000000000000000000e+03) (310, 5.25199775695800781250e+01) (311, 1.40736059570312500000e+03) (312, 1.49374182128906250000e+03) (313, 1.26676123046875000000e+03) (314, -1.44759118652343750000e+03) (315, -1.39627673339843750000e+03) (316, 1.50000000000000000000e+03) (317, 1.48678662109375000000e+03) (318, 1.50000000000000000000e+03) (319, -5.83534973144531250000e+02) (320, 1.42526867675781250000e+03) (321, -1.40889660644531250000e+03) (322, -1.49381958007812500000e+03) (323, 1.21657177734375000000e+03) (324, 1.47572143554687500000e+03) (325, 1.43400000000000000000e+03) (326, -1.45834631347656250000e+03) (327, 1.48539611816406250000e+03) (328, 1.22511511230468750000e+03) (329, 2.36458068847656250000e+02) (330, -1.48734350585937500000e+03) (331, -2.62904541015625000000e+02) (332, 1.50000000000000000000e+03) (333, -9.33810913085937500000e+02) (334, 1.50000000000000000000e+03) (335, 9.90558654785156250000e+02) (336, -3.30078369140625000000e+02) (337, -1.01601086425781250000e+03) (338, 1.49880651855468750000e+03) (339, 1.50000000000000000000e+03) (340, 1.47572143554687500000e+03) (341, 1.43400000000000000000e+03) (342, -1.46240380859375000000e+03) (343, 1.08398608398437500000e+03) (344, 1.47215417480468750000e+03) (345, 5.32900451660156250000e+02) (346, -6.92309387207031250000e+02) (347, 1.50000000000000000000e+03) (348, 1.50000000000000000000e+03) (349, -2.14595565795898437500e+02) (350, 1.32300317382812500000e+03) (351, 9.85212097167968750000e+02) (352, -1.32387902832031250000e+03) (353, 6.93523315429687500000e+02) (354, 1.00660009765625000000e+03) (355, 1.50000000000000000000e+03) (356, 1.36015673828125000000e+03) (357, -1.18566906738281250000e+03) (358, -1.33006677246093750000e+03) (359, 1.47029626464843750000e+03) (360, 1.20885046386718750000e+03) (361, -1.28769989013671875000e+02) (362, -7.31222778320312500000e+02) (363, 1.50000000000000000000e+03) (364, 1.50000000000000000000e+03) (365, 1.46285839843750000000e+03) (366, -1.16682458496093750000e+03) (367, 1.28589599609375000000e+03) (368, 8.12991210937500000000e+02) (369, 1.32180993652343750000e+03) (370, -5.61368225097656250000e+02) (371, 1.50000000000000000000e+03) (372, 1.00660009765625000000e+03) (373, -5.03940856933593750000e+02) (374, -1.45212731933593750000e+03) (375, 1.44484692382812500000e+03) (376, 1.81142990112304687500e+02) (377, 1.35062023925781250000e+03) (378, -2.46880142211914062500e+02) (379, 1.50000000000000000000e+03) (380, 1.50000000000000000000e+03) (381, -1.46909155273437500000e+03) (382, 1.08784326171875000000e+03) (383, 1.38979089355468750000e+03) (384, 1.38050317382812500000e+03) (385, 9.05975341796875000000e+02) (386, 1.47623999023437500000e+03) (387, 1.50000000000000000000e+03) (388, 1.19543176269531250000e+03) (389, 1.43909497070312500000e+03) (390, 1.48031335449218750000e+03) (391, 1.20136401367187500000e+03) (392, 1.45959985351562500000e+03) (393, -1.49618859863281250000e+03) (394, -1.34964868164062500000e+03) (395, 1.80221115112304687500e+02) (396, 1.50000000000000000000e+03) (397, -1.40281652832031250000e+03) (398, -1.46598413085937500000e+03) (399, -1.49314086914062500000e+03) (400, -1.65378265380859375000e+02) (401, 1.44799780273437500000e+03) (402, -8.84594665527343750000e+02) (403, 1.50000000000000000000e+03) (404, -1.35465917968750000000e+03) (405, 1.44320410156250000000e+03) (406, 1.50000000000000000000e+03) (407, 1.49504235839843750000e+03) (408, 1.33694165039062500000e+03) (409, 1.18060168457031250000e+03) (410, -1.49648327636718750000e+03) (411, -1.41715539550781250000e+03) (412, 1.50000000000000000000e+03) (413, -1.43182397460937500000e+03) (414, -1.36561169433593750000e+03) (415, -5.00946014404296875000e+02) (416, -1.49973913574218750000e+03) (417, 1.29402557373046875000e+02) (418, -9.93655456542968750000e+02) (419, 1.50000000000000000000e+03) (420, -5.37555908203125000000e+02) (421, 1.01604937744140625000e+03) (422, 1.32312133789062500000e+02) (423, 9.80999145507812500000e+02) (424, -3.45038879394531250000e+02) (425, -1.44267138671875000000e+03) (426, -1.05914074707031250000e+03) (427, -1.78349670410156250000e+02) (428, 1.50000000000000000000e+03) (429, -1.40781542968750000000e+03) (430, 1.48110314941406250000e+03) (431, -1.23393867492675781250e+02) (432, -3.77745127677917480469e+00) (433, 8.45139709472656250000e+02) (434, 3.41830505371093750000e+02) (435, -4.60128356933593750000e+02) (436, 8.90800048828125000000e+02) (437, 1.50000000000000000000e+03) (438, -5.27206848144531250000e+02) (439, -8.10100952148437500000e+02) (440, -6.22661560058593750000e+02) (441, -8.15336853027343750000e+02) (442, -1.06006294250488281250e+02) (443, 1.50000000000000000000e+03) (444, -1.48273425292968750000e+03) (445, -1.49994116210937500000e+03) (446, 1.50000000000000000000e+03) (447, 8.52394287109375000000e+02) (448, 1.50000000000000000000e+03) (449, 1.43400000000000000000e+03) (450, 1.42278503417968750000e+03) (451, 8.93085449218750000000e+02) (452, -1.11826086425781250000e+03) (453, -1.48054577636718750000e+03) (454, -1.35620593261718750000e+03) (455, 1.39782800292968750000e+03) (456, 1.40563952636718750000e+03) (457, 1.49992517089843750000e+03) (458, -9.40509033203125000000e+02) (459, 1.50000000000000000000e+03) (460, -1.46852880859375000000e+03) (461, 3.44919921875000000000e+02) (462, 1.50000000000000000000e+03) (463, 9.71320983886718750000e+02) (464, 1.50000000000000000000e+03) (465, 1.50000000000000000000e+03) (466, 1.50000000000000000000e+03) (467, 1.46140063476562500000e+03) (468, -1.48679699707031250000e+03) (469, -1.23477148437500000000e+03) (470, -1.42085009765625000000e+03) (471, 1.31328393554687500000e+03) (472, 1.44843896484375000000e+03) (473, 1.49617395019531250000e+03) (474, 1.45762744140625000000e+03) (475, 1.50000000000000000000e+03) (476, 1.50000000000000000000e+03) (477, 1.50000000000000000000e+03) (478, 1.50000000000000000000e+03) (479, 1.50000000000000000000e+03) (480, 1.13048376464843750000e+03) (481, 1.02212292480468750000e+03) (482, -1.31689135742187500000e+03) (483, -1.48030664062500000000e+03) (484, -1.48640014648437500000e+03) (485, -1.39201989746093750000e+03) (486, -1.45064868164062500000e+03) (487, -4.08325119018554687500e+01) (488, -2.34682273864746093750e+01) (489, -4.00258598327636718750e+01) (490, -1.97103836059570312500e+02) (491, -1.48395629882812500000e+03) (492, -1.47794702148437500000e+03) (493, -1.49815136718750000000e+03) (494, -1.49815136718750000000e+03) (495, -1.49393237304687500000e+03) (496, 1.46877429199218750000e+03) (497, 1.45118933105468750000e+03) (498, -1.44491430664062500000e+03) (499, -1.47617382812500000000e+03) (500, -1.45522192382812500000e+03) (501, -1.45502893066406250000e+03) (502, -1.32800183105468750000e+03) (503, -1.49868591308593750000e+03) (504, -2.22103790283203125000e+02) (505, -4.71259857177734375000e+02) (506, -4.57058258056640625000e+02) (507, -4.98179656982421875000e+02) (508, -2.35329650878906250000e+02) (509, -2.29508056640625000000e+02) (510, -2.29539886474609375000e+02) (511, -4.71611099243164062500e+01) (512, -2.81779575347900390625e+01) (0, -6.57610446214675903320e-02) (1, 9.71036106348037719727e-02) (2, 1.15047499537467956543e-01) (3, 7.14849084615707397461e-02) (4, 1.51350319385528564453e-01) (5, 5.05975931882858276367e-02) (6, 1.77243053913116455078e-01) (7, 1.49708613753318786621e-01) (8, 7.03084468841552734375e-02) (9, 8.90839323401451110840e-02) (10, 1.34729743003845214844e-01) (11, 1.75966575741767883301e-01) (12, 1.05607651174068450928e-01) (13, -6.35142698884010314941e-02) (14, -1.39202758669853210449e-01) (15, 6.55112341046333312988e-02) (16, 2.22547203302383422852e-02) (17, -1.82613283395767211914e-01) (18, -9.63660180568695068359e-02) (19, 1.09963797032833099365e-01) (20, 1.23364217579364776611e-01) (21, 1.18429534137248992920e-01) (22, 2.03403368592262268066e-01) (23, 1.26739904284477233887e-01) (24, 6.10765516757965087891e-02) (25, 1.74776115454733371735e-03) (26, 6.07580356299877166748e-02) (27, -3.63632231950759887695e-01) (28, -4.80921864509582519531e-01) (29, -3.86807203292846679688e-01) (30, -4.82558012008666992188e-01) (31, -4.87983644008636474609e-01) (32, -2.71343976259231567383e-01) (33, -8.02704811096191406250e+00) (34, -4.69332814216613769531e-01) (35, -3.33616733551025390625e-01) (36, 6.28055855631828308105e-02) (37, 1.88855335116386413574e-01) (38, 3.39707374572753906250e-01) (39, 3.87122184038162231445e-01) (40, 1.99689447879791259766e-01) (41, 8.02046135067939758301e-02) (42, 1.25997215509414672852e-01) (43, -6.68369948863983154297e-01) (44, -2.98643131256103515625e+01) (45, -2.02851123809814453125e+01) (46, -8.75215454101562500000e+01) (47, -3.13988566398620605469e+00) (48, -3.51663470268249511719e+00) (49, -7.10413122177124023438e+00) (50, -2.15584337711334228516e-01) (51, 2.06058412790298461914e-01) (52, -4.93586733937263488770e-02) (53, 7.37773001194000244141e-01) (54, 9.24337863922119140625e-01) (55, 1.09439659118652343750e+00) (56, 7.00590968132019042969e-01) (57, 6.01925611495971679688e-01) (58, -6.50690197944641113281e-02) (59, -1.90049171447753906250e-01) (60, -7.69416904449462890625e+00) (61, -1.47267856597900390625e+01) (62, -5.63707275390625000000e+01) (63, -7.89948120117187500000e+01) (64, -1.15498197078704833984e+00) (65, -2.40005090832710266113e-01) (66, -2.05643977969884872437e-02) (67, 6.10058248043060302734e-01) (68, 2.35624623298645019531e+00) (69, 1.71295261383056640625e+01) (70, 2.91330204010009765625e+01) (71, 3.06786899566650390625e+01) (72, 9.63251209259033203125e+00) (73, 5.98320484161376953125e+00) (74, 5.32819867134094238281e-01) (75, -1.29984214901924133301e-01) (76, -1.60269870758056640625e+01) (77, -6.58730888366699218750e+00) (78, -2.97710037231445312500e+00) (79, -1.83449592590332031250e+01) (80, -2.11208850145339965820e-01) (81, 1.93668633699417114258e-01) (82, 3.35122831165790557861e-02) (83, 1.28461587429046630859e+00) (84, 1.18534030914306640625e+01) (85, 1.64282836914062500000e+01) (86, 5.27714691162109375000e+01) (87, 7.14000930786132812500e+01) (88, 1.11223884582519531250e+02) (89, 1.74887638092041015625e+01) (90, 1.64511823654174804688e+00) (91, 1.20525933802127838135e-01) (92, -8.90178871154785156250e+00) (93, -1.58628902435302734375e+01) (94, -7.44583457708358764648e-02) (95, -5.90323030948638916016e-01) (96, -1.95884793996810913086e-01) (97, 2.30620801448822021484e-01) (98, 2.66137838363647460938e+00) (99, 2.71111774444580078125e+00) (100, 3.20286631584167480469e+00) (101, 2.81110267639160156250e+01) (102, 2.87196140289306640625e+01) (103, 4.12044296264648437500e+01) (104, 2.84340515136718750000e+01) (105, 9.55726814270019531250e+00) (106, 4.01194572448730468750e-01) (107, 1.93935669958591461182e-02) (108, -8.31891822814941406250e+00) (109, -8.15085983276367187500e+00) (110, -3.86910259723663330078e-01) (111, -6.24526619911193847656e-01) (112, 2.15860396623611450195e-01) (113, 5.36116838455200195313e-01) (114, 1.93600046634674072266e+00) (115, 1.07727518081665039063e+01) (116, 3.80541801452636718750e-01) (117, 5.28517580032348632813e+00) (118, 1.66547393798828125000e+01) (119, 2.87077560424804687500e+01) (120, 2.78750228881835937500e+01) (121, 4.57577991485595703125e+00) (122, 1.45895183086395263672e-01) (123, -5.81395387649536132813e+00) (124, -5.55194854736328125000e+00) (125, -6.18041753768920898438e+00) (126, -6.31052732467651367188e+00) (127, -8.20583915710449218750e+00) (128, -5.33752441406250000000e-01) (129, 3.90504717826843261719e+00) (130, -1.66315948963165283203e+00) (131, -5.21043205261230468750e+00) (132, 2.64853477478027343750e-01) (133, 1.47028517723083496094e+00) (134, 2.88987026214599609375e+01) (135, 3.03862495422363281250e+01) (136, 1.62814826965332031250e+01) (137, 8.69229078292846679688e-01) (138, -1.67348802089691162109e-01) (139, -6.41470432281494140625e+00) (140, -9.84110832214355468750e+00) (141, -5.29513359069824218750e+00) (142, -6.32231044769287109375e+00) (143, -7.31960535049438476563e+00) (144, -1.30507087707519531250e+00) (145, 5.19502830505371093750e+00) (146, -3.30636239051818847656e+00) (147, -6.26052093505859375000e+00) (148, -9.36580848693847656250e+00) (149, 1.12588787078857421875e+00) (150, 2.30186977386474609375e+01) (151, 2.27015781402587890625e+01) (152, 2.00993614196777343750e+01) (153, 2.51931405067443847656e+00) (154, -2.66253685951232910156e+00) (155, -1.66015014648437500000e+01) (156, -1.49610843658447265625e+01) (157, -1.02090187072753906250e+01) (158, -1.18494262695312500000e+01) (159, -1.68829147338867187500e+02) (160, 3.57923412322998046875e+00) (161, 3.82211799621582031250e+01) (162, -4.76983356475830078125e+00) (163, -1.52558403015136718750e+01) (164, -7.45267820358276367188e+00) (165, 1.27829980850219726563e+00) (166, 1.91157035827636718750e+01) (167, 1.39298095703125000000e+02) (168, 1.36965408325195312500e+01) (169, 1.64785814285278320313e+00) (170, -2.73621296882629394531e+00) (171, -3.08052825927734375000e+01) (172, -6.43607177734375000000e+01) (173, -9.84849548339843750000e+00) (174, -5.92857265472412109375e+00) (175, -9.58126735687255859375e+00) (176, 2.29185447096824645996e-01) (177, -5.12267446517944335938e+00) (178, -1.30707817077636718750e+01) (179, -6.03137550354003906250e+01) (180, -1.89726905822753906250e+01) (181, 9.14575695991516113281e-01) (182, 1.50144100189208984375e+01) (183, 2.40752716064453125000e+01) (184, 1.16748285293579101563e+01) (185, 8.90727221965789794922e-01) (186, -4.79296064376831054688e+00) (187, -2.44235019683837890625e+01) (188, -5.33323974609375000000e+01) (189, -4.22810125350952148438e+00) (190, -4.56661605834960937500e+00) (191, -7.29954452514648437500e+01) (192, -2.14619779586791992188e+00) (193, 2.23756904602050781250e+01) (194, -2.35066623687744140625e+01) (195, -1.02457542419433593750e+02) (196, -1.12347574234008789063e+01) (197, 4.90186005830764770508e-01) (198, 1.02544336318969726563e+01) (199, 3.09200153350830078125e+01) (200, 8.96535205841064453125e+00) (201, 5.68499147891998291016e-01) (202, -2.82174091339111328125e+01) (203, -7.16541824340820312500e+01) (204, -2.00243244171142578125e+01) (205, -7.87924098968505859375e+00) (206, -3.68603920936584472656e+00) (207, -2.01347994804382324219e+00) (208, 8.05109560489654541016e-01) (209, 6.88548445701599121094e-01) (210, -1.11786861419677734375e+01) (211, -9.05195522308349609375e+00) (212, -6.61857652664184570313e+00) (213, 1.48808205127716064453e+00) (214, 1.03701515197753906250e+01) (215, 1.07009458541870117188e+01) (216, 2.88318181037902832031e+00) (217, -8.49949419498443603516e-02) (218, -1.49432191848754882813e+01) (219, -2.17710914611816406250e+01) (220, -5.26487274169921875000e+01) (221, -3.47643637657165527344e+00) (222, -3.48726773262023925781e+00) (223, 2.16770365834236145020e-01) (224, 4.07581776380538940430e-01) (225, 6.15933227539062500000e+00) (226, -4.76309537887573242188e+00) (227, -2.05219993591308593750e+01) (228, -2.82512640953063964844e+00) (229, 1.00078082084655761719e+00) (230, 8.17461585998535156250e+00) (231, 1.62572402954101562500e+01) (232, 1.95579171180725097656e+00) (233, 1.22748628258705139160e-01) (234, -1.58793706893920898438e+01) (235, -2.48452568054199218750e+01) (236, -2.26979484558105468750e+01) (237, 2.24552780151367187500e+02) (238, -1.32319462299346923828e+00) (239, 2.02562972903251647949e-01) (240, 1.49888813495635986328e-01) (241, 7.47800292968750000000e+01) (242, -4.78355360031127929688e+00) (243, -1.35236558914184570313e+01) (244, -2.92090463638305664063e+00) (245, 6.52969837188720703125e-01) (246, 1.59788579940795898438e+01) (247, 2.90741539001464843750e+01) (248, 7.10059404373168945313e+00) (249, 1.21577896177768707275e-01) (250, -1.95550842285156250000e+01) (251, -3.24911537170410156250e+01) (252, -1.62055835723876953125e+01) (253, 8.60703086853027343750e+00) (254, -1.59351813793182373047e+00) (255, 1.09906232357025146484e+00) (256, 2.63458347320556640625e+00) (257, -4.16191673278808593750e+00) (258, -1.60580200195312500000e+02) (259, -5.07232666015625000000e+00) (260, -2.68752670288085937500e+00) (261, 7.15213060379028320313e-01) (262, 2.82869586944580078125e+01) (263, 3.98161277770996093750e+01) (264, 5.78115539550781250000e+01) (265, 5.92242956161499023438e-01) (266, -9.64002323150634765625e+00) (267, -4.11843605041503906250e+01) (268, -2.81895046234130859375e+01) (269, 9.44604778289794921875e+00) (270, 1.32340401411056518555e-01) (271, 1.50162208080291748047e+00) (272, 3.04112434387207031250e-01) (273, 2.31437873840332031250e+01) (274, -7.34296188354492187500e+01) (275, -7.03692197799682617188e-01) (276, -7.26948213577270507813e+00) (277, 7.94790029525756835938e-01) (278, 1.62765331268310546875e+01) (279, 2.19501190185546875000e+02) (280, 3.18451557159423828125e+01) (281, 3.01609218120574951172e-01) (282, -1.91256275177001953125e+01) (283, -8.36438446044921875000e+01) (284, -2.11548461914062500000e+01) (285, 6.38401210308074951172e-01) (286, 1.73573210835456848145e-01) (287, 2.80927658081054687500e+00) (288, 6.58479809761047363281e-01) (289, 1.48545761108398437500e+01) (290, -2.84975299835205078125e+01) (291, -1.11429843902587890625e+01) (292, -3.94498538970947265625e+00) (293, 8.01221847534179687500e-01) (294, 1.62763576507568359375e+01) (295, 1.30889129638671875000e+02) (296, 1.18071365356445312500e+01) (297, -3.88858802616596221924e-02) (298, -3.53970336914062500000e+01) (299, -6.88874130249023437500e+01) (300, -1.99057750701904296875e+01) (301, -2.12830948829650878906e+00) (302, 5.49653246998786926270e-02) (303, 2.43129777908325195313e+00) (304, 4.71723079681396484375e-01) (305, 1.47741718292236328125e+01) (306, -1.16843767166137695313e+01) (307, -6.06413888931274414063e+00) (308, -5.81458711624145507813e+00) (309, 6.01838648319244384766e-01) (310, 1.70503215789794921875e+01) (311, 1.93995761871337890625e+01) (312, 5.62112903594970703125e+00) (313, -1.52412593364715576172e-01) (314, -3.91820869445800781250e+01) (315, -4.58653259277343750000e+01) (316, -2.72459182739257812500e+01) (317, -5.36497259140014648438e+00) (318, 1.27877950668334960938e-01) (319, 2.09270763397216796875e+00) (320, 8.90600264072418212891e-01) (321, -3.94484481811523437500e+01) (322, -3.20499687194824218750e+01) (323, -1.68465805053710937500e+01) (324, -6.56574535369873046875e+00) (325, -9.18262526392936706543e-02) (326, 5.38080358505249023438e+00) (327, 8.37900352478027343750e+00) (328, 9.15303826332092285156e-01) (329, 8.19858983159065246582e-02) (330, -3.59594421386718750000e+01) (331, -8.80639877319335937500e+01) (332, -3.68668594360351562500e+01) (333, -5.47960948944091796875e+00) (334, 3.36740650236606597900e-02) (335, 2.47282028198242187500e+00) (336, -1.06202423572540283203e+00) (337, 4.70897369384765625000e+01) (338, -2.18674421310424804688e+00) (339, -7.39676666259765625000e+00) (340, -6.76017332077026367188e+00) (341, 1.83839008212089538574e-01) (342, 2.73622226715087890625e+00) (343, 1.68527126312255859375e+01) (344, 1.62826776504516601563e+00) (345, 1.48179382085800170898e-01) (346, -1.47835922241210937500e+01) (347, -5.44686355590820312500e+01) (348, -5.80964317321777343750e+01) (349, -6.52871417999267578125e+00) (350, -2.48282718658447265625e+00) (351, 2.45073437690734863281e+00) (352, 4.79431062936782836914e-01) (353, -1.78120803833007812500e+01) (354, -2.35079383850097656250e+00) (355, -5.84299945831298828125e+00) (356, -5.77414655685424804688e+00) (357, 1.09949439764022827148e-01) (358, 1.86600494384765625000e+00) (359, 7.36209011077880859375e+00) (360, -1.14941108226776123047e+00) (361, 7.14182555675506591797e-02) (362, -1.59412775039672851563e+01) (363, -3.13234157562255859375e+01) (364, -2.05893310546875000000e+02) (365, -2.93568019866943359375e+01) (366, -1.57026300430297851563e+01) (367, 9.38544154167175292969e-01) (368, 3.79401922225952148438e+00) (369, 1.19319915771484375000e+00) (370, 1.12856273651123046875e+01) (371, -3.09245538711547851563e+00) (372, -5.52497768402099609375e+00) (373, 2.44755998253822326660e-01) (374, 1.84925723075866699219e+00) (375, 7.44326686859130859375e+00) (376, 7.71925568580627441406e-01) (377, -4.39228683710098266602e-01) (378, -6.39578628540039062500e+00) (379, -1.28321704864501953125e+01) (380, -2.48725337982177734375e+01) (381, -4.96391677856445312500e+00) (382, -2.14393353462219238281e+00) (383, 9.94272351264953613281e-01) (384, 4.79498291015625000000e+02) (385, 1.05867648124694824219e+00) (386, 1.78624629974365234375e+01) (387, 2.94311523437500000000e-01) (388, 8.38467836380004882813e-01) (389, 1.59318065643310546875e+00) (390, 1.69925785064697265625e+01) (391, 1.95056781768798828125e+01) (392, 5.11188030242919921875e+00) (393, -3.09721142053604125977e-01) (394, -5.67907476425170898438e+00) (395, -5.56958961486816406250e+00) (396, -3.63871359825134277344e+00) (397, -2.80036640167236328125e+00) (398, -2.12164449691772460938e+00) (399, -1.67599573731422424316e-01) (400, 1.57054018974304199219e+00) (401, 2.50712037086486816406e+00) (402, 4.17353248596191406250e+00) (403, -1.07382786273956298828e+00) (404, 9.66924905776977539063e-01) (405, 1.14160051345825195313e+01) (406, 5.72064132690429687500e+01) (407, 1.15101684570312500000e+02) (408, 1.94777908325195312500e+01) (409, 1.36827826499938964844e+00) (410, -6.99674785137176513672e-01) (411, -5.03002309799194335938e+00) (412, -7.66116285324096679688e+00) (413, -3.43429684638977050781e+00) (414, -4.98253965377807617188e+00) (415, -5.12501668930053710938e+00) (416, -2.16237336397171020508e-01) (417, 6.23669338226318359375e+00) (418, -1.41493690013885498047e+00) (419, 9.97019171714782714844e-01) (420, 1.76135647296905517578e+00) (421, 8.33108978271484375000e+01) (422, 1.68844131469726562500e+02) (423, 1.30863906860351562500e+02) (424, 1.19812934875488281250e+02) (425, 1.60171470642089843750e+01) (426, -1.29429140090942382813e+01) (427, -5.25797882080078125000e+01) (428, -5.45230903625488281250e+01) (429, -4.11689262390136718750e+01) (430, -3.32165222167968750000e+01) (431, -2.09775344848632812500e+02) (432, -5.27030277252197265625e+00) (433, -2.25298762321472167969e+00) (434, -9.17989432811737060547e-01) (435, 1.63554847240447998047e+00) (436, 7.08757543563842773438e+00) (437, 1.63128387451171875000e+02) (438, 1.18450447082519531250e+02) (439, 4.54380645751953125000e+02) (440, 4.11955688476562500000e+02) (441, 4.48893165588378906250e+01) (442, 4.91236090660095214844e-01) (443, -7.53509664535522460938e+00) (444, -3.30452651977539062500e+01) (445, -1.21407272338867187500e+02) (446, -4.74378433227539062500e+01) (447, -5.69003173828125000000e+02) (448, -6.45872497558593750000e+00) (449, -5.98878192901611328125e+00) (450, -5.28919410705566406250e+00) (451, -3.50007325410842895508e-01) (452, 3.96003842353820800781e+00) (453, 1.67764339447021484375e+01) (454, 1.52040729522705078125e+01) (455, 4.54463500976562500000e+01) (456, 1.18749990463256835938e+01) (457, 4.35611009597778320313e+00) (458, 2.24173530936241149902e-01) (459, -7.54866170883178710938e+00) (460, -3.48426284790039062500e+01) (461, -6.04801321029663085938e+00) (462, -3.00724849700927734375e+01) (463, -2.26927215576171875000e+02) (464, -9.78592932224273681641e-01) (465, -1.73075720667839050293e-01) (466, -1.37261509895324707031e-01) (467, 9.75423231720924377441e-02) (468, -1.23433142900466918945e-01) (469, 1.84799683094024658203e+00) (470, 2.18641090393066406250e+00) (471, 4.45615005493164062500e+00) (472, 1.43200719356536865234e+00) (473, 1.41837525367736816406e+00) (474, 3.99317562580108642578e-01) (475, -6.25953531265258789063e+00) (476, -6.47631072998046875000e+00) (477, -6.40995550155639648438e+00) (478, -6.54370450973510742188e+00) (479, -4.46608848571777343750e+01) (480, 1.02267056703567504883e-01) (481, 1.26020342111587524414e-01) (482, -1.55143693089485168457e-01) (483, 1.29773661494255065918e-01) (484, 5.15149384737014770508e-02) (485, -3.99139970541000366211e-02) (486, 5.98787143826484680176e-02) (487, 2.24398329854011535645e-01) (488, 1.87208235263824462891e-01) (489, 8.79440754652023315430e-02) (490, -1.59554660320281982422e-01) (491, -5.56067705154418945313e+00) (492, -1.37287769317626953125e+01) (493, -1.42017662525177001953e+00) (494, -6.72307133674621582031e-01) (495, -9.96569991111755371094e-01) (496, 1.10917024314403533936e-01) (497, 5.68171516060829162598e-02) (498, 9.59602445363998413086e-02) (499, -2.75904238224029541016e-02) (500, 3.51097695529460906982e-02) (501, 9.86017212271690368652e-02) (502, 1.47875458002090454102e-01) (503, -1.29751116037368774414e-01) (504, 8.39053094387054443359e-02) (505, -4.58906358107924461365e-03) (506, 1.05840481817722320557e-01) (507, -1.56707346439361572266e-01) (508, -1.27332612872123718262e-01) (509, 1.40997897833585739136e-02) (510, 7.75534287095069885254e-02) (511, 5.79646341502666473389e-02) (512, 2.31168810278177261353e-02) (0, 7.07345733642578125000e+01) (1, 2.54319396972656250000e+02) (2, 9.33425235748291015625e+00) (3, 7.44616031646728515625e+00) (4, 7.40602397918701171875e+00) (5, 6.20746326446533203125e+00) (6, 6.23818254470825195313e+00) (7, 6.16792869567871093750e+00) (8, 1.12597398757934570313e+01) (9, 1.13498773574829101563e+01) (10, 5.25710248947143554688e+00) (11, 1.73241806030273437500e+01) (12, 1.71479206085205078125e+01) (13, 3.94235916137695312500e+01) (14, 2.49899902343750000000e+02) (15, 2.48669174194335937500e+02) (16, 1.39111059570312500000e+03) (17, 3.93910491943359375000e+02) (18, 5.44493255615234375000e+01) (19, 3.48285484313964843750e+01) (20, 1.72446975708007812500e+01) (21, 7.87789440155029296875e+00) (22, 6.30140352249145507813e+00) (23, 6.23725748062133789063e+00) (24, 1.13382711410522460938e+01) (25, 5.25522994995117187500e+00) (26, 8.38333988189697265625e+00) (27, 5.92402305603027343750e+01) (28, 1.30594039916992187500e+02) (29, 2.15939300537109375000e+02) (30, 4.22644104003906250000e+02) (31, 2.49828979492187500000e+02) (32, 8.89525939941406250000e+02) (33, 2.57611393928527832031e+00) (34, 2.73969244956970214844e+00) (35, 1.25294172763824462891e+00) (36, 6.35554361343383789063e+00) (37, 1.67441596984863281250e+01) (38, 2.98672657012939453125e+01) (39, 1.37506217956542968750e+01) (40, 6.84293985366821289063e+00) (41, -4.46292829513549804688e+00) (42, -2.48432178497314453125e+01) (43, 1.88943691253662109375e+01) (44, 6.57419189453125000000e+02) (45, 4.97438262939453125000e+02) (46, 1.49984643554687500000e+03) (47, 1.50000000000000000000e+03) (48, 1.50000000000000000000e+03) (49, 1.36376457214355468750e+01) (50, -1.48824731445312500000e+03) (51, -1.26291333007812500000e+03) (52, 1.19888219833374023438e+01) (53, 1.17400293350219726563e+01) (54, 5.36875000000000000000e+01) (55, 4.13687744140625000000e+01) (56, -7.47245178222656250000e+01) (57, -1.29317831993103027344e+00) (58, 2.75094909667968750000e+02) (59, 8.63947486877441406250e+00) (60, 1.12110571289062500000e+03) (61, 1.49999938964843750000e+03) (62, 1.50000000000000000000e+03) (63, 6.40396728515625000000e+02) (64, 1.49993078613281250000e+03) (65, -9.02266159057617187500e+01) (66, 1.82093933105468750000e+02) (67, 3.39594085693359375000e+02) (68, 9.36687088012695312500e+01) (69, -3.70500885009765625000e+02) (70, -1.49992712402343750000e+03) (71, -1.49998730468750000000e+03) (72, -1.49999719238281250000e+03) (73, -1.49916821289062500000e+03) (74, 1.43695922851562500000e+03) (75, 1.49716967773437500000e+03) (76, 1.49977990722656250000e+03) (77, -1.49104760742187500000e+03) (78, -9.09392333984375000000e+02) (79, 3.05512481689453125000e+02) (80, 1.49993249511718750000e+03) (81, -7.27713012695312500000e+02) (82, 4.48538160324096679688e+00) (83, -1.50469406127929687500e+02) (84, 2.20361919403076171875e+01) (85, -2.34528152465820312500e+02) (86, -1.49998730468750000000e+03) (87, -1.49999475097656250000e+03) (88, -1.49999475097656250000e+03) (89, -8.17995239257812500000e+02) (90, -7.97782653808593750000e+02) (91, 1.34848413085937500000e+03) (92, 1.48905554199218750000e+03) (93, -1.31005004882812500000e+03) (94, -5.42089347839355468750e+01) (95, 6.62084045410156250000e+02) (96, 1.49985473632812500000e+03) (97, 7.34855651855468750000e+01) (98, 2.53048614501953125000e+02) (99, 3.23720092773437500000e+01) (100, 5.68205444335937500000e+02) (101, 4.84770751953125000000e+02) (102, -1.49999963378906250000e+03) (103, -1.49999963378906250000e+03) (104, -1.49999963378906250000e+03) (105, -8.37482070922851562500e+01) (106, -6.31927856445312500000e+02) (107, -9.18808227539062500000e+02) (108, 5.95824951171875000000e+02) (109, -1.22894616699218750000e+03) (110, 2.41914093017578125000e+02) (111, 1.49983007812500000000e+03) (112, -2.13690155029296875000e+02) (113, -1.15651245117187500000e+03) (114, -1.48136291503906250000e+03) (115, -1.48529382324218750000e+03) (116, 1.49893176269531250000e+03) (117, 1.48062084960937500000e+03) (118, -1.49795971679687500000e+03) (119, -1.49890063476562500000e+03) (120, -1.49751721191406250000e+03) (121, -1.25532141113281250000e+03) (122, -1.34810009765625000000e+03) (123, -1.42513732910156250000e+03) (124, 3.23994415283203125000e+02) (125, -1.02457910156250000000e+03) (126, -9.90951538085937500000e+02) (127, 1.35743920898437500000e+03) (128, -7.99947387695312500000e+02) (129, -1.40036059570312500000e+03) (130, 6.04622863769531250000e+02) (131, -1.90772872924804687500e+02) (132, -6.58366699218750000000e+02) (133, -1.48569970703125000000e+03) (134, -1.41496362304687500000e+03) (135, -1.49977502441406250000e+03) (136, -1.49970751953125000000e+03) (137, 6.98484313964843750000e+02) (138, -3.49798278808593750000e+02) (139, 4.50478210449218750000e+01) (140, 4.43042984008789062500e+01) (141, -1.47808630371093750000e+03) (142, -5.17448425292968750000e+02) (143, 1.49945751953125000000e+03) (144, 2.87017822265625000000e+02) (145, 1.49993920898437500000e+03) (146, 1.49954785156250000000e+03) (147, 1.38740966796875000000e+03) (148, 1.50000000000000000000e+03) (149, -8.66076354980468750000e+02) (150, -1.48928393554687500000e+03) (151, -1.49968371582031250000e+03) (152, -1.49960351562500000000e+03) (153, -3.72508239746093750000e+02) (154, 1.44002941894531250000e+03) (155, 1.47382287597656250000e+03) (156, 1.26115209960937500000e+03) (157, 1.43346752929687500000e+03) (158, 1.49986987304687500000e+03) (159, 1.49997509765625000000e+03) (160, 2.46585800170898437500e+02) (161, -1.26668017578125000000e+03) (162, -1.46271398925781250000e+03) (163, 1.46419384765625000000e+03) (164, 1.48430664062500000000e+03) (165, -1.13241296386718750000e+03) (166, -1.42234155273437500000e+03) (167, -1.48561145019531250000e+03) (168, -1.49137109375000000000e+03) (169, -3.57835769653320312500e+00) (170, -1.37999023437500000000e+03) (171, 1.41122827148437500000e+03) (172, 1.49999731445312500000e+03) (173, 1.48849584960937500000e+03) (174, 1.42413562011718750000e+03) (175, 5.58226989746093750000e+02) (176, 1.38204370117187500000e+03) (177, 6.90408142089843750000e+02) (178, 1.48516979980468750000e+03) (179, 9.58461303710937500000e+02) (180, -2.38019927978515625000e+02) (181, -1.43957702636718750000e+03) (182, -1.38624487304687500000e+03) (183, -1.48038940429687500000e+03) (184, -1.11261669921875000000e+03) (185, 3.13945598602294921875e+01) (186, 3.73423339843750000000e+02) (187, 3.34442321777343750000e+02) (188, 1.49346215820312500000e+03) (189, 1.46760241699218750000e+03) (190, -1.49975207519531250000e+03) (191, 1.42507153320312500000e+03) (192, -1.49604943847656250000e+03) (193, -5.90180664062500000000e+01) (194, 1.47872167968750000000e+03) (195, -1.34101708984375000000e+03) (196, -9.15318847656250000000e+02) (197, -1.92518447875976562500e+02) (198, -1.26402795410156250000e+03) (199, -1.49849169921875000000e+03) (200, -1.44578662109375000000e+03) (201, 1.77239208221435546875e+01) (202, 1.49477844238281250000e+03) (203, 1.42249731445312500000e+03) (204, -1.41164282226562500000e+03) (205, 7.35740600585937500000e+02) (206, -8.53110122680664062500e+01) (207, 1.46823657226562500000e+03) (208, -1.49820874023437500000e+03) (209, 2.58859008789062500000e+02) (210, 1.47855041503906250000e+03) (211, 1.49985791015625000000e+03) (212, 9.24848327636718750000e+02) (213, -1.46984619140625000000e+03) (214, -1.37725488281250000000e+03) (215, -1.39268762207031250000e+03) (216, -1.48028869628906250000e+03) (217, 3.49275299072265625000e+02) (218, -8.21616943359375000000e+02) (219, -1.48731982421875000000e+03) (220, 1.19140429687500000000e+03) (221, 5.10266326904296875000e+02) (222, -1.16742651367187500000e+03) (223, 1.07352758789062500000e+03) (224, -1.32689782714843750000e+03) (225, -1.15381729125976562500e+02) (226, 1.49777172851562500000e+03) (227, 1.49976611328125000000e+03) (228, 6.26306945800781250000e+02) (229, -1.31731970214843750000e+03) (230, -1.65079528808593750000e+02) (231, -7.30161499023437500000e+02) (232, 4.40857208251953125000e+02) (233, 1.23416137695312500000e+03) (234, 8.63831970214843750000e+02) (235, 9.77453918457031250000e+01) (236, 9.59607604980468750000e+02) (237, -1.44926379394531250000e+03) (238, 1.19481188964843750000e+03) (239, 1.18014685058593750000e+03) (240, 2.21393493652343750000e+02) (241, -9.53613342285156250000e+02) (242, 1.49986364746093750000e+03) (243, -1.47299792480468750000e+03) (244, -1.31969348144531250000e+03) (245, 1.42675418853759765625e+01) (246, 4.88510406494140625000e+02) (247, -1.49364672851562500000e+03) (248, -3.05154602050781250000e+02) (249, 1.50000000000000000000e+03) (250, 1.50000000000000000000e+03) (251, 1.20284045410156250000e+03) (252, -1.47055004882812500000e+03) (253, -1.34535717773437500000e+03) (254, 7.36813903808593750000e+02) (255, -9.71036010742187500000e+02) (256, -1.44306506347656250000e+03) (257, -1.50000000000000000000e+03) (258, 5.32800415039062500000e+02) (259, -1.47851257324218750000e+03) (260, -6.82927490234375000000e+02) (261, -1.49895349121093750000e+03) (262, -1.43049487304687500000e+03) (263, -1.49743334960937500000e+03) (264, -1.41907751464843750000e+03) (265, -5.47642211914062500000e+02) (266, -1.46405712890625000000e+03) (267, -1.22202343750000000000e+03) (268, 5.06894378662109375000e+02) (269, 9.13500183105468750000e+02) (270, -1.10428747558593750000e+03) (271, -1.48498681640625000000e+03) (272, -1.04625866699218750000e+03) (273, -1.03883288574218750000e+03) (274, -1.28731213378906250000e+03) (275, 1.48377465820312500000e+03) (276, -6.56003356933593750000e+02) (277, 1.42487011718750000000e+03) (278, 1.09815747070312500000e+03) (279, -1.47364489746093750000e+03) (280, -1.47114221191406250000e+03) (281, -5.94012939453125000000e+02) (282, 2.00381515502929687500e+02) (283, 1.35524621582031250000e+03) (284, 1.47268261718750000000e+03) (285, -1.47032568359375000000e+03) (286, 1.01557342529296875000e+03) (287, -1.49485363769531250000e+03) (288, -1.13953576660156250000e+03) (289, -1.07786462402343750000e+03) (290, -4.38960327148437500000e+02) (291, 1.49960498046875000000e+03) (292, 