FANN_FLO_2.1
num_layers=4
learning_rate=0.700000
connection_rate=1.000000
network_type=0
learning_momentum=0.000000
training_algorithm=2
train_error_function=1
train_stop_function=0
cascade_output_change_fraction=0.010000
quickprop_decay=-0.000100
quickprop_mu=1.750000
rprop_increase_factor=1.200000
rprop_decrease_factor=0.500000
rprop_delta_min=0.000000
rprop_delta_max=50.000000
rprop_delta_zero=0.100000
cascade_output_stagnation_epochs=12
cascade_candidate_change_fraction=0.010000
cascade_candidate_stagnation_epochs=12
cascade_max_out_epochs=150
cascade_min_out_epochs=50
cascade_max_cand_epochs=150
cascade_min_cand_epochs=50
cascade_num_candidate_groups=2
bit_fail_limit=3.49999994039535522461e-01
cascade_candidate_limit=1.00000000000000000000e+03
cascade_weight_multiplier=4.00000005960464477539e-01
cascade_activation_functions_count=10
cascade_activation_functions=3 5 7 8 10 11 14 15 16 17 
cascade_activation_steepnesses_count=4
cascade_activation_steepnesses=2.50000000000000000000e-01 5.00000000000000000000e-01 7.50000000000000000000e-01 1.00000000000000000000e+00 
layer_sizes=257 5 5 2 
scale_included=0
neurons (num_inputs, activation_function, activation_steepness)=(0, 0, 0.00000000000000000000e+00) (0, 0, 0.00000000000000000000e+00) (0, 0, 0.00000000000000000000e+00) (0, 0, 0.00000000000000000000e+00) (0, 0, 0.00000000000000000000e+00) (0, 0, 0.00000000000000000000e+00) (0, 0, 0.00000000000000000000e+00) (0, 0, 0.00000000000000000000e+00) (0, 0, 0.00000000000000000000e+00) (0, 0, 0.00000000000000000000e+00) (0, 0, 0.00000000000000000000e+00) (0, 0, 0.00000000000000000000e+00) (0, 0, 0.00000000000000000000e+00) (0, 0, 0.00000000000000000000e+00) (0, 0, 0.00000000000000000000e+00) (0, 0, 0.00000000000000000000e+00) (0, 0, 0.00000000000000000000e+00) (0, 0, 0.00000000000000000000e+00) (0, 0, 0.00000000000000000000e+00) (0, 0, 0.00000000000000000000e+00) (0, 0, 0.00000000000000000000e+00) (0, 0, 0.00000000000000000000e+00) (0, 0, 0.00000000000000000000e+00) (0, 0, 0.00000000000000000000e+00) (0, 0, 0.00000000000000000000e+00) (0, 0, 0.00000000000000000000e+00) (0, 0, 0.00000000000000000000e+00) (0, 0, 0.00000000000000000000e+00) (0, 0, 0.00000000000000000000e+00) (0, 0, 0.00000000000000000000e+00) (0, 0, 0.00000000000000000000e+00) (0, 0, 0.00000000000000000000e+00) (0, 0, 0.00000000000000000000e+00) (0, 0, 0.00000000000000000000e+00) (0, 0, 0.00000000000000000000e+00) (0, 0, 0.00000000000000000000e+00) (0, 0, 0.00000000000000000000e+00) (0, 0, 0.00000000000000000000e+00) (0, 0, 0.00000000000000000000e+00) (0, 0, 0.00000000000000000000e+00) (0, 0, 0.00000000000000000000e+00) (0, 0, 0.00000000000000000000e+00) (0, 0, 0.00000000000000000000e+00) (0, 0, 0.00000000000000000000e+00) (0, 0, 0.00000000000000000000e+00) (0, 0, 0.00000000000000000000e+00) (0, 0, 0.00000000000000000000e+00) (0, 0, 0.00000000000000000000e+00) (0, 0, 0.00000000000000000000e+00) (0, 0, 0.00000000000000000000e+00) (0, 0, 0.00000000000000000000e+00) (0, 0, 0.00000000000000000000e+00) (0, 0, 0.00000000000000000000e+00) (0, 0, 0.00000000000000000000e+00) (0, 0, 0.00000000000000000000e+00) (0, 0, 0.00000000000000000000e+00) (0, 0, 0.00000000000000000000e+00) (0, 0, 0.00000000000000000000e+00) (0, 0, 0.00000000000000000000e+00) (0, 0, 0.00000000000000000000e+00) (0, 0, 0.00000000000000000000e+00) (0, 0, 0.00000000000000000000e+00) (0, 0, 0.00000000000000000000e+00) (0, 0, 0.00000000000000000000e+00) (0, 0, 0.00000000000000000000e+00) (0, 0, 0.00000000000000000000e+00) (0, 0, 0.00000000000000000000e+00) (0, 0, 0.00000000000000000000e+00) (0, 0, 0.00000000000000000000e+00) (0, 0, 0.00000000000000000000e+00) (0, 0, 0.00000000000000000000e+00) (0, 0, 0.00000000000000000000e+00) (0, 0, 0.00000000000000000000e+00) (0, 0, 0.00000000000000000000e+00) (0, 0, 0.00000000000000000000e+00) (0, 0, 0.00000000000000000000e+00) (0, 0, 0.00000000000000000000e+00) (0, 0, 0.00000000000000000000e+00) (0, 0, 0.00000000000000000000e+00) (0, 0, 0.00000000000000000000e+00) (0, 0, 0.00000000000000000000e+00) (0, 0, 0.00000000000000000000e+00) (0, 0, 0.00000000000000000000e+00) (0, 0, 0.00000000000000000000e+00) (0, 0, 0.00000000000000000000e+00) (0, 0, 0.00000000000000000000e+00) (0, 0, 0.00000000000000000000e+00) (0, 0, 0.00000000000000000000e+00) (0, 0, 0.00000000000000000000e+00) (0, 0, 0.00000000000000000000e+00) (0, 0, 0.00000000000000000000e+00) (0, 0, 0.00000000000000000000e+00) (0, 0, 0.00000000000000000000e+00) (0, 0, 0.00000000000000000000e+00) (0, 0, 0.00000000000000000000e+00) (0, 0, 0.00000000000000000000e+00) (0, 0, 0.00000000000000000000e+00) (0, 0, 0.00000000000000000000e+00) (0, 0, 0.00000000000000000000e+00) (0, 0, 0.00000000000000000000e+00) (0, 0, 0.00000000000000000000e+00) (0, 0, 0.00000000000000000000e+00) (0, 0, 0.00000000000000000000e+00) (0, 0, 0.00000000000000000000e+00) (0, 0, 0.00000000000000000000e+00) (0, 0, 0.00000000000000000000e+00) (0, 0, 0.00000000000000000000e+00) (0, 0, 0.00000000000000000000e+00) (0, 0, 0.00000000000000000000e+00) (0, 0, 0.00000000000000000000e+00) (0, 0, 0.00000000000000000000e+00) (0, 0, 0.00000000000000000000e+00) (0, 0, 0.00000000000000000000e+00) (0, 0, 0.00000000000000000000e+00) (0, 0, 0.00000000000000000000e+00) (0, 0, 0.00000000000000000000e+00) (0, 0, 0.00000000000000000000e+00) (0, 0, 0.00000000000000000000e+00) (0, 0, 0.00000000000000000000e+00) (0, 0, 0.00000000000000000000e+00) (0, 0, 0.00000000000000000000e+00) (0, 0, 0.00000000000000000000e+00) (0, 0, 0.00000000000000000000e+00) (0, 0, 0.00000000000000000000e+00) (0, 0, 0.00000000000000000000e+00) (0, 0, 0.00000000000000000000e+00) (0, 0, 0.00000000000000000000e+00) (0, 0, 0.00000000000000000000e+00) (0, 0, 0.00000000000000000000e+00) (0, 0, 0.00000000000000000000e+00) (0, 0, 0.00000000000000000000e+00) (0, 0, 0.00000000000000000000e+00) (0, 0, 0.00000000000000000000e+00) (0, 0, 0.00000000000000000000e+00) (0, 0, 0.00000000000000000000e+00) (0, 0, 0.00000000000000000000e+00) (0, 0, 0.00000000000000000000e+00) (0, 0, 0.00000000000000000000e+00) (0, 0, 0.00000000000000000000e+00) (0, 0, 0.00000000000000000000e+00) (0, 0, 0.00000000000000000000e+00) (0, 0, 0.00000000000000000000e+00) (0, 0, 0.00000000000000000000e+00) (0, 0, 0.00000000000000000000e+00) (0, 0, 0.00000000000000000000e+00) (0, 0, 0.00000000000000000000e+00) (0, 0, 0.00000000000000000000e+00) (0, 0, 0.00000000000000000000e+00) (0, 0, 0.00000000000000000000e+00) (0, 0, 0.00000000000000000000e+00) (0, 0, 0.00000000000000000000e+00) (0, 0, 0.00000000000000000000e+00) (0, 0, 0.00000000000000000000e+00) (0, 0, 0.00000000000000000000e+00) (0, 0, 0.00000000000000000000e+00) (0, 0, 0.00000000000000000000e+00) (0, 0, 0.00000000000000000000e+00) (0, 0, 0.00000000000000000000e+00) (0, 0, 0.00000000000000000000e+00) (0, 0, 0.00000000000000000000e+00) (0, 0, 0.00000000000000000000e+00) (0, 0, 0.00000000000000000000e+00) (0, 0, 0.00000000000000000000e+00) (0, 0, 0.00000000000000000000e+00) (0, 0, 0.00000000000000000000e+00) (0, 0, 0.00000000000000000000e+00) (0, 0, 0.00000000000000000000e+00) (0, 0, 0.00000000000000000000e+00) (0, 0, 0.00000000000000000000e+00) (0, 0, 0.00000000000000000000e+00) (0, 0, 0.00000000000000000000e+00) (0, 0, 0.00000000000000000000e+00) (0, 0, 0.00000000000000000000e+00) (0, 0, 0.00000000000000000000e+00) (0, 0, 0.00000000000000000000e+00) (0, 0, 0.00000000000000000000e+00) (0, 0, 0.00000000000000000000e+00) (0, 0, 0.00000000000000000000e+00) (0, 0, 0.00000000000000000000e+00) (0, 0, 0.00000000000000000000e+00) (0, 0, 0.00000000000000000000e+00) (0, 0, 0.00000000000000000000e+00) (0, 0, 0.00000000000000000000e+00) (0, 0, 0.00000000000000000000e+00) (0, 0, 0.00000000000000000000e+00) (0, 0, 0.00000000000000000000e+00) (0, 0, 0.00000000000000000000e+00) (0, 0, 0.00000000000000000000e+00) (0, 0, 0.00000000000000000000e+00) (0, 0, 0.00000000000000000000e+00) (0, 0, 0.00000000000000000000e+00) (0, 0, 0.00000000000000000000e+00) (0, 0, 0.00000000000000000000e+00) (0, 0, 0.00000000000000000000e+00) (0, 0, 0.00000000000000000000e+00) (0, 0, 0.00000000000000000000e+00) (0, 0, 0.00000000000000000000e+00) (0, 0, 0.00000000000000000000e+00) (0, 0, 0.00000000000000000000e+00) (0, 0, 0.00000000000000000000e+00) (0, 0, 0.00000000000000000000e+00) (0, 0, 0.00000000000000000000e+00) (0, 0, 0.00000000000000000000e+00) (0, 0, 0.00000000000000000000e+00) (0, 0, 0.00000000000000000000e+00) (0, 0, 0.00000000000000000000e+00) (0, 0, 0.00000000000000000000e+00) (0, 0, 0.00000000000000000000e+00) (0, 0, 0.00000000000000000000e+00) (0, 0, 0.00000000000000000000e+00) (0, 0, 0.00000000000000000000e+00) (0, 0, 0.00000000000000000000e+00) (0, 0, 0.00000000000000000000e+00) (0, 0, 0.00000000000000000000e+00) (0, 0, 0.00000000000000000000e+00) (0, 0, 0.00000000000000000000e+00) (0, 0, 0.00000000000000000000e+00) (0, 0, 0.00000000000000000000e+00) (0, 0, 0.00000000000000000000e+00) (0, 0, 0.00000000000000000000e+00) (0, 0, 0.00000000000000000000e+00) (0, 0, 0.00000000000000000000e+00) (0, 0, 0.00000000000000000000e+00) (0, 0, 0.00000000000000000000e+00) (0, 0, 0.00000000000000000000e+00) (0, 0, 0.00000000000000000000e+00) (0, 0, 0.00000000000000000000e+00) (0, 0, 0.00000000000000000000e+00) (0, 0, 0.00000000000000000000e+00) (0, 0, 0.00000000000000000000e+00) (0, 0, 0.00000000000000000000e+00) (0, 0, 0.00000000000000000000e+00) (0, 0, 0.00000000000000000000e+00) (0, 0, 0.00000000000000000000e+00) (0, 0, 0.00000000000000000000e+00) (0, 0, 0.00000000000000000000e+00) (0, 0, 0.00000000000000000000e+00) (0, 0, 0.00000000000000000000e+00) (0, 0, 0.00000000000000000000e+00) (0, 0, 0.00000000000000000000e+00) (0, 0, 0.00000000000000000000e+00) (0, 0, 0.00000000000000000000e+00) (0, 0, 0.00000000000000000000e+00) (0, 0, 0.00000000000000000000e+00) (0, 0, 0.00000000000000000000e+00) (0, 0, 0.00000000000000000000e+00) (0, 0, 0.00000000000000000000e+00) (0, 0, 0.00000000000000000000e+00) (0, 0, 0.00000000000000000000e+00) (0, 0, 0.00000000000000000000e+00) (0, 0, 0.00000000000000000000e+00) (0, 0, 0.00000000000000000000e+00) (0, 0, 0.00000000000000000000e+00) (0, 0, 0.00000000000000000000e+00) (0, 0, 0.00000000000000000000e+00) (0, 0, 0.00000000000000000000e+00) (0, 0, 0.00000000000000000000e+00) (257, 11, 5.00000000000000000000e-01) (257, 11, 5.00000000000000000000e-01) (257, 11, 5.00000000000000000000e-01) (257, 11, 5.00000000000000000000e-01) (0, 11, 0.00000000000000000000e+00) (5, 11, 5.00000000000000000000e-01) (5, 11, 5.00000000000000000000e-01) (5, 11, 5.00000000000000000000e-01) (5, 11, 5.00000000000000000000e-01) (0, 11, 0.00000000000000000000e+00) (5, 11, 5.00000000000000000000e-01) (0, 11, 0.00000000000000000000e+00) 
connections (connected_to_neuron, weight)=(0, -8.84406507015228271484e-01) (1, -5.89477360248565673828e-01) (2, -8.25329840183258056641e-01) (3, -4.15047049522399902344e-01) (4, -7.37077832221984863281e-01) (5, -5.82541525363922119141e-01) (6, -4.93899792432785034180e-01) (7, -5.94847142696380615234e-01) (8, -7.72307753562927246094e-01) (9, -2.21527755260467529297e-01) (10, -5.28816938400268554688e-01) (11, -7.65883445739746093750e-01) (12, -3.38636696338653564453e-01) (13, -4.75697755813598632813e-01) (14, -6.43368721008300781250e-01) (15, -7.42843449115753173828e-01) (16, -3.44574165344238281250e+00) (17, -8.23399901390075683594e-01) (18, -8.01778435707092285156e-01) (19, 1.80677026510238647461e-01) (20, 1.35271862149238586426e-01) (21, 1.36488988995552062988e-01) (22, -6.10857233405113220215e-02) (23, -1.89873576164245605469e+00) (24, -1.04015493392944335938e+00) (25, -7.11749553680419921875e+00) (26, -3.23781609535217285156e+00) (27, 2.55572497844696044922e-01) (28, 4.97433304786682128906e-01) (29, 6.69539391994476318359e-01) (30, -1.58274650573730468750e+00) (31, -1.40957391262054443359e+00) (32, -9.27448943257331848145e-02) (33, 1.97936326265335083008e-01) (34, 6.42722129821777343750e-01) (35, 6.82644367218017578125e-01) (36, 1.26464855670928955078e+00) (37, 7.36580729484558105469e-01) (38, -2.12247705459594726563e+00) (39, -1.38958013057708740234e+00) (40, -5.36799073219299316406e-01) (41, -2.36704707145690917969e+00) (42, 1.92336034774780273438e+00) (43, 3.46237570047378540039e-01) (44, 2.76940226554870605469e+00) (45, 2.36991119384765625000e+00) (46, -1.09559857845306396484e+00) (47, 9.90022087097167968750e+00) (48, -1.45121559500694274902e-01) (49, -1.42063394188880920410e-01) (50, 2.60198086500167846680e-01) (51, 4.39536660909652709961e-01) (52, 9.68616187572479248047e-01) (53, -9.26453113555908203125e+00) (54, -5.09482955932617187500e+00) (55, 2.99085783958435058594e+00) (56, -1.34624087810516357422e+00) (57, -4.20173597335815429688e+00) (58, 2.57414355874061584473e-02) (59, 2.29433870315551757813e+00) (60, -2.57666528224945068359e-01) (61, 2.62547516822814941406e+00) (62, -5.52962541580200195313e+00) (63, 1.18083944320678710938e+01) (64, 7.89535164833068847656e-01) (65, 5.54271578788757324219e-01) (66, -2.88101267814636230469e+00) (67, 1.93901872634887695313e+00) (68, 7.81683206558227539063e-01) (69, -1.55564439296722412109e+00) (70, -1.37829828262329101563e+00) (71, 5.68938207626342773438e+00) (72, -1.00774946212768554688e+01) (73, -1.59262835979461669922e-01) (74, -8.37613642215728759766e-01) (75, -6.07830238342285156250e+00) (76, 4.34838652610778808594e-01) (77, 5.73838281631469726563e+00) (78, 3.74829828739166259766e-01) (79, -2.63003969192504882813e+00) (80, -4.86761331558227539063e+00) (81, -4.12799179553985595703e-01) (82, 3.11025476455688476563e+00) (83, 1.79351365566253662109e+00) (84, -8.42702805995941162109e-01) (85, -9.77381587028503417969e-01) (86, 3.95033502578735351563e+00) (87, -2.55200672149658203125e+00) (88, -3.07014894485473632813e+00) (89, -7.60389661788940429688e+00) (90, 4.50460433959960937500e+00) (91, -5.88897585868835449219e-01) (92, -6.17102909088134765625e+00) (93, 1.22389924526214599609e+00) (94, 3.19060468673706054688e+00) (95, -4.92519235610961914063e+00) (96, 1.50490522384643554688e+01) (97, -2.07135748863220214844e+00) (98, 6.24569654464721679688e+00) (99, 4.95350646972656250000e+00) (100, 3.70159125328063964844e+00) (101, -7.74276065826416015625e+00) (102, -5.47952127456665039063e+00) (103, -1.11042556762695312500e+01) (104, -7.26399087905883789063e+00) (105, -6.89370036125183105469e-01) (106, -3.64669948816299438477e-01) (107, -5.30012547969818115234e-01) (108, 5.41414642333984375000e+00) (109, -3.70671892166137695313e+00) (110, 7.05731058120727539063e+00) (111, -1.02660207748413085938e+01) (112, -5.03774118423461914063e+00) (113, 2.44984030723571777344e+00) (114, 4.38469737768173217773e-01) (115, -6.94432795047760009766e-01) (116, -4.32271718978881835938e+00) (117, 1.41925573348999023438e+00) (118, 6.21841812133789062500e+00) (119, 9.47713661193847656250e+00) (120, -4.14101934432983398438e+00) (121, -6.58293440937995910645e-02) (122, -3.01685750484466552734e-01) (123, 7.23418295383453369141e-01) (124, 5.47338008880615234375e-01) (125, 3.44683384895324707031e+00) (126, 1.52461025863885879517e-02) (127, 5.65365743637084960938e+00) (128, -2.62316536903381347656e+00) (129, 7.19691932201385498047e-01) (130, 4.63762998580932617188e-01) (131, 3.20288109779357910156e+00) (132, 3.90690493583679199219e+00) (133, -4.13095998764038085938e+00) (134, -2.69788379669189453125e+01) (135, -1.29065208435058593750e+01) (136, 4.92790937423706054688e-01) (137, 8.23328673839569091797e-01) (138, 2.27349206805229187012e-01) (139, 9.97173500061035156250e+00) (140, 1.24136030673980712891e+00) (141, -8.86084747314453125000e+00) (142, 1.65359115600585937500e+01) (143, 1.45359220504760742188e+01) (144, -2.45249366760253906250e+00) (145, -1.23185503482818603516e+00) (146, 6.04066789150238037109e-01) (147, 5.86744880676269531250e+00) (148, 3.09701085090637207031e+00) (149, -1.16912230849266052246e-01) (150, -1.54925231933593750000e+01) (151, -1.88786907196044921875e+01) (152, -1.64183750748634338379e-01) (153, -2.36220955848693847656e+00) (154, 9.79604780673980712891e-01) (155, 5.15691328048706054688e+00) (156, 3.33934164047241210938e+00) (157, 1.27739095687866210938e+00) (158, -2.43194408416748046875e+01) (159, 5.17281627655029296875e+00) (160, -1.24833977222442626953e+00) (161, -3.55959558486938476563e+00) (162, 6.88679397106170654297e-01) (163, 2.38407611846923828125e+00) (164, 1.80751696228981018066e-01) (165, -7.37047863006591796875e+00) (166, 3.92205963134765625000e+01) (167, -2.13355674743652343750e+01) (168, -1.89382982254028320313e+00) (169, -8.81605893373489379883e-02) (170, 1.84882819652557373047e+00) (171, 3.82439374923706054688e-01) (172, -3.59370160102844238281e+00) (173, 1.12054958343505859375e+01) (174, -2.71742763519287109375e+01) (175, 5.63681745529174804688e+00) (176, 3.53077322244644165039e-01) (177, -3.40744972229003906250e+00) (178, -4.01761722564697265625e+00) (179, 2.72822350263595581055e-01) (180, 1.86022627353668212891e+00) (181, 2.43553543090820312500e+00) (182, -1.21701574325561523438e+01) (183, -5.45633697509765625000e+00) (184, 1.03680908679962158203e+00) (185, 5.64808368682861328125e+00) (186, 2.37553071975708007813e+00) (187, 7.05417275428771972656e-01) (188, -3.59900856018066406250e+00) (189, 2.22230362892150878906e+00) (190, 2.11348533630371093750e+01) (191, -7.55104875564575195313e+00) (192, -1.55874311923980712891e+00) (193, -1.03405294418334960938e+01) (194, 1.98582506179809570313e+00) (195, 1.45601968765258789063e+01) (196, 2.51949191093444824219e-01) (197, -3.40252685546875000000e+00) (198, -4.06519126892089843750e+00) (199, -6.25138044357299804688e+00) (200, -5.63646030426025390625e+00) (201, -5.89221000671386718750e+00) (202, 5.95923364162445068359e-01) (203, 6.26977682113647460938e+00) (204, 1.29726910591125488281e+00) (205, 1.32820117473602294922e+00) (206, 8.91269922256469726563e-01) (207, -1.41552495956420898438e+00) (208, -3.36336016654968261719e+00) (209, -3.13215565681457519531e+00) (210, 3.25320601463317871094e-01) (211, 4.77654695510864257813e+00) (212, 1.66037607192993164063e+00) (213, 6.10369491577148437500e+00) (214, 2.74761486053466796875e+00) (215, -8.56902599334716796875e-01) (216, -2.22489452362060546875e+00) (217, -8.94414305686950683594e-01) (218, 1.17913317680358886719e+00) (219, 2.96906614303588867188e+00) (220, 3.33850651979446411133e-01) (221, 1.58124947547912597656e+00) (222, 9.73867654800415039063e-01) (223, -6.83262395858764648438e+00) (224, 1.26489296555519104004e-01) (225, 9.11497020721435546875e+00) (226, 3.59424829483032226563e+00) (227, 3.42881870269775390625e+00) (228, 1.85667824745178222656e+00) (229, -5.35204124450683593750e+00) (230, -1.02049112319946289063e+00) (231, -7.52880215644836425781e-01) (232, 1.32563102245330810547e+00) (233, -3.18167150020599365234e-01) (234, 1.16597521305084228516e+00) (235, 9.72897350788116455078e-01) (236, -7.49878787994384765625e+00) (237, 8.52218329906463623047e-01) (238, 2.11669468879699707031e+00) (239, 9.32316493988037109375e+00) (240, 1.17012359201908111572e-01) (241, 5.08843541145324707031e-01) (242, 6.02941334247589111328e-01) (243, 5.84267914295196533203e-01) (244, 1.98580610752105712891e+00) (245, -1.06913018226623535156e+00) (246, 6.60772264003753662109e-01) (247, 5.06055891513824462891e-01) (248, -3.24125194549560546875e+00) (249, -1.38220831751823425293e-01) (250, -2.37585797905921936035e-01) (251, 8.79623413085937500000e-01) (252, 1.88372397422790527344e+00) (253, -1.25769460201263427734e+00) (254, -2.88402414321899414063e+00) (255, -3.17985624074935913086e-01) (256, -1.01961672306060791016e+00) (0, 7.99019622802734375000e+00) (1, 1.30570459365844726563e+01) (2, 1.19089622497558593750e+01) (3, 1.13240337371826171875e+01) (4, 1.14744386672973632813e+01) (5, 1.12797174453735351563e+01) (6, 1.15007143020629882813e+01) (7, 6.47659444808959960938e+00) (8, 8.90930938720703125000e+00) (9, -9.06439399719238281250e+00) (10, -3.46866989135742187500e+01) (11, 6.07459163665771484375e+00) (12, 5.24717330932617187500e+00) (13, 6.45571851730346679688e+00) (14, 4.09129047393798828125e+00) (15, 7.29132556915283203125e+00) (16, 3.34509325027465820313e+00) (17, -2.49128198623657226563e+00) (18, -2.61920108795166015625e+01) (19, -2.62943801879882812500e+01) (20, -1.29538831710815429688e+01) (21, -3.67056159973144531250e+01) (22, -1.06688938140869140625e+01) (23, 8.18494987487792968750e+00) (24, -6.46073684692382812500e+01) (25, 1.41368932723999023438e+01) (26, 7.70349979400634765625e-01) (27, -2.48750519752502441406e+00) (28, -1.24436569213867187500e+01) (29, -2.68256416320800781250e+01) (30, -2.88224053382873535156e+00) (31, 4.79805755615234375000e+00) (32, -4.82864723205566406250e+01) (33, 1.96555292606353759766e+00) (34, 5.94991970062255859375e+00) (35, 7.28946998715400695801e-02) (36, -9.11310732364654541016e-01) (37, -1.44182586669921875000e+00) (38, 1.01420812606811523438e+01) (39, 2.43921756744384765625e+00) (40, 6.45096359252929687500e+01) (41, 1.38707595825195312500e+02) (42, -4.84563779830932617188e+00) (43, -1.31299915313720703125e+01) (44, -3.75886964797973632813e+00) (45, -1.14647246897220611572e-01) (46, 6.13763904571533203125e+00) (47, 2.43383674621582031250e+01) (48, -2.05442581176757812500e+01) (49, -1.46968383789062500000e+01) (50, -1.28214054107666015625e+01) (51, -5.06149024963378906250e+01) (52, -5.91054649353027343750e+01) (53, 1.47726226806640625000e+02) (54, 1.40329999923706054688e+01) (55, -7.56054458618164062500e+01) (56, -1.30116958618164062500e+01) (57, 1.16736412048339843750e+02) (58, -2.67073783874511718750e+01) (59, 2.40060418844223022461e-01) (60, -1.24031009674072265625e+01) (61, -7.19083595275878906250e+00) (62, -1.85049664974212646484e+00) (63, -7.21776275634765625000e+01) (64, 8.78916454315185546875e+00) (65, 2.34753017425537109375e+01) (66, -1.82259960174560546875e+01) (67, 2.96277344226837158203e-01) (68, 1.74771270751953125000e+01) (69, 1.62393798828125000000e+01) (70, -6.99808197021484375000e+01) (71, 1.13273704528808593750e+02) (72, 2.79418826103210449219e+00) (73, 2.81922492980957031250e+01) (74, 6.30860996246337890625e+00) (75, -1.07059425354003906250e+02) (76, 3.99447784423828125000e+01) (77, 3.27028503417968750000e+01) (78, 4.21701354980468750000e+01) (79, 5.18521995544433593750e+01) (80, 8.21680526733398437500e+01) (81, 4.75417327880859375000e+01) (82, -2.40340557098388671875e+01) (83, -7.91842803955078125000e+01) (84, -1.82012386322021484375e+01) (85, 2.67903839111328125000e+02) (86, -5.34238204956054687500e+01) (87, 1.78429168701171875000e+02) (88, 1.27736335754394531250e+02) (89, -7.07930526733398437500e+01) (90, 1.22651739120483398438e+01) (91, -6.64720687866210937500e+01) (92, 1.29752435684204101563e+01) (93, 8.97002029418945312500e+00) (94, -6.69999923706054687500e+01) (95, 1.69519485473632812500e+02) (96, 5.91277732849121093750e+01) (97, 1.45014511108398437500e+02) (98, 1.45492100715637207031e+00) (99, -1.08878204345703125000e+02) (100, -4.93282241821289062500e+01) (101, -2.20647697448730468750e+01) (102, -9.35533294677734375000e+01) (103, 6.68886613845825195313e+00) (104, 1.26950447082519531250e+02) (105, 7.83602828979492187500e+01) (106, -1.23084774017333984375e+01) (107, -8.41772613525390625000e+01) (108, -3.48529052734375000000e+01) (109, 5.16696533203125000000e+02) (110, -1.47783752441406250000e+02) (111, 4.55089874267578125000e+01) (112, -7.60423481464385986328e-01) (113, -1.38180969238281250000e+02) (114, -1.49193315505981445313e+01) (115, -1.49078292846679687500e+01) (116, 4.67769336700439453125e+00) (117, 2.22471275329589843750e+01) (118, -2.00388298034667968750e+01) (119, 3.56075653076171875000e+02) (120, -2.50053119659423828125e+00) (121, 7.51571846008300781250e+00) (122, 6.54572391510009765625e+00) (123, -1.19922466278076171875e+01) (124, 1.79723403930664062500e+02) (125, 2.23319110870361328125e+01) (126, -2.44408691406250000000e+02) (127, 1.74040939331054687500e+02) (128, 1.41092315673828125000e+02) (129, 3.39631042480468750000e+01) (130, 4.96895027160644531250e+00) (131, -2.36027352511882781982e-02) (132, 3.33297042846679687500e+01) (133, 1.40833787918090820313e+01) (134, -1.94120117187500000000e+02) (135, 1.09390579223632812500e+02) (136, -1.10864436626434326172e+00) (137, 1.43586599826812744141e+00) (138, -9.27036952972412109375e+00) (139, -5.22853355407714843750e+01) (140, 3.87601852416992187500e+01) (141, -1.64486206054687500000e+02) (142, -5.10245037078857421875e+00) (143, 1.92393589019775390625e+01) (144, 4.14630842208862304688e+00) (145, -3.61037559509277343750e+01) (146, 4.33776426315307617188e+00) (147, -6.40692214965820312500e+01) (148, 3.74029278755187988281e+00) (149, -9.94596023559570312500e+01) (150, -4.04835700988769531250e+00) (151, -2.43187065124511718750e+01) (152, -3.86640977859497070313e+00) (153, 1.74391136169433593750e+01) (154, 1.18072891235351562500e+01) (155, -1.58362805843353271484e+00) (156, -7.20299005508422851563e+00) (157, -6.53352050781250000000e+01) (158, -7.80397367477416992188e+00) (159, -1.57565555572509765625e+01) (160, 2.53489570617675781250e+01) (161, -6.21987724304199218750e+01) (162, 7.73431587219238281250e+00) (163, -5.19077987670898437500e+01) (164, 1.29459428787231445313e+00) (165, -2.96460170745849609375e+01) (166, -1.18508930206298828125e+01) (167, 2.51519546508789062500e+02) (168, 3.41166191101074218750e+01) (169, -2.46129932403564453125e+01) (170, 1.54012069702148437500e+01) (171, 9.80053126811981201172e-01) (172, 7.95681915283203125000e+01) (173, 8.89750900268554687500e+01) (174, -1.39929153442382812500e+02) (175, 3.00422698974609375000e+02) (176, 2.68336129188537597656e+00) (177, 1.23814048767089843750e+01) (178, -6.36928977966308593750e+01) (179, 1.61290168762207031250e+00) (180, 9.04424285888671875000e+01) (181, 2.90679855346679687500e+01) (182, 1.87959442138671875000e+02) (183, 4.10497970581054687500e+01) (184, -4.26617956161499023438e+00) (185, -1.42726654052734375000e+02) (186, -1.16983314514160156250e+02) (187, -6.96884002685546875000e+01) (188, 9.27396469116210937500e+01) (189, -6.65182189941406250000e+01) (190, -3.39601043701171875000e+02) (191, -1.79628326416015625000e+02) (192, 2.04300079345703125000e+01) (193, 1.56297054290771484375e+01) (194, -2.85957241058349609375e+01) (195, -5.04064941406250000000e+01) (196, -9.76089096069335937500e+00) (197, 7.37912414550781250000e+02) (198, -1.93290191650390625000e+02) (199, -2.87767700195312500000e+02) (200, -1.53838510513305664063e+01) (201, -1.68243324756622314453e+00) (202, -6.90674257278442382813e+00) (203, -1.65640711784362792969e+00) (204, -1.11090126037597656250e+02) (205, -1.05169286727905273438e+01) (206, 3.28697540283203125000e+02) (207, -2.10538513183593750000e+02) (208, 2.18413238525390625000e+01) (209, -1.07663612365722656250e+02) (210, -6.85983514785766601563e+00) (211, 3.21979179382324218750e+01) (212, -4.18788719177246093750e+01) (213, -2.17941375732421875000e+02) (214, 4.33097717285156250000e+02) (215, -3.83999572753906250000e+02) (216, 1.32563889026641845703e+00) (217, -1.26311271667480468750e+02) (218, -2.43097805976867675781e+00) (219, 1.39387016296386718750e+01) (220, -1.49707727432250976563e+01) (221, 1.38985691070556640625e+01) (222, 2.59160900115966796875e+01) (223, 3.86193725585937500000e+02) (224, 2.75676116943359375000e+02) (225, -3.46593627929687500000e+01) (226, -6.73531036376953125000e+01) (227, -3.38866195678710937500e+01) (228, -1.80126705169677734375e+01) (229, -5.69607696533203125000e+01) (230, -7.75850248336791992188e+00) (231, -1.04839393615722656250e+02) (232, 1.30276947021484375000e+02) (233, 7.80742108821868896484e-01) (234, 4.93633890151977539063e+00) (235, 1.99195526123046875000e+02) (236, -2.55223217010498046875e+01) (237, -7.60269088745117187500e+01) (238, -1.00625236511230468750e+02) (239, -1.60258693695068359375e+01) (240, 3.22770547866821289063e+00) (241, -9.21033322811126708984e-02) (242, 6.45646214485168457031e-01) (243, 1.52983760833740234375e+00) (244, -1.51976959228515625000e+02) (245, 5.24328327178955078125e+00) (246, 4.32131347656250000000e+01) (247, 3.78080463409423828125e+00) (248, 2.28294124603271484375e+01) (249, 1.04162158966064453125e+01) (250, 4.47579479217529296875e+00) (251, 4.76694726943969726563e+00) (252, 4.35028696060180664063e+00) (253, 5.66757106781005859375e+00) (254, 1.07442827224731445313e+01) (255, 6.68414020538330078125e+00) (256, 2.36769886016845703125e+01) (0, -9.99048113822937011719e-01) (1, -8.50390911102294921875e-01) (2, -9.24911260604858398438e-01) (3, -6.66096627712249755859e-01) (4, -8.67002725601196289063e-01) (5, -9.08366501331329345703e-01) (6, -9.88537847995758056641e-01) (7, -1.15857565402984619141e+00) (8, -7.31488645076751708984e-01) (9, -6.29141807556152343750e-01) (10, -6.78013205528259277344e-01) (11, -8.27398836612701416016e-01) (12, -6.48009002208709716797e-01) (13, -4.94045853614807128906e-01) (14, -4.58708614110946655273e-01) (15, -7.20080196857452392578e-01) (16, -2.98527032136917114258e-01) (17, -3.81784170866012573242e-01) (18, -1.68741285800933837891e-01) (19, 3.52368533611297607422e-01) (20, -5.38212895393371582031e-01) (21, -3.82465124130249023438e-01) (22, 1.91838759928941726685e-02) (23, -5.60093104839324951172e-01) (24, -2.33902141451835632324e-01) (25, 4.12260293960571289063e-02) (26, 2.70881503820419311523e-01) (27, 2.74848937988281250000e-01) (28, 6.88422143459320068359e-01) (29, 8.50505650043487548828e-01) (30, 8.21971952915191650391e-01) (31, -4.39253449440002441406e-01) (32, 3.99896919727325439453e-01) (33, -9.50546711683273315430e-02) (34, 4.66975092887878417969e-01) (35, 2.99002110958099365234e-01) (36, 9.88154187798500061035e-02) (37, 3.31215828657150268555e-01) (38, 2.19035983085632324219e-01) (39, 1.46690860390663146973e-01) (40, -3.11914235353469848633e-01) (41, -4.55501914024353027344e-01) (42, 1.22912168502807617188e-01) (43, 4.27432864904403686523e-01) (44, 5.75673460960388183594e-01) (45, 2.75869548320770263672e-01) (46, -4.36334550380706787109e-01) (47, 4.51849661767482757568e-02) (48, -1.11479721963405609131e-01) (49, 2.18380317091941833496e-01) (50, -1.66037172079086303711e-01) (51, 2.01630070805549621582e-01) (52, 4.36682790517807006836e-01) (53, -4.82870675623416900635e-02) (54, -2.93260999023914337158e-02) (55, -8.61343517899513244629e-02) (56, 5.64991645514965057373e-02) (57, -3.23127746582031250000e-01) (58, -1.78046092391014099121e-01) (59, -2.12448626756668090820e-01) (60, 3.43088150024414062500e-01) (61, 2.03677937388420104980e-01) (62, -1.30799869075417518616e-02) (63, 1.74455985426902770996e-01) (64, 2.40222294814884662628e-03) (65, 4.95711892843246459961e-01) (66, 5.70560097694396972656e-02) (67, 1.48294016718864440918e-01) (68, 6.40042603015899658203e-01) (69, 4.65748101472854614258e-01) (70, 1.68169923126697540283e-02) (71, -4.56065475940704345703e-01) (72, 1.88075862824916839600e-02) (73, -1.07516062259674072266e+00) (74, -1.28875032067298889160e-01) (75, -1.38473743572831153870e-02) (76, 2.10949659347534179688e-01) (77, 1.88942179083824157715e-01) (78, -3.27604472637176513672e-01) (79, 2.05169990658760070801e-02) (80, -8.10483545064926147461e-02) (81, -7.68492043018341064453e-01) (82, 2.95478284358978271484e-01) (83, 8.66795539855957031250e-01) (84, 3.81388038396835327148e-01) (85, -9.21150371432304382324e-02) (86, 7.97980725765228271484e-02) (87, 1.32190942764282226563e-01) (88, -5.29839873313903808594e-01) (89, -7.58459389209747314453e-01) (90, 1.91019073128700256348e-01) (91, 7.10489988327026367188e-01) (92, -6.89841955900192260742e-02) (93, -3.32779616117477416992e-01) (94, 2.85441111773252487183e-02) (95, 2.35987588763236999512e-01) (96, 3.07359427213668823242e-01) (97, -6.16748481988906860352e-02) (98, 6.24105632305145263672e-02) (99, 6.56647026538848876953e-01) (100, 7.09205627441406250000e-01) (101, -6.97071924805641174316e-02) (102, -1.38360247015953063965e-01) (103, -2.22603738307952880859e-01) (104, -4.71084564924240112305e-01) (105, -6.72725498676300048828e-01) (106, -1.31497234106063842773e-01) (107, 1.08338117599487304688e-01) (108, 5.25519430637359619141e-01) (109, -1.07731655240058898926e-01) (110, 3.33293117582798004150e-02) (111, 4.81771379709243774414e-02) (112, 7.97173473984003067017e-03) (113, 7.66483247280120849609e-01) (114, 1.99128359556198120117e-01) (115, -4.62913811206817626953e-01) (116, 2.05876901745796203613e-01) (117, 2.81208753585815429688e-01) (118, -3.35168302059173583984e-01) (119, 1.85901939868927001953e-01) (120, -3.80175471305847167969e-01) (121, -3.22351366281509399414e-01) (122, -5.04314862191677093506e-02) (123, 2.65675336122512817383e-01) (124, -2.41087079048156738281e-02) (125, 2.69203316420316696167e-02) (126, 7.87412934005260467529e-03) (127, 2.07618743181228637695e-01) (128, 2.46585667133331298828e-01) (129, 9.47142094373703002930e-02) (130, 3.25142383575439453125e-01) (131, 1.83111771941184997559e-01) (132, 1.98661729693412780762e-01) (133, -3.57822835445404052734e-01) (134, -2.13267803192138671875e-02) (135, -1.32663741707801818848e-01) (136, 2.16613844037055969238e-01) (137, 1.97822615504264831543e-01) (138, -2.99543756991624832153e-02) (139, -1.01993493735790252686e-01) (140, 2.26332426071166992188e-01) (141, 3.76705735921859741211e-01) (142, -1.19496688246726989746e-01) (143, -2.03146383166313171387e-01) (144, -6.52689486742019653320e-02) (145, -2.01204884797334671021e-02) (146, -1.40743598341941833496e-01) (147, 2.20464184880256652832e-01) (148, 6.54552161693572998047e-01) (149, -2.28382870554924011230e-02) (150, 1.19401820003986358643e-01) (151, -7.47485384345054626465e-02) (152, 2.41873770952224731445e-01) (153, -1.60850092768669128418e-01) (154, 1.27093836665153503418e-01) (155, 1.79558411240577697754e-01) (156, 2.54941940307617187500e-01) (157, 6.07142820954322814941e-02) (158, -1.62993166595697402954e-02) (159, -1.54093995690345764160e-01) (160, -1.23434379696846008301e-01) (161, -2.23400905728340148926e-01) (162, 1.37640265747904777527e-02) (163, 3.61957669258117675781e-01) (164, 1.21329665184020996094e+00) (165, 5.87412655353546142578e-01) (166, 1.14593856036663055420e-01) (167, -5.64217090606689453125e-01) (168, -4.25888270139694213867e-01) (169, 3.24923172593116760254e-02) (170, -4.04226720333099365234e-01) (171, 2.55856215953826904297e-02) (172, 4.50210005044937133789e-01) (173, -2.53915250301361083984e-01) (174, 7.87293732166290283203e-01) (175, -1.82239308953285217285e-01) (176, 4.39169496297836303711e-01) (177, -4.13465231657028198242e-01) (178, -3.67740899324417114258e-01) (179, 2.34173908829689025879e-01) (180, 1.93630293011665344238e-01) (181, -4.82587814331054687500e-02) (182, -1.60289406776428222656e-01) (183, 5.45348942279815673828e-01) (184, -2.79327005147933959961e-01) (185, 1.56054645776748657227e-01) (186, 1.04007482528686523438e-01) (187, 3.11541020870208740234e-01) (188, -1.99951037764549255371e-01) (189, -1.33804619312286376953e-01) (190, -3.28440994024276733398e-01) (191, 9.22809019684791564941e-02) (192, -2.91985720396041870117e-01) (193, 2.82265931367874145508e-01) (194, -2.50515311956405639648e-01) (195, 4.70523059368133544922e-01) (196, 3.86446565389633178711e-01) (197, 4.44086603820323944092e-02) (198, -8.89378637075424194336e-02) (199, 3.38037461042404174805e-02) (200, -8.63106399774551391602e-02) (201, -1.76653023809194564819e-02) (202, 5.68405747413635253906e-01) (203, 4.78748753666877746582e-02) (204, 8.07948172092437744141e-01) (205, -2.53235399723052978516e-01) (206, -3.10236752033233642578e-01) (207, -1.76675066351890563965e-01) (208, 1.90068528056144714355e-01) (209, -1.60588845610618591309e-02) (210, 3.49696315824985504150e-02) (211, -1.80496782064437866211e-01) (212, 7.98469603061676025391e-01) (213, 4.14517611265182495117e-01) (214, -2.41174533963203430176e-01) (215, 8.20028930902481079102e-02) (216, 2.28295162320137023926e-01) (217, -4.25989538431167602539e-01) (218, 2.35110409557819366455e-02) (219, -5.85596084594726562500e-01) (220, 4.16192799806594848633e-01) (221, 2.06112936139106750488e-01) (222, -2.43339642882347106934e-01) (223, 9.26559567451477050781e-02) (224, -2.83837556838989257813e-01) (225, 2.07453563809394836426e-01) (226, 1.39124795794486999512e-01) (227, 7.64949619770050048828e-01) (228, 8.27761292457580566406e-01) (229, 4.54586982727050781250e-01) (230, -1.88425704836845397949e-01) (231, -6.12952709197998046875e-02) (232, 1.68335080146789550781e-01) (233, -1.04313008487224578857e-01) (234, -9.32222962379455566406e-01) (235, 8.98452758789062500000e-01) (236, 1.05605471134185791016e+00) (237, 1.39571532607078552246e-01) (238, 1.21983475983142852783e-01) (239, -2.51667182892560958862e-02) (240, 9.13468301296234130859e-01) (241, -4.08982746303081512451e-02) (242, 1.14467635750770568848e-01) (243, 7.99837261438369750977e-02) (244, 9.48377668857574462891e-01) (245, -3.12291800975799560547e-01) (246, -1.78464934229850769043e-01) (247, 9.83817800879478454590e-02) (248, 4.97410967946052551270e-02) (249, -8.02209496498107910156e-01) (250, -3.81659865379333496094e-01) (251, -5.54627299308776855469e-01) (252, -3.64196419715881347656e-01) (253, -6.64657354354858398438e-01) (254, -5.81535160541534423828e-01) (255, -4.48076575994491577148e-01) (256, -8.60405504703521728516e-01) (0, -1.11708724498748779297e+00) (1, -6.01792633533477783203e-01) (2, -1.53337270021438598633e-01) (3, -5.87013959884643554688e-01) (4, -3.88562902808189392090e-02) (5, -2.54757910966873168945e-01) (6, -5.44464826583862304688e-01) (7, -7.02154219150543212891e-01) (8, 1.36325225234031677246e-01) (9, 8.89995455741882324219e-01) (10, 6.85871839523315429688e-01) (11, 5.80716967582702636719e-01) (12, 8.69604349136352539063e-01) (13, 4.50767964124679565430e-01) (14, 1.43681585788726806641e-01) (15, -1.59730672836303710938e-01) (16, 2.65697270631790161133e-01) (17, 2.39536032080650329590e-01) (18, -5.50412833690643310547e-02) (19, 3.45245361328125000000e-01) (20, 3.76402050256729125977e-01) (21, 2.39440307021141052246e-01) (22, 3.70351850986480712891e-01) (23, 2.44022637605667114258e-01) (24, 2.01410818845033645630e-02) (25, 4.84051346778869628906e-01) (26, 3.29801708459854125977e-01) (27, 3.13962668180465698242e-01) (28, 3.30232828855514526367e-01) (29, 3.90368908643722534180e-01) (30, -1.43804937601089477539e-01) (31, -3.37391309440135955811e-02) (32, 1.07299409806728363037e-01) (33, 5.81848502159118652344e-01) (34, -4.67247813940048217773e-01) (35, -2.91264742612838745117e-01) (36, -3.02404701709747314453e-01) (37, 2.72762030363082885742e-01) (38, -4.18112069368362426758e-01) (39, -3.64461570978164672852e-01) (40, -2.25787162780761718750e-01) (41, 9.75752025842666625977e-02) (42, -1.64897382259368896484e-01) (43, 3.54723691940307617188e-01) (44, 1.75876259803771972656e-01) (45, 3.65201771259307861328e-01) (46, 4.01583224534988403320e-01) (47, -4.59194719791412353516e-01) (48, -1.01669363677501678467e-01) (49, 3.90005856752395629883e-01) (50, 2.62608081102371215820e-01) (51, 3.35394889116287231445e-01) (52, 2.26989939808845520020e-01) (53, -1.53096750378608703613e-01) (54, 4.89593446254730224609e-01) (55, -5.23607015609741210938e-01) (56, 5.97321316599845886230e-02) (57, 2.77275405824184417725e-02) (58, 6.32879659533500671387e-02) (59, 3.33574384450912475586e-01) (60, 6.31603822112083435059e-02) (61, 2.19222113490104675293e-01) (62, 2.25045174360275268555e-01) (63, -3.80266755819320678711e-02) (64, -3.13957966864109039307e-02) (65, 6.09980821609497070313e-01) (66, -1.07411336898803710938e+00) (67, 4.74668473005294799805e-01) (68, 7.73305535316467285156e-01) (69, -2.07442238926887512207e-01) (70, -9.68830361962318420410e-02) (71, 3.24185639619827270508e-01) (72, -2.02736444771289825439e-02) (73, 1.15237206220626831055e-01) (74, 6.79868832230567932129e-02) (75, 2.16196894645690917969e+00) (76, 2.84663915634155273438e-01) (77, -1.26326277852058410645e-01) (78, -2.37458586692810058594e-01) (79, 1.22702918946743011475e-01) (80, 2.35465496778488159180e-01) (81, -6.08925640583038330078e-01) (82, 4.68037635087966918945e-01) (83, -1.90718263387680053711e-01) (84, 5.76859414577484130859e-01) (85, 3.70974689722061157227e-01) (86, -1.02218315005302429199e-01) (87, -1.27820642665028572083e-02) (88, 4.21433746814727783203e-01) (89, 8.83186385035514831543e-02) (90, 1.84463143348693847656e-01) (91, 2.17314079403877258301e-01) (92, -2.28517189621925354004e-01) (93, -7.33788460493087768555e-02) (94, 6.29728585481643676758e-02) (95, 1.82413160800933837891e-01) (96, -3.50984707474708557129e-02) (97, -8.82050514221191406250e-01) (98, -3.23537111282348632813e-01) (99, -1.93765297532081604004e-01) (100, 5.47155797481536865234e-01) (101, 5.90772032737731933594e-01) (102, 2.88025736808776855469e-01) (103, -3.86579424142837524414e-01) (104, 1.08364194631576538086e-01) (105, -1.57909318804740905762e-01) (106, 2.53859311342239379883e-01) (107, 5.26598701253533363342e-03) (108, 4.01433169841766357422e-01) (109, -1.29125073552131652832e-01) (110, 3.38893413543701171875e-01) (111, 4.32692557573318481445e-01) (112, -1.44327118992805480957e-01) (113, -3.61503437161445617676e-02) (114, 6.72450661659240722656e-02) (115, 3.89871388673782348633e-01) (116, 9.28673446178436279297e-02) (117, 1.53114482760429382324e-01) (118, -8.52904796600341796875e-01) (119, -4.28934097290039062500e-01) (120, -4.28210705518722534180e-01) (121, 4.35966491699218750000e-01) (122, -8.24135601520538330078e-01) (123, -1.66467398405075073242e-01) (124, -2.19898462295532226563e-01) (125, 4.22639220952987670898e-01) (126, 2.86346614360809326172e-01) (127, 5.85496246814727783203e-01) (128, -6.82068645954132080078e-01) (129, -3.44778746366500854492e-01) (130, -2.20305681228637695313e-01) (131, 4.14670616388320922852e-01) (132, 4.01345118880271911621e-02) (133, 3.80873203277587890625e-01) (134, 5.04818141460418701172e-01) (135, 5.50498701632022857666e-02) (136, 8.25405716896057128906e-01) (137, 8.98057162761688232422e-01) (138, -4.49929498136043548584e-02) (139, -1.69530902057886123657e-02) (140, -1.54477328062057495117e-01) (141, 1.23256281018257141113e-01) (142, 1.07180200517177581787e-01) (143, -3.03625524044036865234e-01) (144, 4.98516649007797241211e-01) (145, 1.62786200642585754395e-01) (146, -2.24018633365631103516e-01) (147, -5.92374391853809356689e-02) (148, -2.27922409772872924805e-01) (149, -4.21594781801104545593e-03) (150, -5.86210861802101135254e-02) (151, -3.57091516256332397461e-01) (152, 3.50102424621582031250e-01) (153, 1.10541686415672302246e-01) (154, -1.61871254444122314453e-01) (155, 6.20544776320457458496e-02) (156, -1.41854420304298400879e-01) (157, -2.28789716958999633789e-01) (158, 2.27494105696678161621e-01) (159, 1.39760658144950866699e-01) (160, 1.44342333078384399414e-01) (161, 2.85854220390319824219e-01) (162, -2.23469987511634826660e-01) (163, -7.40897238254547119141e-01) (164, 1.06455504894256591797e-01) (165, 3.23681861162185668945e-01) (166, -1.27178579568862915039e-01) (167, 6.73467755317687988281e-01) (168, -1.22885800898075103760e-01) (169, 5.01916147768497467041e-02) (170, -4.97368127107620239258e-01) (171, 2.39335343241691589355e-01) (172, -5.06856776773929595947e-02) (173, -6.56254440546035766602e-02) (174, 7.61960521340370178223e-02) (175, 1.98686838150024414063e-01) (176, -4.09395575523376464844e-01) (177, -6.82474598288536071777e-02) (178, 3.51804316043853759766e-01) (179, 1.64692819118499755859e-01) (180, 7.07485824823379516602e-02) (181, -2.84004092216491699219e-01) (182, 8.73192697763442993164e-02) (183, -2.81423125416040420532e-02) (184, -2.54774272441864013672e-01) (185, 1.02548682689666748047e+00) (186, -7.17396974563598632813e-01) (187, -1.13122388720512390137e-01) (188, 1.50157511234283447266e-01) (189, 1.21059142053127288818e-01) (190, 2.75092005729675292969e-01) (191, 5.77059268951416015625e-01) (192, -1.31836265325546264648e-01) (193, -6.56144857406616210938e-01) (194, -3.10952544212341308594e-01) (195, 1.60167872905731201172e-01) (196, 5.45255839824676513672e-02) (197, 1.52552276849746704102e-01) (198, -8.21670889854431152344e-01) (199, -3.08410227298736572266e-01) (200, -3.52969020605087280273e-01) (201, 2.76112496852874755859e-01) (202, 5.56469075381755828857e-02) (203, -6.73354625701904296875e-01) (204, 4.19758945703506469727e-01) (205, -8.66449251770973205566e-02) (206, -5.69506347179412841797e-01) (207, 2.91590511798858642578e-01) (208, 1.72411605715751647949e-01) (209, 4.84420627355575561523e-01) (210, -4.59560364484786987305e-01) (211, -5.21744966506958007813e-01) (212, 1.99119493365287780762e-01) (213, 1.50714442133903503418e-01) (214, 2.86266535520553588867e-01) (215, -1.82416871190071105957e-01) (216, 6.74235343933105468750e-01) (217, 4.46093082427978515625e-01) (218, 1.22919894754886627197e-01) (219, -7.48631238937377929688e-01) (220, 7.43624329566955566406e-01) (221, 2.88508862257003784180e-01) (222, 5.18315672874450683594e-01) (223, -3.99524837732315063477e-01) (224, -5.45994162559509277344e-01) (225, 1.13172873854637145996e-01) (226, -6.63173019886016845703e-01) (227, -2.19190180301666259766e-01) (228, 1.08257517218589782715e-01) (229, -1.94967359304428100586e-01) (230, -6.07429265975952148438e-01) (231, 5.84052689373493194580e-03) (232, -1.44373640418052673340e-01) (233, 4.59923455491662025452e-03) (234, 5.20158171653747558594e-01) (235, 6.62720620632171630859e-01) (236, 5.83453103899955749512e-02) (237, 9.70371305942535400391e-01) (238, -1.07686376571655273438e+00) (239, 1.16057932376861572266e+00) (240, -1.12796120345592498779e-01) (241, -3.57025742530822753906e-01) (242, 2.01578944921493530273e-01) (243, 5.74000537395477294922e-01) (244, 3.73646259307861328125e-01) (245, 1.63467191159725189209e-02) (246, -3.79506021738052368164e-01) (247, -3.42205703258514404297e-01) (248, -7.24952518939971923828e-01) (249, -5.15613853931427001953e-01) (250, -3.31037193536758422852e-01) (251, -2.59772747755050659180e-01) (252, -4.07735854387283325195e-01) (253, -3.82349133491516113281e-01) (254, -7.78333425521850585938e-01) (255, -3.99734020233154296875e-01) (256, -1.60817670822143554688e+00) (257, -1.49891748046875000000e+03) (258, 3.79201889038085937500e+01) (259, 1.49999987792968750000e+03) (260, 5.49817749023437500000e+02) (261, 9.31053009033203125000e+01) (257, -4.12891197204589843750e+01) (258, 3.01403713226318359375e+01) (259, -8.14666519165039062500e+01) (260, -1.40109359741210937500e+02) (261, -2.60261268615722656250e+01) (257, -1.20016012191772460938e+01) (258, 7.32156467437744140625e+00) (259, 7.60804077148437500000e+02) (260, 4.87674743652343750000e+02) (261, 2.93388137817382812500e+01) (257, 2.31072597503662109375e+01) (258, -3.70597696304321289063e+00) (259, -1.69779396057128906250e+01) (260, 1.80539474487304687500e+01) (261, -3.31652879714965820313e-01) (262, -5.36219055175781250000e+02) (263, -1.22282092285156250000e+03) (264, 8.59317321777343750000e+02) (265, 1.49990112304687500000e+03) (266, -1.35191986083984375000e+02) 
