FANN_FLO_2.1
num_layers=4
learning_rate=0.700000
connection_rate=1.000000
network_type=0
learning_momentum=0.000000
training_algorithm=2
train_error_function=1
train_stop_function=0
cascade_output_change_fraction=0.010000
quickprop_decay=-0.000100
quickprop_mu=1.750000
rprop_increase_factor=1.200000
rprop_decrease_factor=0.500000
rprop_delta_min=0.000000
rprop_delta_max=50.000000
rprop_delta_zero=0.100000
cascade_output_stagnation_epochs=12
cascade_candidate_change_fraction=0.010000
cascade_candidate_stagnation_epochs=12
cascade_max_out_epochs=150
cascade_min_out_epochs=50
cascade_max_cand_epochs=150
cascade_min_cand_epochs=50
cascade_num_candidate_groups=2
bit_fail_limit=3.49999994039535522461e-01
cascade_candidate_limit=1.00000000000000000000e+03
cascade_weight_multiplier=4.00000005960464477539e-01
cascade_activation_functions_count=10
cascade_activation_functions=3 5 7 8 10 11 14 15 16 17 
cascade_activation_steepnesses_count=4
cascade_activation_steepnesses=2.50000000000000000000e-01 5.00000000000000000000e-01 7.50000000000000000000e-01 1.00000000000000000000e+00 
layer_sizes=257 24 24 2 
scale_included=0
neurons (num_inputs, activation_function, activation_steepness)=(0, 0, 0.00000000000000000000e+00) (0, 0, 0.00000000000000000000e+00) (0, 0, 0.00000000000000000000e+00) (0, 0, 0.00000000000000000000e+00) (0, 0, 0.00000000000000000000e+00) (0, 0, 0.00000000000000000000e+00) (0, 0, 0.00000000000000000000e+00) (0, 0, 0.00000000000000000000e+00) (0, 0, 0.00000000000000000000e+00) (0, 0, 0.00000000000000000000e+00) (0, 0, 0.00000000000000000000e+00) (0, 0, 0.00000000000000000000e+00) (0, 0, 0.00000000000000000000e+00) (0, 0, 0.00000000000000000000e+00) (0, 0, 0.00000000000000000000e+00) (0, 0, 0.00000000000000000000e+00) (0, 0, 0.00000000000000000000e+00) (0, 0, 0.00000000000000000000e+00) (0, 0, 0.00000000000000000000e+00) (0, 0, 0.00000000000000000000e+00) (0, 0, 0.00000000000000000000e+00) (0, 0, 0.00000000000000000000e+00) (0, 0, 0.00000000000000000000e+00) (0, 0, 0.00000000000000000000e+00) (0, 0, 0.00000000000000000000e+00) (0, 0, 0.00000000000000000000e+00) (0, 0, 0.00000000000000000000e+00) (0, 0, 0.00000000000000000000e+00) (0, 0, 0.00000000000000000000e+00) (0, 0, 0.00000000000000000000e+00) (0, 0, 0.00000000000000000000e+00) (0, 0, 0.00000000000000000000e+00) (0, 0, 0.00000000000000000000e+00) (0, 0, 0.00000000000000000000e+00) (0, 0, 0.00000000000000000000e+00) (0, 0, 0.00000000000000000000e+00) (0, 0, 0.00000000000000000000e+00) (0, 0, 0.00000000000000000000e+00) (0, 0, 0.00000000000000000000e+00) (0, 0, 0.00000000000000000000e+00) (0, 0, 0.00000000000000000000e+00) (0, 0, 0.00000000000000000000e+00) (0, 0, 0.00000000000000000000e+00) (0, 0, 0.00000000000000000000e+00) (0, 0, 0.00000000000000000000e+00) (0, 0, 0.00000000000000000000e+00) (0, 0, 0.00000000000000000000e+00) (0, 0, 0.00000000000000000000e+00) (0, 0, 0.00000000000000000000e+00) (0, 0, 0.00000000000000000000e+00) (0, 0, 0.00000000000000000000e+00) (0, 0, 0.00000000000000000000e+00) (0, 0, 0.00000000000000000000e+00) (0, 0, 0.00000000000000000000e+00) (0, 0, 0.00000000000000000000e+00) (0, 0, 0.00000000000000000000e+00) (0, 0, 0.00000000000000000000e+00) (0, 0, 0.00000000000000000000e+00) (0, 0, 0.00000000000000000000e+00) (0, 0, 0.00000000000000000000e+00) (0, 0, 0.00000000000000000000e+00) (0, 0, 0.00000000000000000000e+00) (0, 0, 0.00000000000000000000e+00) (0, 0, 0.00000000000000000000e+00) (0, 0, 0.00000000000000000000e+00) (0, 0, 0.00000000000000000000e+00) (0, 0, 0.00000000000000000000e+00) (0, 0, 0.00000000000000000000e+00) (0, 0, 0.00000000000000000000e+00) (0, 0, 0.00000000000000000000e+00) (0, 0, 0.00000000000000000000e+00) (0, 0, 0.00000000000000000000e+00) (0, 0, 0.00000000000000000000e+00) (0, 0, 0.00000000000000000000e+00) (0, 0, 0.00000000000000000000e+00) (0, 0, 0.00000000000000000000e+00) (0, 0, 0.00000000000000000000e+00) (0, 0, 0.00000000000000000000e+00) (0, 0, 0.00000000000000000000e+00) (0, 0, 0.00000000000000000000e+00) (0, 0, 0.00000000000000000000e+00) (0, 0, 0.00000000000000000000e+00) (0, 0, 0.00000000000000000000e+00) (0, 0, 0.00000000000000000000e+00) (0, 0, 0.00000000000000000000e+00) (0, 0, 0.00000000000000000000e+00) (0, 0, 0.00000000000000000000e+00) (0, 0, 0.00000000000000000000e+00) (0, 0, 0.00000000000000000000e+00) (0, 0, 0.00000000000000000000e+00) (0, 0, 0.00000000000000000000e+00) (0, 0, 0.00000000000000000000e+00) (0, 0, 0.00000000000000000000e+00) (0, 0, 0.00000000000000000000e+00) (0, 0, 0.00000000000000000000e+00) (0, 0, 0.00000000000000000000e+00) (0, 0, 0.00000000000000000000e+00) (0, 0, 0.00000000000000000000e+00) (0, 0, 0.00000000000000000000e+00) (0, 0, 0.00000000000000000000e+00) (0, 0, 0.00000000000000000000e+00) (0, 0, 0.00000000000000000000e+00) (0, 0, 0.00000000000000000000e+00) (0, 0, 0.00000000000000000000e+00) (0, 0, 0.00000000000000000000e+00) (0, 0, 0.00000000000000000000e+00) (0, 0, 0.00000000000000000000e+00) (0, 0, 0.00000000000000000000e+00) (0, 0, 0.00000000000000000000e+00) (0, 0, 0.00000000000000000000e+00) (0, 0, 0.00000000000000000000e+00) (0, 0, 0.00000000000000000000e+00) (0, 0, 0.00000000000000000000e+00) (0, 0, 0.00000000000000000000e+00) (0, 0, 0.00000000000000000000e+00) (0, 0, 0.00000000000000000000e+00) (0, 0, 0.00000000000000000000e+00) (0, 0, 0.00000000000000000000e+00) (0, 0, 0.00000000000000000000e+00) (0, 0, 0.00000000000000000000e+00) (0, 0, 0.00000000000000000000e+00) (0, 0, 0.00000000000000000000e+00) (0, 0, 0.00000000000000000000e+00) (0, 0, 0.00000000000000000000e+00) (0, 0, 0.00000000000000000000e+00) (0, 0, 0.00000000000000000000e+00) (0, 0, 0.00000000000000000000e+00) (0, 0, 0.00000000000000000000e+00) (0, 0, 0.00000000000000000000e+00) (0, 0, 0.00000000000000000000e+00) (0, 0, 0.00000000000000000000e+00) (0, 0, 0.00000000000000000000e+00) (0, 0, 0.00000000000000000000e+00) (0, 0, 0.00000000000000000000e+00) (0, 0, 0.00000000000000000000e+00) (0, 0, 0.00000000000000000000e+00) (0, 0, 0.00000000000000000000e+00) (0, 0, 0.00000000000000000000e+00) (0, 0, 0.00000000000000000000e+00) (0, 0, 0.00000000000000000000e+00) (0, 0, 0.00000000000000000000e+00) (0, 0, 0.00000000000000000000e+00) (0, 0, 0.00000000000000000000e+00) (0, 0, 0.00000000000000000000e+00) (0, 0, 0.00000000000000000000e+00) (0, 0, 0.00000000000000000000e+00) (0, 0, 0.00000000000000000000e+00) (0, 0, 0.00000000000000000000e+00) (0, 0, 0.00000000000000000000e+00) (0, 0, 0.00000000000000000000e+00) (0, 0, 0.00000000000000000000e+00) (0, 0, 0.00000000000000000000e+00) (0, 0, 0.00000000000000000000e+00) (0, 0, 0.00000000000000000000e+00) (0, 0, 0.00000000000000000000e+00) (0, 0, 0.00000000000000000000e+00) (0, 0, 0.00000000000000000000e+00) (0, 0, 0.00000000000000000000e+00) (0, 0, 0.00000000000000000000e+00) (0, 0, 0.00000000000000000000e+00) (0, 0, 0.00000000000000000000e+00) (0, 0, 0.00000000000000000000e+00) (0, 0, 0.00000000000000000000e+00) (0, 0, 0.00000000000000000000e+00) (0, 0, 0.00000000000000000000e+00) (0, 0, 0.00000000000000000000e+00) (0, 0, 0.00000000000000000000e+00) (0, 0, 0.00000000000000000000e+00) (0, 0, 0.00000000000000000000e+00) (0, 0, 0.00000000000000000000e+00) (0, 0, 0.00000000000000000000e+00) (0, 0, 0.00000000000000000000e+00) (0, 0, 0.00000000000000000000e+00) (0, 0, 0.00000000000000000000e+00) (0, 0, 0.00000000000000000000e+00) (0, 0, 0.00000000000000000000e+00) (0, 0, 0.00000000000000000000e+00) (0, 0, 0.00000000000000000000e+00) (0, 0, 0.00000000000000000000e+00) (0, 0, 0.00000000000000000000e+00) (0, 0, 0.00000000000000000000e+00) (0, 0, 0.00000000000000000000e+00) (0, 0, 0.00000000000000000000e+00) (0, 0, 0.00000000000000000000e+00) (0, 0, 0.00000000000000000000e+00) (0, 0, 0.00000000000000000000e+00) (0, 0, 0.00000000000000000000e+00) (0, 0, 0.00000000000000000000e+00) (0, 0, 0.00000000000000000000e+00) (0, 0, 0.00000000000000000000e+00) (0, 0, 0.00000000000000000000e+00) (0, 0, 0.00000000000000000000e+00) (0, 0, 0.00000000000000000000e+00) (0, 0, 0.00000000000000000000e+00) (0, 0, 0.00000000000000000000e+00) (0, 0, 0.00000000000000000000e+00) (0, 0, 0.00000000000000000000e+00) (0, 0, 0.00000000000000000000e+00) (0, 0, 0.00000000000000000000e+00) (0, 0, 0.00000000000000000000e+00) (0, 0, 0.00000000000000000000e+00) (0, 0, 0.00000000000000000000e+00) (0, 0, 0.00000000000000000000e+00) (0, 0, 0.00000000000000000000e+00) (0, 0, 0.00000000000000000000e+00) (0, 0, 0.00000000000000000000e+00) (0, 0, 0.00000000000000000000e+00) (0, 0, 0.00000000000000000000e+00) (0, 0, 0.00000000000000000000e+00) (0, 0, 0.00000000000000000000e+00) (0, 0, 0.00000000000000000000e+00) (0, 0, 0.00000000000000000000e+00) (0, 0, 0.00000000000000000000e+00) (0, 0, 0.00000000000000000000e+00) (0, 0, 0.00000000000000000000e+00) (0, 0, 0.00000000000000000000e+00) (0, 0, 0.00000000000000000000e+00) (0, 0, 0.00000000000000000000e+00) (0, 0, 0.00000000000000000000e+00) (0, 0, 0.00000000000000000000e+00) (0, 0, 0.00000000000000000000e+00) (0, 0, 0.00000000000000000000e+00) (0, 0, 0.00000000000000000000e+00) (0, 0, 0.00000000000000000000e+00) (0, 0, 0.00000000000000000000e+00) (0, 0, 0.00000000000000000000e+00) (0, 0, 0.00000000000000000000e+00) (0, 0, 0.00000000000000000000e+00) (0, 0, 0.00000000000000000000e+00) (0, 0, 0.00000000000000000000e+00) (0, 0, 0.00000000000000000000e+00) (0, 0, 0.00000000000000000000e+00) (0, 0, 0.00000000000000000000e+00) (0, 0, 0.00000000000000000000e+00) (0, 0, 0.00000000000000000000e+00) (0, 0, 0.00000000000000000000e+00) (0, 0, 0.00000000000000000000e+00) (0, 0, 0.00000000000000000000e+00) (0, 0, 0.00000000000000000000e+00) (0, 0, 0.00000000000000000000e+00) (0, 0, 0.00000000000000000000e+00) (0, 0, 0.00000000000000000000e+00) (0, 0, 0.00000000000000000000e+00) (0, 0, 0.00000000000000000000e+00) (0, 0, 0.00000000000000000000e+00) (0, 0, 0.00000000000000000000e+00) (0, 0, 0.00000000000000000000e+00) (0, 0, 0.00000000000000000000e+00) (0, 0, 0.00000000000000000000e+00) (0, 0, 0.00000000000000000000e+00) (0, 0, 0.00000000000000000000e+00) (0, 0, 0.00000000000000000000e+00) (0, 0, 0.00000000000000000000e+00) (0, 0, 0.00000000000000000000e+00) (0, 0, 0.00000000000000000000e+00) (0, 0, 0.00000000000000000000e+00) (0, 0, 0.00000000000000000000e+00) (257, 11, 5.00000000000000000000e-01) (257, 11, 5.00000000000000000000e-01) (257, 11, 5.00000000000000000000e-01) (257, 11, 5.00000000000000000000e-01) (257, 11, 5.00000000000000000000e-01) (257, 11, 5.00000000000000000000e-01) (257, 11, 5.00000000000000000000e-01) (257, 11, 5.00000000000000000000e-01) (257, 11, 5.00000000000000000000e-01) (257, 11, 5.00000000000000000000e-01) (257, 11, 5.00000000000000000000e-01) (257, 11, 5.00000000000000000000e-01) (257, 11, 5.00000000000000000000e-01) (257, 11, 5.00000000000000000000e-01) (257, 11, 5.00000000000000000000e-01) (257, 11, 5.00000000000000000000e-01) (257, 11, 5.00000000000000000000e-01) (257, 11, 5.00000000000000000000e-01) (257, 11, 5.00000000000000000000e-01) (257, 11, 5.00000000000000000000e-01) (257, 11, 5.00000000000000000000e-01) (257, 11, 5.00000000000000000000e-01) (257, 11, 5.00000000000000000000e-01) (0, 11, 0.00000000000000000000e+00) (24, 11, 5.00000000000000000000e-01) (24, 11, 5.00000000000000000000e-01) (24, 11, 5.00000000000000000000e-01) (24, 11, 5.00000000000000000000e-01) (24, 11, 5.00000000000000000000e-01) (24, 11, 5.00000000000000000000e-01) (24, 11, 5.00000000000000000000e-01) (24, 11, 5.00000000000000000000e-01) (24, 11, 5.00000000000000000000e-01) (24, 11, 5.00000000000000000000e-01) (24, 11, 5.00000000000000000000e-01) (24, 11, 5.00000000000000000000e-01) (24, 11, 5.00000000000000000000e-01) (24, 11, 5.00000000000000000000e-01) (24, 11, 5.00000000000000000000e-01) (24, 11, 5.00000000000000000000e-01) (24, 11, 5.00000000000000000000e-01) (24, 11, 5.00000000000000000000e-01) (24, 11, 5.00000000000000000000e-01) (24, 11, 5.00000000000000000000e-01) (24, 11, 5.00000000000000000000e-01) (24, 11, 5.00000000000000000000e-01) (24, 11, 5.00000000000000000000e-01) (0, 11, 0.00000000000000000000e+00) (24, 11, 5.00000000000000000000e-01) (0, 11, 0.00000000000000000000e+00) 
connections (connected_to_neuron, weight)=(0, -3.69626141036860644817e-05) (1, 8.26226100325584411621e-02) (2, 2.50356420874595642090e-02) (3, -1.09132481738924980164e-02) (4, 7.75197967886924743652e-02) (5, 1.52849359437823295593e-02) (6, -1.30259813740849494934e-02) (7, 1.02838389575481414795e-01) (8, 2.92982626706361770630e-02) (9, 1.19297809898853302002e-01) (10, 6.65612816810607910156e-02) (11, 8.98479819297790527344e-02) (12, 1.83899357914924621582e-01) (13, 2.10087522864341735840e-01) (14, 2.68965028226375579834e-02) (15, 2.31106905266642570496e-03) (16, 6.67046085000038146973e-02) (17, 7.98988714814186096191e-02) (18, 4.89469096064567565918e-02) (19, 1.09384804964065551758e-01) (20, 1.03885538876056671143e-01) (21, 1.36262541636824607849e-02) (22, 1.10407851636409759521e-01) (23, 1.38905540108680725098e-01) (24, 5.24118822067975997925e-03) (25, 8.54964107275009155273e-02) (26, 9.65876039117574691772e-03) (27, 8.81156772375106811523e-02) (28, 5.06521947681903839111e-02) (29, 1.32507696747779846191e-01) (30, 1.07589066028594970703e-01) (31, -2.82885164022445678711e-01) (32, -3.26666012406349182129e-02) (33, -1.63769107311964035034e-02) (34, 1.05141632258892059326e-01) (35, 1.44910393282771110535e-02) (36, 5.27928806841373443604e-02) (37, 7.83959999680519104004e-02) (38, 3.46874222159385681152e-02) (39, 8.90597030520439147949e-02) (40, -1.13972939550876617432e-01) (41, -5.25056757032871246338e-02) (42, 1.29354193806648254395e-01) (43, 2.72168740630149841309e-02) (44, 4.04501371085643768311e-02) (45, 1.31451755762100219727e-01) (46, 2.30019222944974899292e-02) (47, 9.88590568304061889648e-02) (48, -3.31828981637954711914e-01) (49, 4.21551465988159179688e-02) (50, 3.80935855209827423096e-02) (51, 1.68270334601402282715e-01) (52, 1.88356768339872360229e-02) (53, 1.48808509111404418945e-01) (54, -6.11600512638688087463e-03) (55, -2.89807580411434173584e-02) (56, -2.86566197872161865234e-01) (57, 4.56355093047022819519e-03) (58, 6.40903413295745849609e-02) (59, -2.03808657824993133545e-02) (60, 1.52504205703735351563e-01) (61, 9.91676673293113708496e-02) (62, 9.16785895824432373047e-02) (63, -3.20129096508026123047e-01) (64, -2.14101329445838928223e-01) (65, -2.90666520595550537109e-01) (66, 8.61611217260360717773e-02) (67, 1.11851856112480163574e-01) (68, 1.57421395182609558105e-01) (69, 7.87822678685188293457e-02) (70, -3.32697838544845581055e-01) (71, -2.30435475707054138184e-01) (72, -2.27019727230072021484e-01) (73, 1.31628751754760742188e-01) (74, 1.58478230237960815430e-01) (75, 1.58365264534950256348e-01) (76, 3.56951802968978881836e-01) (77, 2.02388733625411987305e-01) (78, -2.45159879326820373535e-01) (79, -2.68471628427505493164e-01) (80, -3.99184107780456542969e-01) (81, 2.35205397009849548340e-01) (82, 1.03146001696586608887e-01) (83, 2.60712057352066040039e-01) (84, 3.23002219200134277344e-01) (85, 2.62824416160583496094e-01) (86, -2.76725381612777709961e-01) (87, -3.20972688496112823486e-02) (88, -8.52922141551971435547e-01) (89, -3.20669233798980712891e-01) (90, -2.90584322065114974976e-02) (91, 2.14375898241996765137e-01) (92, 3.35168056190013885498e-02) (93, 1.20297439396381378174e-01) (94, -2.46244832873344421387e-01) (95, -2.13038533926010131836e-01) (96, -3.30544412136077880859e-01) (97, -5.21259643137454986572e-02) (98, 1.29228457808494567871e-01) (99, 1.67114794254302978516e-01) (100, 8.33584517240524291992e-02) (101, 2.51806322485208511353e-02) (102, -2.63545125722885131836e-01) (103, -2.29293167591094970703e-01) (104, -2.59809136390686035156e-01) (105, 1.00096752867102622986e-02) (106, -6.84949476271867752075e-03) (107, 1.29857987165451049805e-01) (108, -4.51761558651924133301e-02) (109, 1.13170154392719268799e-01) (110, -2.95310169458389282227e-01) (111, -1.85100823640823364258e-01) (112, -3.13665986061096191406e-01) (113, 7.32098370790481567383e-02) (114, 1.54242485761642456055e-01) (115, 1.41953617334365844727e-01) (116, 1.13260023295879364014e-01) (117, -2.97264829277992248535e-02) (118, -4.52251672744750976563e-01) (119, -1.27011924982070922852e-01) (120, -1.86114847660064697266e-01) (121, 6.93689584732055664063e-02) (122, 4.44990582764148712158e-03) (123, 1.60767003893852233887e-01) (124, 6.59201592206954956055e-02) (125, -1.48346426431089639664e-03) (126, -2.71495133638381958008e-01) (127, -1.22579813003540039063e-01) (128, -6.44612312316894531250e-02) (129, 1.71676412224769592285e-01) (130, 9.15520116686820983887e-02) (131, 2.21497014164924621582e-01) (132, -2.39292625337839126587e-02) (133, 8.51911827921867370605e-02) (134, -3.16529035568237304688e-01) (135, -9.66815873980522155762e-02) (136, -2.22168266773223876953e-01) (137, 1.35761007666587829590e-01) (138, -3.54501642286777496338e-02) (139, -1.37288924306631088257e-02) (140, 9.09740105271339416504e-02) (141, 7.83700793981552124023e-02) (142, -2.18583017587661743164e-01) (143, -1.94326385855674743652e-01) (144, -1.24453611671924591064e-01) (145, 1.32805615663528442383e-01) (146, 1.16921678185462951660e-01) (147, 9.13330987095832824707e-02) (148, -1.77995320409536361694e-02) (149, 8.18002521991729736328e-02) (150, -3.40887904167175292969e-01) (151, -2.61518120765686035156e-01) (152, -2.28086903691291809082e-01) (153, -1.52861205860972404480e-02) (154, -5.56000359356403350830e-02) (155, 7.77774229645729064941e-02) (156, 1.53978422284126281738e-01) (157, 9.47979316115379333496e-02) (158, -3.14446061849594116211e-01) (159, -1.09777376055717468262e-01) (160, -1.64745599031448364258e-01) (161, 8.17343369126319885254e-02) (162, -2.92580146342515945435e-02) (163, 6.44768998026847839355e-02) (164, 9.72206145524978637695e-02) (165, 6.84441104531288146973e-02) (166, -2.51423627138137817383e-01) (167, -2.77985930442810058594e-01) (168, -7.82728344202041625977e-02) (169, -2.68759071826934814453e-01) (170, 1.13340355455875396729e-01) (171, 2.09397420287132263184e-01) (172, 1.30833745002746582031e-01) (173, 5.38106150925159454346e-02) (174, -1.60388454794883728027e-01) (175, -3.67169789969921112061e-02) (176, -1.63311719894409179688e-01) (177, -2.66611009836196899414e-01) (178, 1.25809580087661743164e-01) (179, 1.42277851700782775879e-01) (180, 8.74908566474914550781e-02) (181, 6.80531039834022521973e-02) (182, -2.49981537461280822754e-01) (183, -2.82037816941738128662e-02) (184, -6.23443961143493652344e-01) (185, -2.43992090225219726563e-01) (186, 2.75810062885284423828e-02) (187, 2.19219970703125000000e+00) (188, 1.59361273050308227539e-01) (189, 1.00898742675781250000e-01) (190, -3.11366289854049682617e-01) (191, -2.06878423690795898438e-01) (192, -1.78795188665390014648e-01) (193, -2.69214332103729248047e-01) (194, 4.90938164293766021729e-02) (195, 3.38784515857696533203e-01) (196, 1.72849968075752258301e-01) (197, 1.32824867963790893555e-01) (198, -3.18537473678588867188e-01) (199, -4.29539024829864501953e-01) (200, 5.92796765267848968506e-02) (201, -2.74582672864198684692e-03) (202, 3.04911267012357711792e-02) (203, 2.34138201922178268433e-02) (204, 8.36477279663085937500e-02) (205, -3.66222113370895385742e-02) (206, -3.47278416156768798828e-02) (207, 3.79719510674476623535e-02) (208, 4.66917194426059722900e-02) (209, 9.12875682115554809570e-02) (210, 8.17923918366432189941e-02) (211, 9.58350747823715209961e-02) (212, 7.88002610206604003906e-02) (213, -1.90819986164569854736e-02) (214, 1.30521371960639953613e-01) (215, 9.62736979126930236816e-02) (216, 1.39139518141746520996e-01) (217, 1.45776316523551940918e-01) (218, 3.73229198157787322998e-02) (219, 1.03611350059509277344e-02) (220, -1.32911736145615577698e-02) (221, 4.34866100549697875977e-02) (222, -3.40610742568969726563e-02) (223, -5.51845096051692962646e-02) (224, 1.32090717554092407227e-01) (225, 1.14224217832088470459e-01) (226, 1.96365490555763244629e-02) (227, 1.08863487839698791504e-01) (228, -5.60235092416405677795e-03) (229, -1.56738993246108293533e-03) (230, 5.17618097364902496338e-02) (231, 1.14386111497879028320e-01) (232, 1.09127335250377655029e-01) (233, 1.02188922464847564697e-02) (234, 8.11462104320526123047e-03) (235, 1.20663054287433624268e-01) (236, -2.78315767645835876465e-02) (237, 1.41638917848467826843e-02) (238, 1.17752179503440856934e-01) (239, -3.27480174601078033447e-02) (240, 1.15713901817798614502e-01) (241, 1.07777118682861328125e-01) (242, 9.26467105746269226074e-02) (243, -2.40092687308788299561e-02) (244, 1.28386288881301879883e-01) (245, -4.38959188759326934814e-02) (246, 1.48066654801368713379e-01) (247, -4.15057316422462463379e-02) (248, -4.62324582040309906006e-02) (249, 6.62988424301147460938e-02) (250, -1.93096846342086791992e-02) (251, 1.02565944194793701172e-01) (252, 7.26003758609294891357e-03) (253, 2.00076662003993988037e-02) (254, 5.21752908825874328613e-02) (255, 8.23526177555322647095e-03) (256, -7.79033973813056945801e-02) (0, 7.11932182312011718750e-01) (1, 7.00867056846618652344e-01) (2, 8.14136087894439697266e-01) (3, 7.33848690986633300781e-01) (4, 6.68966054916381835938e-01) (5, 7.15482056140899658203e-01) (6, 7.39859461784362792969e-01) (7, 7.43000447750091552734e-01) (8, 8.25891792774200439453e-01) (9, 6.28092527389526367188e-01) (10, 6.40116453170776367188e-01) (11, 8.02952110767364501953e-01) (12, 6.25455796718597412109e-01) (13, 8.25837135314941406250e-01) (14, 7.14451968669891357422e-01) (15, 6.87948465347290039063e-01) (16, 7.38010764122009277344e-01) (17, 6.80247485637664794922e-01) (18, 8.16597521305084228516e-01) (19, 8.38045299053192138672e-01) (20, 7.93709337711334228516e-01) (21, 7.83629834651947021484e-01) (22, 7.00528621673583984375e-01) (23, 7.07640767097473144531e-01) (24, 6.71783387660980224609e-01) (25, 6.42761468887329101563e-01) (26, 7.65952408313751220703e-01) (27, 7.15579807758331298828e-01) (28, 7.53058493137359619141e-01) (29, 7.64077603816986083984e-01) (30, 7.32372999191284179688e-01) (31, 7.76226758956909179688e-01) (32, 6.54206693172454833984e-01) (33, 7.75451064109802246094e-01) (34, 7.59614348411560058594e-01) (35, 7.10080444812774658203e-01) (36, 6.59940063953399658203e-01) (37, 7.90764331817626953125e-01) (38, 7.81895935535430908203e-01) (39, 7.24570512771606445313e-01) (40, 7.93630659580230712891e-01) (41, 7.79159307479858398438e-01) (42, 5.17358601093292236328e-01) (43, 4.31350290775299072266e-01) (44, 3.34433585405349731445e-01) (45, 4.69788253307342529297e-01) (46, 7.90753006935119628906e-01) (47, 8.21833252906799316406e-01) (48, 8.51312339305877685547e-01) (49, 7.65198647975921630859e-01) (50, 5.01165866851806640625e-01) (51, 4.01715368032455444336e-01) (52, 2.70149141550064086914e-01) (53, 3.60835254192352294922e-01) (54, 6.43302202224731445313e-01) (55, 7.19234228134155273438e-01) (56, 8.56222093105316162109e-01) (57, 7.08944082260131835938e-01) (58, 5.08740365505218505859e-01) (59, 4.68509137630462646484e-01) (60, 5.16087412834167480469e-01) (61, 3.34839493036270141602e-01) (62, 7.08105862140655517578e-01) (63, 7.54026770591735839844e-01) (64, 7.38773345947265625000e-01) (65, 8.24248611927032470703e-01) (66, 3.79093736410140991211e-01) (67, 3.67966592311859130859e-01) (68, 3.58031868934631347656e-01) (69, 4.48103576898574829102e-01) (70, 6.78114473819732666016e-01) (71, 7.82677173614501953125e-01) (72, 6.43218636512756347656e-01) (73, 8.41526329517364501953e-01) (74, 7.63107001781463623047e-01) (75, 3.24314117431640625000e-01) (76, 4.49672698974609375000e-01) (77, 7.10656583309173583984e-01) (78, 7.16764688491821289063e-01) (79, 7.08002388477325439453e-01) (80, 7.93798029422760009766e-01) (81, 7.62202322483062744141e-01) (82, 5.21162033081054687500e-01) (83, 4.07735764980316162109e-01) (84, 4.98107105493545532227e-01) (85, 3.44402194023132324219e-01) (86, 6.47567093372344970703e-01) (87, 7.48351097106933593750e-01) (88, 6.81424796581268310547e-01) (89, 7.47127652168273925781e-01) (90, 3.91088396310806274414e-01) (91, 4.36426997184753417969e-01) (92, 5.04710197448730468750e-01) (93, 4.37310993671417236328e-01) (94, 6.97787165641784667969e-01) (95, 7.71222770214080810547e-01) (96, 6.34004950523376464844e-01) (97, 8.37033033370971679688e-01) (98, 4.06688898801803588867e-01) (99, 2.92180776596069335938e-01) (100, 2.64720469713211059570e-01) (101, 6.68548047542572021484e-01) (102, 9.70545649528503417969e-01) (103, 6.71131014823913574219e-01) (104, 6.19643628597259521484e-01) (105, 8.72264087200164794922e-01) (106, 4.79539602994918823242e-01) (107, 3.93670171499252319336e-01) (108, 3.52796584367752075195e-01) (109, 6.63143873214721679688e-01) (110, 6.01135969161987304688e-01) (111, 7.80951678752899169922e-01) (112, 7.55645096302032470703e-01) (113, 6.08127832412719726563e-01) (114, 3.21403414011001586914e-01) (115, 3.46239298582077026367e-01) (116, 3.35435867309570312500e-01) (117, 7.70746588706970214844e-01) (118, 7.40567803382873535156e-01) (119, 9.46995198726654052734e-01) (120, 7.09380984306335449219e-01) (121, 6.54325246810913085938e-01) (122, 3.63679230213165283203e-01) (123, 4.01821374893188476563e-01) (124, 2.38386169075965881348e-01) (125, 7.21008658409118652344e-01) (126, 6.90163552761077880859e-01) (127, 1.97259533405303955078e+00) (128, 6.45299911499023437500e-01) (129, 7.63551414012908935547e-01) (130, 4.00179147720336914063e-01) (131, 4.05656874179840087891e-01) (132, 3.28331142663955688477e-01) (133, 9.19140815734863281250e-01) (134, 9.24835741519927978516e-01) (135, 2.40192031860351562500e+00) (136, 6.58316373825073242188e-01) (137, 8.78674924373626708984e-01) (138, 4.43541616201400756836e-01) (139, 3.17697376012802124023e-01) (140, 3.41788053512573242188e-01) (141, 7.94723689556121826172e-01) (142, 7.02780604362487792969e-01) (143, 4.87142294645309448242e-01) (144, 7.19141542911529541016e-01) (145, 8.27681541442871093750e-01) (146, 3.16297709941864013672e-01) (147, 3.38149487972259521484e-01) (148, 4.36009436845779418945e-01) (149, 6.42557859420776367188e-01) (150, 7.83261537551879882813e-01) (151, 6.78416490554809570313e-01) (152, 8.05848240852355957031e-01) (153, 8.11268448829650878906e-01) (154, 4.77738082408905029297e-01) (155, 3.89302462339401245117e-01) (156, 3.62163931131362915039e-01) (157, 8.20043563842773437500e-01) (158, 8.28639090061187744141e-01) (159, 8.78576636314392089844e-01) (160, 8.08730065822601318359e-01) (161, 7.83016800880432128906e-01) (162, 5.14867663383483886719e-01) (163, 3.58078837394714355469e-01) (164, 3.67936819791793823242e-01) (165, 8.50299537181854248047e-01) (166, 7.11784482002258300781e-01) (167, 7.56266653537750244141e-01) (168, 7.04487383365631103516e-01) (169, 7.69338250160217285156e-01) (170, 3.66562336683273315430e-01) (171, 1.90102010965347290039e-01) (172, 3.17350924015045166016e-01) (173, 6.89136803150177001953e-01) (174, 6.66396617889404296875e-01) (175, 9.11985158920288085938e-01) (176, 8.11897814273834228516e-01) (177, 8.87100279331207275391e-01) (178, 4.96260225772857666016e-01) (179, 3.78904521465301513672e-01) (180, 3.50211352109909057617e-01) (181, 9.23525214195251464844e-01) (182, 7.89182126522064208984e-01) (183, 1.23958897590637207031e+00) (184, 1.29332160949707031250e+00) (185, 8.51477205753326416016e-01) (186, 3.58867853879928588867e-01) (187, 2.48445630073547363281e-01) (188, 3.32627683877944946289e-01) (189, 3.97040516138076782227e-01) (190, 7.29801654815673828125e-01) (191, 6.38230681419372558594e-01) (192, 7.65400230884552001953e-01) (193, 6.45534634590148925781e-01) (194, 3.70537996292114257813e-01) (195, 4.26986068487167358398e-01) (196, 3.65581691265106201172e-01) (197, 3.88625442981719970703e-01) (198, 7.03911781311035156250e-01) (199, 9.57257926464080810547e-01) (200, 7.61985123157501220703e-01) (201, 8.65914165973663330078e-01) (202, 8.22354614734649658203e-01) (203, 8.12766313552856445313e-01) (204, 7.31480836868286132813e-01) (205, 7.43795871734619140625e-01) (206, 8.41429412364959716797e-01) (207, 8.14485788345336914063e-01) (208, 8.47521901130676269531e-01) (209, 2.98919707536697387695e-01) (210, 2.78536677360534667969e-01) (211, 3.13855051994323730469e-01) (212, 3.47999542951583862305e-01) (213, 8.30692291259765625000e-01) (214, 7.74251937866210937500e-01) (215, 7.92768657207489013672e-01) (216, 7.60202646255493164063e-01) (217, 6.78662419319152832031e-01) (218, 5.09329795837402343750e-01) (219, 4.24213558435440063477e-01) (220, 4.31178450584411621094e-01) (221, 7.93712437152862548828e-01) (222, 7.50540673732757568359e-01) (223, 6.99600517749786376953e-01) (224, 7.79514193534851074219e-01) (225, 7.72069334983825683594e-01) (226, 4.70579355955123901367e-01) (227, 7.77753710746765136719e-01) (228, 6.79348468780517578125e-01) (229, 6.87807023525238037109e-01) (230, 6.72531962394714355469e-01) (231, 8.00718903541564941406e-01) (232, 7.36480653285980224609e-01) (233, 8.16161096096038818359e-01) (234, 6.63262426853179931641e-01) (235, 7.43348777294158935547e-01) (236, 8.26040148735046386719e-01) (237, 7.46960401535034179688e-01) (238, 7.89591670036315917969e-01) (239, 7.03288555145263671875e-01) (240, 7.91589379310607910156e-01) (241, 6.74152016639709472656e-01) (242, 8.38837027549743652344e-01) (243, 7.67676115036010742188e-01) (244, 6.74952805042266845703e-01) (245, 6.73678815364837646484e-01) (246, 7.85792052745819091797e-01) (247, 8.02716374397277832031e-01) (248, 7.51013875007629394531e-01) (249, 8.83808076381683349609e-01) (250, 8.53497982025146484375e-01) (251, 7.77210175991058349609e-01) (252, 7.42366075515747070313e-01) (253, 7.87088334560394287109e-01) (254, 8.13136518001556396484e-01) (255, 8.31532478332519531250e-01) (256, 8.43336701393127441406e-01) (0, 5.78200340270996093750e-01) (1, 4.12028104066848754883e-01) (2, 4.70591306686401367188e-01) (3, 5.02415835857391357422e-01) (4, 5.17543137073516845703e-01) (5, 5.27436316013336181641e-01) (6, 4.47048455476760864258e-01) (7, 5.20655810832977294922e-01) (8, 4.52199310064315795898e-01) (9, 4.92419540882110595703e-01) (10, 3.44381302595138549805e-01) (11, 4.34066355228424072266e-01) (12, 4.08352106809616088867e-01) (13, 3.62458318471908569336e-01) (14, 5.24809837341308593750e-01) (15, 5.05960881710052490234e-01) (16, 4.22287970781326293945e-01) (17, 5.17729103565216064453e-01) (18, 4.21046167612075805664e-01) (19, 5.63662946224212646484e-01) (20, 4.33405786752700805664e-01) (21, 4.42419260740280151367e-01) (22, 3.35488408803939819336e-01) (23, 4.52773571014404296875e-01) (24, 4.36495333909988403320e-01) (25, 3.87722134590148925781e-01) (26, 5.06467163562774658203e-01) (27, 4.36393737792968750000e-01) (28, 5.34480035305023193359e-01) (29, 5.11072456836700439453e-01) (30, 3.37537676095962524414e-01) (31, 5.21904289722442626953e-01) (32, 4.66938376426696777344e-01) (33, 4.60305929183959960938e-01) (34, 4.05609488487243652344e-01) (35, 4.40196394920349121094e-01) (36, 4.39635187387466430664e-01) (37, 5.08560001850128173828e-01) (38, 4.21934038400650024414e-01) (39, 4.98041212558746337891e-01) (40, 4.73824322223663330078e-01) (41, 3.25611740350723266602e-01) (42, 3.19764524698257446289e-01) (43, 2.79299587011337280273e-01) (44, 3.30981791019439697266e-01) (45, 4.47242438793182373047e-01) (46, 3.34250360727310180664e-01) (47, 4.64740097522735595703e-01) (48, 4.12025719881057739258e-01) (49, 4.33154851198196411133e-01) (50, 4.09160852432250976563e-01) (51, 4.22808021306991577148e-01) (52, 4.19090807437896728516e-01) (53, 5.02332687377929687500e-01) (54, 3.63415688276290893555e-01) (55, 2.91006237268447875977e-01) (56, 4.01999801397323608398e-01) (57, 3.95964622497558593750e-01) (58, 3.31663370132446289063e-01) (59, 5.35461783409118652344e-01) (60, 3.79594206809997558594e-01) (61, 3.46909463405609130859e-01) (62, 5.04995644092559814453e-01) (63, 1.39349102973937988281e-01) (64, 4.78102684020996093750e-01) (65, 4.37224954366683959961e-01) (66, 4.08076435327529907227e-01) (67, 5.54913222789764404297e-01) (68, 4.56106454133987426758e-01) (69, 4.99201387166976928711e-01) (70, 5.87024927139282226563e-01) (71, 3.25210064649581909180e-01) (72, 2.26576954126358032227e-01) (73, 4.87427890300750732422e-01) (74, 4.10553097724914550781e-01) (75, 4.68945592641830444336e-01) (76, 3.77285182476043701172e-01) (77, 3.91826182603836059570e-01) (78, 2.44319275021553039551e-01) (79, 1.30818769335746765137e-01) (80, 1.57832890748977661133e-01) (81, 5.29605746269226074219e-01) (82, 5.14552414417266845703e-01) (83, 3.51676076650619506836e-01) (84, 4.37326371669769287109e-01) (85, 4.94005799293518066406e-01) (86, 1.66964337229728698730e-01) (87, 8.95480737090110778809e-02) (88, 1.55301868915557861328e-01) (89, 4.30593073368072509766e-01) (90, 5.65037488937377929688e-01) (91, 3.29750567674636840820e-01) (92, 4.20374453067779541016e-01) (93, 5.72937071323394775391e-01) (94, 2.90032804012298583984e-01) (95, 1.29367768764495849609e-01) (96, 1.62840515375137329102e-01) (97, 4.45052504539489746094e-01) (98, 4.75622117519378662109e-01) (99, 4.25736963748931884766e-01) (100, 2.99032121896743774414e-01) (101, 5.64250171184539794922e-01) (102, 3.47669333219528198242e-01) (103, 1.15484997630119323730e-01) (104, 2.80748128890991210938e-01) (105, 4.34082806110382080078e-01) (106, 4.93612706661224365234e-01) (107, 3.37010264396667480469e-01) (108, 4.75805878639221191406e-01) (109, 4.22669798135757446289e-01) (110, 1.75189614295959472656e-01) (111, 1.68239340186119079590e-01) (112, 1.72795057296752929688e-01) (113, 4.31399196386337280273e-01) (114, 3.26886504888534545898e-01) (115, 4.15760159492492675781e-01) (116, 4.67015624046325683594e-01) (117, 4.99468564987182617188e-01) (118, 2.82902449369430541992e-01) (119, 2.46704429388046264648e-01) (120, 9.86199229955673217773e-02) (121, 5.15617787837982177734e-01) (122, 4.69020426273345947266e-01) (123, 4.00088936090469360352e-01) (124, 3.41871172189712524414e-01) (125, 4.92280960083007812500e-01) (126, 2.02609553933143615723e-01) (127, 3.31009984016418457031e-01) (128, 4.79672372341156005859e-01) (129, 5.67314982414245605469e-01) (130, 4.22700822353363037109e-01) (131, 2.85828828811645507813e-01) (132, 4.23335701227188110352e-01) (133, 4.05898362398147583008e-01) (134, 1.76981896162033081055e-01) (135, 3.56931895017623901367e-01) (136, 4.23586428165435791016e-01) (137, 5.03963828086853027344e-01) (138, 4.35605108737945556641e-01) (139, 4.15577411651611328125e-01) (140, 5.45304477214813232422e-01) (141, 3.83044034242630004883e-01) (142, 1.58454537391662597656e-01) (143, -4.00721728801727294922e-01) (144, 5.02262294292449951172e-01) (145, 4.73941802978515625000e-01) (146, 4.24738645553588867188e-01) (147, 3.55356514453887939453e-01) (148, 4.25429433584213256836e-01) (149, 5.70441186428070068359e-01) (150, 1.42429605126380920410e-01) (151, -2.42840975522994995117e-01) (152, 2.68749862909317016602e-01) (153, 4.99537378549575805664e-01) (154, 4.21235918998718261719e-01) (155, 4.14582103490829467773e-01) (156, 3.49673032760620117188e-01) (157, 4.02923166751861572266e-01) (158, 1.92878291010856628418e-01) (159, 1.31341978907585144043e-01) (160, 2.01672479510307312012e-01) (161, 4.69713538885116577148e-01) (162, 4.32731539011001586914e-01) (163, 3.94455254077911376953e-01) (164, 4.73252832889556884766e-01) (165, 4.25623983144760131836e-01) (166, 1.34995490312576293945e-01) (167, 1.81644111871719360352e-01) (168, 1.39677539467811584473e-01) (169, 3.67219567298889160156e-01) (170, 4.87699806690216064453e-01) (171, 4.40124899148941040039e-01) (172, 4.04565602540969848633e-01) (173, 4.40194457769393920898e-01) (174, 2.74711370468139648438e-01) (175, 2.63019084930419921875e-01) (176, 1.53150349855422973633e-01) (177, 5.27428090572357177734e-01) (178, 5.35199284553527832031e-01) (179, 2.54412591457366943359e-01) (180, 4.13646370172500610352e-01) (181, 5.91542243957519531250e-01) (182, 1.54406473040580749512e-01) (183, 6.10730588436126708984e-01) (184, 8.47273543477058410645e-02) (185, 3.57662200927734375000e-01) (186, 2.95679926872253417969e-01) (187, 3.86431962251663208008e-01) (188, 4.00440365076065063477e-01) (189, 5.33648848533630371094e-01) (190, 1.96900933980941772461e-01) (191, 1.68663203716278076172e-01) (192, 3.50605279207229614258e-01) (193, 4.57923412322998046875e-01) (194, 5.75823664665222167969e-01) (195, 4.21535372734069824219e-01) (196, 3.48097234964370727539e-01) (197, 5.25185763835906982422e-01) (198, 4.23285573720932006836e-01) (199, 2.81736910343170166016e-01) (200, 5.44434547424316406250e-01) (201, 4.76546883583068847656e-01) (202, 5.26780724525451660156e-01) (203, 5.48988759517669677734e-01) (204, 5.06151020526885986328e-01) (205, 4.29858833551406860352e-01) (206, 4.66803729534149169922e-01) (207, 4.12741124629974365234e-01) (208, 5.61157047748565673828e-01) (209, 4.28432106971740722656e-01) (210, 4.26841825246810913086e-01) (211, 4.90300565958023071289e-01) (212, 4.90136235952377319336e-01) (213, 4.48224812746047973633e-01) (214, 4.15761828422546386719e-01) (215, 4.89849865436553955078e-01) (216, 4.59281444549560546875e-01) (217, 3.68320643901824951172e-01) (218, 4.10896778106689453125e-01) (219, 4.82655197381973266602e-01) (220, 3.91303896903991699219e-01) (221, 5.51651537418365478516e-01) (222, 4.60872888565063476563e-01) (223, 4.64977413415908813477e-01) (224, 5.43980956077575683594e-01) (225, 4.92486774921417236328e-01) (226, 5.04861414432525634766e-01) (227, 5.12443542480468750000e-01) (228, 4.54401284456253051758e-01) (229, 4.85999882221221923828e-01) (230, 3.69491398334503173828e-01) (231, 3.58572006225585937500e-01) (232, 4.97617870569229125977e-01) (233, 5.21937370300292968750e-01) (234, 5.51975071430206298828e-01) (235, 4.45939302444458007813e-01) (236, 5.02585589885711669922e-01) (237, 4.81273621320724487305e-01) (238, 5.15228033065795898438e-01) (239, 4.79517042636871337891e-01) (240, 4.10878926515579223633e-01) (241, 5.08937299251556396484e-01) (242, 4.10012215375900268555e-01) (243, 4.34850543737411499023e-01) (244, 4.59125906229019165039e-01) (245, 4.70351338386535644531e-01) (246, 4.88281697034835815430e-01) (247, 5.11615216732025146484e-01) (248, 3.73794674873352050781e-01) (249, 5.20102560520172119141e-01) (250, 4.04879897832870483398e-01) (251, 5.68441867828369140625e-01) (252, 5.23843884468078613281e-01) (253, 4.25561010837554931641e-01) (254, 3.91957849264144897461e-01) (255, 5.06573557853698730469e-01) (256, 5.38515985012054443359e-01) (0, -6.53700157999992370605e-02) (1, -1.18613071739673614502e-01) (2, -1.49200722575187683105e-01) (3, -9.60384085774421691895e-02) (4, -1.57268434762954711914e-01) (5, -1.23801060020923614502e-01) (6, -1.01962663233280181885e-01) (7, -3.39850187301635742188e-02) (8, -5.18546588718891143799e-02) (9, -2.53266636282205581665e-02) (10, -9.22716110944747924805e-02) (11, -1.29056632518768310547e-01) (12, -1.52870193123817443848e-01) (13, -8.74570310115814208984e-02) (14, -1.43010362982749938965e-01) (15, -7.91646242141723632813e-02) (16, -4.34777587652206420898e-02) (17, -1.05549469590187072754e-01) (18, -1.42437592148780822754e-01) (19, -3.68568189442157745361e-02) (20, -1.19241125881671905518e-01) (21, -3.53737100958824157715e-02) (22, -1.04999393224716186523e-01) (23, 1.87667105346918106079e-02) (24, -2.44753342121839523315e-02) (25, 8.72934889048337936401e-03) (26, 2.52899639308452606201e-02) (27, 7.25895315408706665039e-02) (28, 1.06222771108150482178e-01) (29, 8.37401598691940307617e-02) (30, 3.52459512650966644287e-02) (31, 2.31609046459197998047e-02) (32, 2.97064967453479766846e-02) (33, 9.16025936603546142578e-02) (34, -3.42539511620998382568e-02) (35, -7.39120393991470336914e-02) (36, 1.37913331389427185059e-01) (37, 1.32058309391140937805e-02) (38, 6.38160705566406250000e-02) (39, -2.74960249662399291992e-02) (40, 7.64833167195320129395e-02) (41, 3.31188254058361053467e-02) (42, -7.49584659934043884277e-02) (43, 1.52362063527107238770e-01) (44, 4.97002825140953063965e-02) (45, 1.04567356407642364502e-01) (46, 5.72535535320639610291e-03) (47, -4.84076626598834991455e-02) (48, 1.28107639029622077942e-02) (49, -3.84558029472827911377e-02) (50, -1.37500446289777755737e-02) (51, 1.49986803531646728516e-01) (52, -2.22966149449348449707e-02) (53, 1.21955916285514831543e-01) (54, 3.29381301999092102051e-02) (55, 3.57321314513683319092e-02) (56, 1.52594804763793945313e-01) (57, 7.86530375480651855469e-02) (58, 1.24896811321377754211e-02) (59, 1.22298987116664648056e-03) (60, 6.12486861646175384521e-02) (61, -3.86153161525726318359e-02) (62, 1.21403701603412628174e-01) (63, -2.91685223579406738281e-01) (64, 4.48689490556716918945e-01) (65, -5.27669116854667663574e-03) (66, 5.63520640134811401367e-02) (67, 4.07049292698502540588e-03) (68, 5.42613118886947631836e-03) (69, 9.10050868988037109375e-02) (70, 9.36523228883743286133e-02) (71, -3.99112850427627563477e-01) (72, -3.96575555205345153809e-02) (73, 1.63260757923126220703e-01) (74, -6.44863843917846679688e-02) (75, 3.44526171684265136719e-02) (76, 5.48520326614379882813e-01) (77, 4.76278318092226982117e-03) (78, -3.27526181936264038086e-01) (79, -1.72888353466987609863e-01) (80, -1.41262978315353393555e-01) (81, 7.27062374353408813477e-02) (82, 4.76621016860008239746e-02) (83, 5.83108782768249511719e-01) (84, 4.90267604589462280273e-01) (85, 1.15994676947593688965e-01) (86, -5.76472401618957519531e-01) (87, -4.51703429222106933594e-01) (88, -1.11793458461761474609e-01) (89, 1.66768595576286315918e-01) (90, 3.59302833676338195801e-02) (91, 6.26789689064025878906e-01) (92, 5.39190769195556640625e-01) (93, 9.20555591583251953125e-02) (94, -2.06008777022361755371e-01) (95, -3.50114822387695312500e-01) (96, 1.98247253894805908203e-01) (97, 1.27246631309390068054e-02) (98, 5.66801168024539947510e-02) (99, 8.32633152604103088379e-02) (100, 5.99420249462127685547e-01) (101, 1.99419125914573669434e-01) (102, -2.43229553103446960449e-01) (103, -1.20978169143199920654e-01) (104, 9.72473323345184326172e-02) (105, 1.61362320184707641602e-01) (106, 5.85983209311962127686e-02) (107, 6.81876316666603088379e-02) (108, 6.03191733360290527344e-01) (109, 1.22058883309364318848e-01) (110, -1.39004036784172058105e-01) (111, -5.66124469041824340820e-02) (112, -1.35728763416409492493e-02) (113, 1.93025588989257812500e-01) (114, 1.26880720257759094238e-01) (115, 2.04340055584907531738e-01) (116, 1.51107296347618103027e-01) (117, -3.71130146086215972900e-02) (118, -6.99059292674064636230e-02) (119, -3.72390449047088623047e-02) (120, -2.02368929982185363770e-01) (121, 1.52498204261064529419e-02) (122, 1.36030716821551322937e-02) (123, 8.02509710192680358887e-02) (124, 7.34115242958068847656e-02) (125, 6.79883807897567749023e-02) (126, -1.92675545811653137207e-01) (127, -1.92316576838493347168e-01) (128, 4.68386560678482055664e-01) (129, 1.63489371538162231445e-01) (130, 1.38612106442451477051e-01) (131, 1.54517129063606262207e-01) (132, 1.55010342597961425781e-01) (133, -3.72073613107204437256e-02) (134, -4.74249899387359619141e-01) (135, -2.57400006055831909180e-01) (136, 3.16014826297760009766e-01) (137, 8.01498815417289733887e-02) (138, -3.47308963537216186523e-02) (139, 4.98762652277946472168e-02) (140, 1.58109799027442932129e-01) (141, 8.52405950427055358887e-02) (142, -1.71508476138114929199e-01) (143, -9.63568314909934997559e-02) (144, 2.12402969598770141602e-01) (145, 7.24606290459632873535e-02) (146, 2.34746541827917098999e-02) (147, 1.39112681150436401367e-01) (148, 1.50211170315742492676e-01) (149, -3.47804045304656028748e-04) (150, -3.62776696681976318359e-01) (151, -1.09514638781547546387e-01) (152, -4.43525403738021850586e-01) (153, 1.07645541429519653320e-01) (154, -1.11976079642772674561e-01) (155, 6.47815540432929992676e-02) (156, 4.97461199760437011719e-01) (157, 6.15104064345359802246e-02) (158, -3.19653302431106567383e-01) (159, -4.60164062678813934326e-02) (160, -2.05277517437934875488e-01) (161, -1.01168088614940643311e-01) (162, -5.25698475539684295654e-02) (163, 1.50690987706184387207e-01) (164, 1.40951693058013916016e-01) (165, -3.67573909461498260498e-02) (166, -2.95549333095550537109e-01) (167, -5.88379129767417907715e-02) (168, 3.43090891838073730469e-01) (169, 1.67202547192573547363e-01) (170, 6.04345947504043579102e-02) (171, 1.15285269916057586670e-01) (172, 4.09250780940055847168e-02) (173, -3.32583039999008178711e-02) (174, -2.27123960852622985840e-01) (175, -5.92404380440711975098e-02) (176, -2.41575762629508972168e-01) (177, 3.56983914971351623535e-02) (178, 6.31124246865510940552e-03) (179, -4.05287258327007293701e-02) (180, -1.73433527350425720215e-01) (181, -4.85426671802997589111e-02) (182, -2.79779851436614990234e-01) (183, -2.27756485342979431152e-01) (184, -3.73256087303161621094e-01) (185, 4.22908924520015716553e-02) (186, 9.96696501970291137695e-02) (187, 6.47126510739326477051e-02) (188, 1.68302357196807861328e-02) (189, 7.34256282448768615723e-02) (190, -3.02257299423217773438e-01) (191, -1.46606579422950744629e-01) (192, -3.60740236937999725342e-02) (193, 1.21404118835926055908e-01) (194, 7.99985080957412719727e-02) (195, 7.05935955047607421875e-02) (196, 8.54007452726364135742e-02) (197, 1.22710846364498138428e-01) (198, -3.67923349142074584961e-01) (199, -3.65650713443756103516e-01) (200, -5.36961071193218231201e-02) (201, 1.10815659165382385254e-01) (202, 9.35626998543739318848e-02) (203, 1.05272009968757629395e-01) (204, 4.88319760188460350037e-03) (205, -4.21297177672386169434e-02) (206, 9.05417948961257934570e-02) (207, 8.72819945216178894043e-02) (208, 8.30185189843177795410e-02) (209, 5.41123002767562866211e-02) (210, -1.69273987412452697754e-02) (211, 1.09693400561809539795e-01) (212, 8.54895636439323425293e-03) (213, 6.92433416843414306641e-02) (214, -5.14428615570068359375e-02) (215, -6.67467191815376281738e-02) (216, -6.61007463932037353516e-02) (217, 1.07847981154918670654e-01) (218, 2.23841872066259384155e-02) (219, 3.63085493445396423340e-02) (220, -2.48737651854753494263e-02) (221, -3.12373638153076171875e-02) (222, 8.70379433035850524902e-02) (223, -9.88778378814458847046e-03) (224, -1.06667131185531616211e-01) (225, 9.13846194744110107422e-02) (226, 8.72155576944351196289e-02) (227, 3.60743911005556583405e-03) (228, 9.39893051981925964355e-02) (229, 2.10772696882486343384e-02) (230, -7.62710347771644592285e-02) (231, -1.81834399700164794922e-01) (232, -1.25549554824829101563e-01) (233, -4.97494749724864959717e-02) (234, 4.82924468815326690674e-02) (235, 3.41572128236293792725e-02) (236, 3.14082726836204528809e-02) (237, -1.46841868758201599121e-01) (238, -2.97584645450115203857e-02) (239, -1.69078707695007324219e-02) (240, 4.07275371253490447998e-02) (241, -9.85484421253204345703e-02) (242, -7.33638107776641845703e-02) (243, -7.93183371424674987793e-02) (244, 2.22867541015148162842e-02) (245, -9.45351272821426391602e-02) (246, -1.55748613178730010986e-03) (247, -1.62083536386489868164e-01) (248, -1.10919475555419921875e-02) (249, -1.51664406061172485352e-01) (250, 1.52016859501600265503e-02) (251, -8.77147614955902099609e-02) (252, -1.70814156532287597656e-01) (253, -4.54081259667873382568e-02) (254, -4.39697206020355224609e-02) (255, -1.13634087145328521729e-01) (256, -6.61985352635383605957e-02) (0, 6.29442706704139709473e-02) (1, 1.00382380187511444092e-01) (2, -6.38699829578399658203e-02) (3, 8.20004492998123168945e-02) (4, -7.26721584796905517578e-02) (5, -9.18184444308280944824e-02) (6, 2.35739983618259429932e-02) (7, -1.39298783615231513977e-02) (8, -2.30672396719455718994e-02) (9, 5.91447092592716217041e-02) (10, 6.46752491593360900879e-02) (11, -2.21295710653066635132e-02) (12, -5.93489482998847961426e-02) (13, -3.06191984564065933228e-02) (14, -4.77622263133525848389e-02) (15, 1.04170599952340126038e-02) (16, 1.05392076075077056885e-02) (17, -6.00332878530025482178e-02) (18, -2.49907653778791427612e-02) (19, -4.91600530222058296204e-03) (20, 5.03143817186355590820e-02) (21, -6.89663365483283996582e-02) (22, -3.69816683232784271240e-02) (23, 7.06728845834732055664e-02) (24, -1.67107600718736648560e-02) (25, -2.25031226873397827148e-02) (26, -5.71894319728016853333e-03) (27, -7.90686532855033874512e-02) (28, -5.68649135529994964600e-02) (29, -8.58409926295280456543e-02) (30, -7.06107765436172485352e-02) (31, -1.09184995293617248535e-01) (32, -1.12563796341419219971e-01) (33, 4.37542708823457360268e-04) (34, -8.57335180044174194336e-02) (35, 7.93803855776786804199e-02) (36, -5.76077848672866821289e-02) (37, 9.35524851083755493164e-02) (38, 7.91656896471977233887e-02) (39, -4.38083857297897338867e-02) (40, 3.28226648271083831787e-02) (41, 4.25515025854110717773e-02) (42, 3.22635136544704437256e-02) (43, 7.34450444579124450684e-02) (44, -1.26284370198845863342e-02) (45, 5.45858256518840789795e-02) (46, 8.86365696787834167480e-02) (47, -6.35322779417037963867e-02) (48, -7.68628790974617004395e-02) (49, 1.17750214412808418274e-02) (50, 3.68901491165161132813e-02) (51, 6.90588727593421936035e-02) (52, 4.28214184939861297607e-02) (53, 1.59206110984086990356e-02) (54, 3.74589883722364902496e-03) (55, -2.02581053599715232849e-04) (56, 3.11601180583238601685e-02) (57, 4.40999045968055725098e-02) (58, 1.04380458593368530273e-01) (59, 5.53265325725078582764e-02) (60, -3.57041247189044952393e-02) (61, 5.57241365313529968262e-02) (62, -1.69829167425632476807e-02) (63, -7.13879093527793884277e-02) (64, 2.56715957075357437134e-02) (65, -9.96802002191543579102e-02) (66, 5.32483831048011779785e-02) (67, -3.22941020131111145020e-02) (68, -1.57832279801368713379e-02) (69, 1.24558679759502410889e-01) (70, -3.80308665335178375244e-02) (71, -2.84260332584381103516e-01) (72, -1.71528961509466171265e-02) (73, -5.45012159273028373718e-03) (74, 2.40117008797824382782e-03) (75, 1.42014011740684509277e-01) (76, -2.15522293001413345337e-03) (77, -8.41229483485221862793e-02) (78, 9.99602526426315307617e-02) (79, 1.80284768342971801758e-01) (80, 3.19401849992573261261e-03) (81, 9.87683609127998352051e-02) (82, 1.43578723073005676270e-02) (83, -1.29446247592568397522e-02) (84, 1.11411124467849731445e-01) (85, 2.21486203372478485107e-02) (86, -6.38774363324046134949e-03) (87, 2.41677323356270790100e-03) (88, 6.53782337903976440430e-02) (89, -2.31079999357461929321e-02) (90, 8.57634544372558593750e-02) (91, -5.29353227466344833374e-03) (92, 2.98586282879114151001e-02) (93, -8.35348442196846008301e-02) (94, 1.97969317436218261719e-01) (95, 1.17928989231586456299e-01) (96, 2.69502818584442138672e-01) (97, -7.35013037919998168945e-02) (98, -1.08908012509346008301e-01) (99, 2.34188865870237350464e-02) (100, 1.12619586288928985596e-01) (101, -6.33935555815696716309e-02) (102, -3.02551779896020889282e-02) (103, 5.56619688868522644043e-02) (104, -2.55445897579193115234e-01) (105, 2.83863255754113197327e-03) (106, 7.43116885423660278320e-02) (107, 1.08892004936933517456e-02) (108, 5.67497406154870986938e-03) (109, -1.34568288922309875488e-01) (110, -8.58598574995994567871e-02) (111, 2.61592328548431396484e-01) (112, 4.86451666802167892456e-03) (113, 1.00394181907176971436e-01) (114, 9.24904346466064453125e-02) (115, 9.38727855682373046875e-02) (116, 3.79478223621845245361e-02) (117, 4.55671995878219604492e-02) (118, -7.34795182943344116211e-02) (119, 5.18705487251281738281e-01) (120, 8.48451852798461914063e-02) (121, 6.76985681056976318359e-02) (122, 2.27730572223663330078e-02) (123, 1.63017623126506805420e-02) (124, -5.48208877444267272949e-02) (125, -2.82496083527803421021e-02) (126, 2.62976922094821929932e-02) (127, 4.76885825395584106445e-01) (128, 1.03888697922229766846e-02) (129, -6.87148794531822204590e-02) (130, -4.38053160905838012695e-02) (131, -9.21194348484277725220e-03) (132, -2.66965162009000778198e-02) (133, -1.18315434083342552185e-02) (134, 1.53723716735839843750e-01) (135, 3.63186329603195190430e-01) (136, -3.25740203261375427246e-02) (137, 8.74391719698905944824e-02) (138, -2.27544587105512619019e-02) (139, -7.31256306171417236328e-02) (140, -2.23207706585526466370e-03) (141, -8.09846818447113037109e-02) (142, 7.38357454538345336914e-02) (143, 2.63506740331649780273e-01) (144, 1.86165750026702880859e-01) (145, -8.49860385060310363770e-02) (146, -2.12897639721632003784e-02) (147, -7.15885162353515625000e-02) (148, -2.79064606875181198120e-02) (149, -1.95000041276216506958e-02) (150, 2.18437597155570983887e-01) (151, 2.77256131172180175781e-01) (152, -4.01204451918601989746e-02) (153, -7.05053582787513732910e-02) (154, -1.07939384877681732178e-01) (155, 6.17903992533683776855e-02) (156, 2.86976397037506103516e-02) (157, 4.23764884471893310547e-02) (158, 2.57631808519363403320e-01) (159, 1.45958453416824340820e-01) (160, -1.27555951476097106934e-01) (161, 9.43411067128181457520e-02) (162, 5.81723041832447052002e-02) (163, 7.64365345239639282227e-02) (164, 9.41948294639587402344e-02) (165, 1.86035886406898498535e-01) (166, 5.19719608128070831299e-02) (167, -1.58598646521568298340e-01) (168, -7.77334198355674743652e-02) (169, -5.81905581057071685791e-02) (170, -6.24959394335746765137e-02) (171, 5.67322270944714546204e-03) (172, 7.32730180025100708008e-02) (173, 8.70137568563222885132e-03) (174, 4.15587890893220901489e-03) (175, 2.74104416370391845703e-01) (176, 6.21631881222128868103e-03) (177, -1.15974806249141693115e-01) (178, 5.29294312000274658203e-02) (179, 5.11837080121040344238e-02) (180, 2.39076521247625350952e-02) (181, -2.58335527032613754272e-02) (182, 4.07510325312614440918e-02) (183, 2.44213398545980453491e-02) (184, -2.50869430601596832275e-03) (185, -1.10411620698869228363e-03) (186, 1.12738050520420074463e-01) (187, 1.73999682068824768066e-01) (188, -1.41611071303486824036e-02) (189, -7.41480067372322082520e-02) (190, 1.28495052456855773926e-01) (191, 1.57206561416387557983e-02) (192, -4.96197342872619628906e-02) (193, 1.89834311604499816895e-02) (194, -6.07335269451141357422e-02) (195, -6.38046115636825561523e-02) (196, 8.32016989588737487793e-02) (197, 9.39852818846702575684e-02) (198, 2.68049668520689010620e-02) (199, 2.09066197276115417480e-02) (200, -1.38500452041625976563e-01) (201, -1.46444529294967651367e-01) (202, -6.91912099719047546387e-02) (203, 9.45641775615513324738e-04) (204, -1.94572638720273971558e-02) (205, 4.35243956744670867920e-02) (206, -4.66685509309172630310e-03) (207, -3.05608790367841720581e-02) (208, -7.79075771570205688477e-02) (209, -2.50378325581550598145e-02) (210, 5.72985000908374786377e-02) (211, 3.49259562790393829346e-02) (212, -4.60697785019874572754e-02) (213, -6.09494447708129882813e-02) (214, -3.86139340698719024658e-02) (215, 1.37333758175373077393e-02) (216, -3.19297462701797485352e-02) (217, -5.27818389236927032471e-02) (218, -3.18680852651596069336e-02) (219, 7.89609104394912719727e-02) (220, -3.20129767060279846191e-02) (221, 8.38712081313133239746e-02) (222, -9.33271721005439758301e-02) (223, 5.78444898128509521484e-02) (224, 5.87000697851181030273e-02) (225, 5.16269356012344360352e-02) (226, 8.41255262494087219238e-02) (227, -9.01025836355984210968e-04) (228, 1.79384648799896240234e-02) (229, 1.88101772218942642212e-02) (230, -7.19791650772094726563e-02) (231, 3.89296934008598327637e-02) (232, 6.33635446429252624512e-02) (233, -6.78381184116005897522e-03) (234, 9.56594571471214294434e-02) (235, -7.91768804192543029785e-02) (236, 1.84612441807985305786e-02) (237, 1.23064368963241577148e-01) (238, -5.48214912414550781250e-02) (239, 4.14691753685474395752e-02) (240, 3.49236326292157173157e-03) (241, -3.24027352035045623779e-02) (242, 1.03405520319938659668e-01) (243, 4.54152449965476989746e-02) (244, 9.53711047768592834473e-02) (245, -9.10760089755058288574e-02) (246, 4.30328026413917541504e-02) (247, -9.34600681066513061523e-02) (248, 6.98089301586151123047e-02) (249, -7.29830237105488777161e-04) (250, 2.68394071608781814575e-02) (251, -3.03086265921592712402e-03) (252, -6.49227946996688842773e-02) (253, -7.94765725731849670410e-02) (254, -7.33432471752166748047e-02) (255, -2.14885268360376358032e-02) (256, -4.56829927861690521240e-02) (0, -5.12206135317683219910e-03) (1, -1.19779638946056365967e-01) (2, 3.13241453841328620911e-03) (3, 7.43114650249481201172e-02) (4, -7.32913315296173095703e-02) (5, 4.03872951865196228027e-02) (6, -3.30184586346149444580e-02) (7, -1.06070257723331451416e-01) (8, 3.02394162863492965698e-02) (9, 8.35593715310096740723e-02) (10, -6.03746622800827026367e-02) (11, -1.07247494161128997803e-01) (12, 4.17033545672893524170e-02) (13, -2.41308640688657760620e-02) (14, 3.74552607536315917969e-02) (15, -1.06169335544109344482e-01) (16, -2.11191037669777870178e-03) (17, -6.14805817604064941406e-02) (18, -2.77406396344304084778e-03) (19, -8.48047137260437011719e-02) (20, -4.07443530857563018799e-02) (21, -1.07731431722640991211e-01) (22, -4.48047555983066558838e-02) (23, 7.70413205027580261230e-02) (24, 2.04130094498395919800e-02) (25, -1.00294932723045349121e-01) (26, -8.51229876279830932617e-02) (27, 1.69836729764938354492e-02) (28, 3.70605289936065673828e-02) (29, 3.75235863029956817627e-02) (30, 2.10362412035465240479e-02) (31, -6.87887743115425109863e-02) (32, -4.84466813504695892334e-02) (33, 3.17972153425216674805e-02) (34, -6.35677650570869445801e-02) (35, 2.98703387379646301270e-02) (36, -5.04638813436031341553e-02) (37, -8.59472341835498809814e-03) (38, 1.59177295863628387451e-02) (39, -6.96005672216415405273e-03) (40, -1.04760043323040008545e-01) (41, 2.58851200342178344727e-02) (42, -1.14103540778160095215e-01) (43, 1.20817847549915313721e-01) (44, -9.31207612156867980957e-02) (45, 2.54450067877769470215e-02) (46, 1.41365863382816314697e-02) (47, -5.47689013183116912842e-02) (48, 3.93035039305686950684e-02) (49, 5.16099371016025543213e-02) (50, -7.91434869170188903809e-02) (51, 5.38313500583171844482e-02) (52, -7.47505724430084228516e-02) (53, -1.41563536599278450012e-02) (54, 1.33077681064605712891e-01) (55, 1.15429483354091644287e-01) (56, 6.62330314517021179199e-02) (57, 9.68584343791007995605e-02) (58, -1.02985903620719909668e-01) (59, -1.83319263160228729248e-02) (60, 2.25841328501701354980e-02) (61, 2.61970702558755874634e-02) (62, 3.77435125410556793213e-02) (63, -5.59171847999095916748e-02) (64, 2.32156053185462951660e-01) (65, 5.16436621546745300293e-02) (66, -6.95940246805548667908e-03) (67, -1.54396459460258483887e-01) (68, -4.47106510400772094727e-02) (69, -8.79615917801856994629e-02) (70, 1.29932984709739685059e-02) (71, 5.36291375756263732910e-02) (72, 1.71388939023017883301e-01) (73, 8.31785786431282758713e-04) (74, -6.57694414258003234863e-02) (75, -9.75971445441246032715e-02) (76, 1.35528162121772766113e-01) (77, 6.19776546955108642578e-02) (78, 2.09042012691497802734e-01) (79, 1.22765237465500831604e-02) (80, 3.68113785982131958008e-01) (81, 9.75550860166549682617e-02) (82, -9.43071767687797546387e-02) (83, 1.16806402802467346191e-01) (84, -1.86616461724042892456e-02) (85, 9.75759327411651611328e-02) (86, -1.36337295174598693848e-01) (87, 3.26051712036132812500e-01) (88, -2.21921592950820922852e-01) (89, -3.02392631769180297852e-01) (90, -1.20194889605045318604e-01) (91, 6.82111009955406188965e-02) (92, 7.84627199172973632813e-02) (93, -5.81444129347801208496e-02) (94, -2.88150385022163391113e-02) (95, 3.67739014327526092529e-02) (96, 5.63187226653099060059e-02) (97, -8.97907465696334838867e-02) (98, 1.93496048450469970703e-02) (99, -1.80218939203768968582e-03) (100, 9.70963202416896820068e-03) (101, 2.65633594244718551636e-02) (102, 1.14739879965782165527e-01) (103, 2.64923214912414550781e-01) (104, 1.10034446697682142258e-03) (105, -8.47706645727157592773e-02) (106, -6.67385160923004150391e-02) (107, -5.37988804280757904053e-02) (108, -2.68704742193222045898e-02) (109, -5.63050881028175354004e-02) (110, 2.51505434513092041016e-01) (111, 3.00532609224319458008e-01) (112, 6.53431052342057228088e-03) (113, 1.05269111692905426025e-01) (114, -1.11264586448669433594e-01) (115, 8.48737880587577819824e-02) (116, -1.05507388710975646973e-01) (117, 3.15323173999786376953e-02) (118, 1.46432235836982727051e-01) (119, 1.97475954890251159668e-01) (120, 1.45672053098678588867e-01) (121, 7.19361603260040283203e-02) (122, -9.54825431108474731445e-02) (123, -6.69280216097831726074e-02) (124, -4.87831495702266693115e-02) (125, -1.49162665009498596191e-01) (126, 9.50969159603118896484e-02) (127, 1.71644061803817749023e-01) (128, 1.72115191817283630371e-01) (129, 3.50755713880062103271e-02) (130, 3.52594405412673950195e-02) (131, 2.34684050083160400391e-02) (132, 1.31778679788112640381e-02) (133, -1.19228810071945190430e-01) (134, 7.45194107294082641602e-02) (135, 1.35764896869659423828e-01) (136, 1.44402429461479187012e-01) (137, 8.93558785319328308105e-02) (138, -1.42822518944740295410e-01) (139, 1.05340545997023582458e-02) (140, 1.37508632615208625793e-02) (141, 8.19493979215621948242e-02) (142, 6.52815401554107666016e-02) (143, 2.01114580035209655762e-01) (144, 8.33093076944351196289e-02) (145, 1.25822335481643676758e-01) (146, 6.45144879817962646484e-02) (147, -1.24157182872295379639e-01) (148, -3.14330197870731353760e-02) (149, 6.15004263818264007568e-02) (150, 3.35962250828742980957e-02) (151, 1.81270882487297058105e-01) (152, 1.68295558542013168335e-02) (153, 9.35989692807197570801e-02) (154, -7.52036347985267639160e-02) (155, 2.38320976495742797852e-02) (156, 1.38202430680394172668e-02) (157, -4.12044338881969451904e-02) (158, 4.18440438807010650635e-02) (159, 1.57759860157966613770e-01) (160, 1.41018494963645935059e-01) (161, -5.09155504405498504639e-02) (162, 1.03529848158359527588e-01) (163, 1.22862279415130615234e-01) (164, -7.18295797705650329590e-02) (165, -8.25532302260398864746e-02) (166, 6.62951963022351264954e-03) (167, 1.52937129139900207520e-01) (168, 6.86690136790275573730e-02) (169, 7.21941664814949035645e-02) (170, 7.14585706591606140137e-02) (171, -8.90649408102035522461e-02) (172, -1.15069143474102020264e-01) (173, -6.37755468487739562988e-02) (174, 1.55527323484420776367e-01) (175, 1.98018908500671386719e-01) (176, 7.68744349479675292969e-02) (177, 1.35920315980911254883e-01) (178, 6.64089480414986610413e-03) (179, -3.22144329547882080078e-02) (180, -2.88469381630420684814e-02) (181, -3.69183793663978576660e-02) (182, 1.24297752976417541504e-01) (183, -9.16661974042654037476e-03) (184, 8.44129472970962524414e-02) (185, 9.17335972189903259277e-02) (186, 5.59932515025138854980e-02) (187, 4.69895035028457641602e-01) (188, -9.31840240955352783203e-02) (189, -2.01034799218177795410e-01) (190, 2.88504604250192642212e-02) (191, -2.70637646317481994629e-02) (192, 3.29833664000034332275e-02) (193, 1.09313562512397766113e-01) (194, -1.51775609701871871948e-02) (195, 1.60196855664253234863e-01) (196, -5.20410190802067518234e-04) (197, -1.60301268100738525391e-01) (198, -5.42141608893871307373e-02) (199, 9.64254047721624374390e-03) (200, 1.11921787261962890625e-01) (201, 1.06040105223655700684e-01) (202, 2.51043848693370819092e-02) (203, -1.13615408539772033691e-01) (204, -1.13653093576431274414e-01) (205, -1.02005578577518463135e-01) (206, -7.83638134598731994629e-02) (207, 1.42334520816802978516e-01) (208, 6.89960867166519165039e-02) (209, 4.51383600011467933655e-03) (210, -7.28128477931022644043e-02) (211, -6.35131299495697021484e-02) (212, -7.87481889128684997559e-02) (213, -8.46023783087730407715e-02) (214, -8.23039337992668151855e-02) (215, 1.98866389691829681396e-02) (216, -2.33142711222171783447e-02) (217, 7.42709040641784667969e-02) (218, 1.09417662024497985840e-01) (219, 2.67508421093225479126e-02) (220, -3.84134091436862945557e-02) (221, -1.34043851867318153381e-02) (222, -2.61604040861129760742e-02) (223, -8.03221464157104492188e-02) (224, -6.26750886440277099609e-02) (225, 6.37969225645065307617e-02) (226, -1.62308383733034133911e-02) (227, -1.27137333154678344727e-01) (228, -4.12301868200302124023e-02) (229, -3.78551855683326721191e-02) (230, -7.29394331574440002441e-02) (231, -1.20695717632770538330e-01) (232, -1.17159470915794372559e-01) (233, -6.57934024930000305176e-02) (234, -3.74033562839031219482e-02) (235, 7.23807364702224731445e-02) (236, 4.03711665421724319458e-03) (237, -4.04353812336921691895e-02) (238, -1.50962755084037780762e-01) (239, -1.07540816068649291992e-01) (240, -3.79427485167980194092e-02) (241, -1.27112314105033874512e-01) (242, -1.13622732460498809814e-01) (243, -6.31016418337821960449e-02) (244, -4.74185906350612640381e-02) (245, -1.55581478029489517212e-02) (246, 3.45451384782791137695e-02) (247, -1.68307125568389892578e-01) (248, 1.29159530624747276306e-02) (249, -1.06864780187606811523e-01) (250, -1.49470448493957519531e-01) (251, -1.17838889360427856445e-01) (252, -9.61998403072357177734e-02) (253, -1.17509156465530395508e-01) (254, -5.46869337558746337891e-02) (255, -1.18894971907138824463e-01) (256, -6.03998228907585144043e-02) (0, -2.25856885313987731934e-01) (1, -7.23757073283195495605e-02) (2, -1.17887072265148162842e-01) (3, 1.56899429857730865479e-02) (4, -1.71825632452964782715e-01) (5, -1.55323565006256103516e-01) (6, -1.37879729270935058594e-01) (7, -1.81271549081429839134e-04) (8, -2.97328799962997436523e-01) (9, -1.57690122723579406738e-02) (10, -7.88603946566581726074e-02) (11, -1.19855627417564392090e-01) (12, -7.81671553850173950195e-02) (13, -1.31003215909004211426e-01) (14, -1.63101032376289367676e-01) (15, -9.86673533916473388672e-02) (16, -3.02100658416748046875e-01) (17, -1.67225763201713562012e-01) (18, -1.03981420397758483887e-01) (19, -1.58476456999778747559e-01) (20, -2.21861466765403747559e-01) (21, -5.63716739416122436523e-02) (22, -1.03615604341030120850e-01) (23, -5.54489418864250183105e-02) (24, -1.69453576207160949707e-01) (25, -2.21804291009902954102e-01) (26, -4.05235514044761657715e-02) (27, -1.61215767264366149902e-01) (28, -6.83685690164566040039e-02) (29, -8.11935365200042724609e-02) (30, -1.52382686734199523926e-01) (31, -2.27501019835472106934e-01) (32, -1.30151927471160888672e-01) (33, -4.37471903860569000244e-02) (34, -6.82930350303649902344e-02) (35, -1.18359498679637908936e-01) (36, -1.30438029766082763672e-01) (37, 2.44546402245759963989e-02) (38, 3.73548967763781547546e-03) (39, 6.50334730744361877441e-02) (40, -3.20315927267074584961e-01) (41, -2.09811002016067504883e-01) (42, 3.24196480214595794678e-02) (43, -9.56445410847663879395e-02) (44, -5.98409324884414672852e-02) (45, 4.30333055555820465088e-02) (46, -2.23022803664207458496e-01) (47, -1.06373643875122070313e+00) (48, -3.54759931564331054688e-01) (49, -6.77164420485496520996e-02) (50, -1.70317932963371276855e-01) (51, -7.66558051109313964844e-02) (52, -1.40956521034240722656e-01) (53, -6.35205581784248352051e-02) (54, -5.47025978565216064453e-01) (55, -9.51244652271270751953e-01) (56, -7.75636732578277587891e-01) (57, -2.21608906984329223633e-01) (58, -1.76851935684680938721e-02) (59, -1.99377402663230895996e-01) (60, -6.96957185864448547363e-02) (61, -1.06086336076259613037e-01) (62, -9.41127836704254150391e-02) (63, -2.88477718830108642578e-01) (64, -6.02572858333587646484e-01) (65, -3.26606661081314086914e-01) (66, -5.71196191012859344482e-02) (67, -2.50522997230291366577e-02) (68, -7.21894800662994384766e-02) (69, -5.98918758332729339600e-02) (70, -1.07914961874485015869e-01) (71, -6.60262048244476318359e-01) (72, -5.14564931392669677734e-01) (73, -4.92906309664249420166e-02) (74, -1.46712036803364753723e-02) (75, -1.67249166406691074371e-03) (76, -3.49799469113349914551e-02) (77, -1.63216255605220794678e-02) (78, -8.81976336240768432617e-02) (79, 7.59929716587066650391e-01) (80, -1.60915374755859375000e-01) (81, 3.82028400897979736328e-01) (82, 3.95585387945175170898e-01) (83, 1.20924758911132812500e+00) (84, 2.41422414779663085938e-01) (85, 7.48930931091308593750e+00) (86, 4.95496541261672973633e-01) (87, -2.26291465759277343750e+00) (88, -5.19316613674163818359e-01) (89, 4.27481681108474731445e-01) (90, 1.45810380578041076660e-01) (91, 7.01746344566345214844e-02) (92, 5.02688670530915260315e-03) (93, 5.33248126506805419922e-01) (94, -3.88746452331542968750e+00) (95, -5.92610120773315429688e+00) (96, -5.29456424713134765625e+00) (97, -4.35971654951572418213e-02) (98, 1.27901875972747802734e+00) (99, 7.20071941614151000977e-02) (100, -4.92135807871818542480e-02) (101, 2.00133156776428222656e+00) (102, -4.31176280975341796875e+00) (103, 9.03430843353271484375e+00) (104, -1.18251606822013854980e-01) (105, 6.69185072183609008789e-02) (106, 4.02065813541412353516e-01) (107, 2.62179691344499588013e-02) (108, 2.15893588028848171234e-03) (109, -4.58065643906593322754e-02) (110, -1.23838269710540771484e+00) (111, 6.09520864486694335938e+00) (112, -1.09426927566528320313e+00) (113, -1.17847234010696411133e-01) (114, 8.56860220432281494141e-01) (115, -7.25068747997283935547e-02) (116, 1.24056292697787284851e-02) (117, 8.28611278533935546875e+00) (118, -1.10020661354064941406e+00) (119, -8.96197032928466796875e+00) (120, -3.25661778450012207031e-01) (121, 1.22163807973265647888e-02) (122, 8.42176973819732666016e-01) (123, 1.68049395084381103516e-01) (124, 2.03738406300544738770e-01) (125, 6.65112197399139404297e-01) (126, -6.74837172031402587891e-01) (127, 5.19590902328491210938e+00) (128, -8.74166041612625122070e-02) (129, -1.20253369212150573730e-01) (130, -6.24102577567100524902e-02) (131, -1.65572851896286010742e-01) (132, -1.19003392755985260010e-02) (133, -3.27627629041671752930e-01) (134, 2.04936981201171875000e+01) (135, -5.44265604019165039063e+00) (136, -3.73210906982421875000e-01) (137, -5.65371587872505187988e-02) (138, -4.39126603305339813232e-02) (139, -1.21668383479118347168e-01) (140, 5.61966240406036376953e-01) (141, 3.05083632469177246094e-01) (142, -1.53001117706298828125e+00) (143, -1.40826284885406494141e+00) (144, -2.69225060939788818359e-01) (145, 3.12232002615928649902e-02) (146, -6.96571469306945800781e-02) (147, 3.44766839407384395599e-03) (148, 4.92229223251342773438e-01) (149, -5.85507228970527648926e-03) (150, -9.28668737411499023438e-01) (151, -2.24329662322998046875e+01) (152, -3.21701049804687500000e-01) (153, -5.14068640768527984619e-02) (154, -5.29072172939777374268e-02) (155, 1.21872667223215103149e-02) (156, -1.54499001801013946533e-02) (157, -1.81343451142311096191e-01) (158, -1.16455230712890625000e+01) (159, -7.64194869995117187500e+00) (160, -2.71100193262100219727e-01) (161, -1.22693412005901336670e-01) (162, -1.66221573948860168457e-01) (163, -1.39193847775459289551e-01) (164, -6.60068243741989135742e-02) (165, -1.51163294911384582520e-01) (166, -3.68810629844665527344e+00) (167, -1.10502538681030273438e+01) (168, -6.57254457473754882813e-01) (169, -1.41950920224189758301e-01) (170, -5.28522357344627380371e-02) (171, -8.82923528552055358887e-02) (172, -1.08155056834220886230e-01) (173, 3.08091521263122558594e-01) (174, 3.27755475044250488281e+00) (175, -2.63283610343933105469e+00) (176, -1.21910095214843750000e+00) (177, -4.52207118272781372070e-01) (178, -1.64130106568336486816e-01) (179, -4.74132597446441650391e-02) (180, -1.28271743655204772949e-01) (181, 1.08313955366611480713e-01) (182, 4.97075527906417846680e-01) (183, -1.74681243896484375000e+01) (184, -1.46822500228881835938e+00) (185, -6.39800965785980224609e-01) (186, -1.44987165927886962891e-01) (187, -2.19213962554931640625e-02) (188, -4.49808500707149505615e-02) (189, 4.11688676103949546814e-03) (190, -9.05426025390625000000e-01) (191, -1.34704141616821289063e+01) (192, -2.78472751379013061523e-01) (193, -1.76525831222534179688e-01) (194, -3.25958393514156341553e-02) (195, -5.99947795271873474121e-02) (196, 1.55768275260925292969e-01) (197, -1.85029711574316024780e-02) (198, -2.34888815879821777344e+00) (199, -6.92393016815185546875e+00) (200, -2.20678020268678665161e-02) (201, -4.46691848337650299072e-02) (202, -2.52327155321836471558e-02) (203, 1.17304932791739702225e-03) (204, 1.18310436606407165527e-01) (205, -1.48233696818351745605e-02) (206, 1.26464277505874633789e-01) (207, -1.03610586374998092651e-02) (208, 1.40444515272974967957e-03) (209, 1.07157492637634277344e+00) (210, 1.67725789546966552734e+00) (211, 2.06495657563209533691e-01) (212, 9.62032526731491088867e-02) (213, 3.46629284322261810303e-02) (214, 5.21909147500991821289e-02) (215, -1.00795894861221313477e-01) (216, -3.72013002634048461914e-02) (217, 8.04227590560913085938e-03) (218, -1.02940397337079048157e-02) (219, 2.83755152486264705658e-03) (220, -1.39403283596038818359e-01) (221, -6.97278901934623718262e-02) (222, -8.87128990143537521362e-03) (223, -2.01263248920440673828e-01) (224, -1.98614075779914855957e-01) (225, -1.51519794017076492310e-02) (226, -9.98149588704109191895e-02) (227, -7.16955140233039855957e-02) (228, -1.77840769290924072266e-01) (229, -5.37454932928085327148e-02) (230, -8.34467709064483642578e-02) (231, -6.65656805038452148438e-01) (232, -2.58397430181503295898e-01) (233, -9.10833012312650680542e-03) (234, -2.53031849861145019531e-02) (235, -9.35993120074272155762e-02) (236, -7.84516111016273498535e-02) (237, 4.45357821881771087646e-02) (238, -2.58220046758651733398e-01) (239, 2.32343729585409164429e-02) (240, 3.58346439898014068604e-02) (241, -1.21402278542518615723e-01) (242, -2.03313529491424560547e-02) (243, 2.40488052368164062500e-02) (244, -8.87972041964530944824e-02) (245, -1.47939190268516540527e-01) (246, -6.21090792119503021240e-02) (247, -3.45931798219680786133e-01) (248, -1.80685430765151977539e-01) (249, -2.02542096376419067383e-01) (250, -1.36744499206542968750e-01) (251, -3.62723991274833679199e-02) (252, -4.63960546767339110374e-04) (253, -3.33714336156845092773e-02) (254, -3.48409026861190795898e-01) (255, -2.89577215909957885742e-01) (256, -2.43549957871437072754e-01) (0, -4.44260388612747192383e-02) (1, 6.03772401809692382813e-02) (2, -1.37616237625479698181e-02) (3, 4.67529706656932830811e-02) (4, -6.05349652469158172607e-02) (5, -6.33402466773986816406e-02) (6, 2.89603378623723983765e-02) (7, -3.98998036980628967285e-02) (8, -1.17450647056102752686e-01) (9, -5.37033565342426300049e-02) (10, -4.96079213917255401611e-02) (11, -7.11952894926071166992e-02) (12, -5.44174797832965850830e-02) (13, -6.59917294979095458984e-02) (14, 3.09554813429713249207e-03) (15, -7.05827400088310241699e-02) (16, 2.69859731197357177734e-02) (17, -5.91650642454624176025e-02) (18, 1.62993520498275756836e-02) (19, -2.03398671001195907593e-02) (20, -1.30725398659706115723e-01) (21, -6.45423606038093566895e-02) (22, 1.19425259530544281006e-01) (23, 6.86739608645439147949e-02) (24, 8.19540545344352722168e-02) (25, -3.43857482075691223145e-02) (26, 7.98230916261672973633e-02) (27, -2.77161225676536560059e-02) (28, -1.47318020462989807129e-02) (29, -4.22887550666928291321e-03) (30, 9.35258939862251281738e-02) (31, -2.76148747652769088745e-02) (32, 3.60352061688899993896e-02) (33, 1.33938953280448913574e-01) (34, 8.37531760334968566895e-02) (35, 1.20880633592605590820e-01) (36, 9.80875864624977111816e-02) (37, 9.87935736775398254395e-02) (38, 7.44765326380729675293e-02) (39, 1.14987380802631378174e-01) (40, -6.33205175399780273438e-02) (41, 3.26074510812759399414e-02) (42, 1.83627884835004806519e-02) (43, 9.38867852091789245605e-02) (44, 1.12883187830448150635e-01) (45, 1.85205593705177307129e-01) (46, 2.14820988476276397705e-02) (47, 7.56841078400611877441e-02) (48, 3.51516045629978179932e-02) (49, 7.53101184964179992676e-02) (50, 5.69033734500408172607e-02) (51, -3.86449582874774932861e-02) (52, 7.87232071161270141602e-02) (53, 1.46356955170631408691e-01) (54, 1.65145009756088256836e-01) (55, 1.31922200322151184082e-01) (56, 9.35004279017448425293e-03) (57, 7.57776722311973571777e-02) (58, 8.47042500972747802734e-02) (59, -4.17637228965759277344e-02) (60, 9.38049703836441040039e-02) (61, 1.38922426849603652954e-02) (62, 1.70974612236022949219e-01) (63, 1.81683316826820373535e-01) (64, 3.19851189851760864258e-02) (65, -1.37563258409500122070e-01) (66, 1.15030281245708465576e-01) (67, -4.69408817589282989502e-02) (68, 3.81403565406799316406e-02) (69, 4.93190884590148925781e-02) (70, -6.02896250784397125244e-02) (71, -5.99411353468894958496e-02) (72, 1.74609452486038208008e-01) (73, -8.37019905447959899902e-02) (74, 1.18183018639683723450e-02) (75, 1.58045932650566101074e-01) (76, 1.45723178982734680176e-01) (77, 4.96405921876430511475e-02) (78, 6.72913156449794769287e-03) (79, 9.68587324023246765137e-02) (80, 7.25818276405334472656e-02) (81, 2.92626805603504180908e-02) (82, 2.72242282517254352570e-03) (83, 5.75983040034770965576e-02) (84, 6.75670951604843139648e-02) (85, 6.83086514472961425781e-02) (86, 4.27386425435543060303e-02) (87, 1.10930420458316802979e-01) (88, -1.74259226769208908081e-02) (89, 4.52094785869121551514e-02) (90, -9.49860736727714538574e-02) (91, 1.06388941407203674316e-01) (92, 1.29462793469429016113e-01) (93, 1.49982990697026252747e-02) (94, -1.34762477874755859375e+00) (95, -3.95701140165328979492e-01) (96, -2.96591073274612426758e-01) (97, -7.48388394713401794434e-02) (98, 5.92538230121135711670e-02) (99, 2.44024861603975296021e-02) (100, 9.18507128953933715820e-02) (101, -2.24651284515857696533e-02) (102, 1.15983203053474426270e-01) (103, 5.12518405914306640625e-01) (104, 1.74096018075942993164e-01) (105, -1.30613356828689575195e-01) (106, -3.02546136081218719482e-02) (107, 1.30296006798744201660e-01) (108, 1.05320945382118225098e-01) (109, 1.77203137427568435669e-02) (110, 9.08541679382324218750e-02) (111, 3.58645468950271606445e-01) (112, -6.96828737854957580566e-02) (113, -1.30792751908302307129e-01) (114, -1.12230613827705383301e-01) (115, 1.52838053181767463684e-02) (116, 2.31574755162000656128e-02) (117, -7.34002739191055297852e-02) (118, -6.09584935009479522705e-02) (119, 1.42414480447769165039e-01) (120, 2.60564312338829040527e-03) (121, -1.13579042255878448486e-01) (122, 4.11409102380275726318e-02) (123, 1.46505847573280334473e-01) (124, 1.07833817601203918457e-01) (125, -9.84838530421257019043e-02) (126, -2.46675729751586914063e-01) (127, 2.28612735867500305176e-01) (128, -8.51447656750679016113e-02) (129, -1.42038285732269287109e-01) (130, -6.59830123186111450195e-02) (131, 6.17727637290954589844e-02) (132, 7.06511735916137695313e-02) (133, -1.77178993821144104004e-01) (134, -1.36666983366012573242e-01) (135, 1.61356344819068908691e-01) (136, -2.06746861338615417480e-01) (137, -2.48170301318168640137e-01) (138, -1.35136365890502929688e-01) (139, -1.27070629969239234924e-02) (140, -1.05414511635899543762e-02) (141, -9.01128500699996948242e-02) (142, 1.70710414648056030273e-01) (143, 1.30440026521682739258e-01) (144, -1.08699902892112731934e-01) (145, -2.28554785251617431641e-01) (146, -6.07583373785018920898e-02) (147, 2.71880766376852989197e-03) (148, -1.38845685869455337524e-02) (149, -1.62444293498992919922e-01) (150, -4.58927929401397705078e-01) (151, 2.88892000913619995117e-01) (152, 5.47588318586349487305e-02) (153, -1.74386650323867797852e-01) (154, -1.31282228976488113403e-02) (155, 2.58864928036928176880e-02) (156, 1.22259464114904403687e-02) (157, -1.02493934333324432373e-01) (158, -1.89398422837257385254e-01) (159, 2.92877793312072753906e-01) (160, 2.54702772945165634155e-02) (161, -1.50503385812044143677e-02) (162, -3.64309847354888916016e-02) (163, 9.17205587029457092285e-03) (164, 2.54398118704557418823e-02) (165, -1.97080126963555812836e-03) (166, 7.74357095360755920410e-02) (167, 2.44573697447776794434e-01) (168, 7.87480846047401428223e-02) (169, -1.74060687422752380371e-01) (170, -2.34950799494981765747e-02) (171, -1.01548982784152030945e-02) (172, 7.25547373294830322266e-02) (173, 2.25561652332544326782e-02) (174, 9.62087437510490417480e-02) (175, 4.13449138402938842773e-01) (176, -4.89273905754089355469e-01) (177, -1.05166435241699218750e-01) (178, 1.59232355654239654541e-02) (179, 4.24305200576782226563e-02) (180, -1.39605607837438583374e-02) (181, -1.17653563618659973145e-01) (182, 1.86662092804908752441e-01) (183, 9.99929457902908325195e-02) (184, -2.91285753250122070313e-01) (185, -1.60528078675270080566e-01) (186, 2.82399076968431472778e-02) (187, 1.33531764149665832520e-01) (188, 7.39188045263290405273e-02) (189, -5.73390051722526550293e-02) (190, 1.59399002790451049805e-01) (191, 8.85201618075370788574e-02) (192, -1.95879414677619934082e-01) (193, 1.00003508850932121277e-02) (194, -4.91072563454508781433e-03) (195, -3.91780957579612731934e-02) (196, 7.07150101661682128906e-02) (197, 1.50179743766784667969e-01) (198, 1.73855304718017578125e-01) (199, -2.26931776851415634155e-02) (200, -7.77996927499771118164e-02) (201, -1.10775426030158996582e-01) (202, 7.93896149843931198120e-03) (203, -1.46766938269138336182e-02) (204, 7.77069777250289916992e-02) (205, 7.87972882390022277832e-02) (206, 8.83068293333053588867e-02) (207, 6.22678324580192565918e-02) (208, -4.48137633502483367920e-02) (209, 1.54826581478118896484e-01) (210, 1.21948391199111938477e-01) (211, 6.46646097302436828613e-02) (212, 3.25292646884918212891e-02) (213, 1.91383641213178634644e-02) (214, 9.69412624835968017578e-02) (215, 7.28863105177879333496e-03) (216, 6.20971582829952239990e-02) (217, 1.17774315178394317627e-01) (218, -3.60316187143325805664e-02) (219, 1.26895740628242492676e-01) (220, 6.83956965804100036621e-02) (221, 1.70227766036987304688e-01) (222, 1.22032336890697479248e-01) (223, -4.48058173060417175293e-03) (224, 4.52602840960025787354e-02) (225, 1.19851874187588691711e-02) (226, 2.53912378102540969849e-02) (227, -1.88373196870088577271e-02) (228, -6.00746786221861839294e-03) (229, 1.44122719764709472656e-01) (230, 2.28408183902502059937e-02) (231, 4.93372157216072082520e-02) (232, 3.67543939501047134399e-03) (233, -5.00956848263740539551e-02) (234, -2.80249044299125671387e-02) (235, 4.96285185217857360840e-02) (236, -3.20710353553295135498e-02) (237, -6.94882730022072792053e-03) (238, 1.20744276791810989380e-02) (239, -5.58743625879287719727e-02) (240, 1.73025336116552352905e-02) (241, -6.85455650091171264648e-03) (242, 1.00786246359348297119e-01) (243, 7.15655833482742309570e-02) (244, 1.00133582949638366699e-01) (245, -5.51014253869652748108e-03) (246, -1.68455985840409994125e-03) (247, -1.33117869496345520020e-01) (248, 1.00207254290580749512e-02) (249, -5.46586550772190093994e-02) (250, -5.20463548600673675537e-02) (251, -4.10287361592054367065e-03) (252, 1.07569387182593345642e-02) (253, -2.12181247770786285400e-02) (254, -5.70956245064735412598e-02) (255, -5.28903156518936157227e-02) (256, 6.57063303515315055847e-03) (0, 3.88866901397705078125e-01) (1, 4.45896416902542114258e-01) (2, 4.23472106456756591797e-01) (3, 4.92626070976257324219e-01) (4, 3.37699383497238159180e-01) (5, 4.76070851087570190430e-01) (6, 5.22584557533264160156e-01) (7, 3.94191741943359375000e-01) (8, 5.21993041038513183594e-01) (9, 4.43499326705932617188e-01) (10, 4.94079321622848510742e-01) (11, 4.60925042629241943359e-01) (12, 3.88543456792831420898e-01) (13, 3.45353633165359497070e-01) (14, 3.47452789545059204102e-01) (15, 3.43577057123184204102e-01) (16, 4.25972253084182739258e-01) (17, 3.63118261098861694336e-01) (18, 4.65015262365341186523e-01) (19, 4.81232285499572753906e-01) (20, 3.96442264318466186523e-01) (21, 4.52636033296585083008e-01) (22, 4.06125277280807495117e-01) (23, 4.51663613319396972656e-01) (24, 5.54167449474334716797e-01) (25, 5.18956661224365234375e-01) (26, 3.94687682390213012695e-01) (27, 4.47139501571655273438e-01) (28, 3.82270961999893188477e-01) (29, 4.24401223659515380859e-01) (30, 4.33512210845947265625e-01) (31, 3.82178544998168945313e-01) (32, 4.18767482042312622070e-01) (33, 3.74441653490066528320e-01) (34, 4.34619545936584472656e-01) (35, 3.75131249427795410156e-01) (36, 4.83120739459991455078e-01) (37, 4.07076478004455566406e-01) (38, 4.47393566370010375977e-01) (39, 4.55473095178604125977e-01) (40, 5.03468513488769531250e-01) (41, 4.66983020305633544922e-01) (42, 4.33680146932601928711e-01) (43, 4.54825222492218017578e-01) (44, 4.35181915760040283203e-01) (45, 4.26088333129882812500e-01) (46, 3.54389160871505737305e-01) (47, 4.29912745952606201172e-01) (48, 3.80178391933441162109e-01) (49, 3.98552179336547851563e-01) (50, 5.15291631221771240234e-01) (51, 5.09303867816925048828e-01) (52, 5.24800181388854980469e-01) (53, 4.88376915454864501953e-01) (54, 5.01294553279876708984e-01) (55, 4.01887685060501098633e-01) (56, 4.83174830675125122070e-01) (57, 3.64167749881744384766e-01) (58, 4.50097143650054931641e-01) (59, 3.77120494842529296875e-01) (60, 4.20330703258514404297e-01) (61, 4.61556166410446166992e-01) (62, 5.21351337432861328125e-01) (63, 4.28695678710937500000e-01) (64, 3.77446591854095458984e-01) (65, 4.93681520223617553711e-01) (66, 4.64847236871719360352e-01) (67, 4.66303259134292602539e-01) (68, 4.67733711004257202148e-01) (69, 3.76924753189086914063e-01) (70, 4.67564612627029418945e-01) (71, 2.02730149030685424805e-01) (72, 2.76097804307937622070e-01) (73, 4.92391288280487060547e-01) (74, 4.47898864746093750000e-01) (75, 4.24881607294082641602e-01) (76, 4.13076668977737426758e-01) (77, 4.32790815830230712891e-01) (78, 3.73208314180374145508e-01) (79, 2.92785406112670898438e-01) (80, 1.05949141085147857666e-01) (81, 4.33067977428436279297e-01) (82, 5.22910058498382568359e-01) (83, 4.43572372198104858398e-01) (84, 4.48580205440521240234e-01) (85, 4.74112898111343383789e-01) (86, 2.83252418041229248047e-01) (87, 1.16637185215950012207e-01) (88, 2.70452857017517089844e-01) (89, 4.69863176345825195313e-01) (90, 4.53216135501861572266e-01) (91, 4.06178832054138183594e-01) (92, 5.50438284873962402344e-01) (93, 5.19085288047790527344e-01) (94, 3.13757538795471191406e-01) (95, 1.02706454694271087646e-01) (96, 1.96650877594947814941e-01) (97, 4.04458463191986083984e-01) (98, 4.84058439731597900391e-01) (99, 3.44666391611099243164e-01) (100, 5.21229326725006103516e-01) (101, 4.61994469165802001953e-01) (102, 3.34433555603027343750e-01) (103, 1.26579821109771728516e-01) (104, 2.19611510634422302246e-01) (105, 4.07918632030487060547e-01) (106, 4.98963594436645507813e-01) (107, 4.45954799652099609375e-01) (108, 5.11444449424743652344e-01) (109, 4.81291323900222778320e-01) (110, 2.31133878231048583984e-01) (111, 2.98531830310821533203e-01) (112, 2.72733747959136962891e-01) (113, 5.19024789333343505859e-01) (114, 4.53591257333755493164e-01) (115, 2.68480002880096435547e-01) (116, 5.08143842220306396484e-01) (117, 4.64141726493835449219e-01) (118, 1.80647492408752441406e-01) (119, 2.20720797777175903320e-01) (120, 4.80170622467994689941e-02) (121, 3.95791441202163696289e-01) (122, 3.92078191041946411133e-01) (123, 3.09268593788146972656e-01) (124, 5.16664922237396240234e-01) (125, 4.36728090047836303711e-01) (126, 2.20728129148483276367e-01) (127, 4.29152876138687133789e-01) (128, 4.02224332094192504883e-01) (129, 4.60422307252883911133e-01) (130, 4.26673442125320434570e-01) (131, 5.38585186004638671875e-01) (132, 5.20834326744079589844e-01) (133, 4.35702592134475708008e-01) (134, 3.59810322523117065430e-01) (135, 1.18942689895629882813e+00) (136, 4.32415097951889038086e-01) (137, 5.53710758686065673828e-01) (138, 4.58769410848617553711e-01) (139, 4.93730962276458740234e-01) (140, 4.16068345308303833008e-01) (141, 4.15634244680404663086e-01) (142, 2.25557461380958557129e-01) (143, 1.58014997839927673340e-01) (144, 1.99333235621452331543e-01) (145, 3.96706014871597290039e-01) (146, 4.71941262483596801758e-01) (147, 4.48142558336257934570e-01) (148, 3.41629564762115478516e-01) (149, 5.56664049625396728516e-01) (150, 1.47200211882591247559e-01) (151, 2.14351370930671691895e-01) (152, 2.78955191373825073242e-01) (153, 5.54553985595703125000e-01) (154, 4.04333442449569702148e-01) (155, 4.13097590208053588867e-01) (156, 4.63916510343551635742e-01) (157, 5.38721144199371337891e-01) (158, 1.67265221476554870605e-01) (159, 2.51796483993530273438e-01) (160, 1.67250528931617736816e-01) (161, 5.47801554203033447266e-01) (162, 4.29188489913940429688e-01) (163, 4.51086193323135375977e-01) (164, 5.00690519809722900391e-01) (165, 5.32481074333190917969e-01) (166, 1.73936665058135986328e-01) (167, 1.24004706740379333496e-01) (168, 2.34133020043373107910e-01) (169, 4.41669911146163940430e-01) (170, 4.99351441860198974609e-01) (171, 4.30615723133087158203e-01) (172, 5.42940974235534667969e-01) (173, 4.64936912059783935547e-01) (174, 2.46563702821731567383e-01) (175, 2.26074248552322387695e-01) (176, 1.46723762154579162598e-01) (177, 5.22468388080596923828e-01) (178, 4.23854559659957885742e-01) (179, 3.71507793664932250977e-01) (180, 3.08146417140960693359e-01) (181, 4.78825449943542480469e-01) (182, 1.08931876718997955322e-01) (183, 9.38782215118408203125e-01) (184, 2.10019379854202270508e-01) (185, 5.10673403739929199219e-01) (186, 5.95484673976898193359e-01) (187, 4.13509935140609741211e-01) (188, 3.29516708850860595703e-01) (189, 5.18381714820861816406e-01) (190, 1.46532654762268066406e-01) (191, 1.56038373708724975586e-01) (192, 2.89626300334930419922e-01) (193, 3.35068851709365844727e-01) (194, 4.35754269361495971680e-01) (195, 5.08967459201812744141e-01) (196, 5.10964632034301757813e-01) (197, 4.62807476520538330078e-01) (198, 4.12604629993438720703e-01) (199, 2.35029280185699462891e-01) (200, 4.02661353349685668945e-01) (201, 4.06831115484237670898e-01) (202, 4.91084694862365722656e-01) (203, 3.78153324127197265625e-01) (204, 4.06016588211059570313e-01) (205, 4.92439359426498413086e-01) (206, 4.69414681196212768555e-01) (207, 4.94314879179000854492e-01) (208, 3.81363987922668457031e-01) (209, 4.53434377908706665039e-01) (210, 3.50942850112915039063e-01) (211, 3.85304570198059082031e-01) (212, 5.30848383903503417969e-01) (213, 5.02698063850402832031e-01) (214, 3.93490910530090332031e-01) (215, 5.67652523517608642578e-01) (216, 5.40739715099334716797e-01) (217, 3.87245297431945800781e-01) (218, 5.40211737155914306641e-01) (219, 3.81348639726638793945e-01) (220, 4.51696157455444335938e-01) (221, 5.01012921333312988281e-01) (222, 3.89466762542724609375e-01) (223, 4.64479565620422363281e-01) (224, 4.74436581134796142578e-01) (225, 4.60148781538009643555e-01) (226, 4.39075320959091186523e-01) (227, 5.37127196788787841797e-01) (228, 3.91289114952087402344e-01) (229, 4.40445542335510253906e-01) (230, 4.09988433122634887695e-01) (231, 4.36401128768920898438e-01) (232, 3.79112511873245239258e-01) (233, 4.85832393169403076172e-01) (234, 4.34067875146865844727e-01) (235, 4.58044797182083129883e-01) (236, 4.83161777257919311523e-01) (237, 3.32517623901367187500e-01) (238, 4.36048656702041625977e-01) (239, 4.56369996070861816406e-01) (240, 4.42530333995819091797e-01) (241, 4.45052146911621093750e-01) (242, 3.71853560209274291992e-01) (243, 4.82243150472640991211e-01) (244, 4.89239245653152465820e-01) (245, 4.51127141714096069336e-01) (246, 4.29779261350631713867e-01) (247, 3.97242605686187744141e-01) (248, 5.29702901840209960938e-01) (249, 5.35911858081817626953e-01) (250, 4.44990664720535278320e-01) (251, 4.46363955736160278320e-01) (252, 3.90872806310653686523e-01) (253, 5.12365877628326416016e-01) (254, 5.59107422828674316406e-01) (255, 4.66487526893615722656e-01) (256, 5.09175777435302734375e-01) (0, 5.91762512922286987305e-02) (1, 4.30531380698084831238e-03) (2, 3.70197407901287078857e-02) (3, 2.42750882171094417572e-03) (4, 1.60509407520294189453e-01) (5, 4.80585545301437377930e-02) (6, 3.15761193633079528809e-02) (7, 1.13470509648323059082e-01) (8, 1.48775875568389892578e-02) (9, 7.41536095738410949707e-02) (10, 1.72565594315528869629e-01) (11, 1.60718664526939392090e-01) (12, 5.96352107822895050049e-02) (13, 1.05537757277488708496e-01) (14, 7.49537274241447448730e-02) (15, -5.61101809144020080566e-02) (16, -9.06930938363075256348e-02) (17, -4.01568263769149780273e-02) (18, -3.05181313306093215942e-02) (19, -1.15630939602851867676e-01) (20, -6.06758929789066314697e-02) (21, 9.39949881285429000854e-03) (22, 1.41401672735810279846e-02) (23, 7.33666941523551940918e-02) (24, 8.13476834446191787720e-03) (25, -5.14859445393085479736e-02) (26, -1.42858609557151794434e-01) (27, -3.32939326763153076172e-02) (28, 9.28772538900375366211e-02) (29, 1.35699421167373657227e-01) (30, -2.30948273092508316040e-02) (31, -5.64186513423919677734e-01) (32, -2.68129765987396240234e-01) (33, -6.21944181621074676514e-02) (34, -1.46252900362014770508e-01) (35, -1.51244783774018287659e-02) (36, -2.83564608544111251831e-02) (37, 5.72316236793994903564e-02) (38, 6.99177458882331848145e-02) (39, -2.16366276144981384277e-02) (40, -2.11639553308486938477e-01) (41, 9.02137905359268188477e-02) (42, 6.93763941526412963867e-02) (43, 5.85519410669803619385e-02) (44, 8.69143232703208923340e-02) (45, 2.60141789913177490234e-02) (46, 2.69740913063287734985e-02) (47, -2.24490184336900711060e-03) (48, -4.10185396671295166016e-01) (49, -6.97648078203201293945e-02) (50, 1.85438338667154312134e-02) (51, 1.92832201719284057617e-01) (52, 1.40449985861778259277e-01) (53, -5.01695176353678107262e-05) (54, 1.42688155174255371094e-01) (55, 8.54351297020912170410e-02) (56, -3.09701293706893920898e-01) (57, 3.88470944017171859741e-03) (58, 1.29403978586196899414e-01) (59, 8.64471644163131713867e-02) (60, 1.03524290025234222412e-02) (61, 1.85538217425346374512e-01) (62, 1.11552633345127105713e-01) (63, -2.39994063973426818848e-01) (64, -3.06622356176376342773e-01) (65, -3.32859814167022705078e-01) (66, 6.31408467888832092285e-02) (67, -1.42566263675689697266e-02) (68, 1.43981069326400756836e-01) (69, 7.43971988558769226074e-02) (70, -3.99082720279693603516e-01) (71, -5.07109999656677246094e-01) (72, -4.06761765480041503906e-01) (73, 2.48429030179977416992e-02) (74, 1.31175696849822998047e-01) (75, 1.21520258486270904541e-01) (76, 1.46760463714599609375e-01) (77, 1.42533645033836364746e-01) (78, -1.93847775459289550781e-01) (79, -3.02694827318191528320e-01) (80, -4.19267863035202026367e-01) (81, -1.13811299204826354980e-01) (82, -3.93043607473373413086e-02) (83, 5.76556473970413208008e-02) (84, 1.33977502584457397461e-01) (85, 6.42958208918571472168e-02) (86, -2.35404655337333679199e-01) (87, -3.07364165782928466797e-01) (88, -5.98062992095947265625e-01) (89, -2.98745840787887573242e-01) (90, 2.98472363501787185669e-02) (91, 2.01370060443878173828e-01) (92, 3.07673197239637374878e-02) (93, 2.48378783464431762695e-01) (94, 1.37695014476776123047e-01) (95, -2.64458566904067993164e-01) (96, -9.94784906506538391113e-02) (97, 1.37044936418533325195e-01) (98, 1.05643227696418762207e-01) (99, 7.62079507112503051758e-02) (100, 1.49465650320053100586e-01) (101, 1.10057719051837921143e-01) (102, 1.07471071183681488037e-01) (103, 2.83707410097122192383e-01) (104, -2.85968855023384094238e-02) (105, 1.82309821248054504395e-01) (106, 1.67734935879707336426e-01) (107, 1.63506358861923217773e-01) (108, -4.42685466259717941284e-03) (109, 1.07789628207683563232e-01) (110, 5.61642423272132873535e-02) (111, 1.33558949455618858337e-02) (112, -5.88435791432857513428e-02) (113, 1.90729007124900817871e-01) (114, 1.52837499976158142090e-01) (115, 1.76306709647178649902e-01) (116, 1.96173042058944702148e-02) (117, 2.26865876466035842896e-02) (118, -2.21073359251022338867e-01) (119, -1.18790812790393829346e-01) (120, -2.43472144007682800293e-01) (121, -7.93378725647926330566e-02) (122, 1.82410284876823425293e-01) (123, 1.55386954545974731445e-01) (124, 1.80995672941207885742e-01) (125, 1.87197774648666381836e-02) (126, -2.48645171523094177246e-01) (127, -8.36173817515373229980e-02) (128, -9.01100561022758483887e-02) (129, -4.50191013514995574951e-02) (130, 1.03685364127159118652e-01) (131, 1.77105873823165893555e-01) (132, 8.09655711054801940918e-02) (133, 1.18515081703662872314e-01) (134, -3.13376903533935546875e-01) (135, 2.37972527742385864258e-01) (136, -2.21729010343551635742e-01) (137, 1.24702908098697662354e-01) (138, 1.19818195700645446777e-01) (139, 8.73931869864463806152e-02) (140, 1.88427284359931945801e-01) (141, 1.68736964464187622070e-01) (142, -2.42707487195730209351e-02) (143, 1.55965119600296020508e-01) (144, -6.12068057060241699219e-01) (145, 1.13293364644050598145e-01) (146, 1.88976794481277465820e-01) (147, 1.30587711930274963379e-01) (148, 1.18672020733356475830e-01) (149, 2.18495860695838928223e-01) (150, -3.07489275932312011719e-01) (151, -8.55900719761848449707e-02) (152, -2.72838413715362548828e-01) (153, 1.68810814619064331055e-01) (154, 1.13275788724422454834e-01) (155, 1.57756581902503967285e-01) (156, 2.33949929475784301758e-01) (157, 1.33838951587677001953e-01) (158, -5.75377881526947021484e-01) (159, -1.71983823180198669434e-01) (160, -1.62977188825607299805e-01) (161, 4.33974377810955047607e-02) (162, 1.55870616436004638672e-01) (163, 9.30536240339279174805e-02) (164, 1.35952010750770568848e-01) (165, 5.20703829824924468994e-02) (166, -6.78392201662063598633e-02) (167, -1.32979720830917358398e-01) (168, 5.76518893241882324219e-01) (169, -6.08979724347591400146e-02) (170, 4.61497232317924499512e-02) (171, 1.94929942488670349121e-01) (172, 2.46533468365669250488e-01) (173, 1.51081845164299011230e-01) (174, 7.31127932667732238770e-02) (175, 6.47032633423805236816e-02) (176, -1.29022881388664245605e-01) (177, -1.15046620368957519531e-01) (178, 1.60683348774909973145e-01) (179, 1.30999609827995300293e-01) (180, 1.04269601404666900635e-01) (181, -3.77053022384643554688e-02) (182, -3.08810561895370483398e-01) (183, -2.25570440292358398438e-01) (184, -3.04761320352554321289e-01) (185, -2.54230499267578125000e-01) (186, 7.67214968800544738770e-03) (187, 1.54318004846572875977e-01) (188, 1.18237677961587905884e-02) (189, -3.29729355871677398682e-02) (190, -3.41020047664642333984e-01) (191, -1.80086299777030944824e-01) (192, 4.81601916253566741943e-02) (193, -2.83432006835937500000e-01) (194, 1.49916820228099822998e-02) (195, 2.13501304388046264648e-01) (196, 1.88270211219787597656e-01) (197, 1.14437052980065345764e-02) (198, -3.45235824584960937500e-01) (199, -2.85320162773132324219e-01) (200, 1.21555052697658538818e-01) (201, 1.49055063724517822266e-01) (202, 8.29805731773376464844e-02) (203, 2.02671065926551818848e-01) (204, 3.55480425059795379639e-02) (205, 1.24556869268417358398e-01) (206, -2.74033658206462860107e-03) (207, 1.54080276843160390854e-03) (208, 1.83612823486328125000e-01) (209, 2.48211383819580078125e-01) (210, 1.72604337334632873535e-01) (211, 2.60899186134338378906e-01) (212, 5.86439631879329681396e-02) (213, 1.26769199967384338379e-01) (214, -2.13684793561697006226e-02) (215, 7.33697041869163513184e-02) (216, 1.54584810137748718262e-01) (217, 1.40563294291496276855e-01) (218, 1.31396725773811340332e-01) (219, 2.51757532358169555664e-01) (220, 3.55081968009471893311e-02) (221, 1.10587358474731445313e-01) (222, 2.75841169059276580811e-02) (223, 5.19868992269039154053e-02) (224, 3.91790047287940979004e-02) (225, 4.74829599261283874512e-02) (226, 1.66694834828376770020e-01) (227, 1.71802774071693420410e-01) (228, 4.48045656085014343262e-02) (229, 4.04866375029087066650e-02) (230, -2.43061291985213756561e-03) (231, -2.12848603725433349609e-01) (232, 1.24896228313446044922e-01) (233, -4.44657579064369201660e-02) (234, -4.14117388427257537842e-02) (235, -2.90380921214818954468e-02) (236, -5.29166534543037414551e-02) (237, 3.23824360966682434082e-02) (238, -1.11262097954750061035e-01) (239, -1.66379168629646301270e-01) (240, 4.61638942360877990723e-02) (241, -3.84545363485813140869e-02) (242, -9.67284813523292541504e-02) (243, -5.85503280162811279297e-02) (244, -2.03634500503540039063e-02) (245, 4.63784039020538330078e-02) (246, 1.00073568522930145264e-01) (247, -2.43454098701477050781e-01) (248, -2.44951844215393066406e-01) (249, -1.64568513631820678711e-01) (250, -2.92869836091995239258e-01) (251, -1.12660884857177734375e-01) (252, 3.68745326995849609375e-02) (253, -1.23842312023043632507e-02) (254, -1.66111737489700317383e-01) (255, -2.58922934532165527344e-01) (256, -2.66896188259124755859e-01) (0, -1.25290095806121826172e-01) (1, -1.27616114914417266846e-02) (2, -9.97971147298812866211e-02) (3, -6.39504715800285339355e-02) (4, -2.00003646314144134521e-02) (5, -1.38682723045349121094e-01) (6, -1.34929880499839782715e-01) (7, -7.44991227984428405762e-02) (8, -5.91213852167129516602e-02) (9, -1.32274314761161804199e-01) (10, -2.93888766318559646606e-02) (11, -4.46963422000408172607e-02) (12, -3.00785936415195465088e-02) (13, -2.70605608820915222168e-02) (14, -1.43583431839942932129e-01) (15, -9.64430496096611022949e-02) (16, 2.01130751520395278931e-03) (17, -2.96354815363883972168e-02) (18, -1.12587444484233856201e-01) (19, 4.85544186085462570190e-03) (20, -1.99551507830619812012e-02) (21, 1.86257287859916687012e-02) (22, 