FANN_FLO_2.1
num_layers=4
learning_rate=0.700000
connection_rate=1.000000
network_type=0
learning_momentum=0.000000
training_algorithm=2
train_error_function=1
train_stop_function=0
cascade_output_change_fraction=0.010000
quickprop_decay=-0.000100
quickprop_mu=1.750000
rprop_increase_factor=1.200000
rprop_decrease_factor=0.500000
rprop_delta_min=0.000000
rprop_delta_max=50.000000
rprop_delta_zero=0.100000
cascade_output_stagnation_epochs=12
cascade_candidate_change_fraction=0.010000
cascade_candidate_stagnation_epochs=12
cascade_max_out_epochs=150
cascade_min_out_epochs=50
cascade_max_cand_epochs=150
cascade_min_cand_epochs=50
cascade_num_candidate_groups=2
bit_fail_limit=3.49999994039535522461e-01
cascade_candidate_limit=1.00000000000000000000e+03
cascade_weight_multiplier=4.00000005960464477539e-01
cascade_activation_functions_count=10
cascade_activation_functions=3 5 7 8 10 11 14 15 16 17 
cascade_activation_steepnesses_count=4
cascade_activation_steepnesses=2.50000000000000000000e-01 5.00000000000000000000e-01 7.50000000000000000000e-01 1.00000000000000000000e+00 
layer_sizes=1025 10 9 11 
scale_included=0
neurons (num_inputs, activation_function, activation_steepness)=(0, 0, 0.00000000000000000000e+00) (0, 0, 0.00000000000000000000e+00) (0, 0, 0.00000000000000000000e+00) (0, 0, 0.00000000000000000000e+00) (0, 0, 0.00000000000000000000e+00) (0, 0, 0.00000000000000000000e+00) (0, 0, 0.00000000000000000000e+00) (0, 0, 0.00000000000000000000e+00) (0, 0, 0.00000000000000000000e+00) (0, 0, 0.00000000000000000000e+00) (0, 0, 0.00000000000000000000e+00) (0, 0, 0.00000000000000000000e+00) (0, 0, 0.00000000000000000000e+00) (0, 0, 0.00000000000000000000e+00) (0, 0, 0.00000000000000000000e+00) (0, 0, 0.00000000000000000000e+00) (0, 0, 0.00000000000000000000e+00) (0, 0, 0.00000000000000000000e+00) (0, 0, 0.00000000000000000000e+00) (0, 0, 0.00000000000000000000e+00) (0, 0, 0.00000000000000000000e+00) (0, 0, 0.00000000000000000000e+00) (0, 0, 0.00000000000000000000e+00) (0, 0, 0.00000000000000000000e+00) (0, 0, 0.00000000000000000000e+00) (0, 0, 0.00000000000000000000e+00) (0, 0, 0.00000000000000000000e+00) (0, 0, 0.00000000000000000000e+00) (0, 0, 0.00000000000000000000e+00) (0, 0, 0.00000000000000000000e+00) (0, 0, 0.00000000000000000000e+00) (0, 0, 0.00000000000000000000e+00) (0, 0, 0.00000000000000000000e+00) (0, 0, 0.00000000000000000000e+00) (0, 0, 0.00000000000000000000e+00) (0, 0, 0.00000000000000000000e+00) (0, 0, 0.00000000000000000000e+00) (0, 0, 0.00000000000000000000e+00) (0, 0, 0.00000000000000000000e+00) (0, 0, 0.00000000000000000000e+00) (0, 0, 0.00000000000000000000e+00) (0, 0, 0.00000000000000000000e+00) (0, 0, 0.00000000000000000000e+00) (0, 0, 0.00000000000000000000e+00) (0, 0, 0.00000000000000000000e+00) (0, 0, 0.00000000000000000000e+00) (0, 0, 0.00000000000000000000e+00) (0, 0, 0.00000000000000000000e+00) (0, 0, 0.00000000000000000000e+00) (0, 0, 0.00000000000000000000e+00) (0, 0, 0.00000000000000000000e+00) (0, 0, 0.00000000000000000000e+00) (0, 0, 0.00000000000000000000e+00) (0, 0, 0.00000000000000000000e+00) (0, 0, 0.00000000000000000000e+00) (0, 0, 0.00000000000000000000e+00) (0, 0, 0.00000000000000000000e+00) (0, 0, 0.00000000000000000000e+00) (0, 0, 0.00000000000000000000e+00) (0, 0, 0.00000000000000000000e+00) (0, 0, 0.00000000000000000000e+00) (0, 0, 0.00000000000000000000e+00) (0, 0, 0.00000000000000000000e+00) (0, 0, 0.00000000000000000000e+00) (0, 0, 0.00000000000000000000e+00) (0, 0, 0.00000000000000000000e+00) (0, 0, 0.00000000000000000000e+00) (0, 0, 0.00000000000000000000e+00) (0, 0, 0.00000000000000000000e+00) (0, 0, 0.00000000000000000000e+00) (0, 0, 0.00000000000000000000e+00) (0, 0, 0.00000000000000000000e+00) (0, 0, 0.00000000000000000000e+00) (0, 0, 0.00000000000000000000e+00) (0, 0, 0.00000000000000000000e+00) (0, 0, 0.00000000000000000000e+00) (0, 0, 0.00000000000000000000e+00) (0, 0, 0.00000000000000000000e+00) (0, 0, 0.00000000000000000000e+00) (0, 0, 0.00000000000000000000e+00) (0, 0, 0.00000000000000000000e+00) (0, 0, 0.00000000000000000000e+00) (0, 0, 0.00000000000000000000e+00) (0, 0, 0.00000000000000000000e+00) (0, 0, 0.00000000000000000000e+00) (0, 0, 0.00000000000000000000e+00) (0, 0, 0.00000000000000000000e+00) (0, 0, 0.00000000000000000000e+00) (0, 0, 0.00000000000000000000e+00) (0, 0, 0.00000000000000000000e+00) (0, 0, 0.00000000000000000000e+00) (0, 0, 0.00000000000000000000e+00) (0, 0, 0.00000000000000000000e+00) (0, 0, 0.00000000000000000000e+00) (0, 0, 0.00000000000000000000e+00) (0, 0, 0.00000000000000000000e+00) (0, 0, 0.00000000000000000000e+00) (0, 0, 0.00000000000000000000e+00) (0, 0, 0.00000000000000000000e+00) (0, 0, 0.00000000000000000000e+00) (0, 0, 0.00000000000000000000e+00) (0, 0, 0.00000000000000000000e+00) (0, 0, 0.00000000000000000000e+00) (0, 0, 0.00000000000000000000e+00) (0, 0, 0.00000000000000000000e+00) (0, 0, 0.00000000000000000000e+00) (0, 0, 0.00000000000000000000e+00) (0, 0, 0.00000000000000000000e+00) (0, 0, 0.00000000000000000000e+00) (0, 0, 0.00000000000000000000e+00) (0, 0, 0.00000000000000000000e+00) (0, 0, 0.00000000000000000000e+00) (0, 0, 0.00000000000000000000e+00) (0, 0, 0.00000000000000000000e+00) (0, 0, 0.00000000000000000000e+00) (0, 0, 0.00000000000000000000e+00) (0, 0, 0.00000000000000000000e+00) (0, 0, 0.00000000000000000000e+00) (0, 0, 0.00000000000000000000e+00) (0, 0, 0.00000000000000000000e+00) (0, 0, 0.00000000000000000000e+00) (0, 0, 0.00000000000000000000e+00) (0, 0, 0.00000000000000000000e+00) (0, 0, 0.00000000000000000000e+00) (0, 0, 0.00000000000000000000e+00) (0, 0, 0.00000000000000000000e+00) (0, 0, 0.00000000000000000000e+00) (0, 0, 0.00000000000000000000e+00) (0, 0, 0.00000000000000000000e+00) (0, 0, 0.00000000000000000000e+00) (0, 0, 0.00000000000000000000e+00) (0, 0, 0.00000000000000000000e+00) (0, 0, 0.00000000000000000000e+00) (0, 0, 0.00000000000000000000e+00) (0, 0, 0.00000000000000000000e+00) (0, 0, 0.00000000000000000000e+00) (0, 0, 0.00000000000000000000e+00) (0, 0, 0.00000000000000000000e+00) (0, 0, 0.00000000000000000000e+00) (0, 0, 0.00000000000000000000e+00) (0, 0, 0.00000000000000000000e+00) (0, 0, 0.00000000000000000000e+00) (0, 0, 0.00000000000000000000e+00) (0, 0, 0.00000000000000000000e+00) (0, 0, 0.00000000000000000000e+00) (0, 0, 0.00000000000000000000e+00) (0, 0, 0.00000000000000000000e+00) (0, 0, 0.00000000000000000000e+00) (0, 0, 0.00000000000000000000e+00) (0, 0, 0.00000000000000000000e+00) (0, 0, 0.00000000000000000000e+00) (0, 0, 0.00000000000000000000e+00) (0, 0, 0.00000000000000000000e+00) (0, 0, 0.00000000000000000000e+00) (0, 0, 0.00000000000000000000e+00) (0, 0, 0.00000000000000000000e+00) (0, 0, 0.00000000000000000000e+00) (0, 0, 0.00000000000000000000e+00) (0, 0, 0.00000000000000000000e+00) (0, 0, 0.00000000000000000000e+00) (0, 0, 0.00000000000000000000e+00) (0, 0, 0.00000000000000000000e+00) (0, 0, 0.00000000000000000000e+00) (0, 0, 0.00000000000000000000e+00) (0, 0, 0.00000000000000000000e+00) (0, 0, 0.00000000000000000000e+00) (0, 0, 0.00000000000000000000e+00) (0, 0, 0.00000000000000000000e+00) (0, 0, 0.00000000000000000000e+00) (0, 0, 0.00000000000000000000e+00) (0, 0, 0.00000000000000000000e+00) (0, 0, 0.00000000000000000000e+00) (0, 0, 0.00000000000000000000e+00) (0, 0, 0.00000000000000000000e+00) (0, 0, 0.00000000000000000000e+00) (0, 0, 0.00000000000000000000e+00) (0, 0, 0.00000000000000000000e+00) (0, 0, 0.00000000000000000000e+00) (0, 0, 0.00000000000000000000e+00) (0, 0, 0.00000000000000000000e+00) (0, 0, 0.00000000000000000000e+00) (0, 0, 0.00000000000000000000e+00) (0, 0, 0.00000000000000000000e+00) (0, 0, 0.00000000000000000000e+00) (0, 0, 0.00000000000000000000e+00) (0, 0, 0.00000000000000000000e+00) (0, 0, 0.00000000000000000000e+00) (0, 0, 0.00000000000000000000e+00) (0, 0, 0.00000000000000000000e+00) (0, 0, 0.00000000000000000000e+00) (0, 0, 0.00000000000000000000e+00) (0, 0, 0.00000000000000000000e+00) (0, 0, 0.00000000000000000000e+00) (0, 0, 0.00000000000000000000e+00) (0, 0, 0.00000000000000000000e+00) (0, 0, 0.00000000000000000000e+00) (0, 0, 0.00000000000000000000e+00) (0, 0, 0.00000000000000000000e+00) (0, 0, 0.00000000000000000000e+00) (0, 0, 0.00000000000000000000e+00) (0, 0, 0.00000000000000000000e+00) (0, 0, 0.00000000000000000000e+00) (0, 0, 0.00000000000000000000e+00) (0, 0, 0.00000000000000000000e+00) (0, 0, 0.00000000000000000000e+00) (0, 0, 0.00000000000000000000e+00) (0, 0, 0.00000000000000000000e+00) (0, 0, 0.00000000000000000000e+00) (0, 0, 0.00000000000000000000e+00) (0, 0, 0.00000000000000000000e+00) (0, 0, 0.00000000000000000000e+00) (0, 0, 0.00000000000000000000e+00) (0, 0, 0.00000000000000000000e+00) (0, 0, 0.00000000000000000000e+00) (0, 0, 0.00000000000000000000e+00) (0, 0, 0.00000000000000000000e+00) (0, 0, 0.00000000000000000000e+00) (0, 0, 0.00000000000000000000e+00) (0, 0, 0.00000000000000000000e+00) (0, 0, 0.00000000000000000000e+00) (0, 0, 0.00000000000000000000e+00) (0, 0, 0.00000000000000000000e+00) (0, 0, 0.00000000000000000000e+00) (0, 0, 0.00000000000000000000e+00) (0, 0, 0.00000000000000000000e+00) (0, 0, 0.00000000000000000000e+00) (0, 0, 0.00000000000000000000e+00) (0, 0, 0.00000000000000000000e+00) (0, 0, 0.00000000000000000000e+00) (0, 0, 0.00000000000000000000e+00) (0, 0, 0.00000000000000000000e+00) (0, 0, 0.00000000000000000000e+00) (0, 0, 0.00000000000000000000e+00) (0, 0, 0.00000000000000000000e+00) (0, 0, 0.00000000000000000000e+00) (0, 0, 0.00000000000000000000e+00) (0, 0, 0.00000000000000000000e+00) (0, 0, 0.00000000000000000000e+00) (0, 0, 0.00000000000000000000e+00) (0, 0, 0.00000000000000000000e+00) (0, 0, 0.00000000000000000000e+00) (0, 0, 0.00000000000000000000e+00) (0, 0, 0.00000000000000000000e+00) (0, 0, 0.00000000000000000000e+00) (0, 0, 0.00000000000000000000e+00) (0, 0, 0.00000000000000000000e+00) (0, 0, 0.00000000000000000000e+00) (0, 0, 0.00000000000000000000e+00) (0, 0, 0.00000000000000000000e+00) (0, 0, 0.00000000000000000000e+00) (0, 0, 0.00000000000000000000e+00) (0, 0, 0.00000000000000000000e+00) (0, 0, 0.00000000000000000000e+00) (0, 0, 0.00000000000000000000e+00) (0, 0, 0.00000000000000000000e+00) (0, 0, 0.00000000000000000000e+00) (0, 0, 0.00000000000000000000e+00) (0, 0, 0.00000000000000000000e+00) (0, 0, 0.00000000000000000000e+00) (0, 0, 0.00000000000000000000e+00) (0, 0, 0.00000000000000000000e+00) (0, 0, 0.00000000000000000000e+00) (0, 0, 0.00000000000000000000e+00) (0, 0, 0.00000000000000000000e+00) (0, 0, 0.00000000000000000000e+00) (0, 0, 0.00000000000000000000e+00) (0, 0, 0.00000000000000000000e+00) (0, 0, 0.00000000000000000000e+00) (0, 0, 0.00000000000000000000e+00) (0, 0, 0.00000000000000000000e+00) (0, 0, 0.00000000000000000000e+00) (0, 0, 0.00000000000000000000e+00) (0, 0, 0.00000000000000000000e+00) (0, 0, 0.00000000000000000000e+00) (0, 0, 0.00000000000000000000e+00) (0, 0, 0.00000000000000000000e+00) (0, 0, 0.00000000000000000000e+00) (0, 0, 0.00000000000000000000e+00) (0, 0, 0.00000000000000000000e+00) (0, 0, 0.00000000000000000000e+00) (0, 0, 0.00000000000000000000e+00) (0, 0, 0.00000000000000000000e+00) (0, 0, 0.00000000000000000000e+00) (0, 0, 0.00000000000000000000e+00) (0, 0, 0.00000000000000000000e+00) (0, 0, 0.00000000000000000000e+00) (0, 0, 0.00000000000000000000e+00) (0, 0, 0.00000000000000000000e+00) (0, 0, 0.00000000000000000000e+00) (0, 0, 0.00000000000000000000e+00) (0, 0, 0.00000000000000000000e+00) (0, 0, 0.00000000000000000000e+00) (0, 0, 0.00000000000000000000e+00) (0, 0, 0.00000000000000000000e+00) (0, 0, 0.00000000000000000000e+00) (0, 0, 0.00000000000000000000e+00) (0, 0, 0.00000000000000000000e+00) (0, 0, 0.00000000000000000000e+00) (0, 0, 0.00000000000000000000e+00) (0, 0, 0.00000000000000000000e+00) (0, 0, 0.00000000000000000000e+00) (0, 0, 0.00000000000000000000e+00) (0, 0, 0.00000000000000000000e+00) (0, 0, 0.00000000000000000000e+00) (0, 0, 0.00000000000000000000e+00) (0, 0, 0.00000000000000000000e+00) (0, 0, 0.00000000000000000000e+00) (0, 0, 0.00000000000000000000e+00) (0, 0, 0.00000000000000000000e+00) (0, 0, 0.00000000000000000000e+00) (0, 0, 0.00000000000000000000e+00) (0, 0, 0.00000000000000000000e+00) (0, 0, 0.00000000000000000000e+00) (0, 0, 0.00000000000000000000e+00) (0, 0, 0.00000000000000000000e+00) (0, 0, 0.00000000000000000000e+00) (0, 0, 0.00000000000000000000e+00) (0, 0, 0.00000000000000000000e+00) (0, 0, 0.00000000000000000000e+00) (0, 0, 0.00000000000000000000e+00) (0, 0, 0.00000000000000000000e+00) (0, 0, 0.00000000000000000000e+00) (0, 0, 0.00000000000000000000e+00) (0, 0, 0.00000000000000000000e+00) (0, 0, 0.00000000000000000000e+00) (0, 0, 0.00000000000000000000e+00) (0, 0, 0.00000000000000000000e+00) (0, 0, 0.00000000000000000000e+00) (0, 0, 0.00000000000000000000e+00) (0, 0, 0.00000000000000000000e+00) (0, 0, 0.00000000000000000000e+00) (0, 0, 0.00000000000000000000e+00) (0, 0, 0.00000000000000000000e+00) (0, 0, 0.00000000000000000000e+00) (0, 0, 0.00000000000000000000e+00) (0, 0, 0.00000000000000000000e+00) (0, 0, 0.00000000000000000000e+00) (0, 0, 0.00000000000000000000e+00) (0, 0, 0.00000000000000000000e+00) (0, 0, 0.00000000000000000000e+00) (0, 0, 0.00000000000000000000e+00) (0, 0, 0.00000000000000000000e+00) (0, 0, 0.00000000000000000000e+00) (0, 0, 0.00000000000000000000e+00) (0, 0, 0.00000000000000000000e+00) (0, 0, 0.00000000000000000000e+00) (0, 0, 0.00000000000000000000e+00) (0, 0, 0.00000000000000000000e+00) (0, 0, 0.00000000000000000000e+00) (0, 0, 0.00000000000000000000e+00) (0, 0, 0.00000000000000000000e+00) (0, 0, 0.00000000000000000000e+00) (0, 0, 0.00000000000000000000e+00) (0, 0, 0.00000000000000000000e+00) (0, 0, 0.00000000000000000000e+00) (0, 0, 0.00000000000000000000e+00) (0, 0, 0.00000000000000000000e+00) (0, 0, 0.00000000000000000000e+00) (0, 0, 0.00000000000000000000e+00) (0, 0, 0.00000000000000000000e+00) (0, 0, 0.00000000000000000000e+00) (0, 0, 0.00000000000000000000e+00) (0, 0, 0.00000000000000000000e+00) (0, 0, 0.00000000000000000000e+00) (0, 0, 0.00000000000000000000e+00) (0, 0, 0.00000000000000000000e+00) (0, 0, 0.00000000000000000000e+00) (0, 0, 0.00000000000000000000e+00) (0, 0, 0.00000000000000000000e+00) (0, 0, 0.00000000000000000000e+00) (0, 0, 0.00000000000000000000e+00) (0, 0, 0.00000000000000000000e+00) (0, 0, 0.00000000000000000000e+00) (0, 0, 0.00000000000000000000e+00) (0, 0, 0.00000000000000000000e+00) (0, 0, 0.00000000000000000000e+00) (0, 0, 0.00000000000000000000e+00) (0, 0, 0.00000000000000000000e+00) (0, 0, 0.00000000000000000000e+00) (0, 0, 0.00000000000000000000e+00) (0, 0, 0.00000000000000000000e+00) (0, 0, 0.00000000000000000000e+00) (0, 0, 0.00000000000000000000e+00) (0, 0, 0.00000000000000000000e+00) (0, 0, 0.00000000000000000000e+00) (0, 0, 0.00000000000000000000e+00) (0, 0, 0.00000000000000000000e+00) (0, 0, 0.00000000000000000000e+00) (0, 0, 0.00000000000000000000e+00) (0, 0, 0.00000000000000000000e+00) (0, 0, 0.00000000000000000000e+00) (0, 0, 0.00000000000000000000e+00) (0, 0, 0.00000000000000000000e+00) (0, 0, 0.00000000000000000000e+00) (0, 0, 0.00000000000000000000e+00) (0, 0, 0.00000000000000000000e+00) (0, 0, 0.00000000000000000000e+00) (0, 0, 0.00000000000000000000e+00) (0, 0, 0.00000000000000000000e+00) (0, 0, 0.00000000000000000000e+00) (0, 0, 0.00000000000000000000e+00) (0, 0, 0.00000000000000000000e+00) (0, 0, 0.00000000000000000000e+00) (0, 0, 0.00000000000000000000e+00) (0, 0, 0.00000000000000000000e+00) (0, 0, 0.00000000000000000000e+00) (0, 0, 0.00000000000000000000e+00) (0, 0, 0.00000000000000000000e+00) (0, 0, 0.00000000000000000000e+00) (0, 0, 0.00000000000000000000e+00) (0, 0, 0.00000000000000000000e+00) (0, 0, 0.00000000000000000000e+00) (0, 0, 0.00000000000000000000e+00) (0, 0, 0.00000000000000000000e+00) (0, 0, 0.00000000000000000000e+00) (0, 0, 0.00000000000000000000e+00) (0, 0, 0.00000000000000000000e+00) (0, 0, 0.00000000000000000000e+00) (0, 0, 0.00000000000000000000e+00) (0, 0, 0.00000000000000000000e+00) (0, 0, 0.00000000000000000000e+00) (0, 0, 0.00000000000000000000e+00) (0, 0, 0.00000000000000000000e+00) (0, 0, 0.00000000000000000000e+00) (0, 0, 0.00000000000000000000e+00) (0, 0, 0.00000000000000000000e+00) (0, 0, 0.00000000000000000000e+00) (0, 0, 0.00000000000000000000e+00) (0, 0, 0.00000000000000000000e+00) (0, 0, 0.00000000000000000000e+00) (0, 0, 0.00000000000000000000e+00) (0, 0, 0.00000000000000000000e+00) (0, 0, 0.00000000000000000000e+00) (0, 0, 0.00000000000000000000e+00) (0, 0, 0.00000000000000000000e+00) (0, 0, 0.00000000000000000000e+00) (0, 0, 0.00000000000000000000e+00) (0, 0, 0.00000000000000000000e+00) (0, 0, 0.00000000000000000000e+00) (0, 0, 0.00000000000000000000e+00) (0, 0, 0.00000000000000000000e+00) (0, 0, 0.00000000000000000000e+00) (0, 0, 0.00000000000000000000e+00) (0, 0, 0.00000000000000000000e+00) (0, 0, 0.00000000000000000000e+00) (0, 0, 0.00000000000000000000e+00) (0, 0, 0.00000000000000000000e+00) (0, 0, 0.00000000000000000000e+00) (0, 0, 0.00000000000000000000e+00) (0, 0, 0.00000000000000000000e+00) (0, 0, 0.00000000000000000000e+00) (0, 0, 0.00000000000000000000e+00) (0, 0, 0.00000000000000000000e+00) (0, 0, 0.00000000000000000000e+00) (0, 0, 0.00000000000000000000e+00) (0, 0, 0.00000000000000000000e+00) (0, 0, 0.00000000000000000000e+00) (0, 0, 0.00000000000000000000e+00) (0, 0, 0.00000000000000000000e+00) (0, 0, 0.00000000000000000000e+00) (0, 0, 0.00000000000000000000e+00) (0, 0, 0.00000000000000000000e+00) (0, 0, 0.00000000000000000000e+00) (0, 0, 0.00000000000000000000e+00) (0, 0, 0.00000000000000000000e+00) (0, 0, 0.00000000000000000000e+00) (0, 0, 0.00000000000000000000e+00) (0, 0, 0.00000000000000000000e+00) (0, 0, 0.00000000000000000000e+00) (0, 0, 0.00000000000000000000e+00) (0, 0, 0.00000000000000000000e+00) (0, 0, 0.00000000000000000000e+00) (0, 0, 0.00000000000000000000e+00) (0, 0, 0.00000000000000000000e+00) (0, 0, 0.00000000000000000000e+00) (0, 0, 0.00000000000000000000e+00) (0, 0, 0.00000000000000000000e+00) (0, 0, 0.00000000000000000000e+00) (0, 0, 0.00000000000000000000e+00) (0, 0, 0.00000000000000000000e+00) (0, 0, 0.00000000000000000000e+00) (0, 0, 0.00000000000000000000e+00) (0, 0, 0.00000000000000000000e+00) (0, 0, 0.00000000000000000000e+00) (0, 0, 0.00000000000000000000e+00) (0, 0, 0.00000000000000000000e+00) (0, 0, 0.00000000000000000000e+00) (0, 0, 0.00000000000000000000e+00) (0, 0, 0.00000000000000000000e+00) (0, 0, 0.00000000000000000000e+00) (0, 0, 0.00000000000000000000e+00) (0, 0, 0.00000000000000000000e+00) (0, 0, 0.00000000000000000000e+00) (0, 0, 0.00000000000000000000e+00) (0, 0, 0.00000000000000000000e+00) (0, 0, 0.00000000000000000000e+00) (0, 0, 0.00000000000000000000e+00) (0, 0, 0.00000000000000000000e+00) (0, 0, 0.00000000000000000000e+00) (0, 0, 0.00000000000000000000e+00) (0, 0, 0.00000000000000000000e+00) (0, 0, 0.00000000000000000000e+00) (0, 0, 0.00000000000000000000e+00) (0, 0, 0.00000000000000000000e+00) (0, 0, 0.00000000000000000000e+00) (0, 0, 0.00000000000000000000e+00) (0, 0, 0.00000000000000000000e+00) (0, 0, 0.00000000000000000000e+00) (0, 0, 0.00000000000000000000e+00) (0, 0, 0.00000000000000000000e+00) (0, 0, 0.00000000000000000000e+00) (0, 0, 0.00000000000000000000e+00) (0, 0, 0.00000000000000000000e+00) (0, 0, 0.00000000000000000000e+00) (0, 0, 0.00000000000000000000e+00) (0, 0, 0.00000000000000000000e+00) (0, 0, 0.00000000000000000000e+00) (0, 0, 0.00000000000000000000e+00) (0, 0, 0.00000000000000000000e+00) (0, 0, 0.00000000000000000000e+00) (0, 0, 0.00000000000000000000e+00) (0, 0, 0.00000000000000000000e+00) (0, 0, 0.00000000000000000000e+00) (0, 0, 0.00000000000000000000e+00) (0, 0, 0.00000000000000000000e+00) (0, 0, 0.00000000000000000000e+00) (0, 0, 0.00000000000000000000e+00) (0, 0, 0.00000000000000000000e+00) (0, 0, 0.00000000000000000000e+00) (0, 0, 0.00000000000000000000e+00) (0, 0, 0.00000000000000000000e+00) (0, 0, 0.00000000000000000000e+00) (0, 0, 0.00000000000000000000e+00) (0, 0, 0.00000000000000000000e+00) (0, 0, 0.00000000000000000000e+00) (0, 0, 0.00000000000000000000e+00) (0, 0, 0.00000000000000000000e+00) (0, 0, 0.00000000000000000000e+00) (0, 0, 0.00000000000000000000e+00) (0, 0, 0.00000000000000000000e+00) (0, 0, 0.00000000000000000000e+00) (0, 0, 0.00000000000000000000e+00) (0, 0, 0.00000000000000000000e+00) (0, 0, 0.00000000000000000000e+00) (0, 0, 0.00000000000000000000e+00) (0, 0, 0.00000000000000000000e+00) (0, 0, 0.00000000000000000000e+00) (0, 0, 0.00000000000000000000e+00) (0, 0, 0.00000000000000000000e+00) (0, 0, 0.00000000000000000000e+00) (0, 0, 0.00000000000000000000e+00) (0, 0, 0.00000000000000000000e+00) (0, 0, 0.00000000000000000000e+00) (0, 0, 0.00000000000000000000e+00) (0, 0, 0.00000000000000000000e+00) (0, 0, 0.00000000000000000000e+00) (0, 0, 0.00000000000000000000e+00) (0, 0, 0.00000000000000000000e+00) (0, 0, 0.00000000000000000000e+00) (0, 0, 0.00000000000000000000e+00) (0, 0, 0.00000000000000000000e+00) (0, 0, 0.00000000000000000000e+00) (0, 0, 0.00000000000000000000e+00) (0, 0, 0.00000000000000000000e+00) (0, 0, 0.00000000000000000000e+00) (0, 0, 0.00000000000000000000e+00) (0, 0, 0.00000000000000000000e+00) (0, 0, 0.00000000000000000000e+00) (0, 0, 0.00000000000000000000e+00) (0, 0, 0.00000000000000000000e+00) (0, 0, 0.00000000000000000000e+00) (0, 0, 0.00000000000000000000e+00) (0, 0, 0.00000000000000000000e+00) (0, 0, 0.00000000000000000000e+00) (0, 0, 0.00000000000000000000e+00) (0, 0, 0.00000000000000000000e+00) (0, 0, 0.00000000000000000000e+00) (0, 0, 0.00000000000000000000e+00) (0, 0, 0.00000000000000000000e+00) (0, 0, 0.00000000000000000000e+00) (0, 0, 0.00000000000000000000e+00) (0, 0, 0.00000000000000000000e+00) (0, 0, 0.00000000000000000000e+00) (0, 0, 0.00000000000000000000e+00) (0, 0, 0.00000000000000000000e+00) (0, 0, 0.00000000000000000000e+00) (0, 0, 0.00000000000000000000e+00) (0, 0, 0.00000000000000000000e+00) (0, 0, 0.00000000000000000000e+00) (0, 0, 0.00000000000000000000e+00) (0, 0, 0.00000000000000000000e+00) (0, 0, 0.00000000000000000000e+00) (0, 0, 0.00000000000000000000e+00) (0, 0, 0.00000000000000000000e+00) (0, 0, 0.00000000000000000000e+00) (0, 0, 0.00000000000000000000e+00) (0, 0, 0.00000000000000000000e+00) (0, 0, 0.00000000000000000000e+00) (0, 0, 0.00000000000000000000e+00) (0, 0, 0.00000000000000000000e+00) (0, 0, 0.00000000000000000000e+00) (0, 0, 0.00000000000000000000e+00) (0, 0, 0.00000000000000000000e+00) (0, 0, 0.00000000000000000000e+00) (0, 0, 0.00000000000000000000e+00) (0, 0, 0.00000000000000000000e+00) (0, 0, 0.00000000000000000000e+00) (0, 0, 0.00000000000000000000e+00) (0, 0, 0.00000000000000000000e+00) (0, 0, 0.00000000000000000000e+00) (0, 0, 0.00000000000000000000e+00) (0, 0, 0.00000000000000000000e+00) (0, 0, 0.00000000000000000000e+00) (0, 0, 0.00000000000000000000e+00) (0, 0, 0.00000000000000000000e+00) (0, 0, 0.00000000000000000000e+00) (0, 0, 0.00000000000000000000e+00) (0, 0, 0.00000000000000000000e+00) (0, 0, 0.00000000000000000000e+00) (0, 0, 0.00000000000000000000e+00) (0, 0, 0.00000000000000000000e+00) (0, 0, 0.00000000000000000000e+00) (0, 0, 0.00000000000000000000e+00) (0, 0, 0.00000000000000000000e+00) (0, 0, 0.00000000000000000000e+00) (0, 0, 0.00000000000000000000e+00) (0, 0, 0.00000000000000000000e+00) (0, 0, 0.00000000000000000000e+00) (0, 0, 0.00000000000000000000e+00) (0, 0, 0.00000000000000000000e+00) (0, 0, 0.00000000000000000000e+00) (0, 0, 0.00000000000000000000e+00) (0, 0, 0.00000000000000000000e+00) (0, 0, 0.00000000000000000000e+00) (0, 0, 0.00000000000000000000e+00) (0, 0, 0.00000000000000000000e+00) (0, 0, 0.00000000000000000000e+00) (0, 0, 0.00000000000000000000e+00) (0, 0, 0.00000000000000000000e+00) (0, 0, 0.00000000000000000000e+00) (0, 0, 0.00000000000000000000e+00) (0, 0, 0.00000000000000000000e+00) (0, 0, 0.00000000000000000000e+00) (0, 0, 0.00000000000000000000e+00) (0, 0, 0.00000000000000000000e+00) (0, 0, 0.00000000000000000000e+00) (0, 0, 0.00000000000000000000e+00) (0, 0, 0.00000000000000000000e+00) (0, 0, 0.00000000000000000000e+00) (0, 0, 0.00000000000000000000e+00) (0, 0, 0.00000000000000000000e+00) (0, 0, 0.00000000000000000000e+00) (0, 0, 0.00000000000000000000e+00) (0, 0, 0.00000000000000000000e+00) (0, 0, 0.00000000000000000000e+00) (0, 0, 0.00000000000000000000e+00) (0, 0, 0.00000000000000000000e+00) (0, 0, 0.00000000000000000000e+00) (0, 0, 0.00000000000000000000e+00) (0, 0, 0.00000000000000000000e+00) (0, 0, 0.00000000000000000000e+00) (0, 0, 0.00000000000000000000e+00) (0, 0, 0.00000000000000000000e+00) (0, 0, 0.00000000000000000000e+00) (0, 0, 0.00000000000000000000e+00) (0, 0, 0.00000000000000000000e+00) (0, 0, 0.00000000000000000000e+00) (0, 0, 0.00000000000000000000e+00) (0, 0, 0.00000000000000000000e+00) (0, 0, 0.00000000000000000000e+00) (0, 0, 0.00000000000000000000e+00) (0, 0, 0.00000000000000000000e+00) (0, 0, 0.00000000000000000000e+00) (0, 0, 0.00000000000000000000e+00) (0, 0, 0.00000000000000000000e+00) (0, 0, 0.00000000000000000000e+00) (0, 0, 0.00000000000000000000e+00) (0, 0, 0.00000000000000000000e+00) (0, 0, 0.00000000000000000000e+00) (0, 0, 0.00000000000000000000e+00) (0, 0, 0.00000000000000000000e+00) (0, 0, 0.00000000000000000000e+00) (0, 0, 0.00000000000000000000e+00) (0, 0, 0.00000000000000000000e+00) (0, 0, 0.00000000000000000000e+00) (0, 0, 0.00000000000000000000e+00) (0, 0, 0.00000000000000000000e+00) (0, 0, 0.00000000000000000000e+00) (0, 0, 0.00000000000000000000e+00) (0, 0, 0.00000000000000000000e+00) (0, 0, 0.00000000000000000000e+00) (0, 0, 0.00000000000000000000e+00) (0, 0, 0.00000000000000000000e+00) (0, 0, 0.00000000000000000000e+00) (0, 0, 0.00000000000000000000e+00) (0, 0, 0.00000000000000000000e+00) (0, 0, 0.00000000000000000000e+00) (0, 0, 0.00000000000000000000e+00) (0, 0, 0.00000000000000000000e+00) (0, 0, 0.00000000000000000000e+00) (0, 0, 0.00000000000000000000e+00) (0, 0, 0.00000000000000000000e+00) (0, 0, 0.00000000000000000000e+00) (0, 0, 0.00000000000000000000e+00) (0, 0, 0.00000000000000000000e+00) (0, 0, 0.00000000000000000000e+00) (0, 0, 0.00000000000000000000e+00) (0, 0, 0.00000000000000000000e+00) (0, 0, 0.00000000000000000000e+00) (0, 0, 0.00000000000000000000e+00) (0, 0, 0.00000000000000000000e+00) (0, 0, 0.00000000000000000000e+00) (0, 0, 0.00000000000000000000e+00) (0, 0, 0.00000000000000000000e+00) (0, 0, 0.00000000000000000000e+00) (0, 0, 0.00000000000000000000e+00) (0, 0, 0.00000000000000000000e+00) (0, 0, 0.00000000000000000000e+00) (0, 0, 0.00000000000000000000e+00) (0, 0, 0.00000000000000000000e+00) (0, 0, 0.00000000000000000000e+00) (0, 0, 0.00000000000000000000e+00) (0, 0, 0.00000000000000000000e+00) (0, 0, 0.00000000000000000000e+00) (0, 0, 0.00000000000000000000e+00) (0, 0, 0.00000000000000000000e+00) (0, 0, 0.00000000000000000000e+00) (0, 0, 0.00000000000000000000e+00) (0, 0, 0.00000000000000000000e+00) (0, 0, 0.00000000000000000000e+00) (0, 0, 0.00000000000000000000e+00) (0, 0, 0.00000000000000000000e+00) (0, 0, 0.00000000000000000000e+00) (0, 0, 0.00000000000000000000e+00) (0, 0, 0.00000000000000000000e+00) (0, 0, 0.00000000000000000000e+00) (0, 0, 0.00000000000000000000e+00) (0, 0, 0.00000000000000000000e+00) (0, 0, 0.00000000000000000000e+00) (0, 0, 0.00000000000000000000e+00) (0, 0, 0.00000000000000000000e+00) (0, 0, 0.00000000000000000000e+00) (0, 0, 0.00000000000000000000e+00) (0, 0, 0.00000000000000000000e+00) (0, 0, 0.00000000000000000000e+00) (0, 0, 0.00000000000000000000e+00) (0, 0, 0.00000000000000000000e+00) (0, 0, 0.00000000000000000000e+00) (0, 0, 0.00000000000000000000e+00) (0, 0, 0.00000000000000000000e+00) (0, 0, 0.00000000000000000000e+00) (0, 0, 0.00000000000000000000e+00) (0, 0, 0.00000000000000000000e+00) (0, 0, 0.00000000000000000000e+00) (0, 0, 0.00000000000000000000e+00) (0, 0, 0.00000000000000000000e+00) (0, 0, 0.00000000000000000000e+00) (0, 0, 0.00000000000000000000e+00) (0, 0, 0.00000000000000000000e+00) (0, 0, 0.00000000000000000000e+00) (0, 0, 0.00000000000000000000e+00) (0, 0, 0.00000000000000000000e+00) (0, 0, 0.00000000000000000000e+00) (0, 0, 0.00000000000000000000e+00) (0, 0, 0.00000000000000000000e+00) (0, 0, 0.00000000000000000000e+00) (0, 0, 0.00000000000000000000e+00) (0, 0, 0.00000000000000000000e+00) (0, 0, 0.00000000000000000000e+00) (0, 0, 0.00000000000000000000e+00) (0, 0, 0.00000000000000000000e+00) (0, 0, 0.00000000000000000000e+00) (0, 0, 0.00000000000000000000e+00) (0, 0, 0.00000000000000000000e+00) (0, 0, 0.00000000000000000000e+00) (0, 0, 0.00000000000000000000e+00) (0, 0, 0.00000000000000000000e+00) (0, 0, 0.00000000000000000000e+00) (0, 0, 0.00000000000000000000e+00) (0, 0, 0.00000000000000000000e+00) (0, 0, 0.00000000000000000000e+00) (0, 0, 0.00000000000000000000e+00) (0, 0, 0.00000000000000000000e+00) (0, 0, 0.00000000000000000000e+00) (0, 0, 0.00000000000000000000e+00) (0, 0, 0.00000000000000000000e+00) (0, 0, 0.00000000000000000000e+00) (0, 0, 0.00000000000000000000e+00) (0, 0, 0.00000000000000000000e+00) (0, 0, 0.00000000000000000000e+00) (0, 0, 0.00000000000000000000e+00) (0, 0, 0.00000000000000000000e+00) (0, 0, 0.00000000000000000000e+00) (0, 0, 0.00000000000000000000e+00) (0, 0, 0.00000000000000000000e+00) (0, 0, 0.00000000000000000000e+00) (0, 0, 0.00000000000000000000e+00) (0, 0, 0.00000000000000000000e+00) (0, 0, 0.00000000000000000000e+00) (0, 0, 0.00000000000000000000e+00) (0, 0, 0.00000000000000000000e+00) (0, 0, 0.00000000000000000000e+00) (0, 0, 0.00000000000000000000e+00) (0, 0, 0.00000000000000000000e+00) (0, 0, 0.00000000000000000000e+00) (0, 0, 0.00000000000000000000e+00) (0, 0, 0.00000000000000000000e+00) (0, 0, 0.00000000000000000000e+00) (0, 0, 0.00000000000000000000e+00) (0, 0, 0.00000000000000000000e+00) (0, 0, 0.00000000000000000000e+00) (0, 0, 0.00000000000000000000e+00) (0, 0, 0.00000000000000000000e+00) (0, 0, 0.00000000000000000000e+00) (0, 0, 0.00000000000000000000e+00) (0, 0, 0.00000000000000000000e+00) (0, 0, 0.00000000000000000000e+00) (0, 0, 0.00000000000000000000e+00) (0, 0, 0.00000000000000000000e+00) (0, 0, 0.00000000000000000000e+00) (0, 0, 0.00000000000000000000e+00) (0, 0, 0.00000000000000000000e+00) (0, 0, 0.00000000000000000000e+00) (0, 0, 0.00000000000000000000e+00) (0, 0, 0.00000000000000000000e+00) (0, 0, 0.00000000000000000000e+00) (0, 0, 0.00000000000000000000e+00) (0, 0, 0.00000000000000000000e+00) (0, 0, 0.00000000000000000000e+00) (0, 0, 0.00000000000000000000e+00) (0, 0, 0.00000000000000000000e+00) (0, 0, 0.00000000000000000000e+00) (0, 0, 0.00000000000000000000e+00) (0, 0, 0.00000000000000000000e+00) (0, 0, 0.00000000000000000000e+00) (0, 0, 0.00000000000000000000e+00) (0, 0, 0.00000000000000000000e+00) (0, 0, 0.00000000000000000000e+00) (0, 0, 0.00000000000000000000e+00) (0, 0, 0.00000000000000000000e+00) (0, 0, 0.00000000000000000000e+00) (0, 0, 0.00000000000000000000e+00) (0, 0, 0.00000000000000000000e+00) (0, 0, 0.00000000000000000000e+00) (0, 0, 0.00000000000000000000e+00) (0, 0, 0.00000000000000000000e+00) (0, 0, 0.00000000000000000000e+00) (0, 0, 0.00000000000000000000e+00) (0, 0, 0.00000000000000000000e+00) (0, 0, 0.00000000000000000000e+00) (0, 0, 0.00000000000000000000e+00) (0, 0, 0.00000000000000000000e+00) (0, 0, 0.00000000000000000000e+00) (0, 0, 0.00000000000000000000e+00) (0, 0, 0.00000000000000000000e+00) (0, 0, 0.00000000000000000000e+00) (0, 0, 0.00000000000000000000e+00) (0, 0, 0.00000000000000000000e+00) (0, 0, 0.00000000000000000000e+00) (0, 0, 0.00000000000000000000e+00) (0, 0, 0.00000000000000000000e+00) (0, 0, 0.00000000000000000000e+00) (0, 0, 0.00000000000000000000e+00) (0, 0, 0.00000000000000000000e+00) (0, 0, 0.00000000000000000000e+00) (0, 0, 0.00000000000000000000e+00) (0, 0, 0.00000000000000000000e+00) (0, 0, 0.00000000000000000000e+00) (0, 0, 0.00000000000000000000e+00) (0, 0, 0.00000000000000000000e+00) (0, 0, 0.00000000000000000000e+00) (0, 0, 0.00000000000000000000e+00) (0, 0, 0.00000000000000000000e+00) (0, 0, 0.00000000000000000000e+00) (0, 0, 0.00000000000000000000e+00) (0, 0, 0.00000000000000000000e+00) (0, 0, 0.00000000000000000000e+00) (0, 0, 0.00000000000000000000e+00) (0, 0, 0.00000000000000000000e+00) (0, 0, 0.00000000000000000000e+00) (0, 0, 0.00000000000000000000e+00) (0, 0, 0.00000000000000000000e+00) (0, 0, 0.00000000000000000000e+00) (0, 0, 0.00000000000000000000e+00) (0, 0, 0.00000000000000000000e+00) (0, 0, 0.00000000000000000000e+00) (0, 0, 0.00000000000000000000e+00) (0, 0, 0.00000000000000000000e+00) (0, 0, 0.00000000000000000000e+00) (0, 0, 0.00000000000000000000e+00) (0, 0, 0.00000000000000000000e+00) (0, 0, 0.00000000000000000000e+00) (0, 0, 0.00000000000000000000e+00) (0, 0, 0.00000000000000000000e+00) (0, 0, 0.00000000000000000000e+00) (0, 0, 0.00000000000000000000e+00) (0, 0, 0.00000000000000000000e+00) (0, 0, 0.00000000000000000000e+00) (0, 0, 0.00000000000000000000e+00) (0, 0, 0.00000000000000000000e+00) (0, 0, 0.00000000000000000000e+00) (0, 0, 0.00000000000000000000e+00) (0, 0, 0.00000000000000000000e+00) (0, 0, 0.00000000000000000000e+00) (0, 0, 0.00000000000000000000e+00) (0, 0, 0.00000000000000000000e+00) (0, 0, 0.00000000000000000000e+00) (0, 0, 0.00000000000000000000e+00) (0, 0, 0.00000000000000000000e+00) (0, 0, 0.00000000000000000000e+00) (0, 0, 0.00000000000000000000e+00) (0, 0, 0.00000000000000000000e+00) (0, 0, 0.00000000000000000000e+00) (0, 0, 0.00000000000000000000e+00) (0, 0, 0.00000000000000000000e+00) (0, 0, 0.00000000000000000000e+00) (0, 0, 0.00000000000000000000e+00) (0, 0, 0.00000000000000000000e+00) (0, 0, 0.00000000000000000000e+00) (0, 0, 0.00000000000000000000e+00) (0, 0, 0.00000000000000000000e+00) (0, 0, 0.00000000000000000000e+00) (0, 0, 0.00000000000000000000e+00) (0, 0, 0.00000000000000000000e+00) (0, 0, 0.00000000000000000000e+00) (0, 0, 0.00000000000000000000e+00) (0, 0, 0.00000000000000000000e+00) (0, 0, 0.00000000000000000000e+00) (0, 0, 0.00000000000000000000e+00) (0, 0, 0.00000000000000000000e+00) (0, 0, 0.00000000000000000000e+00) (0, 0, 0.00000000000000000000e+00) (0, 0, 0.00000000000000000000e+00) (0, 0, 0.00000000000000000000e+00) (0, 0, 0.00000000000000000000e+00) (0, 0, 0.00000000000000000000e+00) (0, 0, 0.00000000000000000000e+00) (0, 0, 0.00000000000000000000e+00) (0, 0, 0.00000000000000000000e+00) (0, 0, 0.00000000000000000000e+00) (0, 0, 0.00000000000000000000e+00) (0, 0, 0.00000000000000000000e+00) (0, 0, 0.00000000000000000000e+00) (0, 0, 0.00000000000000000000e+00) (0, 0, 0.00000000000000000000e+00) (0, 0, 0.00000000000000000000e+00) (0, 0, 0.00000000000000000000e+00) (0, 0, 0.00000000000000000000e+00) (0, 0, 0.00000000000000000000e+00) (0, 0, 0.00000000000000000000e+00) (0, 0, 0.00000000000000000000e+00) (0, 0, 0.00000000000000000000e+00) (0, 0, 0.00000000000000000000e+00) (0, 0, 0.00000000000000000000e+00) (0, 0, 0.00000000000000000000e+00) (0, 0, 0.00000000000000000000e+00) (0, 0, 0.00000000000000000000e+00) (0, 0, 0.00000000000000000000e+00) (0, 0, 0.00000000000000000000e+00) (0, 0, 0.00000000000000000000e+00) (0, 0, 0.00000000000000000000e+00) (0, 0, 0.00000000000000000000e+00) (0, 0, 0.00000000000000000000e+00) (0, 0, 0.00000000000000000000e+00) (0, 0, 0.00000000000000000000e+00) (0, 0, 0.00000000000000000000e+00) (0, 0, 0.00000000000000000000e+00) (0, 0, 0.00000000000000000000e+00) (0, 0, 0.00000000000000000000e+00) (0, 0, 0.00000000000000000000e+00) (0, 0, 0.00000000000000000000e+00) (0, 0, 0.00000000000000000000e+00) (0, 0, 0.00000000000000000000e+00) (0, 0, 0.00000000000000000000e+00) (0, 0, 0.00000000000000000000e+00) (0, 0, 0.00000000000000000000e+00) (0, 0, 0.00000000000000000000e+00) (0, 0, 0.00000000000000000000e+00) (0, 0, 0.00000000000000000000e+00) (0, 0, 0.00000000000000000000e+00) (0, 0, 0.00000000000000000000e+00) (0, 0, 0.00000000000000000000e+00) (0, 0, 0.00000000000000000000e+00) (0, 0, 0.00000000000000000000e+00) (0, 0, 0.00000000000000000000e+00) (0, 0, 0.00000000000000000000e+00) (0, 0, 0.00000000000000000000e+00) (0, 0, 0.00000000000000000000e+00) (0, 0, 0.00000000000000000000e+00) (0, 0, 0.00000000000000000000e+00) (0, 0, 0.00000000000000000000e+00) (0, 0, 0.00000000000000000000e+00) (0, 0, 0.00000000000000000000e+00) (0, 0, 0.00000000000000000000e+00) (0, 0, 0.00000000000000000000e+00) (0, 0, 0.00000000000000000000e+00) (0, 0, 0.00000000000000000000e+00) (0, 0, 0.00000000000000000000e+00) (0, 0, 0.00000000000000000000e+00) (0, 0, 0.00000000000000000000e+00) (0, 0, 0.00000000000000000000e+00) (0, 0, 0.00000000000000000000e+00) (0, 0, 0.00000000000000000000e+00) (0, 0, 0.00000000000000000000e+00) (0, 0, 0.00000000000000000000e+00) (0, 0, 0.00000000000000000000e+00) (0, 0, 0.00000000000000000000e+00) (0, 0, 0.00000000000000000000e+00) (0, 0, 0.00000000000000000000e+00) (0, 0, 0.00000000000000000000e+00) (0, 0, 0.00000000000000000000e+00) (0, 0, 0.00000000000000000000e+00) (0, 0, 0.00000000000000000000e+00) (0, 0, 0.00000000000000000000e+00) (0, 0, 0.00000000000000000000e+00) (0, 0, 0.00000000000000000000e+00) (0, 0, 0.00000000000000000000e+00) (0, 0, 0.00000000000000000000e+00) (0, 0, 0.00000000000000000000e+00) (0, 0, 0.00000000000000000000e+00) (0, 0, 0.00000000000000000000e+00) (0, 0, 0.00000000000000000000e+00) (0, 0, 0.00000000000000000000e+00) (0, 0, 0.00000000000000000000e+00) (0, 0, 0.00000000000000000000e+00) (1025, 11, 5.00000000000000000000e-01) (1025, 11, 5.00000000000000000000e-01) (1025, 11, 5.00000000000000000000e-01) (1025, 11, 5.00000000000000000000e-01) (1025, 11, 5.00000000000000000000e-01) (1025, 11, 5.00000000000000000000e-01) (1025, 11, 5.00000000000000000000e-01) (1025, 11, 5.00000000000000000000e-01) (1025, 11, 5.00000000000000000000e-01) (0, 11, 0.00000000000000000000e+00) (10, 11, 5.00000000000000000000e-01) (10, 11, 5.00000000000000000000e-01) (10, 11, 5.00000000000000000000e-01) (10, 11, 5.00000000000000000000e-01) (10, 11, 5.00000000000000000000e-01) (10, 11, 5.00000000000000000000e-01) (10, 11, 5.00000000000000000000e-01) (10, 11, 5.00000000000000000000e-01) (0, 11, 0.00000000000000000000e+00) (9, 11, 5.00000000000000000000e-01) (9, 11, 5.00000000000000000000e-01) (9, 11, 5.00000000000000000000e-01) (9, 11, 5.00000000000000000000e-01) (9, 11, 5.00000000000000000000e-01) (9, 11, 5.00000000000000000000e-01) (9, 11, 5.00000000000000000000e-01) (9, 11, 5.00000000000000000000e-01) (9, 11, 5.00000000000000000000e-01) (9, 11, 5.00000000000000000000e-01) (0, 11, 0.00000000000000000000e+00) 
connections (connected_to_neuron, weight)=(0, -1.19375574588775634766e+00) (1, -1.05615198612213134766e+00) (2, -8.23256492614746093750e-01) (3, -1.25504148006439208984e+00) (4, -1.07246649265289306641e+00) (5, -1.24594104290008544922e+00) (6, -1.05628025531768798828e+00) (7, -9.08657193183898925781e-01) (8, -1.15396451950073242188e+00) (9, -9.69684064388275146484e-01) (10, -9.60901021957397460938e-01) (11, -1.11976528167724609375e+00) (12, -9.22611951828002929688e-01) (13, -1.23341917991638183594e+00) (14, -8.95175933837890625000e-01) (15, -9.41705822944641113281e-01) (16, -1.00232303142547607422e+00) (17, -1.26996791362762451172e+00) (18, -1.22232151031494140625e+00) (19, -9.07792985439300537109e-01) (20, -7.16009855270385742188e-01) (21, -1.19767522811889648438e+00) (22, -1.20543885231018066406e+00) (23, -1.28032839298248291016e+00) (24, -1.15557825565338134766e+00) (25, -1.22162473201751708984e+00) (26, -7.48366355895996093750e-01) (27, -8.92653703689575195313e-01) (28, -1.28882420063018798828e+00) (29, -9.05342936515808105469e-01) (30, -8.64363908767700195313e-01) (31, -1.19031345844268798828e+00) (32, -1.01705765724182128906e+00) (33, -1.18234837055206298828e+00) (34, -1.27216184139251708984e+00) (35, -9.79152798652648925781e-01) (36, -1.22834479808807373047e+00) (37, -1.17169153690338134766e+00) (38, -7.78885602951049804688e-01) (39, -7.44264125823974609375e-01) (40, -1.25320684909820556641e+00) (41, -1.48198115825653076172e+00) (42, -1.74963092803955078125e+00) (43, -1.11638140678405761719e+00) (44, -1.48348319530487060547e+00) (45, -1.64057421684265136719e+00) (46, -2.59662675857543945313e+00) (47, -1.33666765689849853516e+00) (48, -1.96095883846282958984e+00) (49, -2.95842075347900390625e+00) (50, -3.18336248397827148438e+00) (51, -6.95636630058288574219e-01) (52, -1.86322700977325439453e+00) (53, -1.02926099300384521484e+00) (54, -1.25870311260223388672e+00) (55, -1.48477506637573242188e+00) (56, -1.39067065715789794922e+00) (57, -1.36385595798492431641e+00) (58, -7.33919262886047363281e-01) (59, -9.07833218574523925781e-01) (60, -1.16830408573150634766e+00) (61, -7.69936084747314453125e-01) (62, -7.27089405059814453125e-01) (63, -9.35738444328308105469e-01) (64, -1.07050716876983642578e+00) (65, -1.08094441890716552734e+00) (66, -1.01511645317077636719e+00) (67, -9.87063288688659667969e-01) (68, -1.23482668399810791016e+00) (69, -1.23926150798797607422e+00) (70, -9.77193117141723632813e-01) (71, -1.12864935398101806641e+00) (72, -1.73566842079162597656e+00) (73, -1.07110154628753662109e+00) (74, -2.83639025688171386719e+00) (75, -1.41033954620361328125e+01) (76, -3.06548645019531250000e+02) (77, -3.10516265869140625000e+02) (78, -1.14047775268554687500e+02) (79, -1.02767333984375000000e+02) (80, -3.15093566894531250000e+02) (81, -1.17536840438842773438e+01) (82, -5.09647607803344726563e-01) (83, -8.34463596343994140625e+00) (84, -3.17773866653442382813e+00) (85, -3.61389493942260742188e+00) (86, -1.67420220375061035156e+00) (87, -1.26795148849487304688e+00) (88, -1.50311493873596191406e+00) (89, -1.72368144989013671875e+00) (90, -1.27644586563110351563e+00) (91, -9.99082744121551513672e-01) (92, -1.07230174541473388672e+00) (93, -7.42616772651672363281e-01) (94, -9.20595765113830566406e-01) (95, -7.23628759384155273438e-01) (96, -8.92232656478881835938e-01) (97, -7.87550926208496093750e-01) (98, -9.95376229286193847656e-01) (99, -6.99111104011535644531e-01) (100, -8.80806565284729003906e-01) (101, -7.32934355735778808594e-01) (102, -1.26600742340087890625e+00) (103, -1.06951546669006347656e+00) (104, -1.25557386875152587891e+00) (105, -2.80393195152282714844e+00) (106, -2.54264774322509765625e+01) (107, -2.78527221679687500000e+01) (108, -1.47601660156250000000e+03) (109, -7.33905334472656250000e+02) (110, 4.20235504150390625000e+02) (111, 1.26963676452636718750e+02) (112, 3.81722831726074218750e+01) (113, 6.41615390777587890625e-01) (114, -1.26974719238281250000e+03) (115, -1.86836376190185546875e+01) (116, -1.66785967350006103516e+00) (117, -5.14106178283691406250e+00) (118, -2.86346650123596191406e+00) (119, -5.30140590667724609375e+00) (120, -9.58202302455902099609e-01) (121, -1.64225757122039794922e+00) (122, -1.44136655330657958984e+00) (123, -1.17219316959381103516e+00) (124, -1.20692121982574462891e+00) (125, -1.25511467456817626953e+00) (126, -1.19979822635650634766e+00) (127, -1.13920867443084716797e+00) (128, -9.76662516593933105469e-01) (129, -1.06902432441711425781e+00) (130, -1.16238987445831298828e+00) (131, -7.16927051544189453125e-01) (132, -1.21148049831390380859e+00) (133, -1.16673314571380615234e+00) (134, -1.23164975643157958984e+00) (135, -1.55851531028747558594e+00) (136, -1.39955103397369384766e+00) (137, -1.20831222534179687500e+01) (138, -3.54360618591308593750e+01) (139, 2.81902648925781250000e+02) (140, -1.24119560241699218750e+02) (141, 1.13361038208007812500e+02) (142, -5.61654724121093750000e+02) (143, 1.70733985900878906250e+01) (144, 2.96284454345703125000e+02) (145, 2.87237762451171875000e+02) (146, 1.49822009277343750000e+03) (147, 1.49830957031250000000e+03) (148, 1.30461359024047851563e+01) (149, -2.98380565643310546875e+00) (150, -1.34444599151611328125e+01) (151, -5.69506645202636718750e+00) (152, -1.42387962341308593750e+00) (153, -1.61542820930480957031e+00) (154, -1.52256453037261962891e+00) (155, -9.07124698162078857422e-01) (156, -1.23449695110321044922e+00) (157, -7.70320653915405273438e-01) (158, -1.22587287425994873047e+00) (159, -1.24890744686126708984e+00) (160, -9.74392056465148925781e-01) (161, -1.02346742153167724609e+00) (162, -1.07186233997344970703e+00) (163, -1.02335751056671142578e+00) (164, -9.28249478340148925781e-01) (165, -8.98408114910125732422e-01) (166, -1.34176611900329589844e+00) (167, -9.89147305488586425781e-01) (168, -1.19943392276763916016e+00) (169, -1.69117221832275390625e+01) (170, -1.46973693847656250000e+03) (171, 1.05844018554687500000e+03) (172, -9.91081909179687500000e+02) (173, -5.12270975112915039063e+00) (174, 4.91220855712890625000e+00) (175, 1.41444931030273437500e+02) (176, 7.41431808471679687500e+00) (177, 3.71608901023864746094e+00) (178, 3.49514412879943847656e+00) (179, 8.68079376220703125000e+00) (180, -1.18197231292724609375e+01) (181, -1.88193817138671875000e+01) (182, -1.69033393859863281250e+01) (183, 1.45490036010742187500e+02) (184, -1.16389405727386474609e+00) (185, -1.49116492271423339844e+00) (186, -8.08220684528350830078e-01) (187, -8.70918989181518554688e-01) (188, -8.73647451400756835938e-01) (189, -1.18247663974761962891e+00) (190, -1.16627180576324462891e+00) (191, -1.00044894218444824219e+00) (192, -8.92324209213256835938e-01) (193, -1.08019387722015380859e+00) (194, -1.08576035499572753906e+00) (195, -9.82522130012512207031e-01) (196, -1.18877542018890380859e+00) (197, -1.08781206607818603516e+00) (198, -9.66685593128204345703e-01) (199, -1.39867913722991943359e+00) (200, -1.00117635726928710938e+00) (201, -6.53723983764648437500e+01) (202, 6.87561889648437500000e+02) (203, -5.64137512207031250000e+02) (204, -3.90319132804870605469e+00) (205, 3.39019370079040527344e+00) (206, 7.42555558681488037109e-01) (207, 1.39395880699157714844e+00) (208, 7.19628238677978515625e+00) (209, 7.45723819732666015625e+00) (210, 2.61439323425292968750e+00) (211, 8.16209077835083007813e-01) (212, 3.75921363830566406250e+01) (213, -1.11480700683593750000e+03) (214, -1.91478622436523437500e+02) (215, -3.02176809310913085938e+00) (216, -1.32282006740570068359e+00) (217, -8.54780256748199462891e-01) (218, -6.92564427852630615234e-01) (219, -1.04452919960021972656e+00) (220, -1.03997755050659179688e+00) (221, -1.21697366237640380859e+00) (222, -1.09464097023010253906e+00) (223, -1.22277820110321044922e+00) (224, -1.09357893466949462891e+00) (225, -1.19981658458709716797e+00) (226, -1.17231428623199462891e+00) (227, -1.13977634906768798828e+00) (228, -8.22149276733398437500e-01) (229, -9.37753021717071533203e-01) (230, -1.04141438007354736328e+00) (231, -5.47821402549743652344e-01) (232, -1.54704177379608154297e+00) (233, 1.12276525497436523438e+01) (234, -1.84770889282226562500e+02) (235, -5.66403770446777343750e+01) (236, 1.09223067760467529297e+00) (237, -1.59280672669410705566e-01) (238, 9.48825299739837646484e-01) (239, 6.93668305873870849609e-01) (240, 1.75513252615928649902e-01) (241, -1.61880820989608764648e-01) (242, -4.26388561725616455078e-01) (243, -8.55737030506134033203e-01) (244, -8.40371847152709960938e-01) (245, -1.35738897323608398438e+01) (246, -1.50352392196655273438e+01) (247, -1.58673000335693359375e+00) (248, -9.37424600124359130859e-01) (249, -8.11749458312988281250e-01) (250, -8.38519334793090820313e-01) (251, -8.96815061569213867188e-01) (252, -1.08495926856994628906e+00) (253, -1.22928142547607421875e+00) (254, -9.90944981575012207031e-01) (255, -1.22609245777130126953e+00) (256, -1.09755229949951171875e+00) (257, -8.74178409576416015625e-01) (258, -9.05947327613830566406e-01) (259, -8.21736812591552734375e-01) (260, -1.06820976734161376953e+00) (261, -1.30932021141052246094e+00) (262, -8.90350699424743652344e-01) (263, -8.79038095474243164063e-01) (264, -1.93200099468231201172e+00) (265, -2.67749633789062500000e+02) (266, -9.44817016601562500000e+02) (267, 4.15220767259597778320e-01) (268, 9.25283813476562500000e+01) (269, -2.69081175327301025391e-01) (270, -2.57126539945602416992e-02) (271, 2.41354876197874546051e-03) (272, -8.82466554641723632813e-01) (273, -6.48417413234710693359e-01) (274, -1.51318252086639404297e+00) (275, -8.60931694507598876953e-01) (276, -4.93258863687515258789e-01) (277, -1.53393387794494628906e+00) (278, -1.35994398593902587891e+00) (279, -5.22446250915527343750e+00) (280, -1.28012669086456298828e+00) (281, -4.68573957681655883789e-01) (282, -6.56536281108856201172e-01) (283, -1.05156266689300537109e+00) (284, -8.39063048362731933594e-01) (285, -8.09837758541107177734e-01) (286, -7.41353392601013183594e-01) (287, -1.20186746120452880859e+00) (288, -7.79878735542297363281e-01) (289, -9.26381945610046386719e-01) (290, -1.26741945743560791016e+00) (291, -1.13626062870025634766e+00) (292, -8.68530035018920898438e-01) (293, -1.03766262531280517578e+00) (294, -6.31094932556152343750e-01) (295, -8.04729104042053222656e-01) (296, -1.66708517074584960938e+00) (297, -1.79256618022918701172e+00) (298, -7.22518396377563476563e+00) (299, -1.11175930500030517578e+00) (300, 2.98249769210815429688e+00) (301, -1.19158051908016204834e-01) (302, -5.06530463695526123047e-01) (303, -6.02708280086517333984e-01) (304, -1.76218640804290771484e+00) (305, -8.86297821998596191406e-01) (306, -2.00333118438720703125e+00) (307, -1.33115613460540771484e+00) (308, -1.92117869853973388672e+00) (309, -1.21257758140563964844e+00) (310, -1.58534288406372070313e+00) (311, -1.47602784633636474609e+00) (312, -1.10212266445159912109e+00) (313, -7.73098051548004150391e-01) (314, -1.03035855293273925781e+00) (315, -8.14408183097839355469e-01) (316, -8.35547566413879394531e-01) (317, -1.17656517028808593750e+00) (318, -7.38295555114746093750e-01) (319, -1.02279019355773925781e+00) (320, -9.72451090812683105469e-01) (321, -1.11075413227081298828e+00) (322, -1.04366445541381835938e+00) (323, -7.72444725036621093750e-01) (324, -1.01446151733398437500e+00) (325, -1.22884905338287353516e+00) (326, -1.08528542518615722656e+00) (327, -1.94234359264373779297e+00) (328, 4.31564897298812866211e-01) (329, -1.30202841758728027344e+00) (330, -6.72219181060791015625e+00) (331, 8.64525699615478515625e+00) (332, -3.26747864484786987305e-01) (333, 3.05696368217468261719e-01) (334, -6.92238926887512207031e-01) (335, -1.42587912082672119141e+00) (336, -1.91197466850280761719e+00) (337, -1.54533410072326660156e+00) (338, 1.63057553768157958984e+00) (339, -7.97892987728118896484e-01) (340, -1.38057541847229003906e+00) (341, -1.87922596931457519531e+00) (342, -1.26356458663940429688e+00) (343, -1.83495354652404785156e+00) (344, -1.33644926548004150391e+00) (345, -6.70288383960723876953e-01) (346, -9.58902657032012939453e-01) (347, -7.89482831954956054688e-01) (348, -1.15023064613342285156e+00) (349, -9.91479873657226562500e-01) (350, -1.28045642375946044922e+00) (351, -8.42830538749694824219e-01) (352, -1.06338453292846679688e+00) (353, -7.12917089462280273438e-01) (354, -1.02789878845214843750e+00) (355, -8.00679564476013183594e-01) (356, -1.11122548580169677734e+00) (357, -1.09809231758117675781e+00) (358, -1.00463199615478515625e+00) (359, -7.20709145069122314453e-01) (360, 3.21478277444839477539e-01) (361, 4.88744239807128906250e+01) (362, -8.38106536865234375000e+00) (363, 1.97757780551910400391e-01) (364, 2.21889352798461914063e+00) (365, -7.99420118331909179688e-01) (366, -2.85086274147033691406e-01) (367, -1.06129038333892822266e+00) (368, -3.23122811317443847656e+00) (369, -1.63378632068634033203e+00) (370, -2.07069373130798339844e+00) (371, -1.24979698657989501953e+00) (372, -1.19743072986602783203e+00) (373, -2.25678300857543945313e+00) (374, -2.19632110595703125000e+01) (375, -4.82449144124984741211e-01) (376, -2.39321875572204589844e+00) (377, -1.09199643135070800781e+00) (378, -1.01620280742645263672e+00) (379, -7.95346617698669433594e-01) (380, -1.09949195384979248047e+00) (381, -1.11313819885253906250e+00) (382, -7.72755980491638183594e-01) (383, -1.09718608856201171875e+00) (384, -7.97072410583496093750e-01) (385, -9.49709534645080566406e-01) (386, -1.01960277557373046875e+00) (387, -1.07255804538726806641e+00) (388, -8.95322084426879882813e-01) (389, -7.24881291389465332031e-01) (390, -1.05148112773895263672e+00) (391, -1.09638273715972900391e+00) (392, 2.07934999465942382813e+00) (393, 1.13418113708496093750e+02) (394, -2.89344882965087890625e+00) (395, -1.41639858484268188477e-01) (396, 2.19315780639648437500e+02) (397, 1.51826610565185546875e+01) (398, -1.10411393642425537109e+00) (399, 7.22381973266601562500e+00) (400, -5.09363937377929687500e+01) (401, 3.48870819091796875000e+02) (402, -7.92616891860961914063e+00) (403, -1.51006615161895751953e+00) (404, -3.53404188156127929688e+00) (405, -1.14928102493286132813e+01) (406, -2.70630531311035156250e+01) (407, -4.83812217712402343750e+01) (408, -1.87809407711029052734e+00) (409, -7.51872777938842773438e-01) (410, -7.66509532928466796875e-01) (411, -8.23021173477172851563e-01) (412, -8.65553081035614013672e-01) (413, -1.06728565692901611328e+00) (414, -1.12640964984893798828e+00) (415, -7.02315330505371093750e-01) (416, -8.74160051345825195313e-01) (417, -7.69203662872314453125e-01) (418, -1.02445626258850097656e+00) (419, -8.20949316024780273438e-01) (420, -1.30183827877044677734e+00) (421, -7.31338381767272949219e-01) (422, -1.11684489250183105469e+00) (423, -1.46682715415954589844e+00) (424, 3.30233144760131835938e+00) (425, 1.18666900634765625000e+02) (426, -3.69937109947204589844e+00) (427, 4.74120178222656250000e+01) (428, 2.27885398864746093750e+01) (429, 4.13479767739772796631e-02) (430, 2.73862018585205078125e+01) (431, -1.08711784362792968750e+02) (432, 3.12798881530761718750e+01) (433, 1.24154197692871093750e+02) (434, -1.50650501251220703125e-01) (435, 1.43081945800781250000e+03) (436, -7.38854694366455078125e+00) (437, -4.82917928695678710938e+00) (438, -2.65890998840332031250e+01) (439, -2.91139907836914062500e+01) (440, -1.27586305141448974609e+00) (441, -1.18943548202514648438e+00) (442, -7.76057243347167968750e-01) (443, -7.21252918243408203125e-01) (444, -1.21825122833251953125e+00) (445, -8.03880095481872558594e-01) (446, -1.15881931781768798828e+00) (447, -1.25592029094696044922e+00) (448, -1.15151345729827880859e+00) (449, -1.05078709125518798828e+00) (450, -1.25445544719696044922e+00) (451, -1.06599509716033935547e+00) (452, -9.38443541526794433594e-01) (453, -9.38724040985107421875e-01) (454, -8.94071638584136962891e-01) (455, -7.03906238079071044922e-01) (456, 1.07176518440246582031e+00) (457, 5.47153778076171875000e+01) (458, -8.44090747833251953125e+00) (459, 7.04267120361328125000e+00) (460, -2.01743379235267639160e-01) (461, 1.99231827259063720703e+00) (462, -1.69266140460968017578e+00) (463, -5.89889144897460937500e+00) (464, -3.09172611236572265625e+01) (465, 1.25696496963500976563e+01) (466, 2.50174850225448608398e-01) (467, -1.88969099521636962891e+00) (468, -1.07418990135192871094e+00) (469, 1.10436904907226562500e+02) (470, -8.87207388877868652344e-02) (471, -4.20562624931335449219e-01) (472, -2.57971262931823730469e+00) (473, -1.72223842144012451172e+00) (474, -1.11259031295776367188e+00) (475, -1.00386655330657958984e+00) (476, -1.17996406555175781250e+00) (477, -1.28310751914978027344e+00) (478, -7.93666601181030273438e-01) (479, -1.03694438934326171875e+00) (480, -1.24227893352508544922e+00) (481, -1.00502657890319824219e+00) (482, -9.27791714668273925781e-01) (483, -9.90992128849029541016e-01) (484, -8.69046449661254882813e-01) (485, -1.03369534015655517578e+00) (486, -1.18039608001708984375e+00) (487, -6.35886251926422119141e-01) (488, -1.42392969131469726563e+00) (489, -1.75344979763031005859e+00) (490, -1.80912077426910400391e+00) (491, 2.87997674942016601563e+00) (492, -8.48627984523773193359e-01) (493, -1.07799530029296875000e+00) (494, -1.31337404251098632813e+00) (495, -7.95788109302520751953e-01) (496, 2.92076563835144042969e+00) (497, 1.32999696731567382813e+01) (498, 1.64592921733856201172e+00) (499, 6.44648694992065429688e+00) (500, -1.86155652999877929688e+00) (501, -1.76519072055816650391e+00) (502, 9.13192749023437500000e+00) (503, -3.80408674478530883789e-01) (504, -7.69373953342437744141e-01) (505, -9.13392162322998046875e+00) (506, -1.18502175807952880859e+00) (507, -9.07108485698699951172e-01) (508, -1.02263247966766357422e+00) (509, -9.19877767562866210938e-01) (510, -1.06089437007904052734e+00) (511, -1.00561237335205078125e+00) (512, -1.11584424972534179688e+00) (513, -1.17376077175140380859e+00) (514, -1.26893913745880126953e+00) (515, -9.78577196598052978516e-01) (516, -1.01384723186492919922e+00) (517, -1.07448256015777587891e+00) (518, -9.68017876148223876953e-01) (519, -6.16268217563629150391e-01) (520, -5.35315454006195068359e-01) (521, -1.75546300411224365234e+00) (522, -1.04486405849456787109e+00) (523, 2.51825928688049316406e-01) (524, -1.12084813416004180908e-01) (525, -4.23824071884155273438e-01) (526, -7.77297765016555786133e-02) (527, 1.06808876991271972656e+00) (528, 2.83704066276550292969e+00) (529, 9.98983573913574218750e+00) (530, 8.75250625610351562500e+00) (531, 1.20500791072845458984e+00) (532, 1.27434936523437500000e+03) (533, -7.45556712150573730469e-01) (534, -3.41790056228637695313e+00) (535, -3.09108795166015625000e+02) (536, -1.70265817642211914063e+00) (537, -2.03487920761108398438e+00) (538, -1.20894074440002441406e+00) (539, -8.99025082588195800781e-01) (540, -1.08408260345458984375e+00) (541, -9.32350993156433105469e-01) (542, -1.09667348861694335938e+00) (543, -1.20338714122772216797e+00) (544, -1.09782695770263671875e+00) (545, -1.03009617328643798828e+00) (546, -7.08614110946655273438e-01) (547, -7.86609113216400146484e-01) (548, -7.67329394817352294922e-01) (549, -9.67966854572296142578e-01) (550, -9.18626546859741210938e-01) (551, -7.40651488304138183594e-01) (552, -6.52896285057067871094e-01) (553, -1.31170773506164550781e+00) (554, -1.40273201465606689453e+00) (555, -8.40920805931091308594e-01) (556, -3.87481689453125000000e-01) (557, -7.73680508136749267578e-01) (558, -9.85403656959533691406e-02) (559, -1.03021466732025146484e+00) (560, 3.53236347436904907227e-02) (561, 5.83773910999298095703e-01) (562, -7.46623516082763671875e-01) (563, -1.09433639049530029297e+00) (564, -2.50197261571884155273e-01) (565, -3.06170582771301269531e+00) (566, -2.85231256484985351563e+00) (567, 5.45867919921875000000e+00) (568, -2.15339756011962890625e+00) (569, -1.22029411792755126953e+00) (570, -9.60621595382690429688e-01) (571, -7.05576002597808837891e-01) (572, -1.10637009143829345703e+00) (573, -1.17009246349334716797e+00) (574, -1.14345681667327880859e+00) (575, -7.52943992614746093750e-01) (576, -1.27012932300567626953e+00) (577, -7.78395652770996093750e-01) (578, -8.83754611015319824219e-01) (579, -7.54217803478240966797e-01) (580, -7.25947558879852294922e-01) (581, -1.04646217823028564453e+00) (582, -6.01548075675964355469e-01) (583, -5.66882014274597167969e-01) (584, -1.02263939380645751953e+00) (585, -4.14280033111572265625e+00) (586, -8.14844489097595214844e-01) (587, -5.49448370933532714844e-01) (588, -2.82132458686828613281e+00) (589, -6.00470863282680511475e-02) (590, -6.98767185211181640625e-01) (591, -5.00162839889526367188e-01) (592, -5.93673549592494964600e-02) (593, -2.72086530923843383789e-01) (594, -2.22618162631988525391e-01) (595, -8.48535597324371337891e-01) (596, -1.02254891395568847656e+00) (597, -1.34182047843933105469e+00) (598, -1.06954681873321533203e+00) (599, 8.78261184692382812500e+00) (600, -5.41372489929199218750e+00) (601, -8.19716989994049072266e-01) (602, -8.39828550815582275391e-01) (603, -8.71669411659240722656e-01) (604, -1.09100556373596191406e+00) (605, -8.64248216152191162109e-01) (606, -7.49904394149780273438e-01) (607, -8.58248233795166015625e-01) (608, -8.70882511138916015625e-01) (609, -7.54225730895996093750e-01) (610, -1.23760974407196044922e+00) (611, -1.20176780223846435547e+00) (612, -9.80114758014678955078e-01) (613, -9.72756385803222656250e-01) (614, -1.06759810447692871094e+00) (615, -5.98276555538177490234e-01) (616, -7.53124117851257324219e-01) (617, -2.13968777656555175781e+00) (618, -1.14611065387725830078e+00) (619, -1.05241918563842773438e+00) (620, -6.97651445865631103516e-01) (621, -5.08230328559875488281e-01) (622, -9.00479555130004882813e-01) (623, -3.32058340311050415039e-01) (624, 1.45701229572296142578e-01) (625, -3.66437524557113647461e-01) (626, -6.74699962139129638672e-01) (627, -5.83420693874359130859e-01) (628, -6.45009875297546386719e-01) (629, -1.55457675457000732422e+00) (630, -4.04289531707763671875e+00) (631, 3.48764953613281250000e+01) (632, -1.62176060676574707031e+00) (633, -6.78969383239746093750e-01) (634, -9.20286238193511962891e-01) (635, -1.10912120342254638672e+00) (636, -9.03309345245361328125e-01) (637, -1.22321212291717529297e+00) (638, -1.17095911502838134766e+00) (639, -1.20452249050140380859e+00) (640, -1.29446375370025634766e+00) (641, -8.24446678161621093750e-01) (642, -8.19612741470336914063e-01) (643, -1.23084509372711181641e+00) (644, -1.08920800685882568359e+00) (645, -6.61846578121185302734e-01) (646, -1.00430202484130859375e+00) (647, -4.65718030929565429688e-01) (648, -1.26107692718505859375e+00) (649, -2.34341454505920410156e+00) (650, -1.10967195034027099609e+00) (651, -1.19946181774139404297e+00) (652, -1.05916750431060791016e+00) (653, -8.76804471015930175781e-01) (654, -6.03294670581817626953e-01) (655, -4.21531498432159423828e-01) (656, -5.02659261226654052734e-01) (657, -3.68710160255432128906e-01) (658, -6.26615881919860839844e-01) (659, -3.71994465589523315430e-01) (660, -1.12890446186065673828e+00) (661, -1.32881319522857666016e+00) (662, -1.91786861419677734375e+00) (663, 1.55140609741210937500e+01) (664, -6.74904227256774902344e-01) (665, -6.43553286790847778320e-02) (666, -1.01717877388000488281e+00) (667, -6.69083118438720703125e-01) (668, -9.94041204452514648438e-01) (669, -1.04305040836334228516e+00) (670, -1.16779148578643798828e+00) (671, -1.15819680690765380859e+00) (672, -1.29151594638824462891e+00) (673, -9.87154841423034667969e-01) (674, -1.28549158573150634766e+00) (675, -1.11601781845092773438e+00) (676, -1.27299058437347412109e+00) (677, -6.47599220275878906250e-01) (678, -1.11560821533203125000e+00) (679, -7.45332121849060058594e-01) (680, -8.34557652473449707031e-01) (681, -1.58399760723114013672e+00) (682, -1.16825115680694580078e+00) (683, -1.23983669281005859375e+00) (684, -1.29091882705688476563e+00) (685, -1.90206682682037353516e+00) (686, -1.20317399501800537109e+00) (687, -1.10768580436706542969e+00) (688, -3.96914720535278320313e-01) (689, -6.76643252372741699219e-02) (690, 5.60971260070800781250e-01) (691, -7.44210779666900634766e-02) (692, -6.75806820392608642578e-01) (693, -1.36506974697113037109e+00) (694, -1.13669621944427490234e+00) (695, 1.65779991149902343750e+01) (696, -1.32990646362304687500e+00) (697, -1.39080977439880371094e+00) (698, -9.70805466175079345703e-01) (699, -9.79966282844543457031e-01) (700, -7.75234818458557128906e-01) (701, -7.72026896476745605469e-01) (702, -1.20783674716949462891e+00) (703, -9.66976284980773925781e-01) (704, -1.16892683506011962891e+00) (705, -7.71693944931030273438e-01) (706, -8.97194743156433105469e-01) (707, -1.13799059391021728516e+00) (708, -1.17790079116821289063e+00) (709, -1.21344888210296630859e+00) (710, -1.15112161636352539063e+00) (711, -7.33095228672027587891e-01) (712, -6.06804609298706054688e-01) (713, 1.09673643112182617188e+01) (714, 5.73955574035644531250e+01) (715, -2.76847243309020996094e+00) (716, -2.61383056640625000000e+00) (717, -1.48791706562042236328e+00) (718, -1.83029866218566894531e+00) (719, -6.61965727806091308594e-01) (720, -4.33829963207244873047e-01) (721, 2.00095862150192260742e-01) (722, 4.23798203468322753906e-01) (723, -5.89968144893646240234e-01) (724, -4.67345684766769409180e-01) (725, -1.46964395046234130859e+00) (726, -8.00649185180664062500e+01) (727, 9.68304347991943359375e+00) (728, -1.54850053787231445313e+00) (729, -1.41652810573577880859e+00) (730, -7.82394409179687500000e-01) (731, -1.07363259792327880859e+00) (732, -1.14178025722503662109e+00) (733, -1.10598051548004150391e+00) (734, -1.06479454040527343750e+00) (735, -1.15984475612640380859e+00) (736, -9.89828228950500488281e-01) (737, -1.03866553306579589844e+00) (738, -1.12296736240386962891e+00) (739, -9.27827119827270507813e-01) (740, -1.11024546623229980469e+00) (741, -6.19951009750366210938e-01) (742, -1.06353020668029785156e+00) (743, -5.49519598484039306641e-01) (744, 1.67954769134521484375e+01) (745, 4.84890222549438476563e+00) (746, -9.51661376953125000000e+01) (747, -3.81332588195800781250e+00) (748, -3.24164223670959472656e+00) (749, -1.46923637390136718750e+00) (750, -9.85788583755493164063e-01) (751, -1.33993759751319885254e-01) (752, -8.93741026520729064941e-02) (753, 4.01449128985404968262e-02) (754, 9.64599624276161193848e-02) (755, -5.50068259239196777344e-01) (756, -1.25264763832092285156e+00) (757, -1.65023064613342285156e+00) (758, -1.28281316757202148438e+01) (759, -2.48308898881077766418e-03) (760, -2.17324805259704589844e+00) (761, -1.32062888145446777344e+00) (762, -1.05391514301300048828e+00) (763, -8.92172098159790039063e-01) (764, -7.94956088066101074219e-01) (765, -9.93641674518585205078e-01) (766, -1.01855921745300292969e+00) (767, -7.46993064880371093750e-01) (768, -1.17359602451324462891e+00) (769, -9.79903817176818847656e-01) (770, -1.23722541332244873047e+00) (771, -7.24158525466918945313e-01) (772, -8.44391524791717529297e-01) (773, -6.36516630649566650391e-01) (774, -1.07450437545776367188e+00) (775, -7.25709140300750732422e-01) (776, 2.90307025909423828125e+01) (777, -8.27153015136718750000e+01) (778, -1.45048254394531250000e+03) (779, -9.23852157592773437500e+00) (780, -5.52966296672821044922e-01) (781, -2.09337949752807617188e+00) (782, -1.31385552883148193359e+00) (783, -6.39409661293029785156e-01) (784, 6.12482475116848945618e-03) (785, 3.72436568140983581543e-02) (786, -3.04067909717559814453e-01) (787, -1.01358509063720703125e+00) (788, -1.58211028575897216797e+00) (789, -2.85305762290954589844e+00) (790, 2.06412868499755859375e+01) (791, -1.92355232238769531250e+01) (792, -6.32683959960937500000e+02) (793, -9.51470136642456054688e-01) (794, -8.27838659286499023438e-01) (795, -1.11546051502227783203e+00) (796, -1.24252724647521972656e+00) (797, -9.05824005603790283203e-01) (798, -1.26692593097686767578e+00) (799, -8.19869041442871093750e-01) (800, -1.29587376117706298828e+00) (801, -1.11851763725280761719e+00) (802, -7.20717430114746093750e-01) (803, -7.28846073150634765625e-01) (804, -8.04001808166503906250e-01) (805, -1.00945425033569335938e+00) (806, -1.07617378234863281250e+00) (807, -9.12607550621032714844e-01) (808, -5.17406284809112548828e-01) (809, 3.44493713378906250000e+02) (810, -1.17618005371093750000e+03) (811, -3.13689079284667968750e+01) (812, -2.63405394554138183594e+00) (813, -1.72854435443878173828e+00) (814, -1.47066879272460937500e+00) (815, -8.34469616413116455078e-01) (816, -1.08157945796847343445e-02) (817, 4.41746376454830169678e-02) (818, 2.01581597328186035156e-01) (819, -6.75401151180267333984e-01) (820, -1.84533858299255371094e+00) (821, -1.46700644493103027344e+00) (822, -1.33262157440185546875e+01) (823, -2.05693650245666503906e+00) (824, -6.67387008666992187500e+01) (825, -1.11180627346038818359e+00) (826, -6.96177184581756591797e-01) (827, -9.13027942180633544922e-01) (828, -8.34640443325042724609e-01) (829, -1.15797507762908935547e+00) (830, -1.27915728092193603516e+00) (831, -9.51174378395080566406e-01) (832, -1.28853118419647216797e+00) (833, -9.08840298652648925781e-01) (834, -1.06040012836456298828e+00) (835, -1.13100397586822509766e+00) (836, -8.74644041061401367188e-01) (837, -7.54912555217742919922e-01) (838, -9.44625794887542724609e-01) (839, -2.06361576914787292480e-01) (840, -9.00142431259155273438e-01) (841, 4.45563364028930664063e+00) (842, -2.70479125976562500000e+01) (843, -1.40277587890625000000e+03) (844, -7.59740417480468750000e+02) (845, 1.03037273883819580078e+00) (846, 1.55082356929779052734e+00) (847, 3.32619500160217285156e+00) (848, 7.84074068069458007813e-01) (849, 1.61116194725036621094e+00) (850, 2.13175010681152343750e+00) (851, 2.30818486213684082031e+00) (852, 6.55706405639648437500e-01) (853, -9.21396350860595703125e+00) (854, -3.83655761718750000000e+02) (855, 4.74385404586791992188e+00) (856, -6.53215050697326660156e-01) (857, -1.21244454383850097656e+00) (858, -1.15690350532531738281e+00) (859, -1.13695061206817626953e+00) (860, -1.14750170707702636719e+00) (861, -7.06648111343383789063e-01) (862, -1.06515634059906005859e+00) (863, -9.94372844696044921875e-01) (864, -8.39735984802246093750e-01) (865, -1.13648045063018798828e+00) (866, -9.49471354484558105469e-01) (867, -9.09243226051330566406e-01) (868, -1.00559651851654052734e+00) (869, -1.12857222557067871094e+00) (870, -9.30446445941925048828e-01) (871, -6.60062491893768310547e-01) (872, -8.24191510677337646484e-01) (873, -3.55861687660217285156e+00) (874, 1.61701263427734375000e+02) (875, -1.29470874023437500000e+03) (876, 1.40913232421875000000e+03) (877, -1.09692895507812500000e+03) (878, -4.81634185791015625000e+02) (879, 2.18545776367187500000e+02) (880, -1.45252685546875000000e+03) (881, 1.04138623046875000000e+03) (882, -1.69096771240234375000e+02) (883, 3.96663452148437500000e+02) (884, -1.24620952606201171875e+01) (885, -5.03032636642456054688e+00) (886, 1.35974365234375000000e+02) (887, -1.35914794921875000000e+02) (888, -1.52355957031250000000e+00) (889, -2.00638604164123535156e+00) (890, -1.09449648857116699219e+00) (891, -8.37581932544708251953e-01) (892, -1.29837715625762939453e+00) (893, -7.43198156356811523438e-01) (894, -1.13707041740417480469e+00) (895, -1.09425580501556396484e+00) (896, -1.19384729862213134766e+00) (897, -9.18270230293273925781e-01) (898, -1.08742666244506835938e+00) (899, -7.98647046089172363281e-01) (900, -1.16839838027954101563e+00) (901, -7.26020395755767822266e-01) (902, -7.51401126384735107422e-01) (903, -8.31446230411529541016e-01) (904, -1.19223392009735107422e+00) (905, -1.18207955360412597656e+00) (906, -1.51240901947021484375e+01) (907, -1.31266809082031250000e+03) (908, -1.20467150878906250000e+03) (909, 1.47705578613281250000e+03) (910, 1.50000000000000000000e+03) (911, 4.07083038330078125000e+02) (912, -6.96229187011718750000e+02) (913, 1.08995971679687500000e+01) (914, 4.75041055679321289063e+00) (915, -1.77971019744873046875e+01) (916, -3.99227809906005859375e+00) (917, 4.33032455444335937500e+01) (918, 2.86029510498046875000e+02) (919, -1.12630500793457031250e+01) (920, -1.48747742176055908203e+00) (921, -8.45902323722839355469e-01) (922, -1.19021320343017578125e+00) (923, -7.77380347251892089844e-01) (924, -1.11156404018402099609e+00) (925, -1.05333638191223144531e+00) (926, -1.29271042346954345703e+00) (927, -1.04959642887115478516e+00) (928, -9.51485514640808105469e-01) (929, -7.02296972274780273438e-01) (930, -1.17993128299713134766e+00) (931, -9.40316081047058105469e-01) (932, -8.26298534870147705078e-01) (933, -1.05691671371459960938e+00) (934, -1.15587389469146728516e+00) (935, -1.06107389926910400391e+00) (936, -1.16078114509582519531e+00) (937, -1.72357964515686035156e+00) (938, -1.79395103454589843750e+00) (939, -8.51913356781005859375e+00) (940, -1.40470288085937500000e+03) (941, -1.44827221679687500000e+03) (942, -1.46495349121093750000e+03) (943, -1.47943786621093750000e+03) (944, 1.26821289062500000000e+03) (945, 7.39521118164062500000e+02) (946, 1.94546756744384765625e+01) (947, 4.08317661285400390625e+00) (948, -3.36441397666931152344e+00) (949, -4.62884044647216796875e+00) (950, -3.05563330650329589844e+00) (951, -1.53324615955352783203e+00) (952, -9.04725670814514160156e-01) (953, -1.07728099822998046875e+00) (954, -7.78745770454406738281e-01) (955, -1.17129862308502197266e+00) (956, -1.05950713157653808594e+00) (957, -1.29845988750457763672e+00) (958, -1.25603449344635009766e+00) (959, -9.66701507568359375000e-01) (960, -8.69564056396484375000e-01) (961, -1.06794381141662597656e+00) (962, -1.13898909091949462891e+00) (963, -8.48415255546569824219e-01) (964, -1.28944671154022216797e+00) (965, -1.09844505786895751953e+00) (966, -1.00153720378875732422e+00) (967, -1.19880187511444091797e+00) (968, -1.07074403762817382813e+00) (969, -1.01805734634399414063e+00) (970, -1.26240515708923339844e+00) (971, -1.56724655628204345703e+00) (972, -1.23810768127441406250e+00) (973, -4.63742256164550781250e+00) (974, -3.60745162963867187500e+01) (975, 1.78446655273437500000e+01) (976, 2.12735687255859375000e+02) (977, -6.43019714355468750000e+01) (978, -5.96905822753906250000e+01) (979, -2.14017653465270996094e+00) (980, -2.36124348640441894531e+00) (981, -1.27306437492370605469e+00) (982, -8.95046830177307128906e-01) (983, -1.21217215061187744141e+00) (984, -7.03073501586914062500e-01) (985, -8.35540831089019775391e-01) (986, -8.22265267372131347656e-01) (987, -9.93208229541778564453e-01) (988, -1.06536638736724853516e+00) (989, -9.51472043991088867188e-01) (990, -1.25070607662200927734e+00) (991, -1.22453522682189941406e+00) (992, -8.61214399337768554688e-01) (993, -9.25759196281433105469e-01) (994, -1.08279395103454589844e+00) (995, -1.21825540065765380859e+00) (996, -9.16732192039489746094e-01) (997, -8.48296642303466796875e-01) (998, -9.74650800228118896484e-01) (999, -8.45641434192657470703e-01) (1000, -8.57927978038787841797e-01) (1001, -7.66704320907592773438e-01) (1002, -8.51225972175598144531e-01) (1003, -9.76256191730499267578e-01) (1004, -1.00876843929290771484e+00) (1005, -5.70484936237335205078e-01) (1006, -8.04130613803863525391e-01) (1007, -8.07993710041046142578e-01) (1008, -1.23911798000335693359e+00) (1009, -7.38857209682464599609e-01) (1010, -9.47404682636260986328e-01) (1011, -1.13548147678375244141e+00) (1012, -7.45587944984436035156e-01) (1013, -1.05877506732940673828e+00) (1014, -1.10220873355865478516e+00) (1015, -1.10082721710205078125e+00) (1016, -1.14380645751953125000e+00) (1017, -1.02050960063934326172e+00) (1018, -1.19888639450073242188e+00) (1019, -9.96881604194641113281e-01) (1020, -1.11024582386016845703e+00) (1021, -1.11910772323608398438e+00) (1022, -7.97017335891723632813e-01) (1023, -1.28327584266662597656e+00) (1024, -1.19582498073577880859e+00) (0, -1.17766730487346649170e-01) (1, 2.64060884714126586914e-01) (2, 7.33953788876533508301e-02) (3, -1.31004273891448974609e-01) (4, -1.52592450380325317383e-01) (5, 2.08400025963783264160e-01) (6, -2.38835141062736511230e-01) (7, -2.77400314807891845703e-01) (8, 2.97112435102462768555e-01) (9, 1.35964512825012207031e-01) (10, 1.52761465869843959808e-04) (11, -1.82794723659753799438e-02) (12, 1.55415520071983337402e-01) (13, 5.18498718738555908203e-02) (14, -4.75628487765789031982e-02) (15, -1.20031446218490600586e-01) (16, -1.87633067369461059570e-01) (17, 1.19541652500629425049e-01) (18, -2.93678760528564453125e-01) (19, 1.94352447986602783203e-01) (20, 9.22185629606246948242e-02) (21, -1.58681169152259826660e-01) (22, -2.66963303089141845703e-01) (23, -2.20469653606414794922e-01) (24, -2.54475563764572143555e-01) (25, 1.30873143672943115234e-01) (26, 2.25666910409927368164e-01) (27, -2.13914483785629272461e-01) (28, 7.83026292920112609863e-02) (29, -1.42503350973129272461e-01) (30, 1.23566642403602600098e-01) (31, 3.00846785306930541992e-01) (32, 1.83241322636604309082e-01) (33, -2.28874176740646362305e-01) (34, -2.31071442365646362305e-01) (35, -8.37968662381172180176e-03) (36, -1.26353815197944641113e-01) (37, 8.13578963279724121094e-02) (38, -1.22880473732948303223e-01) (39, 1.43282517790794372559e-01) (40, 2.37192556262016296387e-01) (41, -2.40076497197151184082e-01) (42, 1.15898020565509796143e-01) (43, -2.25250035524368286133e-01) (44, -1.88284367322921752930e-01) (45, -1.15429088473320007324e-01) (46, 4.29386086761951446533e-02) (47, -8.13508033752441406250e-02) (48, 2.55809634923934936523e-01) (49, 1.76389217376708984375e-01) (50, -8.78442823886871337891e-02) (51, -3.12408149242401123047e-01) (52, -3.36355239152908325195e-01) (53, 9.09865051507949829102e-02) (54, 1.95008695125579833984e-01) (55, 4.69362661242485046387e-02) (56, -8.66031050682067871094e-02) (57, -2.46471613645553588867e-01) (58, 6.21619969606399536133e-02) (59, 9.48736742138862609863e-02) (60, -1.63597077131271362305e-01) (61, -3.58090177178382873535e-02) (62, -2.42625415325164794922e-01) (63, 4.71927039325237274170e-02) (64, -1.27232491970062255859e-01) (65, 1.01282365620136260986e-01) (66, 2.91202180087566375732e-02) (67, 1.18347741663455963135e-01) (68, 1.93495228886604309082e-01) (69, -4.08983565866947174072e-02) (70, -2.51475214958190917969e-01) (71, 2.07701712846755981445e-01) (72, -1.87272801995277404785e-02) (73, -2.03455507755279541016e-01) (74, -3.24041098356246948242e-02) (75, 1.16005301475524902344e-01) (76, 7.66319185495376586914e-02) (77, 1.62036314606666564941e-01) (78, -7.82991573214530944824e-02) (79, 1.70928522944450378418e-01) (80, -2.66163289546966552734e-01) (81, 3.02834451198577880859e-01) (82, -6.06110766530036926270e-02) (83, -8.12809824943542480469e-01) (84, -1.77344284020364284515e-03) (85, -3.19636799395084381104e-02) (86, 7.86239728331565856934e-02) (87, 2.12466880679130554199e-01) (88, -3.68031524121761322021e-02) (89, -1.02628499269485473633e-01) (90, -6.19816482067108154297e-02) (91, 8.10017138719558715820e-02) (92, -2.27647393941879272461e-01) (93, 8.22943225502967834473e-02) (94, 1.22156351804733276367e-01) (95, 1.04944474995136260986e-01) (96, 1.15198351442813873291e-01) (97, -2.88661301136016845703e-01) (98, 2.33613684773445129395e-01) (99, -1.39775067567825317383e-01) (100, -2.76338309049606323242e-01) (101, 2.37085074186325073242e-01) (102, 1.16120651364326477051e-01) (103, -3.03003579378128051758e-01) (104, 2.91745122522115707397e-02) (105, -4.09775584936141967773e-01) (106, 1.92029312252998352051e-01) (107, -6.34824693202972412109e-01) (108, 6.60517252981662750244e-05) (109, 3.17544430494308471680e-01) (110, 1.47960111498832702637e-01) (111, -4.11360263824462890625e-02) (112, 7.79528439044952392578e-01) (113, -7.61035561561584472656e-01) (114, -1.13558995723724365234e+00) (115, -7.10718110203742980957e-02) (116, -2.29200029373168945313e+00) (117, -5.17128467559814453125e-01) (118, -4.99715656042098999023e-02) (119, -1.59880314022302627563e-02) (120, 2.32866778969764709473e-01) (121, -3.04067760705947875977e-01) (122, -2.61726945638656616211e-01) (123, 1.44027516245841979980e-01) (124, 5.44253401458263397217e-02) (125, -1.43107563257217407227e-01) (126, 3.26907560229301452637e-02) (127, -2.03182734549045562744e-02) (128, 1.43727168440818786621e-01) (129, -1.48161292076110839844e-01) (130, -2.19224542379379272461e-01) (131, -2.78805159032344818115e-02) (132, -5.03109805285930633545e-02) (133, 2.08494365215301513672e-01) (134, 2.42198020219802856445e-01) (135, -2.65478342771530151367e-01) (136, -2.07450509071350097656e-01) (137, -3.17221909761428833008e-01) (138, -1.30567535758018493652e-01) (139, -4.19302657246589660645e-02) (140, 4.71712142229080200195e-01) (141, -5.45350074768066406250e-01) (142, 1.43323874473571777344e+00) (143, -2.64532303810119628906e+00) (144, -3.72907280921936035156e-01) (145, 1.86931049823760986328e+00) (146, 1.14579999446868896484e+00) (147, 2.23360514640808105469e+00) (148, -2.47735828161239624023e-01) (149, 7.29926049709320068359e-01) (150, -8.69387030601501464844e-01) (151, -3.71364891529083251953e-01) (152, -1.88410535454750061035e-01) (153, -1.59737467765808105469e-01) (154, 1.22541345655918121338e-01) (155, 2.74614822119474411011e-02) (156, -1.80277988314628601074e-01) (157, 2.26802125573158264160e-01) (158, -1.77458152174949645996e-01) (159, 2.08072215318679809570e-02) (160, 2.60234028100967407227e-01) (161, -2.32939124107360839844e-01) (162, -1.12236939370632171631e-01) (163, -4.73996140062808990479e-02) (164, 1.25801011919975280762e-01) (165, -1.37145057320594787598e-01) (166, -2.66387641429901123047e-01) (167, -9.85405594110488891602e-02) (168, -1.43950313329696655273e-01) (169, 3.59587609767913818359e-01) (170, 1.26249060034751892090e-01) (171, 3.54545474052429199219e-01) (172, 2.74569451808929443359e-01) (173, 2.68429130315780639648e-01) (174, 1.84845253825187683105e-01) (175, -1.47417628765106201172e+00) (176, 1.62852898240089416504e-01) (177, 4.02697846293449401855e-02) (178, -6.05714797973632812500e-01) (179, 4.22964662313461303711e-01) (180, 1.84386800974607467651e-02) (181, -6.68191432952880859375e-01) (182, 1.30450665950775146484e-01) (183, 1.07327336445450782776e-02) (184, -1.82949587702751159668e-01) (185, 2.39176470786333084106e-02) (186, -1.07045352458953857422e-01) (187, -6.76865829154849052429e-03) (188, 1.74012795090675354004e-01) (189, -1.75425693392753601074e-01) (190, 1.43983498215675354004e-01) (191, 2.21418887376785278320e-01) (192, 3.53823937475681304932e-02) (193, 2.95042365789413452148e-01) (194, -9.55155584961175918579e-03) (195, -1.55979901552200317383e-01) (196, 2.76393234729766845703e-01) (197, -1.19462154805660247803e-01) (198, 2.95744836330413818359e-01) (199, 2.82141119241714477539e-01) (200, 7.23473653197288513184e-02) (201, -1.14209368824958801270e-01) (202, 2.32964649796485900879e-01) (203, 2.34724268317222595215e-01) (204, 1.17850571870803833008e-01) (205, 1.98741629719734191895e-01) (206, 1.93638384342193603516e-01) (207, 1.01710937917232513428e-01) (208, -2.18673851341009140015e-02) (209, 1.44681617617607116699e-01) (210, 5.73495700955390930176e-02) (211, 1.98265507817268371582e-01) (212, 1.61055922508239746094e-01) (213, -5.13030886650085449219e-01) (214, -3.34349609911441802979e-02) (215, -4.62679602205753326416e-02) (216, 1.52869224548339843750e-01) (217, 1.19836509227752685547e-01) (218, 2.58156619966030120850e-02) (219, 2.89046376943588256836e-01) (220, -2.86814477294683456421e-03) (221, -2.23435968160629272461e-01) (222, 1.68080195784568786621e-01) (223, 2.18397647142410278320e-01) (224, 1.08569957315921783447e-01) (225, 2.67576545476913452148e-01) (226, 1.43489137291908264160e-01) (227, 2.32441797852516174316e-01) (228, -8.72274581342935562134e-03) (229, -1.66148930788040161133e-01) (230, -2.37237691879272460938e-01) (231, -1.41012340784072875977e-01) (232, -9.10799130797386169434e-02) (233, 1.10884316265583038330e-01) (234, 5.59152588248252868652e-02) (235, 3.18112790584564208984e-01) (236, -4.37757037580013275146e-02) (237, 1.11532360315322875977e-01) (238, 3.06871145963668823242e-01) (239, 2.78754621744155883789e-01) (240, 6.25971555709838867188e-02) (241, 6.31133317947387695313e-02) (242, -2.50816345214843750000e-02) (243, -1.75665169954299926758e-02) (244, -2.23098263144493103027e-01) (245, -4.70565468072891235352e-01) (246, 1.11442720890045166016e+00) (247, -3.15945059061050415039e-01) (248, 1.37859940528869628906e-01) (249, 1.90130308270454406738e-01) (250, -3.22684235870838165283e-02) (251, -1.31214067339897155762e-01) (252, 1.23755410313606262207e-01) (253, 1.02802135050296783447e-01) (254, -1.53743084520101547241e-02) (255, -1.07659317553043365479e-01) (256, -2.12046802043914794922e-01) (257, 1.10181279480457305908e-01) (258, -1.79746970534324645996e-01) (259, -1.52299493551254272461e-01) (260, 2.30633869767189025879e-01) (261, 3.82707500830292701721e-03) (262, -6.37845695018768310547e-02) (263, 3.21011900901794433594e-01) (264, 3.80516231060028076172e-01) (265, 3.91039298847317695618e-03) (266, 3.99849712848663330078e-01) (267, 2.34265729784965515137e-01) (268, -2.34060250222682952881e-02) (269, 1.54060035943984985352e-01) (270, -1.78562268614768981934e-01) (271, 3.29045355319976806641e-01) (272, 1.03878699243068695068e-01) (273, 2.79098570346832275391e-01) (274, -2.59863793849945068359e-01) (275, -7.74073898792266845703e-01) (276, -1.12092304229736328125e+00) (277, -7.98906981945037841797e-01) (278, -2.15293502807617187500e+00) (279, -5.70625245571136474609e-01) (280, -3.06732594966888427734e-01) (281, 2.03153476119041442871e-01) (282, -3.04989606142044067383e-01) (283, 4.26669791340827941895e-02) (284, -2.32530355453491210938e-01) (285, -2.82875180244445800781e-01) (286, 2.14886246249079704285e-03) (287, -3.23849692940711975098e-02) (288, 5.04336766898632049561e-02) (289, 4.21573035418987274170e-02) (290, -2.87104904651641845703e-01) (291, -2.36601233482360839844e-01) (292, -2.75300323963165283203e-01) (293, 1.33376464247703552246e-01) (294, 2.22891658544540405273e-01) (295, -1.53516843914985656738e-01) (296, -1.56027926132082939148e-02) (297, 3.64069230854511260986e-02) (298, -1.11010514199733734131e-01) (299, 3.94944339990615844727e-01) (300, 1.98855578899383544922e-01) (301, -6.00460283458232879639e-02) (302, 1.51282101869583129883e-01) (303, -2.18290567398071289063e-01) (304, -1.78800910711288452148e-01) (305, 9.16100814938545227051e-02) (306, -1.37361437082290649414e-01) (307, -2.75307559967041015625e+00) (308, -6.75869703292846679688e-01) (309, -1.65911579132080078125e+00) (310, -8.01736041903495788574e-02) (311, -6.70043408870697021484e-01) (312, -3.43395888805389404297e-01) (313, -1.17949716746807098389e-01) (314, -3.40520106256008148193e-02) (315, 2.73568630218505859375e-01) (316, 1.12662024796009063721e-01) (317, 2.71060615777969360352e-02) (318, -2.52039223909378051758e-01) (319, 2.12336808443069458008e-01) (320, -5.83309978246688842773e-02) (321, 7.65447989106178283691e-02) (322, -6.76873847842216491699e-02) (323, -2.03166186809539794922e-01) (324, -2.28788539767265319824e-01) (325, 1.15712746977806091309e-01) (326, 1.57683268189430236816e-01) (327, -2.47170720249414443970e-02) (328, 5.58725185692310333252e-02) (329, 1.40534639358520507813e-02) (330, 6.70996606349945068359e-02) (331, 1.25957317650318145752e-02) (332, 1.25170618295669555664e-01) (333, 8.75297188758850097656e-02) (334, 1.11896291375160217285e-01) (335, 7.68273370340466499329e-03) (336, 1.01620338857173919678e-01) (337, -3.92965763807296752930e-01) (338, -1.05948960781097412109e+00) (339, -7.28421330451965332031e-01) (340, -7.15169727802276611328e-01) (341, -1.40960669517517089844e+00) (342, -9.33934509754180908203e-01) (343, -2.56180435419082641602e-01) (344, -3.32434654235839843750e-01) (345, -9.79824662208557128906e-02) (346, 8.73462408781051635742e-02) (347, -4.97575514018535614014e-02) (348, 9.92868244647979736328e-02) (349, 1.34059190750122070313e-01) (350, 2.68089205026626586914e-01) (351, 3.83853130042552947998e-02) (352, 1.76063582301139831543e-01) (353, 2.01297551393508911133e-02) (354, 8.11812933534383773804e-03) (355, -2.90876895189285278320e-01) (356, 4.33627143502235412598e-02) (357, -1.54764145612716674805e-01) (358, 2.00464084744453430176e-01) (359, -1.61440297961235046387e-01) (360, -2.08698585629463195801e-02) (361, -8.20283666253089904785e-02) (362, -2.23940834403038024902e-02) (363, -1.87068711966276168823e-02) (364, 2.11939767003059387207e-01) (365, 1.78341478109359741211e-01) (366, 2.78942197561264038086e-01) (367, 3.96981805562973022461e-01) (368, 6.70982897281646728516e-02) (369, 1.36782139539718627930e-01) (370, -8.92852187156677246094e-01) (371, 8.91559496521949768066e-02) (372, -4.45179313421249389648e-01) (373, -7.21794843673706054688e-01) (374, 3.33527833223342895508e-01) (375, 9.49030816555023193359e-02) (376, -9.94244739413261413574e-02) (377, -3.20005416870117187500e-01) (378, -2.80092626810073852539e-01) (379, 1.41758739948272705078e-01) (380, 5.89658319950103759766e-02) (381, -1.66947931051254272461e-01) (382, -7.26495459675788879395e-02) (383, 3.01359504461288452148e-01) (384, 1.36787444353103637695e-01) (385, 7.34320059418678283691e-02) (386, 8.87213125824928283691e-02) (387, -1.94889813661575317383e-01) (388, -2.35981822013854980469e-01) (389, -1.04863531887531280518e-02) (390, -3.57930123805999755859e-01) (391, 4.77800741791725158691e-02) (392, 2.10646063089370727539e-01) (393, 3.95593613386154174805e-01) (394, 1.03705994784832000732e-01) (395, 3.07875216007232666016e-01) (396, 2.10149139165878295898e-01) (397, -4.14060801267623901367e-02) (398, 1.15058094263076782227e-01) (399, 9.99945104122161865234e-01) (400, 9.23772335052490234375e-01) (401, 1.84953778982162475586e-01) (402, 7.23065793514251708984e-01) (403, -2.03804653137922286987e-02) (404, -4.72604453563690185547e-01) (405, 5.75699023902416229248e-02) (406, 3.17674666643142700195e-01) (407, -1.53787478804588317871e-01) (408, -4.54909242689609527588e-02) (409, -7.25131571292877197266e-01) (410, 1.21350802481174468994e-01) (411, -2.84631341695785522461e-01) (412, -1.29620373249053955078e-01) (413, 2.12886124849319458008e-01) (414, -1.90733313560485839844e-01) (415, 3.00627082586288452148e-01) (416, 2.75706440210342407227e-01) (417, 2.30775550007820129395e-01) (418, -2.58760213851928710938e-01) (419, -2.66652047634124755859e-01) (420, 1.41929119825363159180e-01) (421, 1.11151717603206634521e-01) (422, 1.01019870489835739136e-02) (423, -1.18384011089801788330e-01) (424, -1.84592366218566894531e-01) (425, -5.99298886954784393311e-02) (426, 2.09987327456474304199e-01) (427, -8.34075957536697387695e-02) (428, 7.14374035596847534180e-02) (429, 1.12762544304132461548e-02) (430, 2.55676358938217163086e-01) (431, 6.53591573238372802734e-01) (432, 8.68798375129699707031e-01) (433, 4.30160373449325561523e-01) (434, 2.57257914543151855469e+00) (435, 1.58486127853393554688e+00) (436, 8.48746895790100097656e-01) (437, 1.09801661968231201172e+00) (438, 5.69939136505126953125e-01) (439, -1.51608735322952270508e-01) (440, -1.72617927193641662598e-01) (441, -8.02030265331268310547e-01) (442, 3.23026068508625030518e-02) (443, 2.02594608068466186523e-01) (444, 1.95890918374061584473e-01) (445, 5.61465062201023101807e-02) (446, 1.16150476038455963135e-01) (447, 1.79322853684425354004e-01) (448, -2.86482363939285278320e-01) (449, 2.80155867338180541992e-01) (450, -2.48411625623703002930e-01) (451, 2.85892039537429809570e-01) (452, 1.53268143534660339355e-01) (453, -2.32483327388763427734e-01) (454, 1.71403318643569946289e-01) (455, -7.23979622125625610352e-02) (456, -3.11025619506835937500e-01) (457, -4.02162522077560424805e-01) (458, 1.12829290330410003662e-01) (459, -2.12078022956848144531e+00) (460, -9.71965212374925613403e-03) (461, 3.96832555532455444336e-01) (462, 7.33394175767898559570e-02) (463, 5.42337298393249511719e-01) (464, 1.38786888122558593750e+00) (465, 8.62454831600189208984e-01) (466, 3.20393234491348266602e-01) (467, 3.07080179452896118164e-01) (468, 6.43230497837066650391e-01) (469, -4.83185090124607086182e-02) (470, 1.67989537119865417480e-01) (471, -1.12395912408828735352e-01) (472, -2.06811398267745971680e-01) (473, -4.75252836942672729492e-01) (474, -3.22873681783676147461e-01) (475, 1.88246950507164001465e-01) (476, 5.41971027851104736328e-02) (477, 3.78126502037048339844e-02) (478, 1.69050648808479309082e-01) (479, -2.75715768337249755859e-01) (480, -1.60411030054092407227e-01) (481, -1.96611016988754272461e-01) (482, -2.75624215602874755859e-01) (483, -2.00597733259201049805e-01) (484, 1.38876020908355712891e-01) (485, -4.68813255429267883301e-02) (486, -1.09976813197135925293e-01) (487, -3.54155778884887695313e-01) (488, -8.00976276397705078125e-01) (489, -1.79462611675262451172e-01) (490, -6.09716951847076416016e-01) (491, -5.37519276142120361328e-01) (492, 4.56629972904920578003e-03) (493, -8.86988714337348937988e-02) (494, 8.56129154562950134277e-02) (495, 5.85985004901885986328e-01) (496, 9.20526027679443359375e-01) (497, 5.20762681961059570313e-01) (498, 6.84280097484588623047e-01) (499, -8.48774313926696777344e-02) (500, -2.10354290902614593506e-03) (501, 2.43593946099281311035e-01) (502, -3.09560179710388183594e-01) (503, 2.10883378982543945313e-01) (504, -3.24311435222625732422e-01) (505, -4.75244581699371337891e-01) (506, -2.16578021645545959473e-01) (507, -2.09088884294033050537e-02) (508, -1.55280485749244689941e-01) (509, -2.69367009401321411133e-01) (510, 2.07740858197212219238e-01) (511, 1.66139259934425354004e-01) (512, 1.12103886902332305908e-01) (513, -2.39986814558506011963e-02) (514, -1.16979382932186126709e-01) (515, 1.53436705470085144043e-01) (516, 8.04710295051336288452e-03) (517, -1.18346497416496276855e-01) (518, -1.52369365096092224121e-01) (519, -2.65636026859283447266e-01) (520, -2.83683389425277709961e-01) (521, -4.19964075088500976563e-01) (522, -1.78654059767723083496e-01) (523, -4.47475790977478027344e-01) (524, -4.25881564617156982422e-01) (525, 1.71957299113273620605e-01) (526, 6.98832049965858459473e-02) (527, 1.95946633815765380859e-01) (528, 6.44035995006561279297e-01) (529, 8.74480456113815307617e-02) (530, 9.32193771004676818848e-02) (531, -3.04248519241809844971e-02) (532, 3.05171012878417968750e-01) (533, -2.27651461958885192871e-01) (534, -3.81321430206298828125e-01) (535, -1.34672835469245910645e-01) (536, -3.12867820262908935547e-01) (537, -6.57437443733215332031e-01) (538, -7.34385028481483459473e-02) (539, -1.25976949930191040039e-01) (540, 1.27844527363777160645e-01) (541, -3.43788182362914085388e-03) (542, 1.90766945481300354004e-01) (543, -2.07394100725650787354e-02) (544, -1.42063885927200317383e-01) (545, -3.27145308256149291992e-02) (546, -1.30345106124877929688e-01) (547, 1.71564146876335144043e-01) (548, -1.58467918634414672852e-01) (549, 5.01927547156810760498e-02) (550, 2.32484731823205947876e-02) (551, -3.71339559555053710938e-01) (552, 5.61236962676048278809e-03) (553, 1.33139520883560180664e-01) (554, -3.99863928556442260742e-01) (555, -1.12995326519012451172e-01) (556, -2.95694917440414428711e-01) (557, 1.25817239284515380859e-01) (558, 2.92409479618072509766e-01) (559, 2.70785093307495117188e-01) (560, 3.68810147047042846680e-01) (561, -2.08625465631484985352e-01) (562, 1.40186235308647155762e-01) (563, 7.68133223056793212891e-01) (564, -9.09717604517936706543e-02) (565, 6.83717355132102966309e-02) (566, -5.51038002595305442810e-03) (567, 1.24535493552684783936e-01) (568, -4.03712570667266845703e-01) (569, -4.45840716361999511719e-01) (570, -3.28268617391586303711e-01) (571, 3.85724119842052459717e-02) (572, -1.50436863303184509277e-01) (573, 8.88942042365670204163e-04) (574, -2.04557776451110839844e-01) (575, 2.81748920679092407227e-01) (576, 7.27728381752967834473e-02) (577, -5.97408935427665710449e-02) (578, -5.48519864678382873535e-02) (579, -1.78881421685218811035e-01) (580, -1.13406591117382049561e-01) (581, -1.28870815038681030273e-01) (582, -2.85819411277770996094e-01) (583, 1.68278217315673828125e-01) (584, -2.36719399690628051758e-01) (585, -1.71303287148475646973e-01) (586, -3.32018941640853881836e-01) (587, 1.72990828752517700195e-01) (588, -2.57014185190200805664e-01) (589, 2.94954985380172729492e-01) (590, -6.82193562388420104980e-02) (591, -3.42764586210250854492e-01) (592, -2.68238067626953125000e-01) (593, 1.02933034300804138184e-01) (594, 1.59245043992996215820e-01) (595, 1.12651653587818145752e-01) (596, 1.24152153730392456055e-01) (597, -2.02592045068740844727e-01) (598, -1.75500139594078063965e-01) (599, -2.34543517231941223145e-01) (600, 2.66992487013339996338e-02) (601, -2.46672242879867553711e-01) (602, -1.82893395423889160156e-01) (603, 3.42023968696594238281e-02) (604, -1.28386244177818298340e-01) (605, 1.83624580502510070801e-01) (606, 2.17811673879623413086e-01) (607, 3.54739502072334289551e-02) (608, -1.78996250033378601074e-01) (609, -1.48271173238754272461e-01) (610, -2.10856616497039794922e-01) (611, 2.12434381246566772461e-01) (612, -3.09477671980857849121e-02) (613, 7.03369453549385070801e-02) (614, 7.68958032131195068359e-02) (615, -2.56200313568115234375e-01) (616, -8.32243114709854125977e-02) (617, -4.30360063910484313965e-02) (618, -1.29092559218406677246e-01) (619, -1.40649273991584777832e-01) (620, -2.82437264919281005859e-01) (621, -2.55300045013427734375e-01) (622, -2.36960932612419128418e-01) (623, -4.75804209709167480469e-01) (624, -3.12141478061676025391e-01) (625, -2.12687873840332031250e+00) (626, 7.56344050168991088867e-02) (627, -3.34912240505218505859e-01) (628, -2.04679146409034729004e-01) (629, 6.77564442157745361328e-02) (630, -4.81351375579833984375e-01) (631, -3.62370997667312622070e-01) (632, -2.66052901744842529297e-01) (633, 8.98505002260208129883e-02) (634, -3.51990833878517150879e-02) (635, -4.02789339423179626465e-02) (636, 8.58303904533386230469e-02) (637, -1.08631037175655364990e-01) (638, -2.73495297878980636597e-02) (639, 2.46064856648445129395e-01) (640, -1.64237946271896362305e-01) (641, 5.22464029490947723389e-02) (642, 3.00059467554092407227e-01) (643, 1.84358295518904924393e-03) (644, 5.05924448370933532715e-02) (645, 2.27830097079277038574e-01) (646, -6.08708560466766357422e-02) (647, 1.78298339247703552246e-01) (648, 7.29788243770599365234e-02) (649, 2.41316795349121093750e-01) (650, -3.85269336402416229248e-02) (651, -7.17778205871582031250e-02) (652, 8.43409895896911621094e-02) (653, 2.30848610401153564453e-01) (654, -1.10554352402687072754e-01) (655, -5.86292266845703125000e-01) (656, 8.30251201987266540527e-02) (657, -4.18934561312198638916e-02) (658, 4.81985434889793395996e-02) (659, -1.91710740327835083008e-01) (660, 1.27649977803230285645e-01) (661, -2.30359092354774475098e-01) (662, -1.38177007436752319336e-01) (663, -2.24552392959594726563e-01) (664, -1.77471041679382324219e-02) (665, 1.38628467917442321777e-01) (666, -2.65043854713439941406e-01) (667, -1.63787245750427246094e-01) (668, -6.67742192745208740234e-02) (669, -2.34478488564491271973e-01) (670, 2.93522566556930541992e-01) (671, -2.37132251262664794922e-01) (672, 1.18988610804080963135e-01) (673, 8.60479846596717834473e-02) (674, -5.01057645305991172791e-03) (675, 1.82756364345550537109e-01) (676, 3.05803298950195312500e-01) (677, -4.40058074891567230225e-02) (678, 1.47854879498481750488e-01) (679, 2.40068510174751281738e-01) (680, 1.23644180595874786377e-01) (681, 1.69343486428260803223e-01) (682, -2.44098618626594543457e-01) (683, -1.24799879267811775208e-02) (684, -3.78976076841354370117e-01) (685, 1.52255132794380187988e-01) (686, -3.27716886997222900391e-01) (687, -1.58399295806884765625e+00) (688, -9.16894793510437011719e-01) (689, -3.62488240003585815430e-01) (690, -7.03453719615936279297e-01) (691, 1.77982449531555175781e-01) (692, -5.22791504859924316406e-01) (693, -9.77655872702598571777e-02) (694, -2.09413364529609680176e-01) (695, -1.73245936632156372070e-01) (696, 1.40800476074218750000e-02) (697, 2.58469432592391967773e-01) (698, 2.05536365509033203125e-01) (699, -3.13032567501068115234e-01) (700, 1.91386029124259948730e-01) (701, -6.40706643462181091309e-02) (702, -2.67274588346481323242e-01) (703, 7.89984241127967834473e-02) (704, -5.86788915097713470459e-02) (705, -1.08776248991489410400e-01) (706, -1.90129071474075317383e-01) (707, -9.36237946152687072754e-02) (708, -1.54284387826919555664e-01) (709, 2.76481270790100097656e-01) (710, 7.93219432234764099121e-02) (711, 1.52425721287727355957e-01) (712, -6.00345693528652191162e-02) (713, -1.76685392856597900391e-01) (714, -4.58616763353347778320e-01) (715, -2.60695248842239379883e-01) (716, 2.88159437477588653564e-02) (717, -3.13332736492156982422e-01) (718, -2.94800013303756713867e-01) (719, -1.22248339653015136719e+00) (720, 5.39049990475177764893e-02) (721, -2.67300158739089965820e-01) (722, -5.34721493721008300781e-01) (723, 2.66709085553884506226e-03) (724, -2.12328925728797912598e-01) (725, 1.84417907148599624634e-02) (726, -1.66351512074470520020e-01) (727, -2.52278596162796020508e-01) (728, 1.66853040456771850586e-01) (729, 6.54097646474838256836e-02) (730, 1.44743695855140686035e-01) (731, 7.07608535885810852051e-02) (732, 6.48777931928634643555e-02) (733, 3.43301482498645782471e-02) (734, 1.61286965012550354004e-01) (735, -6.86761513352394104004e-02) (736, 2.42164686322212219238e-01) (737, -2.00456231832504272461e-01) (738, 9.93048027157783508301e-02) (739, 5.48777952790260314941e-02) (740, -2.17921733856201171875e-01) (741, -9.08325314521789550781e-02) (742, 1.69472098350524902344e-01) (743, 9.63088274002075195313e-02) (744, 1.97022065520286560059e-01) (745, 2.64814257621765136719e-01) (746, 5.13191930949687957764e-02) (747, 8.09634700417518615723e-02) (748, -3.10206841677427291870e-02) (749, -4.50028985738754272461e-01) (750, 3.40351238846778869629e-02) (751, 1.18406429886817932129e-01) (752, -1.71754896640777587891e-01) (753, -1.51885777711868286133e-01) (754, 6.06597214937210083008e-02) (755, -2.66524940729141235352e-01) (756, -3.02160948514938354492e-01) (757, -2.19843406230211257935e-02) (758, 3.00652205944061279297e-01) (759, 2.90247529745101928711e-01) 