FANN_FLO_2.1
num_layers=4
learning_rate=0.700000
connection_rate=1.000000
network_type=0
learning_momentum=0.000000
training_algorithm=2
train_error_function=1
train_stop_function=0
cascade_output_change_fraction=0.010000
quickprop_decay=-0.000100
quickprop_mu=1.750000
rprop_increase_factor=1.200000
rprop_decrease_factor=0.500000
rprop_delta_min=0.000000
rprop_delta_max=50.000000
rprop_delta_zero=0.100000
cascade_output_stagnation_epochs=12
cascade_candidate_change_fraction=0.010000
cascade_candidate_stagnation_epochs=12
cascade_max_out_epochs=150
cascade_min_out_epochs=50
cascade_max_cand_epochs=150
cascade_min_cand_epochs=50
cascade_num_candidate_groups=2
bit_fail_limit=3.49999994039535522461e-01
cascade_candidate_limit=1.00000000000000000000e+03
cascade_weight_multiplier=4.00000005960464477539e-01
cascade_activation_functions_count=10
cascade_activation_functions=3 5 7 8 10 11 14 15 16 17 
cascade_activation_steepnesses_count=4
cascade_activation_steepnesses=2.50000000000000000000e-01 5.00000000000000000000e-01 7.50000000000000000000e-01 1.00000000000000000000e+00 
layer_sizes=257 41 41 2 
scale_included=0
neurons (num_inputs, activation_function, activation_steepness)=(0, 0, 0.00000000000000000000e+00) (0, 0, 0.00000000000000000000e+00) (0, 0, 0.00000000000000000000e+00) (0, 0, 0.00000000000000000000e+00) (0, 0, 0.00000000000000000000e+00) (0, 0, 0.00000000000000000000e+00) (0, 0, 0.00000000000000000000e+00) (0, 0, 0.00000000000000000000e+00) (0, 0, 0.00000000000000000000e+00) (0, 0, 0.00000000000000000000e+00) (0, 0, 0.00000000000000000000e+00) (0, 0, 0.00000000000000000000e+00) (0, 0, 0.00000000000000000000e+00) (0, 0, 0.00000000000000000000e+00) (0, 0, 0.00000000000000000000e+00) (0, 0, 0.00000000000000000000e+00) (0, 0, 0.00000000000000000000e+00) (0, 0, 0.00000000000000000000e+00) (0, 0, 0.00000000000000000000e+00) (0, 0, 0.00000000000000000000e+00) (0, 0, 0.00000000000000000000e+00) (0, 0, 0.00000000000000000000e+00) (0, 0, 0.00000000000000000000e+00) (0, 0, 0.00000000000000000000e+00) (0, 0, 0.00000000000000000000e+00) (0, 0, 0.00000000000000000000e+00) (0, 0, 0.00000000000000000000e+00) (0, 0, 0.00000000000000000000e+00) (0, 0, 0.00000000000000000000e+00) (0, 0, 0.00000000000000000000e+00) (0, 0, 0.00000000000000000000e+00) (0, 0, 0.00000000000000000000e+00) (0, 0, 0.00000000000000000000e+00) (0, 0, 0.00000000000000000000e+00) (0, 0, 0.00000000000000000000e+00) (0, 0, 0.00000000000000000000e+00) (0, 0, 0.00000000000000000000e+00) (0, 0, 0.00000000000000000000e+00) (0, 0, 0.00000000000000000000e+00) (0, 0, 0.00000000000000000000e+00) (0, 0, 0.00000000000000000000e+00) (0, 0, 0.00000000000000000000e+00) (0, 0, 0.00000000000000000000e+00) (0, 0, 0.00000000000000000000e+00) (0, 0, 0.00000000000000000000e+00) (0, 0, 0.00000000000000000000e+00) (0, 0, 0.00000000000000000000e+00) (0, 0, 0.00000000000000000000e+00) (0, 0, 0.00000000000000000000e+00) (0, 0, 0.00000000000000000000e+00) (0, 0, 0.00000000000000000000e+00) (0, 0, 0.00000000000000000000e+00) (0, 0, 0.00000000000000000000e+00) (0, 0, 0.00000000000000000000e+00) (0, 0, 0.00000000000000000000e+00) (0, 0, 0.00000000000000000000e+00) (0, 0, 0.00000000000000000000e+00) (0, 0, 0.00000000000000000000e+00) (0, 0, 0.00000000000000000000e+00) (0, 0, 0.00000000000000000000e+00) (0, 0, 0.00000000000000000000e+00) (0, 0, 0.00000000000000000000e+00) (0, 0, 0.00000000000000000000e+00) (0, 0, 0.00000000000000000000e+00) (0, 0, 0.00000000000000000000e+00) (0, 0, 0.00000000000000000000e+00) (0, 0, 0.00000000000000000000e+00) (0, 0, 0.00000000000000000000e+00) (0, 0, 0.00000000000000000000e+00) (0, 0, 0.00000000000000000000e+00) (0, 0, 0.00000000000000000000e+00) (0, 0, 0.00000000000000000000e+00) (0, 0, 0.00000000000000000000e+00) (0, 0, 0.00000000000000000000e+00) (0, 0, 0.00000000000000000000e+00) (0, 0, 0.00000000000000000000e+00) (0, 0, 0.00000000000000000000e+00) (0, 0, 0.00000000000000000000e+00) (0, 0, 0.00000000000000000000e+00) (0, 0, 0.00000000000000000000e+00) (0, 0, 0.00000000000000000000e+00) (0, 0, 0.00000000000000000000e+00) (0, 0, 0.00000000000000000000e+00) (0, 0, 0.00000000000000000000e+00) (0, 0, 0.00000000000000000000e+00) (0, 0, 0.00000000000000000000e+00) (0, 0, 0.00000000000000000000e+00) (0, 0, 0.00000000000000000000e+00) (0, 0, 0.00000000000000000000e+00) (0, 0, 0.00000000000000000000e+00) (0, 0, 0.00000000000000000000e+00) (0, 0, 0.00000000000000000000e+00) (0, 0, 0.00000000000000000000e+00) (0, 0, 0.00000000000000000000e+00) (0, 0, 0.00000000000000000000e+00) (0, 0, 0.00000000000000000000e+00) (0, 0, 0.00000000000000000000e+00) (0, 0, 0.00000000000000000000e+00) (0, 0, 0.00000000000000000000e+00) (0, 0, 0.00000000000000000000e+00) (0, 0, 0.00000000000000000000e+00) (0, 0, 0.00000000000000000000e+00) (0, 0, 0.00000000000000000000e+00) (0, 0, 0.00000000000000000000e+00) (0, 0, 0.00000000000000000000e+00) (0, 0, 0.00000000000000000000e+00) (0, 0, 0.00000000000000000000e+00) (0, 0, 0.00000000000000000000e+00) (0, 0, 0.00000000000000000000e+00) (0, 0, 0.00000000000000000000e+00) (0, 0, 0.00000000000000000000e+00) (0, 0, 0.00000000000000000000e+00) (0, 0, 0.00000000000000000000e+00) (0, 0, 0.00000000000000000000e+00) (0, 0, 0.00000000000000000000e+00) (0, 0, 0.00000000000000000000e+00) (0, 0, 0.00000000000000000000e+00) (0, 0, 0.00000000000000000000e+00) (0, 0, 0.00000000000000000000e+00) (0, 0, 0.00000000000000000000e+00) (0, 0, 0.00000000000000000000e+00) (0, 0, 0.00000000000000000000e+00) (0, 0, 0.00000000000000000000e+00) (0, 0, 0.00000000000000000000e+00) (0, 0, 0.00000000000000000000e+00) (0, 0, 0.00000000000000000000e+00) (0, 0, 0.00000000000000000000e+00) (0, 0, 0.00000000000000000000e+00) (0, 0, 0.00000000000000000000e+00) (0, 0, 0.00000000000000000000e+00) (0, 0, 0.00000000000000000000e+00) (0, 0, 0.00000000000000000000e+00) (0, 0, 0.00000000000000000000e+00) (0, 0, 0.00000000000000000000e+00) (0, 0, 0.00000000000000000000e+00) (0, 0, 0.00000000000000000000e+00) (0, 0, 0.00000000000000000000e+00) (0, 0, 0.00000000000000000000e+00) (0, 0, 0.00000000000000000000e+00) (0, 0, 0.00000000000000000000e+00) (0, 0, 0.00000000000000000000e+00) (0, 0, 0.00000000000000000000e+00) (0, 0, 0.00000000000000000000e+00) (0, 0, 0.00000000000000000000e+00) (0, 0, 0.00000000000000000000e+00) (0, 0, 0.00000000000000000000e+00) (0, 0, 0.00000000000000000000e+00) (0, 0, 0.00000000000000000000e+00) (0, 0, 0.00000000000000000000e+00) (0, 0, 0.00000000000000000000e+00) (0, 0, 0.00000000000000000000e+00) (0, 0, 0.00000000000000000000e+00) (0, 0, 0.00000000000000000000e+00) (0, 0, 0.00000000000000000000e+00) (0, 0, 0.00000000000000000000e+00) (0, 0, 0.00000000000000000000e+00) (0, 0, 0.00000000000000000000e+00) (0, 0, 0.00000000000000000000e+00) (0, 0, 0.00000000000000000000e+00) (0, 0, 0.00000000000000000000e+00) (0, 0, 0.00000000000000000000e+00) (0, 0, 0.00000000000000000000e+00) (0, 0, 0.00000000000000000000e+00) (0, 0, 0.00000000000000000000e+00) (0, 0, 0.00000000000000000000e+00) (0, 0, 0.00000000000000000000e+00) (0, 0, 0.00000000000000000000e+00) (0, 0, 0.00000000000000000000e+00) (0, 0, 0.00000000000000000000e+00) (0, 0, 0.00000000000000000000e+00) (0, 0, 0.00000000000000000000e+00) (0, 0, 0.00000000000000000000e+00) (0, 0, 0.00000000000000000000e+00) (0, 0, 0.00000000000000000000e+00) (0, 0, 0.00000000000000000000e+00) (0, 0, 0.00000000000000000000e+00) (0, 0, 0.00000000000000000000e+00) (0, 0, 0.00000000000000000000e+00) (0, 0, 0.00000000000000000000e+00) (0, 0, 0.00000000000000000000e+00) (0, 0, 0.00000000000000000000e+00) (0, 0, 0.00000000000000000000e+00) (0, 0, 0.00000000000000000000e+00) (0, 0, 0.00000000000000000000e+00) (0, 0, 0.00000000000000000000e+00) (0, 0, 0.00000000000000000000e+00) (0, 0, 0.00000000000000000000e+00) (0, 0, 0.00000000000000000000e+00) (0, 0, 0.00000000000000000000e+00) (0, 0, 0.00000000000000000000e+00) (0, 0, 0.00000000000000000000e+00) (0, 0, 0.00000000000000000000e+00) (0, 0, 0.00000000000000000000e+00) (0, 0, 0.00000000000000000000e+00) (0, 0, 0.00000000000000000000e+00) (0, 0, 0.00000000000000000000e+00) (0, 0, 0.00000000000000000000e+00) (0, 0, 0.00000000000000000000e+00) (0, 0, 0.00000000000000000000e+00) (0, 0, 0.00000000000000000000e+00) (0, 0, 0.00000000000000000000e+00) (0, 0, 0.00000000000000000000e+00) (0, 0, 0.00000000000000000000e+00) (0, 0, 0.00000000000000000000e+00) (0, 0, 0.00000000000000000000e+00) (0, 0, 0.00000000000000000000e+00) (0, 0, 0.00000000000000000000e+00) (0, 0, 0.00000000000000000000e+00) (0, 0, 0.00000000000000000000e+00) (0, 0, 0.00000000000000000000e+00) (0, 0, 0.00000000000000000000e+00) (0, 0, 0.00000000000000000000e+00) (0, 0, 0.00000000000000000000e+00) (0, 0, 0.00000000000000000000e+00) (0, 0, 0.00000000000000000000e+00) (0, 0, 0.00000000000000000000e+00) (0, 0, 0.00000000000000000000e+00) (0, 0, 0.00000000000000000000e+00) (0, 0, 0.00000000000000000000e+00) (0, 0, 0.00000000000000000000e+00) (0, 0, 0.00000000000000000000e+00) (0, 0, 0.00000000000000000000e+00) (0, 0, 0.00000000000000000000e+00) (0, 0, 0.00000000000000000000e+00) (0, 0, 0.00000000000000000000e+00) (0, 0, 0.00000000000000000000e+00) (0, 0, 0.00000000000000000000e+00) (0, 0, 0.00000000000000000000e+00) (0, 0, 0.00000000000000000000e+00) (0, 0, 0.00000000000000000000e+00) (0, 0, 0.00000000000000000000e+00) (0, 0, 0.00000000000000000000e+00) (0, 0, 0.00000000000000000000e+00) (0, 0, 0.00000000000000000000e+00) (0, 0, 0.00000000000000000000e+00) (0, 0, 0.00000000000000000000e+00) (0, 0, 0.00000000000000000000e+00) (0, 0, 0.00000000000000000000e+00) (0, 0, 0.00000000000000000000e+00) (0, 0, 0.00000000000000000000e+00) (0, 0, 0.00000000000000000000e+00) (0, 0, 0.00000000000000000000e+00) (0, 0, 0.00000000000000000000e+00) (0, 0, 0.00000000000000000000e+00) (0, 0, 0.00000000000000000000e+00) (0, 0, 0.00000000000000000000e+00) (0, 0, 0.00000000000000000000e+00) (0, 0, 0.00000000000000000000e+00) (0, 0, 0.00000000000000000000e+00) (0, 0, 0.00000000000000000000e+00) (0, 0, 0.00000000000000000000e+00) (0, 0, 0.00000000000000000000e+00) (0, 0, 0.00000000000000000000e+00) (0, 0, 0.00000000000000000000e+00) (0, 0, 0.00000000000000000000e+00) (0, 0, 0.00000000000000000000e+00) (0, 0, 0.00000000000000000000e+00) (257, 11, 5.00000000000000000000e-01) (257, 11, 5.00000000000000000000e-01) (257, 11, 5.00000000000000000000e-01) (257, 11, 5.00000000000000000000e-01) (257, 11, 5.00000000000000000000e-01) (257, 11, 5.00000000000000000000e-01) (257, 11, 5.00000000000000000000e-01) (257, 11, 5.00000000000000000000e-01) (257, 11, 5.00000000000000000000e-01) (257, 11, 5.00000000000000000000e-01) (257, 11, 5.00000000000000000000e-01) (257, 11, 5.00000000000000000000e-01) (257, 11, 5.00000000000000000000e-01) (257, 11, 5.00000000000000000000e-01) (257, 11, 5.00000000000000000000e-01) (257, 11, 5.00000000000000000000e-01) (257, 11, 5.00000000000000000000e-01) (257, 11, 5.00000000000000000000e-01) (257, 11, 5.00000000000000000000e-01) (257, 11, 5.00000000000000000000e-01) (257, 11, 5.00000000000000000000e-01) (257, 11, 5.00000000000000000000e-01) (257, 11, 5.00000000000000000000e-01) (257, 11, 5.00000000000000000000e-01) (257, 11, 5.00000000000000000000e-01) (257, 11, 5.00000000000000000000e-01) (257, 11, 5.00000000000000000000e-01) (257, 11, 5.00000000000000000000e-01) (257, 11, 5.00000000000000000000e-01) (257, 11, 5.00000000000000000000e-01) (257, 11, 5.00000000000000000000e-01) (257, 11, 5.00000000000000000000e-01) (257, 11, 5.00000000000000000000e-01) (257, 11, 5.00000000000000000000e-01) (257, 11, 5.00000000000000000000e-01) (257, 11, 5.00000000000000000000e-01) (257, 11, 5.00000000000000000000e-01) (257, 11, 5.00000000000000000000e-01) (257, 11, 5.00000000000000000000e-01) (257, 11, 5.00000000000000000000e-01) (0, 11, 0.00000000000000000000e+00) (41, 11, 5.00000000000000000000e-01) (41, 11, 5.00000000000000000000e-01) (41, 11, 5.00000000000000000000e-01) (41, 11, 5.00000000000000000000e-01) (41, 11, 5.00000000000000000000e-01) (41, 11, 5.00000000000000000000e-01) (41, 11, 5.00000000000000000000e-01) (41, 11, 5.00000000000000000000e-01) (41, 11, 5.00000000000000000000e-01) (41, 11, 5.00000000000000000000e-01) (41, 11, 5.00000000000000000000e-01) (41, 11, 5.00000000000000000000e-01) (41, 11, 5.00000000000000000000e-01) (41, 11, 5.00000000000000000000e-01) (41, 11, 5.00000000000000000000e-01) (41, 11, 5.00000000000000000000e-01) (41, 11, 5.00000000000000000000e-01) (41, 11, 5.00000000000000000000e-01) (41, 11, 5.00000000000000000000e-01) (41, 11, 5.00000000000000000000e-01) (41, 11, 5.00000000000000000000e-01) (41, 11, 5.00000000000000000000e-01) (41, 11, 5.00000000000000000000e-01) (41, 11, 5.00000000000000000000e-01) (41, 11, 5.00000000000000000000e-01) (41, 11, 5.00000000000000000000e-01) (41, 11, 5.00000000000000000000e-01) (41, 11, 5.00000000000000000000e-01) (41, 11, 5.00000000000000000000e-01) (41, 11, 5.00000000000000000000e-01) (41, 11, 5.00000000000000000000e-01) (41, 11, 5.00000000000000000000e-01) (41, 11, 5.00000000000000000000e-01) (41, 11, 5.00000000000000000000e-01) (41, 11, 5.00000000000000000000e-01) (41, 11, 5.00000000000000000000e-01) (41, 11, 5.00000000000000000000e-01) (41, 11, 5.00000000000000000000e-01) (41, 11, 5.00000000000000000000e-01) (41, 11, 5.00000000000000000000e-01) (0, 11, 0.00000000000000000000e+00) (41, 11, 5.00000000000000000000e-01) (0, 11, 0.00000000000000000000e+00) 
connections (connected_to_neuron, weight)=(0, 2.26051174104213714600e-02) (1, -4.30769883096218109131e-02) (2, 6.67437613010406494141e-02) (3, 7.64384567737579345703e-02) (4, 9.36768352985382080078e-02) (5, -3.08977402746677398682e-02) (6, 7.94722288846969604492e-02) (7, -6.45281225442886352539e-02) (8, -4.76927869021892547607e-02) (9, -4.96988929808139801025e-02) (10, -5.59684224426746368408e-02) (11, 9.33179780840873718262e-02) (12, 1.05171017348766326904e-01) (13, 3.90392541885375976563e-02) (14, -3.22742611169815063477e-02) (15, -2.76550874114036560059e-02) (16, -1.42853155732154846191e-01) (17, -1.91673599183559417725e-02) (18, -9.33141708374023437500e-02) (19, 1.61583367735147476196e-02) (20, -9.82275009155273437500e-02) (21, -5.17511256039142608643e-02) (22, 1.57088786363601684570e-02) (23, 4.11425679922103881836e-02) (24, 5.80294691026210784912e-02) (25, 9.61890369653701782227e-02) (26, 3.52881923317909240723e-02) (27, -5.76922297477722167969e-02) (28, 3.31398509442806243896e-02) (29, 1.33037567138671875000e-01) (30, -9.51650291681289672852e-02) (31, -5.29100594576448202133e-04) (32, 1.23637809883803129196e-03) (33, -5.18574304878711700439e-02) (34, 4.89019267261028289795e-02) (35, -7.47934505343437194824e-02) (36, -1.94908529520034790039e-02) (37, 1.56563445925712585449e-02) (38, 5.14339059591293334961e-02) (39, -1.34637624025344848633e-01) (40, 4.92676123976707458496e-02) (41, -5.51705777645111083984e-01) (42, -9.79882478713989257813e-01) (43, -7.34991300851106643677e-03) (44, 3.02230399101972579956e-02) (45, -9.61741805076599121094e-02) (46, -7.46036618947982788086e-02) (47, -1.13133735954761505127e-01) (48, 9.13192052394151687622e-03) (49, -3.24157811701297760010e-02) (50, -2.32709556818008422852e-01) (51, -6.73816427588462829590e-02) (52, -4.84564453363418579102e-02) (53, -8.71999040246009826660e-02) (54, -2.54511624574661254883e-01) (55, -5.85112944245338439941e-02) (56, 2.60927863419055938721e-02) (57, -6.08638375997543334961e-02) (58, 3.91967520117759704590e-02) (59, -3.01334299147129058838e-02) (60, -6.18463978171348571777e-02) (61, -1.12385742366313934326e-01) (62, 5.32452799379825592041e-02) (63, -2.33819782733917236328e-02) (64, 6.77482634782791137695e-02) (65, 3.36232595145702362061e-02) (66, -1.25884473323822021484e-01) (67, -1.10143870115280151367e-01) (68, 5.43493926525115966797e-02) (69, -2.09986455738544464111e-02) (70, -1.18687115609645843506e-01) (71, -1.39551252126693725586e-01) (72, -9.75371748208999633789e-02) (73, -6.11455366015434265137e-03) (74, -9.87409614026546478271e-03) (75, -2.22359616309404373169e-02) (76, 2.39505134522914886475e-02) (77, 5.10534830391407012939e-02) (78, -7.68021866679191589355e-02) (79, -1.74957856535911560059e-01) (80, -1.00704981014132499695e-02) (81, -2.46942453086376190186e-02) (82, 7.55102857947349548340e-02) (83, 3.43405395746231079102e-01) (84, 3.40202033519744873047e-01) (85, 1.14252775907516479492e-01) (86, 7.06232637166976928711e-02) (87, -7.96467781066894531250e-01) (88, -2.90379524230957031250e-01) (89, 7.26799368858337402344e-02) (90, -1.00759603083133697510e-01) (91, 3.95100489258766174316e-02) (92, 3.25189322233200073242e-01) (93, 1.04145444929599761963e-01) (94, 1.96640804409980773926e-01) (95, -4.67449605464935302734e-01) (96, -1.89843729138374328613e-01) (97, 5.38639202713966369629e-02) (98, -4.54479232430458068848e-02) (99, 3.32853257656097412109e-01) (100, 2.01894953846931457520e-01) (101, 3.84835735894739627838e-03) (102, -1.56293645501136779785e-01) (103, -5.65128028392791748047e-02) (104, 5.28623282909393310547e-01) (105, 1.16597965359687805176e-01) (106, 7.66709595918655395508e-02) (107, 3.01841974258422851563e-01) (108, 4.63175207376480102539e-01) (109, 2.60097056627273559570e-01) (110, 6.75412893295288085938e-01) (111, -3.77369314432144165039e-01) (112, -2.94480264186859130859e-01) (113, 1.92893669009208679199e-01) (114, 2.02297139912843704224e-02) (115, 2.51649290323257446289e-01) (116, 7.39331766963005065918e-02) (117, 1.20022729039192199707e-01) (118, 5.37725277245044708252e-02) (119, -1.49745553731918334961e-01) (120, -2.96651691198348999023e-01) (121, 3.58788013458251953125e-01) (122, -7.26119503378868103027e-02) (123, -9.26487222313880920410e-02) (124, -3.78261730074882507324e-02) (125, 5.98157905042171478271e-02) (126, -3.65673727355897426605e-03) (127, -1.52321010828018188477e-01) (128, 7.35016405582427978516e-01) (129, -1.36409960687160491943e-02) (130, -9.53893139958381652832e-02) (131, 2.83250570297241210938e-01) (132, -6.95656836032867431641e-02) (133, 6.97060525417327880859e-02) (134, -7.25926756858825683594e-02) (135, 9.74280461668968200684e-02) (136, 9.08478274941444396973e-02) (137, 7.64999911189079284668e-02) (138, -1.40288069844245910645e-01) (139, 3.17614167928695678711e-01) (140, 2.12251335382461547852e-01) (141, -2.74146515876054763794e-02) (142, -1.30095146596431732178e-02) (143, -3.16725283861160278320e-01) (144, 2.87201821804046630859e-01) (145, 1.72921314835548400879e-01) (146, -9.68828648328781127930e-02) (147, 2.18091934919357299805e-01) (148, 2.84357219934463500977e-01) (149, 5.32706342637538909912e-02) (150, -8.92830714583396911621e-02) (151, 1.99514161795377731323e-02) (152, -1.52503335475921630859e+00) (153, -1.09008073806762695313e-01) (154, -1.51101080700755119324e-02) (155, 1.50337666273117065430e-01) (156, 1.04410581290721893311e-01) (157, -4.66519109904766082764e-02) (158, -7.06680640578269958496e-02) (159, -7.03118070960044860840e-02) (160, 1.55254089832305908203e+00) (161, 1.19921676814556121826e-01) (162, -1.42271727323532104492e-01) (163, 2.09292799234390258789e-01) (164, 2.25824430584907531738e-01) (165, -7.46857523918151855469e-02) (166, -4.49535250663757324219e-02) (167, -4.86925728619098663330e-02) (168, 4.19383955001831054688e+00) (169, 3.86684149503707885742e-01) (170, 4.98695112764835357666e-02) (171, -1.09918043017387390137e-01) (172, -1.26210883259773254395e-01) (173, -2.59753167629241943359e-02) (174, -6.93235173821449279785e-02) (175, 1.79614454507827758789e-01) (176, 5.66085204482078552246e-02) (177, 3.46438109874725341797e-01) (178, 8.89555290341377258301e-02) (179, -9.96306091547012329102e-02) (180, -7.18831896781921386719e-01) (181, -6.19045495986938476563e-02) (182, -1.73837348818778991699e-01) (183, -4.36150096356868743896e-02) (184, -4.33506280183792114258e-01) (185, 1.86645716428756713867e-01) (186, -3.48487007431685924530e-03) (187, -1.36534981429576873779e-02) (188, 1.09437018632888793945e-01) (189, -3.25116477906703948975e-02) (190, -5.96153028309345245361e-02) (191, -1.15852668881416320801e-01) (192, 3.89563590288162231445e-01) (193, 2.64867633581161499023e-01) (194, 1.19537785649299621582e-01) (195, 8.19679051637649536133e-02) (196, 9.86156836152076721191e-02) (197, 1.68365929275751113892e-02) (198, -1.05733327567577362061e-01) (199, -1.75678014755249023438e-01) (200, 1.53150469064712524414e-01) (201, 7.61137679219245910645e-02) (202, 6.08796998858451843262e-02) (203, -5.78073086217045783997e-03) (204, 1.14764101803302764893e-01) (205, -5.49827255308628082275e-02) (206, 9.80556830763816833496e-02) (207, 1.14645240828394889832e-02) (208, 1.14884555339813232422e-01) (209, 6.42899423837661743164e-02) (210, 4.21730391681194305420e-02) (211, -2.55309343338012695313e-02) (212, 7.66201838850975036621e-02) (213, 9.63400006294250488281e-02) (214, 8.65036994218826293945e-02) (215, 5.89639209210872650146e-02) (216, -8.46450508106499910355e-04) (217, -2.54763253033161163330e-02) (218, -7.98691511154174804688e-02) (219, -9.24764275550842285156e-02) (220, 3.21903079748153686523e-02) (221, 6.70201182365417480469e-02) (222, -3.84544767439365386963e-02) (223, -3.12819406390190124512e-02) (224, 8.24368223547935485840e-02) (225, -8.69145989418029785156e-03) (226, -2.57687158882617950439e-02) (227, -3.33284474909305572510e-02) (228, 7.36107602715492248535e-02) (229, 7.87890702486038208008e-03) (230, 9.67428907752037048340e-02) (231, -9.26422849297523498535e-02) (232, -1.05473436415195465088e-01) (233, 7.69006684422492980957e-02) (234, 1.01854959502816200256e-02) (235, 2.45203059166669845581e-02) (236, -4.19125379994511604309e-03) (237, 5.19578680396080017090e-02) (238, 4.40550409257411956787e-02) (239, -7.56370499730110168457e-02) (240, -3.40077653527259826660e-02) (241, -8.57529491186141967773e-02) (242, -2.44859866797924041748e-02) (243, 5.91365471482276916504e-02) (244, -3.92247103154659271240e-02) (245, -6.92124217748641967773e-02) (246, 1.77576411515474319458e-02) (247, 5.04002608358860015869e-02) (248, -4.69122231006622314453e-02) (249, -8.08110311627388000488e-02) (250, 2.95953359454870223999e-02) (251, -1.29419282078742980957e-01) (252, -5.92403002083301544189e-02) (253, -3.88071350753307342529e-02) (254, -2.94140987098217010498e-02) (255, -5.77161386609077453613e-02) (256, -1.02985695004463195801e-01) (0, -7.70816281437873840332e-02) (1, -1.65626555681228637695e-01) (2, -1.52650475502014160156e-01) (3, -2.91131660342216491699e-02) (4, -1.24867185950279235840e-01) (5, -1.00562311708927154541e-01) (6, -1.05765506625175476074e-01) (7, 3.40568041428923606873e-03) (8, -1.36617302894592285156e-01) (9, -1.25426677986979484558e-02) (10, -8.83617848157882690430e-02) (11, -9.16067883372306823730e-02) (12, 4.93173040449619293213e-02) (13, -6.45161271095275878906e-02) (14, 7.21010193228721618652e-02) (15, -1.46887479349970817566e-02) (16, 5.02937613055109977722e-03) (17, 7.79403671622276306152e-02) (18, 1.08310990035533905029e-02) (19, 1.87656339257955551147e-02) (20, -2.62477993965148925781e-02) (21, -1.80713012814521789551e-02) (22, 2.12196279317140579224e-02) (23, -1.30504490807652473450e-02) (24, -9.60781518369913101196e-03) (25, -1.04155286680907011032e-03) (26, 1.33750094100832939148e-02) (27, 4.99306507408618927002e-02) (28, 6.32642244454473257065e-04) (29, 1.45600616931915283203e-01) (30, 4.54602576792240142822e-02) (31, 1.88775230199098587036e-02) (32, 6.07272274792194366455e-02) (33, 2.21138931810855865479e-02) (34, 3.56065109372138977051e-02) (35, 1.07602193951606750488e-01) (36, -9.18393060564994812012e-02) (37, 8.71982052922248840332e-02) (38, 8.15019682049751281738e-02) (39, 6.86343684792518615723e-02) (40, 1.25578060746192932129e-01) (41, -1.61969855427742004395e-01) (42, 1.26907944679260253906e-01) (43, 1.53065234422683715820e-01) (44, 1.34849742054939270020e-01) (45, 3.03010851144790649414e-01) (46, 8.41748788952827453613e-02) (47, -2.97135204076766967773e-01) (48, 3.50900948047637939453e-01) (49, -4.39753681421279907227e-01) (50, 2.15071871876716613770e-01) (51, 1.32928788661956787109e-01) (52, 1.35762631893157958984e+00) (53, 1.70342430472373962402e-01) (54, 5.13725206255912780762e-02) (55, -2.78166621923446655273e-01) (56, 8.41490179300308227539e-02) (57, -2.82023344188928604126e-02) (58, 1.27657100558280944824e-01) (59, 1.29956796765327453613e-01) (60, 3.12122583389282226563e-01) (61, 2.35174715518951416016e-01) (62, 1.45748227834701538086e-01) (63, 1.12068557739257812500e+00) (64, 1.96218881756067276001e-02) (65, -6.86246603727340698242e-02) (66, 2.04085975885391235352e-01) (67, 2.54711005836725234985e-02) (68, 2.15877115726470947266e-01) (69, 2.89921641349792480469e-01) (70, -4.50730044394731521606e-03) (71, 9.11680012941360473633e-02) (72, 9.94628667831420898438e-02) (73, -1.53728201985359191895e-01) (74, -7.10918232798576354980e-02) (75, 1.24909207224845886230e-01) (76, 1.50970235466957092285e-01) (77, 1.36644423007965087891e-01) (78, 1.06819020584225654602e-02) (79, -3.27418558299541473389e-02) (80, -1.10598862171173095703e-01) (81, -9.18660387396812438965e-02) (82, -3.38782697916030883789e-01) (83, 6.19766227900981903076e-02) (84, 5.47688594087958335876e-03) (85, 1.56478837132453918457e-01) (86, -1.17650985717773437500e-01) (87, -1.64953887462615966797e-01) (88, -3.33739548921585083008e-01) (89, -1.40170991420745849609e+00) (90, -4.65257652103900909424e-02) (91, 4.92096580564975738525e-02) (92, -1.51584416627883911133e-01) (93, -7.99557119607925415039e-02) (94, -1.88290148973464965820e-01) (95, -2.21024323254823684692e-02) (96, -6.67577385902404785156e-02) (97, -4.45372253656387329102e-01) (98, -1.16984955966472625732e-02) (99, 3.11737996526062488556e-03) (100, 1.59871175885200500488e-01) (101, 8.02437290549278259277e-02) (102, 1.06395352631807327271e-02) (103, -6.86694532632827758789e-02) (104, 6.76642730832099914551e-02) (105, -6.74073874950408935547e-01) (106, -2.11553983390331268311e-02) (107, 2.46797844767570495605e-01) (108, 1.07375249266624450684e-01) (109, 2.54200622439384460449e-02) (110, 1.99775621294975280762e-01) (111, 7.02559202909469604492e-02) (112, -4.05799783766269683838e-02) (113, 3.15166190266609191895e-02) (114, 3.74400205910205841064e-02) (115, 1.58952385187149047852e-01) (116, 8.44572409987449645996e-02) (117, 8.23189198970794677734e-01) (118, -3.60868908464908599854e-02) (119, 3.80626529455184936523e-01) (120, -1.17085389792919158936e-01) (121, -1.02455250918865203857e-01) (122, 2.39785268902778625488e-01) (123, 1.54340162873268127441e-01) (124, 1.18640951812267303467e-01) (125, 5.43733060359954833984e-01) (126, -8.22861418128013610840e-02) (127, 3.95969629287719726563e-01) (128, 4.72195148468017578125e-02) (129, -1.47181063890457153320e-01) (130, -3.19110206328332424164e-03) (131, 1.02242857217788696289e-01) (132, -3.55627760291099548340e-02) (133, -8.47102701663970947266e-02) (134, -4.76110130548477172852e-01) (135, 1.83514848351478576660e-01) (136, 1.01931609213352203369e-01) (137, -1.10890768468379974365e-01) (138, -4.97832242399454116821e-03) (139, -2.43533663451671600342e-02) (140, -7.31442198157310485840e-02) (141, -1.39821156859397888184e-01) (142, 1.04694254696369171143e-02) (143, 3.20717006921768188477e-01) (144, -7.30551406741142272949e-02) (145, -1.99267700314521789551e-01) (146, -2.23837867379188537598e-02) (147, -7.87545461207628250122e-03) (148, 9.08472668379545211792e-03) (149, -2.23563924431800842285e-01) (150, -1.00889176130294799805e-01) (151, -1.54170647263526916504e-01) (152, -1.29282280802726745605e-01) (153, -1.25097110867500305176e-01) (154, -2.81097710132598876953e-01) (155, -2.59304065257310867310e-02) (156, 1.56935542821884155273e-01) (157, 6.41945656388998031616e-03) (158, -8.91161486506462097168e-02) (159, -1.78201213479042053223e-01) (160, -3.96644957363605499268e-02) (161, -7.68496617674827575684e-02) (162, 6.08753189444541931152e-02) (163, -3.00550237298011779785e-02) (164, 1.11551292240619659424e-01) (165, -1.58443689346313476563e-01) (166, -6.14352896809577941895e-02) (167, -9.89473313093185424805e-02) (168, -3.14997360110282897949e-02) (169, -7.01603814959526062012e-02) (170, 2.82243825495243072510e-02) (171, -9.39268544316291809082e-02) (172, 5.14698736369609832764e-02) (173, 5.60990236699581146240e-02) (174, -2.60621551424264907837e-02) (175, 1.39908090233802795410e-01) (176, -9.55610275268554687500e-02) (177, -1.06846831738948822021e-01) (178, 6.79800882935523986816e-02) (179, -5.53757585585117340088e-02) (180, 7.33487978577613830566e-02) (181, -4.31015528738498687744e-02) (182, 5.20413108170032501221e-02) (183, -5.48179261386394500732e-02) (184, -9.61387902498245239258e-02) (185, -5.34536659717559814453e-01) (186, -1.15688048303127288818e-01) (187, 4.05519247055053710938e-01) (188, 2.22662404179573059082e-01) (189, 1.10906735062599182129e-01) (190, -1.32194021716713905334e-02) (191, -1.80071398615837097168e-01) (192, -1.22815584763884544373e-02) (193, -1.27595528960227966309e-01) (194, 1.43053364008665084839e-02) (195, 2.20504999160766601563e-01) (196, 3.79423379898071289063e-01) (197, 1.21894001960754394531e-01) (198, -1.22829623520374298096e-01) (199, -8.33827182650566101074e-02) (200, -9.73027274012565612793e-02) (201, 8.28097388148307800293e-03) (202, -1.70223489403724670410e-01) (203, 8.14986303448677062988e-02) (204, 9.72675974480807781219e-04) (205, -2.33407132327556610107e-02) (206, 2.73266676813364028931e-02) (207, 1.22975684702396392822e-01) (208, -3.13215255737304687500e-02) (209, 1.32121250033378601074e-01) (210, 1.17726959288120269775e-01) (211, 1.90057083964347839355e-01) (212, 1.32793277502059936523e-01) (213, 6.15958459675312042236e-02) (214, -1.61419659852981567383e-01) (215, -4.65151816606521606445e-02) (216, -1.74583420157432556152e-02) (217, -1.62001475691795349121e-02) (218, 2.46508598327636718750e-01) (219, 2.05468177795410156250e-01) (220, 5.47145381569862365723e-02) (221, 8.83123129606246948242e-02) (222, 4.81408722698688507080e-02) (223, -1.29536002874374389648e-01) (224, -4.29680608212947845459e-02) (225, 6.04391768574714660645e-02) (226, 5.49610294401645660400e-02) (227, -7.99672231078147888184e-02) (228, 1.71656887978315353394e-02) (229, 1.29334330558776855469e-02) (230, -3.95894013345241546631e-02) (231, -2.39964984357357025146e-02) (232, -1.65592432022094726563e-01) (233, 2.49135326594114303589e-02) (234, -1.39307789504528045654e-02) (235, -9.35596898198127746582e-02) (236, -1.44065409898757934570e-01) (237, -3.80415767431259155273e-02) (238, -4.68394197523593902588e-02) (239, -1.48724853992462158203e-01) (240, -7.26067200303077697754e-02) (241, -1.05721287429332733154e-01) (242, 2.10498366504907608032e-02) (243, -8.15442427992820739746e-02) (244, 6.91924020648002624512e-02) (245, -3.88152599334716796875e-02) (246, -9.89206507802009582520e-02) (247, -1.12188361585140228271e-01) (248, -1.45963817834854125977e-01) (249, -1.69850662350654602051e-02) (250, -1.70097142457962036133e-01) (251, -2.07273662090301513672e-01) (252, -9.43266823887825012207e-02) (253, -4.35258708894252777100e-02) (254, -5.51855377852916717529e-02) (255, -1.03806003928184509277e-01) (256, -5.58874420821666717529e-02) (0, 5.38179934024810791016e-01) (1, 3.74522984027862548828e-01) (2, 4.75090533494949340820e-01) (3, 5.31515419483184814453e-01) (4, 4.52956765890121459961e-01) (5, 5.16434252262115478516e-01) (6, 4.27854388952255249023e-01) (7, 5.24845302104949951172e-01) (8, 4.92350608110427856445e-01) (9, 4.61273252964019775391e-01) (10, 3.38426709175109863281e-01) (11, 3.27865153551101684570e-01) (12, 3.64345878362655639648e-01) (13, 4.72883820533752441406e-01) (14, 4.67469990253448486328e-01) (15, 4.28838819265365600586e-01) (16, 5.20847856998443603516e-01) (17, 3.81872564554214477539e-01) (18, 5.27533710002899169922e-01) (19, 4.69280868768692016602e-01) (20, 4.44952249526977539063e-01) (21, 5.12867629528045654297e-01) (22, 4.02639776468276977539e-01) (23, 3.38566631078720092773e-01) (24, 4.68603342771530151367e-01) (25, 3.02197873592376708984e-01) (26, 2.96905726194381713867e-01) (27, 3.49937021732330322266e-01) (28, 3.47352087497711181641e-01) (29, 3.47070306539535522461e-01) (30, 4.17349874973297119141e-01) (31, 4.25169140100479125977e-01) (32, 3.50415587425231933594e-01) (33, 4.35727357864379882813e-01) (34, 4.59816902875900268555e-01) (35, 1.89032062888145446777e-01) (36, 2.96741068363189697266e-01) (37, 1.07447393238544464111e-01) (38, 3.53312879800796508789e-01) (39, 3.93143475055694580078e-01) (40, 5.91538131237030029297e-01) (41, 5.24047136306762695313e-01) (42, 1.35741472244262695313e+00) (43, 3.81987482309341430664e-01) (44, 1.67827516794204711914e-01) (45, 2.38358199596405029297e-01) (46, 3.54344040155410766602e-01) (47, 7.60014176368713378906e-01) (48, 4.99560922384262084961e-01) (49, 4.88253116607666015625e-01) (50, 5.79067289829254150391e-01) (51, 4.52461719512939453125e-01) (52, -1.02374982833862304688e+00) (53, 4.64630186557769775391e-01) (54, 4.89161849021911621094e-01) (55, 6.14843785762786865234e-01) (56, 4.25831973552703857422e-01) (57, 4.21434611082077026367e-01) (58, 3.90275090932846069336e-01) (59, 6.77384912967681884766e-01) (60, 5.33426105976104736328e-01) (61, 1.69858247041702270508e-01) (62, 3.48620265722274780273e-01) (63, 5.33337593078613281250e-01) (64, 4.49547857046127319336e-01) (65, 5.41113674640655517578e-01) (66, 4.05702948570251464844e-01) (67, 2.84296393394470214844e-01) (68, 4.40307527780532836914e-01) (69, 1.53721570968627929688e-01) (70, 6.43852889537811279297e-01) (71, 1.55394399166107177734e+00) (72, 3.90602469444274902344e-01) (73, 4.55252856016159057617e-01) (74, 4.01031047105789184570e-01) (75, 3.29660952091217041016e-01) (76, 4.66579318046569824219e-01) (77, 1.28294318914413452148e-01) (78, 2.71094530820846557617e-01) (79, 2.95481979846954345703e-01) (80, 4.46462184190750122070e-01) (81, 4.67636972665786743164e-01) (82, 3.24186056852340698242e-01) (83, 2.50504881143569946289e-01) (84, 3.43461006879806518555e-01) (85, 3.19981008768081665039e-01) (86, 3.38785558938980102539e-01) (87, 4.87500578165054321289e-01) (88, 3.21438640356063842773e-01) (89, 5.80150604248046875000e-01) (90, 3.47708284854888916016e-01) (91, 3.99217128753662109375e-01) (92, 5.55825710296630859375e-01) (93, 2.37634479999542236328e-01) (94, 2.82528042793273925781e-01) (95, 3.98101836442947387695e-01) (96, 3.29798400402069091797e-01) (97, 4.95285332202911376953e-01) (98, 6.64716124534606933594e-01) (99, 4.08418148756027221680e-01) (100, 4.98900145292282104492e-01) (101, 2.09303542971611022949e-01) (102, 2.80605643987655639648e-01) (103, 4.24725174903869628906e-01) (104, 3.05313378572463989258e-01) (105, 4.85596716403961181641e-01) (106, 3.18477332592010498047e-01) (107, 4.00002598762512207031e-01) (108, 2.97971695661544799805e-01) (109, 3.48333477973937988281e-01) (110, 3.16333621740341186523e-01) (111, 3.01888316869735717773e-01) (112, 5.36104559898376464844e-01) (113, 3.96312832832336425781e-01) (114, 2.58843064308166503906e-01) (115, 3.37087333202362060547e-01) (116, 5.03125309944152832031e-01) (117, 3.49863916635513305664e-01) (118, 3.39833348989486694336e-01) (119, 1.17002457380294799805e-01) (120, 4.92649585008621215820e-01) (121, 4.75564688444137573242e-01) (122, 4.07732903957366943359e-01) (123, 4.65103477239608764648e-01) (124, 3.18562239408493041992e-01) (125, 4.10532653331756591797e-01) (126, 4.28874045610427856445e-01) (127, 1.63440078496932983398e-01) (128, 5.82670986652374267578e-01) (129, 5.12345016002655029297e-01) (130, 7.24709749221801757813e-01) (131, 4.49481338262557983398e-01) (132, 4.27774846553802490234e-01) (133, 4.72099572420120239258e-01) (134, 4.88275587558746337891e-01) (135, 3.09105366468429565430e-01) (136, 3.71492892503738403320e-01) (137, 4.38419103622436523438e-01) (138, 7.71468400955200195313e-01) (139, 5.89672446250915527344e-01) (140, 6.13344728946685791016e-01) (141, 3.84544521570205688477e-01) (142, 2.73668259382247924805e-01) (143, 1.87576964497566223145e-01) (144, 5.37767231464385986328e-01) (145, 5.59934675693511962891e-01) (146, 4.37882155179977416992e-01) (147, 7.27660715579986572266e-01) (148, 5.56423008441925048828e-01) (149, 4.67814385890960693359e-01) (150, 4.09616559743881225586e-01) (151, 1.31327673792839050293e-01) (152, 4.92830187082290649414e-01) (153, 5.53017795085906982422e-01) (154, 5.83158969879150390625e-01) (155, 4.24538612365722656250e-01) (156, 2.83464699983596801758e-01) (157, 4.40599262714385986328e-01) (158, 3.50877642631530761719e-01) (159, 1.16742655634880065918e-01) (160, 5.39409041404724121094e-01) (161, 4.37905937433242797852e-01) (162, 6.40128612518310546875e-01) (163, 4.23256933689117431641e-01) (164, 5.03595113754272460938e-01) (165, 4.08394664525985717773e-01) (166, 3.57764065265655517578e-01) (167, 4.12240564823150634766e-01) (168, 2.41655811667442321777e-01) (169, 4.60767894983291625977e-01) (170, 2.14396640658378601074e-01) (171, 3.57261896133422851563e-01) (172, 4.85642015933990478516e-01) (173, 3.23537439107894897461e-01) (174, 4.25736755132675170898e-01) (175, 2.97709524631500244141e-01) (176, 4.45221811532974243164e-01) (177, 4.55993950366973876953e-01) (178, 3.58059287071228027344e-01) (179, 2.81979173421859741211e-01) (180, 3.42032164335250854492e-01) (181, 3.71151864528656005859e-01) (182, 3.66618812084197998047e-01) (183, 3.79026681184768676758e-01) (184, 3.91068637371063232422e-01) (185, 4.96227115392684936523e-01) (186, 2.20329895615577697754e-01) (187, 2.99117624759674072266e-01) (188, 3.41006726026535034180e-01) (189, 2.55195349454879760742e-01) (190, 2.57410913705825805664e-01) (191, 4.28594112396240234375e-01) (192, 3.85717242956161499023e-01) (193, 4.84447360038757324219e-01) (194, 2.67758607864379882813e-01) (195, 2.85413354635238647461e-01) (196, 2.02722713351249694824e-01) (197, 4.69478368759155273438e-01) (198, 3.48088771104812622070e-01) (199, 4.42652791738510131836e-01) (200, 4.89053428173065185547e-01) (201, 5.68153560161590576172e-01) (202, 3.41358274221420288086e-01) (203, 3.19622993469238281250e-01) (204, 3.27993601560592651367e-01) (205, 5.95829963684082031250e-01) (206, 4.41110402345657348633e-01) (207, 4.88696485757827758789e-01) (208, 4.97642219066619873047e-01) (209, 3.52161020040512084961e-01) (210, 2.00060471892356872559e-01) (211, 1.93335846066474914551e-01) (212, 3.02216857671737670898e-01) (213, 3.01144808530807495117e-01) (214, 6.49579048156738281250e-01) (215, 7.53536581993103027344e-01) (216, 3.05602222681045532227e-01) (217, 4.07864898443222045898e-01) (218, 2.08187460899353027344e-01) (219, 2.77596056461334228516e-01) (220, 3.14507991075515747070e-01) (221, 2.79207378625869750977e-01) (222, 5.33840596675872802734e-01) (223, 3.87251108884811401367e-01) (224, 3.95494550466537475586e-01) (225, 3.77912670373916625977e-01) (226, 2.78377681970596313477e-01) (227, 2.67520219087600708008e-01) (228, 5.51310241222381591797e-01) (229, 4.06919270753860473633e-01) (230, 5.27250289916992187500e-01) (231, 5.19033610820770263672e-01) (232, 3.98588061332702636719e-01) (233, 5.16303896903991699219e-01) (234, 5.10063290596008300781e-01) (235, 3.93692582845687866211e-01) (236, 5.52088379859924316406e-01) (237, 3.58175247907638549805e-01) (238, 4.90289688110351562500e-01) (239, 5.01857221126556396484e-01) (240, 4.65644508600234985352e-01) (241, 4.60084766149520874023e-01) (242, 3.78497481346130371094e-01) (243, 4.30430889129638671875e-01) (244, 4.98702764511108398438e-01) (245, 4.22291845083236694336e-01) (246, 3.57013434171676635742e-01) (247, 4.87257212400436401367e-01) (248, 3.79356652498245239258e-01) (249, 4.50792193412780761719e-01) (250, 5.55097222328186035156e-01) (251, 4.71397638320922851563e-01) (252, 3.51652860641479492188e-01) (253, 5.39668440818786621094e-01) (254, 5.03199279308319091797e-01) (255, 4.80512410402297973633e-01) (256, 5.07825732231140136719e-01) (0, 1.15823760628700256348e-01) (1, 1.32105380296707153320e-01) (2, 1.11553922295570373535e-01) (3, 2.43103444576263427734e-01) (4, 1.82735875248908996582e-01) (5, 1.13737851381301879883e-01) (6, 2.12779283523559570313e-01) (7, 2.25922524929046630859e-01) (8, 2.18898832798004150391e-01) (9, 1.28438696265220642090e-01) (10, 9.31463241577148437500e-02) (11, 1.70129045844078063965e-01) (12, 1.16918519139289855957e-01) (13, 2.06279128789901733398e-01) (14, 1.27554118633270263672e-01) (15, 5.71510531008243560791e-02) (16, 2.73624449968338012695e-01) (17, 2.53569006919860839844e-01) (18, 1.55624255537986755371e-01) (19, 1.09883762896060943604e-01) (20, 2.32443198561668395996e-01) (21, 1.57192885875701904297e-01) (22, 6.17475882172584533691e-02) (23, 6.55355006456375122070e-02) (24, 2.10678622126579284668e-01) (25, 1.23737871646881103516e-01) (26, 8.74474048614501953125e-02) (27, 5.45681826770305633545e-02) (28, 1.52142494916915893555e-01) (29, 1.55748873949050903320e-01) (30, 9.05042588710784912109e-02) (31, 9.32957381010055541992e-02) (32, 1.47309720516204833984e-01) (33, 2.49028317630290985107e-02) (34, 1.78767323493957519531e-01) (35, 7.35957100987434387207e-02) (36, 1.80571913719177246094e-01) (37, -3.37446093559265136719e-01) (38, 7.54298120737075805664e-02) (39, -5.91387078166007995605e-02) (40, 1.23888045549392700195e-01) (41, 6.20256841182708740234e-01) (42, 5.27599930763244628906e-01) (43, 1.20996877551078796387e-01) (44, -5.79531955718994140625e+00) (45, 1.00981020927429199219e+00) (46, 1.10206794738769531250e+00) (47, 1.22404956817626953125e+00) (48, 8.67227390408515930176e-02) (49, 6.94424629211425781250e+00) (50, 3.50832909345626831055e-01) (51, 2.09131062030792236328e-01) (52, -4.23227691650390625000e+00) (53, 6.02357864379882812500e-01) (54, 1.70014667510986328125e+00) (55, 2.80847692489624023438e+00) (56, 1.32638931274414062500e-01) (57, 7.95513331890106201172e-01) (58, 3.58667755126953125000e+01) (59, 6.71117424964904785156e-01) (60, -1.98496091365814208984e+00) (61, 8.28328505158424377441e-02) (62, 9.44062098860740661621e-02) (63, 1.33906528353691101074e-01) (64, -7.07486644387245178223e-02) (65, 5.43340682983398437500e+00) (66, 2.03437352180480957031e+00) (67, 1.47177684307098388672e+00) (68, -3.63385856151580810547e-01) (69, 3.81137579679489135742e-02) (70, 1.85041457414627075195e-01) (71, 5.51572918891906738281e-01) (72, 3.20125222206115722656e-02) (73, 1.11430966854095458984e+00) (74, 3.20498824119567871094e-01) (75, 1.09415061771869659424e-01) (76, 1.94636769592761993408e-02) (77, 1.96233525872230529785e-01) (78, 1.83855444192886352539e-01) (79, 1.36295810341835021973e-01) (80, 1.49702429771423339844e-01) (81, 3.43977034091949462891e-01) (82, 3.04155975580215454102e-01) (83, 2.13404521346092224121e-01) (84, 1.29438191652297973633e-01) (85, 8.41255709528923034668e-02) (86, 1.64970785379409790039e-01) (87, -9.15512964129447937012e-02) (88, 1.63562431931495666504e-01) (89, 4.28521454334259033203e-01) (90, 2.48145028948783874512e-01) (91, 5.92900395393371582031e-01) (92, 2.58996546268463134766e-01) (93, 1.20663903653621673584e-01) (94, 2.13939771056175231934e-01) (95, -2.60250419378280639648e-01) (96, 8.21592658758163452148e-02) (97, 3.93004357814788818359e-01) (98, 2.05477610230445861816e-01) (99, 6.79385542869567871094e-01) (100, 1.59482434391975402832e-01) (101, 1.22405000030994415283e-01) (102, 2.84203179180622100830e-02) (103, 2.88194864988327026367e-01) (104, -1.50177806615829467773e-01) (105, 3.82701396942138671875e-01) (106, 3.19663137197494506836e-01) (107, 3.28651696443557739258e-01) (108, 6.52255862951278686523e-02) (109, 1.98327437043190002441e-01) (110, 2.62304276227951049805e-01) (111, -1.70767605304718017578e-01) (112, 2.30995416641235351563e-01) (113, 2.81370878219604492188e-01) (114, 1.41588732600212097168e-01) (115, 2.74216473102569580078e-01) (116, 1.49270817637443542480e-01) (117, 3.96181195974349975586e-02) (118, 1.48511484265327453613e-01) (119, -4.53944168984889984131e-02) (120, 1.20348393917083740234e-01) (121, 3.41744661331176757813e-01) (122, 1.93240970373153686523e-01) (123, 3.53756725788116455078e-01) (124, 9.16158333420753479004e-02) (125, 6.28251284360885620117e-02) (126, 1.56784847378730773926e-01) (127, 4.56044562160968780518e-02) (128, -6.52215361595153808594e-01) (129, 2.72790789604187011719e-01) (130, 1.07912206649780273438e+00) (131, 2.17578744888305664063e+00) (132, 2.54509150981903076172e-01) (133, 1.59937530755996704102e-01) (134, 3.42929214239120483398e-01) (135, 3.17832231521606445313e-02) (136, -8.01448583602905273438e-01) (137, 1.99481248855590820313e-01) (138, 3.51384103298187255859e-01) (139, 4.97063219547271728516e-01) (140, 5.41958451271057128906e-01) (141, 1.93245708942413330078e-01) (142, 6.16700351238250732422e-02) (143, -9.60834547877311706543e-02) (144, -2.05737739801406860352e-01) (145, 1.52769029140472412109e-01) (146, 3.55025500059127807617e-01) (147, 2.99933165311813354492e-01) (148, 2.30856195092201232910e-01) (149, 3.10197114944458007813e-01) (150, 3.23029756546020507813e-02) (151, -2.50481992959976196289e-01) (152, -8.18807721138000488281e-01) (153, 5.55597245693206787109e-01) (154, 3.58630210161209106445e-01) (155, 6.10128164291381835938e-01) (156, 3.01205217838287353516e-01) (157, 1.45317539572715759277e-01) (158, 9.42658558487892150879e-02) (159, -1.33357703685760498047e-01) (160, -6.48092269897460937500e+00) (161, 8.69471490383148193359e-01) (162, 5.62270462512969970703e-01) (163, 8.59583437442779541016e-01) (164, 4.98493820428848266602e-01) (165, 2.19788774847984313965e-01) (166, -1.72858200967311859131e-02) (167, -1.90900766849517822266e+00) (168, -1.34092864990234375000e+01) (169, 8.28885197639465332031e-01) (170, 2.36050754785537719727e-01) (171, 7.71917045116424560547e-01) (172, 4.10304903984069824219e-01) (173, 1.12951964139938354492e-01) (174, 9.40823778510093688965e-02) (175, -8.31080019474029541016e-01) (176, -4.12859380245208740234e-01) (177, 4.92404818534851074219e-01) (178, 6.47223174571990966797e-01) (179, 6.47974729537963867188e-01) (180, 4.90539163351058959961e-01) (181, 1.47109732031822204590e-01) (182, -1.96497663855552673340e-01) (183, -3.02764847874641418457e-02) (184, 3.71174998581409454346e-02) (185, 2.82173126935958862305e-01) (186, 3.39652925729751586914e-01) (187, 5.06028473377227783203e-01) (188, 3.36796641349792480469e-01) (189, 1.08738884329795837402e-01) (190, -3.01032614707946777344e+00) (191, 8.39409455657005310059e-02) (192, 1.86235144734382629395e-01) (193, 5.31921207904815673828e-01) (194, 3.25893491506576538086e-01) (195, 1.00242245197296142578e+00) (196, 2.18096360564231872559e-01) (197, 3.27789783477783203125e-01) (198, -4.43615347146987915039e-01) (199, -1.52734816074371337891e+00) (200, 1.80917546153068542480e-01) (201, 2.82506406307220458984e-01) (202, 1.58537909388542175293e-01) (203, 1.94613099098205566406e-01) (204, 1.84821903705596923828e-01) (205, 1.88563093543052673340e-01) (206, 1.91286921501159667969e-01) (207, 2.19247758388519287109e-01) (208, 2.43685558438301086426e-01) (209, 1.14289596676826477051e-02) (210, 2.53604620695114135742e-01) (211, 5.36022195592522621155e-03) (212, 1.60755589604377746582e-01) (213, 1.45402207970619201660e-01) (214, 2.40667760372161865234e-01) (215, 3.35356473922729492188e-01) (216, 2.31745392084121704102e-01) (217, 1.37090623378753662109e-01) (218, 3.51682528853416442871e-02) (219, 1.15314587950706481934e-01) (220, 2.13533803820610046387e-01) (221, 1.86098992824554443359e-01) (222, 1.67737111449241638184e-01) (223, 1.70706048607826232910e-01) (224, 1.66029974818229675293e-01) (225, 2.20216944813728332520e-01) (226, 2.56055563688278198242e-01) (227, 2.31642588973045349121e-01) (228, 2.58466184139251708984e-01) (229, 1.91125541925430297852e-01) (230, 6.29722625017166137695e-02) (231, 1.62478893995285034180e-01) (232, 1.35308876633644104004e-01) (233, 1.84758335351943969727e-01) (234, 1.64836168289184570313e-01) (235, 1.31723165512084960938e-01) (236, 1.23784326016902923584e-01) (237, 2.02454119920730590820e-01) (238, 6.21300600469112396240e-02) (239, 1.20214737951755523682e-01) (240, 9.32683125138282775879e-02) (241, 1.85161948204040527344e-01) (242, 1.89897015690803527832e-01) (243, 1.90219774842262268066e-01) (244, 9.29141640663146972656e-02) (245, 2.47377470135688781738e-01) (246, 2.40014597773551940918e-01) (247, 2.28460028767585754395e-01) (248, 2.32259377837181091309e-01) (249, 2.22084820270538330078e-01) (250, 2.36409768462181091309e-01) (251, 8.68971496820449829102e-02) (252, 2.02498033642768859863e-01) (253, 1.66808575391769409180e-01) (254, 1.86188355088233947754e-01) (255, 2.67309844493865966797e-01) (256, 1.49884358048439025879e-01) (0, -2.00243085622787475586e-01) (1, -3.39961498975753784180e-02) (2, -1.14592708647251129150e-01) (3, 2.76804864406585693359e-02) (4, -7.79776573181152343750e-02) (5, -1.15576677024364471436e-01) (6, 1.20230931788682937622e-02) (7, -1.20197035372257232666e-01) (8, -1.60571753978729248047e-01) (9, -2.54330299794673919678e-02) (10, -1.76512021571397781372e-02) (11, -7.22000282257795333862e-03) (12, -9.53960884362459182739e-03) (13, 2.93507315218448638916e-02) (14, 3.81703674793243408203e-02) (15, -6.91227167844772338867e-02) (16, -1.85581147670745849609e-01) (17, -2.57328927516937255859e-01) (18, -1.75376832485198974609e-01) (19, -2.05186456441879272461e-01) (20, -2.36015245318412780762e-01) (21, -1.02612793445587158203e-01) (22, 7.75003284215927124023e-02) (23, 6.61416500806808471680e-02) (24, -1.79562523961067199707e-01) (25, -2.83315796405076980591e-02) (26, 8.05165246129035949707e-02) (27, 4.38946709036827087402e-02) (28, -9.94865447282791137695e-02) (29, 4.94860373437404632568e-02) (30, -1.11917890608310699463e-01) (31, -7.05162659287452697754e-02) (32, -4.73853796720504760742e-01) (33, -2.35499590635299682617e-01) (34, -1.19816206395626068115e-01) (35, 1.58723413944244384766e-01) (36, -2.50213406980037689209e-02) (37, 1.40024855732917785645e-01) (38, 1.11447028815746307373e-01) (39, -5.46520836651325225830e-02) (40, -7.67464041709899902344e-01) (41, -9.96718779206275939941e-02) (42, 8.11165943741798400879e-02) (43, 6.91063776612281799316e-02) (44, 6.50380924344062805176e-02) (45, 3.65925461053848266602e-01) (46, 2.51242399215698242188e-01) (47, 6.99620842933654785156e-02) (48, -5.40051698684692382813e-01) (49, -1.30040168762207031250e-01) (50, 9.09795239567756652832e-02) (51, 1.12027056515216827393e-01) (52, 1.79371938109397888184e-01) (53, 2.90117204189300537109e-01) (54, 2.12492160499095916748e-02) (55, -7.57748559117317199707e-02) (56, -5.09175658226013183594e-01) (57, -1.40535920858383178711e-01) (58, -4.00184802711009979248e-02) (59, 1.29488945007324218750e-01) (60, 6.97821229696273803711e-02) (61, 9.91485565900802612305e-02) (62, 2.27356955409049987793e-01) (63, -9.17662009596824645996e-02) (64, 1.16503953933715820313e+00) (65, -2.25024357438087463379e-01) (66, 1.04867510497570037842e-01) (67, 1.09647482633590698242e-01) (68, 1.51271313428878784180e-01) (69, 4.34505105018615722656e-01) (70, 3.37212741374969482422e-01) (71, -3.01873016357421875000e+00) (72, -3.65182816982269287109e-01) (73, 4.45606969296932220459e-02) (74, 1.34850054979324340820e-01) (75, 2.58162587881088256836e-01) (76, 1.54767394065856933594e-01) (77, 1.16912019252777099609e+00) (78, 5.59743404388427734375e-01) (79, -1.08574807643890380859e+00) (80, -2.35612750053405761719e-01) (81, -1.87224164605140686035e-01) (82, 4.85315531492233276367e-01) (83, 4.24802899360656738281e-01) (84, 5.23305773735046386719e-01) (85, 2.49056324362754821777e-01) (86, -6.09333693981170654297e-01) (87, -7.35825300216674804688e-01) (88, -5.81354260444641113281e-01) (89, -6.93884313106536865234e-01) (90, -6.38370960950851440430e-02) (91, 2.44022846221923828125e-01) (92, -4.63325858116149902344e-01) (93, -2.76302671432495117188e+00) (94, -8.52486565709114074707e-02) (95, -5.31531155109405517578e-01) (96, -2.57410019636154174805e-01) (97, -1.48381197452545166016e+00) (98, -3.28083112835884094238e-02) (99, 4.75908577442169189453e-01) (100, 3.89117032289505004883e-01) (101, -3.93806211650371551514e-02) (102, 7.68490880727767944336e-02) (103, 8.54181051254272460938e-01) (104, -3.70824225246906280518e-02) (105, -7.47882351279258728027e-02) (106, -9.39681708812713623047e-01) (107, -6.02806592360138893127e-03) (108, 1.30342677235603332520e-01) (109, -2.34564110636711120605e-01) (110, 8.10767471790313720703e-01) (111, -1.22311198711395263672e+00) (112, -2.19372496008872985840e-01) (113, -1.51168093085289001465e-01) (114, -1.24829290434718132019e-02) (115, 9.72661674022674560547e-02) (116, -6.86628147959709167480e-02) (117, -2.67889648675918579102e-02) (118, 1.05873949825763702393e-01) (119, -3.35954576730728149414e-02) (120, 7.95280396938323974609e-01) (121, -1.85037776827812194824e-01) (122, 1.21746152639389038086e-01) (123, -1.71197671443223953247e-02) (124, 2.00304538011550903320e-02) (125, -7.88361728191375732422e-02) (126, 4.59935724735260009766e-01) (127, -1.80507717132568359375e+01) (128, 2.45525211095809936523e-01) (129, -1.95580065250396728516e-01) (130, -1.25673949718475341797e-01) (131, 2.57654577493667602539e-01) (132, 9.14714932441711425781e-02) (133, -4.43759679794311523438e-01) (134, -3.34077358245849609375e+00) (135, 1.23684227466583251953e+00) (136, 4.19048219919204711914e-01) (137, -7.86100029945373535156e-02) (138, -1.46485835313796997070e-01) (139, 3.71134907007217407227e-01) (140, 4.30689811706542968750e-01) (141, 6.60478770732879638672e-02) (142, 2.01848506927490234375e+00) (143, -3.60338836908340454102e-01) (144, 1.86127722263336181641e-01) (145, 4.96021956205368041992e-02) (146, 8.22424292564392089844e-02) (147, 1.72546301037073135376e-02) (148, 4.91826891899108886719e-01) (149, -2.69423544406890869141e-01) (150, -3.57893466949462890625e-01) (151, 1.39146101474761962891e+00) (152, 1.25430583953857421875e-01) (153, -2.78502523899078369141e-01) (154, 6.48542270064353942871e-02) (155, 4.20403093099594116211e-01) (156, 1.93543210625648498535e-01) (157, 1.81848645210266113281e-01) (158, -1.61156415939331054688e-01) (159, 4.40092444419860839844e-01) (160, -3.65644127130508422852e-01) (161, 6.27803429961204528809e-02) (162, -8.56069922447204589844e-02) (163, 3.65851432085037231445e-01) (164, 4.94394570589065551758e-01) (165, -3.53387296199798583984e-01) (166, -1.36864511296153068542e-02) (167, -1.23893511295318603516e+00) (168, -1.20063237845897674561e-01) (169, -1.82117655873298645020e-01) (170, -4.78791892528533935547e-02) (171, 3.59445571899414062500e-01) (172, 3.65427136421203613281e-01) (173, 1.01650960743427276611e-01) (174, 4.67209726572036743164e-01) (175, 1.16243846714496612549e-02) (176, -3.36318045854568481445e-01) (177, -2.15953677892684936523e-01) (178, -4.81973625719547271729e-02) (179, 3.05409461259841918945e-01) (180, 6.32097065448760986328e-01) (181, -2.26124133914709091187e-02) (182, 1.64487794041633605957e-01) (183, -1.04415863752365112305e-01) (184, 3.28117638826370239258e-01) (185, -1.52993336319923400879e-01) (186, 9.06347632408142089844e-02) (187, 7.68496617674827575684e-02) (188, 5.24367928504943847656e-01) (189, 9.06639844179153442383e-02) (190, 3.63878965377807617188e-01) (191, 2.13158845901489257813e+00) (192, -1.48162275552749633789e-01) (193, -1.50448322296142578125e-01) (194, 8.79425033926963806152e-02) (195, 4.81472536921501159668e-02) (196, 8.79574269056320190430e-02) (197, 1.37252092361450195313e-01) (198, 3.09939105063676834106e-02) (199, 6.12249910831451416016e-01) (200, -2.53582924604415893555e-01) (201, -1.41113623976707458496e-01) (202, -9.67037156224250793457e-02) (203, 1.36228464543819427490e-02) (204, 4.99753803014755249023e-02) (205, 1.01630806922912597656e-01) (206, 3.30072753131389617920e-02) (207, -8.31932872533798217773e-02) (208, -1.76658719778060913086e-01) (209, -9.31341759860515594482e-03) (210, 5.25241382420063018799e-02) (211, -4.41399328410625457764e-02) (212, 1.33152738213539123535e-01) (213, 9.04092118144035339355e-02) (214, 7.56117701530456542969e-02) (215, 5.22366091609001159668e-02) (216, 1.45313423126935958862e-02) (217, 5.01339584589004516602e-02) (218, 1.29033356904983520508e-01) (219, 3.49738635122776031494e-02) (220, 1.37378294020891189575e-02) (221, 1.08030386269092559814e-01) (222, 2.08897098898887634277e-01) (223, 1.19356838986277580261e-02) (224, -2.88273066282272338867e-01) (225, 4.66613955795764923096e-02) (226, 1.26906886696815490723e-01) (227, -4.11164276301860809326e-02) (228, -7.62397274374961853027e-02) (229, 9.20548141002655029297e-02) (230, -6.88903555274009704590e-02) (231, -8.46950411796569824219e-02) (232, -1.97589278221130371094e-01) (233, -1.18374988436698913574e-01) (234, -7.77596384286880493164e-02) (235, 1.57273393124341964722e-02) (236, -1.91959545016288757324e-01) (237, -1.06210514903068542480e-01) (238, -1.05946831405162811279e-01) (239, -1.47404268383979797363e-01) (240, -1.52431130409240722656e-01) (241, -2.30458602309226989746e-01) (242, -3.58258076012134552002e-02) (243, -2.04476267099380493164e-02) (244, -3.68625205010175704956e-03) (245, 3.51504720747470855713e-02) (246, 1.60470381379127502441e-02) (247, -2.15679481625556945801e-01) (248, -2.84733414649963378906e-01) (249, -2.04513549804687500000e-01) (250, -2.15082198381423950195e-01) (251, -2.05774337053298950195e-01) (252, -1.26386538147926330566e-01) (253, -1.55724525451660156250e-01) (254, -2.01123341917991638184e-01) (255, -2.05969527363777160645e-01) (256, -1.80401876568794250488e-01) (0, -2.09549248218536376953e-01) (1, -1.83891564607620239258e-01) (2, -1.88349429517984390259e-02) (3, -1.22814565896987915039e-01) (4, -8.64714682102203369141e-02) (5, -9.02386605739593505859e-02) (6, -1.03313662111759185791e-01) (7, -6.97138309478759765625e-02) (8, -1.35881125926971435547e-01) (9, -9.42231118679046630859e-02) (10, -1.73177421092987060547e-01) (11, -7.53251090645790100098e-02) (12, -2.44828592985868453979e-02) (13, -3.28826084733009338379e-02) (14, -1.71501059085130691528e-02) (15, -2.73346826434135437012e-02) (16, -3.24815623462200164795e-02) (17, 5.42462281882762908936e-02) (18, 3.30982310697436332703e-03) (19, -1.20585337281227111816e-01) (20, -9.53350961208343505859e-02) (21, -1.00825123488903045654e-01) (22, 4.16684430092573165894e-03) (23, -6.88198655843734741211e-02) (24, -1.43415424972772598267e-02) (25, -4.32065725326538085938e-02) (26, 1.44419129937887191772e-02) (27, -5.92165961861610412598e-02) (28, 4.48590144515037536621e-02) (29, 6.12001791596412658691e-02) (30, 8.52298289537429809570e-02) (31, 2.89815254509449005127e-02) (32, -2.99235787242650985718e-02) (33, 4.51359525322914123535e-02) (34, 6.10590875148773193359e-02) (35, 2.46697098016738891602e-01) (36, 2.56977498531341552734e-01) (37, 1.92844331264495849609e-01) (38, 2.01546475291252136230e-01) (39, -6.21451884508132934570e-02) (40, 2.77017295360565185547e-01) (41, 1.91864799708127975464e-02) (42, 1.72044243663549423218e-02) (43, 2.20420986413955688477e-01) (44, 7.79869437217712402344e-01) (45, 4.22783553600311279297e-01) (46, 2.61811077594757080078e-01) (47, 1.03697979450225830078e+00) (48, 3.41026455163955688477e-01) (49, 2.18378547579050064087e-02) (50, 5.62997944653034210205e-02) (51, 6.54836893081665039063e-02) (52, 1.61284363269805908203e+00) (53, 1.51471108198165893555e-01) (54, 1.22569695115089416504e-01) (55, -1.26275286078453063965e-01) (56, 1.05715617537498474121e-01) (57, 1.04383630678057670593e-02) (58, -4.59135174751281738281e-02) (59, 2.41404682397842407227e-01) (60, 3.06861370801925659180e-01) (61, 9.26312506198883056641e-02) (62, 1.81345287710428237915e-02) (63, -1.70596614480018615723e-01) (64, 2.57395327091217041016e-01) (65, -8.79224017262458801270e-02) (66, 1.70461311936378479004e-02) (67, 1.03339277207851409912e-01) (68, 3.24619203805923461914e-01) (69, 1.00440673530101776123e-01) (70, 6.55556768178939819336e-02) (71, -5.12450411915779113770e-02) (72, -1.15924827754497528076e-01) (73, 3.71741019189357757568e-02) (74, 5.77453859150409698486e-02) (75, 2.92001068592071533203e-01) (76, 1.87873452901840209961e-01) (77, 2.82967478036880493164e-01) (78, 1.98794558644294738770e-01) (79, -2.85629983991384506226e-02) (80, 1.40548074245452880859e+00) (81, 1.53320608660578727722e-02) (82, -1.59673944115638732910e-01) (83, 3.59417796134948730469e-01) (84, 2.38364845514297485352e-01) (85, 1.15479432046413421631e-01) (86, -6.39437809586524963379e-02) (87, -9.38214287161827087402e-02) (88, 3.87165141105651855469e+00) (89, 4.60668234154582023621e-03) (90, -1.40042193233966827393e-02) (91, 1.60636276006698608398e-01) (92, 6.09508454799652099609e-02) (93, 1.61200359463691711426e-01) (94, 2.40724859759211540222e-03) (95, 3.03902268409729003906e-01) (96, 1.93814885616302490234e+00) (97, -2.44222823530435562134e-02) (98, -8.13725218176841735840e-02) (99, 1.89672574400901794434e-01) (100, 1.22432842850685119629e-01) (101, 1.94891229271888732910e-01) (102, 1.51848286390304565430e-01) (103, -1.64751902222633361816e-01) (104, 1.03997901082038879395e-01) (105, -3.10104265809059143066e-02) (106, 1.10751576721668243408e-01) (107, 1.48006603121757507324e-01) (108, 3.12899410724639892578e-01) (109, -6.91095180809497833252e-03) (110, -4.68359366059303283691e-02) (111, 5.61933815479278564453e-02) (112, 1.85562044382095336914e-01) (113, 8.55092257261276245117e-02) (114, 2.17516764998435974121e-01) (115, 2.07341283559799194336e-01) (116, 2.18230336904525756836e-01) (117, 2.73965578526258468628e-03) (118, -5.81096895039081573486e-02) (119, 5.62393963336944580078e-02) (120, 6.03208616375923156738e-02) (121, 1.04187466204166412354e-01) (122, 2.14773014187812805176e-01) (123, 1.55524462461471557617e-01) (124, 2.03415483236312866211e-01) (125, -8.37739557027816772461e-02) (126, 5.19820749759674072266e-02) (127, -1.05969749391078948975e-01) (128, 1.16660855710506439209e-01) (129, 7.90518671274185180664e-02) (130, 6.20782971382141113281e-02) (131, 2.43715643882751464844e-01) (132, 1.20858572423458099365e-01) (133, 1.15179643034934997559e-01) (134, 3.97774688899517059326e-02) (135, 1.92750498652458190918e-01) (136, 1.38594031333923339844e-01) (137, 9.18837115168571472168e-02) (138, 5.98986260592937469482e-02) (139, 2.18951255083084106445e-01) (140, 2.02504813671112060547e-01) (141, 2.04744592308998107910e-01) (142, 7.57984519004821777344e-02) (143, 2.16228425502777099609e-01) (144, 8.26556086540222167969e-02) (145, 6.87045007944107055664e-02) (146, 9.33089256286621093750e-02) (147, 6.17703795433044433594e-02) (148, 1.64033815264701843262e-01) (149, -1.84384658932685852051e-01) (150, 9.61884409189224243164e-02) (151, -1.55718460679054260254e-01) (152, -1.57032757997512817383e-02) (153, 7.29409679770469665527e-02) (154, -1.53084442019462585449e-01) (155, 4.05758544802665710449e-02) (156, 1.76195308566093444824e-01) (157, 6.49849697947502136230e-02) (158, 4.81087528169155120850e-02) (159, -1.86534538865089416504e-01) (160, 1.45198464393615722656e+00) (161, 3.79270464181900024414e-01) (162, 1.50060549378395080566e-01) (163, 1.76680997014045715332e-01) (164, 1.13395512104034423828e-01) (165, -9.98945087194442749023e-02) (166, 3.04304044693708419800e-02) (167, 2.06684812903404235840e-01) (168, 1.16757690906524658203e+00) (169, 1.68146938085556030273e-01) (170, 1.83757722377777099609e-01) (171, 2.50455141067504882813e-01) (172, 3.57932984828948974609e-01) (173, 1.47732600569725036621e-01) (174, 6.68450891971588134766e-02) (175, 1.84768468141555786133e-01) (176, 8.52593109011650085449e-02) (177, 4.17010262608528137207e-02) (178, 4.56767603754997253418e-02) (179, 2.36345648765563964844e-01) (180, 1.23194523155689239502e-01) (181, 4.82536740601062774658e-02) (182, 5.62861561775207519531e-02) (183, -3.16791534423828125000e-02) (184, -1.23471610248088836670e-01) (185, -8.21912288665771484375e-02) (186, 8.85508358478546142578e-02) (187, 2.89147645235061645508e-01) (188, 2.33277112245559692383e-01) (189, -1.57034664880484342575e-03) (190, 5.68683221936225891113e-02) (191, -1.04611692950129508972e-02) (192, 1.26303248107433319092e-02) (193, 7.84506872296333312988e-02) (194, 3.73252928256988525391e-02) (195, 2.02130004763603210449e-01) (196, 2.34009966254234313965e-01) (197, 4.73009720444679260254e-02) (198, -4.64947074651718139648e-02) (199, -2.38943278789520263672e-01) (200, -1.32965683937072753906e-01) (201, -3.28429043292999267578e-02) (202, -3.87019738554954528809e-02) (203, 1.76660999655723571777e-01) (204, 1.18044532835483551025e-01) (205, 1.83486398309469223022e-02) (206, 3.02156750112771987915e-02) (207, -1.90256014466285705566e-02) (208, 1.35065644979476928711e-01) (209, 1.71708881855010986328e-01) (210, 2.08588764071464538574e-01) (211, 2.58871227502822875977e-01) (212, 1.95652902126312255859e-01) (213, 2.45786130428314208984e-01) (214, -6.10659383237361907959e-02) (215, -1.30370140075683593750e-01) (216, 1.34042188525199890137e-01) (217, 7.92989134788513183594e-02) (218, 2.43409961462020874023e-01) (219, 1.87237843871116638184e-01) (220, 1.33314326405525207520e-01) (221, -1.38056855648756027222e-02) (222, -9.46782082319259643555e-02) (223, -2.20415979623794555664e-01) (224, -1.97110503911972045898e-01) (225, -1.23945005238056182861e-01) (226, 3.97562272846698760986e-02) (227, 1.55284017324447631836e-01) (228, 1.09151057898998260498e-01) (229, -2.07690726965665817261e-02) (230, -1.37741133570671081543e-01) (231, -2.30371713638305664063e-01) (232, -1.74713376909494400024e-02) (233, -1.10161583870649337769e-02) (234, 5.87262697517871856689e-02) (235, -1.04270763695240020752e-01) (236, -9.30039361119270324707e-02) (237, 4.17815223336219787598e-02) (238, -1.30749970674514770508e-01) (239, -1.82499125599861145020e-01) (240, 8.24002623558044433594e-02) (241, -1.44464269280433654785e-01) (242, 1.33450236171483993530e-02) (243, -1.18099406361579895020e-01) (244, -2.44892369955778121948e-02) (245, -9.20882970094680786133e-02) (246, -2.34299786388874053955e-02) (247, -5.96698038280010223389e-02) (248, -4.25512269139289855957e-02) (249, -1.85766220092773437500e-02) (250, -1.22769378125667572021e-01) (251, -1.09994888305664062500e-01) (252, -1.49886131286621093750e-01) (253, -1.50144994258880615234e-01) (254, -1.73795074224472045898e-01) (255, -1.08060970902442932129e-01) (256, -1.04984804987907409668e-01) (0, -1.41467060893774032593e-02) (1, -8.56816694140434265137e-02) (2, -4.00700792670249938965e-02) (3, -5.86631223559379577637e-02) (4, -1.41578346490859985352e-01) (5, -9.35787409543991088867e-02) (6, -3.30511704087257385254e-02) (7, -1.07562847435474395752e-01) (8, -1.83517187833786010742e-01) (9, -1.10760651528835296631e-01) (10, -5.53273260593414306641e-02) (11, -4.37145270407199859619e-02) (12, -6.72740563750267028809e-02) (13, -1.42932966351509094238e-01) (14, 2.16046310961246490479e-02) (15, -7.10114138200879096985e-03) (16, -1.85425728559494018555e-01) (17, -2.61782621964812278748e-03) (18, -4.09597642719745635986e-02) (19, -8.59058722853660583496e-02) (20, -1.90073788166046142578e-01) (21, -9.68423206359148025513e-03) (22, -1.67016044259071350098e-01) (23, -5.76475001871585845947e-02) (24, 6.15304894745349884033e-02) (25, 2.67442432232201099396e-03) (26, -2.43978761136531829834e-02) (27, -4.40839715301990509033e-02) (28, 1.45585894584655761719e-01) (29, -1.16233928129076957703e-02) (30, -3.11470143496990203857e-02) (31, -1.20886504650115966797e-01) (32, 7.73647576570510864258e-02) (33, 1.08479306101799011230e-01) (34, -4.99317981302738189697e-02) (35, 9.21987220644950866699e-02) (36, 7.52177238464355468750e-02) (37, 9.42674353718757629395e-02) (38, 1.26540695782750844955e-03) (39, -7.02944863587617874146e-03) (40, 2.50923007726669311523e-01) (41, -2.54652440547943115234e-01) (42, 1.77001208066940307617e-01) (43, 3.15782696008682250977e-01) (44, 3.40012729167938232422e-01) (45, -2.36984401941299438477e-01) (46, -2.92981058359146118164e-01) (47, -2.27706074714660644531e+00) (48, 1.80796518921852111816e-01) (49, -9.31544661521911621094e-01) (50, 1.16822384297847747803e-01) (51, 1.12048283219337463379e-01) (52, 1.48929178714752197266e-01) (53, 2.14598432183265686035e-01) (54, -2.33397766947746276855e-01) (55, -6.00914716720581054688e-01) (56, -1.14548737183213233948e-02) (57, -9.03167724609375000000e-02) (58, -3.49910669028759002686e-02) (59, 1.49949282407760620117e-01) (60, 2.14539185166358947754e-01) (61, 2.34016820788383483887e-01) (62, 9.05196517705917358398e-02) (63, 8.74375700950622558594e-02) (64, 1.78016170859336853027e-01) (65, -8.09281766414642333984e-02) (66, 4.06361706554889678955e-02) (67, -2.84704379737377166748e-02) (68, 2.96587318181991577148e-01) (69, 9.85621958971023559570e-02) (70, 9.86894741654396057129e-02) (71, -8.84599462151527404785e-02) (72, -7.09051489830017089844e-02) (73, -2.34871745109558105469e-01) (74, 1.04845456779003143311e-01) (75, 3.61235171556472778320e-01) (76, 2.84087061882019042969e-01) (77, 1.64601147174835205078e-01) (78, 5.48339448869228363037e-02) (79, -7.80326724052429199219e-02) (80, -3.55830113403499126434e-03) (81, -2.42448803037405014038e-02) (82, 2.66027338802814483643e-02) (83, 3.00834953784942626953e-01) (84, 1.97631418704986572266e-01) (85, 1.74082264304161071777e-01) (86, -1.76164075732231140137e-01) (87, -1.21187418699264526367e-02) (88, 4.17187124490737915039e-01) (89, -1.70649111270904541016e-01) (90, 4.27396036684513092041e-02) (91, 1.34078785777091979980e-01) (92, -4.14363332092761993408e-02) (93, 7.55582675337791442871e-02) (94, -2.94650737196207046509e-02) (95, 4.92828749120235443115e-02) (96, 1.02513134479522705078e-01) (97, -4.06896620988845825195e-02) (98, -7.92963877320289611816e-02) (99, 3.97336296737194061279e-02) (100, -4.52807135879993438721e-02) (101, 1.50543138384819030762e-01) (102, -5.51396654918789863586e-03) (103, 3.41841764748096466064e-02) (104, 4.74450364708900451660e-02) (105, -6.12305365502834320068e-02) (106, 1.09938092529773712158e-01) (107, 1.06214046478271484375e-01) (108, 8.67254287004470825195e-02) (109, 9.58587080240249633789e-02) (110, 1.50822788476943969727e-01) (111, 5.40307797491550445557e-02) (112, -7.16752111911773681641e-02) (113, -2.98059694468975067139e-02) (114, 1.83270543813705444336e-01) (115, 1.23911648988723754883e-01) (116, 4.80895079672336578369e-02) (117, 8.93514826893806457520e-02) (118, 4.29980047047138214111e-02) (119, 1.44917860627174377441e-01) (120, 7.59656131267547607422e-02) (121, 3.04191317409276962280e-02) (122, 2.54993379116058349609e-01) (123, 4.07456010580062866211e-02) (124, 4.20759245753288269043e-03) (125, -1.73940137028694152832e-01) (126, 8.03447887301445007324e-03) (127, 1.36186808347702026367e-01) (128, 4.66064698994159698486e-02) (129, -1.17534726858139038086e-01) (130, 1.90800931304693222046e-02) (131, -8.56578648090362548828e-02) (132, 8.09834823012351989746e-02) (133, -7.52043053507804870605e-02) (134, -3.33655208349227905273e-01) (135, 9.51860025525093078613e-02) (136, 9.76039767265319824219e-02) (137, 2.05526202917098999023e-02) (138, 3.07411365211009979248e-02) (139, -5.27278007939457893372e-03) (140, -1.59205213189125061035e-01) (141, 1.92061513662338256836e-01) (142, 1.25193774700164794922e-01) (143, 3.30212488770484924316e-02) (144, -1.13596282899379730225e-02) (145, -4.12494800984859466553e-02) (146, 1.88598453998565673828e-01) (147, 7.44726583361625671387e-02) (148, 1.03105358779430389404e-01) (149, -1.83088053017854690552e-02) (150, 3.82655151188373565674e-02) (151, 2.09499010816216468811e-03) (152, -2.21427511423826217651e-02) (153, -7.64786526560783386230e-02) (154, 2.70440615713596343994e-02) (155, -9.78971738368272781372e-03) (156, 5.79143166542053222656e-02) (157, -6.16040267050266265869e-02) (158, -8.39593484997749328613e-02) (159, -9.85258296132087707520e-02) (160, -4.92698550224304199219e-02) (161, -5.21268919110298156738e-02) (162, -2.75561697781085968018e-02) (163, 1.05621390044689178467e-01) (164, 1.70252412557601928711e-01) (165, -2.81975746154785156250e-01) (166, -3.77451218664646148682e-02) (167, 1.99934497475624084473e-01) (168, 5.47500029206275939941e-02) (169, -8.72148107737302780151e-03) (170, 9.54717621207237243652e-02) (171, -7.33176246285438537598e-02) (172, 4.05900832265615463257e-03) (173, 1.29282653331756591797e-01) (174, -9.38820615410804748535e-02) (175, 4.19980734586715698242e-02) (176, -3.26879136264324188232e-02) (177, -8.59964564442634582520e-02) (178, 1.50827884674072265625e-01) (179, -5.97199685871601104736e-02) (180, 4.90816161036491394043e-02) (181, 3.74084934592247009277e-02) (182, 4.60488460958003997803e-02) (183, 2.37771756947040557861e-02) (184, -8.35624784231185913086e-02) (185, -3.69023650884628295898e-01) (186, 7.32529535889625549316e-02) (187, 1.58767223358154296875e-01) (188, 2.24044336937367916107e-03) (189, -5.81148862838745117188e-02) (190, 7.97107219696044921875e-02) (191, 1.01758077740669250488e-01) (192, -2.71044131368398666382e-02) (193, -3.54916863143444061279e-02) (194, -3.29600200057029724121e-02) (195, 5.35155050456523895264e-02) (196, 2.10205987095832824707e-01) (197, 1.12398497760295867920e-01) (198, 1.46501228213310241699e-01) (199, -1.03999122977256774902e-01) (200, 1.00363455712795257568e-01) (201, 5.46815395355224609375e-02) (202, 1.65548309683799743652e-01) (203, 1.51111900806427001953e-01) (204, 8.59557688236236572266e-02) (205, 7.85136967897415161133e-02) (206, 8.75298306345939636230e-03) (207, 2.14899871498346328735e-02) (208, 1.88712403178215026855e-01) (209, 2.70182937383651733398e-01) (210, 1.31554901599884033203e-01) (211, 2.43771269917488098145e-01) (212, 1.99540659785270690918e-01) (213, 1.44769549369812011719e-01) (214, -3.81242819130420684814e-02) (215, 3.26876267790794372559e-02) (216, 1.02573879063129425049e-01) (217, 2.02572774142026901245e-02) (218, 9.14035886526107788086e-02) (219, 1.73884406685829162598e-01) (220, 1.13973148167133331299e-01) (221, 1.82391941547393798828e-01) (222, -6.89263418316841125488e-02) (223, -5.17720468342304229736e-02) (224, -1.86552889645099639893e-02) (225, 9.43069979548454284668e-02) (226, 2.06981062889099121094e-01) (227, 1.81159973144531250000e-01) (228, 9.68816503882408142090e-02) (229, 1.12658053636550903320e-01) (230, -1.67998492717742919922e-01) (231, -1.00864671170711517334e-01) (232, -8.09488743543624877930e-02) (233, -1.84660460799932479858e-02) (234, -9.75409299135208129883e-02) (235, 3.49162034690380096436e-02) (236, -2.74544209241867065430e-02) (237, 9.17427837848663330078e-02) (238, -1.63469925522804260254e-01) (239, -6.24010339379310607910e-02) (240, -1.41156673431396484375e-01) (241, -7.23937079310417175293e-02) (242, -1.12205699086189270020e-01) (243, -1.43846888095140457153e-02) (244, 5.07737742736935615540e-03) (245, -6.46227151155471801758e-02) (246, -1.43681466579437255859e-01) (247, -5.67228533327579498291e-02) (248, -2.00514450669288635254e-01) (249, -1.07369594275951385498e-01) (250, -6.05434849858283996582e-02) (251, -1.90071329474449157715e-01) (252, -8.91075283288955688477e-02) (253, -1.43515318632125854492e-01) (254, -8.59909802675247192383e-02) (255, -1.38480052351951599121e-01) (256, -8.45932811498641967773e-02) (0, 6.47465765476226806641e-01) (1, 6.20699584484100341797e-01) (2, 7.29885458946228027344e-01) (3, 7.32456147670745849609e-01) (4, 6.79228723049163818359e-01) (5, 7.62484908103942871094e-01) (6, 6.16820156574249267578e-01) (7, 7.50194311141967773438e-01) (8, 8.05730402469635009766e-01) (9, 6.91633939743041992188e-01) (10, 7.04678118228912353516e-01) (11, 5.69359421730041503906e-01) (12, 6.05460345745086669922e-01) (13, 6.57138347625732421875e-01) (14, 6.97622954845428466797e-01) (15, 6.72472834587097167969e-01) (16, 6.67435467243194580078e-01) (17, 8.03345322608947753906e-01) (18, 7.20326662063598632813e-01) (19, 6.75007998943328857422e-01) (20, 7.62953579425811767578e-01) (21, 5.87394297122955322266e-01) (22, 6.44812881946563720703e-01) (23, 5.71642220020294189453e-01) (24, 4.82003748416900634766e-01) (25, 5.26600420475006103516e-01) (26, 4.69940930604934692383e-01) (27, 6.06028914451599121094e-01) (28, 5.88052392005920410156e-01) (29, 6.51357412338256835938e-01) (30, 5.71434557437896728516e-01) (31, 5.50964951515197753906e-01) (32, 4.91310447454452514648e-01) (33, 5.90373635292053222656e-01) (34, 5.44179201126098632813e-01) (35, 3.23248237371444702148e-01) (36, 5.19621670246124267578e-01) (37, 2.52982020378112792969e-01) (38, 3.56170922517776489258e-01) (39, 4.77916628122329711914e-01) (40, 6.71971380710601806641e-01) (41, 7.34704017639160156250e-01) (42, 1.06780326366424560547e+00) (43, 3.82958710193634033203e-01) (44, -9.38100926578044891357e-03) (45, 5.67513167858123779297e-01) (46, 1.12314915657043457031e+00) (47, 1.68367671966552734375e+00) (48, 6.46126866340637207031e-01) (49, 7.60549724102020263672e-01) (50, 3.98928433656692504883e-01) (51, 7.49051511287689208984e-01) (52, -1.00857210159301757813e+00) (53, 1.08220905065536499023e-01) (54, 1.25137162208557128906e+00) (55, 1.15538215637207031250e+00) (56, 5.15577256679534912109e-01) (57, 5.27950167655944824219e-01) (58, 4.84478741884231567383e-01) (59, 4.61937397718429565430e-01) (60, 3.99349302053451538086e-01) (61, 2.61207461357116699219e-01) (62, 3.57209056615829467773e-01) (63, 7.09131121635437011719e-01) (64, 4.44514900445938110352e-01) (65, 7.17752575874328613281e-01) (66, 5.57991385459899902344e-01) (67, 3.88965815305709838867e-01) (68, 1.99346497654914855957e-01) (69, 1.03543967008590698242e-01) (70, 6.72290503978729248047e-01) (71, 5.89469432830810546875e+00) (72, 4.85216706991195678711e-01) (73, 5.59535682201385498047e-01) (74, 5.93666613101959228516e-01) (75, 3.06601583957672119141e-01) (76, 5.85991740226745605469e-01) (77, 1.83075919747352600098e-01) (78, 2.80392318964004516602e-01) (79, 1.60688245296478271484e+00) (80, 5.90163052082061767578e-01) (81, 7.43528425693511962891e-01) (82, 4.78389710187911987305e-01) (83, 1.05471894145011901855e-01) (84, 3.06732982397079467773e-01) (85, 3.83914172649383544922e-01) (86, 4.16377931833267211914e-01) (87, 2.52714061737060546875e+00) (88, 6.82546734809875488281e-01) (89, 7.90392041206359863281e-01) (90, 6.16452217102050781250e-01) (91, 3.97382944822311401367e-01) (92, 6.88732087612152099609e-01) (93, 6.52566313743591308594e-01) (94, 5.61205327510833740234e-01) (95, 4.23779755830764770508e-01) (96, 6.14452958106994628906e-01) (97, 8.84485840797424316406e-01) (98, 6.10840499401092529297e-01) (99, 4.96687918901443481445e-01) (100, 4.84493017196655273438e-01) (101, 4.03371512889862060547e-01) (102, 7.91784644126892089844e-01) (103, 6.41737937927246093750e-01) (104, 4.25992429256439208984e-01) (105, 7.10950613021850585938e-01) (106, 6.13933145999908447266e-01) (107, 3.30329447984695434570e-01) (108, 1.84850409626960754395e-01) (109, 5.22004425525665283203e-01) (110, 6.98450207710266113281e-01) (111, 3.61315488815307617188e-01) (112, 7.43640542030334472656e-01) (113, 7.21922457218170166016e-01) (114, 4.44598793983459472656e-01) (115, 2.87603944540023803711e-01) (116, 3.35772454738616943359e-01) (117, 4.78409320116043090820e-01) (118, 8.20373237133026123047e-01) (119, 1.12856113910675048828e+00) (120, 5.49404263496398925781e-01) (121, 6.50932610034942626953e-01) (122, 3.75965207815170288086e-01) (123, 6.52523815631866455078e-01) (124, 5.21939754486083984375e-01) (125, 5.03583669662475585938e-01) (126, 8.36418688297271728516e-01) (127, 9.73172783851623535156e-01) (128, 5.53697347640991210938e-01) (129, 7.67245352268218994141e-01) (130, 1.40192627906799316406e+00) (131, 6.88693404197692871094e-01) (132, 7.80302464962005615234e-01) (133, 6.95737242698669433594e-01) (134, 1.78458428382873535156e+00) (135, 3.35493087768554687500e-01) (136, 6.02425575256347656250e-01) (137, 7.76448905467987060547e-01) (138, 8.06233346462249755859e-01) (139, 8.12593281269073486328e-01) (140, 8.46178591251373291016e-01) (141, 2.95403271913528442383e-01) (142, 5.55176973342895507813e-01) (143, 1.17941904067993164063e+00) (144, 7.11083710193634033203e-01) (145, 6.06582105159759521484e-01) (146, 7.57390618324279785156e-01) (147, 1.24273681640625000000e+00) (148, 7.10370182991027832031e-01) (149, 8.16648066043853759766e-01) (150, 8.25998902320861816406e-01) (151, 7.14429736137390136719e-01) (152, 6.17306590080261230469e-01) (153, 7.88775384426116943359e-01) (154, 6.39761567115783691406e-01) (155, 1.35139679908752441406e+00) (156, 5.20995140075683593750e-01) (157, 6.53348803520202636719e-01) (158, 7.15138256549835205078e-01) (159, 6.76165401935577392578e-01) (160, 6.64786040782928466797e-01) (161, 7.60121703147888183594e-01) (162, 5.87981164455413818359e-01) (163, 3.26221019029617309570e-01) (164, 5.64419686794281005859e-01) (165, 7.15088307857513427734e-01) (166, 7.69592940807342529297e-01) (167, 1.04963624477386474609e+00) (168, 4.69656407833099365234e-01) (169, 5.78459084033966064453e-01) (170, 4.22072887420654296875e-01) (171, 4.42741066217422485352e-01) (172, 3.33437740802764892578e-01) (173, 2.49018952250480651855e-01) (174, 4.03135031461715698242e-01) (175, 5.84020733833312988281e-01) (176, 6.77522957324981689453e-01) (177, 4.97244417667388916016e-01) (178, 3.67773532867431640625e-01) (179, 3.64712059497833251953e-01) (180, 3.72437953948974609375e-01) (181, 5.97170531749725341797e-01) (182, 4.81064558029174804688e-01) (183, 1.07260251045227050781e+00) (184, 5.54712653160095214844e-01) (185, 5.71460902690887451172e-01) (186, 3.71390581130981445313e-01) (187, 2.68346667289733886719e-01) (188, 3.92082840204238891602e-01) (189, 4.10226553678512573242e-01) (190, 4.55775469541549682617e-01) (191, 6.19029283523559570313e-01) (192, 5.59856295585632324219e-01) (193, 6.88540875911712646484e-01) (194, 4.38912451267242431641e-01) (195, 4.90532875061035156250e-01) (196, 5.66284775733947753906e-01) (197, 2.70385652780532836914e-01) (198, 4.80408042669296264648e-01) (199, 7.25900769233703613281e-01) (200, 1.00042951107025146484e+00) (201, 1.06831967830657958984e+00) (202, 6.96160852909088134766e-01) (203, 2.62863993644714355469e-01) (204, 4.33946549892425537109e-01) (205, 8.71131420135498046875e-01) (206, 4.18422222137451171875e-01) (207, 5.31521201133728027344e-01) (208, 4.98594552278518676758e-01) (209, 3.19085925817489624023e-01) (210, 4.19973134994506835938e-01) (211, 2.04311221837997436523e-01) (212, 3.74555110931396484375e-01) (213, 7.78247356414794921875e-01) (214, 1.31775474548339843750e+00) (215, 1.28603386878967285156e+00) (216, 3.50342899560928344727e-01) (217, 3.19634497165679931641e-01) (218, 3.29510658979415893555e-01) (219, 3.59798729419708251953e-01) (220, 2.86018788814544677734e-01) (221, 4.84197556972503662109e-01) (222, 6.20732963085174560547e-01) (223, 6.18597149848937988281e-01) (224, 6.10619068145751953125e-01) (225, 6.49064540863037109375e-01) (226, 3.74942958354949951172e-01) (227, 3.81253123283386230469e-01) (228, 9.03996467590332031250e-01) (229, 7.21008181571960449219e-01) (230, 6.65716469287872314453e-01) (231, 7.78146207332611083984e-01) (232, 7.18755304813385009766e-01) (233, 7.72113025188446044922e-01) (234, 6.29451751708984375000e-01) (235, 6.78049385547637939453e-01) (236, 8.94267201423645019531e-01) (237, 5.57590842247009277344e-01) (238, 7.70508050918579101563e-01) (239, 6.67159557342529296875e-01) (240, 7.45796561241149902344e-01) (241, 7.38967776298522949219e-01) (242, 7.83493518829345703125e-01) (243, 6.70452356338500976563e-01) (244, 5.95897436141967773438e-01) (245, 5.91336727142333984375e-01) (246, 6.74670755863189697266e-01) (247, 7.33037531375885009766e-01) (248, 8.17850351333618164063e-01) (249, 7.66202390193939208984e-01) (250, 6.53157293796539306641e-01) (251, 8.22774171829223632813e-01) (252, 7.75120913982391357422e-01) (253, 7.41374969482421875000e-01) (254, 8.05988490581512451172e-01) (255, 8.22883009910583496094e-01) (256, 7.75953054428100585938e-01) (0, 6.20006680488586425781e-01) (1, 6.88516020774841308594e-01) (2, 6.17825090885162353516e-01) (3, 6.25200986862182617188e-01) (4, 5.83972573280334472656e-01) (5, 6.04047834873199462891e-01) (6, 5.51896750926971435547e-01) (7, 6.56030416488647460938e-01) (8, 6.59742534160614013672e-01) (9, 6.70682609081268310547e-01) (10, 5.69378614425659179688e-01) (11, 6.14298343658447265625e-01) (12, 5.48281133174896240234e-01) (13, 5.06791293621063232422e-01) (14, 6.59178256988525390625e-01) (15, 6.60416245460510253906e-01) (16, 5.53582608699798583984e-01) (17, 5.98032653331756591797e-01) (18, 6.64889872074127197266e-01) (19, 6.31576836109161376953e-01) (20, 5.70681989192962646484e-01) (21, 6.38662815093994140625e-01) (22, 4.78046566247940063477e-01) (23, 5.68005800247192382813e-01) (24, 5.39928376674652099609e-01) (25, 5.59467256069183349609e-01) (26, 4.64344471693038940430e-01) (27, 1.16413223743438720703e+00) (28, 1.06185424327850341797e+00) (29, 1.02303540706634521484e+00) (30, 4.98131275177001953125e-01) (31, 6.09274268150329589844e-01) (32, 4.96342480182647705078e-01) (33, 4.87741649150848388672e-01) (34, 4.98880565166473388672e-01) (35, 5.63863635063171386719e-01) (36, 4.64927375316619873047e-01) (37, 5.42749106884002685547e-01) (38, 6.23956263065338134766e-01) (39, 4.86707031726837158203e-01) (40, 4.96919959783554077148e-01) (41, 7.58844733238220214844e-01) (42, 9.11859929561614990234e-01) (43, 5.17209649085998535156e-01) (44, 4.70900118350982666016e-01) (45, 1.23977124691009521484e+00) (46, 1.35723412036895751953e+00) (47, 1.28759062290191650391e+00) (48, 7.76770651340484619141e-01) (49, 9.59977626800537109375e-01) (50, 7.70973026752471923828e-01) (51, 6.56762778759002685547e-01) (52, -7.68520414829254150391e-01) (53, 4.51148331165313720703e-01) (54, 1.58119595050811767578e+00) (55, 1.22738504409790039063e+00) (56, 6.64633393287658691406e-01) (57, 9.29085552692413330078e-01) (58, 9.23081696033477783203e-01) (59, 6.21491730213165283203e-01) (60, 6.84034466743469238281e-01) (61, 4.29191827774047851563e-01) (62, 6.87225937843322753906e-01) (63, 7.77785480022430419922e-01) (64, 6.12170755863189697266e-01) (65, 8.32382261753082275391e-01) (66, 1.05875968933105468750e+00) (67, 7.43869364261627197266e-01) (68, 3.72040688991546630859e-01) (69, 4.44605618715286254883e-01) (70, 6.67533278465270996094e-01) (71, 1.59484100341796875000e+00) (72, 5.96822381019592285156e-01) (73, 8.13664376735687255859e-01) (74, 1.30495405197143554688e+00) (75, 4.57526981830596923828e-01) (76, 5.18432855606079101563e-01) (77, 5.51634073257446289063e-01) (78, 5.35823404788970947266e-01) (79, 7.68481433391571044922e-01) (80, 3.92799079418182373047e-01) (81, 5.95548033714294433594e-01) (82, 1.33335030078887939453e+00) (83, 6.38632297515869140625e-01) (84, 4.73587036132812500000e-01) (85, 3.84389311075210571289e-01) (86, 5.35292267799377441406e-01) (87, 5.20004689693450927734e-01) (88, 4.82448279857635498047e-01) (89, 6.05055451393127441406e-01) (90, 1.18691861629486083984e+00) (91, 8.36742222309112548828e-01) (92, 8.14778864383697509766e-01) (93, 7.50221610069274902344e-01) (94, 6.19810342788696289063e-01) (95, 5.12979030609130859375e-01) (96, 5.63752472400665283203e-01) (97, 8.49503397941589355469e-01) (98, 1.24760949611663818359e+00) (99, 4.76366072893142700195e-01) (100, 5.62491476535797119141e-01) (101, 4.48785752058029174805e-01) (102, 5.27847409248352050781e-01) (103, 6.58609211444854736328e-01) (104, 5.13093113899230957031e-01) (105, 7.58386969566345214844e-01) (106, 9.62248563766479492188e-01) (107, 4.46755945682525634766e-01) (108, 2.57102489471435546875e-01) (109, 7.46566772460937500000e-01) (110, 3.78170788288116455078e-01) (111, 3.46189230680465698242e-01) (112, 5.36481738090515136719e-01) (113, 6.96497976779937744141e-01) (114, 6.12469136714935302734e-01) (115, 6.15249097347259521484e-01) (116, 6.41600966453552246094e-01) (117, 5.74496567249298095703e-01) (118, 4.26772296428680419922e-01) (119, 3.54911923408508300781e-01) (120, 5.06013095378875732422e-01) (121, 6.68726146221160888672e-01) (122, 7.82019615173339843750e-01) (123, 7.49067306518554687500e-01) (124, 6.55569970607757568359e-01) (125, 6.18668437004089355469e-01) (126, 5.76182007789611816406e-01) (127, 4.44155812263488769531e-01) (128, 7.68290519714355468750e-01) (129, 7.05932915210723876953e-01) (130, 3.76067781448364257813e+00) (131, 5.49020826816558837891e-01) (132, 1.18336808681488037109e+00) (133, 1.10284280776977539063e+00) (134, 6.81738853454589843750e-01) (135, 4.72381055355072021484e-01) (136, 7.56835103034973144531e-01) (137, 9.44189369678497314453e-01) (138, 1.52933943271636962891e+00) (139, 1.56438672542572021484e+00) (140, 8.27153861522674560547e-01) (141, 6.37131869792938232422e-01) (142, 5.37165641784667968750e-01) (143, 4.10312175750732421875e-01) (144, 5.53567051887512207031e-01) (145, 9.30446922779083251953e-01) (146, 1.24950766563415527344e+00) (147, 2.03052473068237304688e+00) (148, 6.26830279827117919922e-01) (149, 1.27726984024047851563e+00) (150, 5.44003844261169433594e-01) (151, 4.36667025089263916016e-01) (152, 6.36910974979400634766e-01) (153, 9.86598312854766845703e-01) (154, 1.19714534282684326172e+00) (155, 1.23493266105651855469e+00) (156, 7.92212069034576416016e-01) (157, 9.56627011299133300781e-01) (158, 4.53333795070648193359e-01) (159, 6.36580348014831542969e-01) (160, 6.62012875080108642578e-01) (161, 5.78029632568359375000e-01) (162, 8.63679051399230957031e-01) (163, 3.54462176561355590820e-01) (164, 5.02778470516204833984e-01) (165, 6.44463360309600830078e-01) (166, 6.05907499790191650391e-01) (167, 3.08760136365890502930e-01) (168, 4.48425740003585815430e-01) (169, 3.95438313484191894531e-01) (170, 5.91445446014404296875e-01) (171, 7.28596031665802001953e-01) (172, 6.22616171836853027344e-01) (173, 5.56425929069519042969e-01) (174, 4.25121515989303588867e-01) (175, 3.73938411474227905273e-01) (176, 4.65374171733856201172e-01) (177, 4.43151742219924926758e-01) (178, 7.54881143569946289063e-01) (179, 6.80784940719604492188e-01) (180, 4.59769845008850097656e-01) (181, 1.09210336208343505859e+00) (182, 5.34007251262664794922e-01) (183, 5.47940313816070556641e-01) (184, 4.37173992395401000977e-01) (185, 6.53228282928466796875e-01) (186, 6.54383897781372070313e-01) (187, 6.77485227584838867188e-01) (188, 3.13881188631057739258e-01) (189, 5.18027961254119873047e-01) (190, 5.15786349773406982422e-01) (191, 4.59104657173156738281e-01) (192, 4.28948611021041870117e-01) (193, 6.95215880870819091797e-01) (194, 7.38412559032440185547e-01) (195, 7.06238627433776855469e-01) (196, 6.72286689281463623047e-01) (197, 7.27661252021789550781e-01) (198, 5.35224199295043945313e-01) (199, 4.90767657756805419922e-01) (200, 9.42125558853149414063e-01) (201, 8.67498636245727539063e-01) (202, 8.09478878974914550781e-01) (203, 5.28837502002716064453e-01) (204, 6.66819810867309570313e-01) (205, 7.02372252941131591797e-01) (206, 7.43276655673980712891e-01) (207, 1.01693582534790039063e+00) (208, 7.84822404384613037109e-01) (209, 6.31540775299072265625e-01) (210, 7.54876911640167236328e-01) (211, 3.88360887765884399414e-01) (212, 6.37240946292877197266e-01) (213, 6.73038840293884277344e-01) (214, 1.39803469181060791016e+00) (215, 7.50518023967742919922e-01) (216, 6.21669828891754150391e-01) (217, 6.75653278827667236328e-01) (218, 7.56965041160583496094e-01) (219, 5.39801657199859619141e-01) (220, 7.55246281623840332031e-01) (221, 5.33560752868652343750e-01) (222, 5.87587237358093261719e-01) (223, 6.86173796653747558594e-01) (224, 6.75740599632263183594e-01) (225, 6.91347002983093261719e-01) (226, 7.43783891201019287109e-01) (227, 7.68329381942749023438e-01) (228, 6.56079649925231933594e-01) (229, 4.93256390094757080078e-01) (230, 5.99749147891998291016e-01) (231, 5.37655055522918701172e-01) (232, 7.01364696025848388672e-01) (233, 6.04185461997985839844e-01) (234, 5.37514686584472656250e-01) (235, 6.48973166942596435547e-01) (236, 5.87878406047821044922e-01) (237, 4.95323568582534790039e-01) (238, 5.77317595481872558594e-01) (239, 6.16884350776672363281e-01) (240, 5.62751471996307373047e-01) (241, 7.07893908023834228516e-01) (242, 6.40161573886871337891e-01) (243, 6.49151742458343505859e-01) (244, 5.12498259544372558594e-01) (245, 5.58513402938842773438e-01) (246, 6.58687353134155273438e-01) (247, 6.51686847209930419922e-01) (248, 6.52603924274444580078e-01) (249, 5.55008828639984130859e-01) (250, 5.87524652481079101563e-01) (251, 6.13299906253814697266e-01) (252, 5.76454818248748779297e-01) (253, 6.46242141723632812500e-01) (254, 6.65786743164062500000e-01) (255, 5.21950542926788330078e-01) (256, 6.40444934368133544922e-01) (0, -2.89364933967590332031e-01) (1, -1.72284878790378570557e-02) (2, 3.94914560019969940186e-02) (3, 1.08181454241275787354e-01) (4, 2.57782805711030960083e-02) (5, -3.77894490957260131836e-02) (6, -1.42296552658081054688e-01) (7, -2.70759254693984985352e-01) (8, -1.61512002348899841309e-01) (9, -2.76784170418977737427e-02) (10, 1.67984049767255783081e-02) (11, -4.93440777063369750977e-02) (12, -1.23933572322130203247e-02) (13, -1.25142633914947509766e-01) (14, 2.64158751815557479858e-02) (15, -3.93988043069839477539e-02) (16, -1.39386549592018127441e-01) (17, -2.22505584359169006348e-01) (18, -1.21595457196235656738e-01) (19, -1.84528142213821411133e-01) (20, -1.98572337627410888672e-01) (21, -2.07651048898696899414e-01) (22, 2.87371948361396789551e-02) (23, -9.98538546264171600342e-03) (24, -9.74835157394409179688e-02) (25, 7.67416879534721374512e-02) (26, 1.08988218009471893311e-01) (27, -3.64397577941417694092e-02) (28, 4.92399781942367553711e-02) (29, 1.02401211857795715332e-01) (30, -7.59638845920562744141e-02) (31, -8.29091593623161315918e-02) (32, -2.30007797479629516602e-01) (33, 1.18348531424999237061e-01) (34, 4.32166494429111480713e-02) (35, 6.03844150900840759277e-02) (36, 1.07916675508022308350e-01) (37, 1.74112513661384582520e-01) (38, 8.37477222084999084473e-02) (39, -4.49757687747478485107e-02) (40, -3.01774233579635620117e-01) (41, -1.76705434918403625488e-01) (42, -1.16464227437973022461e-01) (43, 4.44495305418968200684e-02) (44, 1.46251618862152099609e-01) (45, 1.55073136091232299805e-01) (46, 9.37303751707077026367e-02) (47, -2.94362455606460571289e-01) (48, -2.89026916027069091797e-01) (49, -3.28670650720596313477e-01) (50, -3.06564588099718093872e-02) (51, 5.41780237108469009399e-03) (52, 2.05727010965347290039e-01) (53, 1.44336342811584472656e-01) (54, -7.94745013117790222168e-02) (55, -1.10115811228752136230e-01) (56, -2.18016654253005981445e-01) (57, -1.15194477140903472900e-01) (58, -1.20771311223506927490e-01) (59, 7.00257867574691772461e-02) (60, 6.02229721844196319580e-02) (61, 1.13644570112228393555e-01) (62, 1.51467442512512207031e-01) (63, -1.52772739529609680176e-01) (64, -1.23785495758056640625e-01) (65, -3.14600914716720581055e-01) (66, 1.53204098343849182129e-01) (67, 8.79893824458122253418e-02) (68, 1.40023037791252136230e-01) (69, 2.01743826270103454590e-01) (70, -7.59126693010330200195e-02) (71, -1.16761386394500732422e-01) (72, -2.68186986446380615234e-01) (73, -1.90354138612747192383e-01) (74, 6.24674446880817413330e-02) (75, 1.98520258069038391113e-01) (76, 1.06850400567054748535e-01) (77, 2.58407354354858398438e-01) (78, -6.40645474195480346680e-02) (79, -2.25017115473747253418e-01) (80, -1.14574683830142021179e-02) (81, -4.21150885522365570068e-02) (82, 1.49957880377769470215e-01) (83, 7.75052547454833984375e-01) (84, 6.35629534721374511719e-01) (85, 2.43190824985504150391e-01) (86, -7.46157169342041015625e-01) (87, 1.76704138517379760742e-01) (88, 2.10635364055633544922e-01) (89, -1.65769830346107482910e-01) (90, 1.09423458576202392578e-01) (91, 3.76524180173873901367e-01) (92, 3.49734604358673095703e-01) (93, 3.70833203196525573730e-02) (94, -4.19327467679977416992e-01) (95, -1.29059255123138427734e-01) (96, 1.14440713077783584595e-02) (97, -2.59530156850814819336e-01) (98, 1.33677814155817031860e-02) (99, 3.67946237325668334961e-01) (100, 3.95010352134704589844e-01) (101, 2.89646416902542114258e-01) (102, 7.72701740264892578125e-01) (103, 2.69571542739868164063e-01) (104, -8.30970928072929382324e-02) (105, -1.06384307146072387695e-02) (106, 8.66176187992095947266e-02) (107, 1.12134307622909545898e-01) (108, 7.31010660529136657715e-02) (109, 6.65497258305549621582e-02) (110, 1.22601771354675292969e+00) (111, 2.91917830705642700195e-01) (112, -6.70387446880340576172e-01) (113, -4.50012505054473876953e-01) (114, 5.68658858537673950195e-03) (115, 1.40851527452468872070e-01) (116, -4.65709343552589416504e-02) (117, 4.87807579338550567627e-02) (118, -1.11201071739196777344e+00) (119, 2.90478140115737915039e-01) (120, -2.70427018404006958008e-01) (121, -2.09057420492172241211e-01) (122, 1.55646681785583496094e-01) (123, 7.92034566402435302734e-02) (124, -3.14609080553054809570e-01) (125, -3.11460196971893310547e-01) (126, -1.90100237727165222168e-01) (127, 1.18359243869781494141e+00) (128, -1.37352228164672851563e-01) (129, -3.06266009807586669922e-01) (130, 3.48028056323528289795e-02) (131, 3.78261208534240722656e-01) (132, -5.79110346734523773193e-02) (133, -7.46313184499740600586e-02) (134, -2.15926319360733032227e-01) (135, 4.23106044530868530273e-01) (136, -1.63011685013771057129e-01) (137, -4.82389517128467559814e-02) (138, -1.18094332516193389893e-01) (139, 3.90566766262054443359e-01) (140, 2.98307329416275024414e-01) (141, 4.84021529555320739746e-02) (142, 2.09315553307533264160e-01) (143, 9.15346518158912658691e-02) (144, -2.05469653010368347168e-02) (145, -7.17546641826629638672e-02) (146, -6.35206624865531921387e-02) (147, 7.68933668732643127441e-02) (148, 2.63116925954818725586e-01) (149, -1.66674509644508361816e-01) (150, -3.90746027231216430664e-01) (151, 5.39234638214111328125e-01) (152, -7.73674026131629943848e-02) (153, -2.73458629846572875977e-01) (154, 1.62439215928316116333e-02) (155, 5.25283932685852050781e-01) (156, 1.93688482046127319336e-01) (157, 1.97661995887756347656e-01) (158, -3.44692498445510864258e-01) (159, 2.01336905360221862793e-01) (160, -8.78432244062423706055e-02) (161, -1.30001351237297058105e-01) (162, -1.73382386565208435059e-01) (163, 4.34190899133682250977e-01) (164, 4.25915718078613281250e-01) (165, -4.79479804635047912598e-02) (166, -1.88591986894607543945e-01) (167, 2.92121231555938720703e-01) (168, -1.36279553174972534180e-01) (169, -1.17098756134510040283e-01) (170, 6.86319172382354736328e-02) (171, 4.42489296197891235352e-01) (172, 2.52791136503219604492e-01) (173, 1.97855234146118164063e-01) (174, 6.13103151321411132813e-01) (175, 1.08372473716735839844e+00) (176, -9.57242548465728759766e-02) (177, -1.91129162907600402832e-01) (178, -2.55865994840860366821e-02) (179, 4.20905739068984985352e-01) (180, 5.21115899085998535156e-01) (181, -1.46901933476328849792e-02) (182, -9.58302766084671020508e-02) (183, 1.04171693325042724609e-01) (184, -1.68444946408271789551e-01) (185, -7.35092103481292724609e-01) (186, -3.37669283151626586914e-01) (187, 9.02369022369384765625e-02) (188, 4.82485562562942504883e-01) (189, -3.32550592720508575439e-02) (190, -2.69094388931989669800e-02) (191, 3.15058827400207519531e-01) (192, -3.00585448741912841797e-01) (193, -2.46686890721321105957e-01) (194, -3.54364514350891113281e-02) (195, -5.54929934442043304443e-02) (196, 6.96572661399841308594e-02) (197, 3.72100025415420532227e-02) (198, -2.13123202323913574219e-01) (199, 2.00264947488903999329e-03) (200, 1.09191901981830596924e-01) (201, 1.14315869286656379700e-02) (202, -5.01534789800643920898e-02) (203, -6.39002304524183273315e-03) (204, 8.69186446070671081543e-02) (205, 1.36406615376472473145e-01) (206, 6.99633210897445678711e-02) (207, 3.30089703202247619629e-02) (208, 1.53370097279548645020e-01) (209, 1.63642078638076782227e-01) (210, 5.99858798086643218994e-02) (211, 6.65635988116264343262e-02) (212, 1.32318153977394104004e-01) (213, 3.15931923687458038330e-02) (214, 6.66403323411941528320e-02) (215, 2.00029730796813964844e-01) (216, 2.70365215837955474854e-02) (217, 1.54704600572586059570e-01) (218, 8.36425200104713439941e-02) (219, 3.76238226890563964844e-02) (220, 8.42717662453651428223e-02) (221, 1.32699729874730110168e-02) (222, 1.74334481358528137207e-01) (223, 1.06715627014636993408e-01) (224, -8.58799740672111511230e-02) (225, 1.33840367197990417480e-01) (226, 8.82783681154251098633e-02) (227, 1.40349641442298889160e-01) (228, 3.79621312022209167480e-02) (229, 1.35218277573585510254e-01) (230, -8.79571139812469482422e-02) (231, -4.04938787221908569336e-01) (232, -2.08356469869613647461e-01) (233, -2.06444272771477699280e-03) (234, 1.21574923396110534668e-01) (235, 5.44507615268230438232e-02) (236, 6.96892291307449340820e-02) (237, -1.32224410772323608398e-02) (238, -1.71953752636909484863e-01) (239, -1.20725460350513458252e-01) (240, 1.30041390657424926758e-01) (241, -5.80166019499301910400e-02) (242, -9.88278016448020935059e-02) (243, 6.75721392035484313965e-02) (244, 