FANN_FLO_2.1
num_layers=4
learning_rate=0.700000
connection_rate=1.000000
network_type=0
learning_momentum=0.000000
training_algorithm=2
train_error_function=1
train_stop_function=0
cascade_output_change_fraction=0.010000
quickprop_decay=-0.000100
quickprop_mu=1.750000
rprop_increase_factor=1.200000
rprop_decrease_factor=0.500000
rprop_delta_min=0.000000
rprop_delta_max=50.000000
rprop_delta_zero=0.100000
cascade_output_stagnation_epochs=12
cascade_candidate_change_fraction=0.010000
cascade_candidate_stagnation_epochs=12
cascade_max_out_epochs=150
cascade_min_out_epochs=50
cascade_max_cand_epochs=150
cascade_min_cand_epochs=50
cascade_num_candidate_groups=2
bit_fail_limit=3.49999994039535522461e-01
cascade_candidate_limit=1.00000000000000000000e+03
cascade_weight_multiplier=4.00000005960464477539e-01
cascade_activation_functions_count=10
cascade_activation_functions=3 5 7 8 10 11 14 15 16 17 
cascade_activation_steepnesses_count=4
cascade_activation_steepnesses=2.50000000000000000000e-01 5.00000000000000000000e-01 7.50000000000000000000e-01 1.00000000000000000000e+00 
layer_sizes=257 41 41 2 
scale_included=0
neurons (num_inputs, activation_function, activation_steepness)=(0, 0, 0.00000000000000000000e+00) (0, 0, 0.00000000000000000000e+00) (0, 0, 0.00000000000000000000e+00) (0, 0, 0.00000000000000000000e+00) (0, 0, 0.00000000000000000000e+00) (0, 0, 0.00000000000000000000e+00) (0, 0, 0.00000000000000000000e+00) (0, 0, 0.00000000000000000000e+00) (0, 0, 0.00000000000000000000e+00) (0, 0, 0.00000000000000000000e+00) (0, 0, 0.00000000000000000000e+00) (0, 0, 0.00000000000000000000e+00) (0, 0, 0.00000000000000000000e+00) (0, 0, 0.00000000000000000000e+00) (0, 0, 0.00000000000000000000e+00) (0, 0, 0.00000000000000000000e+00) (0, 0, 0.00000000000000000000e+00) (0, 0, 0.00000000000000000000e+00) (0, 0, 0.00000000000000000000e+00) (0, 0, 0.00000000000000000000e+00) (0, 0, 0.00000000000000000000e+00) (0, 0, 0.00000000000000000000e+00) (0, 0, 0.00000000000000000000e+00) (0, 0, 0.00000000000000000000e+00) (0, 0, 0.00000000000000000000e+00) (0, 0, 0.00000000000000000000e+00) (0, 0, 0.00000000000000000000e+00) (0, 0, 0.00000000000000000000e+00) (0, 0, 0.00000000000000000000e+00) (0, 0, 0.00000000000000000000e+00) (0, 0, 0.00000000000000000000e+00) (0, 0, 0.00000000000000000000e+00) (0, 0, 0.00000000000000000000e+00) (0, 0, 0.00000000000000000000e+00) (0, 0, 0.00000000000000000000e+00) (0, 0, 0.00000000000000000000e+00) (0, 0, 0.00000000000000000000e+00) (0, 0, 0.00000000000000000000e+00) (0, 0, 0.00000000000000000000e+00) (0, 0, 0.00000000000000000000e+00) (0, 0, 0.00000000000000000000e+00) (0, 0, 0.00000000000000000000e+00) (0, 0, 0.00000000000000000000e+00) (0, 0, 0.00000000000000000000e+00) (0, 0, 0.00000000000000000000e+00) (0, 0, 0.00000000000000000000e+00) (0, 0, 0.00000000000000000000e+00) (0, 0, 0.00000000000000000000e+00) (0, 0, 0.00000000000000000000e+00) (0, 0, 0.00000000000000000000e+00) (0, 0, 0.00000000000000000000e+00) (0, 0, 0.00000000000000000000e+00) (0, 0, 0.00000000000000000000e+00) (0, 0, 0.00000000000000000000e+00) (0, 0, 0.00000000000000000000e+00) (0, 0, 0.00000000000000000000e+00) (0, 0, 0.00000000000000000000e+00) (0, 0, 0.00000000000000000000e+00) (0, 0, 0.00000000000000000000e+00) (0, 0, 0.00000000000000000000e+00) (0, 0, 0.00000000000000000000e+00) (0, 0, 0.00000000000000000000e+00) (0, 0, 0.00000000000000000000e+00) (0, 0, 0.00000000000000000000e+00) (0, 0, 0.00000000000000000000e+00) (0, 0, 0.00000000000000000000e+00) (0, 0, 0.00000000000000000000e+00) (0, 0, 0.00000000000000000000e+00) (0, 0, 0.00000000000000000000e+00) (0, 0, 0.00000000000000000000e+00) (0, 0, 0.00000000000000000000e+00) (0, 0, 0.00000000000000000000e+00) (0, 0, 0.00000000000000000000e+00) (0, 0, 0.00000000000000000000e+00) (0, 0, 0.00000000000000000000e+00) (0, 0, 0.00000000000000000000e+00) (0, 0, 0.00000000000000000000e+00) (0, 0, 0.00000000000000000000e+00) (0, 0, 0.00000000000000000000e+00) (0, 0, 0.00000000000000000000e+00) (0, 0, 0.00000000000000000000e+00) (0, 0, 0.00000000000000000000e+00) (0, 0, 0.00000000000000000000e+00) (0, 0, 0.00000000000000000000e+00) (0, 0, 0.00000000000000000000e+00) (0, 0, 0.00000000000000000000e+00) (0, 0, 0.00000000000000000000e+00) (0, 0, 0.00000000000000000000e+00) (0, 0, 0.00000000000000000000e+00) (0, 0, 0.00000000000000000000e+00) (0, 0, 0.00000000000000000000e+00) (0, 0, 0.00000000000000000000e+00) (0, 0, 0.00000000000000000000e+00) (0, 0, 0.00000000000000000000e+00) (0, 0, 0.00000000000000000000e+00) (0, 0, 0.00000000000000000000e+00) (0, 0, 0.00000000000000000000e+00) (0, 0, 0.00000000000000000000e+00) (0, 0, 0.00000000000000000000e+00) (0, 0, 0.00000000000000000000e+00) (0, 0, 0.00000000000000000000e+00) (0, 0, 0.00000000000000000000e+00) (0, 0, 0.00000000000000000000e+00) (0, 0, 0.00000000000000000000e+00) (0, 0, 0.00000000000000000000e+00) (0, 0, 0.00000000000000000000e+00) (0, 0, 0.00000000000000000000e+00) (0, 0, 0.00000000000000000000e+00) (0, 0, 0.00000000000000000000e+00) (0, 0, 0.00000000000000000000e+00) (0, 0, 0.00000000000000000000e+00) (0, 0, 0.00000000000000000000e+00) (0, 0, 0.00000000000000000000e+00) (0, 0, 0.00000000000000000000e+00) (0, 0, 0.00000000000000000000e+00) (0, 0, 0.00000000000000000000e+00) (0, 0, 0.00000000000000000000e+00) (0, 0, 0.00000000000000000000e+00) (0, 0, 0.00000000000000000000e+00) (0, 0, 0.00000000000000000000e+00) (0, 0, 0.00000000000000000000e+00) (0, 0, 0.00000000000000000000e+00) (0, 0, 0.00000000000000000000e+00) (0, 0, 0.00000000000000000000e+00) (0, 0, 0.00000000000000000000e+00) (0, 0, 0.00000000000000000000e+00) (0, 0, 0.00000000000000000000e+00) (0, 0, 0.00000000000000000000e+00) (0, 0, 0.00000000000000000000e+00) (0, 0, 0.00000000000000000000e+00) (0, 0, 0.00000000000000000000e+00) (0, 0, 0.00000000000000000000e+00) (0, 0, 0.00000000000000000000e+00) (0, 0, 0.00000000000000000000e+00) (0, 0, 0.00000000000000000000e+00) (0, 0, 0.00000000000000000000e+00) (0, 0, 0.00000000000000000000e+00) (0, 0, 0.00000000000000000000e+00) (0, 0, 0.00000000000000000000e+00) (0, 0, 0.00000000000000000000e+00) (0, 0, 0.00000000000000000000e+00) (0, 0, 0.00000000000000000000e+00) (0, 0, 0.00000000000000000000e+00) (0, 0, 0.00000000000000000000e+00) (0, 0, 0.00000000000000000000e+00) (0, 0, 0.00000000000000000000e+00) (0, 0, 0.00000000000000000000e+00) (0, 0, 0.00000000000000000000e+00) (0, 0, 0.00000000000000000000e+00) (0, 0, 0.00000000000000000000e+00) (0, 0, 0.00000000000000000000e+00) (0, 0, 0.00000000000000000000e+00) (0, 0, 0.00000000000000000000e+00) (0, 0, 0.00000000000000000000e+00) (0, 0, 0.00000000000000000000e+00) (0, 0, 0.00000000000000000000e+00) (0, 0, 0.00000000000000000000e+00) (0, 0, 0.00000000000000000000e+00) (0, 0, 0.00000000000000000000e+00) (0, 0, 0.00000000000000000000e+00) (0, 0, 0.00000000000000000000e+00) (0, 0, 0.00000000000000000000e+00) (0, 0, 0.00000000000000000000e+00) (0, 0, 0.00000000000000000000e+00) (0, 0, 0.00000000000000000000e+00) (0, 0, 0.00000000000000000000e+00) (0, 0, 0.00000000000000000000e+00) (0, 0, 0.00000000000000000000e+00) (0, 0, 0.00000000000000000000e+00) (0, 0, 0.00000000000000000000e+00) (0, 0, 0.00000000000000000000e+00) (0, 0, 0.00000000000000000000e+00) (0, 0, 0.00000000000000000000e+00) (0, 0, 0.00000000000000000000e+00) (0, 0, 0.00000000000000000000e+00) (0, 0, 0.00000000000000000000e+00) (0, 0, 0.00000000000000000000e+00) (0, 0, 0.00000000000000000000e+00) (0, 0, 0.00000000000000000000e+00) (0, 0, 0.00000000000000000000e+00) (0, 0, 0.00000000000000000000e+00) (0, 0, 0.00000000000000000000e+00) (0, 0, 0.00000000000000000000e+00) (0, 0, 0.00000000000000000000e+00) (0, 0, 0.00000000000000000000e+00) (0, 0, 0.00000000000000000000e+00) (0, 0, 0.00000000000000000000e+00) (0, 0, 0.00000000000000000000e+00) (0, 0, 0.00000000000000000000e+00) (0, 0, 0.00000000000000000000e+00) (0, 0, 0.00000000000000000000e+00) (0, 0, 0.00000000000000000000e+00) (0, 0, 0.00000000000000000000e+00) (0, 0, 0.00000000000000000000e+00) (0, 0, 0.00000000000000000000e+00) (0, 0, 0.00000000000000000000e+00) (0, 0, 0.00000000000000000000e+00) (0, 0, 0.00000000000000000000e+00) (0, 0, 0.00000000000000000000e+00) (0, 0, 0.00000000000000000000e+00) (0, 0, 0.00000000000000000000e+00) (0, 0, 0.00000000000000000000e+00) (0, 0, 0.00000000000000000000e+00) (0, 0, 0.00000000000000000000e+00) (0, 0, 0.00000000000000000000e+00) (0, 0, 0.00000000000000000000e+00) (0, 0, 0.00000000000000000000e+00) (0, 0, 0.00000000000000000000e+00) (0, 0, 0.00000000000000000000e+00) (0, 0, 0.00000000000000000000e+00) (0, 0, 0.00000000000000000000e+00) (0, 0, 0.00000000000000000000e+00) (0, 0, 0.00000000000000000000e+00) (0, 0, 0.00000000000000000000e+00) (0, 0, 0.00000000000000000000e+00) (0, 0, 0.00000000000000000000e+00) (0, 0, 0.00000000000000000000e+00) (0, 0, 0.00000000000000000000e+00) (0, 0, 0.00000000000000000000e+00) (0, 0, 0.00000000000000000000e+00) (0, 0, 0.00000000000000000000e+00) (0, 0, 0.00000000000000000000e+00) (0, 0, 0.00000000000000000000e+00) (0, 0, 0.00000000000000000000e+00) (0, 0, 0.00000000000000000000e+00) (0, 0, 0.00000000000000000000e+00) (0, 0, 0.00000000000000000000e+00) (0, 0, 0.00000000000000000000e+00) (0, 0, 0.00000000000000000000e+00) (0, 0, 0.00000000000000000000e+00) (0, 0, 0.00000000000000000000e+00) (0, 0, 0.00000000000000000000e+00) (0, 0, 0.00000000000000000000e+00) (0, 0, 0.00000000000000000000e+00) (0, 0, 0.00000000000000000000e+00) (0, 0, 0.00000000000000000000e+00) (0, 0, 0.00000000000000000000e+00) (0, 0, 0.00000000000000000000e+00) (0, 0, 0.00000000000000000000e+00) (0, 0, 0.00000000000000000000e+00) (0, 0, 0.00000000000000000000e+00) (0, 0, 0.00000000000000000000e+00) (0, 0, 0.00000000000000000000e+00) (0, 0, 0.00000000000000000000e+00) (0, 0, 0.00000000000000000000e+00) (0, 0, 0.00000000000000000000e+00) (0, 0, 0.00000000000000000000e+00) (0, 0, 0.00000000000000000000e+00) (0, 0, 0.00000000000000000000e+00) (0, 0, 0.00000000000000000000e+00) (0, 0, 0.00000000000000000000e+00) (0, 0, 0.00000000000000000000e+00) (0, 0, 0.00000000000000000000e+00) (0, 0, 0.00000000000000000000e+00) (0, 0, 0.00000000000000000000e+00) (0, 0, 0.00000000000000000000e+00) (0, 0, 0.00000000000000000000e+00) (257, 11, 5.00000000000000000000e-01) (257, 11, 5.00000000000000000000e-01) (257, 11, 5.00000000000000000000e-01) (257, 11, 5.00000000000000000000e-01) (257, 11, 5.00000000000000000000e-01) (257, 11, 5.00000000000000000000e-01) (257, 11, 5.00000000000000000000e-01) (257, 11, 5.00000000000000000000e-01) (257, 11, 5.00000000000000000000e-01) (257, 11, 5.00000000000000000000e-01) (257, 11, 5.00000000000000000000e-01) (257, 11, 5.00000000000000000000e-01) (257, 11, 5.00000000000000000000e-01) (257, 11, 5.00000000000000000000e-01) (257, 11, 5.00000000000000000000e-01) (257, 11, 5.00000000000000000000e-01) (257, 11, 5.00000000000000000000e-01) (257, 11, 5.00000000000000000000e-01) (257, 11, 5.00000000000000000000e-01) (257, 11, 5.00000000000000000000e-01) (257, 11, 5.00000000000000000000e-01) (257, 11, 5.00000000000000000000e-01) (257, 11, 5.00000000000000000000e-01) (257, 11, 5.00000000000000000000e-01) (257, 11, 5.00000000000000000000e-01) (257, 11, 5.00000000000000000000e-01) (257, 11, 5.00000000000000000000e-01) (257, 11, 5.00000000000000000000e-01) (257, 11, 5.00000000000000000000e-01) (257, 11, 5.00000000000000000000e-01) (257, 11, 5.00000000000000000000e-01) (257, 11, 5.00000000000000000000e-01) (257, 11, 5.00000000000000000000e-01) (257, 11, 5.00000000000000000000e-01) (257, 11, 5.00000000000000000000e-01) (257, 11, 5.00000000000000000000e-01) (257, 11, 5.00000000000000000000e-01) (257, 11, 5.00000000000000000000e-01) (257, 11, 5.00000000000000000000e-01) (257, 11, 5.00000000000000000000e-01) (0, 11, 0.00000000000000000000e+00) (41, 11, 5.00000000000000000000e-01) (41, 11, 5.00000000000000000000e-01) (41, 11, 5.00000000000000000000e-01) (41, 11, 5.00000000000000000000e-01) (41, 11, 5.00000000000000000000e-01) (41, 11, 5.00000000000000000000e-01) (41, 11, 5.00000000000000000000e-01) (41, 11, 5.00000000000000000000e-01) (41, 11, 5.00000000000000000000e-01) (41, 11, 5.00000000000000000000e-01) (41, 11, 5.00000000000000000000e-01) (41, 11, 5.00000000000000000000e-01) (41, 11, 5.00000000000000000000e-01) (41, 11, 5.00000000000000000000e-01) (41, 11, 5.00000000000000000000e-01) (41, 11, 5.00000000000000000000e-01) (41, 11, 5.00000000000000000000e-01) (41, 11, 5.00000000000000000000e-01) (41, 11, 5.00000000000000000000e-01) (41, 11, 5.00000000000000000000e-01) (41, 11, 5.00000000000000000000e-01) (41, 11, 5.00000000000000000000e-01) (41, 11, 5.00000000000000000000e-01) (41, 11, 5.00000000000000000000e-01) (41, 11, 5.00000000000000000000e-01) (41, 11, 5.00000000000000000000e-01) (41, 11, 5.00000000000000000000e-01) (41, 11, 5.00000000000000000000e-01) (41, 11, 5.00000000000000000000e-01) (41, 11, 5.00000000000000000000e-01) (41, 11, 5.00000000000000000000e-01) (41, 11, 5.00000000000000000000e-01) (41, 11, 5.00000000000000000000e-01) (41, 11, 5.00000000000000000000e-01) (41, 11, 5.00000000000000000000e-01) (41, 11, 5.00000000000000000000e-01) (41, 11, 5.00000000000000000000e-01) (41, 11, 5.00000000000000000000e-01) (41, 11, 5.00000000000000000000e-01) (41, 11, 5.00000000000000000000e-01) (0, 11, 0.00000000000000000000e+00) (41, 11, 5.00000000000000000000e-01) (0, 11, 0.00000000000000000000e+00) 
connections (connected_to_neuron, weight)=(0, 2.80714750289916992188e-01) (1, 2.46258065104484558105e-01) (2, 2.63665229082107543945e-01) (3, 2.40780234336853027344e-01) (4, 3.85466963052749633789e-01) (5, 2.93761789798736572266e-01) (6, 2.95022159814834594727e-01) (7, 4.23169314861297607422e-01) (8, 2.78404802083969116211e-01) (9, 2.37912893295288085938e-01) (10, 2.07672461867332458496e-01) (11, 3.40404927730560302734e-01) (12, 3.11187386512756347656e-01) (13, 3.99228394031524658203e-01) (14, 2.55643546581268310547e-01) (15, 2.53545701503753662109e-01) (16, 4.26317095756530761719e-01) (17, 4.06041234731674194336e-01) (18, 3.77646982669830322266e-01) (19, 4.02939945459365844727e-01) (20, 3.40476572513580322266e-01) (21, 4.04821723699569702148e-01) (22, 2.52544045448303222656e-01) (23, 3.20310294628143310547e-01) (24, 3.50963443517684936523e-01) (25, 3.49593728780746459961e-01) (26, 2.49925330281257629395e-01) (27, 3.71779859066009521484e-01) (28, 3.94711047410964965820e-01) (29, 2.33802035450935363770e-01) (30, 3.69297087192535400391e-01) (31, 2.22891062498092651367e-01) (32, 2.91377604007720947266e-01) (33, 3.76889467239379882813e-01) (34, 2.89111405611038208008e-01) (35, 3.41974765062332153320e-01) (36, 2.78153687715530395508e-01) (37, 1.55903279781341552734e-01) (38, 3.50724041461944580078e-01) (39, 2.06773623824119567871e-01) (40, 2.83891707658767700195e-01) (41, 4.46634441614151000977e-01) (42, 3.83402347564697265625e-01) (43, 2.32059910893440246582e-01) (44, 1.54091849923133850098e-01) (45, 1.87785074114799499512e-01) (46, 2.84445047378540039063e-01) (47, 3.93639087677001953125e-01) (48, 3.39425235986709594727e-01) (49, 4.37995970249176025391e-01) (50, 3.38861495256423950195e-01) (51, 1.52981698513031005859e-01) (52, 1.47002264857292175293e-01) (53, 9.34173092246055603027e-02) (54, 2.30017617344856262207e-01) (55, 3.46445798873901367188e-01) (56, 2.45997518301010131836e-01) (57, 2.05104053020477294922e-01) (58, 3.93544703722000122070e-01) (59, 1.19583599269390106201e-01) (60, 1.29689440131187438965e-01) (61, 3.06284308433532714844e-01) (62, 2.17326849699020385742e-01) (63, 3.26407402753829956055e-01) (64, 3.25420975685119628906e-01) (65, 2.62658089399337768555e-01) (66, 3.14754992723464965820e-01) (67, 4.21849220991134643555e-01) (68, 2.19672247767448425293e-01) (69, 2.95402407646179199219e-01) (70, 2.37687364220619201660e-01) (71, 3.19807469844818115234e-01) (72, 3.60763341188430786133e-01) (73, 2.74250715970993041992e-01) (74, 3.69155555963516235352e-01) (75, 1.68396338820457458496e-01) (76, 1.02991342544555664063e-01) (77, 1.49498850107192993164e-01) (78, 3.08839738368988037109e-01) (79, 5.20702064037322998047e-01) (80, 2.69751876592636108398e-01) (81, 2.32468053698539733887e-01) (82, 3.47577184438705444336e-01) (83, 1.48068800568580627441e-01) (84, 2.26344019174575805664e-01) (85, 2.01939359307289123535e-01) (86, 3.03933143615722656250e-01) (87, 1.06354725360870361328e+00) (88, 8.43966186046600341797e-01) (89, 4.18785214424133300781e-01) (90, 2.52721428871154785156e-01) (91, 1.50373578071594238281e-01) (92, 5.16363561153411865234e-01) (93, 4.39574569463729858398e-01) (94, 3.12937408685684204102e-01) (95, 8.66303384304046630859e-01) (96, 4.47385668754577636719e-01) (97, 3.67043763399124145508e-01) (98, 1.50738075375556945801e-01) (99, 1.33435651659965515137e-01) (100, 1.45073890686035156250e-01) (101, 3.79516005516052246094e-01) (102, 2.97788888216018676758e-01) (103, 5.52158713340759277344e-01) (104, -4.91972059011459350586e-01) (105, 2.78547525405883789063e-01) (106, 3.73159885406494140625e-01) (107, 1.66678458452224731445e-01) (108, 2.06314891576766967773e-01) (109, 3.25483739376068115234e-01) (110, 4.53014552593231201172e-01) (111, 4.46161597967147827148e-01) (112, 4.09177511930465698242e-01) (113, 1.97391882538795471191e-01) (114, 2.49112486839294433594e-01) (115, 2.64808833599090576172e-01) (116, 1.74160286784172058105e-01) (117, 2.43104919791221618652e-01) (118, 3.96947056055068969727e-01) (119, 5.51184594631195068359e-01) (120, 3.18819910287857055664e-01) (121, 3.75424623489379882813e-01) (122, 2.96346962451934814453e-01) (123, 1.72815620899200439453e-01) (124, 2.91773527860641479492e-01) (125, 2.34190866351127624512e-01) (126, 2.39769041538238525391e-01) (127, 5.37400960922241210938e-01) (128, 5.77746987342834472656e-01) (129, 3.47760558128356933594e-01) (130, 7.89034008979797363281e-01) (131, 2.16238394379615783691e-01) (132, 1.49628072977066040039e-01) (133, 4.32245612144470214844e-01) (134, 5.90786099433898925781e-01) (135, 3.74347478151321411133e-01) (136, 4.91057634353637695313e-01) (137, 3.34342896938323974609e-01) (138, 3.55247646570205688477e-01) (139, 3.36210817098617553711e-01) (140, 2.78915882110595703125e-01) (141, 2.72766292095184326172e-01) (142, 3.08524727821350097656e-01) (143, 1.19731402397155761719e+00) (144, 4.58833485841751098633e-01) (145, 3.82837802171707153320e-01) (146, 3.24411869049072265625e-01) (147, 2.68842786550521850586e-01) (148, 3.00697714090347290039e-01) (149, 3.90766888856887817383e-01) (150, 4.88513946533203125000e-01) (151, 4.72982227802276611328e-01) (152, 3.65168660879135131836e-01) (153, 3.03746968507766723633e-01) (154, 3.24961602687835693359e-01) (155, 1.58800780773162841797e-01) (156, 2.60015040636062622070e-01) (157, 3.86280804872512817383e-01) (158, 5.08335590362548828125e-01) (159, 4.01143968105316162109e-01) (160, 3.67900013923645019531e-01) (161, 3.83636772632598876953e-01) (162, 3.09477925300598144531e-01) (163, 1.57635912299156188965e-01) (164, 1.08635492622852325439e-01) (165, 3.43003183603286743164e-01) (166, 5.41544377803802490234e-01) (167, 4.97032314538955688477e-01) (168, 3.66823762655258178711e-01) (169, 3.09861898422241210938e-01) (170, 1.48349568247795104980e-01) (171, 2.85322040319442749023e-01) (172, 2.52254098653793334961e-01) (173, 2.36366242170333862305e-01) (174, 3.37217837572097778320e-01) (175, 2.01113745570182800293e-01) (176, 5.51861226558685302734e-01) (177, 4.56370264291763305664e-01) (178, 3.46612066030502319336e-01) (179, 2.64916449785232543945e-01) (180, 1.91851586103439331055e-01) (181, 3.61322760581970214844e-01) (182, 3.53746086359024047852e-01) (183, 4.38323587179183959961e-01) (184, 2.55574643611907958984e-01) (185, 6.74010694026947021484e-01) (186, 3.32788795232772827148e-01) (187, 2.17278778553009033203e-01) (188, 1.02897800505161285400e-01) (189, 3.72106313705444335938e-01) (190, 2.52604454755783081055e-01) (191, 6.46082818508148193359e-01) (192, 3.34832996129989624023e-01) (193, 3.78173768520355224609e-01) (194, 2.14630857110023498535e-01) (195, 2.40970358252525329590e-01) (196, 9.30801555514335632324e-02) (197, 2.69504725933074951172e-01) (198, 3.05685669183731079102e-01) (199, 4.32533979415893554688e-01) (200, 2.36317858099937438965e-01) (201, 4.12272125482559204102e-01) (202, 3.66996228694915771484e-01) (203, 3.05023133754730224609e-01) (204, 3.12451392412185668945e-01) (205, 2.03065738081932067871e-01) (206, 2.09955200552940368652e-01) (207, 2.37322360277175903320e-01) (208, 2.65912711620330810547e-01) (209, 1.30754798650741577148e-01) (210, 2.18344956636428833008e-01) (211, 3.29339385032653808594e-01) (212, 2.58939862251281738281e-01) (213, 1.46186545491218566895e-01) (214, 3.85918945074081420898e-01) (215, 1.97522550821304321289e-01) (216, 3.18917483091354370117e-01) (217, 2.57528960704803466797e-01) (218, 3.32407832145690917969e-01) (219, 1.58049419522285461426e-01) (220, 2.07344979047775268555e-01) (221, 2.63632208108901977539e-01) (222, 2.23347678780555725098e-01) (223, 2.97622561454772949219e-01) (224, 3.92838507890701293945e-01) (225, 3.43675494194030761719e-01) (226, 2.39185228943824768066e-01) (227, 3.63694190979003906250e-01) (228, 3.88419836759567260742e-01) (229, 2.26738229393959045410e-01) (230, 3.75551164150238037109e-01) (231, 4.27627980709075927734e-01) (232, 2.56362527608871459961e-01) (233, 2.44968116283416748047e-01) (234, 2.56170898675918579102e-01) (235, 2.63967424631118774414e-01) (236, 2.93500483036041259766e-01) (237, 2.59998887777328491211e-01) (238, 3.55983346700668334961e-01) (239, 3.17840069532394409180e-01) (240, 2.74946480989456176758e-01) (241, 2.97613650560379028320e-01) (242, 3.80164951086044311523e-01) (243, 3.45340579748153686523e-01) (244, 3.75123500823974609375e-01) (245, 3.02286744117736816406e-01) (246, 3.46612006425857543945e-01) (247, 3.08819323778152465820e-01) (248, 2.73254603147506713867e-01) (249, 3.04077327251434326172e-01) (250, 3.74518007040023803711e-01) (251, 3.15753340721130371094e-01) (252, 3.85717242956161499023e-01) (253, 3.28834056854248046875e-01) (254, 2.99122333526611328125e-01) (255, 4.30659145116806030273e-01) (256, 4.72559779882431030273e-01) (0, 1.26800024509429931641e+00) (1, 4.40039098262786865234e-01) (2, 3.05694550275802612305e-01) (3, 3.75624567270278930664e-01) (4, 2.86016821861267089844e-01) (5, 2.57923960685729980469e-01) (6, 4.57760751247406005859e-01) (7, 5.19832193851470947266e-01) (8, 5.30950009822845458984e-01) (9, 3.04917335510253906250e-01) (10, 2.98748761415481567383e-01) (11, 2.66992181539535522461e-01) (12, 3.56161177158355712891e-01) (13, 4.08655703067779541016e-01) (14, 4.10120218992233276367e-01) (15, 3.83600443601608276367e-01) (16, 5.44308543205261230469e-01) (17, 5.73373436927795410156e-01) (18, 5.49104928970336914063e-01) (19, 6.87062799930572509766e-01) (20, 5.83498239517211914063e-01) (21, 3.06355953216552734375e-01) (22, 2.96156913042068481445e-01) (23, 2.69778609275817871094e-01) (24, 4.29374814033508300781e-01) (25, 3.76552641391754150391e-01) (26, 3.41085553169250488281e-01) (27, 3.81063431501388549805e-01) (28, 3.35775583982467651367e-01) (29, 3.31408023834228515625e-01) (30, 3.26416313648223876953e-01) (31, 3.70708405971527099609e-01) (32, 3.24628680944442749023e-01) (33, 3.42601090669631958008e-01) (34, 4.32452470064163208008e-01) (35, 4.19517248868942260742e-01) (36, 2.20044642686843872070e-01) (37, 3.42858701944351196289e-01) (38, 2.30260863900184631348e-01) (39, 4.27357286214828491211e-01) (40, 3.01823973655700683594e-01) (41, 4.04149413108825683594e-01) (42, 5.29969871044158935547e-01) (43, 5.33352077007293701172e-01) (44, 4.46556508541107177734e-01) (45, 2.47355937957763671875e-01) (46, 3.52871567010879516602e-01) (47, 3.86004805564880371094e-01) (48, 3.90511959791183471680e-01) (49, 2.50501155853271484375e-01) (50, 5.16773462295532226563e-01) (51, 5.97100138664245605469e-01) (52, 6.49687588214874267578e-01) (53, 3.58262389898300170898e-01) (54, 4.42031413316726684570e-01) (55, 4.81258124113082885742e-01) (56, 2.64721155166625976563e-01) (57, 2.49283432960510253906e-01) (58, 4.49357628822326660156e-01) (59, 3.05592447519302368164e-01) (60, 2.47913360595703125000e-01) (61, 3.46571236848831176758e-01) (62, 3.69998604059219360352e-01) (63, 4.19571369886398315430e-01) (64, 3.34645956754684448242e-01) (65, 2.84782558679580688477e-01) (66, 3.91455084085464477539e-01) (67, 3.10774922370910644531e-01) (68, 3.98885190486907958984e-01) (69, 4.15322482585906982422e-01) (70, 4.65300977230072021484e-01) (71, 4.64732885360717773438e-01) (72, 2.63129621744155883789e-01) (73, 4.18949365615844726563e-01) (74, 4.68066304922103881836e-01) (75, 4.77244347333908081055e-01) (76, 5.28099715709686279297e-01) (77, 1.95326387882232666016e-01) (78, 3.35166394710540771484e-01) (79, 3.26377987861633300781e-01) (80, 8.21288406848907470703e-01) (81, 7.17822980880737304688e+00) (82, 4.64241117238998413086e-01) (83, 5.16563951969146728516e-01) (84, 4.47252124547958374023e-01) (85, 2.50895649194717407227e-01) (86, 3.79507184028625488281e-01) (87, 1.84214544296264648438e+00) (88, 1.16597528457641601563e+01) (89, 7.10211336612701416016e-01) (90, 4.18426275253295898438e-01) (91, 5.33191859722137451172e-01) (92, 4.99227911233901977539e-01) (93, 4.20687586069107055664e-01) (94, 7.15465605258941650391e-01) (95, 1.41143882274627685547e+00) (96, 5.12536191940307617188e+00) (97, 6.57768070697784423828e-01) (98, 3.94307166337966918945e-01) (99, 5.76198935508728027344e-01) (100, 5.88531434535980224609e-01) (101, 2.90769994258880615234e-01) (102, 4.06299144029617309570e-01) (103, 5.41627645492553710938e-01) (104, 1.01598691940307617188e+00) (105, 4.84143495559692382813e-01) (106, 4.38409984111785888672e-01) (107, 5.36262869834899902344e-01) (108, 4.20468747615814208984e-01) (109, 3.95743280649185180664e-01) (110, 4.70432937145233154297e-01) (111, 1.24890792369842529297e+00) (112, 3.78481835126876831055e-01) (113, 4.41080987453460693359e-01) (114, 4.13255780935287475586e-01) (115, 4.58488315343856811523e-01) (116, 3.32547456026077270508e-01) (117, 2.99470841884613037109e-01) (118, 5.22531926631927490234e-01) (119, 3.22201907634735107422e-01) (120, 7.82599508762359619141e-01) (121, 3.35158258676528930664e-01) (122, 4.51255500316619873047e-01) (123, 5.75150549411773681641e-01) (124, 4.26628142595291137695e-01) (125, 4.59067076444625854492e-01) (126, 6.20923876762390136719e-01) (127, 4.54392790794372558594e-01) (128, 7.25304841995239257813e-01) (129, 4.23788785934448242188e-01) (130, 3.90596532821655273438e+00) (131, 5.12938499450683593750e-01) (132, 5.11646568775177001953e-01) (133, 3.89770746231079101563e-01) (134, 7.84444987773895263672e-01) (135, 3.21581631898880004883e-01) (136, 4.65542793273925781250e-01) (137, 3.66752892732620239258e-01) (138, 1.85243968963623046875e+01) (139, 7.13292539119720458984e-01) (140, 6.44379794597625732422e-01) (141, 4.61530894041061401367e-01) (142, 6.45211040973663330078e-01) (143, 1.40618252754211425781e+00) (144, 4.97676253318786621094e-01) (145, 2.61248439550399780273e-01) (146, 6.22381114959716796875e+00) (147, 2.71001243591308593750e+00) (148, 5.34212708473205566406e-01) (149, 6.57616257667541503906e-01) (150, 7.94967412948608398438e-01) (151, 8.55946362018585205078e-01) (152, 5.25698721408843994141e-01) (153, 6.90992653369903564453e-01) (154, 3.55903015136718750000e+01) (155, 7.26130902767181396484e-01) (156, 5.68089783191680908203e-01) (157, 2.80418306589126586914e-01) (158, 7.92932033538818359375e-01) (159, 5.63702404499053955078e-01) (160, 9.91777598857879638672e-01) (161, 4.24079388380050659180e-01) (162, 1.42394983768463134766e+00) (163, 5.46351253986358642578e-01) (164, 4.88058716058731079102e-01) (165, 4.55537855625152587891e-01) (166, 7.82458007335662841797e-01) (167, 3.41014653444290161133e-01) (168, 5.33455312252044677734e-01) (169, 5.11201798915863037109e-01) (170, 5.09350419044494628906e-01) (171, 5.97696781158447265625e-01) (172, 4.84590888023376464844e-01) (173, 3.76640230417251586914e-01) (174, 2.73164391517639160156e-01) (175, 3.57243627309799194336e-01) (176, 2.26067390441894531250e+01) (177, 1.18812358379364013672e+00) (178, 3.87331306934356689453e-01) (179, 5.39366781711578369141e-01) (180, 2.73058152198791503906e+00) (181, 7.86777675151824951172e-01) (182, 1.14629292488098144531e+00) (183, 9.52661812305450439453e-01) (184, 2.38370418548583984375e+00) (185, 7.47675001621246337891e-01) (186, 2.32709869742393493652e-01) (187, 5.42573809623718261719e-01) (188, 5.70200443267822265625e-01) (189, 4.18760269880294799805e-01) (190, 4.87711817026138305664e-01) (191, 1.24916040897369384766e+00) (192, 4.31415408849716186523e-01) (193, 5.23483037948608398438e-01) (194, 3.50950896739959716797e-01) (195, 5.80001235008239746094e-01) (196, 4.82368588447570800781e-01) (197, 3.86646807193756103516e-01) (198, 2.75196492671966552734e-01) (199, 1.57257986068725585938e+00) (200, 3.64247381687164306641e-01) (201, 2.86550700664520263672e-01) (202, 1.96371808648109436035e-01) (203, 2.70284652709960937500e-01) (204, 3.35434973239898681641e-01) (205, 3.69380176067352294922e-01) (206, 3.36810469627380371094e-01) (207, 4.39657866954803466797e-01) (208, 2.94437676668167114258e-01) (209, 2.76659399271011352539e-01) (210, 2.96791493892669677734e-01) (211, 2.33734771609306335449e-01) (212, 2.64025181531906127930e-01) (213, 2.03814402222633361816e-01) (214, 2.57974028587341308594e-01) (215, 3.10820460319519042969e-01) (216, 3.63893806934356689453e-01) (217, 4.04044210910797119141e-01) (218, 3.64300996065139770508e-01) (219, 2.04026728868484497070e-01) (220, 2.82223165035247802734e-01) (221, 2.98214375972747802734e-01) (222, 3.43572765588760375977e-01) (223, 4.12178367376327514648e-01) (224, 5.28741955757141113281e-01) (225, 3.23869824409484863281e-01) (226, 4.11161869764328002930e-01) (227, 4.30724889039993286133e-01) (228, 4.00025397539138793945e-01) (229, 4.43425536155700683594e-01) (230, 3.29469740390777587891e-01) (231, 1.41121065616607666016e+00) (232, 6.43544673919677734375e-01) (233, 3.91553878784179687500e-01) (234, 4.01430577039718627930e-01) (235, 4.00504171848297119141e-01) (236, 4.64377790689468383789e-01) (237, 2.59450256824493408203e-01) (238, 7.44491755962371826172e-01) (239, 1.21928298473358154297e+00) (240, 4.36232417821884155273e-01) (241, 4.79075014591217041016e-01) (242, 4.03019934892654418945e-01) (243, 3.17404747009277343750e-01) (244, 2.71072059869766235352e-01) (245, 5.46123147010803222656e-01) (246, 6.80192410945892333984e-01) (247, 1.25454306602478027344e+00) (248, 8.57389509677886962891e-01) (249, 8.37675034999847412109e-01) (250, 8.10215294361114501953e-01) (251, 8.28446447849273681641e-01) (252, 8.26932191848754882813e-01) (253, 1.23669373989105224609e+00) (254, 1.22376227378845214844e+00) (255, 1.33808732032775878906e+00) (256, 1.25180792808532714844e+00) (0, 1.91170573234558105469e-01) (1, -9.82619822025299072266e-02) (2, -2.26761065423488616943e-02) (3, 1.00851193070411682129e-01) (4, -4.37820740044116973877e-02) (5, 3.08578014373779296875e-02) (6, -4.64188084006309509277e-02) (7, 9.34984087944030761719e-02) (8, -1.40891261398792266846e-02) (9, -3.74712012708187103271e-02) (10, 6.53000175952911376953e-02) (11, -7.97623097896575927734e-02) (12, 3.52279841899871826172e-02) (13, 1.01423159241676330566e-01) (14, -5.96085116267204284668e-02) (15, -3.24906073510646820068e-02) (16, -2.83145736902952194214e-02) (17, -2.06485632807016372681e-02) (18, 1.35155305266380310059e-01) (19, 7.62194693088531494141e-02) (20, 7.03234672546386718750e-02) (21, -2.66393572092056274414e-02) (22, -7.88835734128952026367e-02) (23, -6.81948140263557434082e-02) (24, 1.39995096251368522644e-02) (25, 4.03196550905704498291e-03) (26, -1.70797526836395263672e-01) (27, -1.22119732201099395752e-01) (28, 3.76701019704341888428e-02) (29, -1.97721987962722778320e-01) (30, -2.91160017251968383789e-01) (31, -2.98294931650161743164e-01) (32, -8.01810845732688903809e-02) (33, -8.83901566267013549805e-02) (34, -9.87769812345504760742e-02) (35, -2.57204324007034301758e-02) (36, 4.25765514373779296875e-02) (37, -5.78526929020881652832e-02) (38, -6.62068799138069152832e-02) (39, 6.21436350047588348389e-03) (40, 1.45910456776618957520e-01) (41, -1.37939602136611938477e-01) (42, -2.25805155932903289795e-02) (43, -4.08093519508838653564e-02) (44, -1.23195134103298187256e-01) (45, -8.52777659893035888672e-02) (46, 3.26104611158370971680e-02) (47, 4.54967319965362548828e-02) (48, 2.25650802254676818848e-01) (49, -2.76946961879730224609e-01) (50, -1.72306954860687255859e-01) (51, -1.29624664783477783203e-01) (52, -9.53134521842002868652e-02) (53, -1.05295449495315551758e-01) (54, 7.11823850870132446289e-02) (55, 7.76869133114814758301e-02) (56, 3.13456654548645019531e-01) (57, -1.38249531388282775879e-01) (58, -6.53388127684593200684e-02) (59, -1.53829559683799743652e-01) (60, -3.50323468446731567383e-02) (61, -1.42256200313568115234e-01) (62, -4.03520874679088592529e-02) (63, -7.35366865992546081543e-02) (64, -6.28762468695640563965e-02) (65, 1.22693598270416259766e-01) (66, -5.04374623298645019531e-01) (67, -1.84347212314605712891e-01) (68, -2.76793718338012695313e-01) (69, -4.57157075405120849609e-01) (70, -4.05812151730060577393e-02) (71, -6.39188736677169799805e-02) (72, 3.85491222143173217773e-01) (73, 1.79181069135665893555e-01) (74, -5.80001138150691986084e-02) (75, -2.02647745609283447266e-01) (76, -7.45444223284721374512e-02) (77, 6.60772323608398437500e-02) (78, -6.52206391096115112305e-02) (79, 4.10550773143768310547e-01) (80, 3.57204705476760864258e-01) (81, 7.22405099868774414063e+00) (82, -1.00219529122114181519e-02) (83, -2.39088869094848632813e+00) (84, -6.25300943851470947266e-01) (85, -1.34464636445045471191e-01) (86, 2.60310649871826171875e+00) (87, 1.56423807144165039063e+00) (88, 4.95854949951171875000e+00) (89, 3.42986546456813812256e-02) (90, 1.30943939089775085449e-01) (91, -1.58567354083061218262e-01) (92, 2.15245764702558517456e-02) (93, 1.11280232667922973633e-01) (94, 3.57162624597549438477e-01) (95, 8.53402018547058105469e-01) (96, 1.84241011738777160645e-01) (97, -1.14668548107147216797e-01) (98, -9.58868712186813354492e-02) (99, -3.63185890018939971924e-02) (100, -6.06602542102336883545e-02) (101, 7.55734741687774658203e-03) (102, 3.65914970636367797852e-01) (103, 5.45223712921142578125e-01) (104, -3.70499268174171447754e-02) (105, -5.33412024378776550293e-02) (106, -1.80676639080047607422e-01) (107, -2.34976261854171752930e-02) (108, -1.10529378056526184082e-01) (109, 3.69100868701934814453e-02) (110, -8.25571492314338684082e-02) (111, -9.40999686717987060547e-01) (112, -1.07123959064483642578e+00) (113, -3.61133277416229248047e-01) (114, -2.21488438546657562256e-03) (115, -1.65516465902328491211e-01) (116, -8.12203660607337951660e-02) (117, 1.80810019373893737793e-01) (118, 1.91145643591880798340e-01) (119, -2.69456565380096435547e-01) (120, -1.01293601095676422119e-01) (121, -1.28581672906875610352e-01) (122, -7.03307092189788818359e-01) (123, 1.36094130575656890869e-02) (124, 4.89623472094535827637e-02) (125, 1.30283221602439880371e-01) (126, 3.25442641973495483398e-01) (127, 1.59923732280731201172e-01) (128, -1.18367239832878112793e-01) (129, -9.75869372487068176270e-02) (130, 2.39224154502153396606e-02) (131, -1.39009147882461547852e-01) (132, 4.70337778329849243164e-01) (133, 1.84220135211944580078e+00) (134, 4.82962429523468017578e-01) (135, 8.84749169927090406418e-06) (136, -5.15200123190879821777e-02) (137, -6.39591217041015625000e-02) (138, 1.61592021584510803223e-01) (139, 7.03864870592951774597e-03) (140, 2.55503594875335693359e-01) (141, -4.28139194846153259277e-02) (142, 4.86781686544418334961e-01) (143, 5.16675353050231933594e-01) (144, -2.98301912844181060791e-02) (145, -1.37369483709335327148e-01) (146, -2.60583966970443725586e-01) (147, 1.14404536783695220947e-01) (148, 2.74799227714538574219e-01) (149, 2.30846881866455078125e+00) (150, 6.80063605308532714844e-01) (151, 7.41741716861724853516e-01) (152, 4.72818128764629364014e-02) (153, -1.81537553668022155762e-01) (154, -1.92415893077850341797e-01) (155, -6.28922879695892333984e-03) (156, -6.85662329196929931641e-02) (157, 2.22423925995826721191e-01) (158, 7.93475687503814697266e-01) (159, 4.28401798009872436523e-01) (160, -4.59629386663436889648e-01) (161, -1.73464655876159667969e-01) (162, 1.91848445683717727661e-02) (163, -1.33744418621063232422e-01) (164, -1.01602733135223388672e-01) (165, 2.04338431358337402344e-01) (166, 1.82347655296325683594e+00) (167, 4.35741245746612548828e-01) (168, -6.81664347648620605469e-02) (169, 4.69509139657020568848e-02) (170, -2.49438416212797164917e-02) (171, -8.47415775060653686523e-02) (172, -7.37689435482025146484e-02) (173, 5.61323873698711395264e-02) (174, 1.05018770694732666016e+00) (175, 4.42095309495925903320e-01) (176, 4.49993222951889038086e-01) (177, 2.28551253676414489746e-01) (178, 6.53221383690834045410e-02) (179, -1.31308272480964660645e-01) (180, -4.79154847562313079834e-02) (181, 5.13001792132854461670e-02) (182, 4.20201808214187622070e-01) (183, 3.64010691642761230469e-01) (184, 2.63999193906784057617e-01) (185, 2.65991836786270141602e-01) (186, 2.18284144997596740723e-01) (187, -1.12040773034095764160e-01) (188, -1.75091311335563659668e-01) (189, -1.66059643030166625977e-01) (190, 9.26733091473579406738e-02) (191, 4.57469344139099121094e-01) (192, 1.30173355340957641602e-01) (193, 1.36018052697181701660e-01) (194, 2.36348673701286315918e-01) (195, -1.35656461119651794434e-01) (196, -7.83900320529937744141e-02) (197, -6.50692135095596313477e-02) (198, 5.36001008003950119019e-03) (199, 4.45626795291900634766e-01) (200, 1.17861010134220123291e-01) (201, 1.08083747327327728271e-01) (202, 6.23589269816875457764e-02) (203, 9.03283245861530303955e-03) (204, -6.69720098376274108887e-02) (205, -6.61365687847137451172e-02) (206, 2.39609517157077789307e-02) (207, -6.41796588897705078125e-02) (208, -1.40963448211550712585e-02) (209, 6.15274310111999511719e-02) (210, -1.49645078927278518677e-02) (211, 3.97758856415748596191e-02) (212, 1.07373651117086410522e-02) (213, 5.19704027101397514343e-03) (214, -1.81598886847496032715e-02) (215, 4.30752104148268699646e-03) (216, -8.83975923061370849609e-02) (217, 8.49931091070175170898e-02) (218, 3.95015478134155273438e-02) (219, 7.98879936337471008301e-02) (220, -7.88123682141304016113e-02) (221, -1.39657258987426757813e-01) (222, -8.43283683061599731445e-02) (223, -8.15373510122299194336e-02) (224, -5.59670617803931236267e-03) (225, 5.46181127429008483887e-02) (226, -8.56526419520378112793e-02) (227, -4.62769642472267150879e-02) (228, -1.30047962069511413574e-01) (229, -7.79355540871620178223e-02) (230, 4.29374203085899353027e-02) (231, 6.95384502410888671875e-01) (232, 6.50121942162513732910e-02) (233, 2.62443106621503829956e-02) (234, 5.45023158192634582520e-02) (235, -2.67722588032484054565e-02) (236, 2.72375214844942092896e-02) (237, -8.55430066585540771484e-02) (238, 1.90769016742706298828e-01) (239, 6.25532492995262145996e-02) (240, 2.61123050004243850708e-02) (241, -4.02320884168148040771e-02) (242, -8.09546858072280883789e-02) (243, 1.15911718457937240601e-02) (244, -2.15821154415607452393e-02) (245, 2.05743797123432159424e-02) (246, 8.80000069737434387207e-02) (247, 4.03137385845184326172e-01) (248, 1.93008020520210266113e-01) (249, 1.20974324643611907959e-01) (250, 1.18053428828716278076e-01) (251, 1.21520228683948516846e-01) (252, 2.29075737297534942627e-02) (253, 1.05209536850452423096e-02) (254, 1.49048924446105957031e-01) (255, 3.95064711570739746094e-01) (256, 1.43989222124218940735e-02) (0, -5.64971268177032470703e-02) (1, -1.06265984475612640381e-01) (2, -2.91849933564662933350e-02) (3, -8.07790202088654041290e-04) (4, 4.26189154386520385742e-02) (5, 1.11745828762650489807e-02) (6, -1.45754471421241760254e-01) (7, -5.07600940763950347900e-02) (8, -9.39224585890769958496e-02) (9, -1.54807907529175281525e-03) (10, 4.77702654898166656494e-02) (11, 2.70122271031141281128e-02) (12, 1.13872429355978965759e-02) (13, 4.54641170799732208252e-02) (14, 6.53716269880533218384e-04) (15, -5.84031455218791961670e-02) (16, -8.71180817484855651855e-02) (17, -1.93526417016983032227e-01) (18, -6.29175528883934020996e-02) (19, -1.40395104885101318359e-01) (20, -4.55569522455334663391e-03) (21, -1.47125929594039916992e-01) (22, -1.29771932959556579590e-01) (23, -1.29562944173812866211e-01) (24, -6.17236122488975524902e-02) (25, -4.45633158087730407715e-02) (26, -1.45834922790527343750e-01) (27, -8.32644253969192504883e-02) (28, -8.00083875656127929688e-02) (29, 1.35214934125542640686e-02) (30, -7.08659812808036804199e-02) (31, 2.34321039170026779175e-02) (32, 2.30070464313030242920e-02) (33, -2.17193569988012313843e-02) (34, -3.42873553745448589325e-03) (35, -1.03020623326301574707e-01) (36, -5.89894503355026245117e-02) (37, 3.30680496990680694580e-02) (38, 2.04291325062513351440e-02) (39, -8.51803421974182128906e-02) (40, -7.45649784803390502930e-02) (41, -3.42788510024547576904e-02) (42, -1.49018779397010803223e-01) (43, 1.30252182483673095703e-01) (44, 5.50563894212245941162e-02) (45, 5.39423674345016479492e-02) (46, -1.30920320749282836914e-01) (47, 1.47478552535176277161e-02) (48, 6.15673139691352844238e-02) (49, 7.27972993627190589905e-03) (50, 1.09333544969558715820e-01) (51, 1.09183534979820251465e-01) (52, 4.02228645980358123779e-02) (53, 7.94884562492370605469e-02) (54, -1.63936898112297058105e-01) (55, -5.37160187959671020508e-02) (56, 5.84530457854270935059e-02) (57, -1.06366343796253204346e-01) (58, 5.21952100098133087158e-03) (59, 1.24928601086139678955e-01) (60, 3.72724421322345733643e-02) (61, 4.90969046950340270996e-02) (62, 4.35072518885135650635e-02) (63, -3.09771038591861724854e-02) (64, 6.72127902507781982422e-02) (65, 1.45970415323972702026e-02) (66, -1.35035872459411621094e-01) (67, -1.22389107942581176758e-01) (68, -1.61803029477596282959e-02) (69, 1.66599869728088378906e-01) (70, -7.80268758535385131836e-02) (71, -1.50555208325386047363e-01) (72, 2.50301025807857513428e-02) (73, -3.80176827311515808105e-02) (74, -9.53538566827774047852e-02) (75, 3.39434772729873657227e-01) (76, 3.15162956714630126953e-01) (77, -5.28112128376960754395e-02) (78, -1.30664244294166564941e-01) (79, -6.78714737296104431152e-02) (80, -1.13905519247055053711e-01) (81, -2.60475315153598785400e-02) (82, 1.96449384093284606934e-02) (83, 3.65950137376785278320e-01) (84, 4.29785341024398803711e-01) (85, -2.48892568051815032959e-02) (86, -1.28615066409111022949e-01) (87, 1.94895267486572265625e-01) (88, -2.52125114202499389648e-01) (89, -1.56578063964843750000e-01) (90, 3.27838920056819915771e-02) (91, 2.84777879714965820313e-01) (92, 3.35199385881423950195e-01) (93, 4.54132184386253356934e-02) (94, 6.28818348050117492676e-02) (95, 9.97593402862548828125e-02) (96, -5.34861862659454345703e-01) (97, -1.53617024421691894531e-01) (98, -6.92502185702323913574e-02) (99, 4.26762878894805908203e-01) (100, 3.31085652112960815430e-01) (101, -1.30318850278854370117e-01) (102, 7.09572713822126388550e-03) (103, 1.24711066484451293945e-01) (104, -1.21116244792938232422e+00) (105, 1.24948196113109588623e-01) (106, -3.55902053415775299072e-02) (107, 2.92091220617294311523e-01) (108, 4.25393640995025634766e-01) (109, -2.19226498156785964966e-02) (110, 9.33021157979965209961e-02) (111, 7.11394846439361572266e-02) (112, -4.25125598907470703125e-01) (113, 2.80352309346199035645e-02) (114, -1.59402564167976379395e-02) (115, 3.12484830617904663086e-01) (116, 6.31009647622704505920e-03) (117, -4.02256287634372711182e-02) (118, 8.35704877972602844238e-02) (119, 8.41291174292564392090e-02) (120, -3.61286520957946777344e-01) (121, -3.06042078882455825806e-02) (122, 1.57667770981788635254e-01) (123, -3.70233692228794097900e-02) (124, 8.74288901686668395996e-02) (125, -1.13354884088039398193e-02) (126, 1.85640126466751098633e-01) (127, 1.37609392404556274414e-01) (128, -1.40110403299331665039e-01) (129, -6.60941451787948608398e-02) (130, 3.49441356956958770752e-02) (131, 4.15741026401519775391e-01) (132, 2.63855338096618652344e-01) (133, -8.60044583678245544434e-02) (134, 7.51230418682098388672e-02) (135, 1.34010892361402511597e-02) (136, 2.09944956004619598389e-02) (137, 1.61396205425262451172e-01) (138, 2.10380516946315765381e-02) (139, 2.63042718172073364258e-01) (140, 4.27205860614776611328e-01) (141, -1.68285593390464782715e-01) (142, 1.46431595087051391602e-01) (143, -4.24211584031581878662e-02) (144, -1.13017037510871887207e-01) (145, 1.15490816533565521240e-01) (146, -4.67176102101802825928e-02) (147, 1.16260804235935211182e-01) (148, 2.11815282702445983887e-01) (149, -7.07293599843978881836e-02) (150, 7.68621563911437988281e-02) (151, 1.76380887627601623535e-01) (152, -1.79369479417800903320e-01) (153, -1.54126241803169250488e-01) (154, -2.31871038675308227539e-01) (155, 3.85259985923767089844e-01) (156, 3.58431249856948852539e-01) (157, -1.10112793743610382080e-01) (158, -3.74862528406083583832e-03) (159, 1.70645445585250854492e-01) (160, -4.51912373304367065430e-01) (161, -1.77600905299186706543e-01) (162, -4.54508811235427856445e-02) (163, 3.05649220943450927734e-01) (164, 3.34275454282760620117e-01) (165, -1.17692001163959503174e-01) (166, 1.35277152061462402344e-01) (167, 2.83031053841114044189e-02) (168, -1.32818207144737243652e-01) (169, -2.84931492060422897339e-02) (170, -1.72684658318758010864e-02) (171, 2.84181565046310424805e-01) (172, 3.71350198984146118164e-01) (173, -1.77581742405891418457e-01) (174, -1.37918114662170410156e-01) (175, 1.43780529499053955078e-01) (176, -1.31208866834640502930e-01) (177, -1.05968728661537170410e-01) (178, -3.63383889198303222656e-02) (179, 3.41006964445114135742e-01) (180, -7.13355094194412231445e-03) (181, -1.77195578813552856445e-01) (182, -4.72314767539501190186e-02) (183, 7.91279375553131103516e-02) (184, 1.71928144991397857666e-02) (185, -7.17167332768440246582e-02) (186, 3.06742172688245773315e-03) (187, 4.82428669929504394531e-01) (188, 3.80105137825012207031e-01) (189, -1.11661031842231750488e-01) (190, -1.08841456472873687744e-01) (191, -1.29466624930500984192e-02) (192, -1.13711118698120117188e-01) (193, -3.68844531476497650146e-02) (194, -7.86618962883949279785e-02) (195, 3.99366527795791625977e-01) (196, 1.32802128791809082031e-01) (197, 6.81874454021453857422e-02) (198, -3.44279482960700988770e-02) (199, -1.55366659164428710938e-01) (200, 3.94055657088756561279e-02) (201, -6.75816312432289123535e-02) (202, -1.14116385579109191895e-01) (203, 7.35211521387100219727e-02) (204, 3.57922427356243133545e-02) (205, 3.78818437457084655762e-02) (206, 5.71639612317085266113e-02) (207, 1.96489896625280380249e-02) (208, -4.24872003495693206787e-02) (209, -1.08846940100193023682e-01) (210, -6.16118125617504119873e-02) (211, -3.01418416202068328857e-02) (212, -9.93613004684448242188e-02) (213, -9.37516987323760986328e-02) (214, -1.34237572550773620605e-01) (215, -8.44022110104560852051e-02) (216, -6.29009753465652465820e-02) (217, -1.20944254100322723389e-01) (218, -6.25020861625671386719e-02) (219, -6.58512935042381286621e-02) (220, 1.74663607031106948853e-02) (221, -1.33398830890655517578e-01) (222, -1.16478182375431060791e-01) (223, 1.72475166618824005127e-02) (224, -1.67421415448188781738e-01) (225, -8.95063355565071105957e-02) (226, -5.41364997625350952148e-02) (227, -2.16218549758195877075e-02) (228, -1.36828139424324035645e-01) (229, 7.00429603457450866699e-02) (230, -1.83852627873420715332e-01) (231, -7.20278695225715637207e-02) (232, -1.16648435592651367188e-01) (233, -1.52695342898368835449e-01) (234, -7.04387351870536804199e-02) (235, -9.89090353250503540039e-02) (236, -1.52122557163238525391e-01) (237, -4.88953515887260437012e-02) (238, -6.36522173881530761719e-02) (239, 1.56445298343896865845e-02) (240, -2.18604151159524917603e-02) (241, -1.93530634045600891113e-01) (242, -1.42959654331207275391e-01) (243, -1.44862398505210876465e-01) (244, -1.04341730475425720215e-01) (245, -1.82655408978462219238e-01) (246, -1.29293039441108703613e-01) (247, -8.54881927371025085449e-02) (248, -1.74794733524322509766e-01) (249, -2.65286490321159362793e-02) (250, -1.20144225656986236572e-02) (251, -1.48860931396484375000e-01) (252, 1.37727027758955955505e-02) (253, -1.97823476046323776245e-02) (254, -1.07187144458293914795e-01) (255, -4.21603918075561523438e-02) (256, -1.35263055562973022461e-01) (0, -2.75681354105472564697e-02) (1, 1.80658400058746337891e-01) (2, 7.34623149037361145020e-02) (3, -1.63101889193058013916e-02) (4, 9.36208069324493408203e-02) (5, 8.70216861367225646973e-02) (6, -1.69146806001663208008e-01) (7, -6.84777200222015380859e-02) (8, -1.62600249052047729492e-01) (9, 2.25784227252006530762e-01) (10, 1.59645184874534606934e-01) (11, 1.19298279285430908203e-01) (12, 1.85703247785568237305e-01) (13, 5.07246144115924835205e-02) (14, 3.64031828939914703369e-02) (15, 1.35420545935630798340e-01) (16, 9.79389026761054992676e-02) (17, 1.09878845512866973877e-01) (18, -4.86379340291023254395e-02) (19, -8.49660336971282958984e-02) (20, -1.51994541287422180176e-01) (21, -6.83755949139595031738e-02) (22, -1.84143092483282089233e-02) (23, 5.35982064902782440186e-02) (24, 1.13061584532260894775e-01) (25, 9.25617367029190063477e-02) (26, 2.05605164170265197754e-01) (27, 1.18443153798580169678e-01) (28, 1.43826335668563842773e-01) (29, 1.47803887724876403809e-01) (30, 9.54245924949645996094e-02) (31, 7.20024853944778442383e-02) (32, 4.78596650063991546631e-02) (33, 2.08968937397003173828e-01) (34, 2.20170348882675170898e-01) (35, 2.12223514914512634277e-01) (36, 5.69741241633892059326e-02) (37, 2.20573872327804565430e-01) (38, 5.64590208232402801514e-02) (39, 1.86950057744979858398e-01) (40, 7.61985704302787780762e-02) (41, -6.25455230474472045898e-02) (42, -3.30733001232147216797e-01) (43, 3.06394184008240699768e-03) (44, 1.34396553039550781250e-01) (45, 4.27065007388591766357e-02) (46, 1.62603497505187988281e-01) (47, 4.23647416755557060242e-03) (48, 3.53796958923339843750e-01) (49, 9.99518334865570068359e-02) (50, 1.70124217867851257324e-01) (51, 1.50585204362869262695e-01) (52, 3.64149630069732666016e-01) (53, 2.09299519658088684082e-01) (54, -2.30954252183437347412e-02) (55, 7.87561610341072082520e-02) (56, 1.95704668760299682617e-01) (57, 1.45575866103172302246e-01) (58, 6.32039010524749755859e-02) (59, 1.61353498697280883789e-01) (60, 1.21100671589374542236e-01) (61, 2.46882781386375427246e-01) (62, 4.09011356532573699951e-02) (63, 1.74209460616111755371e-01) (64, 2.64565557241439819336e-01) (65, -8.06716755032539367676e-02) (66, 8.35979282855987548828e-02) (67, 1.63779795169830322266e-01) (68, 2.82905966043472290039e-01) (69, 9.84078869223594665527e-02) (70, 8.28599855303764343262e-02) (71, 1.21885478496551513672e-01) (72, 3.01348239183425903320e-01) (73, 4.41850870847702026367e-02) (74, 1.22742928564548492432e-01) (75, 4.84049022197723388672e-02) (76, 1.05546116828918457031e-01) (77, 2.88328140974044799805e-01) (78, 1.09374485909938812256e-01) (79, -5.01153767108917236328e-01) (80, 2.69200652837753295898e-01) (81, -5.71021363139152526855e-02) (82, 1.09013877809047698975e-01) (83, 3.36937576532363891602e-01) (84, 2.21453800797462463379e-01) (85, 2.04888269305229187012e-01) (86, 1.07511267066001892090e-01) (87, 6.36829957365989685059e-02) (88, -1.98080062866210937500e-01) (89, 2.50143688172101974487e-02) (90, 6.03161044418811798096e-02) (91, 1.86480492353439331055e-01) (92, 1.92954137921333312988e-01) (93, 8.96065384149551391602e-02) (94, 1.19150951504707336426e-01) (95, 6.03287160396575927734e-01) (96, 2.27312043309211730957e-01) (97, -3.15481275320053100586e-02) (98, 2.18683741986751556396e-02) (99, 2.86145955324172973633e-01) (100, 2.75316059589385986328e-01) (101, 2.06582427024841308594e-01) (102, 1.89293608069419860840e-01) (103, -2.36585125327110290527e-01) (104, 9.40927386283874511719e-01) (105, 1.02109827101230621338e-01) (106, 3.61756794154644012451e-02) (107, 6.84892460703849792480e-02) (108, 2.18378752470016479492e-01) (109, 2.35690087080001831055e-01) (110, 2.02007353305816650391e-01) (111, -4.25885349512100219727e-01) (112, 3.48601877689361572266e-01) (113, 3.96765917539596557617e-02) (114, 1.47154226899147033691e-01) (115, 1.30007937550544738770e-01) (116, 8.26449617743492126465e-02) (117, 1.56649485230445861816e-01) (118, 1.59498825669288635254e-01) (119, -1.24313339591026306152e-01) (120, 2.06067323684692382813e-01) (121, 3.26979756355285644531e-02) (122, 1.61715477705001831055e-01) (123, 2.32073217630386352539e-02) (124, 2.40354850888252258301e-01) (125, 6.29160851240158081055e-02) (126, 1.88260048627853393555e-01) (127, -4.79273796081542968750e-01) (128, 2.60677605867385864258e-01) (129, -3.77892032265663146973e-02) (130, 2.09923181682825088501e-02) (131, 2.62948811054229736328e-01) (132, 2.59644716978073120117e-01) (133, 1.08455061912536621094e-01) (134, 1.83705925941467285156e-01) (135, -5.96656315028667449951e-02) (136, 3.04012745618820190430e-01) (137, 1.03249109815806150436e-03) (138, 3.75498607754707336426e-02) (139, 1.55947655439376831055e-01) (140, 2.24230751395225524902e-01) (141, 1.26866787672042846680e-01) (142, 1.91441267728805541992e-01) (143, -1.44748318195343017578e+00) (144, 1.72791719436645507813e-01) (145, 9.72769856452941894531e-02) (146, 8.85445550084114074707e-02) (147, 1.71093136072158813477e-01) (148, 1.82714670896530151367e-01) (149, 1.55662849545478820801e-01) (150, 9.79870632290840148926e-02) (151, -4.35835331678390502930e-01) (152, 3.21390599012374877930e-01) (153, -5.15918321907520294189e-02) (154, -2.33224064111709594727e-01) (155, 2.14752942323684692383e-01) (156, 2.56457209587097167969e-01) (157, 1.92491710186004638672e-01) (158, 1.14021457731723785400e-01) (159, -3.36499482393264770508e-01) (160, 4.60717976093292236328e-01) (161, 6.15350082516670227051e-02) (162, 1.91247016191482543945e-01) (163, 1.44375026226043701172e-01) (164, 3.27642351388931274414e-01) (165, -1.72780096530914306641e-01) (166, 1.96165397763252258301e-01) (167, 1.44659146666526794434e-01) (168, 4.13953006267547607422e-01) (169, -1.86929758638143539429e-03) (170, 1.72397702932357788086e-01) (171, 2.73911893367767333984e-01) (172, 3.78340810537338256836e-01) (173, 9.07646790146827697754e-02) (174, 1.94632243365049362183e-02) (175, 1.91117987036705017090e-01) (176, 1.49510288611054420471e-02) (177, -1.30698438733816146851e-02) (178, 1.98824107646942138672e-01) (179, 2.62150228023529052734e-01) (180, 2.46372103691101074219e-01) (181, 4.60521653294563293457e-02) (182, 1.28709837794303894043e-01) (183, 1.34880125522613525391e-01) (184, -4.21291254460811614990e-02) (185, 4.59137141704559326172e-01) (186, 2.11962051689624786377e-02) (187, 3.04253339767456054688e-01) (188, 3.70393365621566772461e-01) (189, 6.80196285247802734375e-02) (190, 7.36811831593513488770e-02) (191, -2.55757838487625122070e-01) (192, 6.77017048001289367676e-02) (193, -8.32394883036613464355e-03) (194, -1.18964940309524536133e-01) (195, 1.20651394128799438477e-01) (196, 2.64740556478500366211e-01) (197, 2.27514013648033142090e-01) (198, 4.25269603729248046875e-02) (199, -5.57579398155212402344e-02) (200, 1.68292418122291564941e-01) (201, 2.85783540457487106323e-02) (202, 1.20657123625278472900e-01) (203, 1.09587423503398895264e-01) (204, 1.41225993633270263672e-01) (205, 5.13075813651084899902e-02) (206, 1.93058196455240249634e-02) (207, 4.80240993201732635498e-02) (208, 2.15264156460762023926e-01) (209, 1.78305253386497497559e-01) (210, 2.68759220838546752930e-01) (211, 1.70447438955307006836e-01) (212, 2.33467355370521545410e-01) (213, 2.04503163695335388184e-01) (214, 4.84814750961959362030e-04) (215, 7.53263160586357116699e-02) (216, 1.26476198434829711914e-01) (217, 1.26835212111473083496e-01) (218, 1.42179518938064575195e-01) (219, 2.76579231023788452148e-01) (220, 1.57551437616348266602e-01) (221, 1.09416328370571136475e-01) (222, 1.52322277426719665527e-01) (223, 1.57574161887168884277e-01) (224, -1.82116076350212097168e-01) (225, 2.01060235500335693359e-01) (226, 8.39655920863151550293e-02) (227, 2.12806686758995056152e-01) (228, 1.57824650406837463379e-01) (229, 2.03540667891502380371e-01) (230, 6.05248995125293731689e-02) (231, -2.46244266629219055176e-01) (232, -5.05734123289585113525e-02) (233, 1.99590072035789489746e-01) (234, 1.58232390880584716797e-01) (235, 1.41786802560091018677e-02) (236, 2.92125046253204345703e-02) (237, 7.39336833357810974121e-02) (238, -2.07411944866180419922e-01) (239, -1.64237648248672485352e-01) (240, 1.08704581856727600098e-01) (241, -4.54633906483650207520e-02) (242, 1.48926764726638793945e-01) (243, 1.20359763503074645996e-01) (244, 2.00033962726593017578e-01) (245, -5.48145920038223266602e-02) (246, -1.80167824029922485352e-01) (247, -1.88050925731658935547e-01) (248, -2.33229905366897583008e-01) (249, -9.05838534235954284668e-02) (250, -1.54506057500839233398e-01) (251, -1.08790695667266845703e-01) (252, -1.32296547293663024902e-01) (253, -2.12745741009712219238e-01) (254, -8.03632661700248718262e-02) (255, -2.42717295885086059570e-01) (256, -1.49271801114082336426e-01) (0, -1.88590064644813537598e-01) (1, -1.32136464118957519531e-01) (2, -8.93147289752960205078e-02) (3, -1.43245249986648559570e-01) (4, -6.22037425637245178223e-02) (5, -1.31611227989196777344e-01) (6, -7.96675160527229309082e-02) (7, -1.07713155448436737061e-01) (8, -1.32686704397201538086e-01) (9, 9.74761545658111572266e-02) (10, -1.29570558667182922363e-01) (11, -1.06270298361778259277e-01) (12, 2.04805992543697357178e-02) (13, 3.88045087456703186035e-02) (14, -7.56302326917648315430e-02) (15, -1.53364151716232299805e-01) (16, -8.71505141258239746094e-02) (17, -1.14726215600967407227e-01) (18, -2.22497224807739257813e-01) (19, -2.12261617183685302734e-01) (20, -1.17468304932117462158e-01) (21, -2.01408952474594116211e-01) (22, -1.52593448758125305176e-01) (23, -9.49638411402702331543e-02) (24, 1.65199607610702514648e-01) (25, 1.28827676177024841309e-01) (26, 1.35072126984596252441e-01) (27, 1.27159282565116882324e-01) (28, 1.29420291632413864136e-02) (29, 1.34199187159538269043e-01) (30, 2.48375744558870792389e-03) (31, -5.96912465989589691162e-02) (32, 1.60808011889457702637e-01) (33, 4.00860421359539031982e-02) (34, 1.31643131375312805176e-01) (35, 8.75717476010322570801e-02) (36, 4.38320115208625793457e-02) (37, 3.19726727902889251709e-02) (38, 7.42975696921348571777e-02) (39, 2.55618635565042495728e-02) (40, 2.30769306421279907227e-01) (41, -2.11787849664688110352e-01) (42, -2.47598335146903991699e-01) (43, -5.64192235469818115234e-03) (44, 1.44517853856086730957e-01) (45, 2.34997980296611785889e-02) (46, 1.21882788836956024170e-01) (47, 8.09022709727287292480e-02) (48, 2.57649242877960205078e-01) (49, 1.02518729865550994873e-01) (50, 1.78850293159484863281e-01) (51, 1.08167544007301330566e-01) (52, 1.36299073696136474609e-01) (53, -2.51589298248291015625e-01) (54, -1.41557586193084716797e+00) (55, -3.27766947448253631592e-02) (56, 4.78188425302505493164e-01) (57, 1.92690253257751464844e-01) (58, 2.03475818037986755371e-01) (59, 2.21849650144577026367e-01) (60, 6.81510418653488159180e-02) (61, 2.08966344594955444336e-01) (62, 3.84267256595194339752e-03) (63, 7.72199928760528564453e-02) (64, 4.77101862430572509766e-01) (65, 1.25951534137129783630e-02) (66, 4.52573336660861968994e-02) (67, 1.28411948680877685547e-01) (68, 1.52279481291770935059e-01) (69, 1.06466233730316162109e-01) (70, 1.33547350764274597168e-01) (71, 9.87382009625434875488e-02) (72, 9.35728013515472412109e-01) (73, 1.22360922396183013916e-01) (74, 1.16277031600475311279e-01) (75, 1.86759382486343383789e-01) (76, 1.53578087687492370605e-01) (77, 2.08351030945777893066e-01) (78, 5.59883639216423034668e-02) (79, -5.71931064128875732422e-01) (80, 5.14079511165618896484e-01) (81, -3.44774842262268066406e-01) (82, 1.02200724184513092041e-01) (83, 2.73857414722442626953e-01) (84, 1.20357535779476165771e-01) (85, 1.67443245649337768555e-01) (86, 1.42810821533203125000e-01) (87, 5.88174536824226379395e-02) (88, 2.60428738594055175781e+00) (89, 3.61854098737239837646e-02) (90, 1.83593720197677612305e-01) (91, 1.83130562305450439453e-01) (92, 2.08907634019851684570e-01) (93, 3.08831799775362014771e-02) (94, -1.30938994698226451874e-03) (95, 1.69385564327239990234e+00) (96, 4.72066164016723632813e-01) (97, -1.32863068580627441406e+00) (98, 3.77609767019748687744e-02) (99, 2.10089758038520812988e-01) (100, 3.24896633625030517578e-01) (101, 4.99256588518619537354e-02) (102, 7.03008249402046203613e-02) (103, -2.63564020395278930664e-01) (104, 4.45018959045410156250e+00) (105, -2.29947119951248168945e-01) (106, 1.31752192974090576172e-01) (107, 2.80927598476409912109e-01) (108, 3.36908429861068725586e-01) (109, 2.99910865724086761475e-02) (110, 1.92183479666709899902e-01) (111, -4.55824613571166992188e-01) (112, 9.02659446001052856445e-02) (113, 1.05126917362213134766e-01) (114, 2.00002431869506835938e-01) (115, 1.76807552576065063477e-01) (116, 1.05532318353652954102e-01) (117, 3.07668163441121578217e-03) (118, 7.30889141559600830078e-02) (119, -3.62361252307891845703e-01) (120, 1.95830121636390686035e-01) (121, 3.99497151374816894531e-02) (122, 1.41564771533012390137e-01) (123, 8.69948789477348327637e-02) (124, 1.86779290437698364258e-01) (125, 7.64786545187234878540e-03) (126, 1.02781057357788085938e-01) (127, -2.58073759078979492188e+00) (128, 8.39675426483154296875e-01) (129, 3.04590202867984771729e-02) (130, 4.46016341447830200195e-02) (131, 2.80255913734436035156e-01) (132, 1.31133005023002624512e-01) (133, -1.02422393858432769775e-01) (134, 1.27674549818038940430e-01) (135, -6.55281543731689453125e-01) (136, 2.63426810503005981445e-01) (137, 1.11576229333877563477e-01) (138, 7.94915258884429931641e-02) (139, 9.20309647917747497559e-02) (140, 2.33136892318725585938e-01) (141, 1.25417634844779968262e-01) (142, 1.76540687680244445801e-01) (143, -1.77691197395324707031e+00) (144, 3.43432188034057617188e-01) (145, 7.06312283873558044434e-02) (146, 6.31253942847251892090e-02) (147, 1.38818502426147460938e-01) (148, 3.00018966197967529297e-01) (149, -7.76322126388549804688e-01) (150, 1.10306233167648315430e-01) (151, -5.77988564968109130859e-01) (152, 5.81498146057128906250e-01) (153, -4.41798791289329528809e-02) (154, 5.24589307606220245361e-02) (155, 1.62888124585151672363e-01) (156, 2.92050033807754516602e-01) (157, -1.99805483222007751465e-01) (158, 1.53026953339576721191e-01) (159, -3.44885557889938354492e-01) (160, 2.74430483579635620117e-01) (161, 9.15304720401763916016e-02) (162, 1.10989086329936981201e-01) (163, 3.28770250082015991211e-01) (164, 2.18289941549301147461e-01) (165, -1.75774261355400085449e-01) (166, 6.36413646861910820007e-03) (167, 7.32557997107505798340e-02) (168, -2.33932614326477050781e-01) (169, -4.17459942400455474854e-02) (170, 1.45865827798843383789e-01) (171, 2.19990432262420654297e-01) (172, 1.86963990330696105957e-01) (173, 5.97774460911750793457e-02) (174, 2.11846437305212020874e-02) (175, 1.81676119565963745117e-01) (176, -1.26629183068871498108e-02) (177, -8.68602022528648376465e-02) (178, 1.96466580033302307129e-01) (179, 2.48314917087554931641e-01) (180, 2.78134625405073165894e-02) (181, -2.02077463269233703613e-01) (182, -1.55167039483785629272e-02) (183, -5.36533236503601074219e-01) (184, -1.79312109947204589844e-01) (185, -6.88931271433830261230e-02) (186, -1.32047146558761596680e-01) (187, 3.18425476551055908203e-01) (188, 1.41668841242790222168e-01) (189, -1.80257332976907491684e-03) (190, -1.01970329880714416504e-01) (191, -5.97636401653289794922e-01) (192, 7.50778913497924804688e-02) (193, 7.64119401574134826660e-02) (194, 4.89883907139301300049e-02) (195, 2.34422758221626281738e-01) (196, 8.46786424517631530762e-02) (197, 5.45090362429618835449e-02) (198, -4.61692810058593750000e-02) (199, -1.93699359893798828125e+00) (200, 1.63717180490493774414e-01) (201, 3.03458124399185180664e-02) (202, -6.04643765836954116821e-03) (203, 1.35710164904594421387e-01) (204, 1.41837388277053833008e-01) (205, 1.59852966666221618652e-01) (206, 4.14440892636775970459e-02) (207, 1.01054124534130096436e-01) (208, 1.66838839650154113770e-01) (209, 2.14669913053512573242e-01) (210, 1.78785324096679687500e-01) (211, 2.08026170730590820313e-01) (212, 1.06236390769481658936e-01) (213, 2.31956005096435546875e-01) (214, 1.80423974990844726563e-01) (215, 1.50290697813034057617e-01) (216, 1.93522706627845764160e-01) (217, 1.99253693222999572754e-01) (218, 1.92906722426414489746e-01) (219, 1.08427107334136962891e-01) (220, 9.50132012367248535156e-02) (221, 1.03080853819847106934e-01) (222, -1.07565261423587799072e-02) (223, 1.79590240120887756348e-01) (224, -2.32593774795532226563e-01) (225, 1.57065466046333312988e-01) (226, 1.12672984600067138672e-01) (227, 1.36710196733474731445e-01) (228, -7.88651988841593265533e-04) (229, 1.60746902227401733398e-01) (230, 9.10410881042480468750e-02) (231, -4.36102628707885742188e-01) (232, -1.67139649391174316406e-01) (233, -1.84231773018836975098e-02) (234, 6.81745335459709167480e-02) (235, 5.07856197655200958252e-02) (236, 8.37713330984115600586e-02) (237, 2.17052865773439407349e-02) (238, -2.23720982670783996582e-01) (239, -1.55959635972976684570e-01) (240, -1.85440093278884887695e-01) (241, -2.39627122879028320313e-01) (242, -6.07786551117897033691e-02) (243, 5.50730247050523757935e-03) (244, 5.30437901616096496582e-02) (245, -6.59691989421844482422e-02) (246, -1.32006764411926269531e-01) (247, -1.48704975843429565430e-01) (248, -1.23671516776084899902e-01) (249, -2.65939056873321533203e-01) (250, -1.57155111432075500488e-01) (251, -1.67402908205986022949e-01) (252, -2.68651872873306274414e-01) (253, -2.99353212118148803711e-01) (254, -2.75492936372756958008e-01) (255, -2.60398924350738525391e-01) (256, -2.61717319488525390625e-01) (0, 2.86408782005310058594e-01) (1, 3.35357189178466796875e-01) (2, 3.63134294748306274414e-01) (3, 3.49922686815261840820e-01) (4, 2.86968559026718139648e-01) (5, 2.55688786506652832031e-01) (6, 2.64310330152511596680e-01) (7, 3.16715121269226074219e-01) (8, 2.27042391896247863770e-01) (9, 3.75417202711105346680e-01) (10, 2.00781702995300292969e-01) (11, 3.59008312225341796875e-01) (12, 3.04186552762985229492e-01) (13, 2.18909889459609985352e-01) (14, 2.25392282009124755859e-01) (15, 2.04639881849288940430e-01) (16, 3.30169409513473510742e-01) (17, 3.70300024747848510742e-01) (18, 3.74008923768997192383e-01) (19, 3.54795098304748535156e-01) (20, 4.43540155887603759766e-01) (21, 3.04072529077529907227e-01) (22, 2.69693285226821899414e-01) (23, 3.84510964155197143555e-01) (24, 3.90629261732101440430e-01) (25, 3.73171091079711914063e-01) (26, 2.78944998979568481445e-01) (27, 3.08165699243545532227e-01) (28, 3.41039478778839111328e-01) (29, 3.46825987100601196289e-01) (30, 3.26478004455566406250e-01) (31, 3.18369239568710327148e-01) (32, 2.55507975816726684570e-01) (33, 3.45682501792907714844e-01) (34, 2.30480477213859558105e-01) (35, 2.86601066589355468750e-01) (36, 4.03876721858978271484e-01) (37, 2.61606723070144653320e-01) (38, 1.76555767655372619629e-01) (39, 2.82024741172790527344e-01) (40, 3.86559575796127319336e-01) (41, 4.34567838907241821289e-01) (42, 3.16571742296218872070e-01) (43, 2.33385220170021057129e-01) (44, 1.25460669398307800293e-01) (45, 1.17899872362613677979e-01) (46, 2.17545792460441589355e-01) (47, 2.75093436241149902344e-01) (48, 3.89639616012573242188e-01) (49, 4.64644342660903930664e-01) (50, 3.01837533712387084961e-01) (51, 1.52521744370460510254e-01) (52, 2.35775649547576904297e-01) (53, 1.00514121353626251221e-01) (54, 3.74147713184356689453e-01) (55, 3.57045531272888183594e-01) (56, 2.78069019317626953125e-01) (57, 2.66457945108413696289e-01) (58, 3.81223082542419433594e-01) (59, 2.98201858997344970703e-01) (60, 2.48144790530204772949e-01) (61, 1.77318215370178222656e-01) (62, 1.99265971779823303223e-01) (63, 3.29981565475463867188e-01) (64, 2.99126148223876953125e-01) (65, 3.68673384189605712891e-01) (66, 2.44551479816436767578e-01) (67, 2.06824451684951782227e-01) (68, 2.04510539770126342773e-01) (69, 2.39297896623611450195e-01) (70, 3.84719401597976684570e-01) (71, 4.11613047122955322266e-01) (72, 2.46827200055122375488e-01) (73, 2.64578729867935180664e-01) (74, 2.54175931215286254883e-01) (75, 8.71698781847953796387e-02) (76, 1.25365301966667175293e-01) (77, 2.09105119109153747559e-01) (78, 2.95858532190322875977e-01) (79, 4.97985839843750000000e-01) (80, 3.65681648254394531250e-01) (81, 3.42612147331237792969e-01) (82, 1.88546612858772277832e-01) (83, 2.53421604633331298828e-01) (84, 1.26086533069610595703e-01) (85, 1.67670458555221557617e-01) (86, 3.80010843276977539063e-01) (87, 1.15821993350982666016e+00) (88, 7.62490928173065185547e-01) (89, 4.66854751110076904297e-01) (90, 1.54243201017379760742e-01) (91, 1.35424315929412841797e-01) (92, 3.86067867279052734375e-01) (93, 4.59907650947570800781e-01) (94, 3.18423390388488769531e-01) (95, 8.56667220592498779297e-01) (96, 5.38977444171905517578e-01) (97, 3.06215733289718627930e-01) (98, 2.17191755771636962891e-01) (99, 1.69814839959144592285e-01) (100, 2.27456122636795043945e-01) (101, 3.36285591125488281250e-01) (102, 2.87430077791213989258e-01) (103, 4.68995869159698486328e-01) (104, 2.63588279485702514648e-01) (105, 3.07002961635589599609e-01) (106, 2.09129616618156433105e-01) (107, 2.04267024993896484375e-01) (108, 1.76722288131713867188e-01) (109, 3.65425318479537963867e-01) (110, 5.35387158393859863281e-01) (111, 4.79876846075057983398e-01) (112, 6.39101922512054443359e-01) (113, 2.83313423395156860352e-01) (114, 2.60190308094024658203e-01) (115, 1.82614341378211975098e-01) (116, 1.64054095745086669922e-01) (117, 3.89245867729187011719e-01) (118, 4.79741245508193969727e-01) (119, 4.57393139600753784180e-01) (120, 4.62234854698181152344e-01) (121, 2.33059808611869812012e-01) (122, 2.95905560255050659180e-01) (123, 1.68029770255088806152e-01) (124, 2.35136628150939941406e-01) (125, 2.15513661503791809082e-01) (126, 2.76605546474456787109e-01) (127, 5.41020750999450683594e-01) (128, 6.38000309467315673828e-01) (129, 3.58459740877151489258e-01) (130, 4.43096309900283813477e-01) (131, 1.84525057673454284668e-01) (132, 2.83042848110198974609e-01) (133, 2.54563122987747192383e-01) (134, 5.60982406139373779297e-01) (135, 3.72318536043167114258e-01) (136, 4.84148800373077392578e-01) (137, 2.94446766376495361328e-01) (138, 3.65995079278945922852e-01) (139, 2.60378032922744750977e-01) (140, 2.95898497104644775391e-01) (141, 2.12227180600166320801e-01) (142, 3.98504465818405151367e-01) (143, 1.16449451446533203125e+00) (144, 4.47867810726165771484e-01) (145, 2.70192354917526245117e-01) (146, 2.79035508632659912109e-01) (147, 2.83941328525543212891e-01) (148, 2.99092441797256469727e-01) (149, 2.62789338827133178711e-01) (150, 4.61832135915756225586e-01) (151, 4.54240292310714721680e-01) (152, 2.49912813305854797363e-01) (153, 4.09324735403060913086e-01) (154, 3.89475733041763305664e-01) (155, 1.35643228888511657715e-01) (156, 1.81243360042572021484e-01) (157, 2.93810904026031494141e-01) (158, 5.41532874107360839844e-01) (159, 5.87777078151702880859e-01) (160, 3.48566472530364990234e-01) (161, 4.22340571880340576172e-01) (162, 2.22677811980247497559e-01) (163, 2.36411884427070617676e-01) (164, 1.92836746573448181152e-01) (165, 2.78610527515411376953e-01) (166, 4.98579144477844238281e-01) (167, 4.63585436344146728516e-01) (168, 2.97710537910461425781e-01) (169, 2.71327286958694458008e-01) (170, 2.48870089650154113770e-01) (171, 2.62578845024108886719e-01) (172, 1.39036640524864196777e-01) (173, 2.50688493251800537109e-01) (174, 3.47765088081359863281e-01) (175, 3.74196708202362060547e-01) (176, 6.22496366500854492188e-01) (177, 2.94262140989303588867e-01) (178, 3.36787909269332885742e-01) (179, 2.08312183618545532227e-01) (180, 2.88122415542602539063e-01) (181, 3.90031963586807250977e-01) (182, 3.20709288120269775391e-01) (183, 4.45740669965744018555e-01) (184, 7.08475828170776367188e-01) (185, 6.37345194816589355469e-01) (186, 3.55217158794403076172e-01) (187, 8.42438042163848876953e-02) (188, 1.63471221923828125000e-01) (189, 3.24560284614562988281e-01) (190, 3.57128828763961791992e-01) (191, 6.60654485225677490234e-01) (192, 2.96238511800765991211e-01) (193, 2.46336564421653747559e-01) (194, 1.90075367689132690430e-01) (195, 8.66341739892959594727e-02) (196, 6.07812814414501190186e-02) (197, 2.11643025279045104980e-01) (198, 3.02668392658233642578e-01) (199, 5.42972028255462646484e-01) (200, 2.17714011669158935547e-01) (201, 3.73572885990142822266e-01) (202, 3.77411276102066040039e-01) (203, 1.87146738171577453613e-01) (204, 3.44068199396133422852e-01) (205, 3.67600560188293457031e-01) (206, 1.57019138336181640625e-01) (207, 2.38144800066947937012e-01) (208, 3.11085879802703857422e-01) (209, 8.14194753766059875488e-02) (210, 2.52372533082962036133e-01) (211, 2.33767762780189514160e-01) (212, 2.62301325798034667969e-01) (213, 1.88050538301467895508e-01) (214, 2.76098310947418212891e-01) (215, 2.16582924127578735352e-01) (216, 2.50777482986450195313e-01) (217, 1.24694876372814178467e-01) (218, 1.18827596306800842285e-01) (219, 2.12103530764579772949e-01) (220, 3.26589316129684448242e-01) (221, 3.04447054862976074219e-01) (222, 2.88584321737289428711e-01) (223, 3.93033593893051147461e-01) (224, 3.98702383041381835938e-01) (225, 2.58191347122192382813e-01) (226, 3.08997631072998046875e-01) (227, 3.48643600940704345703e-01) (228, 3.80694597959518432617e-01) (229, 2.75222957134246826172e-01) (230, 2.87249952554702758789e-01) (231, 2.60635703802108764648e-01) (232, 3.02729010581970214844e-01) (233, 4.09156620502471923828e-01) (234, 3.07399660348892211914e-01) (235, 3.50327968597412109375e-01) (236, 3.11780124902725219727e-01) (237, 3.90611946582794189453e-01) (238, 2.63338565826416015625e-01) (239, 4.02368605136871337891e-01) (240, 3.19649726152420043945e-01) (241, 3.13244163990020751953e-01) (242, 3.82557123899459838867e-01) (243, 3.43751668930053710938e-01) (244, 3.73813122510910034180e-01) (245, 3.69258821010589599609e-01) (246, 3.13458740711212158203e-01) (247, 3.06231945753097534180e-01) (248, 4.16770517826080322266e-01) (249, 4.42423582077026367188e-01) (250, 3.97471219301223754883e-01) (251, 3.50254416465759277344e-01) (252, 3.71820777654647827148e-01) (253, 3.55319768190383911133e-01) (254, 3.52019429206848144531e-01) (255, 4.44158077239990234375e-01) (256, 4.46581155061721801758e-01) (0, -2.98151284456253051758e-01) (1, -1.76020748913288116455e-02) (2, 7.05937296152114868164e-02) (3, 1.11608758568763732910e-01) (4, -2.88455118425190448761e-03) (5, -2.19224821776151657104e-02) (6, -2.17184320092201232910e-01) (7, -5.69970160722732543945e-02) (8, -2.32946068048477172852e-01) (9, 1.28187656402587890625e-01) (10, 2.53452379256486892700e-02) (11, 6.78715705871582031250e-02) (12, 1.27924710512161254883e-01) (13, 1.30598753690719604492e-01) (14, 7.26407989859580993652e-02) (15, 1.51919439435005187988e-01) (16, -3.24825085699558258057e-02) (17, 1.17503471672534942627e-01) (18, -9.68950986862182617188e-02) (19, -1.94658860564231872559e-02) (20, 3.20477299392223358154e-02) (21, -1.31659835577011108398e-01) (22, -1.14060044288635253906e-02) (23, 1.07855051755905151367e-01) (24, 9.85925048589706420898e-02) (25, 1.02226361632347106934e-01) (26, -6.49183057248592376709e-03) (27, 6.11094161868095397949e-02) (28, -7.10718845948576927185e-03) (29, -1.87691114842891693115e-02) (30, 3.94624434411525726318e-02) (31, -2.25436925888061523438e-01) (32, 5.34510388970375061035e-02) (33, 5.69054894149303436279e-02) (34, 1.68160162866115570068e-02) (35, 4.84884120523929595947e-02) (36, 5.59018217027187347412e-02) (37, -1.13570857793092727661e-02) (38, 4.29245345294475555420e-02) (39, 7.14468210935592651367e-02) (40, 4.80039324611425399780e-03) (41, 4.01219949126243591309e-02) (42, -5.52046477794647216797e-01) (43, -1.76135420799255371094e-01) (44, -2.77443826198577880859e-02) (45, 1.67804360389709472656e-01) (46, 1.24685093760490417480e-02) (47, 2.94481050223112106323e-02) (48, 4.54948619008064270020e-02) (49, 1.30699992179870605469e-01) (50, 1.11583791673183441162e-01) (51, 1.52477219700813293457e-01) (52, 6.09606318175792694092e-02) (53, 1.89521774649620056152e-01) (54, 3.79300862550735473633e-02) (55, -1.88552543520927429199e-01) (56, 1.67848765850067138672e-02) (57, 1.38117432594299316406e-01) (58, 7.80228450894355773926e-02) (59, 1.08982875943183898926e-01) (60, 1.74561187624931335449e-01) (61, 1.05764456093311309814e-01) (62, 6.58744722604751586914e-02) (63, 6.47665485739707946777e-02) (64, 2.15148538351058959961e-01) (65, 4.48210760951042175293e-02) (66, 2.90452875196933746338e-02) (67, 6.63100602105259895325e-03) (68, 2.08232745528221130371e-01) (69, 2.20867872238159179688e-01) (70, 5.21856220439076423645e-03) (71, 1.21046222746372222900e-01) (72, 1.24849140644073486328e-01) (73, 8.98958072066307067871e-02) (74, 2.65684016048908233643e-02) (75, -1.74495764076709747314e-02) (76, 2.42547333240509033203e-01) (77, 1.31808817386627197266e-01) (78, 1.52576789259910583496e-01) (79, -7.02693402767181396484e-01) (80, -1.36038996279239654541e-02) (81, 6.65407814085483551025e-03) (82, -1.64682499598711729050e-03) (83, 2.20502719283103942871e-01) (84, 1.79751273244619369507e-02) (85, 1.50964275002479553223e-01) (86, 1.02959677577018737793e-01) (87, -1.45613417029380798340e-01) (88, -1.11378645896911621094e+00) (89, -6.94977194070816040039e-02) (90, 6.10964000225067138672e-02) (91, 8.01368653774261474609e-02) (92, 4.92272712290287017822e-02) (93, 4.18427176773548126221e-02) (94, 2.76947859674692153931e-02) (95, 1.72951772809028625488e-01) (96, -8.94881859421730041504e-02) (97, -7.30665549635887145996e-02) (98, 8.69846567511558532715e-02) (99, 8.46394300460815429688e-02) (100, 1.62909731268882751465e-01) (101, 1.54849842190742492676e-01) (102, 9.92453023791313171387e-02) (103, -4.68234807252883911133e-01) (104, 1.26733630895614624023e-01) (105, 3.86075265705585479736e-02) (106, 9.84080657362937927246e-02) (107, 1.95716753602027893066e-01) (108, 5.77077418565750122070e-02) (109, 1.66099816560745239258e-01) (110, 1.39597162604331970215e-01) (111, -3.42853993177413940430e-01) (112, -4.09528389573097229004e-02) (113, 7.26097589358687400818e-03) (114, 2.33478713780641555786e-02) (115, 2.14693754911422729492e-01) (116, 1.88871070742607116699e-01) (117, 9.77128669619560241699e-02) (118, 2.50284403562545776367e-01) (119, -2.70631253719329833984e-01) (120, 1.32192596793174743652e-01) (121, 1.60097759217023849487e-02) (122, 1.46533980965614318848e-01) (123, 8.92793312668800354004e-02) (124, 1.00271411240100860596e-01) (125, 1.73768371343612670898e-01) (126, 1.66557133197784423828e-01) (127, -3.13179016113281250000e-01) (128, 1.30831405520439147949e-01) (129, -7.70297180861234664917e-03) (130, 5.88482432067394256592e-02) (131, 1.10057681798934936523e-01) (132, 1.81979313492774963379e-01) (133, 4.12046648561954498291e-02) (134, 1.41320183873176574707e-01) (135, -1.32241904735565185547e-01) (136, 1.11642308533191680908e-01) (137, 1.55398501083254814148e-02) (138, 8.58985912054777145386e-03) (139, 1.50117829442024230957e-01) (140, 2.14703470468521118164e-01) (141, 1.22192427515983581543e-01) (142, 2.40979403257369995117e-01) (143, -1.43412113189697265625e+00) (144, 1.84491112828254699707e-01) (145, 3.73882404528558254242e-03) (146, 1.04940645396709442139e-01) (147, -3.10184862464666366577e-02) (148, 1.57192975282669067383e-01) (149, 6.26218393445014953613e-02) (150, 2.09663540124893188477e-01) (151, -3.55368226766586303711e-01) (152, 1.56668424606323242188e-01) (153, 4.94086258113384246826e-02) (154, -4.36813503503799438477e-01) (155, 1.76770538091659545898e-01) (156, 2.15647459030151367188e-01) (157, 1.18997305631637573242e-01) (158, 4.22106422483921051025e-02) (159, -2.25491940975189208984e-01) (160, 2.51733088493347167969e+00) (161, 5.99928796291351318359e-02) (162, 7.69900605082511901855e-02) (163, 1.90237134695053100586e-01) (164, 2.12862864136695861816e-01) (165, -2.72242158651351928711e-01) (166, 9.20142754912376403809e-02) (167, 1.46263673901557922363e-01) (168, 5.81958293914794921875e+00) (169, 2.27965265512466430664e-01) (170, 1.10143162310123443604e-01) (171, 1.60154268145561218262e-01) (172, 2.00100183486938476563e-01) (173, 1.25439897179603576660e-01) (174, 1.22968874871730804443e-01) (175, 8.57527107000350952148e-02) (176, 2.68428921699523925781e-01) (177, 2.44998678565025329590e-01) (178, 1.85743793845176696777e-01) (179, 2.16172158718109130859e-01) (180, -1.51312351226806640625e-01) (181, 1.15678012371063232422e-01) (182, 4.81832064688205718994e-02) (183, 3.12711112201213836670e-02) (184, -1.01396203041076660156e-01) (185, -1.44210875034332275391e-01) (186, -1.31699234247207641602e-01) (187, 3.03470373153686523438e-01) (188, 1.41624584794044494629e-01) (189, -2.03665457665920257568e-02) (190, 8.93121212720870971680e-02) (191, 3.60226258635520935059e-02) (192, 3.88560369610786437988e-02) (193, 4.68566790223121643066e-02) (194, -1.29565194249153137207e-01) (195, 9.47125777602195739746e-02) (196, 1.74371093511581420898e-01) (197, 6.72034844756126403809e-02) (198, -1.38865113258361816406e-01) (199, -3.10595691204071044922e-01) (200, -2.55425106734037399292e-02) (201, 6.35981783270835876465e-02) (202, -2.79085896909236907959e-02) (203, 1.50978773832321166992e-01) (204, 1.41664119437336921692e-02) (205, 3.01714683882892131805e-03) (206, 1.31030961871147155762e-01) (207, -4.77803871035575866699e-02) (208, 1.99319079518318176270e-01) (209, 2.08382576704025268555e-01) (210, 1.33231028914451599121e-01) (211, 2.02763944864273071289e-01) (212, 1.11680671572685241699e-01) (213, 5.28410151600837707520e-02) (214, 8.71777832508087158203e-02) (215, 1.05689503252506256104e-01) (216, 1.39226555824279785156e-01) (217, 1.16366676986217498779e-01) (218, 6.16344138979911804199e-02) (219, 6.64895251393318176270e-02) (220, 9.28021147847175598145e-02) (221, 1.48798599839210510254e-01) (222, 1.09684504568576812744e-01) (223, 1.03524133563041687012e-01) (224, 8.95257219672203063965e-02) (225, -2.12613097392022609711e-03) (226, 1.86958163976669311523e-01) (227, 7.49152377247810363770e-02) (228, 5.22987395524978637695e-02) (229, 1.16020746529102325439e-01) (230, 8.70841962751001119614e-04) (231, -7.05050051212310791016e-01) (232, -2.34536498785018920898e-01) (233, 3.41307222843170166016e-02) (234, 7.79215097427368164063e-02) (235, 1.00747056305408477783e-01) (236, 2.82900445163249969482e-02) (237, 5.56566193699836730957e-02) (238, -3.90005618333816528320e-01) (239, -3.91079962253570556641e-01) (240, -3.28593817539513111115e-03) (241, -6.15292638540267944336e-02) (242, 9.02814418077468872070e-02) (243, 8.19650441408157348633e-02) (244, 1.54095828533172607422e-01) (245, 5.14785088598728179932e-02) (246, -2.42141008377075195313e-01) (247, -7.00148046016693115234e-01) (248, -6.07501387596130371094e-01) (249, -6.48590207099914550781e-01) (250, -6.55163764953613281250e-01) (251, -5.87829828262329101563e-01) (252, -6.02073729038238525391e-01) (253, -5.71478128433227539063e-01) (254, -6.63645744323730468750e-01) (255, -5.16807436943054199219e-01) (256, -6.26078605651855468750e-01) (0, -1.76569391041994094849e-02) (1, -9.96685698628425598145e-02) (2, 4.89915255457162857056e-04) (3, -3.20491045713424682617e-02) (4, -7.97323733568191528320e-02) (5, -2.53409389406442642212e-02) (6, 6.23605437576770782471e-02) (7, -4.80208285152912139893e-02) (8, 4.27745431661605834961e-02) (9, -8.00382047891616821289e-02) (10, -1.38388080522418022156e-02) (11, -5.16571057960391044617e-03) (12, 4.70865070819854736328e-02) (13, -5.35705126821994781494e-03) (14, 2.20645368099212646484e-02) (15, -3.44698615372180938721e-02) (16, -1.45113945007324218750e-01) (17, -5.12397289276123046875e-03) (18, -2.75812540203332901001e-02) (19, -8.21771398186683654785e-02) (20, -1.01238466799259185791e-01) (21, 3.94470244646072387695e-02) (22, -5.04724159836769104004e-02) (23, -2.34460402280092239380e-02) (24, 3.90340643934905529022e-03) (25, -1.72620005905628204346e-02) (26, -5.71614913642406463623e-02) (27, -4.40188273787498474121e-02) (28, -1.23583272099494934082e-01) (29, 1.24230988323688507080e-01) (30, 3.87244857847690582275e-02) (31, -4.36412394046783447266e-02) (32, -1.75786241888999938965e-01) (33, 3.25103849172592163086e-02) (34, 1.92081425338983535767e-02) (35, -1.25607505440711975098e-01) (36, -1.25725537538528442383e-01) (37, 1.39074981212615966797e-01) (38, 5.81814832985401153564e-02) (39, 6.42761541530489921570e-03) (40, -1.18465319275856018066e-01) (41, -1.34795844554901123047e-01) (42, -1.88785851001739501953e-01) (43, 3.54681640863418579102e-01) (44, -1.45133929327130317688e-02) (45, 1.36211529374122619629e-01) (46, 1.04200923442840576172e+00) (47, -8.94802361726760864258e-02) (48, -2.99817696213722229004e-02) (49, -2.65125840902328491211e-01) (50, -7.98202082514762878418e-02) (51, 3.67477774620056152344e-01) (52, 3.73020917177200317383e-01) (53, 2.06408184021711349487e-02) (54, -1.13139621913433074951e-01) (55, -6.38750135898590087891e-01) (56, -1.89960107207298278809e-01) (57, -9.40259620547294616699e-02) (58, -1.07472002506256103516e-01) (59, 1.30703747272491455078e-01) (60, 4.82025183737277984619e-03) (61, 4.92915175855159759521e-02) (62, 7.82931372523307800293e-02) (63, -8.89930054545402526855e-02) (64, -7.79467299580574035645e-02) (65, -1.15855723619461059570e-01) (66, -9.53127071261405944824e-02) (67, 3.05612552911043167114e-02) (68, 8.42457413673400878906e-02) (69, -6.71346560120582580566e-02) (70, 2.36254796385765075684e-01) (71, 8.07805880904197692871e-02) (72, -1.43386963754892349243e-02) (73, 3.98002862930297851563e-02) (74, -1.20508857071399688721e-01) (75, 3.08893084526062011719e-01) (76, 2.93504536151885986328e-01) (77, -7.33783394098281860352e-02) (78, 8.97345244884490966797e-01) (79, 7.36226746812462806702e-03) (80, -8.06113034486770629883e-02) (81, -9.35752689838409423828e-02) (82, -1.58164188265800476074e-01) (83, 3.28143626451492309570e-01) (84, 3.76749336719512939453e-01) (85, -8.02428945899009704590e-02) (86, -4.69887405633926391602e-01) (87, 5.32168102264404296875e+00) (88, -7.43904650211334228516e-01) (89, -1.97843968868255615234e-01) (90, -2.65733152627944946289e-01) (91, 2.67728686332702636719e-01) (92, 2.03517019748687744141e-01) (93, -2.08477810025215148926e-01) (94, -2.09905862808227539063e-01) (95, 4.61295986175537109375e+00) (96, -9.11431238055229187012e-02) (97, 5.22343674674630165100e-03) (98, -3.77830453217029571533e-02) (99, 2.65420854091644287109e-01) (100, 3.31367075443267822266e-01) (101, -3.87629270553588867188e-01) (102, -4.98182773590087890625e-01) (103, 4.03575867414474487305e-01) (104, 5.42087405920028686523e-02) (105, -1.61200314760208129883e-02) (106, -5.16567379236221313477e-03) (107, 4.27536070346832275391e-01) (108, 3.67388248443603515625e-01) (109, -9.94228720664978027344e-02) (110, -1.63035050034523010254e-01) (111, 2.09834679961204528809e-01) (112, -8.64554196596145629883e-02) (113, 4.18965592980384826660e-02) (114, -1.41226142644882202148e-01) (115, 2.50447928905487060547e-01) (116, -3.72594185173511505127e-02) (117, -1.08782656490802764893e-01) (118, -3.16279232501983642578e-02) (119, 9.04563739895820617676e-02) (120, -8.25798436999320983887e-02) (121, -1.45187750458717346191e-01) (122, -6.49525597691535949707e-02) (123, 3.25747728347778320313e-01) (124, -3.60053665935993194580e-02) (125, -1.55792593955993652344e-01) (126, 1.02437682449817657471e-01) (127, -4.02718484401702880859e-01) (128, -1.27565667033195495605e-01) (129, -2.02886890619993209839e-02) (130, -7.32840672135353088379e-02) (131, 2.79253631830215454102e-01) (132, 3.75671535730361938477e-01) (133, -1.75557523965835571289e-01) (134, -2.68594883382320404053e-02) (135, -1.34648466110229492188e+00) (136, -1.07580870389938354492e-01) (137, -3.10668349266052246094e-03) (138, 3.05885355919599533081e-02) (139, 2.92574286460876464844e-01) (140, 2.40357249975204467773e-01) (141, -1.48936539888381958008e-01) (142, -2.66964197158813476563e-01) (143, 3.53641897439956665039e-01) (144, -5.91492578387260437012e-02) (145, -1.13198943436145782471e-01) (146, -5.42286746203899383545e-02) (147, 4.39485162496566772461e-01) (148, 2.82070815563201904297e-01) (149, -2.28145588189363479614e-02) (150, -5.54027855396270751953e-02) (151, 8.24489951133728027344e-01) (152, -3.90035808086395263672e-01) (153, -4.03415299952030181885e-02) (154, -4.54241819679737091064e-02) (155, 4.21139210462570190430e-01) (156, 3.14013808965682983398e-01) (157, -2.29792241007089614868e-02) (158, 6.03578810114413499832e-04) (159, 2.46239989995956420898e-01) (160, -3.61226737499237060547e-01) (161, -2.16840714216232299805e-01) (162, -5.11849857866764068604e-02) (163, 2.56654918193817138672e-01) (164, 2.51327246427536010742e-01) (165, -1.73795118927955627441e-01) (166, -2.99837470054626464844e-01) (167, -2.38543391227722167969e-01) (168, -1.55085280537605285645e-01) (169, -1.52512654662132263184e-01) (170, -9.39996913075447082520e-02) (171, 3.51386815309524536133e-01) (172, 3.17802965641021728516e-01) (173, -1.03762730956077575684e-01) (174, -1.60517603158950805664e-01) (175, -5.36802709102630615234e-01) (176, -9.88290965557098388672e-01) (177, -1.47391170263290405273e-01) (178, -1.04872859083116054535e-03) (179, 4.05573189258575439453e-01) (180, 3.81452471017837524414e-01) (181, 3.74047070741653442383e-01) (182, 2.09682971239089965820e-01) (183, -2.09964767098426818848e-01) (184, -1.77918359637260437012e-01) (185, -5.07321730256080627441e-02) (186, -4.40906137228012084961e-02) (187, 4.75626051425933837891e-01) (188, 3.40359687805175781250e-01) (189, -7.62637564912438392639e-03) (190, 1.40965029597282409668e-01) (191, 8.95272612571716308594e-01) (192, -9.28177163004875183105e-02) (193, -2.01672390103340148926e-01) (194, -5.23442700505256652832e-02) (195, 2.72556215524673461914e-01) (196, 3.26487302780151367188e-01) (197, -9.44486930966377258301e-02) (198, 9.42022949457168579102e-02) (199, -1.36120587587356567383e-01) (200, -8.16614478826522827148e-02) (201, -1.43779978156089782715e-01) (202, -1.26391455531120300293e-01) (203, -1.31075069308280944824e-01) (204, -8.39896779507398605347e-03) (205, -1.33770689368247985840e-01) (206, 1.16264531388878822327e-02) (207, 2.65828203409910202026e-02) (208, -1.40836670994758605957e-01) (209, 4.11908067762851715088e-02) (210, 3.12859229743480682373e-02) (211, -6.54311776161193847656e-02) (212, 1.07990740798413753510e-03) (213, -1.57725721597671508789e-01) (214, -8.56958031654357910156e-02) (215, -7.76633853092789649963e-04) (216, -1.12615376710891723633e-01) (217, -6.37079104781150817871e-02) (218, -1.00251071155071258545e-01) (219, -1.93837638944387435913e-02) (220, -1.55407771468162536621e-01) (221, -4.36948835849761962891e-02) (222, -2.53806561231613159180e-02) (223, -7.21180625259876251221e-03) (224, -1.72597169876098632813e-02) (225, -3.76003682613372802734e-02) (226, 3.48915867507457733154e-02) (227, -6.03853771463036537170e-03) (228, -6.00121095776557922363e-02) (229, 8.69134441018104553223e-02) (230, 3.57763059437274932861e-02) (231, -9.01353731751441955566e-02) (232, -1.55188560485839843750e-01) (233, -4.00963984429836273193e-02) (234, -7.27090016007423400879e-02) (235, -1.48441091179847717285e-01) (236, -9.83993485569953918457e-02) (237, 8.17105546593666076660e-02) (238, -9.15640294551849365234e-02) (239, 2.63422317802906036377e-02) (240, -1.02248620241880416870e-02) (241, 9.06173139810562133789e-03) (242, -1.28572285175323486328e-01) (243, -5.59100620448589324951e-02) (244, 4.51737567782402038574e-02) (245, 7.02264606952667236328e-02) (246, 1.58054828643798828125e-02) (247, -6.50696158409118652344e-02) (248, -1.62312552332878112793e-01) (249, -4.39596697688102722168e-02) (250, -1.08131945133209228516e-01) (251, -1.62568911910057067871e-01) (252, 4.89845871925354003906e-02) (253, -5.89045882225036621094e-02) (254, -1.71994119882583618164e-01) (255, 1.10683115199208259583e-02) (256, -3.51475141942501068115e-02) (0, 3.45203578472137451172e-01) (1, 3.08742225170135498047e-01) (2, 2.76149481534957885742e-01) (3, 1.94562211632728576660e-01) (4, 3.70821088552474975586e-01) (5, 3.84568333625793457031e-01) (6, 3.08152407407760620117e-01) (7, 3.10760557651519775391e-01) (8, 3.74000847339630126953e-01) (9, 2.12743252515792846680e-01) (10, 3.18209022283554077148e-01) (11, 3.17512929439544677734e-01) (12, 2.36459419131278991699e-01) (13, 2.88645476102828979492e-01) (14, 1.97982907295227050781e-01) (15, 3.09242993593215942383e-01) (16, 3.48780304193496704102e-01) (17, 2.41975620388984680176e-01) (18, 3.41977059841156005859e-01) (19, 2.61362314224243164063e-01) (20, 2.46116027235984802246e-01) (21, 3.17391335964202880859e-01) (22, 3.96537512540817260742e-01) (23, 3.29838275909423828125e-01) (24, 3.21542263031005859375e-01) (25, 2.75848597288131713867e-01) (26, 2.52459019422531127930e-01) (27, 3.33369642496109008789e-01) (28, 2.54100501537322998047e-01) (29, 2.92835742235183715820e-01) (30, 2.58512973785400390625e-01) (31, 3.82106184959411621094e-01) (32, 3.65860968828201293945e-01) (33, 2.52085179090499877930e-01) (34, 3.34053486585617065430e-01) (35, 2.27357879281044006348e-01) (36, 3.16344708204269409180e-01) (37, 2.12075322866439819336e-01) (38, 3.08387160301208496094e-01) (39, 3.39084029197692871094e-01) (40, 4.24995273351669311523e-01) (41, 2.90908098220825195313e-01) (42, 3.32411497831344604492e-01) (43, 1.76625683903694152832e-01) (44, 2.48518720269203186035e-01) (45, 1.04036040604114532471e-01) (46, 2.03274905681610107422e-01) (47, 2.08067283034324645996e-01) (48, 3.13547849655151367188e-01) (49, 3.26192945241928100586e-01) (50, 1.92810505628585815430e-01) (51, 2.60854899883270263672e-01) (52, 2.09154099225997924805e-01) (53, 1.29464656114578247070e-01) (54, 3.48860323429107666016e-01) (55, 3.07204455137252807617e-01) (56, 3.52035403251647949219e-01) (57, 3.04152399301528930664e-01) (58, 3.24168443679809570313e-01) (59, 1.87338754534721374512e-01) (60, 1.07451476156711578369e-01) (61, 3.80250304937362670898e-01) (62, 3.92966210842132568359e-01) (63, 2.23679855465888977051e-01) (64, 2.33633592724800109863e-01) (65, 3.98485213518142700195e-01) (66, 2.53076076507568359375e-01) (67, 3.03048670291900634766e-01) (68, 2.27746799588203430176e-01) (69, 3.36343228816986083984e-01) (70, 2.78275907039642333984e-01) (71, 3.47786068916320800781e-01) (72, 2.69519746303558349609e-01) (73, 1.96378722786903381348e-01) (74, 3.21837127208709716797e-01) (75, 1.92017421126365661621e-01) (76, 1.44287198781967163086e-01) (77, 2.58599579334259033203e-01) (78, 2.85509973764419555664e-01) (79, 4.65238928794860839844e-01) (80, 3.00535529851913452148e-01) (81, 3.21731060743331909180e-01) (82, 4.49524432420730590820e-01) (83, 1.80080637335777282715e-01) (84, 1.80537447333335876465e-01) (85, 2.29986444115638732910e-01) (86, 3.35708975791931152344e-01) (87, 5.08093297481536865234e-01) (88, 8.50595355033874511719e-01) (89, 3.28119128942489624023e-01) (90, 2.69164413213729858398e-01) (91, 3.04052561521530151367e-01) (92, 4.86952066421508789063e-01) (93, 3.29674035310745239258e-01) (94, 5.97374856472015380859e-01) (95, 3.04753929376602172852e-01) (96, 3.55987727642059326172e-01) (97, 2.88220673799514770508e-01) (98, 2.39202693104743957520e-01) (99, 3.11445325613021850586e-01) (100, 1.79963573813438415527e-01) (101, 2.57526904344558715820e-01) (102, 1.02862328290939331055e-01) (103, 2.11919263005256652832e-01) (104, 3.31300020217895507813e-01) (105, 3.23735356330871582031e-01) (106, 2.90503919124603271484e-01) (107, 2.68470883369445800781e-01) (108, 2.09428533911705017090e-01) (109, 2.45948418974876403809e-01) (110, 1.76548361778259277344e-01) (111, 1.50755301117897033691e-01) (112, 4.07308548688888549805e-01) (113, 2.20163449645042419434e-01) (114, 2.83898860216140747070e-01) (115, 2.72469997406005859375e-01) (116, 2.78354763984680175781e-01) (117, 3.46936941146850585938e-01) (118, 8.03834721446037292480e-02) (119, 2.41712704300880432129e-01) (120, 4.47851657867431640625e-01) (121, 2.68218368291854858398e-01) (122, 1.02009147405624389648e-01) (123, 1.99748232960700988770e-01) (124, 2.52863168716430664063e-01) (125, 2.50247657299041748047e-01) (126, 3.81598114967346191406e-01) (127, 2.45722725987434387207e-01) (128, 3.93268227577209472656e-01) (129, 3.05174320936203002930e-01) (130, 4.94300693273544311523e-01) (131, 2.80806541442871093750e-01) (132, 1.94096654653549194336e-01) (133, 3.96442413330078125000e-01) (134, 2.05831989645957946777e-01) (135, 2.70357251167297363281e-01) (136, 4.13163751363754272461e-01) (137, 2.50626206398010253906e-01) (138, 2.94558078050613403320e-01) (139, 2.87940770387649536133e-01) (140, 2.97712594270706176758e-01) (141, 2.23798409104347229004e-01) (142, 3.95465791225433349609e-01) (143, 5.20103931427001953125e-01) (144, 3.78368288278579711914e-01) (145, 2.28457719087600708008e-01) (146, 2.83861130475997924805e-01) (147, 2.96841651201248168945e-01) (148, 1.50365829467773437500e-01) (149, 2.98139303922653198242e-01) (150, 2.97445446252822875977e-01) (151, 1.27309113740921020508e-01) (152, 2.91619449853897094727e-01) (153, 3.97314935922622680664e-01) (154, 9.62608873844146728516e-01) (155, 1.79457485675811767578e-01) (156, 9.54351797699928283691e-02) (157, 3.78561377525329589844e-01) (158, 1.73604026436805725098e-01) (159, 9.14947465062141418457e-02) (160, 4.56914514303207397461e-01) (161, 2.50426769256591796875e-01) (162, 3.93650323152542114258e-01) (163, 2.13454723358154296875e-01) (164, 2.56008416414260864258e-01) (165, 3.48763227462768554688e-01) (166, 6.01171970367431640625e-01) (167, 2.14899197220802307129e-01) (168, 3.68037164211273193359e-01) (169, 3.95319163799285888672e-01) (170, 4.29987400770187377930e-01) (171, 2.51736104488372802734e-01) (172, 1.50168940424919128418e-01) (173, 3.01526039838790893555e-01) (174, 3.72149854898452758789e-01) (175, 1.00285589694976806641e-01) (176, 1.28055953979492187500e+00) (177, 2.84769177436828613281e-01) (178, 2.20375031232833862305e-01) (179, 1.63778379559516906738e-01) (180, 2.65481203794479370117e-01) (181, 2.07355856895446777344e-01) (182, 4.93977874517440795898e-01) (183, 2.67102450132369995117e-01) (184, 7.19022095203399658203e-01) (185, 7.30356872081756591797e-01) (186, 3.87699782848358154297e-01) (187, 2.39623621106147766113e-01) (188, 2.27317512035369873047e-01) (189, 2.55454689264297485352e-01) (190, 3.13479214906692504883e-01) (191, 6.67107701301574707031e-01) (192, 2.81583666801452636719e-01) (193, 3.41371178627014160156e-01) (194, 3.13687384128570556641e-01) (195, 1.07487462460994720459e-01) (196, 1.23671382665634155273e-01) (197, 3.12393665313720703125e-01) (198, 1.90397158265113830566e-01) (199, 5.90174436569213867188e-01) (200, 3.82920265197753906250e-01) (201, 3.91285151243209838867e-01) (202, 3.97007554769515991211e-01) (203, 2.24362999200820922852e-01) (204, 2.76598334312438964844e-01) (205, 2.44668811559677124023e-01) (206, 2.70092278718948364258e-01) (207, 3.57252120971679687500e-01) (208, 2.53827452659606933594e-01) (209, 3.06811273097991943359e-01) (210, 2.84496814012527465820e-01) (211, 2.35130831599235534668e-01) (212, 2.85394459962844848633e-01) (213, 2.06967815756797790527e-01) (214, 2.70433992147445678711e-01) (215, 2.51467436552047729492e-01) (216, 3.39726388454437255859e-01) (217, 3.21333885192871093750e-01) (218, 1.58087804913520812988e-01) (219, 3.20482075214385986328e-01) (220, 2.73018389940261840820e-01) (221, 2.02583938837051391602e-01) (222, 3.17200839519500732422e-01) (223, 2.23194092512130737305e-01) (224, 2.62144595384597778320e-01) (225, 3.21421802043914794922e-01) (226, 3.29056262969970703125e-01) (227, 3.43596845865249633789e-01) (228, 2.55446791648864746094e-01) (229, 2.02167719602584838867e-01) (230, 2.92278289794921875000e-01) (231, 4.35937315225601196289e-01) (232, 3.62345308065414428711e-01) (233, 2.84757435321807861328e-01) (234, 3.07688891887664794922e-01) (235, 4.09331053495407104492e-01) (236, 3.07283192873001098633e-01) (237, 2.56122678518295288086e-01) (238, 3.05200010538101196289e-01) (239, 2.97512650489807128906e-01) (240, 4.13988113403320312500e-01) (241, 3.85740995407104492188e-01) (242, 2.78910368680953979492e-01) (243, 2.78044849634170532227e-01) (244, 3.34095329046249389648e-01) (245, 3.74009817838668823242e-01) (246, 2.67501652240753173828e-01) (247, 3.76767843961715698242e-01) 