FANN_FLO_2.1
num_layers=4
learning_rate=0.700000
connection_rate=1.000000
network_type=0
learning_momentum=0.000000
training_algorithm=2
train_error_function=1
train_stop_function=0
cascade_output_change_fraction=0.010000
quickprop_decay=-0.000100
quickprop_mu=1.750000
rprop_increase_factor=1.200000
rprop_decrease_factor=0.500000
rprop_delta_min=0.000000
rprop_delta_max=50.000000
rprop_delta_zero=0.100000
cascade_output_stagnation_epochs=12
cascade_candidate_change_fraction=0.010000
cascade_candidate_stagnation_epochs=12
cascade_max_out_epochs=150
cascade_min_out_epochs=50
cascade_max_cand_epochs=150
cascade_min_cand_epochs=50
cascade_num_candidate_groups=2
bit_fail_limit=3.49999994039535522461e-01
cascade_candidate_limit=1.00000000000000000000e+03
cascade_weight_multiplier=4.00000005960464477539e-01
cascade_activation_functions_count=10
cascade_activation_functions=3 5 7 8 10 11 14 15 16 17 
cascade_activation_steepnesses_count=4
cascade_activation_steepnesses=2.50000000000000000000e-01 5.00000000000000000000e-01 7.50000000000000000000e-01 1.00000000000000000000e+00 
layer_sizes=257 5 5 2 
scale_included=0
neurons (num_inputs, activation_function, activation_steepness)=(0, 0, 0.00000000000000000000e+00) (0, 0, 0.00000000000000000000e+00) (0, 0, 0.00000000000000000000e+00) (0, 0, 0.00000000000000000000e+00) (0, 0, 0.00000000000000000000e+00) (0, 0, 0.00000000000000000000e+00) (0, 0, 0.00000000000000000000e+00) (0, 0, 0.00000000000000000000e+00) (0, 0, 0.00000000000000000000e+00) (0, 0, 0.00000000000000000000e+00) (0, 0, 0.00000000000000000000e+00) (0, 0, 0.00000000000000000000e+00) (0, 0, 0.00000000000000000000e+00) (0, 0, 0.00000000000000000000e+00) (0, 0, 0.00000000000000000000e+00) (0, 0, 0.00000000000000000000e+00) (0, 0, 0.00000000000000000000e+00) (0, 0, 0.00000000000000000000e+00) (0, 0, 0.00000000000000000000e+00) (0, 0, 0.00000000000000000000e+00) (0, 0, 0.00000000000000000000e+00) (0, 0, 0.00000000000000000000e+00) (0, 0, 0.00000000000000000000e+00) (0, 0, 0.00000000000000000000e+00) (0, 0, 0.00000000000000000000e+00) (0, 0, 0.00000000000000000000e+00) (0, 0, 0.00000000000000000000e+00) (0, 0, 0.00000000000000000000e+00) (0, 0, 0.00000000000000000000e+00) (0, 0, 0.00000000000000000000e+00) (0, 0, 0.00000000000000000000e+00) (0, 0, 0.00000000000000000000e+00) (0, 0, 0.00000000000000000000e+00) (0, 0, 0.00000000000000000000e+00) (0, 0, 0.00000000000000000000e+00) (0, 0, 0.00000000000000000000e+00) (0, 0, 0.00000000000000000000e+00) (0, 0, 0.00000000000000000000e+00) (0, 0, 0.00000000000000000000e+00) (0, 0, 0.00000000000000000000e+00) (0, 0, 0.00000000000000000000e+00) (0, 0, 0.00000000000000000000e+00) (0, 0, 0.00000000000000000000e+00) (0, 0, 0.00000000000000000000e+00) (0, 0, 0.00000000000000000000e+00) (0, 0, 0.00000000000000000000e+00) (0, 0, 0.00000000000000000000e+00) (0, 0, 0.00000000000000000000e+00) (0, 0, 0.00000000000000000000e+00) (0, 0, 0.00000000000000000000e+00) (0, 0, 0.00000000000000000000e+00) (0, 0, 0.00000000000000000000e+00) (0, 0, 0.00000000000000000000e+00) (0, 0, 0.00000000000000000000e+00) (0, 0, 0.00000000000000000000e+00) (0, 0, 0.00000000000000000000e+00) (0, 0, 0.00000000000000000000e+00) (0, 0, 0.00000000000000000000e+00) (0, 0, 0.00000000000000000000e+00) (0, 0, 0.00000000000000000000e+00) (0, 0, 0.00000000000000000000e+00) (0, 0, 0.00000000000000000000e+00) (0, 0, 0.00000000000000000000e+00) (0, 0, 0.00000000000000000000e+00) (0, 0, 0.00000000000000000000e+00) (0, 0, 0.00000000000000000000e+00) (0, 0, 0.00000000000000000000e+00) (0, 0, 0.00000000000000000000e+00) (0, 0, 0.00000000000000000000e+00) (0, 0, 0.00000000000000000000e+00) (0, 0, 0.00000000000000000000e+00) (0, 0, 0.00000000000000000000e+00) (0, 0, 0.00000000000000000000e+00) (0, 0, 0.00000000000000000000e+00) (0, 0, 0.00000000000000000000e+00) (0, 0, 0.00000000000000000000e+00) (0, 0, 0.00000000000000000000e+00) (0, 0, 0.00000000000000000000e+00) (0, 0, 0.00000000000000000000e+00) (0, 0, 0.00000000000000000000e+00) (0, 0, 0.00000000000000000000e+00) (0, 0, 0.00000000000000000000e+00) (0, 0, 0.00000000000000000000e+00) (0, 0, 0.00000000000000000000e+00) (0, 0, 0.00000000000000000000e+00) (0, 0, 0.00000000000000000000e+00) (0, 0, 0.00000000000000000000e+00) (0, 0, 0.00000000000000000000e+00) (0, 0, 0.00000000000000000000e+00) (0, 0, 0.00000000000000000000e+00) (0, 0, 0.00000000000000000000e+00) (0, 0, 0.00000000000000000000e+00) (0, 0, 0.00000000000000000000e+00) (0, 0, 0.00000000000000000000e+00) (0, 0, 0.00000000000000000000e+00) (0, 0, 0.00000000000000000000e+00) (0, 0, 0.00000000000000000000e+00) (0, 0, 0.00000000000000000000e+00) (0, 0, 0.00000000000000000000e+00) (0, 0, 0.00000000000000000000e+00) (0, 0, 0.00000000000000000000e+00) (0, 0, 0.00000000000000000000e+00) (0, 0, 0.00000000000000000000e+00) (0, 0, 0.00000000000000000000e+00) (0, 0, 0.00000000000000000000e+00) (0, 0, 0.00000000000000000000e+00) (0, 0, 0.00000000000000000000e+00) (0, 0, 0.00000000000000000000e+00) (0, 0, 0.00000000000000000000e+00) (0, 0, 0.00000000000000000000e+00) (0, 0, 0.00000000000000000000e+00) (0, 0, 0.00000000000000000000e+00) (0, 0, 0.00000000000000000000e+00) (0, 0, 0.00000000000000000000e+00) (0, 0, 0.00000000000000000000e+00) (0, 0, 0.00000000000000000000e+00) (0, 0, 0.00000000000000000000e+00) (0, 0, 0.00000000000000000000e+00) (0, 0, 0.00000000000000000000e+00) (0, 0, 0.00000000000000000000e+00) (0, 0, 0.00000000000000000000e+00) (0, 0, 0.00000000000000000000e+00) (0, 0, 0.00000000000000000000e+00) (0, 0, 0.00000000000000000000e+00) (0, 0, 0.00000000000000000000e+00) (0, 0, 0.00000000000000000000e+00) (0, 0, 0.00000000000000000000e+00) (0, 0, 0.00000000000000000000e+00) (0, 0, 0.00000000000000000000e+00) (0, 0, 0.00000000000000000000e+00) (0, 0, 0.00000000000000000000e+00) (0, 0, 0.00000000000000000000e+00) (0, 0, 0.00000000000000000000e+00) (0, 0, 0.00000000000000000000e+00) (0, 0, 0.00000000000000000000e+00) (0, 0, 0.00000000000000000000e+00) (0, 0, 0.00000000000000000000e+00) (0, 0, 0.00000000000000000000e+00) (0, 0, 0.00000000000000000000e+00) (0, 0, 0.00000000000000000000e+00) (0, 0, 0.00000000000000000000e+00) (0, 0, 0.00000000000000000000e+00) (0, 0, 0.00000000000000000000e+00) (0, 0, 0.00000000000000000000e+00) (0, 0, 0.00000000000000000000e+00) (0, 0, 0.00000000000000000000e+00) (0, 0, 0.00000000000000000000e+00) (0, 0, 0.00000000000000000000e+00) (0, 0, 0.00000000000000000000e+00) (0, 0, 0.00000000000000000000e+00) (0, 0, 0.00000000000000000000e+00) (0, 0, 0.00000000000000000000e+00) (0, 0, 0.00000000000000000000e+00) (0, 0, 0.00000000000000000000e+00) (0, 0, 0.00000000000000000000e+00) (0, 0, 0.00000000000000000000e+00) (0, 0, 0.00000000000000000000e+00) (0, 0, 0.00000000000000000000e+00) (0, 0, 0.00000000000000000000e+00) (0, 0, 0.00000000000000000000e+00) (0, 0, 0.00000000000000000000e+00) (0, 0, 0.00000000000000000000e+00) (0, 0, 0.00000000000000000000e+00) (0, 0, 0.00000000000000000000e+00) (0, 0, 0.00000000000000000000e+00) (0, 0, 0.00000000000000000000e+00) (0, 0, 0.00000000000000000000e+00) (0, 0, 0.00000000000000000000e+00) (0, 0, 0.00000000000000000000e+00) (0, 0, 0.00000000000000000000e+00) (0, 0, 0.00000000000000000000e+00) (0, 0, 0.00000000000000000000e+00) (0, 0, 0.00000000000000000000e+00) (0, 0, 0.00000000000000000000e+00) (0, 0, 0.00000000000000000000e+00) (0, 0, 0.00000000000000000000e+00) (0, 0, 0.00000000000000000000e+00) (0, 0, 0.00000000000000000000e+00) (0, 0, 0.00000000000000000000e+00) (0, 0, 0.00000000000000000000e+00) (0, 0, 0.00000000000000000000e+00) (0, 0, 0.00000000000000000000e+00) (0, 0, 0.00000000000000000000e+00) (0, 0, 0.00000000000000000000e+00) (0, 0, 0.00000000000000000000e+00) (0, 0, 0.00000000000000000000e+00) (0, 0, 0.00000000000000000000e+00) (0, 0, 0.00000000000000000000e+00) (0, 0, 0.00000000000000000000e+00) (0, 0, 0.00000000000000000000e+00) (0, 0, 0.00000000000000000000e+00) (0, 0, 0.00000000000000000000e+00) (0, 0, 0.00000000000000000000e+00) (0, 0, 0.00000000000000000000e+00) (0, 0, 0.00000000000000000000e+00) (0, 0, 0.00000000000000000000e+00) (0, 0, 0.00000000000000000000e+00) (0, 0, 0.00000000000000000000e+00) (0, 0, 0.00000000000000000000e+00) (0, 0, 0.00000000000000000000e+00) (0, 0, 0.00000000000000000000e+00) (0, 0, 0.00000000000000000000e+00) (0, 0, 0.00000000000000000000e+00) (0, 0, 0.00000000000000000000e+00) (0, 0, 0.00000000000000000000e+00) (0, 0, 0.00000000000000000000e+00) (0, 0, 0.00000000000000000000e+00) (0, 0, 0.00000000000000000000e+00) (0, 0, 0.00000000000000000000e+00) (0, 0, 0.00000000000000000000e+00) (0, 0, 0.00000000000000000000e+00) (0, 0, 0.00000000000000000000e+00) (0, 0, 0.00000000000000000000e+00) (0, 0, 0.00000000000000000000e+00) (0, 0, 0.00000000000000000000e+00) (0, 0, 0.00000000000000000000e+00) (0, 0, 0.00000000000000000000e+00) (0, 0, 0.00000000000000000000e+00) (0, 0, 0.00000000000000000000e+00) (0, 0, 0.00000000000000000000e+00) (0, 0, 0.00000000000000000000e+00) (0, 0, 0.00000000000000000000e+00) (0, 0, 0.00000000000000000000e+00) (0, 0, 0.00000000000000000000e+00) (0, 0, 0.00000000000000000000e+00) (0, 0, 0.00000000000000000000e+00) (0, 0, 0.00000000000000000000e+00) (0, 0, 0.00000000000000000000e+00) (0, 0, 0.00000000000000000000e+00) (0, 0, 0.00000000000000000000e+00) (0, 0, 0.00000000000000000000e+00) (0, 0, 0.00000000000000000000e+00) (0, 0, 0.00000000000000000000e+00) (0, 0, 0.00000000000000000000e+00) (0, 0, 0.00000000000000000000e+00) (0, 0, 0.00000000000000000000e+00) (0, 0, 0.00000000000000000000e+00) (0, 0, 0.00000000000000000000e+00) (0, 0, 0.00000000000000000000e+00) (0, 0, 0.00000000000000000000e+00) (0, 0, 0.00000000000000000000e+00) (0, 0, 0.00000000000000000000e+00) (0, 0, 0.00000000000000000000e+00) (0, 0, 0.00000000000000000000e+00) (0, 0, 0.00000000000000000000e+00) (0, 0, 0.00000000000000000000e+00) (0, 0, 0.00000000000000000000e+00) (0, 0, 0.00000000000000000000e+00) (0, 0, 0.00000000000000000000e+00) (0, 0, 0.00000000000000000000e+00) (0, 0, 0.00000000000000000000e+00) (0, 0, 0.00000000000000000000e+00) (0, 0, 0.00000000000000000000e+00) (0, 0, 0.00000000000000000000e+00) (0, 0, 0.00000000000000000000e+00) (0, 0, 0.00000000000000000000e+00) (0, 0, 0.00000000000000000000e+00) (257, 11, 5.00000000000000000000e-01) (257, 11, 5.00000000000000000000e-01) (257, 11, 5.00000000000000000000e-01) (257, 11, 5.00000000000000000000e-01) (0, 11, 0.00000000000000000000e+00) (5, 11, 5.00000000000000000000e-01) (5, 11, 5.00000000000000000000e-01) (5, 11, 5.00000000000000000000e-01) (5, 11, 5.00000000000000000000e-01) (0, 11, 0.00000000000000000000e+00) (5, 11, 5.00000000000000000000e-01) (0, 11, 0.00000000000000000000e+00) 
connections (connected_to_neuron, weight)=(0, 2.96025216579437255859e-01) (1, 2.70301312208175659180e-01) (2, 2.13825717568397521973e-01) (3, 7.83607900142669677734e-01) (4, 7.55678832530975341797e-01) (5, 6.85487389564514160156e-01) (6, 6.73476040363311767578e-01) (7, 7.36826002597808837891e-01) (8, 5.81675589084625244141e-01) (9, -2.71536946296691894531e-01) (10, -3.77812534570693969727e-01) (11, -3.36480960249900817871e-02) (12, -1.47900104522705078125e-01) (13, -6.75804540514945983887e-02) (14, -1.64762735366821289063e-01) (15, 1.89011141657829284668e-01) (16, -2.64988332986831665039e-01) (17, -1.88204616308212280273e-01) (18, -5.31937032938003540039e-02) (19, -4.22149538993835449219e-01) (20, -8.83547812700271606445e-02) (21, -5.68432733416557312012e-02) (22, -3.95763844251632690430e-01) (23, -7.57022574543952941895e-02) (24, 4.87427366897463798523e-03) (25, -3.62724930047988891602e-01) (26, -3.41265678405761718750e-01) (27, -1.54313579201698303223e-01) (28, -3.60700786113739013672e-02) (29, -3.25814962387084960938e-01) (30, 1.82782486081123352051e-01) (31, 6.79978549480438232422e-01) (32, -3.62320095300674438477e-02) (33, -1.52782186865806579590e-01) (34, -5.51123134791851043701e-02) (35, -1.13318577408790588379e-01) (36, -2.29772582650184631348e-01) (37, 2.30881974101066589355e-01) (38, 3.97261440753936767578e-01) (39, 4.02641892433166503906e-01) (40, -8.28741341829299926758e-02) (41, 2.61125862598419189453e-01) (42, -8.51643532514572143555e-02) (43, 3.83172631263732910156e-02) (44, 1.08155377209186553955e-01) (45, -3.46010655164718627930e-01) (46, -6.07170641422271728516e-01) (47, -5.74538528919219970703e-01) (48, -6.29809021949768066406e-01) (49, -7.71130502223968505859e-01) (50, -1.49049118161201477051e-01) (51, -4.53819930553436279297e-01) (52, 2.15254187583923339844e-01) (53, -3.95992398262023925781e-01) (54, 3.19852605462074279785e-02) (55, -1.63925468921661376953e-01) (56, -1.36434808373451232910e-01) (57, 6.88718795776367187500e-01) (58, -1.68520852923393249512e-01) (59, -4.11720484495162963867e-01) (60, -1.41592353582382202148e-01) (61, -3.08259427547454833984e-01) (62, 2.87434697151184082031e-01) (63, 8.11054766178131103516e-01) (64, 3.84616434574127197266e-01) (65, 3.02408244460821151733e-02) (66, -1.08829662203788757324e-01) (67, 1.05314448475837707520e-01) (68, -5.07396280765533447266e-01) (69, 4.04849797487258911133e-01) (70, 2.12874151766300201416e-02) (71, -1.73752665519714355469e-01) (72, -3.68702352046966552734e-01) (73, 8.26334297657012939453e-01) (74, 1.75429463386535644531e-01) (75, -7.05018639564514160156e-01) (76, -3.52980569005012512207e-02) (77, -3.99046272039413452148e-01) (78, -1.51216834783554077148e-01) (79, -4.84598010778427124023e-01) (80, 5.48993408679962158203e-01) (81, 3.05854737758636474609e-01) (82, -8.48052129149436950684e-02) (83, 7.29608893394470214844e-01) (84, -2.26709112524986267090e-01) (85, -8.49203318357467651367e-02) (86, 3.40395450592041015625e-01) (87, 1.65935568511486053467e-02) (88, -2.21732392907142639160e-01) (89, 7.59931206703186035156e-01) (90, 7.12220892310142517090e-02) (91, -3.75664710998535156250e-01) (92, -3.33536624908447265625e-01) (93, -3.59335131943225860596e-02) (94, 1.02525241672992706299e-01) (95, 3.93807619810104370117e-01) (96, -5.39323985576629638672e-01) (97, -5.60684315860271453857e-02) (98, 2.71252214908599853516e-01) (99, 4.36861552298069000244e-02) (100, 8.45941249281167984009e-03) (101, -4.60941523313522338867e-01) (102, -3.41125786304473876953e-01) (103, 1.85363024473190307617e-01) (104, -4.01101738214492797852e-01) (105, -8.04480314254760742188e-01) (106, 3.26186746358871459961e-01) (107, 6.29322350025177001953e-01) (108, -4.33215469121932983398e-01) (109, -3.24001133441925048828e-01) (110, 5.80831915140151977539e-02) (111, -2.54266895353794097900e-02) (112, 3.31160962581634521484e-01) (113, -3.25633376836776733398e-01) (114, 6.71030953526496887207e-03) (115, -1.86003565788269042969e-01) (116, -4.57069054245948791504e-02) (117, -6.67173981666564941406e-01) (118, 3.87953221797943115234e-01) (119, -4.81462366878986358643e-02) (120, 7.70432531833648681641e-01) (121, 2.55557090044021606445e-01) (122, -2.19800531864166259766e-01) (123, 2.64345675706863403320e-01) (124, -4.46924149990081787109e-01) (125, 5.10707676410675048828e-01) (126, -7.97124505043029785156e-02) (127, 2.34273701906204223633e-01) (128, 1.09602101147174835205e-01) (129, -2.32791498303413391113e-01) (130, -1.68657019734382629395e-01) (131, 4.36734408140182495117e-01) (132, -6.01720392704010009766e-01) (133, -9.54190418124198913574e-02) (134, -1.57767370343208312988e-01) (135, 2.81500786542892456055e-01) (136, -1.86929225921630859375e-01) (137, 1.39171138405799865723e-01) (138, -2.15600356459617614746e-01) (139, 8.83979141712188720703e-01) (140, -1.95663616061210632324e-01) (141, -3.40320944786071777344e-01) (142, -2.17364542186260223389e-03) (143, 6.66351839900016784668e-02) (144, 7.49216303229331970215e-02) (145, -1.63113921880722045898e-01) (146, -2.14170254766941070557e-02) (147, 1.13648653030395507813e+00) (148, -9.25173819065093994141e-01) (149, -6.10026568174362182617e-02) (150, -3.39557647705078125000e-01) (151, -1.57781932502985000610e-02) (152, 5.91471076011657714844e-01) (153, -7.19590544700622558594e-01) (154, 1.86103954911231994629e-01) (155, 1.99901983141899108887e-01) (156, -5.53548574447631835938e-01) (157, 4.83000636100769042969e-01) (158, -2.73776918649673461914e-01) (159, 1.62494048476219177246e-01) (160, 1.37484550476074218750e-01) (161, -1.34952411055564880371e-01) (162, 5.57067275047302246094e-01) (163, -3.06955724954605102539e-01) (164, 1.50446832180023193359e-01) (165, 2.62847453355789184570e-01) (166, -2.29290500283241271973e-02) (167, -3.40698301792144775391e-01) (168, 3.85206431150436401367e-01) (169, 2.88477212190628051758e-01) (170, 1.82139109820127487183e-02) (171, -7.78397247195243835449e-02) (172, -2.51581937074661254883e-01) (173, 6.04839622974395751953e-02) (174, 2.01466068625450134277e-01) (175, 1.66439712047576904297e-02) (176, -3.27838778495788574219e-01) (177, -6.50803804397583007813e-01) (178, 4.87520277500152587891e-01) (179, 6.42373859882354736328e-01) (180, -5.37770628929138183594e-01) (181, -9.88662838935852050781e-02) (182, -5.14380037784576416016e-01) (183, 2.37607091665267944336e-01) (184, -5.41539788246154785156e-01) (185, 2.42279350757598876953e-01) (186, -7.10508763790130615234e-01) (187, 6.31947815418243408203e-01) (188, 2.37311735749244689941e-01) (189, -3.58854055404663085938e-01) (190, -2.84623295068740844727e-01) (191, 3.00360396504402160645e-02) (192, 1.17673255503177642822e-01) (193, 7.34611630439758300781e-01) (194, 4.50004607439041137695e-01) (195, -1.08757324516773223877e-01) (196, 2.84233260899782180786e-02) (197, 1.14094838500022888184e-01) (198, 8.02461147308349609375e-01) (199, -4.77337986230850219727e-01) (200, 3.98602113127708435059e-02) (201, 2.56750255823135375977e-01) (202, -2.45249181985855102539e-01) (203, 1.19912460446357727051e-01) (204, -8.62969875335693359375e-01) (205, -4.55094307661056518555e-01) (206, 7.72410213947296142578e-01) (207, 2.13859736919403076172e-01) (208, 2.19122558832168579102e-01) (209, 4.00638133287429809570e-02) (210, -4.18738126754760742188e-01) (211, 4.59052592515945434570e-01) (212, -7.44826793670654296875e-01) (213, -4.33007717132568359375e-01) (214, -6.82588636875152587891e-01) (215, 1.78719982504844665527e-01) (216, -8.01934972405433654785e-02) (217, 2.23660305142402648926e-01) (218, 3.94361108541488647461e-01) (219, 4.94997687637805938721e-02) (220, 2.16611698269844055176e-01) (221, -1.00896432995796203613e-01) (222, 1.32107168436050415039e-01) (223, 1.92947119474411010742e-01) (224, -2.30968490242958068848e-01) (225, -1.18507228791713714600e-01) (226, -1.20238170027732849121e-01) (227, 9.01130437850952148438e-01) (228, 5.73616504669189453125e-01) (229, -6.40647530555725097656e-01) (230, 1.51296484470367431641e+00) (231, -7.62259602546691894531e-01) (232, -2.02859103679656982422e-01) (233, -2.82238960266113281250e-01) (234, 1.54684767127037048340e-01) (235, 8.23403000831604003906e-02) (236, -8.63074958324432373047e-01) (237, -1.02100050449371337891e+00) (238, -5.55187106132507324219e-01) (239, 6.35892292484641075134e-03) (240, 1.37203127145767211914e-01) (241, -2.47134298086166381836e-01) (242, 3.28590601682662963867e-01) (243, 4.59900259971618652344e-01) (244, -4.28564846515655517578e-01) (245, 5.54644726216793060303e-02) (246, 7.76593685150146484375e-02) (247, 7.50415325164794921875e-01) (248, 3.45475524663925170898e-02) (249, 2.71226584911346435547e-01) (250, 4.46366965770721435547e-01) (251, 1.45993962883949279785e-01) (252, 7.28281065821647644043e-02) (253, -3.55017960071563720703e-01) (254, -1.81618742644786834717e-02) (255, 5.87366044521331787109e-01) (256, 9.74179744720458984375e-01) (0, -3.91355246305465698242e-01) (1, -4.73654031753540039063e-01) (2, -4.34197336435317993164e-01) (3, -6.40681684017181396484e-01) (4, -6.02897047996520996094e-01) (5, -6.87120556831359863281e-01) (6, -6.63642704486846923828e-01) (7, -5.21171033382415771484e-01) (8, -6.96144923567771911621e-02) (9, 1.83189868927001953125e-01) (10, 2.03748553991317749023e-01) (11, 2.05283224582672119141e-01) (12, 1.45506799221038818359e-01) (13, 4.93181273341178894043e-02) (14, 4.68926519155502319336e-01) (15, 1.03677898645401000977e-01) (16, 1.29409110546112060547e+00) (17, -5.07924929261207580566e-02) (18, 1.62921011447906494141e-01) (19, 3.07799177244305610657e-03) (20, -3.43690723180770874023e-01) (21, 3.24828684329986572266e-01) (22, 8.96182209253311157227e-02) (23, -6.01777076721191406250e-01) (24, -2.88055181503295898438e-01) (25, 1.30709499120712280273e-01) (26, -1.57905712723731994629e-01) (27, -5.98943158984184265137e-02) (28, -2.62325286865234375000e-01) (29, -8.38173404335975646973e-02) (30, -1.93973734974861145020e-01) (31, -1.52314618229866027832e-01) (32, -3.01284212619066238403e-02) (33, 1.85198202729225158691e-01) (34, -3.82100641727447509766e-02) (35, 2.37501442432403564453e-01) (36, 2.70417500287294387817e-02) (37, 2.05499887466430664063e-01) (38, 8.73006284236907958984e-02) (39, -2.23816037178039550781e-01) (40, -1.70099288225173950195e-01) (41, -2.96885073184967041016e-01) (42, -5.57594597339630126953e-01) (43, -3.49216550588607788086e-01) (44, 1.54307737946510314941e-01) (45, 7.06275403499603271484e-01) (46, 7.11099982261657714844e-01) (47, -1.35280638933181762695e-01) (48, -4.56081271171569824219e-01) (49, 1.16489088535308837891e+00) (50, -8.70374798774719238281e-01) (51, 6.60053253173828125000e-01) (52, -8.21895450353622436523e-02) (53, 3.98876607418060302734e-01) (54, -5.98707795143127441406e-01) (55, -3.22596967220306396484e-01) (56, -8.07534158229827880859e-02) (57, -1.22605705261230468750e+00) (58, -4.28812056779861450195e-01) (59, 9.51360642910003662109e-01) (60, 6.72057807445526123047e-01) (61, -8.66361677646636962891e-01) (62, 7.29521811008453369141e-01) (63, -1.70841321349143981934e-01) (64, 5.11348664760589599609e-01) (65, 1.02009201049804687500e+00) (66, -5.62972724437713623047e-01) (67, 8.06060731410980224609e-01) (68, 4.02925252914428710938e-01) (69, 5.06439432501792907715e-02) (70, -1.44108027219772338867e-01) (71, 1.06357598304748535156e+00) (72, -1.08746671676635742188e+00) (73, -3.70423763990402221680e-01) (74, -5.41022419929504394531e-01) (75, 9.44154083728790283203e-01) (76, -4.16168510913848876953e-01) (77, 5.06981372833251953125e-01) (78, 9.81350429356098175049e-03) (79, 5.96412867307662963867e-02) (80, 5.64235216006636619568e-03) (81, 1.71012353897094726563e+00) (82, -5.33758178353309631348e-02) (83, 3.87547343969345092773e-01) (84, 1.42250156402587890625e+00) (85, 1.18274211883544921875e+00) (86, 3.24945062398910522461e-01) (87, -9.06552970409393310547e-01) (88, -8.01650524139404296875e-01) (89, 7.46193528175354003906e-01) (90, 1.37565338611602783203e+00) (91, 4.95886862277984619141e-01) (92, 3.24700832366943359375e-01) (93, 5.96860349178314208984e-01) (94, 1.70528554916381835938e+00) (95, 4.24632102251052856445e-01) (96, 9.28149998188018798828e-01) (97, 3.09258460998535156250e-01) (98, -2.48619365692138671875e+00) (99, 4.84561324119567871094e-01) (100, 4.64738272130489349365e-02) (101, 5.69889247417449951172e-01) (102, -8.47309410572052001953e-01) (103, -7.44915783405303955078e-01) (104, -2.64202356338500976563e-01) (105, -7.80481517314910888672e-01) (106, 1.12141060829162597656e+00) (107, 4.06448990106582641602e-01) (108, 2.61003226041793823242e-01) (109, 4.67491030693054199219e-01) (110, -2.88501121103763580322e-02) (111, -7.37487852573394775391e-01) (112, -6.22664332389831542969e-01) (113, -8.11053752899169921875e-01) (114, -2.36185610294342041016e-01) (115, 1.06703960895538330078e+00) (116, -6.81778565049171447754e-02) (117, 4.08724814653396606445e-01) (118, -3.95312964916229248047e-01) (119, -8.65540087223052978516e-01) (120, 3.88533383607864379883e-01) (121, -7.15666830539703369141e-01) (122, -5.21467626094818115234e-01) (123, 4.01441603899002075195e-01) (124, 1.18033148348331451416e-01) (125, 7.25858747959136962891e-01) (126, 3.05660963058471679688e-01) (127, -9.75579440593719482422e-01) (128, 4.02582854032516479492e-01) (129, 2.92085736989974975586e-01) (130, 1.00321426987648010254e-01) (131, -4.72176186740398406982e-02) (132, 2.95828014612197875977e-01) (133, 7.77830556035041809082e-02) (134, -5.09692609310150146484e-01) (135, -3.21988910436630249023e-01) (136, 3.97246688604354858398e-01) (137, 1.25611111521720886230e-01) (138, 1.96944564580917358398e-01) (139, 1.24506421387195587158e-01) (140, 2.42854982614517211914e-01) (141, 6.93421244621276855469e-01) (142, -3.71552526950836181641e-01) (143, -2.67966449260711669922e-01) (144, 9.08005535602569580078e-01) (145, -3.51532429456710815430e-01) (146, -2.63695359230041503906e-01) (147, -2.43789143860340118408e-03) (148, 3.50474417209625244141e-01) (149, 1.13977715373039245605e-01) (150, 6.73112794756889343262e-02) (151, -7.11308002471923828125e-01) (152, -1.89784899353981018066e-01) (153, 9.86396908760070800781e-01) (154, -6.99607431888580322266e-01) (155, -6.77912831306457519531e-01) (156, -7.66129612922668457031e-01) (157, -7.92394429445266723633e-02) (158, -3.49198222160339355469e-01) (159, 7.16163516044616699219e-02) (160, 4.00645434856414794922e-01) (161, 2.12533116340637207031e-01) (162, -1.01438060402870178223e-01) (163, -1.09203770756721496582e-01) (164, -2.98951220512390136719e+00) (165, -2.35350951552391052246e-01) (166, -8.81931781768798828125e-02) (167, -1.09332358837127685547e+00) (168, -1.42128378152847290039e-01) (169, -1.89243420958518981934e-01) (170, 3.41376252472400665283e-02) (171, -7.95411039143800735474e-03) (172, -1.34524548053741455078e+00) (173, -5.84526360034942626953e-01) (174, -1.65135502815246582031e-01) (175, -3.97507727146148681641e-01) (176, 1.29772871732711791992e-01) (177, -9.38833579421043395996e-02) (178, -4.01611298322677612305e-01) (179, -1.61035090684890747070e-01) (180, -4.77339088916778564453e-01) (181, -2.28979494422674179077e-02) (182, -2.48191908001899719238e-01) (183, -7.26522207260131835938e-01) (184, 1.32722616195678710938e-01) (185, 1.76739897578954696655e-02) (186, -4.34710443019866943359e-01) (187, 8.29840078949928283691e-02) (188, -3.87732297182083129883e-01) (189, 1.50798112154006958008e-01) (190, -2.84456849098205566406e-01) (191, -9.66586828231811523438e-01) (192, -1.58321231603622436523e-01) (193, -3.10897171497344970703e-01) (194, 3.99959057569503784180e-01) (195, 5.16888022422790527344e-01) (196, -6.97241902351379394531e-01) (197, 3.92985910177230834961e-01) (198, 2.11598128080368041992e-01) (199, 4.23071384429931640625e-01) (200, -3.18963080644607543945e-02) (201, 3.11249345541000366211e-01) (202, 7.39950716495513916016e-01) (203, 3.91428291797637939453e-01) (204, 5.28965592384338378906e-01) (205, 6.73300445079803466797e-01) (206, 4.44158166646957397461e-01) (207, -6.16186037659645080566e-02) (208, -2.34135317802429199219e+00) (209, 9.30278837680816650391e-01) (210, -8.01235914230346679688e-01) (211, -6.06748580932617187500e-01) (212, 2.68975853919982910156e-01) (213, 4.26189899444580078125e-02) (214, -7.44501590728759765625e-01) (215, -5.78726351261138916016e-01) (216, 2.01608259230852127075e-02) (217, -7.24125564098358154297e-01) (218, 1.62695810198783874512e-01) (219, 5.55717289447784423828e-01) (220, -1.66527360677719116211e-01) (221, -2.63689965009689331055e-01) (222, 2.45517671108245849609e-01) (223, -1.68469429016113281250e-01) (224, -4.07087266445159912109e-01) (225, 6.50738537311553955078e-01) (226, 7.69458189606666564941e-02) (227, 1.56182333827018737793e-01) (228, 3.31383608281612396240e-02) (229, 1.57429015636444091797e+00) (230, 8.56121182441711425781e-01) (231, 1.11472398042678833008e-01) (232, 7.51592993736267089844e-01) (233, -1.49239110946655273438e+00) (234, -4.00980770587921142578e-01) (235, 1.40145993232727050781e+00) (236, 5.72879195213317871094e-01) (237, 8.47680389881134033203e-01) (238, 1.32724928855895996094e+00) (239, 6.07896089553833007813e-01) (240, 7.55435407161712646484e-01) (241, 5.27085289359092712402e-02) (242, 1.04856893420219421387e-01) (243, 3.11562806367874145508e-01) (244, 2.03345976769924163818e-02) (245, 6.34691834449768066406e-01) (246, 9.34321060776710510254e-02) (247, 1.44135802984237670898e-01) (248, -5.66191859543323516846e-02) (249, 9.99843358993530273438e-01) (250, 9.50688242912292480469e-01) (251, -1.08479537069797515869e-01) (252, 1.65236294269561767578e-01) (253, 3.57945948839187622070e-01) (254, 3.28958451747894287109e-01) (255, -5.75418174266815185547e-01) (256, -6.27999007701873779297e-01) (0, 2.25592046976089477539e-01) (1, 1.66469141840934753418e-01) (2, 1.79887220263481140137e-01) (3, 6.67211785912513732910e-02) (4, 1.94373518228530883789e-01) (5, 2.51403357833623886108e-02) (6, 1.17062859237194061279e-01) (7, 1.12535655498504638672e-01) (8, -9.59095433354377746582e-02) (9, -1.58117949962615966797e-01) (10, -3.03501397371292114258e-01) (11, 2.83920187503099441528e-02) (12, 5.13731166720390319824e-02) (13, -2.02154135331511497498e-03) (14, 7.19410330057144165039e-02) (15, -3.25513929128646850586e-02) (16, -1.63422763347625732422e-01) (17, -2.11160272359848022461e-01) (18, 2.67978906631469726563e-01) (19, 2.69890874624252319336e-01) (20, 5.56340456008911132813e-01) (21, 3.75551491975784301758e-01) (22, -2.37890765070915222168e-01) (23, -1.15569427609443664551e-01) (24, 1.10318772494792938232e-01) (25, 8.79070833325386047363e-02) (26, -3.85303884744644165039e-01) (27, 1.84746176004409790039e-01) (28, -1.99837654829025268555e-01) (29, 2.35585216432809829712e-02) (30, 2.10207045078277587891e-01) (31, 2.99723476171493530273e-01) (32, 1.85517460107803344727e-01) (33, -1.27563953399658203125e-01) (34, -2.82056689262390136719e-01) (35, -4.77478891611099243164e-01) (36, 2.58030205965042114258e-01) (37, -2.31831520795822143555e-01) (38, 1.53949156403541564941e-01) (39, 1.44647911190986633301e-01) (40, 2.38317057490348815918e-01) (41, 1.58580958843231201172e-01) (42, -2.63912715017795562744e-02) (43, 3.27246159315109252930e-01) (44, 1.11921817064285278320e-01) (45, -5.25721490383148193359e-01) (46, 5.66123574972152709961e-02) (47, -1.96036294102668762207e-01) (48, 2.73416633717715740204e-03) (49, 1.07422150671482086182e-01) (50, -5.18166303634643554688e-01) (51, -3.97171825170516967773e-01) (52, 2.34638169407844543457e-01) (53, -3.39711129665374755859e-01) (54, 4.22121405601501464844e-01) (55, -2.30940520763397216797e-01) (56, -3.12351826578378677368e-02) (57, 1.90038025379180908203e-01) (58, -1.50920942425727844238e-01) (59, -7.71765559911727905273e-02) (60, -4.40926074981689453125e-01) (61, -1.82279333472251892090e-01) (62, 3.56889367103576660156e-02) (63, -1.22747950255870819092e-01) (64, -2.67256110906600952148e-01) (65, 2.77549326419830322266e-01) (66, -3.07110548019409179688e-01) (67, 7.07947909832000732422e-02) (68, -5.01908779144287109375e-01) (69, -2.43272960186004638672e-01) (70, 1.21619272232055664063e+00) (71, 1.53223767876625061035e-01) (72, -4.09059152007102966309e-02) (73, -9.41153645515441894531e-01) (74, 7.28969573974609375000e-01) (75, 3.86771589517593383789e-01) (76, -2.09629595279693603516e-01) (77, -2.66613364219665527344e-01) (78, 6.07891380786895751953e-01) (79, 6.19108855724334716797e-01) (80, -1.18694975972175598145e-01) (81, 9.43563520908355712891e-01) (82, 3.02249398082494735718e-02) (83, 8.39032083749771118164e-02) (84, 1.72537893056869506836e-01) (85, 1.69067010283470153809e-01) (86, 1.04385769367218017578e+00) (87, 9.93784368038177490234e-02) (88, 2.21856795251369476318e-02) (89, 4.03981477022171020508e-01) (90, -2.72077202796936035156e-01) (91, -4.63394552469253540039e-01) (92, -8.12588259577751159668e-02) (93, 4.18603897094726562500e-01) (94, 2.40067273378372192383e-01) (95, 1.03538477420806884766e+00) (96, 3.29055368900299072266e-01) (97, -1.87851220369338989258e-01) (98, -2.05812484025955200195e-01) (99, -2.41051390767097473145e-01) (100, -8.08495640754699707031e-01) (101, -4.99794512987136840820e-01) (102, 4.58215385675430297852e-01) (103, 1.10110893845558166504e-01) (104, 2.35054999589920043945e-01) (105, -2.46666729450225830078e-01) (106, -6.11231684684753417969e-01) (107, -9.10903930664062500000e-01) (108, -8.06692719459533691406e-01) (109, -6.81063592433929443359e-01) (110, 4.19651627540588378906e-01) (111, 1.96333795785903930664e-01) (112, 1.20856709778308868408e-01) (113, 5.12773573398590087891e-01) (114, 1.43482312560081481934e-01) (115, -6.52006387710571289063e-01) (116, 1.78896725177764892578e-01) (117, 3.57351601123809814453e-02) (118, -1.96732088923454284668e-01) (119, 8.30996707081794738770e-02) (120, -2.87348628044128417969e-01) (121, -1.35397344827651977539e-01) (122, -7.71537004038691520691e-03) (123, -1.02068550884723663330e-01) (124, -3.15100461244583129883e-01) (125, 1.47856742143630981445e-01) (126, -7.43776202201843261719e-01) (127, -1.19925729930400848389e-01) (128, -3.85201722383499145508e-01) (129, -4.44159746170043945313e-01) (130, -7.17900739982724189758e-03) (131, -6.53902173042297363281e-01) (132, -1.35169878602027893066e-01) (133, 3.33100944757461547852e-01) (134, 1.52584388852119445801e-01) (135, 1.77941277623176574707e-01) (136, -8.70962291955947875977e-02) (137, 8.78064054995775222778e-03) (138, 2.05381169915199279785e-01) (139, -6.97811841964721679688e-01) (140, -2.95914292335510253906e-01) (141, 2.74946868419647216797e-01) (142, -2.00287491083145141602e-01) (143, -1.60333096981048583984e-01) (144, -5.47007799148559570313e-01) (145, 2.63102978467941284180e-01) (146, -6.14054441452026367188e-01) (147, -6.45353674888610839844e-01) (148, -3.61252427101135253906e-01) (149, 1.50889113545417785645e-01) (150, -3.81709158420562744141e-01) (151, 1.64132267236709594727e-01) (152, 5.41421957314014434814e-02) (153, 1.98762014508247375488e-01) (154, -6.68020427227020263672e-01) (155, -8.02511692047119140625e-01) (156, -1.87699973583221435547e-01) (157, -9.58396047353744506836e-02) (158, -1.64182215929031372070e-01) (159, 2.67586648464202880859e-01) (160, 2.53903359174728393555e-01) (161, 2.55041748285293579102e-01) (162, -4.11298334598541259766e-01) (163, 1.90158605575561523438e-01) (164, 2.18402184545993804932e-02) (165, 5.82119524478912353516e-01) (166, -3.61002087593078613281e-01) (167, 9.12291467189788818359e-01) (168, -1.70841574668884277344e-01) (169, 8.97754609584808349609e-01) (170, 1.34322673082351684570e-01) (171, -3.18350523710250854492e-01) (172, -3.16539913415908813477e-01) (173, 1.02420486509799957275e-01) (174, -4.10704910755157470703e-01) (175, 2.81691431999206542969e-01) (176, 3.35645049810409545898e-01) (177, 6.79180085659027099609e-01) (178, -9.23734083771705627441e-02) (179, -5.09447038173675537109e-01) (180, 5.97656816244125366211e-02) (181, -6.56137913465499877930e-02) (182, 2.29526489973068237305e-01) (183, -5.00682651996612548828e-01) (184, 1.22770190238952636719e-01) (185, 1.79463028907775878906e-01) (186, 4.63096052408218383789e-01) (187, -2.16279402375221252441e-01) (188, 1.02991104125976562500e+00) (189, -2.14863836765289306641e-01) (190, 1.57676175236701965332e-01) (191, 1.13400056958198547363e-01) (192, -8.10691714286804199219e-01) (193, -3.53624314069747924805e-01) (194, 3.12443286180496215820e-01) (195, -1.85105383396148681641e-01) (196, 3.27637344598770141602e-01) (197, 3.74925822019577026367e-01) (198, -5.31946420669555664063e-01) (199, -9.57604218274354934692e-03) (200, 4.89030629396438598633e-01) (201, -7.40381002426147460938e-01) (202, -1.65374055504798889160e-02) (203, -2.19512403011322021484e-01) (204, -7.45894134044647216797e-01) (205, 3.88268351554870605469e-01) (206, -2.14622110128402709961e-01) (207, 5.21102771162986755371e-02) (208, 3.54808181524276733398e-01) (209, -8.29143524169921875000e-02) (210, -7.42517113685607910156e-02) (211, 5.40667355060577392578e-01) (212, -1.11745804548263549805e-01) (213, -1.34297206997871398926e-01) (214, -1.72015771269798278809e-01) (215, 2.34598815441131591797e-02) (216, -1.10645294189453125000e-01) (217, 5.91090992093086242676e-02) (218, 3.39575052261352539063e-01) (219, -5.59496760368347167969e-01) (220, -5.65071702003479003906e-01) (221, -3.10247018933296203613e-02) (222, -5.64912199974060058594e-01) (223, 2.15307205915451049805e-01) (224, -2.16859221458435058594e-01) (225, -2.38432526588439941406e-01) (226, 2.67399013042449951172e-01) (227, 3.20684611797332763672e-01) (228, 4.68054592609405517578e-01) (229, 1.94705277681350708008e-02) (230, 5.53785145282745361328e-01) (231, 8.27383697032928466797e-01) (232, 4.05939549207687377930e-01) (233, -3.92546862363815307617e-01) (234, 7.96547472476959228516e-01) (235, 4.51615527272224426270e-02) (236, 1.61533355712890625000e-01) (237, 1.19519948959350585938e+00) (238, 1.98313951492309570313e-01) (239, 2.71944701671600341797e-01) (240, -6.04126155376434326172e-01) (241, -2.27825939655303955078e-01) (242, 2.69594248384237289429e-02) (243, 4.68556880950927734375e-02) (244, 1.60979092121124267578e-01) (245, -1.56895518302917480469e-01) (246, 2.26019635796546936035e-01) (247, -8.66947472095489501953e-02) (248, -7.28435337543487548828e-01) (249, -2.02147439122200012207e-01) (250, -1.01749412715435028076e-02) (251, 2.30875089764595031738e-01) (252, -2.59942770004272460938e-01) (253, 1.89687520265579223633e-01) (254, 2.00040280818939208984e-01) (255, 3.25212270021438598633e-01) (256, 6.12557888031005859375e-01) (0, 1.28719019889831542969e+00) (1, 1.22838902473449707031e+00) (2, 1.19225800037384033203e+00) (3, 1.52623081207275390625e+00) (4, 1.51122832298278808594e+00) (5, 1.41034960746765136719e+00) (6, 1.47355771064758300781e+00) (7, 1.53336572647094726563e+00) (8, 1.47045588493347167969e+00) (9, 1.03606569766998291016e+00) (10, 9.64835762977600097656e-01) (11, 1.04181683063507080078e+00) (12, 8.96730840206146240234e-01) (13, 1.20856201648712158203e+00) (14, 1.08017444610595703125e+00) (15, 1.24015235900878906250e+00) (16, 1.84120256453752517700e-02) (17, 5.69562852382659912109e-01) (18, 3.98019582033157348633e-01) (19, -1.05757437646389007568e-01) (20, 2.97041177749633789063e-01) (21, 5.57929098606109619141e-01) (22, 1.64897024631500244141e-01) (23, 8.84039402008056640625e-01) (24, 6.75176918506622314453e-01) (25, 3.07422488927841186523e-01) (26, 2.54552185535430908203e-01) (27, -7.85327553749084472656e-01) (28, 2.39404007792472839355e-01) (29, -7.31481373310089111328e-01) (30, 3.91779422760009765625e-01) (31, 6.38151943683624267578e-01) (32, -1.25953400135040283203e+00) (33, -4.15548890829086303711e-01) (34, 1.41896140575408935547e+00) (35, -5.34206104278564453125e+00) (36, -4.04732108116149902344e-01) (37, -8.47250103950500488281e-01) (38, 5.36837518215179443359e-01) (39, 2.06450080871582031250e+00) (40, -1.24561071395874023438e+00) (41, 1.01080381870269775391e+00) (42, 4.49957460165023803711e-01) (43, -7.89601802825927734375e+00) (44, -3.46261978149414062500e-01) (45, 1.28398314118385314941e-02) (46, -2.56293797492980957031e+00) (47, 4.43091660737991333008e-01) (48, 6.61210775375366210938e-01) (49, -9.87082362174987792969e-01) (50, 7.96682953834533691406e-01) (51, -3.97663307189941406250e+00) (52, -4.97072547674179077148e-01) (53, 2.35984176397323608398e-01) (54, 7.77733623981475830078e-01) (55, 5.20912349224090576172e-01) (56, -1.54157137870788574219e+00) (57, 2.48269987106323242188e+00) (58, -7.54224583506584167480e-02) (59, -5.03162026405334472656e-01) (60, -2.68702101707458496094e+00) (61, 6.98711872100830078125e-01) (62, -1.04066705703735351563e+00) (63, -1.07559919357299804688e+00) (64, 1.23147964477539062500e+00) (65, -5.90536713600158691406e-01) (66, 1.89524054527282714844e+00) (67, -2.24579587578773498535e-01) (68, -7.01028823852539062500e+00) (69, 4.82354736328125000000e+00) (70, -1.75827741622924804688e-01) (71, -2.45325374603271484375e+00) (72, 8.83124649524688720703e-01) (73, 1.53686678409576416016e+00) (74, 3.25381010770797729492e-01) (75, -7.55949926376342773438e+00) (76, -6.35414552688598632813e+00) (77, -1.98142039775848388672e+00) (78, 7.00481295585632324219e-01) (79, -1.13658785820007324219e+00) (80, 4.73937606811523437500e+00) (81, 2.52125239372253417969e+00) (82, 5.29122352600097656250e-01) (83, -1.34111747741699218750e+01) (84, -2.50795173645019531250e+00) (85, 3.55423855781555175781e+00) (86, 1.87561476230621337891e+00) (87, -6.18966102600097656250e-01) (88, 1.25026547908782958984e+00) (89, -4.72286820411682128906e-01) (90, 4.45595800876617431641e-01) (91, -4.40489578247070312500e+00) (92, 1.01843607425689697266e+00) (93, 1.39214158058166503906e+00) (94, -3.61741948127746582031e+00) (95, -3.44465065002441406250e+00) (96, 4.21954011917114257813e+00) (97, 3.15984153747558593750e+00) (98, 1.77856779098510742188e+00) (99, -4.56128388643264770508e-01) (100, 4.46304172277450561523e-01) (101, 4.37420845031738281250e+00) (102, -1.43420851230621337891e+00) (103, 2.96352481842041015625e+00) (104, 3.18227028846740722656e+00) (105, 3.02307426929473876953e-01) (106, 2.52624571323394775391e-01) (107, 7.90320932865142822266e-01) (108, 9.24811720848083496094e-01) (109, -6.06447279453277587891e-01) (110, 1.54142379760742187500e+00) (111, -7.38945186138153076172e-01) (112, 1.40808784961700439453e+00) (113, -2.33975195884704589844e+00) (114, 3.08876538276672363281e+00) (115, 8.26258480548858642578e-01) (116, -1.55449002981185913086e-01) (117, 1.97482836246490478516e+00) (118, 9.06618297100067138672e-01) (119, 3.54604482650756835938e-01) (120, 1.82259595394134521484e+00) (121, 7.69925415515899658203e-01) (122, -1.00746870040893554688e+00) (123, 1.65214443206787109375e+00) (124, 7.75633156299591064453e-01) (125, 7.17578887939453125000e-01) (126, -2.66327708959579467773e-01) (127, 8.58504772186279296875e-01) (128, 1.51225793361663818359e+00) (129, 3.81386375427246093750e+00) (130, -6.64877831935882568359e-01) (131, 1.96096384525299072266e+00) (132, 2.50593614578247070313e+00) (133, 2.31944513320922851563e+00) (134, -1.30109024047851562500e+00) (135, -3.81041812896728515625e+00) (136, -1.37959933280944824219e+00) (137, 7.34925031661987304688e-01) (138, -7.65966475009918212891e-02) (139, 1.20299077033996582031e+00) (140, -1.15674340724945068359e+00) (141, 1.38125419616699218750e+00) (142, 3.32958149909973144531e+00) (143, 5.69823265075683593750e+00) (144, -5.28047621250152587891e-01) (145, -2.50301718711853027344e+00) (146, -4.25573492050170898438e+00) (147, -7.14857101440429687500e-01) (148, -7.92032361030578613281e-01) (149, 3.28683781623840332031e+00) (150, -5.69875776767730712891e-01) (151, -2.09046578407287597656e+00) (152, -1.03289628028869628906e+00) (153, -6.75678491592407226563e-01) (154, 4.63550895452499389648e-01) (155, 5.05183458328247070313e-01) (156, 2.44951915740966796875e+00) (157, 5.30716538429260253906e-01) (158, -6.52459442615509033203e-01) (159, 1.94230031967163085938e+00) (160, -7.51986861228942871094e-01) (161, -1.81087148189544677734e+00) (162, 9.02822971343994140625e-01) (163, 5.10442376136779785156e-01) (164, 1.06587481498718261719e+00) (165, -1.87354195117950439453e+00) (166, -9.30698096752166748047e-01) (167, -2.08675551414489746094e+00) (168, 1.72348105907440185547e+00) (169, -5.84986209869384765625e-01) (170, -4.28164863586425781250e+00) (171, -1.62178623676300048828e+00) (172, 2.75484681129455566406e-01) (173, -2.67408847808837890625e-01) (174, 8.08952987194061279297e-01) (175, -7.57812321186065673828e-01) (176, 1.79321908950805664063e+00) (177, 4.65687245130538940430e-01) (178, 1.79340028762817382813e+00) (179, -2.49271178245544433594e+00) (180, 6.00700676441192626953e-02) (181, -1.11638236045837402344e+00) (182, 1.67096352577209472656e+00) (183, 3.90803843736648559570e-01) (184, -2.66268253326416015625e-01) (185, 1.84635293483734130859e+00) (186, -2.82221293449401855469e+00) (187, -2.39124917984008789063e+00) (188, -6.01811456680297851563e+00) (189, 9.35631096363067626953e-01) (190, 1.21609759330749511719e+00) (191, -2.44783592224121093750e+00) (192, -9.93392527103424072266e-01) (193, -6.95659518241882324219e-01) (194, -1.42918360233306884766e+00) (195, -6.34320354461669921875e+00) (196, -5.30852365493774414063e+00) (197, -2.75208425521850585938e+00) (198, 3.84405910968780517578e-01) (199, 6.37384355068206787109e-01) (200, 3.61279994249343872070e-01) (201, -2.88312339782714843750e+00) (202, 2.63714718818664550781e+00) (203, -1.89348983764648437500e+00) (204, 3.58296823501586914063e+00) (205, -1.98045766353607177734e+00) (206, 1.08639144897460937500e+00) (207, 1.82868432998657226563e+00) (208, 9.49141502380371093750e-01) (209, 7.99280261993408203125e+00) (210, -2.19785642623901367188e+00) (211, -5.55593013763427734375e-01) (212, 1.32409346103668212891e+00) (213, 2.00631797313690185547e-01) (214, 3.72474503517150878906e+00) (215, 1.01640939712524414063e+00) (216, 6.59895420074462890625e-01) (217, -1.11687231063842773438e+00) (218, -4.69270563125610351563e+00) (219, -9.50380611419677734375e+00) (220, -6.66389131546020507813e+00) (221, -1.98101961612701416016e+00) (222, 3.50583225488662719727e-01) (223, -1.27305734157562255859e+00) (224, 1.69953072071075439453e+00) (225, -2.39907813072204589844e+00) (226, 5.10919630527496337891e-01) (227, -2.89908838272094726563e+00) (228, -3.95636916160583496094e+00) (229, -3.62741160392761230469e+00) (230, 2.28884458541870117188e+00) (231, -1.87598943710327148438e-01) (232, 1.04781508445739746094e+00) (233, -8.93564581871032714844e-01) (234, 8.69952321052551269531e-01) (235, -3.49530816078186035156e-01) (236, -2.25032854080200195313e+00) (237, -1.63738226890563964844e+00) (238, 2.93327897787094116211e-01) (239, 1.11439979076385498047e+00) (240, 3.65426707267761230469e+00) (241, -1.47545058280229568481e-02) (242, 6.37030243873596191406e-01) (243, -2.05856680870056152344e+00) (244, 1.02390654385089874268e-01) (245, 1.94132775068283081055e-01) (246, 2.59849119186401367188e+00) (247, 1.07269179821014404297e+00) (248, 1.20840692520141601563e+00) (249, -9.15298461914062500000e-02) (250, 1.21236276626586914063e+00) (251, 1.14960813522338867188e+00) (252, 8.07011485099792480469e-01) (253, 8.26617002487182617188e-01) (254, 1.53026044368743896484e+00) (255, 4.66811370849609375000e+00) (256, 1.41233193874359130859e+00) (257, -5.68182468414306640625e+00) (258, 1.45369482040405273438e+01) (259, -1.32176284790039062500e+01) (260, 6.85530960559844970703e-01) (261, -1.96195292472839355469e+00) (257, 1.42404069900512695313e+01) (258, -9.92440986633300781250e+00) (259, 6.24675512313842773438e+00) (260, 1.44346380233764648438e+00) (261, -1.12199032306671142578e+00) (257, 5.20930290222167968750e+00) (258, 2.44348049163818359375e+00) (259, 1.41245832443237304688e+01) (260, 1.13034543991088867188e+01) (261, 1.58439791202545166016e+00) (257, -4.84885740280151367188e+00) (258, 1.06932830810546875000e+00) (259, 7.65302658081054687500e-01) (260, -1.80397784709930419922e+00) (261, -7.23556458950042724609e-01) (262, 7.10467834472656250000e+02) (263, 6.52316223144531250000e+02) (264, -2.87599487304687500000e+02) (265, 1.18319628906250000000e+03) (266, 2.21209381103515625000e+02) 
